<?xml version="1.0"?>
<MethodSetup Method="MLP::MLP_pu6_e">
  <GeneralInfo>
    <Info name="TMVA Release" value="4.2.1 [262657]"/>
    <Info name="ROOT Release" value="6.06/02 [394754]"/>
    <Info name="Creator" value="mouginot"/>
    <Info name="Date" value="Mon Jul 17 12:15:49 2017"/>
    <Info name="Host" value="Linux kermit 4.4.0-71-generic #92-Ubuntu SMP Fri Mar 24 12:59:01 UTC 2017 x86_64 x86_64 x86_64 GNU/Linux"/>
    <Info name="Dir" value="/home/mouginot/work/MODEL/MODEL_DATA/MOX_TRU_MODELS/PWR_TRU/Pu6"/>
    <Info name="Training events" value="198960"/>
    <Info name="TrainingTime" value="5.84205872e+04"/>
    <Info name="AnalysisType" value="Regression"/>
  </GeneralInfo>
  <Options>
    <Option name="NCycles" modified="Yes">16000</Option>
    <Option name="HiddenLayers" modified="Yes">18,21,9</Option>
    <Option name="NeuronType" modified="Yes">sigmoid</Option>
    <Option name="RandomSeed" modified="No">1</Option>
    <Option name="EstimatorType" modified="No">MSE</Option>
    <Option name="NeuronInputType" modified="No">sum</Option>
    <Option name="V" modified="Yes">True</Option>
    <Option name="VerbosityLevel" modified="No">Verbose</Option>
    <Option name="VarTransform" modified="Yes">Norm</Option>
    <Option name="H" modified="Yes">False</Option>
    <Option name="CreateMVAPdfs" modified="No">False</Option>
    <Option name="IgnoreNegWeightsInTraining" modified="No">False</Option>
    <Option name="TrainingMethod" modified="Yes">BFGS</Option>
    <Option name="LearningRate" modified="Yes">1.000000e-01</Option>
    <Option name="DecayRate" modified="No">1.000000e-02</Option>
    <Option name="TestRate" modified="Yes">6</Option>
    <Option name="EpochMonitoring" modified="No">False</Option>
    <Option name="Sampling" modified="Yes">5.000000e-01</Option>
    <Option name="SamplingEpoch" modified="Yes">8.000000e-01</Option>
    <Option name="SamplingImportance" modified="No">1.000000e+00</Option>
    <Option name="SamplingTraining" modified="No">True</Option>
    <Option name="SamplingTesting" modified="No">False</Option>
    <Option name="ResetStep" modified="No">50</Option>
    <Option name="Tau" modified="No">3.000000e+00</Option>
    <Option name="BPMode" modified="No">sequential</Option>
    <Option name="BatchSize" modified="No">-1</Option>
    <Option name="ConvergenceImprove" modified="Yes">1.000000e-06</Option>
    <Option name="ConvergenceTests" modified="Yes">15</Option>
    <Option name="UseRegulator" modified="Yes">False</Option>
    <Option name="UpdateLimit" modified="No">10000</Option>
    <Option name="CalculateErrors" modified="No">False</Option>
    <Option name="WeightRange" modified="No">1.000000e+00</Option>
  </Options>
  <Variables NVar="17">
    <Variable VarIndex="0" Expression="235U" Label="235U" Title="235U" Unit="IsotopicFraction" Internal="235U" Type="F" Min="1.71346517e-06" Max="1.92414057e-02"/>
    <Variable VarIndex="1" Expression="238U" Label="238U" Title="238U" Unit="IsotopicFraction" Internal="238U" Type="F" Min="7.85399854e-01" Max="9.68733251e-01"/>
    <Variable VarIndex="2" Expression="237Np" Label="237Np" Title="237Np" Unit="IsotopicFraction" Internal="237Np" Type="F" Min="1.63990119e-08" Max="1.97294168e-04"/>
    <Variable VarIndex="3" Expression="238Pu" Label="238Pu" Title="238Pu" Unit="IsotopicFraction" Internal="238Pu" Type="F" Min="4.69728775e-07" Max="3.96428024e-03"/>
    <Variable VarIndex="4" Expression="239Pu" Label="239Pu" Title="239Pu" Unit="IsotopicFraction" Internal="239Pu" Type="F" Min="2.15940680e-02" Max="1.89886928e-01"/>
    <Variable VarIndex="5" Expression="240Pu" Label="240Pu" Title="240Pu" Unit="IsotopicFraction" Internal="240Pu" Type="F" Min="1.54567579e-06" Max="3.95636074e-02"/>
    <Variable VarIndex="6" Expression="241Pu" Label="241Pu" Title="241Pu" Unit="IsotopicFraction" Internal="241Pu" Type="F" Min="3.22813172e-08" Max="7.04628276e-03"/>
    <Variable VarIndex="7" Expression="242Pu" Label="242Pu" Title="242Pu" Unit="IsotopicFraction" Internal="242Pu" Type="F" Min="1.58277174e-07" Max="1.98803633e-03"/>
    <Variable VarIndex="8" Expression="241Am" Label="241Am" Title="241Am" Unit="IsotopicFraction" Internal="241Am" Type="F" Min="3.13082671e-10" Max="7.48056592e-03"/>
    <Variable VarIndex="9" Expression="242Amm" Label="242Amm" Title="242Amm" Unit="IsotopicFraction" Internal="242Amm" Type="F" Min="1.34159976e-07" Max="1.16249369e-02"/>
    <Variable VarIndex="10" Expression="243Am" Label="243Am" Title="243Am" Unit="IsotopicFraction" Internal="243Am" Type="F" Min="2.04390229e-08" Max="1.99559363e-04"/>
    <Variable VarIndex="11" Expression="242Cm" Label="242Cm" Title="242Cm" Unit="IsotopicFraction" Internal="242Cm" Type="F" Min="1.48285639e-09" Max="1.93909858e-04"/>
    <Variable VarIndex="12" Expression="243Cm" Label="243Cm" Title="243Cm" Unit="IsotopicFraction" Internal="243Cm" Type="F" Min="9.09117492e-09" Max="1.97552916e-04"/>
    <Variable VarIndex="13" Expression="244Cm" Label="244Cm" Title="244Cm" Unit="IsotopicFraction" Internal="244Cm" Type="F" Min="2.46570231e-09" Max="1.97112051e-04"/>
    <Variable VarIndex="14" Expression="245Cm" Label="245Cm" Title="245Cm" Unit="IsotopicFraction" Internal="245Cm" Type="F" Min="9.47205692e-09" Max="1.97873349e-04"/>
    <Variable VarIndex="15" Expression="246Cm" Label="246Cm" Title="246Cm" Unit="IsotopicFraction" Internal="246Cm" Type="F" Min="2.33963915e-09" Max="1.98596885e-04"/>
    <Variable VarIndex="16" Expression="Time" Label="Time" Title="Time" Unit="seconds" Internal="Time" Type="F" Min="0.00000000e+00" Max="1.89328320e+08"/>
  </Variables>
  <Spectators NSpec="0"/>
  <Classes NClass="1">
    <Class Name="Regression" Index="0"/>
  </Classes>
  <Targets NTrgt="1">
    <Target TargetIndex="0" Expression="pu6_e" Label="pu6_e" Title="pu6_e" Unit="" Internal="pu6_e" Type="F" Min="0.00000000e+00" Max="4.22648387e+17"/>
  </Targets>
  <Transformations NTransformations="1">
    <Transform Name="Normalize">
      <Selection>
        <Input NInputs="18">
          <Input Type="Variable" Label="235U" Expression="235U"/>
          <Input Type="Variable" Label="238U" Expression="238U"/>
          <Input Type="Variable" Label="237Np" Expression="237Np"/>
          <Input Type="Variable" Label="238Pu" Expression="238Pu"/>
          <Input Type="Variable" Label="239Pu" Expression="239Pu"/>
          <Input Type="Variable" Label="240Pu" Expression="240Pu"/>
          <Input Type="Variable" Label="241Pu" Expression="241Pu"/>
          <Input Type="Variable" Label="242Pu" Expression="242Pu"/>
          <Input Type="Variable" Label="241Am" Expression="241Am"/>
          <Input Type="Variable" Label="242Amm" Expression="242Amm"/>
          <Input Type="Variable" Label="243Am" Expression="243Am"/>
          <Input Type="Variable" Label="242Cm" Expression="242Cm"/>
          <Input Type="Variable" Label="243Cm" Expression="243Cm"/>
          <Input Type="Variable" Label="244Cm" Expression="244Cm"/>
          <Input Type="Variable" Label="245Cm" Expression="245Cm"/>
          <Input Type="Variable" Label="246Cm" Expression="246Cm"/>
          <Input Type="Variable" Label="Time" Expression="Time"/>
          <Input Type="Target" Label="pu6_e" Expression="pu6_e"/>
        </Input>
        <Output NOutputs="18">
          <Output Type="Variable" Label="235U" Expression="235U"/>
          <Output Type="Variable" Label="238U" Expression="238U"/>
          <Output Type="Variable" Label="237Np" Expression="237Np"/>
          <Output Type="Variable" Label="238Pu" Expression="238Pu"/>
          <Output Type="Variable" Label="239Pu" Expression="239Pu"/>
          <Output Type="Variable" Label="240Pu" Expression="240Pu"/>
          <Output Type="Variable" Label="241Pu" Expression="241Pu"/>
          <Output Type="Variable" Label="242Pu" Expression="242Pu"/>
          <Output Type="Variable" Label="241Am" Expression="241Am"/>
          <Output Type="Variable" Label="242Amm" Expression="242Amm"/>
          <Output Type="Variable" Label="243Am" Expression="243Am"/>
          <Output Type="Variable" Label="242Cm" Expression="242Cm"/>
          <Output Type="Variable" Label="243Cm" Expression="243Cm"/>
          <Output Type="Variable" Label="244Cm" Expression="244Cm"/>
          <Output Type="Variable" Label="245Cm" Expression="245Cm"/>
          <Output Type="Variable" Label="246Cm" Expression="246Cm"/>
          <Output Type="Variable" Label="Time" Expression="Time"/>
          <Output Type="Target" Label="pu6_e" Expression="pu6_e"/>
        </Output>
      </Selection>
      <Class ClassIndex="0">
        <Ranges>
          <Range Index="0" Min="1.7134651670858148e-06" Max="1.9241405650973320e-02"/>
          <Range Index="1" Min="7.8539985418319702e-01" Max="9.6873325109481812e-01"/>
          <Range Index="2" Min="1.6399011926182538e-08" Max="1.9729416817426682e-04"/>
          <Range Index="3" Min="4.6972877498774324e-07" Max="3.9642802439630032e-03"/>
          <Range Index="4" Min="2.1594068035483360e-02" Max="1.8988692760467529e-01"/>
          <Range Index="5" Min="1.5456757864740212e-06" Max="3.9563607424497604e-02"/>
          <Range Index="6" Min="3.2281317174920332e-08" Max="7.0462827570736408e-03"/>
          <Range Index="7" Min="1.5827717447791656e-07" Max="1.9880363252013922e-03"/>
          <Range Index="8" Min="3.1308267089968922e-10" Max="7.4805659241974354e-03"/>
          <Range Index="9" Min="1.3415997557331139e-07" Max="1.1624936945736408e-02"/>
          <Range Index="10" Min="2.0439022918594674e-08" Max="1.9955936295446008e-04"/>
          <Range Index="11" Min="1.4828563932312022e-09" Max="1.9390985835343599e-04"/>
          <Range Index="12" Min="9.0911749239808159e-09" Max="1.9755291577894241e-04"/>
          <Range Index="13" Min="2.4657023089957875e-09" Max="1.9711205095518380e-04"/>
          <Range Index="14" Min="9.4720569165929192e-09" Max="1.9787334895227104e-04"/>
          <Range Index="15" Min="2.3396391490848600e-09" Max="1.9859688472934067e-04"/>
          <Range Index="16" Min="0.0000000000000000e+00" Max="1.8932832000000000e+08"/>
          <Range Index="17" Min="0.0000000000000000e+00" Max="4.2264838706665882e+17"/>
        </Ranges>
      </Class>
    </Transform>
  </Transformations>
  <MVAPdfs/>
  <Weights>
    <Layout NLayers="5">
      <Layer Index="0" NNeurons="18">
        <Neuron NSynapses="18">
          -3.3132425957385436e-01 9.1553593671594413e-01 -4.5227415813603671e-02 1.7215497432956400e-02 -7.6622484772643418e-01 -7.5801599042642986e-01 -5.4647347376710742e-01 2.9146286781152725e-01 -2.0968938092273630e+00 -7.3078355039773002e-01 -1.4874283990043833e+00 -1.5779198170239764e-02 -4.8825487976880461e-01 -4.5206212352716385e-01 7.8258401603444022e-02 5.9154555346684545e-01 -2.3162425800161836e-02 1.3181139740672634e+00 
        </Neuron>
        <Neuron NSynapses="18">
          3.3621961702380437e-01 1.6503228455843997e+00 -5.8913075406842830e-01 -1.3053338102964975e+00 7.4530090288110695e-02 2.1321308158918493e+00 -5.0167008275123781e-01 -3.5172508443092410e-01 2.5458730462081136e+00 -1.2750375570856964e+00 -2.0646639946079479e+00 -1.4663726338365901e-01 -3.9621274130375299e-02 9.8797210975503280e-01 -3.7550964772594408e-01 6.6678753264245538e-01 -4.8662548141693873e-01 -1.9969882120150165e-01 
        </Neuron>
        <Neuron NSynapses="18">
          -3.5978500826632853e-01 6.8133968262675551e-02 -1.6467460080910850e+00 -3.9649954674066304e-02 -6.5728477214901537e-01 9.1085726249707577e-01 1.6275074636949566e-01 5.2869155693725733e-01 4.4644186338019881e-01 -1.5247801090016275e+00 5.0701811090844295e-01 7.5580909691641468e-02 1.0646817636048904e+00 1.2097522048774203e+00 6.3224974286910846e-02 9.8433221299808193e-01 -5.5194540436158768e-01 -2.3767881513109052e-01 
        </Neuron>
        <Neuron NSynapses="18">
          -1.8780974978769790e-01 2.5314275616004267e-01 3.2838013241154061e-02 -9.9156476572551611e-01 -2.1282201153873345e-01 7.0833326486254691e-02 4.0451529678113128e-02 1.9493044832125841e-01 3.1533173399884112e-01 -5.6248225376198457e-01 2.6156316716321532e-01 -1.6901274845645530e-02 2.1962536922617504e-01 -5.2716317024792314e-01 -2.2222734196323410e-01 -5.0469624512444577e-01 -4.0751057756324915e-01 2.8563871278465081e-01 
        </Neuron>
        <Neuron NSynapses="18">
          3.1091535437002893e-01 1.1820332284079245e+00 1.1911888578913929e+00 -6.8849202973868973e-01 -1.7007817180898104e+00 -2.8375881491630892e+00 -7.3865185078447526e-01 6.6772882934205591e-01 1.8726033862357960e+00 4.9506893426308612e-01 5.5119260018933536e-01 -9.5242797593138140e-02 -3.8958489386082151e-02 6.4945967656893666e-01 1.8807445340189569e-01 -1.4669232455928440e+00 -1.1344733741974675e+00 -1.6784317021857644e+00 
        </Neuron>
        <Neuron NSynapses="18">
          2.2182587925939141e-02 5.6549314457935151e-01 9.8740394240461349e-01 -1.3502022252407131e-01 -6.5556704105937680e-01 2.5074273565184851e-01 -1.1673113531158889e-01 -3.0827565414473262e-01 1.9507845912473201e-01 -3.4118159062150583e-01 -1.1744552943866791e+00 6.3208468148180765e-03 -5.4666343741736911e-01 9.0069224849224905e-01 1.2954075496359821e-01 4.9511677148707456e-01 -5.2907357503651470e-02 -2.2050064898424704e-01 
        </Neuron>
        <Neuron NSynapses="18">
          -1.5685820833432330e-02 7.1162319139996655e-02 1.8910402097789675e-01 -6.5392468072618962e-02 -1.0857929506862235e-01 1.5466826502306097e-01 -8.1609985479513009e-02 2.5833355112381776e-02 1.1347078715878739e-03 -6.0179549277571909e-01 5.8906347023221983e-01 -9.8987657569204208e-03 1.8883306484576914e-01 -1.4996732867633783e-01 -1.3680555848752437e-02 5.7761291199231381e-02 -6.5716516855587506e-02 7.5908974970369358e-01 
        </Neuron>
        <Neuron NSynapses="18">
          -3.7865451708777461e-03 3.0691150368936757e-02 -1.5693115680724465e-01 3.1754708111389203e-02 -4.8225063530714485e-02 1.5114924456348411e-01 1.2908729174354488e-03 4.4231665680821035e-02 4.8549393734676309e-02 -9.3123189845294246e-02 6.0025025079515515e-01 2.1845232072537444e-03 -1.2402873258755372e-01 1.7181926981299739e-01 2.5760090107932103e-03 1.5521557411967238e-01 2.6283572049910036e-02 5.9836076849665842e-01 
        </Neuron>
        <Neuron NSynapses="18">
          -2.3680230884445283e-01 5.0464942763732812e-01 7.1573986212608942e-01 -4.2117430688716227e-02 -1.4741930364865214e+00 6.9745882243960777e-01 -1.5181886585289273e-01 5.5104413314585453e-02 -1.4918428028760811e-01 -2.5089880532512097e+00 1.1433494348116272e-01 1.6657675748525953e-03 2.9430156896076953e-01 -2.8238128321154782e-01 -2.7097254165319440e-01 1.5373737008406790e-01 4.0393656752451113e-01 5.2514417708448624e-01 
        </Neuron>
        <Neuron NSynapses="18">
          -7.9471431654429495e-03 6.6283770348473034e-02 -4.1599394019238189e-01 -7.3792782089819764e-01 1.2087614587323497e-01 -2.0417813714035354e-01 -1.1364261859384739e-01 2.6042657457006912e-01 1.2118750250907470e-01 -5.7604537938594291e-01 -1.0869780484441729e+00 5.2161790389841776e-02 4.4739305800150253e-01 4.3313399341407782e-01 3.5961840282634955e-01 1.5582513949711280e-01 4.3568007709126735e-02 -1.5260099217116579e-01 
        </Neuron>
        <Neuron NSynapses="18">
          -4.3045194366170955e-03 -5.1292407004517168e-03 -1.7438823920123592e-01 9.1910741171203125e-02 -5.2922830765007700e-02 1.1400017431533968e-01 7.5995327063212610e-03 4.5668037324377450e-02 7.5232438918577518e-02 -5.1047108661880491e-01 -5.0395349026915526e-01 5.3774917595762542e-03 -1.1706311354688913e-01 1.2036649737976136e-01 2.9740668838815328e-02 -4.8111563248883299e-02 1.3258656679595009e-02 -6.3059745688763214e-02 
        </Neuron>
        <Neuron NSynapses="18">
          -6.4900781141395622e-03 4.0687974020368603e-03 -1.9023167579730896e-02 -8.8065744439416144e-02 8.7986863105608673e-02 1.0718695025528826e-02 1.2342441507073705e-02 3.2787387041782766e-02 8.3519456454774384e-03 7.0689321899633881e-02 8.3440061719186626e-03 2.7630256060892562e-03 -7.2007674916307621e-02 1.4641255286234061e-02 -2.7354904550764086e-02 -9.4389481467013897e-02 4.2018887185453498e-02 2.5882765207688024e-01 
        </Neuron>
        <Neuron NSynapses="18">
          3.1178375396318167e-03 8.8795163840859771e-03 1.7039726428203503e-01 -1.6138558417622223e-01 -6.6683633462195019e-03 -8.3524160410348505e-02 -1.5804322207520208e-02 -7.6431257443568809e-02 -1.0902988643079932e-02 2.9256785899379915e-02 -4.4997866981560447e-01 8.5243747006147981e-04 1.8938689499925365e-01 -1.1835912442555532e-01 1.9359396416077708e-02 3.0032651202396198e-02 4.4073590786174316e-03 -3.4414633311133419e-01 
        </Neuron>
        <Neuron NSynapses="18">
          3.3288120477009916e-03 -1.4193029714937998e-03 1.1507928100976510e-01 -2.8472045340468047e-02 5.8297945655411028e-02 6.2402208019197341e-03 -5.0771415675489127e-03 -3.7592930716284195e-02 -3.5633950773320745e-02 -2.1030436407410594e-01 -1.0843116070529479e-01 -8.6486035965909099e-04 -1.0066330572300040e-01 -1.5311694151034855e-01 3.4284949997138714e-02 -1.6686851857012228e-01 -5.1457804980789654e-02 -6.4948254118490623e-01 
        </Neuron>
        <Neuron NSynapses="18">
          3.6436885656753980e-03 -1.5706889234099155e-02 -6.6348056778423356e-02 4.5573172176265907e-02 7.4093088402290591e-02 5.9525585575972102e-02 -7.8980684292650691e-03 -1.0729999530977363e-01 -8.7817648864122383e-02 -4.4521538247519388e-01 1.7996939379594862e-01 5.3815186835916747e-03 -6.9683184371325231e-03 -5.7656159211482455e-02 7.7779530200393909e-02 -2.1922126884766616e-01 -9.2656104763070096e-02 -3.5837087631029082e-03 
        </Neuron>
        <Neuron NSynapses="18">
          -2.7851299872496799e-03 -3.1560358937826660e-02 -6.3910881167403108e-02 -3.6972283864529679e-02 8.8836670250316274e-02 -2.1990302356121014e-01 5.1542213982079489e-03 1.6638315507420239e-02 1.1918218664473285e-02 -2.6991115833026003e-01 1.0503137121145027e-01 2.8696025608110861e-03 1.4511257983480904e-02 1.2687072158913656e-01 -6.9874525351424346e-03 3.4509224750690085e-02 9.0486710356354499e-02 6.8588966617877015e-02 
        </Neuron>
        <Neuron NSynapses="18">
          -1.9977157939369689e-01 1.6141529524422848e+00 -1.2827369402646789e+00 1.4320423658056587e+00 -1.0983382050353576e+00 1.0481112505964456e+00 1.3446750788778796e+00 -1.9209083311299666e+00 5.9370049657010215e-01 4.5661771308233412e-01 -1.4474580259528336e+00 -3.6890454825237962e+00 -6.6904390817935711e-01 -8.0406408961444609e-01 1.1216907736931285e+00 4.1352375238310857e-01 1.6095964504191747e+00 -2.0785777906840375e-01 
        </Neuron>
        <Neuron NSynapses="18">
          -8.3746770848433294e-01 -2.5894573940746488e+00 1.0150676951936966e+00 9.0656072993844328e-01 2.0568579802527007e+00 -4.0975652802409117e+00 5.3560531448339865e-01 1.4864206393475501e+00 -3.0913571016740802e+00 1.3675202948256791e+00 3.4052629714088591e+00 -4.1203694542593574e+00 2.0040577351700439e+00 7.4443349630278310e-01 1.0981506109200194e+00 -1.6757687651008464e+00 4.7164002097998925e-01 -2.2781846631666296e+00 
        </Neuron>
      </Layer>
      <Layer Index="1" NNeurons="19">
        <Neuron NSynapses="21">
          4.3313367797206609e-01 1.9971115449952728e+00 1.0450437293226613e+00 9.9613884414212028e-01 -1.5930251299800264e+00 1.4079188488874712e+00 -2.3330875412757384e+00 2.5024654850167636e+00 -3.1515308684139747e+00 -1.2905186368800183e+00 8.7405897896676932e-01 1.5348278095084296e+00 -1.4817602281149385e+00 3.1386490992009723e+00 3.2948399641510256e-01 -3.7233722486957932e-01 -1.9486721383713921e+00 2.0372099860443491e+00 3.3724740378424141e+00 -3.3697016103591904e+00 -2.1983466431180429e-01 
        </Neuron>
        <Neuron NSynapses="21">
          -4.8611066100426076e-01 -1.0153480886403012e+00 -3.7050587156248579e-02 3.1478562337963417e-01 -1.1187649064888197e+00 7.7685024101854583e-01 1.8687308606934276e+00 2.6390361439092785e-01 2.4054611396669179e-01 -8.7113414008968471e-01 -1.1179317558493496e+00 -2.6677695298606992e+00 1.0265567358754180e+00 -1.1607385260821834e+00 -1.2745688920590832e+00 6.4221590785889915e-01 -8.2104381322887376e-01 -1.1574685355422294e+00 -1.8446807940854657e+00 1.5337658218751216e+00 -1.1645998610972168e+00 
        </Neuron>
        <Neuron NSynapses="21">
          -8.0131924300480328e-01 -1.8623159164938652e-01 -1.0797012743707626e+00 -1.6846137688498337e+00 9.9475247730335836e-01 -2.0462276759743575e-01 -4.4352244809567193e-01 5.8782536472424551e-01 -4.1588090859825999e-01 7.6949442998843753e-01 1.1537090329754942e+00 9.0579057953355369e-01 8.0213207054642111e-01 -2.4247803399269716e-01 -9.9749772692234118e-01 -7.2689462106978775e-01 -8.8560496553669599e-01 1.4734149501644134e-01 6.6331847266190869e-01 3.0604095491057426e-01 2.4545303482578565e-03 
        </Neuron>
        <Neuron NSynapses="21">
          6.4698877706563906e-01 8.9689386398439397e-01 -1.4609124602800967e+00 1.4588456358405884e+00 -1.5732081088182723e-01 -1.9269834470861362e+00 -1.5300744037928632e-01 -6.5225886706996616e-01 9.5228565953483579e-01 8.1513819965075973e-01 1.1594724983725004e+00 1.7069480399380410e+00 -2.6049989096101445e-01 6.7704498125760459e-01 1.6785043151062207e+00 1.3184454713909108e-01 -1.1578532702642677e-02 9.8460034443880395e-01 -1.8707107946925025e-01 -2.8415362493368634e-01 6.4488340272266498e-01 
        </Neuron>
        <Neuron NSynapses="21">
          -8.1314881306812914e-01 -6.7140554316938952e-02 -4.3905125914312909e-01 -1.5930368114930959e+00 -5.5952719510834352e-02 -1.4798962432713763e+00 -8.4696081197419962e-02 -6.7643345221823789e-02 2.1028389650823711e+00 1.5576883891638948e+00 6.3675846862118546e-01 -4.6018234681977221e-01 -3.0654826770753485e-01 2.2138508391985134e-01 1.8560769816287659e+00 -2.0744712232019538e+00 -1.4500937810324546e+00 -2.4054523959078969e-01 -6.2362961132729766e-01 -4.5429097585540490e-01 -8.0558206616710004e-01 
        </Neuron>
        <Neuron NSynapses="21">
          9.6909990913514676e-01 -8.4736403948282288e-02 -1.7151526529725132e+00 -1.9217753852151334e+00 9.4074107559451225e-02 7.8236740905393687e-01 1.7365852023042558e+00 5.4264455393540323e-01 2.1193490029026551e-02 -1.8800588567139300e+00 -2.5940928085527354e-01 -5.3501182871003117e-01 -7.2102757707585829e-01 -6.3765451433577669e-01 2.4372120088709006e-02 -1.4671213184395595e+00 3.3366006823367749e+00 3.6951544839497946e-02 3.6165733523388971e-01 -9.9212359826326557e-01 -9.2948837876881463e-01 
        </Neuron>
        <Neuron NSynapses="21">
          1.5787303095962157e+00 -9.6519350592083775e-01 -2.7813579682801559e-01 1.3584986313657095e+00 2.0019164261134379e+00 -1.5090726836707544e+00 1.9048488727204502e+00 -1.1695010644127206e+00 2.1501527356958094e+00 2.2921941200453175e+00 -1.6564261906471470e-01 -5.7205925029812942e-02 6.1745540494544127e-01 -1.2882478811053970e+00 1.0853439894389325e+00 2.4010031158125072e-01 -5.2128620359844324e-01 -1.4529834220480464e+00 -1.9909278633150462e+00 3.2062253251310455e+00 -3.1888896485869878e-03 
        </Neuron>
        <Neuron NSynapses="21">
          1.3604680416622306e+00 -2.7689452785202322e+00 1.2053999883484123e+00 1.0519122823460171e-01 -1.3495169778042406e+00 5.1480300854381433e-02 -9.3255089708391836e-01 4.8717660755146464e-01 -9.3259513320498999e-01 -9.1672462418122574e-02 -2.6639898285657240e-02 1.6982941392348607e+00 1.1469942810618510e+00 1.6348635659060526e-01 1.2571799597902841e-01 -1.3103628866761785e+00 -1.7021882390171830e+00 8.8822336900476728e-01 -7.9220136031718058e-01 4.5084194216784035e-01 -1.0603335716853133e+00 
        </Neuron>
        <Neuron NSynapses="21">
          -1.0741953182212216e+00 -2.8736644551626394e+00 -1.3826031570693014e+00 -1.8462269777537643e+00 1.6840937640505863e-01 4.0918599775362052e-01 1.7719605890369652e+00 1.3343889339417185e+00 -7.9774777334871683e-01 1.5194701764259648e+00 9.3132345380448933e-01 1.4578120031824271e+00 -1.8095537554716531e-03 -3.6353354750767791e-01 1.8845074581153445e+00 -1.7545014672141535e+00 1.5726213507358557e+00 -1.3067433367172860e+00 9.0971013047427485e-01 -1.3411235801344357e+00 7.2782079506476660e-01 
        </Neuron>
        <Neuron NSynapses="21">
          -8.9141560092998104e-02 1.2243215100384133e-01 -1.2355714849686310e+00 -1.0241963646129317e+00 6.0480115702289716e-01 -6.5363666904274628e-02 4.4323908585828958e-01 5.9428396728578869e-01 -1.4374685588399021e+00 2.0495010229699466e+00 -1.4549396827542040e+00 1.2408163944414901e+00 4.5185168114263924e-01 5.1654189002995898e-01 1.5069978820172583e+00 1.3388162345642052e+00 -1.5116765655333695e+00 -4.7747606355684874e-01 1.4221891779934920e-01 3.2754827742689580e-01 2.4143646200265720e-01 
        </Neuron>
        <Neuron NSynapses="21">
          1.4880777620871322e-01 -2.0329629702594978e-01 -8.8997020862706944e-01 -1.3550757782027709e+00 -6.8795278827980944e-01 -1.3022211252372384e+00 3.6061734159600400e-01 -3.8304372682023863e-01 -8.4448081368823025e-01 -7.8657842530998978e-01 2.8463070985734418e-01 5.8264857835409556e-01 3.0997915182055247e-01 -4.0266354344322394e-02 1.7602769954108681e+00 -3.8847700773182703e-01 -4.3434270453379348e-01 2.0178537394925097e-01 -1.7441190849001095e-01 -4.9066705768361196e-01 -5.1393739437465236e-01 
        </Neuron>
        <Neuron NSynapses="21">
          -3.1502250351921339e+00 -1.6093347987694242e+00 -1.5470239278077058e+00 8.5481645555153529e-01 -2.1421475627731454e+00 3.4159510833451634e+00 1.5861418096489854e+00 1.6630114601655341e+00 1.0543626115266799e-01 7.8620860228112965e-01 5.5318620229854665e-01 -9.9441266904257841e-01 -2.7371941195031924e+00 1.0680747511587221e+00 -8.1686168411478832e-01 1.2847313359548556e+00 -4.7835237439695122e-01 1.4681183540847245e+00 2.4200707496705416e+00 1.4104187631074887e+00 -2.7862120774801729e+00 
        </Neuron>
        <Neuron NSynapses="21">
          1.1444367348561470e-01 -1.0474178064540496e+00 1.3564292071782266e-01 -2.3174380891934274e+00 4.4637451460138072e-01 2.3210415244461297e-02 3.3111539519289124e-01 -9.2812520624214812e-01 -7.0791614086628440e-01 -1.0749795909921243e+00 -3.2401100635561664e-01 1.0084874540313713e+00 -2.9261579400828847e-01 4.6571196431806050e-01 -1.7535774210882968e+00 1.0445173406869579e+00 -9.2778798867349088e-01 1.4031784496743094e-01 -1.1505431693132961e+00 -9.3826630045586701e-01 9.2127241847758734e-01 
        </Neuron>
        <Neuron NSynapses="21">
          -1.3261706184857636e+00 -6.6403826111279607e-01 -2.5899037640632200e-01 7.5425429988118498e-01 1.4379636509218929e+00 1.2705307110265835e+00 -7.0756534586078679e-01 2.8418290492637172e-01 -4.2208911461496218e-02 8.3436055590959901e-01 -6.2700326000225870e-01 -9.3379707313770022e-01 3.3751137182662760e-01 6.1560787791168525e-01 1.6450212858444766e+00 -7.2861655528144442e-01 -1.0764023913643688e+00 -9.3529345329832148e-01 1.5996935349291343e-02 3.2768577513777636e-01 2.2246277021795224e-01 
        </Neuron>
        <Neuron NSynapses="21">
          1.6639982042932566e-01 -1.8677277613034831e+00 5.9311927647980128e-02 4.3166351919144819e-01 1.9233301180075881e+00 -5.4089728905004186e-01 -5.0346851934034031e-01 -1.1817264370056844e+00 -1.3826804695641961e+00 -2.3916789330821991e-01 -1.5741686281265390e+00 -2.9472331934948881e-01 -4.7241064028479890e-01 -6.0952391978606535e-01 7.2109862913259526e-01 -1.8308340173597810e+00 -1.0580540810349768e+00 -3.8096384792873184e-01 -3.1748565422830100e-01 -1.7246463139891116e-02 2.0459089962554713e+00 
        </Neuron>
        <Neuron NSynapses="21">
          -6.1198702827748319e-01 4.4757409219211614e-01 -5.7991438695571285e-01 2.9809062003901254e-01 6.5097623636026092e-01 -8.2639302551729366e-01 -4.0839838783039883e-01 -7.7603322748633152e-01 1.0294055979021648e+00 4.1047329318796788e-01 6.6490064420785777e-01 -4.4104447171405375e-01 -5.9851620966781272e-01 1.6605701615616519e-01 -1.2485312926402903e+00 4.8873270373122973e-01 1.9718806755919360e-01 1.2360692019385677e-01 -7.6758870775641963e-01 -4.0132704138667818e-01 6.4316152992957065e-01 
        </Neuron>
        <Neuron NSynapses="21">
          -6.2450029636189464e-01 2.1179355000135689e+00 5.6954736589722155e-01 -1.6586962484279482e+00 -9.5906770326797230e-01 -2.6892401501969267e+00 -1.9585654455130233e-01 1.9075791186874298e+00 1.3629470422970771e+00 1.1022669298105168e+00 -1.1954297778273841e+00 -3.8560349691058443e-01 2.0465341522910765e-01 -1.0107449899210932e+00 1.3816153594731604e+00 -1.6936293832449443e+00 2.0645969949222889e+00 -7.8749790950250254e-02 1.4635008986665723e+00 -9.2752953522452930e-01 1.4322665986810190e+00 
        </Neuron>
        <Neuron NSynapses="21">
          1.5790977341074519e-01 3.4699495688300053e-01 -9.1135210412737166e-01 8.9297419640381948e-01 2.3984630966828743e-01 1.5263996617480193e+00 -6.8254696666549486e-01 -3.1915734329087936e-01 -1.0880409647307641e+00 8.7307339599222389e-01 1.3399806631816302e+00 3.3445105987765528e-01 -3.6151092373977550e-01 1.0900241523918811e-01 -4.0741774268713138e-01 1.1046842104378005e+00 1.0248437254753768e+00 -6.7562774685042748e-01 1.2560245978125681e-01 1.1337800888127156e+00 1.2560216445637826e+00 
        </Neuron>
        <Neuron NSynapses="21">
          1.7645496559197598e+00 -1.3220686127411767e+00 -1.3539010609543287e+00 -1.0616371257047597e+00 -5.8046536797289205e-01 -1.1790485367414214e+00 1.1538893310429938e+00 1.3640078465764531e+00 -1.1143996221194272e+00 1.7910603187917540e+00 1.8678947003860247e+00 3.4792886124596278e-01 -7.3212598837424159e-01 -1.8478887761958965e-01 1.0241024318758682e+00 -1.9206379050075340e+00 2.0894367834765792e+00 2.4818655416987739e-01 -7.4376622221134303e-01 2.1686147739258059e+00 -6.4898197196753915e-01 
        </Neuron>
      </Layer>
      <Layer Index="2" NNeurons="22">
        <Neuron NSynapses="9">
          1.0464826226308318e-02 9.8095204983399453e-01 2.0147079617738772e-01 1.7632093137636793e+00 -9.6779491699197709e-02 1.9041874305048103e+00 1.9900698332328828e+00 5.2736157998329369e-01 -1.1652752966453179e+00 
        </Neuron>
        <Neuron NSynapses="9">
          2.4390932291800347e+00 2.7465229595933978e+00 9.2805178031651592e-01 8.3199247269143872e-01 9.2534398983044372e-02 1.3388097627541740e+00 -1.4298043902603590e+00 -3.2972780803072421e-01 -5.8241496813477245e-01 
        </Neuron>
        <Neuron NSynapses="9">
          1.0212550506134486e+00 -1.2643536721365807e+00 1.2998616003752247e-01 -1.1940615313210385e+00 4.3262584402873699e-01 1.0169654869327704e+00 1.5980376830506966e+00 -1.9587461950857952e+00 -7.6863701831724662e-01 
        </Neuron>
        <Neuron NSynapses="9">
          -9.6973651468095978e-01 1.3459543684963587e-01 9.6853509280571481e-01 1.3039908181534230e+00 3.8581343652848454e-01 -6.5934547447043163e-02 6.9370475897695660e-01 -5.3491666467307075e-01 -1.2503370411366965e+00 
        </Neuron>
        <Neuron NSynapses="9">
          1.8983978934962638e+00 1.8768714844108120e-01 1.3729110826056388e+00 6.1780246583850151e-01 -5.0589272367605365e-01 1.6546094812509382e+00 -2.0735169450619714e-01 -1.3897228960653245e+00 -8.3854262659500622e-01 
        </Neuron>
        <Neuron NSynapses="9">
          -1.0072050496729437e+00 -2.7021019454706985e-01 -6.9455726035490606e-01 2.3454903993585877e-01 1.1058055215068503e+00 1.7592623215099048e+00 -1.5005846481361578e+00 -1.2314062929058012e+00 -1.7782969240118878e+00 
        </Neuron>
        <Neuron NSynapses="9">
          2.2069809510882470e+00 7.4989211373584530e-01 2.8156365408341355e-01 -1.1825483341021108e+00 1.3718974127900780e+00 1.0168855468690039e+00 -1.9600595639995508e+00 -6.7186101929648312e-01 -1.3462742596562698e-02 
        </Neuron>
        <Neuron NSynapses="9">
          -1.5787373670151186e+00 -1.6798160489730609e+00 3.3883948673386188e-01 -1.3387847486117410e+00 1.3059823130143322e+00 -1.5346576250443507e+00 -2.6236244717194540e-01 -5.6044443031455604e-01 9.5975133860163819e-01 
        </Neuron>
        <Neuron NSynapses="9">
          1.2088633551790167e+00 5.6464400772847267e-01 1.1157164936495367e+00 4.0998498534718164e-01 -8.8894853347067604e-01 1.9269401499142071e+00 3.7825093388344118e-02 6.7876339219635273e-01 -9.9327405409781400e-01 
        </Neuron>
        <Neuron NSynapses="9">
          -2.1619925905807098e+00 -4.0762998288959845e-01 1.0044073319231968e+00 -1.2901523245642992e+00 2.0146149538078317e-01 -7.4042830196754383e-01 2.4886324324683127e+00 -2.0901943028847891e+00 -1.1164097075479944e+00 
        </Neuron>
        <Neuron NSynapses="9">
          -3.0333678885034082e-01 -2.8853431335071955e-01 4.1659122005741178e-01 -1.2217337637414458e+00 -5.9273552127713358e-01 -4.3495996712621576e-01 -2.2228631724452463e-01 -2.2825931678964095e+00 1.2160154561873866e+00 
        </Neuron>
        <Neuron NSynapses="9">
          -2.7568230248344239e-01 -2.5402885601954499e+00 7.6248827017634779e-01 -1.2893679400558722e-01 4.8964185716747138e-01 -3.5940881909772637e-01 1.6548098387045420e+00 1.1326610185807469e-01 -6.7759518950930731e-01 
        </Neuron>
        <Neuron NSynapses="9">
          1.4373930705893740e+00 1.9341445038165326e+00 9.6996266324647362e-03 -1.4999103632033423e-01 9.9793749050153446e-01 1.2333308961124763e+00 7.4364614887226577e-01 3.7197136270975130e-02 -1.9618193561408857e+00 
        </Neuron>
        <Neuron NSynapses="9">
          -2.2452546897777417e+00 -9.9105136390502524e-01 -2.6789702684190853e+00 7.8859573753374534e-01 -2.1820925843747054e+00 4.3863376739456383e-01 -8.4306277797509110e-01 -3.8716126577334009e-01 -1.7411024000882111e-01 
        </Neuron>
        <Neuron NSynapses="9">
          -2.5765101237573573e-01 -2.0727787588926394e+00 -5.8034879746513290e-01 -1.6986818859913417e+00 1.9719781727776708e+00 8.2336764139873164e-01 2.6422658806119683e+00 -1.1379465811837202e+00 -4.8784359639493913e-01 
        </Neuron>
        <Neuron NSynapses="9">
          8.8383620161137588e-01 1.3132722725503549e+00 -2.5475391834760969e-01 1.9472879908603835e+00 -2.9560924162244184e-01 3.5173164130631335e-01 -2.0227904609575156e-01 5.9630278424046090e-01 -1.0694823594908086e-01 
        </Neuron>
        <Neuron NSynapses="9">
          -1.3854738869155168e+00 -1.6564171577151218e-01 3.5214815027839479e+00 3.4967094184962710e-01 1.3882090308405981e+00 1.6702018006288673e+00 2.2675658949710380e+00 -1.9063491516054298e+00 6.0921038757308188e-01 
        </Neuron>
        <Neuron NSynapses="9">
          5.4043069300427327e-01 -8.0907572501099578e-01 -1.8458883044826389e+00 4.8462045733093945e-01 6.6865358277393527e-01 4.2399958656790354e-01 -1.4681052590527870e+00 6.8470957122310841e-02 1.4670434890138506e-01 
        </Neuron>
        <Neuron NSynapses="9">
          -2.8208672862156488e+00 -2.0783707560550724e+00 -7.8969236039430635e-01 9.4880327716621804e-01 7.8609657965631075e-01 1.1903609480611019e+00 2.3483609392282991e+00 9.0613235121636782e-01 5.3466488275103773e-02 
        </Neuron>
        <Neuron NSynapses="9">
          1.5349508952271140e+00 5.7581784682365700e-01 -5.3481850910584505e-01 -2.2352235470995474e+00 -5.0652850536882099e-01 5.5654104475950228e-01 -3.3005706110984514e+00 9.7814479606309357e-01 4.9324807534831672e-01 
        </Neuron>
        <Neuron NSynapses="9">
          -3.0581796647962090e-01 1.2404913843635217e+00 -2.4284717734893044e-01 2.1917502950220134e+00 1.3946793293619961e+00 6.0559274315262157e-01 6.0022711016433050e-01 3.8854154484013931e-01 -8.8457170063042301e-01 
        </Neuron>
        <Neuron NSynapses="9">
          1.1599214406975591e+00 1.6468585396646718e+00 -3.6306359751338924e-01 4.4717962848493409e-01 -8.5158930389523024e-01 3.6160429560384333e-01 -5.4150118883621245e-01 -7.6445010342082631e-01 -1.5599058016519909e+00 
        </Neuron>
      </Layer>
      <Layer Index="3" NNeurons="10">
        <Neuron NSynapses="1">
          4.0819263198351363e-01 
        </Neuron>
        <Neuron NSynapses="1">
          3.5880683185885811e+00 
        </Neuron>
        <Neuron NSynapses="1">
          3.8005678542446064e-01 
        </Neuron>
        <Neuron NSynapses="1">
          -1.4553965971091372e+00 
        </Neuron>
        <Neuron NSynapses="1">
          -5.8544151948189871e-01 
        </Neuron>
        <Neuron NSynapses="1">
          -1.3209028716400755e+00 
        </Neuron>
        <Neuron NSynapses="1">
          1.7679953604225009e+00 
        </Neuron>
        <Neuron NSynapses="1">
          1.9685756162794152e-01 
        </Neuron>
        <Neuron NSynapses="1">
          6.0991301449486990e-01 
        </Neuron>
        <Neuron NSynapses="1">
          -9.4766749269768269e-01 
        </Neuron>
      </Layer>
      <Layer Index="4" NNeurons="1">
        <Neuron NSynapses="0"/>
      </Layer>
    </Layout>
  </Weights>
</MethodSetup>
