<?xml version="1.0"?>
<MethodSetup Method="MLP::XS_48_114_0_cap">
  <GeneralInfo>
    <Info name="TMVA Release" value="4.2.1 [262657]"/>
    <Info name="ROOT Release" value="6.06/02 [394754]"/>
    <Info name="Creator" value="mouginot"/>
    <Info name="Date" value="Thu Feb 23 06:54:54 2017"/>
    <Info name="Host" value="Linux e300.chtc.wisc.edu 2.6.32-642.13.1.el6.x86_64 #1 SMP Tue Jan 10 11:22:50 CST 2017 x86_64 x86_64 x86_64 GNU/Linux"/>
    <Info name="Dir" value="/mnt/gluster/mouginot/TRU_MOX_XS/Generate"/>
    <Info name="Training events" value="198960"/>
    <Info name="TrainingTime" value="1.89681348e+04"/>
    <Info name="AnalysisType" value="Regression"/>
  </GeneralInfo>
  <Options>
    <Option name="NCycles" modified="Yes">20000</Option>
    <Option name="HiddenLayers" modified="Yes">N,N</Option>
    <Option name="NeuronType" modified="Yes">tanh</Option>
    <Option name="RandomSeed" modified="No">1</Option>
    <Option name="EstimatorType" modified="No">MSE</Option>
    <Option name="NeuronInputType" modified="No">sum</Option>
    <Option name="V" modified="Yes">False</Option>
    <Option name="VerbosityLevel" modified="No">Default</Option>
    <Option name="VarTransform" modified="Yes">Norm</Option>
    <Option name="H" modified="Yes">False</Option>
    <Option name="CreateMVAPdfs" modified="No">False</Option>
    <Option name="IgnoreNegWeightsInTraining" modified="No">False</Option>
    <Option name="TrainingMethod" modified="Yes">BFGS</Option>
    <Option name="LearningRate" modified="No">2.000000e-02</Option>
    <Option name="DecayRate" modified="No">1.000000e-02</Option>
    <Option name="TestRate" modified="Yes">6</Option>
    <Option name="EpochMonitoring" modified="No">False</Option>
    <Option name="Sampling" modified="Yes">3.000000e-01</Option>
    <Option name="SamplingEpoch" modified="Yes">8.000000e-01</Option>
    <Option name="SamplingImportance" modified="No">1.000000e+00</Option>
    <Option name="SamplingTraining" modified="No">True</Option>
    <Option name="SamplingTesting" modified="No">False</Option>
    <Option name="ResetStep" modified="No">50</Option>
    <Option name="Tau" modified="No">3.000000e+00</Option>
    <Option name="BPMode" modified="No">sequential</Option>
    <Option name="BatchSize" modified="No">-1</Option>
    <Option name="ConvergenceImprove" modified="Yes">1.000000e-06</Option>
    <Option name="ConvergenceTests" modified="Yes">15</Option>
    <Option name="UseRegulator" modified="Yes">False</Option>
    <Option name="UpdateLimit" modified="No">10000</Option>
    <Option name="CalculateErrors" modified="No">False</Option>
    <Option name="WeightRange" modified="No">1.000000e+00</Option>
  </Options>
  <Variables NVar="17">
    <Variable VarIndex="0" Expression="235U" Label="235U" Title="235U" Unit="IsotopicFraction" Internal="235U" Type="F" Min="1.71346517e-06" Max="1.92414057e-02"/>
    <Variable VarIndex="1" Expression="238U" Label="238U" Title="238U" Unit="IsotopicFraction" Internal="238U" Type="F" Min="7.85399854e-01" Max="9.68733251e-01"/>
    <Variable VarIndex="2" Expression="237Np" Label="237Np" Title="237Np" Unit="IsotopicFraction" Internal="237Np" Type="F" Min="1.63990119e-08" Max="1.97294168e-04"/>
    <Variable VarIndex="3" Expression="238Pu" Label="238Pu" Title="238Pu" Unit="IsotopicFraction" Internal="238Pu" Type="F" Min="4.69728775e-07" Max="3.96428024e-03"/>
    <Variable VarIndex="4" Expression="239Pu" Label="239Pu" Title="239Pu" Unit="IsotopicFraction" Internal="239Pu" Type="F" Min="2.15940680e-02" Max="1.89886928e-01"/>
    <Variable VarIndex="5" Expression="240Pu" Label="240Pu" Title="240Pu" Unit="IsotopicFraction" Internal="240Pu" Type="F" Min="1.54567579e-06" Max="3.95636074e-02"/>
    <Variable VarIndex="6" Expression="241Pu" Label="241Pu" Title="241Pu" Unit="IsotopicFraction" Internal="241Pu" Type="F" Min="3.22813172e-08" Max="7.04628276e-03"/>
    <Variable VarIndex="7" Expression="242Pu" Label="242Pu" Title="242Pu" Unit="IsotopicFraction" Internal="242Pu" Type="F" Min="1.58277174e-07" Max="1.98803633e-03"/>
    <Variable VarIndex="8" Expression="241Am" Label="241Am" Title="241Am" Unit="IsotopicFraction" Internal="241Am" Type="F" Min="3.13082671e-10" Max="7.48056592e-03"/>
    <Variable VarIndex="9" Expression="242Amm" Label="242Amm" Title="242Amm" Unit="IsotopicFraction" Internal="242Amm" Type="F" Min="1.34159976e-07" Max="1.16249369e-02"/>
    <Variable VarIndex="10" Expression="243Am" Label="243Am" Title="243Am" Unit="IsotopicFraction" Internal="243Am" Type="F" Min="2.04390229e-08" Max="1.99559363e-04"/>
    <Variable VarIndex="11" Expression="242Cm" Label="242Cm" Title="242Cm" Unit="IsotopicFraction" Internal="242Cm" Type="F" Min="1.48285639e-09" Max="1.93909858e-04"/>
    <Variable VarIndex="12" Expression="243Cm" Label="243Cm" Title="243Cm" Unit="IsotopicFraction" Internal="243Cm" Type="F" Min="9.09117492e-09" Max="1.97552916e-04"/>
    <Variable VarIndex="13" Expression="244Cm" Label="244Cm" Title="244Cm" Unit="IsotopicFraction" Internal="244Cm" Type="F" Min="2.46570231e-09" Max="1.97112051e-04"/>
    <Variable VarIndex="14" Expression="245Cm" Label="245Cm" Title="245Cm" Unit="IsotopicFraction" Internal="245Cm" Type="F" Min="9.47205692e-09" Max="1.97873349e-04"/>
    <Variable VarIndex="15" Expression="246Cm" Label="246Cm" Title="246Cm" Unit="IsotopicFraction" Internal="246Cm" Type="F" Min="2.33963915e-09" Max="1.98596885e-04"/>
    <Variable VarIndex="16" Expression="Time" Label="Time" Title="Time" Unit="seconds" Internal="Time" Type="F" Min="0.00000000e+00" Max="1.89328320e+08"/>
  </Variables>
  <Spectators NSpec="0"/>
  <Classes NClass="1">
    <Class Name="Regression" Index="0"/>
  </Classes>
  <Targets NTrgt="1">
    <Target TargetIndex="0" Expression="XS_48_114_0_cap" Label="XS_48_114_0_cap" Title="XS_48_114_0_cap" Unit="" Internal="XS_48_114_0_cap" Type="F" Min="4.16108906e-01" Max="5.31657755e-01"/>
  </Targets>
  <Transformations NTransformations="1">
    <Transform Name="Normalize">
      <Selection>
        <Input NInputs="18">
          <Input Type="Variable" Label="235U" Expression="235U"/>
          <Input Type="Variable" Label="238U" Expression="238U"/>
          <Input Type="Variable" Label="237Np" Expression="237Np"/>
          <Input Type="Variable" Label="238Pu" Expression="238Pu"/>
          <Input Type="Variable" Label="239Pu" Expression="239Pu"/>
          <Input Type="Variable" Label="240Pu" Expression="240Pu"/>
          <Input Type="Variable" Label="241Pu" Expression="241Pu"/>
          <Input Type="Variable" Label="242Pu" Expression="242Pu"/>
          <Input Type="Variable" Label="241Am" Expression="241Am"/>
          <Input Type="Variable" Label="242Amm" Expression="242Amm"/>
          <Input Type="Variable" Label="243Am" Expression="243Am"/>
          <Input Type="Variable" Label="242Cm" Expression="242Cm"/>
          <Input Type="Variable" Label="243Cm" Expression="243Cm"/>
          <Input Type="Variable" Label="244Cm" Expression="244Cm"/>
          <Input Type="Variable" Label="245Cm" Expression="245Cm"/>
          <Input Type="Variable" Label="246Cm" Expression="246Cm"/>
          <Input Type="Variable" Label="Time" Expression="Time"/>
          <Input Type="Target" Label="XS_48_114_0_cap" Expression="XS_48_114_0_cap"/>
        </Input>
        <Output NOutputs="18">
          <Output Type="Variable" Label="235U" Expression="235U"/>
          <Output Type="Variable" Label="238U" Expression="238U"/>
          <Output Type="Variable" Label="237Np" Expression="237Np"/>
          <Output Type="Variable" Label="238Pu" Expression="238Pu"/>
          <Output Type="Variable" Label="239Pu" Expression="239Pu"/>
          <Output Type="Variable" Label="240Pu" Expression="240Pu"/>
          <Output Type="Variable" Label="241Pu" Expression="241Pu"/>
          <Output Type="Variable" Label="242Pu" Expression="242Pu"/>
          <Output Type="Variable" Label="241Am" Expression="241Am"/>
          <Output Type="Variable" Label="242Amm" Expression="242Amm"/>
          <Output Type="Variable" Label="243Am" Expression="243Am"/>
          <Output Type="Variable" Label="242Cm" Expression="242Cm"/>
          <Output Type="Variable" Label="243Cm" Expression="243Cm"/>
          <Output Type="Variable" Label="244Cm" Expression="244Cm"/>
          <Output Type="Variable" Label="245Cm" Expression="245Cm"/>
          <Output Type="Variable" Label="246Cm" Expression="246Cm"/>
          <Output Type="Variable" Label="Time" Expression="Time"/>
          <Output Type="Target" Label="XS_48_114_0_cap" Expression="XS_48_114_0_cap"/>
        </Output>
      </Selection>
      <Class ClassIndex="0">
        <Ranges>
          <Range Index="0" Min="1.7134651670858148e-06" Max="1.9241405650973320e-02"/>
          <Range Index="1" Min="7.8539985418319702e-01" Max="9.6873325109481812e-01"/>
          <Range Index="2" Min="1.6399011926182538e-08" Max="1.9729416817426682e-04"/>
          <Range Index="3" Min="4.6972877498774324e-07" Max="3.9642802439630032e-03"/>
          <Range Index="4" Min="2.1594068035483360e-02" Max="1.8988692760467529e-01"/>
          <Range Index="5" Min="1.5456757864740212e-06" Max="3.9563607424497604e-02"/>
          <Range Index="6" Min="3.2281317174920332e-08" Max="7.0462827570736408e-03"/>
          <Range Index="7" Min="1.5827717447791656e-07" Max="1.9880363252013922e-03"/>
          <Range Index="8" Min="3.1308267089968922e-10" Max="7.4805659241974354e-03"/>
          <Range Index="9" Min="1.3415997557331139e-07" Max="1.1624936945736408e-02"/>
          <Range Index="10" Min="2.0439022918594674e-08" Max="1.9955936295446008e-04"/>
          <Range Index="11" Min="1.4828563932312022e-09" Max="1.9390985835343599e-04"/>
          <Range Index="12" Min="9.0911749239808159e-09" Max="1.9755291577894241e-04"/>
          <Range Index="13" Min="2.4657023089957875e-09" Max="1.9711205095518380e-04"/>
          <Range Index="14" Min="9.4720569165929192e-09" Max="1.9787334895227104e-04"/>
          <Range Index="15" Min="2.3396391490848600e-09" Max="1.9859688472934067e-04"/>
          <Range Index="16" Min="0.0000000000000000e+00" Max="1.8932832000000000e+08"/>
          <Range Index="17" Min="4.1610890626907349e-01" Max="5.3165775537490845e-01"/>
        </Ranges>
      </Class>
    </Transform>
  </Transformations>
  <MVAPdfs/>
  <Weights>
    <Layout NLayers="4">
      <Layer Index="0" NNeurons="18">
        <Neuron NSynapses="17">
          -3.4359445954427309e-01 1.3810827684481835e+00 6.3893763717198393e-01 1.7575431260666579e+00 -2.0302398520183500e+00 -1.3988633637667978e+00 -5.3805580234203532e-01 1.9652408989894583e+00 -1.4427693424144519e+00 -1.2695472562363654e+00 -1.4817693605383369e+00 -3.5282592950303510e-01 -1.3456237185891045e+00 1.4459241659555666e-01 -1.0799010328144005e-02 8.6165660689637907e-02 -3.1125943296915792e-01 
        </Neuron>
        <Neuron NSynapses="17">
          1.7391879129711250e+00 9.2104454367486022e-01 1.9504103435071130e+00 -2.8714127081266494e-01 -5.4586871658237990e-01 3.7972231417686059e-01 5.0639372613365104e-02 -1.1846710785877264e+00 -3.5332876604133917e-01 1.6070502190962577e+00 -1.1365099491185915e+00 -2.0276424816944645e+00 2.3623238923539683e-01 1.8158492514787339e-01 1.1156458982136854e+00 4.2885841314382600e-01 -7.4169549902851087e-02 
        </Neuron>
        <Neuron NSynapses="17">
          1.8496799592149493e-01 -1.3029976516565683e-01 -1.4773659847508795e+00 1.5276054281000722e+00 -1.4637659508267427e+00 1.0833762432431195e+00 1.3566690937672408e+00 8.6341660639702900e-01 1.8319287924356571e+00 1.2190147954750288e+00 -8.2310758454067634e-01 -1.4164728965772531e+00 4.8041870434012907e-01 1.5347358446700768e-01 1.4606725668744347e+00 1.5613234973876624e+00 1.5552638159946224e+00 
        </Neuron>
        <Neuron NSynapses="17">
          1.5926370380223078e+00 -1.2754750393582632e+00 1.6038067077379616e+00 -1.7929254173316687e+00 -1.1119186610911727e+00 -1.4573081440617803e+00 -1.4502085229606345e+00 1.4507538301881284e+00 6.4723371998371781e-01 -1.7366793785802064e+00 3.3797225405317532e-01 -5.4134154903069986e-01 4.5633987504289258e-01 1.5293811512670972e+00 -3.2133819912521766e-01 3.9279961211220316e-01 -9.5041455706130906e-01 
        </Neuron>
        <Neuron NSynapses="17">
          8.4138838647252345e-01 -1.5931276096523006e+00 -1.2810981774857764e+00 -1.3956080912056212e+00 3.5348722084860335e-01 1.4019345973979422e+00 1.5638838183986470e+00 -2.4981908980195458e-01 -1.8781983720150737e+00 -2.0348114634377281e+00 1.1070427675167434e+00 7.1867958323263703e-01 1.7491679599107852e+00 1.2065975234103707e+00 1.5335753071901117e+00 -1.5006201085191540e+00 -9.1017717038409940e-01 
        </Neuron>
        <Neuron NSynapses="17">
          -2.2925231103493298e-02 1.8381741200608772e+00 -5.8061619114961083e-01 -1.7342689263865123e+00 -1.6989063033571865e+00 -3.1073407542397780e-01 1.0380230598792668e-01 1.4585205099542058e+00 -1.4785119754689713e+00 -7.2831036916292058e-01 1.3824741207948363e+00 -1.1599647685377448e+00 -1.6319144958115246e+00 -1.9896792728476456e+00 -2.3842946388426089e-01 -1.0579413626640606e+00 -1.4455239147517827e+00 
        </Neuron>
        <Neuron NSynapses="17">
          9.4354328501479379e-01 2.1077593521469695e+00 -8.5671714547519684e-01 1.4990498754438348e+00 -1.1469284363895764e+00 -9.4478969251071099e-01 3.3341746654869564e-01 2.3942712016105611e-01 -1.8554499683557224e+00 2.5149632816032169e-01 1.3474301463693089e-01 2.8565129003375889e-01 -1.8129828387501692e+00 1.5240604433888965e+00 2.1256236039997337e-01 -2.8407908428927453e-01 9.0593375425013711e-01 
        </Neuron>
        <Neuron NSynapses="17">
          -8.3495327281738863e-01 -1.2134764211418818e+00 2.4723367437224406e-01 -4.5012640848434621e-01 1.4685240993558673e+00 7.0259789049004184e-01 4.5585650118165499e-01 -3.8798798288386899e-01 1.4093924821800866e-01 -1.6990350140967803e+00 1.0679733441929917e+00 5.6677359667437394e-02 -2.0420047584639014e+00 4.7765012389226197e-01 -1.2586875041434871e+00 2.9782646766104015e-01 1.1396582114199569e+00 
        </Neuron>
        <Neuron NSynapses="17">
          2.1981418030127702e+00 -1.5842846067758936e+00 6.4808655908502122e-01 1.6283188381063984e+00 1.0294255501090450e+00 -1.4720374019602056e-01 -7.2273878444569561e-01 3.3349707364517304e-02 -1.5664451303597757e+00 1.3129263747993258e+00 1.2875337564397580e+00 -3.9528543998711296e-01 -8.5064560131362899e-01 2.0999058418465238e-01 -1.2570354520835423e+00 1.1311820816371756e+00 1.9895447561364408e+00 
        </Neuron>
        <Neuron NSynapses="17">
          -2.0970105785663251e-01 -5.3254834629311631e-01 5.3593609088589333e-01 1.1726794042226649e+00 3.2838793216038742e-01 8.0423083466778200e-01 -7.9718080303646532e-01 1.3647447988251329e+00 5.6435586285549943e-01 2.3917754186960719e-01 6.3932984395459524e-01 7.3706034177750823e-01 -8.3357456599679758e-01 -4.6921259679965621e-01 1.2714443781772429e+00 -6.6337850483573479e-01 -3.4116712163096047e-01 
        </Neuron>
        <Neuron NSynapses="17">
          1.5915764364985570e+00 5.9845414660290408e-01 -5.1779369138670173e-01 1.3577068802972263e+00 1.4261190405657527e+00 -1.8350778444755187e+00 9.0221607240222035e-01 -5.0689785442040725e-03 4.0335203848791146e-01 -1.7713838140444225e+00 -1.5347481338523685e+00 1.1258370884143227e+00 1.3782538522144800e+00 -1.1045990359787650e+00 1.9535295681976993e-02 -7.1421167388232309e-01 2.2954212908180399e-01 
        </Neuron>
        <Neuron NSynapses="17">
          1.8665780544425439e+00 -2.3045282837879330e-01 -3.6373899378227076e-01 -1.0395108365695540e+00 7.2990228026593262e-01 1.5548237327702707e+00 1.3164636128119198e+00 3.9209056712319762e-01 -7.6981567187043876e-01 -2.0262901381183545e+00 9.9665726801352650e-01 6.1969059588879072e-01 -1.7129030716924205e+00 -7.0105567341476605e-01 2.9329476751799283e-01 3.1224047983790071e-01 -1.7575891803101786e+00 
        </Neuron>
        <Neuron NSynapses="17">
          1.6778889849191676e+00 9.6763332437242444e-01 -3.5982727944884135e-01 -8.7167158811525619e-02 1.3656813340135381e+00 1.0150986193130049e+00 6.4101930185572298e-01 -1.5083917029311517e-01 -1.8670662083976086e+00 -9.5274369329586373e-01 1.5792878140802928e+00 1.2454350694468954e+00 5.1558755190820138e-01 6.6028844615428794e-02 1.7575588920203364e+00 -1.2801534454511185e+00 -1.1597766826904894e+00 
        </Neuron>
        <Neuron NSynapses="17">
          9.8075570065606632e-02 -1.2216376779079303e+00 1.0235680929494555e+00 1.6499998437456043e+00 -1.4932111471673835e+00 7.4221703678561735e-01 1.5290127758906116e-01 -1.9140390766720843e+00 -1.1410500068088598e+00 9.1306699065765939e-01 1.9814759154046836e-02 9.5984733558787838e-01 -1.4560608574831599e+00 1.5360881527494517e+00 -1.6436585814600415e+00 1.0283850743562928e+00 1.6330696725930935e-01 
        </Neuron>
        <Neuron NSynapses="17">
          -1.1018079623551338e+00 -1.3473756493420055e+00 -1.8633972000592218e+00 -3.7552914495404582e-01 -2.1279824612876008e+00 -1.6517997256298254e+00 -1.4251632245056531e+00 2.9630414768580315e-01 -1.0642666280069593e+00 -1.6612373099414854e+00 1.3342154354824620e+00 -7.1627866833302267e-01 -3.2790585826902023e-02 -1.0602549376708683e+00 3.2880562160911170e-01 2.0817569095784547e+00 1.4997324357757944e+00 
        </Neuron>
        <Neuron NSynapses="17">
          -7.9183904544465733e-01 -9.7375454291771157e-01 -8.3668159305595380e-01 -1.0204987266408876e+00 -1.8804275060310800e+00 2.1857488174366543e-01 5.4804130919652327e-01 1.8644107062229598e+00 -2.7484260634224544e-01 2.4287881428558622e-01 -6.7470892918056657e-01 -2.0467559881530719e+00 1.1546041990907481e+00 8.0753212570712118e-01 -9.2608637469329191e-01 -5.9376509461758586e-01 9.1517493128527072e-01 
        </Neuron>
        <Neuron NSynapses="17">
          8.5026876595778300e-01 1.9391455922876442e+00 2.8389080193224853e-01 -6.5708415593338299e-01 1.9933946698504879e+00 8.4035992242795721e-01 -1.5990412911285246e-01 -9.4178685860829037e-01 3.5066216325516059e-01 4.5454047339616577e-01 -1.7723454603440096e+00 -9.5335155851234710e-01 -1.4568441744437988e+00 -2.7277924396331303e+00 -2.6016362241449329e+00 3.1677599122687461e+00 -1.8463831760934952e+00 
        </Neuron>
        <Neuron NSynapses="17">
          1.1502455827117750e+00 -2.2225905515954052e+00 4.8428836964566713e-01 -1.2508749975259696e+00 1.1526461664568304e+00 1.3451990578736193e+00 -2.9219193453245280e+00 1.0555408063681561e-01 8.6197548967425530e-01 -1.6533231164048601e+00 -1.5016516396308872e+00 -1.6521255988899384e+00 -2.4427651983146595e-01 1.9943738092699448e+00 -4.3485922811554306e-01 -7.3928733354760334e-01 -1.4141634734703072e+00 
        </Neuron>
      </Layer>
      <Layer Index="1" NNeurons="18">
        <Neuron NSynapses="17">
          -1.3060335430731664e+00 -1.7417789554931538e+00 -3.3617937427477040e-01 -1.0395434422002185e+00 8.8742115274031830e-01 -9.6771279798133802e-01 -1.1235495908466144e+00 1.4586147991758855e+00 4.0352864000186395e-01 -8.1469026134877831e-01 1.9775913382416135e+00 -1.5834210350167395e+00 1.3964990708183433e+00 9.0332990312577233e-01 -1.2870533712261265e+00 -4.1626184598601873e-01 -1.9450836589196951e-01 
        </Neuron>
        <Neuron NSynapses="17">
          -9.8126602355713755e-01 4.8199583156607873e-01 1.9072936841029362e+00 1.4086003236532425e+00 1.7332835276199032e+00 -9.5571011999068456e-01 8.2433829473631215e-01 -2.3185707125515833e+00 6.1152035606600352e-01 -1.7929957649418302e+00 -1.5561961026128932e+00 3.2518112297068219e-02 1.2709273681631017e+00 3.8571494942932466e-01 8.8322266677329853e-01 2.4568449907296389e-01 -1.0151967621788385e-01 
        </Neuron>
        <Neuron NSynapses="17">
          -6.0821680129865141e-01 1.9292947692870047e-01 1.5266738325110398e+00 -1.7288789015856347e+00 2.9000524596268434e-01 -1.1418095823597534e+00 -6.3816850051685425e-01 3.0352304382112955e-01 8.9376620543309068e-02 -9.6556017643329184e-01 5.7862898656648332e-01 1.5172814990433783e+00 6.7129035186905095e-01 -6.6598642487113946e-02 -6.1758102942252746e-01 -1.7682849054790060e+00 -1.5603246275369143e+00 
        </Neuron>
        <Neuron NSynapses="17">
          8.5849986849953142e-01 -5.3775684603116380e-01 -7.9055633429773342e-01 4.2262869951776344e-01 -1.8679671743221757e+00 -1.4752826766826623e+00 -1.3686916600924734e+00 8.3251532992645139e-01 -1.2159370476139992e+00 -1.5254290942570277e+00 -8.2602326503787349e-01 -9.4307734506672136e-01 -1.7116181492477853e+00 1.2329300461282746e+00 -1.5158292970805909e+00 -1.1463590975230971e+00 1.4879222506195739e+00 
        </Neuron>
        <Neuron NSynapses="17">
          6.6243420688606092e-01 3.6818871470867132e-01 -2.3171362108880836e-01 1.2499638695958366e+00 1.7711092388089500e+00 8.9326272752102331e-01 -1.1884471242137180e+00 -3.7866914453515860e-01 -1.7874333688010127e+00 8.9013804564583143e-01 7.8038979623745564e-01 -7.7009757568824644e-03 1.0129554636635874e+00 8.8775647717908257e-01 1.5962863624204700e+00 -1.5218081043081395e+00 1.6020442845447458e+00 
        </Neuron>
        <Neuron NSynapses="17">
          7.8440148037093693e-01 -1.9409981630036299e+00 4.7834640021221075e-01 -5.7538080057191288e-01 1.0210284923783197e+00 9.4837133940732277e-01 8.0396392308746489e-01 1.3805928894639830e+00 -3.5424540110002078e-01 1.1487040686241494e+00 2.3882655000268227e+00 3.4490456282211041e-01 -1.1266140602341683e+00 1.6072515785486983e+00 -2.1830647784603188e+00 9.3939207857847418e-01 1.6298753893888873e+00 
        </Neuron>
        <Neuron NSynapses="17">
          -5.2080912525938439e-01 -8.8358616747485375e-01 5.2655524187689162e-01 -8.1538784415395971e-01 4.1519513147362053e-01 -1.3121310619568969e+00 3.3166293562464655e-01 -5.3304381831228154e-01 1.8250714749647934e+00 8.7726271433030933e-01 1.8342453199832620e+00 -3.2424727030563322e-01 -4.5020852553853008e-01 2.4252574375390312e-01 1.4358187891652696e+00 -1.5366866966532824e+00 -1.4579409401842969e+00 
        </Neuron>
        <Neuron NSynapses="17">
          -7.2478481823025209e-01 -1.5251771923106234e+00 -1.2906281759694267e+00 -1.7858462129319470e+00 5.8907436976659799e-01 -3.2311558358630033e-01 -1.6303863064442061e+00 -1.9896295729629472e+00 -3.3557254924323809e-01 1.9195029109610495e+00 1.6401838627210124e+00 1.3880607070931499e+00 -5.6732130276582216e-01 -1.8225469696361192e+00 2.5109424945006793e-02 -1.1293348345054885e+00 -1.4845939653803912e+00 
        </Neuron>
        <Neuron NSynapses="17">
          -4.9914658445548515e-01 5.5081745478711391e-02 -1.7868694551545747e+00 1.3220368796771889e+00 1.2785400991110958e+00 7.7214614924958880e-01 -8.2903082014198504e-01 -5.5796762904718744e-01 1.5894651252711902e+00 -5.5147293625544702e-01 1.5313414078733104e-01 1.5259395497936779e+00 1.6200299637042010e+00 -9.7417798530404953e-01 1.6840209031137077e+00 -2.0925058992844687e+00 1.8108567487767155e+00 
        </Neuron>
        <Neuron NSynapses="17">
          2.1656941824365132e+00 -1.2283172383344898e-01 2.9191112821820819e-01 5.6047461636756624e-01 -3.3527450717649498e-01 6.7493435496920096e-01 -4.7154532392611158e-02 -1.3226058457958687e+00 -1.5366926465324544e+00 -2.7339521016618107e-01 2.0488104882859610e+00 4.3193319751203657e-01 -7.0178467640478137e-01 -1.8322236453401803e+00 1.6532733046264425e+00 3.9766567099174394e-01 -1.1716507554588420e+00 
        </Neuron>
        <Neuron NSynapses="17">
          -4.5503026549722003e-01 -1.0327869956981344e+00 1.4269513829769667e+00 1.5100395676109291e+00 -8.0713365967381978e-01 -1.7946763759551414e+00 1.7998019761515818e+00 9.8186746036388417e-01 4.5269642511926284e-01 1.9696862496790940e-01 -1.1385222394483174e+00 -1.1842107557517110e+00 1.0304265098222045e+00 3.6718439346302884e-01 2.6816065314979637e-01 -1.6467002212987099e+00 -2.0238278396909082e+00 
        </Neuron>
        <Neuron NSynapses="17">
          -2.1948380868110666e+00 -3.3175478810341663e-01 -1.7696156625538486e+00 8.0836684868652878e-02 -7.8852533515951395e-01 1.0864607035076475e+00 7.5194496891423102e-01 -1.6042664876143742e+00 1.2596022894379513e+00 2.3190630142612729e+00 3.2760789543573221e-01 -5.4276866877692753e-01 -9.9048700568607473e-01 2.1729621191242861e+00 -1.3388703770901162e+00 4.3056333754342085e-01 -1.5015390365382582e+00 
        </Neuron>
        <Neuron NSynapses="17">
          9.0205151761889157e-01 -1.1589802003016685e+00 -1.0896941366758885e+00 -7.0044970303940357e-01 5.7256612726614307e-03 -2.9512590662083765e-02 -3.0144703597179223e-01 1.5362318801281385e+00 6.1178429002986989e-01 1.5778635081901824e+00 -1.4142833682522835e-01 -1.8676716541802587e+00 1.1460119497507253e+00 -1.8190175348810702e+00 1.3431978792424071e+00 4.1107880903077065e-01 6.5019758407387263e-01 
        </Neuron>
        <Neuron NSynapses="17">
          1.4349930149545040e+00 1.4508743401056359e+00 -2.2740365395575992e+00 -8.4391374909250094e-01 -1.0392814832235389e+00 7.0830149613496829e-01 2.0402751646970869e-02 1.5390976275594230e-02 -5.7722445973565861e-01 -4.4126250395599870e-01 -1.1158725366340227e+00 -3.8719084514502594e-01 -1.8493376724356785e+00 -3.1911359215050816e-01 3.2828470161255413e-01 -9.0472790573406547e-01 -1.2660110528424642e+00 
        </Neuron>
        <Neuron NSynapses="17">
          1.6787484242208162e-01 2.2031225959581410e-01 -8.7948394184962031e-01 -1.4314983998782682e+00 1.7674652763770129e+00 -3.4874277284999416e-01 1.1190935165313765e+00 7.6591503047741938e-01 -8.8759832938169658e-01 -4.8853673583135626e-01 -7.0787760888495399e-01 -1.9971009308938501e+00 -8.4051829198843919e-01 -1.0993203878441669e+00 1.1402135181066759e+00 -2.3470036937214886e+00 1.2432309945882545e+00 
        </Neuron>
        <Neuron NSynapses="17">
          2.0025614720247558e+00 1.6467360100441051e+00 1.3469668633224992e+00 9.1443323860659342e-01 2.5443339147495864e-01 -7.6314253608957860e-01 -2.3286250564311115e+00 -1.2196561637345968e+00 -9.4568745296468726e-01 1.2375283182593695e+00 5.0043454563178269e-01 2.7073104656522927e-02 1.4903644384032722e+00 1.1011220741104146e+00 -1.2513704897305180e+00 4.2958430676059584e-01 -1.5514153579333592e+00 
        </Neuron>
        <Neuron NSynapses="17">
          7.0664257994021384e-01 -1.8460424772479567e+00 -4.2581140577942267e-02 -5.2919740353242062e-01 7.4487855754720111e-01 -2.3568520720495076e+00 7.1489298272650259e-01 -1.6165395480119047e+00 4.2842865872474815e-02 1.6501671880613977e+00 -1.1281092978765497e+00 4.8951424369545132e-01 -1.8485328165201811e+00 1.0882456615168383e+00 -4.6357153857521305e-01 6.9080139052155309e-01 -1.8441112876163663e+00 
        </Neuron>
        <Neuron NSynapses="17">
          -8.8638778637895543e-01 1.9751756455282223e+00 -2.3238845408375690e+00 -1.3897056383069317e+00 -7.9307836422589340e-01 2.1929318356855374e+00 1.2602150076842185e+00 1.8901267465695399e+00 -1.8999340481009646e+00 7.7075399706952108e-01 6.2556696091492370e-01 1.9179450812511786e-01 -1.1682686823867061e+00 -1.3495220923822870e+00 3.3879715987774150e-01 -3.0576198926933401e-01 1.9025666986258927e+00 
        </Neuron>
      </Layer>
      <Layer Index="2" NNeurons="18">
        <Neuron NSynapses="1">
          2.0483806290009222e-02 
        </Neuron>
        <Neuron NSynapses="1">
          5.7449268286751495e-02 
        </Neuron>
        <Neuron NSynapses="1">
          -4.5830165716435082e-03 
        </Neuron>
        <Neuron NSynapses="1">
          1.9400159326155842e-02 
        </Neuron>
        <Neuron NSynapses="1">
          2.9763165662884363e-02 
        </Neuron>
        <Neuron NSynapses="1">
          -1.7536969946882965e+00 
        </Neuron>
        <Neuron NSynapses="1">
          7.9019063333736154e-03 
        </Neuron>
        <Neuron NSynapses="1">
          6.9852196264958352e-03 
        </Neuron>
        <Neuron NSynapses="1">
          -2.7238150382223891e-02 
        </Neuron>
        <Neuron NSynapses="1">
          -6.0785271572907147e-02 
        </Neuron>
        <Neuron NSynapses="1">
          3.5236399526279286e-02 
        </Neuron>
        <Neuron NSynapses="1">
          3.9143404037106186e-02 
        </Neuron>
        <Neuron NSynapses="1">
          5.2641625456744161e-02 
        </Neuron>
        <Neuron NSynapses="1">
          7.7300612413626075e-04 
        </Neuron>
        <Neuron NSynapses="1">
          1.1156069541406540e-02 
        </Neuron>
        <Neuron NSynapses="1">
          1.7521040466438733e-02 
        </Neuron>
        <Neuron NSynapses="1">
          4.2965596097340124e-02 
        </Neuron>
        <Neuron NSynapses="1">
          1.6298533076143655e+00 
        </Neuron>
      </Layer>
      <Layer Index="3" NNeurons="1">
        <Neuron NSynapses="0"/>
      </Layer>
    </Layout>
  </Weights>
</MethodSetup>
