<?xml version="1.0"?>
<MethodSetup Method="MLP::XS_90_230_0_fis">
  <GeneralInfo>
    <Info name="TMVA Release" value="4.2.1 [262657]"/>
    <Info name="ROOT Release" value="6.06/02 [394754]"/>
    <Info name="Creator" value="mouginot"/>
    <Info name="Date" value="Wed Feb 22 15:39:21 2017"/>
    <Info name="Host" value="Linux e300.chtc.wisc.edu 2.6.32-642.13.1.el6.x86_64 #1 SMP Tue Jan 10 11:22:50 CST 2017 x86_64 x86_64 x86_64 GNU/Linux"/>
    <Info name="Dir" value="/mnt/gluster/mouginot/TRU_MOX_XS/Generate"/>
    <Info name="Training events" value="198960"/>
    <Info name="TrainingTime" value="1.21719274e+04"/>
    <Info name="AnalysisType" value="Regression"/>
  </GeneralInfo>
  <Options>
    <Option name="NCycles" modified="Yes">20000</Option>
    <Option name="HiddenLayers" modified="Yes">N,N</Option>
    <Option name="NeuronType" modified="Yes">tanh</Option>
    <Option name="RandomSeed" modified="No">1</Option>
    <Option name="EstimatorType" modified="No">MSE</Option>
    <Option name="NeuronInputType" modified="No">sum</Option>
    <Option name="V" modified="Yes">False</Option>
    <Option name="VerbosityLevel" modified="No">Default</Option>
    <Option name="VarTransform" modified="Yes">Norm</Option>
    <Option name="H" modified="Yes">False</Option>
    <Option name="CreateMVAPdfs" modified="No">False</Option>
    <Option name="IgnoreNegWeightsInTraining" modified="No">False</Option>
    <Option name="TrainingMethod" modified="Yes">BFGS</Option>
    <Option name="LearningRate" modified="No">2.000000e-02</Option>
    <Option name="DecayRate" modified="No">1.000000e-02</Option>
    <Option name="TestRate" modified="Yes">6</Option>
    <Option name="EpochMonitoring" modified="No">False</Option>
    <Option name="Sampling" modified="Yes">3.000000e-01</Option>
    <Option name="SamplingEpoch" modified="Yes">8.000000e-01</Option>
    <Option name="SamplingImportance" modified="No">1.000000e+00</Option>
    <Option name="SamplingTraining" modified="No">True</Option>
    <Option name="SamplingTesting" modified="No">False</Option>
    <Option name="ResetStep" modified="No">50</Option>
    <Option name="Tau" modified="No">3.000000e+00</Option>
    <Option name="BPMode" modified="No">sequential</Option>
    <Option name="BatchSize" modified="No">-1</Option>
    <Option name="ConvergenceImprove" modified="Yes">1.000000e-06</Option>
    <Option name="ConvergenceTests" modified="Yes">15</Option>
    <Option name="UseRegulator" modified="Yes">False</Option>
    <Option name="UpdateLimit" modified="No">10000</Option>
    <Option name="CalculateErrors" modified="No">False</Option>
    <Option name="WeightRange" modified="No">1.000000e+00</Option>
  </Options>
  <Variables NVar="17">
    <Variable VarIndex="0" Expression="235U" Label="235U" Title="235U" Unit="IsotopicFraction" Internal="235U" Type="F" Min="1.71346517e-06" Max="1.92414057e-02"/>
    <Variable VarIndex="1" Expression="238U" Label="238U" Title="238U" Unit="IsotopicFraction" Internal="238U" Type="F" Min="7.85399854e-01" Max="9.68733251e-01"/>
    <Variable VarIndex="2" Expression="237Np" Label="237Np" Title="237Np" Unit="IsotopicFraction" Internal="237Np" Type="F" Min="1.63990119e-08" Max="1.97294168e-04"/>
    <Variable VarIndex="3" Expression="238Pu" Label="238Pu" Title="238Pu" Unit="IsotopicFraction" Internal="238Pu" Type="F" Min="4.69728775e-07" Max="3.96428024e-03"/>
    <Variable VarIndex="4" Expression="239Pu" Label="239Pu" Title="239Pu" Unit="IsotopicFraction" Internal="239Pu" Type="F" Min="2.15940680e-02" Max="1.89886928e-01"/>
    <Variable VarIndex="5" Expression="240Pu" Label="240Pu" Title="240Pu" Unit="IsotopicFraction" Internal="240Pu" Type="F" Min="1.54567579e-06" Max="3.95636074e-02"/>
    <Variable VarIndex="6" Expression="241Pu" Label="241Pu" Title="241Pu" Unit="IsotopicFraction" Internal="241Pu" Type="F" Min="3.22813172e-08" Max="7.04628276e-03"/>
    <Variable VarIndex="7" Expression="242Pu" Label="242Pu" Title="242Pu" Unit="IsotopicFraction" Internal="242Pu" Type="F" Min="1.58277174e-07" Max="1.98803633e-03"/>
    <Variable VarIndex="8" Expression="241Am" Label="241Am" Title="241Am" Unit="IsotopicFraction" Internal="241Am" Type="F" Min="3.13082671e-10" Max="7.48056592e-03"/>
    <Variable VarIndex="9" Expression="242Amm" Label="242Amm" Title="242Amm" Unit="IsotopicFraction" Internal="242Amm" Type="F" Min="1.34159976e-07" Max="1.16249369e-02"/>
    <Variable VarIndex="10" Expression="243Am" Label="243Am" Title="243Am" Unit="IsotopicFraction" Internal="243Am" Type="F" Min="2.04390229e-08" Max="1.99559363e-04"/>
    <Variable VarIndex="11" Expression="242Cm" Label="242Cm" Title="242Cm" Unit="IsotopicFraction" Internal="242Cm" Type="F" Min="1.48285639e-09" Max="1.93909858e-04"/>
    <Variable VarIndex="12" Expression="243Cm" Label="243Cm" Title="243Cm" Unit="IsotopicFraction" Internal="243Cm" Type="F" Min="9.09117492e-09" Max="1.97552916e-04"/>
    <Variable VarIndex="13" Expression="244Cm" Label="244Cm" Title="244Cm" Unit="IsotopicFraction" Internal="244Cm" Type="F" Min="2.46570231e-09" Max="1.97112051e-04"/>
    <Variable VarIndex="14" Expression="245Cm" Label="245Cm" Title="245Cm" Unit="IsotopicFraction" Internal="245Cm" Type="F" Min="9.47205692e-09" Max="1.97873349e-04"/>
    <Variable VarIndex="15" Expression="246Cm" Label="246Cm" Title="246Cm" Unit="IsotopicFraction" Internal="246Cm" Type="F" Min="2.33963915e-09" Max="1.98596885e-04"/>
    <Variable VarIndex="16" Expression="Time" Label="Time" Title="Time" Unit="seconds" Internal="Time" Type="F" Min="0.00000000e+00" Max="1.89328320e+08"/>
  </Variables>
  <Spectators NSpec="0"/>
  <Classes NClass="1">
    <Class Name="Regression" Index="0"/>
  </Classes>
  <Targets NTrgt="1">
    <Target TargetIndex="0" Expression="XS_90_230_0_fis" Label="XS_90_230_0_fis" Title="XS_90_230_0_fis" Unit="" Internal="XS_90_230_0_fis" Type="F" Min="6.37053177e-02" Max="7.96272680e-02"/>
  </Targets>
  <Transformations NTransformations="1">
    <Transform Name="Normalize">
      <Selection>
        <Input NInputs="18">
          <Input Type="Variable" Label="235U" Expression="235U"/>
          <Input Type="Variable" Label="238U" Expression="238U"/>
          <Input Type="Variable" Label="237Np" Expression="237Np"/>
          <Input Type="Variable" Label="238Pu" Expression="238Pu"/>
          <Input Type="Variable" Label="239Pu" Expression="239Pu"/>
          <Input Type="Variable" Label="240Pu" Expression="240Pu"/>
          <Input Type="Variable" Label="241Pu" Expression="241Pu"/>
          <Input Type="Variable" Label="242Pu" Expression="242Pu"/>
          <Input Type="Variable" Label="241Am" Expression="241Am"/>
          <Input Type="Variable" Label="242Amm" Expression="242Amm"/>
          <Input Type="Variable" Label="243Am" Expression="243Am"/>
          <Input Type="Variable" Label="242Cm" Expression="242Cm"/>
          <Input Type="Variable" Label="243Cm" Expression="243Cm"/>
          <Input Type="Variable" Label="244Cm" Expression="244Cm"/>
          <Input Type="Variable" Label="245Cm" Expression="245Cm"/>
          <Input Type="Variable" Label="246Cm" Expression="246Cm"/>
          <Input Type="Variable" Label="Time" Expression="Time"/>
          <Input Type="Target" Label="XS_90_230_0_fis" Expression="XS_90_230_0_fis"/>
        </Input>
        <Output NOutputs="18">
          <Output Type="Variable" Label="235U" Expression="235U"/>
          <Output Type="Variable" Label="238U" Expression="238U"/>
          <Output Type="Variable" Label="237Np" Expression="237Np"/>
          <Output Type="Variable" Label="238Pu" Expression="238Pu"/>
          <Output Type="Variable" Label="239Pu" Expression="239Pu"/>
          <Output Type="Variable" Label="240Pu" Expression="240Pu"/>
          <Output Type="Variable" Label="241Pu" Expression="241Pu"/>
          <Output Type="Variable" Label="242Pu" Expression="242Pu"/>
          <Output Type="Variable" Label="241Am" Expression="241Am"/>
          <Output Type="Variable" Label="242Amm" Expression="242Amm"/>
          <Output Type="Variable" Label="243Am" Expression="243Am"/>
          <Output Type="Variable" Label="242Cm" Expression="242Cm"/>
          <Output Type="Variable" Label="243Cm" Expression="243Cm"/>
          <Output Type="Variable" Label="244Cm" Expression="244Cm"/>
          <Output Type="Variable" Label="245Cm" Expression="245Cm"/>
          <Output Type="Variable" Label="246Cm" Expression="246Cm"/>
          <Output Type="Variable" Label="Time" Expression="Time"/>
          <Output Type="Target" Label="XS_90_230_0_fis" Expression="XS_90_230_0_fis"/>
        </Output>
      </Selection>
      <Class ClassIndex="0">
        <Ranges>
          <Range Index="0" Min="1.7134651670858148e-06" Max="1.9241405650973320e-02"/>
          <Range Index="1" Min="7.8539985418319702e-01" Max="9.6873325109481812e-01"/>
          <Range Index="2" Min="1.6399011926182538e-08" Max="1.9729416817426682e-04"/>
          <Range Index="3" Min="4.6972877498774324e-07" Max="3.9642802439630032e-03"/>
          <Range Index="4" Min="2.1594068035483360e-02" Max="1.8988692760467529e-01"/>
          <Range Index="5" Min="1.5456757864740212e-06" Max="3.9563607424497604e-02"/>
          <Range Index="6" Min="3.2281317174920332e-08" Max="7.0462827570736408e-03"/>
          <Range Index="7" Min="1.5827717447791656e-07" Max="1.9880363252013922e-03"/>
          <Range Index="8" Min="3.1308267089968922e-10" Max="7.4805659241974354e-03"/>
          <Range Index="9" Min="1.3415997557331139e-07" Max="1.1624936945736408e-02"/>
          <Range Index="10" Min="2.0439022918594674e-08" Max="1.9955936295446008e-04"/>
          <Range Index="11" Min="1.4828563932312022e-09" Max="1.9390985835343599e-04"/>
          <Range Index="12" Min="9.0911749239808159e-09" Max="1.9755291577894241e-04"/>
          <Range Index="13" Min="2.4657023089957875e-09" Max="1.9711205095518380e-04"/>
          <Range Index="14" Min="9.4720569165929192e-09" Max="1.9787334895227104e-04"/>
          <Range Index="15" Min="2.3396391490848600e-09" Max="1.9859688472934067e-04"/>
          <Range Index="16" Min="0.0000000000000000e+00" Max="1.8932832000000000e+08"/>
          <Range Index="17" Min="6.3705317676067352e-02" Max="7.9627268016338348e-02"/>
        </Ranges>
      </Class>
    </Transform>
  </Transformations>
  <MVAPdfs/>
  <Weights>
    <Layout NLayers="4">
      <Layer Index="0" NNeurons="18">
        <Neuron NSynapses="17">
          -1.5825909345472744e-01 2.5977479764296191e-01 5.2844276443821636e-01 1.3731836119661005e+00 -1.6685333343659987e+00 -1.4436804676816524e+00 -6.2877896774655084e-01 1.3086254004480094e-01 -1.5683703141878069e+00 -1.0762409340590726e+00 -1.4181764614743126e+00 8.8656839840427368e-02 -8.6034515996201244e-01 -3.8308026867783246e-01 -4.3076641014811956e-01 5.8501617853148358e-01 -3.8491300078609114e-01 
        </Neuron>
        <Neuron NSynapses="17">
          1.4913243476628746e+00 1.5048303310320466e+00 1.8079854254975471e+00 -5.8520020855246835e-01 -2.6082356294023107e-01 7.1059601199110922e-01 -3.8837987915284239e-01 -2.3653648062488517e+00 -2.5456229470828401e-01 1.8019987007742169e+00 -1.3639991903805579e+00 -3.2529993084854421e+00 -2.4871920006208509e-01 5.8233111505416668e-01 1.5658919648081966e+00 1.0746958139846672e+00 -5.9107788565844879e-02 
        </Neuron>
        <Neuron NSynapses="17">
          3.9973980310501422e-01 -4.2350447426062277e-01 -1.1913674489939687e+00 1.8202715254727018e+00 -1.7349125109547807e+00 6.8277180785700831e-01 1.4482447504652909e+00 8.6016183926924650e-01 1.7351636689725811e+00 1.0846694516330224e+00 -6.8370023766091548e-01 -9.1425493672830671e-01 8.8476883686833763e-01 -2.6800634434667625e-01 1.5662015145951169e+00 1.0567574328259011e+00 1.5686648567632722e+00 
        </Neuron>
        <Neuron NSynapses="17">
          1.4654065162090475e+00 -9.7846477734451243e-01 1.7485686144970474e+00 -1.5837364964992515e+00 -1.2904883673195502e+00 -1.6981174137990040e+00 -1.4698234459992097e+00 7.3770426808500134e-01 3.7997767839596286e-01 -1.6048202912891529e+00 4.7073561495238209e-01 -8.8984468465559985e-01 8.2616418207332065e-01 1.0778062518731015e+00 -2.1185497938298067e-01 3.7584416527835035e-02 -7.5517718562502889e-01 
        </Neuron>
        <Neuron NSynapses="17">
          1.0058206707433206e+00 -1.7234710366301536e+00 -8.8335595131872591e-01 -1.1130240356235850e+00 1.3127812178920223e-01 1.0126644580152560e+00 1.8832000605161190e+00 7.2123196997645900e-01 -1.9790586373779524e+00 -2.1609402988737751e+00 1.2995260470614820e+00 1.4508606521664484e+00 2.2532622094716319e+00 5.5062281404889757e-01 1.0985876061047424e+00 -2.0199484082157841e+00 -9.2525307655341138e-01 
        </Neuron>
        <Neuron NSynapses="17">
          1.0128381278409919e-01 9.0359114434104026e-01 -1.1138545325028233e+00 -1.5186203610007378e+00 -1.9266615466415613e+00 -4.7157211531661747e-01 2.2456112283064766e-01 1.5312697314281802e+00 -1.6194605290034965e+00 -9.6867932176377658e-01 1.5366312148547183e+00 -5.0447666547996484e-01 -1.2644708607494881e+00 -1.8128106539382400e+00 2.3108922158032244e-01 -1.9134311795307188e+00 -1.2345197583398420e+00 
        </Neuron>
        <Neuron NSynapses="17">
          9.1452368039781562e-01 1.6576286182682161e+00 -7.6492222851245206e-01 1.7455121261846653e+00 -1.4098997517745899e+00 -1.2427445734243880e+00 3.3005524986430218e-01 -1.0338015214319340e-01 -2.0188052646282912e+00 1.1723891920866449e-01 2.7639188150036836e-01 3.1199287626355726e-01 -1.1855105630378868e+00 1.0436066008452722e+00 5.5042990051729512e-01 -6.5175796274905262e-01 1.2438416733028579e+00 
        </Neuron>
        <Neuron NSynapses="17">
          -8.7931706259710773e-01 -1.1159496123201822e+00 4.7244290839891251e-01 -1.3112991681345318e-01 1.1917149933475821e+00 3.6643234903473698e-01 4.0433960153864351e-01 -5.6300425669163845e-01 -5.7782363654721752e-02 -1.7870467102326861e+00 1.1866878495321407e+00 -1.4114703538238726e-01 -1.5853446204358339e+00 1.1762796082917130e-01 -1.1375710769055152e+00 -1.9720357463211882e-01 1.3168772717786434e+00 
        </Neuron>
        <Neuron NSynapses="17">
          2.1260444421408926e+00 -1.4823750988406823e+00 9.2618853871032691e-01 1.7869514854519468e+00 8.7152100278806932e-01 -4.6479193241697170e-01 -9.4447728221321414e-01 -5.5575726039184248e-01 -1.7270804077435644e+00 1.2865734237207387e+00 1.4217538133513405e+00 -4.3761829374884709e-01 -2.3731086141042984e-01 -5.6422838199400072e-01 -1.1680782526346860e+00 7.0202584864542006e-01 2.1346305205745271e+00 
        </Neuron>
        <Neuron NSynapses="17">
          -2.8338039343815929e-01 -2.9869763079969586e-01 8.6332053953738730e-01 1.3752174146319180e+00 -4.1566032674097532e-03 5.4118457971729217e-01 -8.0962361035692965e-01 9.4154411122120873e-01 3.3639237197344385e-01 2.2896024605073600e-01 1.0320258990882167e+00 2.5803333459839212e-01 -3.0862440580041089e-01 -1.0747101971589943e+00 1.3331102619111479e+00 -1.1476880258190971e+00 -1.4353800672773379e-01 
        </Neuron>
        <Neuron NSynapses="17">
          1.6290097926258311e+00 1.1268210249071746e+00 -1.7737814325229398e-01 1.4588806835927568e+00 1.4686786617753855e+00 -2.1017452596386854e+00 7.8881257570986951e-01 -5.6575200202213893e-01 3.2552801801155062e-01 -1.6482454695113973e+00 -1.4986271061647354e+00 3.6488322326499656e-01 1.8668758683687063e+00 -2.0400194765351700e+00 4.0484032980461306e-02 -6.7412517790689419e-01 3.4079505326475146e-01 
        </Neuron>
        <Neuron NSynapses="17">
          1.9027131371659687e+00 -2.0963789468298254e-02 -1.6918030305723983e-01 -9.5637634675131022e-01 6.3189326295798753e-01 1.2718847514875975e+00 1.3790688430387739e+00 -1.3463018383980027e-01 -8.9630952357220883e-01 -1.9354564707415185e+00 1.0915483496724401e+00 2.5272699046515371e-02 -1.2058506352459364e+00 -1.2493511502910002e+00 5.1034964171964570e-01 -6.1678024015048197e-02 -1.6263270882063285e+00 
        </Neuron>
        <Neuron NSynapses="17">
          1.7791461312160357e+00 1.0588683005786637e+00 -4.3820936995989285e-01 -3.0377290447436159e-02 1.3174320259850092e+00 7.6943495637188219e-01 6.7820828843811842e-01 -5.2556195087617608e-01 -1.8785353441511903e+00 -9.2913763648140324e-01 1.7043055313407176e+00 6.6938018354640882e-01 8.8566250953967651e-01 -2.5924457031517811e-01 2.2217914489449213e+00 -1.6149337685786829e+00 -9.1781317624745062e-01 
        </Neuron>
        <Neuron NSynapses="17">
          1.4221834431583624e-01 -1.2331379940195839e+00 1.1758412620844165e+00 1.8731910660140028e+00 -1.4891351314435828e+00 4.7151555763075265e-01 1.3773827957254259e-01 -1.4986628079557112e+00 -1.1223480510817423e+00 8.0716549849700603e-01 9.0793900087047477e-02 6.4065622515223075e-01 -9.7757790164090841e-01 1.0760045106007621e+00 -1.4786497306184727e+00 5.8914063567036778e-01 3.1997291890885077e-01 
        </Neuron>
        <Neuron NSynapses="17">
          -1.2174070423965626e+00 -1.0107727838331539e+00 -1.6235143739666118e+00 -2.4778145418562039e-01 -2.4176140605660770e+00 -1.9228570297004448e+00 -1.3696697958102777e+00 -2.2101468548335928e-02 -1.1612253595664119e+00 -1.7004496168144967e+00 1.3566488901060030e+00 -8.5496316382994431e-01 2.8752942176185375e-01 -1.4433919747915389e+00 4.5620210270525435e-01 1.5392504975812744e+00 1.5650988261269021e+00 
        </Neuron>
        <Neuron NSynapses="17">
          -7.2110531913797871e-01 -9.7319131937593439e-01 -7.3346513284316206e-01 -9.2238893833587676e-01 -1.9975372606943891e+00 -2.2609481646271048e-02 3.9426877880726319e-01 1.2840038522712713e+00 -3.8323607809902738e-01 2.2823825017342114e-01 -4.7903827530715609e-01 -1.7401310239294960e+00 1.4109236564438321e+00 5.7077743782882207e-01 -6.1473857855866099e-01 -1.0717636305287108e+00 1.1215752794679910e+00 
        </Neuron>
        <Neuron NSynapses="17">
          8.9546987412322465e-01 7.9033675444958584e-01 -3.5832090876553557e-01 -4.6438691815699340e-01 1.3649109273205609e+00 9.3149179701705376e-01 2.8470391334175565e-01 -6.9178204224013151e-01 4.5311638641643187e-01 7.9418299204491324e-02 -1.7506520195037487e+00 -7.1202482359685471e-01 -2.0913018403078625e+00 -1.2570793769797024e+00 -1.1984187863149762e+00 1.7911438377792697e+00 -1.6002552525570211e+00 
        </Neuron>
        <Neuron NSynapses="17">
          1.3476698303387677e+00 -2.7121395829197419e+00 4.5226124209700722e-02 -1.2681176507106078e+00 1.0753824020674594e+00 1.7185397382621979e+00 -2.4779222014272757e+00 1.8470543779518602e+00 1.0921071127479460e+00 -1.7888601792949508e+00 -1.5968007884426496e+00 -3.6125937539948627e-01 -8.9816291608144316e-01 3.0207516530564389e+00 -8.5877098248180206e-01 -6.0788337881203580e-01 -1.6589118692454834e+00 
        </Neuron>
      </Layer>
      <Layer Index="1" NNeurons="18">
        <Neuron NSynapses="17">
          -7.9135975934216762e-01 -1.5107434917077236e+00 -8.0518888628335561e-01 -1.4608998403118740e+00 7.2273676209964566e-01 -1.4700577735445290e+00 -1.1263208586725459e+00 1.5115060714540449e+00 6.5587296997277222e-02 -5.5857250505884826e-01 1.9890843584180535e+00 -1.5134701889931048e+00 1.5870359939634056e+00 9.5115558048166471e-01 -1.2064330884235293e+00 -7.2502530330653336e-01 -9.2736355521060854e-02 
        </Neuron>
        <Neuron NSynapses="17">
          -1.0999476940658615e+00 6.4049396969614270e-01 1.8087626644778214e+00 1.6001852400383982e+00 1.8516822750430979e+00 -1.1094519851860098e+00 1.2566311855790935e+00 -2.0655663224322742e+00 3.3696542205963725e-01 -1.3649059166051636e+00 -2.0994844793348926e+00 9.7252998986468983e-02 1.2225101431791048e+00 3.3068440144519118e-01 9.5217129440921577e-01 3.8761091824328497e-01 -2.4094603604399850e-01 
        </Neuron>
        <Neuron NSynapses="17">
          -5.5749747933364469e-01 5.9928926440760345e-02 1.9924188430707770e+00 -1.2389438670383084e+00 6.1979174866882625e-01 -1.1526975217172888e+00 2.9431694372175930e-02 2.1850702111811654e-01 -1.7056556430316089e-01 -1.3453015465434359e+00 6.5553757491797549e-01 1.7231756297911316e+00 9.5224790938591508e-01 -6.2343430420959238e-02 -6.7784406220565530e-01 -1.3830510874898969e+00 -1.5988773157586587e+00 
        </Neuron>
        <Neuron NSynapses="17">
          1.2538588403283506e+00 -3.9024783524215273e-01 -4.0392135326792494e-01 3.6258762090686369e-01 -1.7355526741744338e+00 -1.3779478324146051e+00 -2.0018259417621964e+00 7.5857322628261203e-01 -1.5130127528432367e+00 -1.5972002113545498e+00 -4.5657509993476281e-01 -8.5728177747801759e-01 -1.6746707851737308e+00 1.2353626319811464e+00 -1.6095754375632711e+00 -1.2866908913767183e+00 1.5197603042766112e+00 
        </Neuron>
        <Neuron NSynapses="17">
          4.1470845365947284e-01 2.1985033324337325e-01 -1.3885512005372089e-01 1.2358807623888748e+00 1.6732667448316374e+00 7.4523032599873829e-01 -6.6448133759452055e-01 -4.1592599059525709e-01 -1.5693735059941138e+00 7.5755448260700242e-01 7.9993401367803252e-01 -1.6935763263855843e-02 1.0573256342617574e+00 8.6512564313709228e-01 1.6051469168975712e+00 -1.2764682131379950e+00 1.6761924896872160e+00 
        </Neuron>
        <Neuron NSynapses="17">
          6.3001254303100862e-01 -2.0137723442418216e+00 -4.2133761598543917e-01 -9.5411995534020710e-01 9.2056127577902269e-01 5.7671178026907588e-01 1.2977440187201099e+00 1.9217296873210181e+00 -3.7640334347133952e-01 1.5013222361218481e+00 1.7887715684288865e+00 1.6922148035261006e-01 -8.2694854460233580e-01 1.6105881235273534e+00 -2.0495752199233359e+00 6.6146148711716057e-01 1.7377105345752704e+00 
        </Neuron>
        <Neuron NSynapses="17">
          -8.5171384662478755e-02 -5.3979778549645840e-01 -2.2224083195538941e-01 -1.1952922725321435e+00 6.7892702674229299e-01 -1.8280813607178010e+00 2.0568341978281432e-01 -4.2544527151858313e-01 1.3428672291089960e+00 1.1548150684241658e+00 1.8416306478720363e+00 -2.3720854030571517e-01 -1.7666888177161275e-01 2.5228906935837786e-01 1.5089747845317925e+00 -1.7745017680972399e+00 -1.3355912099408533e+00 
        </Neuron>
        <Neuron NSynapses="17">
          -5.7988665086250779e-01 -1.6173677667942901e+00 -1.3550194169927607e+00 -1.8636570919302788e+00 1.4247280281282573e-01 -2.8854109896275559e-01 -2.1319102086233332e+00 -1.9276063077140257e+00 -1.5478546743461233e-02 1.9666307167525572e+00 1.8734806963053288e+00 1.2170998325331126e+00 -6.7150452694197593e-01 -1.8064436425061414e+00 5.8147110403367348e-02 -1.3042764186062183e+00 -1.4540044431232471e+00 
        </Neuron>
        <Neuron NSynapses="17">
          -9.4247038229053393e-01 -7.9369603259888510e-02 -2.0353320716932135e+00 1.4223889437378570e+00 1.2284635586714303e+00 7.4073986843830952e-01 -3.3772330604078798e-01 -5.4112894543014212e-01 1.7146611852216191e+00 -5.8959663352170943e-01 3.7787921440435100e-02 1.4771015854090956e+00 1.6741701559588096e+00 -9.9151382833694579e-01 1.7169366217516231e+00 -1.8747456536699352e+00 1.7737399853296787e+00 
        </Neuron>
        <Neuron NSynapses="17">
          2.0464609702119585e+00 -6.8013407011976917e-02 4.5478246932725552e-01 5.1561725622512744e-01 -1.9240283849169973e-01 9.5973286824557946e-01 8.3273041727784070e-01 -9.0063109168416500e-01 -1.9952504300729952e+00 -2.2421295076886791e-01 1.5212124558790305e+00 4.4740358428851112e-01 -5.2000393808168976e-01 -1.8252359618053058e+00 1.7508342112956516e+00 4.3083135519831389e-01 -1.1978580080559778e+00 
        </Neuron>
        <Neuron NSynapses="17">
          -2.5723924090704492e-01 -1.0608167785156466e+00 1.9540463655632967e+00 1.2712194556570600e+00 -1.0535224608716103e+00 -1.5793150148322848e+00 9.7824222126989668e-01 9.5579769434754369e-01 6.4847062548760304e-01 2.2095026457493636e-01 -8.9969638560065623e-01 -1.3066075735475533e+00 6.2873016545115779e-01 3.9869380538297078e-01 1.8561809270828925e-01 -1.9419390078455159e+00 -1.9901930574916464e+00 
        </Neuron>
        <Neuron NSynapses="17">
          -1.9085414707643011e+00 -4.3729588513514212e-01 -1.6649198302790429e+00 -3.6082893452579520e-02 -1.0478323592134207e+00 1.1204576177231389e+00 -1.0112028776029712e-01 -1.8194042681486009e+00 1.4127007049313047e+00 2.2174198580765956e+00 1.0922901998261154e+00 -5.1613134741897670e-01 -1.1333712730664551e+00 2.2011311006275940e+00 -1.4267841420235692e+00 3.4304856943080364e-01 -1.3645001360153444e+00 
        </Neuron>
        <Neuron NSynapses="17">
          6.6505692804366046e-01 -1.2540577885175268e+00 4.6020631949831976e-02 -3.0175703921232849e-01 -2.5254289525104551e-01 -1.5582033827642788e-01 -1.6324072377831635e+00 9.4085780384425111e-01 8.4643659745938249e-01 9.2740411161955860e-01 1.0608051358829262e+00 -1.8016655597240703e+00 8.7525383099022014e-01 -1.7656123710578533e+00 1.1097078725561922e+00 7.5651746627111693e-01 6.0400497567626543e-01 
        </Neuron>
        <Neuron NSynapses="17">
          1.4410998753903932e+00 1.4183672188683494e+00 -2.2172325608603032e+00 -6.5544803161403165e-01 -9.2999119298683663e-01 8.0448009037231016e-01 3.8537810795080107e-01 -8.5825104240587771e-02 -4.8264606384792219e-01 -6.7906672510284716e-01 -9.6635814595204972e-01 -3.9977125336695457e-01 -1.6539911640111324e+00 -3.0216391413276977e-01 3.1955104910214793e-01 -6.0580302783368190e-01 -1.2965151150332794e+00 
        </Neuron>
        <Neuron NSynapses="17">
          2.1824653780251113e-01 2.9976315617740817e-01 -1.1578444980667252e-01 -1.1584327641410959e+00 1.4777712615181613e+00 -3.1808636740025154e-01 7.1661705019501309e-02 5.7611982534172068e-01 -7.7606759815464010e-01 -5.6950254852073268e-01 -8.4237858606128271e-03 -2.0606274973386332e+00 -9.4868443094348498e-01 -1.0709408761056565e+00 1.0758254187755873e+00 -2.1228064670762947e+00 1.2818375354745590e+00 
        </Neuron>
        <Neuron NSynapses="17">
          1.8948238583833623e+00 1.6654642001297024e+00 1.1615813206878154e+00 8.9429528786289270e-01 4.4188322274891906e-01 -5.0956366006069598e-01 -1.3635026557039458e+00 -1.0581681841915100e+00 -1.1412197181704082e+00 8.6361044760462224e-01 -6.0217167746048669e-02 1.0259952494276607e-01 1.5668303477147913e+00 1.0723130509752721e+00 -1.2412323747944256e+00 5.6050623616043782e-01 -1.5779559719945293e+00 
        </Neuron>
        <Neuron NSynapses="17">
          9.7974203961806006e-01 -1.7591325559389182e+00 8.7773006387348840e-01 -3.3797207118829914e-01 8.3172888578829873e-01 -1.8577581165546901e+00 -2.8532148383253847e-01 -1.8865216131772762e+00 -7.2676121466266883e-02 1.1980266448830630e+00 -5.3232854634448068e-01 5.8712536227017476e-01 -1.9349577056553002e+00 1.0971850048996914e+00 -5.8256027922557507e-01 6.6238473875547721e-01 -1.8655584738729745e+00 
        </Neuron>
        <Neuron NSynapses="17">
          -1.3968396124333859e+00 1.7799895646854269e+00 -2.7251923000063409e+00 -1.2293948098420016e+00 -9.4294800251137600e-01 2.0481165774477561e+00 1.6754231286982211e+00 1.8527851824295696e+00 -1.5019130017706253e+00 8.4151261209288974e-01 5.0462054458863836e-01 1.2100472083435847e-01 -1.2546916422021990e+00 -1.3764532995119314e+00 3.2064764037081694e-01 -1.4774353556279507e-01 1.8331298389904518e+00 
        </Neuron>
      </Layer>
      <Layer Index="2" NNeurons="18">
        <Neuron NSynapses="1">
          -2.7536751811910860e-02 
        </Neuron>
        <Neuron NSynapses="1">
          -4.3751098631919831e-02 
        </Neuron>
        <Neuron NSynapses="1">
          -1.2583120377499279e+00 
        </Neuron>
        <Neuron NSynapses="1">
          -2.3781815718615398e-02 
        </Neuron>
        <Neuron NSynapses="1">
          -7.1839905298025544e-02 
        </Neuron>
        <Neuron NSynapses="1">
          -4.8508350337619044e-01 
        </Neuron>
        <Neuron NSynapses="1">
          -2.8545893147045507e-02 
        </Neuron>
        <Neuron NSynapses="1">
          -6.7647088380675723e-03 
        </Neuron>
        <Neuron NSynapses="1">
          3.8627850856525633e-02 
        </Neuron>
        <Neuron NSynapses="1">
          1.1493872655392907e-01 
        </Neuron>
        <Neuron NSynapses="1">
          -4.9745221393242799e-04 
        </Neuron>
        <Neuron NSynapses="1">
          -2.4377850401730995e-02 
        </Neuron>
        <Neuron NSynapses="1">
          -3.3695008617616783e-02 
        </Neuron>
        <Neuron NSynapses="1">
          4.1681858037762630e-03 
        </Neuron>
        <Neuron NSynapses="1">
          -1.2096856915965013e-02 
        </Neuron>
        <Neuron NSynapses="1">
          -2.8915979119103596e-02 
        </Neuron>
        <Neuron NSynapses="1">
          -7.0513022999270369e-02 
        </Neuron>
        <Neuron NSynapses="1">
          -3.6439561446768204e-01 
        </Neuron>
      </Layer>
      <Layer Index="3" NNeurons="1">
        <Neuron NSynapses="0"/>
      </Layer>
    </Layout>
  </Weights>
</MethodSetup>
