<?xml version="1.0"?>
<MethodSetup Method="MLP::XS_94_237_0_fis">
  <GeneralInfo>
    <Info name="TMVA Release" value="4.2.1 [262657]"/>
    <Info name="ROOT Release" value="6.06/02 [394754]"/>
    <Info name="Creator" value="mouginot"/>
    <Info name="Date" value="Thu Feb 23 17:16:36 2017"/>
    <Info name="Host" value="Linux e300.chtc.wisc.edu 2.6.32-642.13.1.el6.x86_64 #1 SMP Tue Jan 10 11:22:50 CST 2017 x86_64 x86_64 x86_64 GNU/Linux"/>
    <Info name="Dir" value="/mnt/gluster/mouginot/TRU_MOX_XS/Generate"/>
    <Info name="Training events" value="198960"/>
    <Info name="TrainingTime" value="3.62226643e+04"/>
    <Info name="AnalysisType" value="Regression"/>
  </GeneralInfo>
  <Options>
    <Option name="NCycles" modified="Yes">20000</Option>
    <Option name="HiddenLayers" modified="Yes">N,N</Option>
    <Option name="NeuronType" modified="Yes">tanh</Option>
    <Option name="RandomSeed" modified="No">1</Option>
    <Option name="EstimatorType" modified="No">MSE</Option>
    <Option name="NeuronInputType" modified="No">sum</Option>
    <Option name="V" modified="Yes">False</Option>
    <Option name="VerbosityLevel" modified="No">Default</Option>
    <Option name="VarTransform" modified="Yes">Norm</Option>
    <Option name="H" modified="Yes">False</Option>
    <Option name="CreateMVAPdfs" modified="No">False</Option>
    <Option name="IgnoreNegWeightsInTraining" modified="No">False</Option>
    <Option name="TrainingMethod" modified="Yes">BFGS</Option>
    <Option name="LearningRate" modified="No">2.000000e-02</Option>
    <Option name="DecayRate" modified="No">1.000000e-02</Option>
    <Option name="TestRate" modified="Yes">6</Option>
    <Option name="EpochMonitoring" modified="No">False</Option>
    <Option name="Sampling" modified="Yes">3.000000e-01</Option>
    <Option name="SamplingEpoch" modified="Yes">8.000000e-01</Option>
    <Option name="SamplingImportance" modified="No">1.000000e+00</Option>
    <Option name="SamplingTraining" modified="No">True</Option>
    <Option name="SamplingTesting" modified="No">False</Option>
    <Option name="ResetStep" modified="No">50</Option>
    <Option name="Tau" modified="No">3.000000e+00</Option>
    <Option name="BPMode" modified="No">sequential</Option>
    <Option name="BatchSize" modified="No">-1</Option>
    <Option name="ConvergenceImprove" modified="Yes">1.000000e-06</Option>
    <Option name="ConvergenceTests" modified="Yes">15</Option>
    <Option name="UseRegulator" modified="Yes">False</Option>
    <Option name="UpdateLimit" modified="No">10000</Option>
    <Option name="CalculateErrors" modified="No">False</Option>
    <Option name="WeightRange" modified="No">1.000000e+00</Option>
  </Options>
  <Variables NVar="17">
    <Variable VarIndex="0" Expression="235U" Label="235U" Title="235U" Unit="IsotopicFraction" Internal="235U" Type="F" Min="1.71346517e-06" Max="1.92414057e-02"/>
    <Variable VarIndex="1" Expression="238U" Label="238U" Title="238U" Unit="IsotopicFraction" Internal="238U" Type="F" Min="7.85399854e-01" Max="9.68733251e-01"/>
    <Variable VarIndex="2" Expression="237Np" Label="237Np" Title="237Np" Unit="IsotopicFraction" Internal="237Np" Type="F" Min="1.63990119e-08" Max="1.97294168e-04"/>
    <Variable VarIndex="3" Expression="238Pu" Label="238Pu" Title="238Pu" Unit="IsotopicFraction" Internal="238Pu" Type="F" Min="4.69728775e-07" Max="3.96428024e-03"/>
    <Variable VarIndex="4" Expression="239Pu" Label="239Pu" Title="239Pu" Unit="IsotopicFraction" Internal="239Pu" Type="F" Min="2.15940680e-02" Max="1.89886928e-01"/>
    <Variable VarIndex="5" Expression="240Pu" Label="240Pu" Title="240Pu" Unit="IsotopicFraction" Internal="240Pu" Type="F" Min="1.54567579e-06" Max="3.95636074e-02"/>
    <Variable VarIndex="6" Expression="241Pu" Label="241Pu" Title="241Pu" Unit="IsotopicFraction" Internal="241Pu" Type="F" Min="3.22813172e-08" Max="7.04628276e-03"/>
    <Variable VarIndex="7" Expression="242Pu" Label="242Pu" Title="242Pu" Unit="IsotopicFraction" Internal="242Pu" Type="F" Min="1.58277174e-07" Max="1.98803633e-03"/>
    <Variable VarIndex="8" Expression="241Am" Label="241Am" Title="241Am" Unit="IsotopicFraction" Internal="241Am" Type="F" Min="3.13082671e-10" Max="7.48056592e-03"/>
    <Variable VarIndex="9" Expression="242Amm" Label="242Amm" Title="242Amm" Unit="IsotopicFraction" Internal="242Amm" Type="F" Min="1.34159976e-07" Max="1.16249369e-02"/>
    <Variable VarIndex="10" Expression="243Am" Label="243Am" Title="243Am" Unit="IsotopicFraction" Internal="243Am" Type="F" Min="2.04390229e-08" Max="1.99559363e-04"/>
    <Variable VarIndex="11" Expression="242Cm" Label="242Cm" Title="242Cm" Unit="IsotopicFraction" Internal="242Cm" Type="F" Min="1.48285639e-09" Max="1.93909858e-04"/>
    <Variable VarIndex="12" Expression="243Cm" Label="243Cm" Title="243Cm" Unit="IsotopicFraction" Internal="243Cm" Type="F" Min="9.09117492e-09" Max="1.97552916e-04"/>
    <Variable VarIndex="13" Expression="244Cm" Label="244Cm" Title="244Cm" Unit="IsotopicFraction" Internal="244Cm" Type="F" Min="2.46570231e-09" Max="1.97112051e-04"/>
    <Variable VarIndex="14" Expression="245Cm" Label="245Cm" Title="245Cm" Unit="IsotopicFraction" Internal="245Cm" Type="F" Min="9.47205692e-09" Max="1.97873349e-04"/>
    <Variable VarIndex="15" Expression="246Cm" Label="246Cm" Title="246Cm" Unit="IsotopicFraction" Internal="246Cm" Type="F" Min="2.33963915e-09" Max="1.98596885e-04"/>
    <Variable VarIndex="16" Expression="Time" Label="Time" Title="Time" Unit="seconds" Internal="Time" Type="F" Min="0.00000000e+00" Max="1.89328320e+08"/>
  </Variables>
  <Spectators NSpec="0"/>
  <Classes NClass="1">
    <Class Name="Regression" Index="0"/>
  </Classes>
  <Targets NTrgt="1">
    <Target TargetIndex="0" Expression="XS_94_237_0_fis" Label="XS_94_237_0_fis" Title="XS_94_237_0_fis" Unit="" Internal="XS_94_237_0_fis" Type="F" Min="2.42247849e+01" Max="1.43839951e+02"/>
  </Targets>
  <Transformations NTransformations="1">
    <Transform Name="Normalize">
      <Selection>
        <Input NInputs="18">
          <Input Type="Variable" Label="235U" Expression="235U"/>
          <Input Type="Variable" Label="238U" Expression="238U"/>
          <Input Type="Variable" Label="237Np" Expression="237Np"/>
          <Input Type="Variable" Label="238Pu" Expression="238Pu"/>
          <Input Type="Variable" Label="239Pu" Expression="239Pu"/>
          <Input Type="Variable" Label="240Pu" Expression="240Pu"/>
          <Input Type="Variable" Label="241Pu" Expression="241Pu"/>
          <Input Type="Variable" Label="242Pu" Expression="242Pu"/>
          <Input Type="Variable" Label="241Am" Expression="241Am"/>
          <Input Type="Variable" Label="242Amm" Expression="242Amm"/>
          <Input Type="Variable" Label="243Am" Expression="243Am"/>
          <Input Type="Variable" Label="242Cm" Expression="242Cm"/>
          <Input Type="Variable" Label="243Cm" Expression="243Cm"/>
          <Input Type="Variable" Label="244Cm" Expression="244Cm"/>
          <Input Type="Variable" Label="245Cm" Expression="245Cm"/>
          <Input Type="Variable" Label="246Cm" Expression="246Cm"/>
          <Input Type="Variable" Label="Time" Expression="Time"/>
          <Input Type="Target" Label="XS_94_237_0_fis" Expression="XS_94_237_0_fis"/>
        </Input>
        <Output NOutputs="18">
          <Output Type="Variable" Label="235U" Expression="235U"/>
          <Output Type="Variable" Label="238U" Expression="238U"/>
          <Output Type="Variable" Label="237Np" Expression="237Np"/>
          <Output Type="Variable" Label="238Pu" Expression="238Pu"/>
          <Output Type="Variable" Label="239Pu" Expression="239Pu"/>
          <Output Type="Variable" Label="240Pu" Expression="240Pu"/>
          <Output Type="Variable" Label="241Pu" Expression="241Pu"/>
          <Output Type="Variable" Label="242Pu" Expression="242Pu"/>
          <Output Type="Variable" Label="241Am" Expression="241Am"/>
          <Output Type="Variable" Label="242Amm" Expression="242Amm"/>
          <Output Type="Variable" Label="243Am" Expression="243Am"/>
          <Output Type="Variable" Label="242Cm" Expression="242Cm"/>
          <Output Type="Variable" Label="243Cm" Expression="243Cm"/>
          <Output Type="Variable" Label="244Cm" Expression="244Cm"/>
          <Output Type="Variable" Label="245Cm" Expression="245Cm"/>
          <Output Type="Variable" Label="246Cm" Expression="246Cm"/>
          <Output Type="Variable" Label="Time" Expression="Time"/>
          <Output Type="Target" Label="XS_94_237_0_fis" Expression="XS_94_237_0_fis"/>
        </Output>
      </Selection>
      <Class ClassIndex="0">
        <Ranges>
          <Range Index="0" Min="1.7134651670858148e-06" Max="1.9241405650973320e-02"/>
          <Range Index="1" Min="7.8539985418319702e-01" Max="9.6873325109481812e-01"/>
          <Range Index="2" Min="1.6399011926182538e-08" Max="1.9729416817426682e-04"/>
          <Range Index="3" Min="4.6972877498774324e-07" Max="3.9642802439630032e-03"/>
          <Range Index="4" Min="2.1594068035483360e-02" Max="1.8988692760467529e-01"/>
          <Range Index="5" Min="1.5456757864740212e-06" Max="3.9563607424497604e-02"/>
          <Range Index="6" Min="3.2281317174920332e-08" Max="7.0462827570736408e-03"/>
          <Range Index="7" Min="1.5827717447791656e-07" Max="1.9880363252013922e-03"/>
          <Range Index="8" Min="3.1308267089968922e-10" Max="7.4805659241974354e-03"/>
          <Range Index="9" Min="1.3415997557331139e-07" Max="1.1624936945736408e-02"/>
          <Range Index="10" Min="2.0439022918594674e-08" Max="1.9955936295446008e-04"/>
          <Range Index="11" Min="1.4828563932312022e-09" Max="1.9390985835343599e-04"/>
          <Range Index="12" Min="9.0911749239808159e-09" Max="1.9755291577894241e-04"/>
          <Range Index="13" Min="2.4657023089957875e-09" Max="1.9711205095518380e-04"/>
          <Range Index="14" Min="9.4720569165929192e-09" Max="1.9787334895227104e-04"/>
          <Range Index="15" Min="2.3396391490848600e-09" Max="1.9859688472934067e-04"/>
          <Range Index="16" Min="0.0000000000000000e+00" Max="1.8932832000000000e+08"/>
          <Range Index="17" Min="2.4224784851074219e+01" Max="1.4383995056152344e+02"/>
        </Ranges>
      </Class>
    </Transform>
  </Transformations>
  <MVAPdfs/>
  <Weights>
    <Layout NLayers="4">
      <Layer Index="0" NNeurons="18">
        <Neuron NSynapses="17">
          -2.6825809884924789e-01 1.3182460155040763e+00 8.1855330830739237e-01 1.8417762700970761e+00 -2.0058068036617738e+00 -5.5764323200480204e-01 -8.2325558462345738e-01 1.6735450880706537e+00 -1.3606380835916783e+00 -1.2620683704177553e+00 -1.5910586991106597e+00 -5.6690296612030600e-01 -1.0102481863301545e+00 -4.2265711846484377e-01 -1.2672471095877968e-01 -6.1485057914952804e-02 -6.3168337319934842e-01 
        </Neuron>
        <Neuron NSynapses="17">
          1.5662435013314731e+00 8.7082468039073646e-01 1.7618544592565697e+00 -5.9390340602095171e-01 -8.3418265427588312e-01 -4.4594364023028826e-01 2.8834036536714192e-01 -8.0903141899273101e-01 -3.6995592319929987e-01 1.7072889400474800e+00 -8.4711718103780265e-01 -1.3461822911580879e+00 4.3087710552447249e-02 7.3328525525989585e-01 8.1665719640098555e-01 6.4484323502998298e-01 2.2459390032653179e-01 
        </Neuron>
        <Neuron NSynapses="17">
          2.6061578706401661e-01 -2.4941846077300328e-01 -1.3474782361649404e+00 1.6894767192796825e+00 -1.5200951281721597e+00 1.2608549967729739e+00 1.3267771883964079e+00 1.0849545953257451e+00 1.7814305144286386e+00 1.3396606430458584e+00 -6.5623630959627155e-01 -1.2111329296513726e+00 5.1671980823501940e-01 1.4662955507816469e-01 1.6621589459129487e+00 1.4193352189805788e+00 1.6130293015236445e+00 
        </Neuron>
        <Neuron NSynapses="17">
          1.4747570514516548e+00 -1.4619863297404869e+00 1.5089273237689884e+00 -2.0583191210408445e+00 -9.7289750240128448e-01 -1.2587999005437780e+00 -1.4266213867997257e+00 1.6364878829257195e+00 6.0674983141586913e-01 -1.3168297036541410e+00 3.7865374618728587e-01 -3.4911783196231411e-01 4.3259478150254588e-01 1.9213878908840132e+00 -1.5115803256561622e-01 3.6424170087326285e-01 -9.0168637823640585e-01 
        </Neuron>
        <Neuron NSynapses="17">
          9.1712260084082731e-01 -1.3222292056886735e+00 -9.8274053301931941e-01 -1.2660099035288506e+00 7.2231720336764149e-01 2.0145152590263020e+00 1.2621558384545488e+00 -5.0694480824467081e-01 -1.8390087995508735e+00 -1.9394999359185843e+00 8.4791977098650340e-01 1.8698107101789929e-01 1.9103638285852726e+00 6.2414955868838251e-01 1.6382141286468588e+00 -1.4656216318151298e+00 -1.1114983084284045e+00 
        </Neuron>
        <Neuron NSynapses="17">
          -6.8225844068988073e-02 1.2469800962463533e+00 -9.4680129729897222e-01 -1.7412910899014327e+00 -1.8519592323269871e+00 6.7099881734703257e-02 1.1062931757181638e-01 1.7770552580908816e+00 -1.6003521466470396e+00 -6.6518514262539985e-01 1.5669905761072425e+00 -7.6082930247976599e-01 -1.7270138410164491e+00 -1.4709712858131150e+00 3.8523980604537761e-01 -1.8085750884623077e+00 -1.3149554211466647e+00 
        </Neuron>
        <Neuron NSynapses="17">
          8.5334212545845900e-01 2.0335788869467151e+00 -7.6788648991391595e-01 1.4203618955555402e+00 -1.2678909938623748e+00 -8.7792582910624606e-01 3.4267941655101686e-01 7.6486472555892715e-01 -1.9191104634468255e+00 5.7765792299807017e-01 4.3574076653526495e-01 7.0571613478954076e-01 -1.7876741024355158e+00 1.9238297463602023e+00 4.2740927247206378e-01 -4.7720240862453944e-01 1.2047490837709049e+00 
        </Neuron>
        <Neuron NSynapses="17">
          -9.8488266601640062e-01 -1.4146419599318836e+00 3.0178860223190496e-01 -4.7989577401903605e-01 1.6327670342080012e+00 9.5045512128551224e-01 2.1668713967019082e-01 -1.3141034058429843e-01 1.3785722278051049e-01 -1.4905147489402324e+00 1.0481988278869609e+00 2.8702491438346994e-01 -1.9714023458589025e+00 6.9777676052535775e-01 -1.1799291661758846e+00 2.6585152458175804e-01 1.2475812325343587e+00 
        </Neuron>
        <Neuron NSynapses="17">
          1.8578791002568047e+00 -1.4929262137898101e+00 7.5148764747965702e-01 1.2489626137293894e+00 1.2104625695484037e+00 -6.1906293334501462e-02 -9.9747395943734951e-01 3.1108967756662420e-01 -1.5003105426621133e+00 1.8340437453942511e+00 1.3812627488312503e+00 1.2464499679162931e-01 -8.7105761240475255e-01 2.8342065676696854e-01 -1.4206349533653468e+00 1.1900225413475434e+00 2.1189690497386255e+00 
        </Neuron>
        <Neuron NSynapses="17">
          -4.4079848426608625e-01 -4.9787920777431732e-01 5.2363104617360046e-01 9.4785487527756285e-01 3.5962431580476562e-01 1.1239518272604525e+00 -1.1148664572975207e+00 1.6059896158931000e+00 5.3405716786842572e-01 6.0656568702950042e-01 6.7429722340321718e-01 8.2891723038105858e-01 -8.4655834718103862e-01 -5.6973498140104351e-01 1.3907790559488808e+00 -7.9769191449917198e-01 -2.6988665800410994e-01 
        </Neuron>
        <Neuron NSynapses="17">
          1.6450938084570130e+00 9.8766760847981050e-01 -1.2709380417128407e-01 1.4417439276312898e+00 1.5979446359411311e+00 -1.7076839254710867e+00 8.3585465712383011e-01 1.3931673583668078e-01 3.3479733023553526e-01 -1.5417695158572500e+00 -1.4155029529163734e+00 1.0632574958474110e+00 1.4554115253527649e+00 -1.6255848166498787e+00 6.7691948764403445e-02 -5.1183702553060539e-01 4.8463348194673173e-01 
        </Neuron>
        <Neuron NSynapses="17">
          1.8284693331390620e+00 -1.1302636285933790e-01 -3.0024852213324349e-01 -1.3362054103587822e+00 8.6717836278200178e-01 1.6467037802447115e+00 1.2717128952743899e+00 6.6010741274764984e-01 -8.1082104082228423e-01 -1.5955867007169529e+00 1.0778952394507708e+00 7.4858944942231098e-01 -1.6567251972259394e+00 -5.6644900615806637e-01 3.9617019140475562e-01 4.4157404934037414e-01 -1.5343218813424835e+00 
        </Neuron>
        <Neuron NSynapses="17">
          1.6397464525127503e+00 1.1049210991294736e+00 -3.6949689384119605e-01 -3.9280832403235422e-01 1.4519530776648921e+00 1.0983704913739702e+00 7.2327245666115558e-01 2.8304394273187322e-01 -1.9183414967560068e+00 -5.6690465504919862e-01 1.7185518795087544e+00 1.5305283702168797e+00 4.1651759162427787e-01 3.2947143910204357e-01 2.0923998272543005e+00 -1.3071195128962985e+00 -8.1522507331959870e-01 
        </Neuron>
        <Neuron NSynapses="17">
          -3.1690540248776475e-02 -1.2799457414598761e+00 1.0962168183667664e+00 1.7098931451533816e+00 -1.3255196025226186e+00 1.0076864474122886e+00 5.1303806090009584e-02 -1.5714919189731604e+00 -1.1321948051161204e+00 1.1888969783838168e+00 5.7895898421361155e-02 1.0083968498099847e+00 -1.3453404639998374e+00 1.7119675865194630e+00 -1.6408472274498502e+00 1.0199791004673113e+00 2.7481537638631448e-01 
        </Neuron>
        <Neuron NSynapses="17">
          -1.3783829055272836e+00 -1.3332825032807685e+00 -1.8280188029145032e+00 -4.6362756438989278e-01 -2.0417778797731163e+00 -1.2389467988903056e+00 -1.5531059440308101e+00 2.8208306458505267e-01 -1.0450224813455722e+00 -1.4469866803499003e+00 1.3909152381030812e+00 -6.2384280994417096e-01 -3.6384745588460429e-02 -1.0924427293304984e+00 4.8298993064807250e-01 1.8955252507794398e+00 1.4572974166078085e+00 
        </Neuron>
        <Neuron NSynapses="17">
          -7.6702670834529929e-01 -1.2330749951726898e+00 -9.4342893247690485e-01 -1.0558242404130205e+00 -1.8141694683143481e+00 3.7257537831382070e-01 5.4979810101822724e-01 2.0275600599372035e+00 -2.6862509195107842e-01 4.4814309118044526e-01 -4.9366619561731201e-01 -1.6678369752469366e+00 9.9665818656503069e-01 1.2807652178124806e+00 -6.9017877696521479e-01 -7.9324146284791885e-01 1.0688275203277362e+00 
        </Neuron>
        <Neuron NSynapses="17">
          1.1353144358644645e+00 4.1605100621845109e-01 -4.0394329583483501e-01 -4.2742677439778243e-01 1.2368202664073442e+00 6.7304701913977982e-01 7.9093782459753759e-01 -1.7499737602930390e-01 2.1969936934758255e-01 -1.6492573423871545e-01 -1.3457521179167546e+00 -1.9383363784160490e-01 -1.7099747956326077e+00 -1.2376054142072281e+00 -1.6532770912324970e+00 1.8842912332494222e+00 -1.4067610593624651e+00 
        </Neuron>
        <Neuron NSynapses="17">
          1.5996529216869249e+00 -2.4164002721352364e+00 3.8769512033974968e-01 -5.5114745847780977e-01 1.0577548251094844e+00 1.5344845160411678e+00 -2.6053719286542543e+00 -6.2911681096184235e-01 8.6562830661986911e-01 -2.5168530952220345e+00 -1.8153047411753427e+00 -2.6262227507328899e+00 -1.4628117204811361e-01 1.6999342936060235e+00 -2.2329350411550306e-01 -9.2064697610407120e-01 -1.8370617966852594e+00 
        </Neuron>
      </Layer>
      <Layer Index="1" NNeurons="18">
        <Neuron NSynapses="17">
          -1.4054894258547539e+00 -1.7048487991981744e+00 -8.9369501220378678e-01 -1.4937108551021876e+00 9.5324952407504382e-01 -1.1345488737340486e+00 -1.0473347402890585e+00 1.5069038520373479e+00 4.7602305331017436e-01 -5.9536749576796999e-01 1.7552251586073715e+00 -1.8213658976418852e+00 1.3666952162595187e+00 9.7307662551519269e-01 -1.1792761879031524e+00 -7.8776938799379981e-01 -8.0138013471786684e-01 
        </Neuron>
        <Neuron NSynapses="17">
          -1.0196307357231815e+00 4.9809225718282685e-01 2.0542754413471926e+00 1.3039903124823802e+00 1.4982603562977814e+00 -1.2287796014764203e+00 8.3316894377006578e-01 -2.1858248230567288e+00 5.7850797736893034e-01 -1.7075755569304023e+00 -1.8044301400147962e+00 -3.5712028358699389e-02 1.2864919342954948e+00 3.5388614562902737e-01 9.3766610085263202e-01 3.3460619322566182e-01 -5.7390345128560305e-01 
        </Neuron>
        <Neuron NSynapses="17">
          -5.2271159910681864e-01 1.4667113329423404e-01 1.9188626370166082e+00 -1.3391404573245285e+00 2.8311251902257539e-01 -1.2308386172815251e+00 -7.5180274570153849e-01 1.0498410131162372e-01 6.9573212453312980e-02 -1.1178578965723707e+00 1.0232470361517212e+00 1.6726559590734220e+00 8.0618920902570790e-01 -1.4312830702616780e-01 -7.2901845719234282e-01 -1.4791889974496797e+00 -1.3058900353251115e+00 
        </Neuron>
        <Neuron NSynapses="17">
          8.1266501666990931e-01 -5.5669825719977939e-01 -9.7830812014998225e-01 2.4088591495079076e-01 -1.8532258014178946e+00 -1.3282137683843025e+00 -1.3592319967397180e+00 7.9256848701819116e-01 -1.1636928204765160e+00 -1.7131438593174324e+00 -8.0544581483380562e-01 -9.6436033276053756e-01 -1.6429547984592840e+00 1.3014365147143836e+00 -1.5809550642772368e+00 -1.2310044479603945e+00 1.2478860366009512e+00 
        </Neuron>
        <Neuron NSynapses="17">
          7.8324666200879545e-01 3.9625498006685050e-01 7.5271986571256791e-03 1.4361182467465059e+00 1.8691098232756675e+00 7.7938516212596798e-01 -1.2684691354246203e+00 -6.7165922678213796e-01 -1.7310735721338060e+00 9.1816931817582059e-01 1.0506345161413073e+00 1.2300045415984506e-01 1.1111352665591256e+00 8.0713982776470505e-01 1.5537091220241257e+00 -1.3416123647114790e+00 1.7854820159383973e+00 
        </Neuron>
        <Neuron NSynapses="17">
          6.4809882799821861e-01 -1.9082122886815036e+00 -4.2749579440455687e-01 -8.0827352572779887e-01 1.0315319477854217e+00 7.9190170709985741e-01 9.2359201920923339e-01 1.1505338959295410e+00 -1.6328893391947050e-01 1.6768281989184795e+00 1.9579983313076523e+00 2.0673587520553077e-01 -1.2273517467904822e+00 1.5921121243011491e+00 -2.0919086639599449e+00 5.3854589635269690e-01 1.7659321609394445e+00 
        </Neuron>
        <Neuron NSynapses="17">
          -6.2541729676723901e-01 -8.4128566402098637e-01 -2.4767124746711340e-02 -1.1400973999755468e+00 4.8340300925753127e-01 -1.6221638047735096e+00 3.5897742873215416e-01 -5.1058002752328835e-01 2.0810870277698776e+00 1.1242530766033190e+00 1.6597110224448510e+00 -5.5820241858797959e-01 -5.2765201711812382e-01 2.4639489626539729e-01 1.5048968377013956e+00 -1.8839029968225141e+00 -2.1362231775168659e+00 
        </Neuron>
        <Neuron NSynapses="17">
          -7.7758528776062019e-01 -1.5289278264670785e+00 -1.5396031080484178e+00 -1.9939427476367706e+00 6.1685454561730380e-01 -3.0276265468004571e-01 -1.5968089353269272e+00 -1.7215703092473009e+00 -3.9762435251892786e-01 1.8171921811281873e+00 1.5371626053660874e+00 1.2887037154548422e+00 -6.1360204404686280e-01 -1.7439395979152896e+00 9.0504684356908782e-02 -1.2698969582146105e+00 -1.9630371064813594e+00 
        </Neuron>
        <Neuron NSynapses="17">
          -5.1293807413004733e-01 7.4803009150664193e-02 -1.5902433220262784e+00 1.5046679726084369e+00 1.1907962144612283e+00 3.1406937611407787e-01 -8.1930222720081969e-01 -5.1292376749009183e-01 1.5879418232955449e+00 -4.9310963686793968e-01 3.0371944083280128e-01 1.6251696304807981e+00 1.6723994527591750e+00 -1.0610935417051144e+00 1.6698511709109163e+00 -1.9188224487489440e+00 2.2785872328709664e+00 
        </Neuron>
        <Neuron NSynapses="17">
          2.2558100463516535e+00 -1.3766907326138872e-01 5.4737482878099375e-02 3.2555211470242251e-01 -6.3706769181942791e-01 1.1180898170782441e+00 -4.1611787192703864e-02 -1.6766300868431416e+00 -1.3410788572175494e+00 -3.7044132128616666e-02 1.7519168527450166e+00 3.9146061129580284e-01 -6.6991971708193909e-01 -1.8186740565978876e+00 1.7088705950862531e+00 3.8122054279045703e-01 -1.9138177909635221e+00 
        </Neuron>
        <Neuron NSynapses="17">
          -3.6797855873511315e-01 -1.0664661832696238e+00 1.3564822847353684e+00 1.3347502294161810e+00 -6.1747500086358265e-01 -1.2753226167690130e+00 1.7708200938674081e+00 8.8249577808553692e-01 4.4580263783395835e-01 5.1162527018829118e-02 -1.2050825488068211e+00 -1.2546065119733023e+00 1.0033292175912436e+00 4.7674520643054602e-01 2.5571675217750273e-01 -1.7746104774486100e+00 -2.5463349230633456e+00 
        </Neuron>
        <Neuron NSynapses="17">
          -2.0746220760286138e+00 -3.3821388396818231e-01 -1.5197195087712982e+00 1.9678334104349704e-01 -4.9900295161158242e-01 1.4263842494208783e+00 6.2254461974489339e-01 -1.9486298677667859e+00 1.1705711074147220e+00 1.9044258962726932e+00 8.2651162262481292e-01 -4.5716546687819820e-01 -9.0469758169655923e-01 2.2345054968384619e+00 -1.5150954487006485e+00 5.4011797533744321e-01 -2.1453873630053915e+00 
        </Neuron>
        <Neuron NSynapses="17">
          8.3323807972270025e-01 -1.1443143252223034e+00 1.1832116272500791e-01 -1.8524791669484766e-01 2.6065027884324737e-01 -5.4437996412686951e-01 -6.5744993104794991e-01 7.5132759180468767e-01 3.8089258778149709e-01 8.6071165057076449e-01 9.8065071650918667e-01 -1.6806399571630466e+00 1.3942298318426205e+00 -1.8074316533665082e+00 1.0911269983384104e+00 1.0826946068313479e+00 1.3052651139193898e+00 
        </Neuron>
        <Neuron NSynapses="17">
          1.4004728352533393e+00 1.3937082521447182e+00 -1.9632251832491949e+00 -6.1197285289964576e-01 -1.0794933062906251e+00 5.7975869689228587e-01 4.8911308984192374e-02 -1.5986388549044506e-01 -6.0925024374544090e-01 -5.1012918132846297e-01 -1.0094855676187156e+00 -3.5229017186034695e-01 -1.8045090065452845e+00 -2.8974769249821736e-01 2.9689891459574125e-01 -7.1865746321334389e-01 -1.2149338283538906e+00 
        </Neuron>
        <Neuron NSynapses="17">
          1.0430906714304301e-01 2.1902665146907566e-01 -3.5206208354457447e-01 -1.2639746715273386e+00 1.9004182107150374e+00 -2.2647161843093375e-01 1.0029422873018294e+00 6.5814462378361027e-01 -1.0234909871631723e+00 -8.8637148392642628e-01 -3.2388510574663171e-01 -1.9338139225320390e+00 -7.1376172678961547e-01 -1.0198951665712175e+00 1.0701826052972043e+00 -1.8867188486908260e+00 1.1594192681006121e+00 
        </Neuron>
        <Neuron NSynapses="17">
          2.0110221128948260e+00 1.6349370896179456e+00 1.0570848314216412e+00 8.4610581415586872e-01 1.7863660343551576e-02 -7.6107723365283786e-01 -2.2848155172532372e+00 -9.8021595037175158e-01 -7.4999250240686643e-01 1.4983093856512619e+00 2.4796109346048381e-01 9.4014672349265360e-02 1.5082897067617131e+00 1.0120988977691037e+00 -1.2619884020182437e+00 2.3867318021011916e-01 -1.7980145772275564e+00 
        </Neuron>
        <Neuron NSynapses="17">
          7.0451054509929789e-01 -1.8636498406126532e+00 2.4059595070575157e-01 -4.8765781659995805e-01 8.3226352146025728e-01 -2.1904920230646239e+00 5.7927624897119190e-01 -1.7104394148476707e+00 4.0361008873830248e-02 1.3262474603352270e+00 -9.2298287394062872e-01 5.3042611580620691e-01 -1.6478370454389264e+00 1.1489916342681528e+00 -5.6890254802171281e-01 8.0034385982067480e-01 -2.1859787514556701e+00 
        </Neuron>
        <Neuron NSynapses="17">
          -8.7847532832243869e-01 1.9993008399539611e+00 -2.0552614073012481e+00 -1.1310921912756093e+00 -8.5906595131899222e-01 1.4954640036542748e+00 1.2786570615274069e+00 1.9925013525623769e+00 -1.9668370280301728e+00 8.2263097241834537e-01 7.5024360257183387e-01 3.0631650870723404e-01 -1.1529106664552695e+00 -1.4213843908561263e+00 3.6150934499627418e-01 -1.3011527442624388e-01 2.6261516702772236e+00 
        </Neuron>
      </Layer>
      <Layer Index="2" NNeurons="18">
        <Neuron NSynapses="1">
          5.2942791278195220e-02 
        </Neuron>
        <Neuron NSynapses="1">
          -2.7978473658054451e-02 
        </Neuron>
        <Neuron NSynapses="1">
          1.5476319868585131e-01 
        </Neuron>
        <Neuron NSynapses="1">
          -3.6598339800471218e-02 
        </Neuron>
        <Neuron NSynapses="1">
          -5.2108744535369504e-02 
        </Neuron>
        <Neuron NSynapses="1">
          -1.7305250087747542e-01 
        </Neuron>
        <Neuron NSynapses="1">
          -3.9253121641165602e-02 
        </Neuron>
        <Neuron NSynapses="1">
          -4.4983284871294649e-01 
        </Neuron>
        <Neuron NSynapses="1">
          9.1117777162724890e-03 
        </Neuron>
        <Neuron NSynapses="1">
          -1.0064245230219655e-02 
        </Neuron>
        <Neuron NSynapses="1">
          2.7156716615431703e-03 
        </Neuron>
        <Neuron NSynapses="1">
          1.2047713762993325e-02 
        </Neuron>
        <Neuron NSynapses="1">
          4.3564048386461343e-02 
        </Neuron>
        <Neuron NSynapses="1">
          4.4324624052655533e-02 
        </Neuron>
        <Neuron NSynapses="1">
          4.3141616991854648e-02 
        </Neuron>
        <Neuron NSynapses="1">
          1.6538441750366707e-02 
        </Neuron>
        <Neuron NSynapses="1">
          1.0528309736766097e+00 
        </Neuron>
        <Neuron NSynapses="1">
          -1.2327938797975744e+00 
        </Neuron>
      </Layer>
      <Layer Index="3" NNeurons="1">
        <Neuron NSynapses="0"/>
      </Layer>
    </Layout>
  </Weights>
</MethodSetup>
