<?xml version="1.0"?>
<MethodSetup Method="MLP::XS_28_64_0_n2n">
  <GeneralInfo>
    <Info name="TMVA Release" value="4.2.1 [262657]"/>
    <Info name="ROOT Release" value="6.06/02 [394754]"/>
    <Info name="Creator" value="mouginot"/>
    <Info name="Date" value="Thu Feb 23 11:22:41 2017"/>
    <Info name="Host" value="Linux e300.chtc.wisc.edu 2.6.32-642.13.1.el6.x86_64 #1 SMP Tue Jan 10 11:22:50 CST 2017 x86_64 x86_64 x86_64 GNU/Linux"/>
    <Info name="Dir" value="/mnt/gluster/mouginot/TRU_MOX_XS/Generate"/>
    <Info name="Training events" value="198960"/>
    <Info name="TrainingTime" value="2.79087217e+04"/>
    <Info name="AnalysisType" value="Regression"/>
  </GeneralInfo>
  <Options>
    <Option name="NCycles" modified="Yes">20000</Option>
    <Option name="HiddenLayers" modified="Yes">N,N</Option>
    <Option name="NeuronType" modified="Yes">tanh</Option>
    <Option name="RandomSeed" modified="No">1</Option>
    <Option name="EstimatorType" modified="No">MSE</Option>
    <Option name="NeuronInputType" modified="No">sum</Option>
    <Option name="V" modified="Yes">False</Option>
    <Option name="VerbosityLevel" modified="No">Default</Option>
    <Option name="VarTransform" modified="Yes">Norm</Option>
    <Option name="H" modified="Yes">False</Option>
    <Option name="CreateMVAPdfs" modified="No">False</Option>
    <Option name="IgnoreNegWeightsInTraining" modified="No">False</Option>
    <Option name="TrainingMethod" modified="Yes">BFGS</Option>
    <Option name="LearningRate" modified="No">2.000000e-02</Option>
    <Option name="DecayRate" modified="No">1.000000e-02</Option>
    <Option name="TestRate" modified="Yes">6</Option>
    <Option name="EpochMonitoring" modified="No">False</Option>
    <Option name="Sampling" modified="Yes">3.000000e-01</Option>
    <Option name="SamplingEpoch" modified="Yes">8.000000e-01</Option>
    <Option name="SamplingImportance" modified="No">1.000000e+00</Option>
    <Option name="SamplingTraining" modified="No">True</Option>
    <Option name="SamplingTesting" modified="No">False</Option>
    <Option name="ResetStep" modified="No">50</Option>
    <Option name="Tau" modified="No">3.000000e+00</Option>
    <Option name="BPMode" modified="No">sequential</Option>
    <Option name="BatchSize" modified="No">-1</Option>
    <Option name="ConvergenceImprove" modified="Yes">1.000000e-06</Option>
    <Option name="ConvergenceTests" modified="Yes">15</Option>
    <Option name="UseRegulator" modified="Yes">False</Option>
    <Option name="UpdateLimit" modified="No">10000</Option>
    <Option name="CalculateErrors" modified="No">False</Option>
    <Option name="WeightRange" modified="No">1.000000e+00</Option>
  </Options>
  <Variables NVar="17">
    <Variable VarIndex="0" Expression="235U" Label="235U" Title="235U" Unit="IsotopicFraction" Internal="235U" Type="F" Min="1.71346517e-06" Max="1.92414057e-02"/>
    <Variable VarIndex="1" Expression="238U" Label="238U" Title="238U" Unit="IsotopicFraction" Internal="238U" Type="F" Min="7.85399854e-01" Max="9.68733251e-01"/>
    <Variable VarIndex="2" Expression="237Np" Label="237Np" Title="237Np" Unit="IsotopicFraction" Internal="237Np" Type="F" Min="1.63990119e-08" Max="1.97294168e-04"/>
    <Variable VarIndex="3" Expression="238Pu" Label="238Pu" Title="238Pu" Unit="IsotopicFraction" Internal="238Pu" Type="F" Min="4.69728775e-07" Max="3.96428024e-03"/>
    <Variable VarIndex="4" Expression="239Pu" Label="239Pu" Title="239Pu" Unit="IsotopicFraction" Internal="239Pu" Type="F" Min="2.15940680e-02" Max="1.89886928e-01"/>
    <Variable VarIndex="5" Expression="240Pu" Label="240Pu" Title="240Pu" Unit="IsotopicFraction" Internal="240Pu" Type="F" Min="1.54567579e-06" Max="3.95636074e-02"/>
    <Variable VarIndex="6" Expression="241Pu" Label="241Pu" Title="241Pu" Unit="IsotopicFraction" Internal="241Pu" Type="F" Min="3.22813172e-08" Max="7.04628276e-03"/>
    <Variable VarIndex="7" Expression="242Pu" Label="242Pu" Title="242Pu" Unit="IsotopicFraction" Internal="242Pu" Type="F" Min="1.58277174e-07" Max="1.98803633e-03"/>
    <Variable VarIndex="8" Expression="241Am" Label="241Am" Title="241Am" Unit="IsotopicFraction" Internal="241Am" Type="F" Min="3.13082671e-10" Max="7.48056592e-03"/>
    <Variable VarIndex="9" Expression="242Amm" Label="242Amm" Title="242Amm" Unit="IsotopicFraction" Internal="242Amm" Type="F" Min="1.34159976e-07" Max="1.16249369e-02"/>
    <Variable VarIndex="10" Expression="243Am" Label="243Am" Title="243Am" Unit="IsotopicFraction" Internal="243Am" Type="F" Min="2.04390229e-08" Max="1.99559363e-04"/>
    <Variable VarIndex="11" Expression="242Cm" Label="242Cm" Title="242Cm" Unit="IsotopicFraction" Internal="242Cm" Type="F" Min="1.48285639e-09" Max="1.93909858e-04"/>
    <Variable VarIndex="12" Expression="243Cm" Label="243Cm" Title="243Cm" Unit="IsotopicFraction" Internal="243Cm" Type="F" Min="9.09117492e-09" Max="1.97552916e-04"/>
    <Variable VarIndex="13" Expression="244Cm" Label="244Cm" Title="244Cm" Unit="IsotopicFraction" Internal="244Cm" Type="F" Min="2.46570231e-09" Max="1.97112051e-04"/>
    <Variable VarIndex="14" Expression="245Cm" Label="245Cm" Title="245Cm" Unit="IsotopicFraction" Internal="245Cm" Type="F" Min="9.47205692e-09" Max="1.97873349e-04"/>
    <Variable VarIndex="15" Expression="246Cm" Label="246Cm" Title="246Cm" Unit="IsotopicFraction" Internal="246Cm" Type="F" Min="2.33963915e-09" Max="1.98596885e-04"/>
    <Variable VarIndex="16" Expression="Time" Label="Time" Title="Time" Unit="seconds" Internal="Time" Type="F" Min="0.00000000e+00" Max="1.89328320e+08"/>
  </Variables>
  <Spectators NSpec="0"/>
  <Classes NClass="1">
    <Class Name="Regression" Index="0"/>
  </Classes>
  <Targets NTrgt="1">
    <Target TargetIndex="0" Expression="XS_28_64_0_n2n" Label="XS_28_64_0_n2n" Title="XS_28_64_0_n2n" Unit="" Internal="XS_28_64_0_n2n" Type="F" Min="1.71692096e-04" Max="4.38824471e-04"/>
  </Targets>
  <Transformations NTransformations="1">
    <Transform Name="Normalize">
      <Selection>
        <Input NInputs="18">
          <Input Type="Variable" Label="235U" Expression="235U"/>
          <Input Type="Variable" Label="238U" Expression="238U"/>
          <Input Type="Variable" Label="237Np" Expression="237Np"/>
          <Input Type="Variable" Label="238Pu" Expression="238Pu"/>
          <Input Type="Variable" Label="239Pu" Expression="239Pu"/>
          <Input Type="Variable" Label="240Pu" Expression="240Pu"/>
          <Input Type="Variable" Label="241Pu" Expression="241Pu"/>
          <Input Type="Variable" Label="242Pu" Expression="242Pu"/>
          <Input Type="Variable" Label="241Am" Expression="241Am"/>
          <Input Type="Variable" Label="242Amm" Expression="242Amm"/>
          <Input Type="Variable" Label="243Am" Expression="243Am"/>
          <Input Type="Variable" Label="242Cm" Expression="242Cm"/>
          <Input Type="Variable" Label="243Cm" Expression="243Cm"/>
          <Input Type="Variable" Label="244Cm" Expression="244Cm"/>
          <Input Type="Variable" Label="245Cm" Expression="245Cm"/>
          <Input Type="Variable" Label="246Cm" Expression="246Cm"/>
          <Input Type="Variable" Label="Time" Expression="Time"/>
          <Input Type="Target" Label="XS_28_64_0_n2n" Expression="XS_28_64_0_n2n"/>
        </Input>
        <Output NOutputs="18">
          <Output Type="Variable" Label="235U" Expression="235U"/>
          <Output Type="Variable" Label="238U" Expression="238U"/>
          <Output Type="Variable" Label="237Np" Expression="237Np"/>
          <Output Type="Variable" Label="238Pu" Expression="238Pu"/>
          <Output Type="Variable" Label="239Pu" Expression="239Pu"/>
          <Output Type="Variable" Label="240Pu" Expression="240Pu"/>
          <Output Type="Variable" Label="241Pu" Expression="241Pu"/>
          <Output Type="Variable" Label="242Pu" Expression="242Pu"/>
          <Output Type="Variable" Label="241Am" Expression="241Am"/>
          <Output Type="Variable" Label="242Amm" Expression="242Amm"/>
          <Output Type="Variable" Label="243Am" Expression="243Am"/>
          <Output Type="Variable" Label="242Cm" Expression="242Cm"/>
          <Output Type="Variable" Label="243Cm" Expression="243Cm"/>
          <Output Type="Variable" Label="244Cm" Expression="244Cm"/>
          <Output Type="Variable" Label="245Cm" Expression="245Cm"/>
          <Output Type="Variable" Label="246Cm" Expression="246Cm"/>
          <Output Type="Variable" Label="Time" Expression="Time"/>
          <Output Type="Target" Label="XS_28_64_0_n2n" Expression="XS_28_64_0_n2n"/>
        </Output>
      </Selection>
      <Class ClassIndex="0">
        <Ranges>
          <Range Index="0" Min="1.7134651670858148e-06" Max="1.9241405650973320e-02"/>
          <Range Index="1" Min="7.8539985418319702e-01" Max="9.6873325109481812e-01"/>
          <Range Index="2" Min="1.6399011926182538e-08" Max="1.9729416817426682e-04"/>
          <Range Index="3" Min="4.6972877498774324e-07" Max="3.9642802439630032e-03"/>
          <Range Index="4" Min="2.1594068035483360e-02" Max="1.8988692760467529e-01"/>
          <Range Index="5" Min="1.5456757864740212e-06" Max="3.9563607424497604e-02"/>
          <Range Index="6" Min="3.2281317174920332e-08" Max="7.0462827570736408e-03"/>
          <Range Index="7" Min="1.5827717447791656e-07" Max="1.9880363252013922e-03"/>
          <Range Index="8" Min="3.1308267089968922e-10" Max="7.4805659241974354e-03"/>
          <Range Index="9" Min="1.3415997557331139e-07" Max="1.1624936945736408e-02"/>
          <Range Index="10" Min="2.0439022918594674e-08" Max="1.9955936295446008e-04"/>
          <Range Index="11" Min="1.4828563932312022e-09" Max="1.9390985835343599e-04"/>
          <Range Index="12" Min="9.0911749239808159e-09" Max="1.9755291577894241e-04"/>
          <Range Index="13" Min="2.4657023089957875e-09" Max="1.9711205095518380e-04"/>
          <Range Index="14" Min="9.4720569165929192e-09" Max="1.9787334895227104e-04"/>
          <Range Index="15" Min="2.3396391490848600e-09" Max="1.9859688472934067e-04"/>
          <Range Index="16" Min="0.0000000000000000e+00" Max="1.8932832000000000e+08"/>
          <Range Index="17" Min="1.7169209604617208e-04" Max="4.3882447062060237e-04"/>
        </Ranges>
      </Class>
    </Transform>
  </Transformations>
  <MVAPdfs/>
  <Weights>
    <Layout NLayers="4">
      <Layer Index="0" NNeurons="18">
        <Neuron NSynapses="17">
          -3.9695147948512527e-01 1.6923186666579082e+00 8.9320143570050614e-01 1.7057136963791035e+00 -1.8906824407007650e+00 -1.3794362458447185e+00 -7.5924350982795774e-01 1.9102126768748267e+00 -1.4058852325925710e+00 -1.1557890543749236e+00 -1.5134532776714469e+00 -5.5876133078057000e-01 -1.2178224567807905e+00 -3.8563977157366153e-01 -3.8766185573544398e-01 3.8773036331294869e-01 -4.8834918732744548e-01 
        </Neuron>
        <Neuron NSynapses="17">
          1.7783932205455004e+00 6.2186371170184473e-01 1.7899125146841868e+00 -1.7318894856169550e-01 -7.9157329448886471e-01 3.0347371193614597e-01 1.7846136864781370e-01 -1.0917756732126287e+00 -4.0091214836627120e-01 1.4299959401539895e+00 -9.1476831215065324e-01 -1.9459505199421363e+00 1.5216348043361366e-01 6.3313695127282554e-01 1.2305853042871648e+00 3.2536605329390733e-01 2.5972114672106922e-01 
        </Neuron>
        <Neuron NSynapses="17">
          2.4611966954415349e-01 -2.6135201969702720e-01 -1.3938004088688323e+00 1.6202919131977112e+00 -1.4583247585759065e+00 1.0902733065184160e+00 1.3237437179042215e+00 8.7788263996040439e-01 1.8092050455018447e+00 1.2033023229802859e+00 -7.1253818318449369e-01 -1.4219211738488635e+00 6.5940472390284854e-01 -1.5955468667673448e-01 1.6310279320976728e+00 1.2911178361421640e+00 1.4696320230840718e+00 
        </Neuron>
        <Neuron NSynapses="17">
          1.4478983775860950e+00 -1.4863949735683553e+00 1.5775052890403878e+00 -1.6893574239590023e+00 -1.1071062678053263e+00 -1.3568722091761520e+00 -1.3815740944306771e+00 1.3743378941335116e+00 5.3319670584364864e-01 -1.7802204328156521e+00 4.2753509675162760e-01 -6.0659489280505452e-01 5.9876805946184786e-01 1.3638563588083910e+00 -1.1481330420874390e-01 2.4757576634917408e-01 -8.0995805706916313e-01 
        </Neuron>
        <Neuron NSynapses="17">
          7.8290540289660604e-01 -1.1609870236626281e+00 -9.9999329664910386e-01 -1.5534238151536739e+00 6.6227346392845343e-01 1.4660900842037954e+00 1.3620625784641667e+00 -4.2378148706212887e-01 -1.8280634991126590e+00 -1.8221739483633124e+00 8.8271299908747991e-01 5.6013559195182505e-01 1.9160058577345300e+00 5.7194150236361418e-01 1.3467032062079798e+00 -1.2820960706516464e+00 -1.1807378594521496e+00 
        </Neuron>
        <Neuron NSynapses="17">
          -3.3942692404917228e-02 1.1464284182229094e+00 -9.5484129194504208e-01 -1.5132799194680742e+00 -1.9517941608802025e+00 -1.9081764331116319e-01 2.6173806666003274e-01 1.6450597364985478e+00 -1.5643925436593609e+00 -9.5151638926265458e-01 1.6363205792695710e+00 -9.5257879073233787e-01 -1.6409373275441039e+00 -1.8016872023198229e+00 2.7876631145861808e-01 -1.9032745644964466e+00 -1.2911071828644498e+00 
        </Neuron>
        <Neuron NSynapses="17">
          8.5949591753601706e-01 1.8985945215361670e+00 -8.4020578205849505e-01 1.7060769793052484e+00 -1.3368590716055111e+00 -9.4423521776660868e-01 3.2184238717718611e-01 2.4698606225460468e-01 -1.9456730785188223e+00 9.7231023505069639e-02 3.9454813577293679e-01 3.1151291167443762e-01 -1.5840881533948086e+00 1.2917777867004818e+00 4.7202791834974522e-01 -6.8564564135260542e-01 1.1851908550059778e+00 
        </Neuron>
        <Neuron NSynapses="17">
          -9.0484683370233865e-01 -1.4227025910573179e+00 2.8184012965162619e-01 -3.0048808563309992e-01 1.4751274631139160e+00 7.6718031798670383e-01 2.9944517167003909e-01 -4.2271865879659071e-01 9.7507712778148459e-02 -1.8622196106866344e+00 1.0680623599984012e+00 4.1061806456606106e-02 -1.8723629874107057e+00 2.7344251453686969e-01 -1.2123476276857086e+00 1.2475618770813002e-01 1.2924983175640619e+00 
        </Neuron>
        <Neuron NSynapses="17">
          1.9937971050685961e+00 -1.6796508796314296e+00 7.1590185992152577e-01 1.6535815789514630e+00 1.0932961075969319e+00 -1.3774601411028535e-02 -9.2269215402264226e-01 -1.1219018662299914e-01 -1.5272623478578220e+00 1.3377784413146199e+00 1.3482948717909919e+00 -4.4536091111651033e-01 -6.1936962275564489e-01 -3.3066812492679604e-01 -1.1829232810536330e+00 8.2367921513056697e-01 2.1169306655678697e+00 
        </Neuron>
        <Neuron NSynapses="17">
          -4.1922822323813785e-01 -8.1082042043122871e-01 3.9675297354919220e-01 1.1165019570095285e+00 2.9783149181607632e-01 1.0675826030098308e+00 -1.0357585641962015e+00 1.4715042255566324e+00 5.6664139727258389e-01 3.2630850388409721e-01 6.3194068568495565e-01 1.0550081740104396e+00 -8.1699372467908393e-01 -7.7201981141807319e-01 1.5197950195412766e+00 -1.2047664663046032e+00 -3.9852464866948817e-01 
        </Neuron>
        <Neuron NSynapses="17">
          1.5108231932083787e+00 7.9010777185906200e-01 -3.5096777735545431e-01 1.3559465780083821e+00 1.5768477063803605e+00 -1.7933181720121949e+00 8.0115558560040845e-01 -6.1000946662448118e-02 4.0294339547051716e-01 -1.8028595028284198e+00 -1.4873087005117691e+00 1.0980412384483138e+00 1.5975729361258491e+00 -1.8502511186189463e+00 4.9185196518544978e-02 -7.8692882816859078e-01 2.4245727176094067e-01 
        </Neuron>
        <Neuron NSynapses="17">
          1.8350948869530375e+00 -2.2318234679513685e-01 -2.2557534125067735e-01 -1.0051424723828042e+00 7.3721648529347883e-01 1.5907062423309477e+00 1.3189767282171434e+00 2.7749166200027420e-01 -8.0886071540034066e-01 -2.1175716239825699e+00 1.0890375400146335e+00 4.5446425491826964e-01 -1.4330464451895280e+00 -1.1067715684710200e+00 3.8464886003662530e-01 2.8056896989136693e-01 -1.6362180491323250e+00 
        </Neuron>
        <Neuron NSynapses="17">
          1.7617778216163413e+00 9.9548615935967932e-01 -2.4522908677477875e-01 -3.7875691659816156e-02 1.3180803541022457e+00 9.9625390998714791e-01 8.9148483624771202e-01 -1.2693563602699962e-01 -1.8954352041468094e+00 -1.0461294359765305e+00 1.7527326449320295e+00 1.2022076539571953e+00 7.2534520821314552e-01 -2.0754093577246954e-01 1.9977777313443512e+00 -1.3698822118418101e+00 -9.0365007476598325e-01 
        </Neuron>
        <Neuron NSynapses="17">
          2.9345486081168791e-02 -1.3663016394220955e+00 1.0934217568325435e+00 1.7482779172205478e+00 -1.4636252213733527e+00 8.3119274397857024e-01 8.5828539514577820e-02 -1.9369810598063244e+00 -1.1488508385802714e+00 8.9509648999170099e-01 7.9034983678007875e-02 8.1964159952546733e-01 -1.2712935210664793e+00 1.2433109539327056e+00 -1.5649134530481617e+00 8.4241125440859832e-01 2.5034974341487848e-01 
        </Neuron>
        <Neuron NSynapses="17">
          -1.3559805719676967e+00 -1.3548948491801345e+00 -1.8246807387874386e+00 -4.0378361814431396e-01 -2.1468933936328418e+00 -1.5223432516801316e+00 -1.5306790112424589e+00 1.7134464920771222e-01 -1.0333666197136817e+00 -1.7236221354578896e+00 1.3892568907656988e+00 -6.3145742183455755e-01 1.0878035546187563e-02 -1.3120028191579394e+00 4.1933692953411073e-01 1.6690353481108406e+00 1.4198606428840399e+00 
        </Neuron>
        <Neuron NSynapses="17">
          -7.2321411819187098e-01 -1.2553294309304959e+00 -8.9293480162900885e-01 -8.7765152888266185e-01 -1.8943714398375751e+00 2.8414885020991559e-01 5.6157382725027194e-01 1.8097216425225595e+00 -3.0163961757389762e-01 1.0579328314776948e-01 -4.9728109151330752e-01 -1.9887331748406019e+00 1.2390788000549466e+00 7.8016189739816022e-01 -7.2790885306004394e-01 -9.0306325233626117e-01 1.0713845988789055e+00 
        </Neuron>
        <Neuron NSynapses="17">
          1.1755259433628329e+00 8.0419961486654579e-01 -2.4045211001866007e-01 -3.2376908845563290e-01 1.2385732620738090e+00 8.2630959268073534e-01 7.1276019499515952e-01 -4.5162318077124525e-01 2.0893096303059205e-01 -2.4263138299712328e-01 -1.3645084114389621e+00 -7.3326448385168519e-01 -1.5763379725975459e+00 -1.4829729714686224e+00 -1.6530205256471064e+00 2.2145003803951493e+00 -1.4332260151518050e+00 
        </Neuron>
        <Neuron NSynapses="17">
          1.3285967844021114e+00 -2.0521229833016688e+00 3.8806669295658019e-01 -1.3466054783996813e+00 1.1789833570250450e+00 1.2682066993142731e+00 -2.7025425651384403e+00 2.1624055929767108e-01 9.2816142487457765e-01 -1.5874619111324657e+00 -1.7489279006576719e+00 -1.5718519839827569e+00 -5.8016957336926989e-01 2.6491555994021638e+00 -5.9433031465879893e-01 -3.6190179947690604e-01 -1.7959667334353904e+00 
        </Neuron>
      </Layer>
      <Layer Index="1" NNeurons="18">
        <Neuron NSynapses="17">
          -1.2058456484282460e+00 -1.6955445546250210e+00 -7.0172842843668437e-01 -1.5191526726049378e+00 8.5156843422039163e-01 -1.6857668785640512e+00 -1.1241770582317123e+00 1.5381453486263934e+00 4.7663719346685207e-01 -5.7654473122451599e-01 2.0285642096797183e+00 -1.8057758572772027e+00 1.5440871973732664e+00 9.8087745323957831e-01 -1.1609235364277464e+00 -5.8603056188223368e-01 -1.4106833450544670e-01 
        </Neuron>
        <Neuron NSynapses="17">
          -1.0619220732506909e+00 4.7161396386848270e-01 1.8936894910098150e+00 1.3394041464621154e+00 1.7062461908722109e+00 -1.3875810730246534e+00 9.0538780025437837e-01 -2.0768119733347201e+00 5.8390046648671556e-01 -1.7135429581234456e+00 -2.0715675378855831e+00 -4.3371117675898380e-02 1.2530061360414722e+00 3.5931746247329038e-01 9.5334942175857074e-01 3.5806060548067514e-01 -2.1011558239676978e-01 
        </Neuron>
        <Neuron NSynapses="17">
          -6.1188059387933769e-01 1.1810394527470337e-01 1.8419482494152033e+00 -1.4240108688980053e+00 4.0168370872880504e-01 -1.3104908827304760e+00 -6.1115987372569158e-01 2.6177240666538565e-01 -3.6107911983535933e-02 -1.1139537979715428e+00 7.1413080095745574e-01 1.6753888205869787e+00 6.5584125297695195e-01 -1.0339198401317913e-01 -7.2253411689388236e-01 -1.5463267928211850e+00 -1.6006469935144307e+00 
        </Neuron>
        <Neuron NSynapses="17">
          9.0547384202008552e-01 -5.2677549947252567e-01 -8.7870278292142745e-01 3.0393224432125721e-01 -1.8620916304595665e+00 -1.4972449044783078e+00 -1.4816594227172153e+00 8.0365232712864965e-01 -1.2252569545589345e+00 -1.7105955680280374e+00 -4.8654911005963647e-01 -9.5714311472625691e-01 -1.6254854469771660e+00 1.2503508431445844e+00 -1.5544219588295809e+00 -1.1888127692307895e+00 1.5586892255267564e+00 
        </Neuron>
        <Neuron NSynapses="17">
          7.1465921805395738e-01 3.1456897387286081e-01 1.5457719384873402e-02 1.3598273720584639e+00 1.8464280290634416e+00 8.7466645687938382e-01 -1.1030789799107870e+00 -4.5668458197480039e-01 -1.8122325430910389e+00 9.0644292913767188e-01 8.0744413325557673e-01 1.0085809094927574e-01 1.0972496417328275e+00 8.3686329437040896e-01 1.5769717439042499e+00 -1.3181370027544861e+00 1.6479970593117295e+00 
        </Neuron>
        <Neuron NSynapses="17">
          7.6420684800130201e-01 -1.9293243647843856e+00 -1.5873367826980961e-01 -9.3439035099053624e-01 8.8496247963548302e-01 5.7210481798244539e-01 1.0859245919701175e+00 1.7825923357323712e+00 -1.9552221431509029e-01 1.6902940773790411e+00 1.8368349082427131e+00 2.0880396140363131e-01 -1.0516568453997854e+00 1.6050696630048849e+00 -2.0956797973102708e+00 6.6137945652495522e-01 1.6783106557162693e+00 
        </Neuron>
        <Neuron NSynapses="17">
          -3.9086886289059586e-01 -8.1499411585452497e-01 1.8462830042164965e-01 -1.2716245519929392e+00 3.7879244015114294e-01 -2.0955777215421527e+00 3.0321614999243690e-01 -4.7959999345441717e-01 1.9805161062660375e+00 1.1291745875838488e+00 1.9067764643580627e+00 -5.4304004813875162e-01 -2.6353034130765673e-01 3.1155439138626129e-01 1.5632392742669208e+00 -1.6608306450606134e+00 -1.3849026652800767e+00 
        </Neuron>
        <Neuron NSynapses="17">
          -7.3263329430989488e-01 -1.4882586494835217e+00 -1.5272077552886085e+00 -1.8394169641396778e+00 5.3603127657251159e-01 -2.5349356891485464e-01 -1.7192828354240426e+00 -1.9484404793650048e+00 -2.9954581850858913e-01 1.8300726858378829e+00 1.8135603496711219e+00 1.3031540309907996e+00 -5.8890762861394108e-01 -1.7641830030151642e+00 8.0757404062868340e-02 -1.3052347922933794e+00 -1.5198196971143341e+00 
        </Neuron>
        <Neuron NSynapses="17">
          -6.1340161455335362e-01 1.5989168115448715e-02 -1.7289461963673218e+00 1.5019246549655405e+00 1.2799905835088048e+00 1.0610454035420596e+00 -7.2119340281131195e-01 -5.3671446699481073e-01 1.5408019791168948e+00 -5.2425539720629588e-01 2.7754098396108463e-02 1.6047384249565733e+00 1.5021887920702388e+00 -1.0261694026344299e+00 1.6704226338669208e+00 -2.0558844889965400e+00 1.7596076074734315e+00 
        </Neuron>
        <Neuron NSynapses="17">
          2.0587088485817011e+00 -1.7525100554581957e-01 -8.9922215282043208e-02 3.2241892174767844e-01 -4.8797615076913514e-01 5.2369841388686034e-01 1.5000832495877811e-01 -8.8941486616128174e-01 -1.5277902703178505e+00 -2.1288522467810912e-02 1.5040895236266845e+00 3.8548958635150171e-01 -8.0536980671761682e-01 -1.8026371612012353e+00 1.7669000843963678e+00 3.8588730356183548e-01 -1.2126422062851452e+00 
        </Neuron>
        <Neuron NSynapses="17">
          -3.9224101943498363e-01 -1.0037459793040213e+00 1.4058670093766306e+00 1.3848164185305161e+00 -8.1238563468325098e-01 -1.8317089430677693e+00 1.6957244919246282e+00 9.8137529638210808e-01 4.9779336258432377e-01 1.5857384377421779e-01 -9.5343482257860812e-01 -1.2396862787255869e+00 1.0876709335332237e+00 3.9660685760034403e-01 2.2936544342509624e-01 -1.7378618579417990e+00 -1.9485068359324942e+00 
        </Neuron>
        <Neuron NSynapses="17">
          -2.0657347741331589e+00 -3.1402629335777821e-01 -1.4849297348909625e+00 1.9441326204628612e-01 -6.9480848167001452e-01 1.3168449556551709e+00 5.9187988609133346e-01 -1.8540239390517210e+00 1.1138263045973387e+00 1.9814529010977058e+00 1.0401361242006308e+00 -4.5028782682822099e-01 -8.6105350551595361e-01 2.1897282637241973e+00 -1.4530886308343769e+00 5.1240152483718759e-01 -1.4368108984175736e+00 
        </Neuron>
        <Neuron NSynapses="17">
          9.3111037255937357e-01 -1.1592185173358698e+00 5.6401332268201619e-02 -1.3572130491920503e-01 3.3154210315557658e-01 9.1816778417725675e-02 -7.4654072565959728e-01 1.0225385262300393e+00 4.5193526054641603e-01 8.5769134258667168e-01 9.4974286730801583e-01 -1.6898076975049277e+00 1.1520312245137043e+00 -1.7930916469030116e+00 1.1269946794063108e+00 8.2996795721502681e-01 7.5148423274162734e-01 
        </Neuron>
        <Neuron NSynapses="17">
          1.5522947408792735e+00 1.4613289430362135e+00 -2.0377235744249735e+00 -6.6101811337145544e-01 -9.6122476692759340e-01 7.7965584414378097e-01 -1.6568706045126158e-01 -9.9967497908534653e-02 -5.7373162668472799e-01 -5.1966237680831384e-01 -9.7410996645073722e-01 -3.4724372844268481e-01 -1.8618411728492743e+00 -2.7982163165703100e-01 2.8817155983760301e-01 -7.2939187071705280e-01 -1.3059827798687049e+00 
        </Neuron>
        <Neuron NSynapses="17">
          2.0366381867989033e-01 2.5131274586819013e-01 -4.1557791626485874e-01 -1.1663394438089438e+00 1.7802175663261999e+00 -1.0777400384619937e-01 7.8601917332767834e-01 5.9637666206939766e-01 -9.4768204374946385e-01 -8.7024252753702180e-01 -8.2349902864194358e-02 -1.9446158939815616e+00 -8.8268684107805861e-01 -1.0587075509273711e+00 1.0783464348883598e+00 -2.1066183416413189e+00 1.3132086191040668e+00 
        </Neuron>
        <Neuron NSynapses="17">
          1.9432181899063183e+00 1.5992953280684412e+00 1.0694586847753960e+00 7.5509075634318501e-01 2.1257247801819840e-01 -8.4734683471375272e-01 -2.1360145098516470e+00 -1.0317929237950310e+00 -8.9288712252596214e-01 1.4017917260563590e+00 1.5216718725195330e-03 8.6161061818016443e-02 1.5387399969295168e+00 1.0379014517915308e+00 -1.2633471625327926e+00 4.4749217022427218e-01 -1.5870454525164353e+00 
        </Neuron>
        <Neuron NSynapses="17">
          7.5568957725981822e-01 -1.8315931783405333e+00 2.6671427313358348e-01 -4.0614134165164667e-01 8.6299816470883617e-01 -2.1108642310272772e+00 4.3747106955428106e-01 -1.8383589369103261e+00 1.5043826632317256e-02 1.2904831755277819e+00 -6.0249758356394756e-01 5.3531623015598051e-01 -1.7531158174492958e+00 1.1069984100446408e+00 -5.4495042552188910e-01 7.5035562867340777e-01 -1.7208444520423818e+00 
        </Neuron>
        <Neuron NSynapses="17">
          -9.7503363210933591e-01 1.9407663019067261e+00 -2.2145802326385380e+00 -1.1190007352664495e+00 -7.5905520077152455e-01 2.3459640402995752e+00 1.3509303570029998e+00 1.8507960729795019e+00 -1.8984266760768824e+00 7.8022495090940180e-01 4.7007921027923200e-01 2.8644255836106552e-01 -1.2713268926274459e+00 -1.4015431223646764e+00 2.9549144905488156e-01 -2.5881387542774681e-01 1.8204326124256975e+00 
        </Neuron>
      </Layer>
      <Layer Index="2" NNeurons="18">
        <Neuron NSynapses="1">
          -2.6660322534949283e-02 
        </Neuron>
        <Neuron NSynapses="1">
          -3.5503154660032304e-03 
        </Neuron>
        <Neuron NSynapses="1">
          -6.6567675090193859e-02 
        </Neuron>
        <Neuron NSynapses="1">
          3.9704710180209239e-03 
        </Neuron>
        <Neuron NSynapses="1">
          -1.3621998439776607e-02 
        </Neuron>
        <Neuron NSynapses="1">
          -1.0705724353203052e+00 
        </Neuron>
        <Neuron NSynapses="1">
          1.9551797566913168e-02 
        </Neuron>
        <Neuron NSynapses="1">
          1.2867366793319346e-02 
        </Neuron>
        <Neuron NSynapses="1">
          -1.9562382566077129e-02 
        </Neuron>
        <Neuron NSynapses="1">
          2.6455243581719381e-02 
        </Neuron>
        <Neuron NSynapses="1">
          9.5651628259586189e-04 
        </Neuron>
        <Neuron NSynapses="1">
          -5.3825813418830457e-04 
        </Neuron>
        <Neuron NSynapses="1">
          -4.2375462885278201e-02 
        </Neuron>
        <Neuron NSynapses="1">
          -9.7049037925183764e-03 
        </Neuron>
        <Neuron NSynapses="1">
          3.1216052467793708e-03 
        </Neuron>
        <Neuron NSynapses="1">
          -2.6412851978901759e-02 
        </Neuron>
        <Neuron NSynapses="1">
          4.2432009175658999e-03 
        </Neuron>
        <Neuron NSynapses="1">
          9.4113758598697317e-01 
        </Neuron>
      </Layer>
      <Layer Index="3" NNeurons="1">
        <Neuron NSynapses="0"/>
      </Layer>
    </Layout>
  </Weights>
</MethodSetup>
