<?xml version="1.0"?>
<MethodSetup Method="MLP::XS_56_136_0_n2n">
  <GeneralInfo>
    <Info name="TMVA Release" value="4.2.1 [262657]"/>
    <Info name="ROOT Release" value="6.06/02 [394754]"/>
    <Info name="Creator" value="mouginot"/>
    <Info name="Date" value="Thu Feb 23 02:12:08 2017"/>
    <Info name="Host" value="Linux e300.chtc.wisc.edu 2.6.32-642.13.1.el6.x86_64 #1 SMP Tue Jan 10 11:22:50 CST 2017 x86_64 x86_64 x86_64 GNU/Linux"/>
    <Info name="Dir" value="/mnt/gluster/mouginot/TRU_MOX_XS/Generate"/>
    <Info name="Training events" value="198960"/>
    <Info name="TrainingTime" value="1.66821060e+04"/>
    <Info name="AnalysisType" value="Regression"/>
  </GeneralInfo>
  <Options>
    <Option name="NCycles" modified="Yes">20000</Option>
    <Option name="HiddenLayers" modified="Yes">N,N</Option>
    <Option name="NeuronType" modified="Yes">tanh</Option>
    <Option name="RandomSeed" modified="No">1</Option>
    <Option name="EstimatorType" modified="No">MSE</Option>
    <Option name="NeuronInputType" modified="No">sum</Option>
    <Option name="V" modified="Yes">False</Option>
    <Option name="VerbosityLevel" modified="No">Default</Option>
    <Option name="VarTransform" modified="Yes">Norm</Option>
    <Option name="H" modified="Yes">False</Option>
    <Option name="CreateMVAPdfs" modified="No">False</Option>
    <Option name="IgnoreNegWeightsInTraining" modified="No">False</Option>
    <Option name="TrainingMethod" modified="Yes">BFGS</Option>
    <Option name="LearningRate" modified="No">2.000000e-02</Option>
    <Option name="DecayRate" modified="No">1.000000e-02</Option>
    <Option name="TestRate" modified="Yes">6</Option>
    <Option name="EpochMonitoring" modified="No">False</Option>
    <Option name="Sampling" modified="Yes">3.000000e-01</Option>
    <Option name="SamplingEpoch" modified="Yes">8.000000e-01</Option>
    <Option name="SamplingImportance" modified="No">1.000000e+00</Option>
    <Option name="SamplingTraining" modified="No">True</Option>
    <Option name="SamplingTesting" modified="No">False</Option>
    <Option name="ResetStep" modified="No">50</Option>
    <Option name="Tau" modified="No">3.000000e+00</Option>
    <Option name="BPMode" modified="No">sequential</Option>
    <Option name="BatchSize" modified="No">-1</Option>
    <Option name="ConvergenceImprove" modified="Yes">1.000000e-06</Option>
    <Option name="ConvergenceTests" modified="Yes">15</Option>
    <Option name="UseRegulator" modified="Yes">False</Option>
    <Option name="UpdateLimit" modified="No">10000</Option>
    <Option name="CalculateErrors" modified="No">False</Option>
    <Option name="WeightRange" modified="No">1.000000e+00</Option>
  </Options>
  <Variables NVar="17">
    <Variable VarIndex="0" Expression="235U" Label="235U" Title="235U" Unit="IsotopicFraction" Internal="235U" Type="F" Min="1.71346517e-06" Max="1.92414057e-02"/>
    <Variable VarIndex="1" Expression="238U" Label="238U" Title="238U" Unit="IsotopicFraction" Internal="238U" Type="F" Min="7.85399854e-01" Max="9.68733251e-01"/>
    <Variable VarIndex="2" Expression="237Np" Label="237Np" Title="237Np" Unit="IsotopicFraction" Internal="237Np" Type="F" Min="1.63990119e-08" Max="1.97294168e-04"/>
    <Variable VarIndex="3" Expression="238Pu" Label="238Pu" Title="238Pu" Unit="IsotopicFraction" Internal="238Pu" Type="F" Min="4.69728775e-07" Max="3.96428024e-03"/>
    <Variable VarIndex="4" Expression="239Pu" Label="239Pu" Title="239Pu" Unit="IsotopicFraction" Internal="239Pu" Type="F" Min="2.15940680e-02" Max="1.89886928e-01"/>
    <Variable VarIndex="5" Expression="240Pu" Label="240Pu" Title="240Pu" Unit="IsotopicFraction" Internal="240Pu" Type="F" Min="1.54567579e-06" Max="3.95636074e-02"/>
    <Variable VarIndex="6" Expression="241Pu" Label="241Pu" Title="241Pu" Unit="IsotopicFraction" Internal="241Pu" Type="F" Min="3.22813172e-08" Max="7.04628276e-03"/>
    <Variable VarIndex="7" Expression="242Pu" Label="242Pu" Title="242Pu" Unit="IsotopicFraction" Internal="242Pu" Type="F" Min="1.58277174e-07" Max="1.98803633e-03"/>
    <Variable VarIndex="8" Expression="241Am" Label="241Am" Title="241Am" Unit="IsotopicFraction" Internal="241Am" Type="F" Min="3.13082671e-10" Max="7.48056592e-03"/>
    <Variable VarIndex="9" Expression="242Amm" Label="242Amm" Title="242Amm" Unit="IsotopicFraction" Internal="242Amm" Type="F" Min="1.34159976e-07" Max="1.16249369e-02"/>
    <Variable VarIndex="10" Expression="243Am" Label="243Am" Title="243Am" Unit="IsotopicFraction" Internal="243Am" Type="F" Min="2.04390229e-08" Max="1.99559363e-04"/>
    <Variable VarIndex="11" Expression="242Cm" Label="242Cm" Title="242Cm" Unit="IsotopicFraction" Internal="242Cm" Type="F" Min="1.48285639e-09" Max="1.93909858e-04"/>
    <Variable VarIndex="12" Expression="243Cm" Label="243Cm" Title="243Cm" Unit="IsotopicFraction" Internal="243Cm" Type="F" Min="9.09117492e-09" Max="1.97552916e-04"/>
    <Variable VarIndex="13" Expression="244Cm" Label="244Cm" Title="244Cm" Unit="IsotopicFraction" Internal="244Cm" Type="F" Min="2.46570231e-09" Max="1.97112051e-04"/>
    <Variable VarIndex="14" Expression="245Cm" Label="245Cm" Title="245Cm" Unit="IsotopicFraction" Internal="245Cm" Type="F" Min="9.47205692e-09" Max="1.97873349e-04"/>
    <Variable VarIndex="15" Expression="246Cm" Label="246Cm" Title="246Cm" Unit="IsotopicFraction" Internal="246Cm" Type="F" Min="2.33963915e-09" Max="1.98596885e-04"/>
    <Variable VarIndex="16" Expression="Time" Label="Time" Title="Time" Unit="seconds" Internal="Time" Type="F" Min="0.00000000e+00" Max="1.89328320e+08"/>
  </Variables>
  <Spectators NSpec="0"/>
  <Classes NClass="1">
    <Class Name="Regression" Index="0"/>
  </Classes>
  <Targets NTrgt="1">
    <Target TargetIndex="0" Expression="XS_56_136_0_n2n" Label="XS_56_136_0_n2n" Title="XS_56_136_0_n2n" Unit="" Internal="XS_56_136_0_n2n" Type="F" Min="4.19753429e-04" Max="9.26321314e-04"/>
  </Targets>
  <Transformations NTransformations="1">
    <Transform Name="Normalize">
      <Selection>
        <Input NInputs="18">
          <Input Type="Variable" Label="235U" Expression="235U"/>
          <Input Type="Variable" Label="238U" Expression="238U"/>
          <Input Type="Variable" Label="237Np" Expression="237Np"/>
          <Input Type="Variable" Label="238Pu" Expression="238Pu"/>
          <Input Type="Variable" Label="239Pu" Expression="239Pu"/>
          <Input Type="Variable" Label="240Pu" Expression="240Pu"/>
          <Input Type="Variable" Label="241Pu" Expression="241Pu"/>
          <Input Type="Variable" Label="242Pu" Expression="242Pu"/>
          <Input Type="Variable" Label="241Am" Expression="241Am"/>
          <Input Type="Variable" Label="242Amm" Expression="242Amm"/>
          <Input Type="Variable" Label="243Am" Expression="243Am"/>
          <Input Type="Variable" Label="242Cm" Expression="242Cm"/>
          <Input Type="Variable" Label="243Cm" Expression="243Cm"/>
          <Input Type="Variable" Label="244Cm" Expression="244Cm"/>
          <Input Type="Variable" Label="245Cm" Expression="245Cm"/>
          <Input Type="Variable" Label="246Cm" Expression="246Cm"/>
          <Input Type="Variable" Label="Time" Expression="Time"/>
          <Input Type="Target" Label="XS_56_136_0_n2n" Expression="XS_56_136_0_n2n"/>
        </Input>
        <Output NOutputs="18">
          <Output Type="Variable" Label="235U" Expression="235U"/>
          <Output Type="Variable" Label="238U" Expression="238U"/>
          <Output Type="Variable" Label="237Np" Expression="237Np"/>
          <Output Type="Variable" Label="238Pu" Expression="238Pu"/>
          <Output Type="Variable" Label="239Pu" Expression="239Pu"/>
          <Output Type="Variable" Label="240Pu" Expression="240Pu"/>
          <Output Type="Variable" Label="241Pu" Expression="241Pu"/>
          <Output Type="Variable" Label="242Pu" Expression="242Pu"/>
          <Output Type="Variable" Label="241Am" Expression="241Am"/>
          <Output Type="Variable" Label="242Amm" Expression="242Amm"/>
          <Output Type="Variable" Label="243Am" Expression="243Am"/>
          <Output Type="Variable" Label="242Cm" Expression="242Cm"/>
          <Output Type="Variable" Label="243Cm" Expression="243Cm"/>
          <Output Type="Variable" Label="244Cm" Expression="244Cm"/>
          <Output Type="Variable" Label="245Cm" Expression="245Cm"/>
          <Output Type="Variable" Label="246Cm" Expression="246Cm"/>
          <Output Type="Variable" Label="Time" Expression="Time"/>
          <Output Type="Target" Label="XS_56_136_0_n2n" Expression="XS_56_136_0_n2n"/>
        </Output>
      </Selection>
      <Class ClassIndex="0">
        <Ranges>
          <Range Index="0" Min="1.7134651670858148e-06" Max="1.9241405650973320e-02"/>
          <Range Index="1" Min="7.8539985418319702e-01" Max="9.6873325109481812e-01"/>
          <Range Index="2" Min="1.6399011926182538e-08" Max="1.9729416817426682e-04"/>
          <Range Index="3" Min="4.6972877498774324e-07" Max="3.9642802439630032e-03"/>
          <Range Index="4" Min="2.1594068035483360e-02" Max="1.8988692760467529e-01"/>
          <Range Index="5" Min="1.5456757864740212e-06" Max="3.9563607424497604e-02"/>
          <Range Index="6" Min="3.2281317174920332e-08" Max="7.0462827570736408e-03"/>
          <Range Index="7" Min="1.5827717447791656e-07" Max="1.9880363252013922e-03"/>
          <Range Index="8" Min="3.1308267089968922e-10" Max="7.4805659241974354e-03"/>
          <Range Index="9" Min="1.3415997557331139e-07" Max="1.1624936945736408e-02"/>
          <Range Index="10" Min="2.0439022918594674e-08" Max="1.9955936295446008e-04"/>
          <Range Index="11" Min="1.4828563932312022e-09" Max="1.9390985835343599e-04"/>
          <Range Index="12" Min="9.0911749239808159e-09" Max="1.9755291577894241e-04"/>
          <Range Index="13" Min="2.4657023089957875e-09" Max="1.9711205095518380e-04"/>
          <Range Index="14" Min="9.4720569165929192e-09" Max="1.9787334895227104e-04"/>
          <Range Index="15" Min="2.3396391490848600e-09" Max="1.9859688472934067e-04"/>
          <Range Index="16" Min="0.0000000000000000e+00" Max="1.8932832000000000e+08"/>
          <Range Index="17" Min="4.1975342901423573e-04" Max="9.2632131418213248e-04"/>
        </Ranges>
      </Class>
    </Transform>
  </Transformations>
  <MVAPdfs/>
  <Weights>
    <Layout NLayers="4">
      <Layer Index="0" NNeurons="18">
        <Neuron NSynapses="17">
          -3.6865572538595104e-01 1.5518582799294440e+00 9.0480130893018429e-01 1.7047882127161615e+00 -1.8917140096358995e+00 -1.3504795775843188e+00 -7.4471603046395929e-01 1.9248495879908445e+00 -1.4076818042827781e+00 -1.1576263374635212e+00 -1.5054769675202300e+00 -5.6861207502791522e-01 -1.2051251149864017e+00 -3.8542351111709661e-01 -3.6188584718891181e-01 3.0154806374571991e-01 -4.6738909359727743e-01 
        </Neuron>
        <Neuron NSynapses="17">
          1.7899462441891971e+00 7.2030854521960430e-01 1.8418292710457267e+00 -1.7066694531339593e-01 -7.9262201489069417e-01 2.1862039483773854e-01 1.8125506704841254e-01 -1.1060137802526753e+00 -4.2526418058266841e-01 1.4371914715529590e+00 -8.9190079144648449e-01 -2.0074201853095004e+00 1.3475209810440011e-01 6.2649937180532889e-01 1.2114626249068494e+00 4.4951168418798237e-01 2.9151507357927575e-01 
        </Neuron>
        <Neuron NSynapses="17">
          2.1389586355204379e-01 -2.6202086991716789e-01 -1.3391853521439974e+00 1.6216415335579162e+00 -1.4537314676584014e+00 1.0766637147449987e+00 1.3254332912748699e+00 8.4285490824394793e-01 1.7842662055248082e+00 1.2262387612462466e+00 -6.8382399417171835e-01 -1.4148282403050296e+00 6.7213794575765073e-01 -1.8707829378928276e-01 1.6307277743304180e+00 1.2460912488313285e+00 1.4634666161197700e+00 
        </Neuron>
        <Neuron NSynapses="17">
          1.4072821922700640e+00 -1.4917248992897807e+00 1.6044692605750508e+00 -1.6932549292507819e+00 -1.0934435892274310e+00 -1.3648161159623748e+00 -1.3903740796519950e+00 1.3450603528670790e+00 5.3083407297771357e-01 -1.7585827067785156e+00 4.2720347276708404e-01 -5.7027678362575207e-01 6.1408937479482095e-01 1.3252234472852651e+00 -1.1125374893684886e-01 1.7207855910157560e-01 -8.0981803144721642e-01 
        </Neuron>
        <Neuron NSynapses="17">
          7.6028274626645809e-01 -1.2185084326816482e+00 -1.0298252026671837e+00 -1.5491115873230461e+00 6.6607098469680137e-01 1.5135268836858879e+00 1.3600108108369005e+00 -4.2603588474250748e-01 -1.8143656779375785e+00 -1.8227168941899652e+00 8.6521143949407819e-01 6.0199123007285804e-01 1.9305701597163183e+00 5.6571840091237635e-01 1.3603974429027941e+00 -1.3814272648884025e+00 -1.2057483572381102e+00 
        </Neuron>
        <Neuron NSynapses="17">
          -4.9795255602521966e-02 1.0754421362575717e+00 -9.3352232910374877e-01 -1.5120702223089459e+00 -1.9409009873860794e+00 -1.7814274716506140e-01 2.6175085272160570e-01 1.6129787217027691e+00 -1.5585972054253412e+00 -9.3885658765877766e-01 1.6408682504403027e+00 -9.4023632366578702e-01 -1.6142963178136047e+00 -1.8123794658732728e+00 2.7557476327243963e-01 -1.9419605100365047e+00 -1.2883438807565768e+00 
        </Neuron>
        <Neuron NSynapses="17">
          8.2990599872585014e-01 1.8702981078106571e+00 -7.5948805062422897e-01 1.7067204440462251e+00 -1.3152286841159744e+00 -9.6925486586217369e-01 3.2455324147077275e-01 1.7573292095478649e-01 -1.9664794292121222e+00 1.2301975367459948e-01 4.1530524465267904e-01 2.5992823437048135e-01 -1.5571387331620965e+00 1.2389691012301245e+00 4.7098079176290902e-01 -6.8974880738927868e-01 1.1933810416166923e+00 
        </Neuron>
        <Neuron NSynapses="17">
          -9.2781893368225932e-01 -1.3842300377857644e+00 3.3602066792326746e-01 -3.0318529179798681e-01 1.4838133198507086e+00 7.5789733563785044e-01 2.8973109914664619e-01 -4.6582432914150418e-01 9.4035935351859015e-02 -1.8463190950502149e+00 1.0701462814792266e+00 5.0906438463407394e-03 -1.8504200255909389e+00 2.3088757075134869e-01 -1.2087183154342547e+00 9.2625932217836049e-02 1.2743626104045007e+00 
        </Neuron>
        <Neuron NSynapses="17">
          1.9423685046700783e+00 -1.6829960553218064e+00 7.7887518596317085e-01 1.6467390001339215e+00 1.1135817757018347e+00 -5.0209377702397029e-02 -9.3220225146495672e-01 -1.5646785174232755e-01 -1.5499606123268861e+00 1.3760547611866185e+00 1.3725306233233394e+00 -4.4544117807220945e-01 -6.0303994050606280e-01 -3.6646646381218045e-01 -1.1779018377373718e+00 7.7661097601973050e-01 2.1176457513006532e+00 
        </Neuron>
        <Neuron NSynapses="17">
          -4.8779549888516499e-01 -8.5053046382241981e-01 3.9043977774206329e-01 1.1099055087052196e+00 3.0263978538359876e-01 1.0894150365207924e+00 -1.0361933678844277e+00 1.4468328906024608e+00 5.3389350341452335e-01 3.4027118085964619e-01 6.2300481231807026e-01 1.1218242348682741e+00 -7.9391501805664699e-01 -8.0812154780540535e-01 1.5304860849796498e+00 -1.2648788073924608e+00 -4.0961140586039696e-01 
        </Neuron>
        <Neuron NSynapses="17">
          1.4838347556008067e+00 7.5296524580486246e-01 -3.4619758520663141e-01 1.3573715131867825e+00 1.5839741203870905e+00 -1.7865654632948553e+00 7.9896506335212747e-01 -9.3318852513593800e-02 3.8858438019386954e-01 -1.7853179751483728e+00 -1.4814767185656050e+00 1.1023512483854248e+00 1.6165109864951903e+00 -1.8655987046791613e+00 4.1775831856285077e-02 -8.3102768811591099e-01 2.3235816821689631e-01 
        </Neuron>
        <Neuron NSynapses="17">
          1.8193188096946331e+00 -1.8146979010177167e-01 -1.6263205936947042e-01 -1.0109807657633165e+00 7.4820070855098786e-01 1.5635755793234740e+00 1.3148871578842090e+00 2.1612810007978944e-01 -8.0796452217094406e-01 -2.0947940701384207e+00 1.0940875588070738e+00 3.9102027294152758e-01 -1.4088694757555564e+00 -1.1383021341321176e+00 3.7806759884383517e-01 2.7200986171919522e-01 -1.6321981720394270e+00 
        </Neuron>
        <Neuron NSynapses="17">
          1.7684687161268675e+00 1.0558435146821596e+00 -1.5820854139659671e-01 -4.5698840888719339e-02 1.3394146414014374e+00 9.7113861253657940e-01 8.9230919908186035e-01 -1.9656679498307086e-01 -1.8938651211078259e+00 -1.0183424367585521e+00 1.7672107073605832e+00 1.0755865198111261e+00 7.6210888114300657e-01 -2.5589909858694726e-01 1.9734534457627146e+00 -1.3191582886648028e+00 -8.9812231611703541e-01 
        </Neuron>
        <Neuron NSynapses="17">
          1.6860842575672824e-03 -1.3475257279586894e+00 1.1286192995991422e+00 1.7423071457238939e+00 -1.4549198454009560e+00 8.1695271834555028e-01 6.9293247945099820e-02 -1.9844050232661079e+00 -1.1447664255588186e+00 9.1589260188423050e-01 8.3689407038289476e-02 7.8137609514289230e-01 -1.2477816995897391e+00 1.1918535990003105e+00 -1.5708891064931167e+00 8.0934427344942439e-01 2.4381678042826233e-01 
        </Neuron>
        <Neuron NSynapses="17">
          -1.3791299057797548e+00 -1.3958622154255442e+00 -1.7967978689182529e+00 -3.9743478040324182e-01 -2.1445080572934900e+00 -1.5023978346262230e+00 -1.5242713492314370e+00 1.5293583153597720e-01 -1.0356680497694750e+00 -1.7188371463407082e+00 1.3923746621983348e+00 -5.7375249064572098e-01 2.6247570051040062e-02 -1.3248642145884006e+00 4.3559862987542580e-01 1.5857262305757251e+00 1.4112849064370969e+00 
        </Neuron>
        <Neuron NSynapses="17">
          -7.4366611915831549e-01 -1.1994243140052416e+00 -8.2028717268436857e-01 -8.8954537311133697e-01 -1.8803036832653384e+00 2.5870849066683804e-01 5.5422913455015310e-01 1.7461807331129315e+00 -3.0694536059259381e-01 1.2682892895825801e-01 -4.9138614524786689e-01 -2.0009225573949068e+00 1.2689292537276813e+00 7.3485714650452616e-01 -7.4344276196091730e-01 -8.9969649328666812e-01 1.0587569386907358e+00 
        </Neuron>
        <Neuron NSynapses="17">
          1.2283565630949036e+00 8.1858500807725876e-01 -1.9482516433244798e-01 -3.1069843431304872e-01 1.2538042420817841e+00 8.1353417605808265e-01 7.0870075554131817e-01 -4.7784687208540200e-01 2.0917278954832874e-01 -2.5462458868056442e-01 -1.3281836173292731e+00 -8.3752229785922716e-01 -1.5903675699315425e+00 -1.4510297442066886e+00 -1.6473889388853009e+00 2.1595695963355972e+00 -1.4248830303007245e+00 
        </Neuron>
        <Neuron NSynapses="17">
          1.3741767561455516e+00 -2.0820194559335619e+00 2.4375628854924036e-01 -1.3353785784410084e+00 1.1569536580862438e+00 1.3486664438468647e+00 -2.7042706593464620e+00 3.0416755103969728e-01 9.7527490087704316e-01 -1.6317799177298367e+00 -1.7925358132214528e+00 -1.5199926169496394e+00 -6.0186594714453634e-01 2.7108649649911749e+00 -5.8207447208767327e-01 -3.7638191829702100e-01 -1.8231951229984242e+00 
        </Neuron>
      </Layer>
      <Layer Index="1" NNeurons="18">
        <Neuron NSynapses="17">
          -1.1634568062971538e+00 -1.6899742901908494e+00 -6.3568642433568667e-01 -1.5101134097273539e+00 8.5083625843049326e-01 -1.7173531908143949e+00 -1.1687172867078559e+00 1.5113000194840684e+00 4.6597283794496425e-01 -5.7053989258306492e-01 2.0225715913442786e+00 -1.7951658478281305e+00 1.5682664323450612e+00 9.8349699237005250e-01 -1.1601260691149691e+00 -5.8713014919232398e-01 -1.5062581348991771e-01 
        </Neuron>
        <Neuron NSynapses="17">
          -1.0619815853100678e+00 4.7034459854820160e-01 1.7710350924631222e+00 1.3560044800747999e+00 1.7149575690504042e+00 -1.5008601249045150e+00 9.4818649393845345e-01 -2.0697694772186490e+00 5.9550281486787704e-01 -1.7064924348228176e+00 -2.0673352193084291e+00 -3.6284517370779618e-02 1.2598740950055327e+00 3.6040054457415993e-01 9.5655239818869531e-01 3.9730533210520907e-01 -2.1863247398475300e-01 
        </Neuron>
        <Neuron NSynapses="17">
          -6.3374512494644097e-01 1.1261590021770598e-01 1.7778390818091503e+00 -1.4304192015468931e+00 4.2559832658780511e-01 -1.3923187884026298e+00 -5.7043623038780600e-01 2.6802949666185949e-01 -3.2976090201360421e-02 -1.1385536177616649e+00 7.2640661441461885e-01 1.6807266023285155e+00 6.4451984169497500e-01 -1.0275267125718947e-01 -7.2360538767861071e-01 -1.5229066378435545e+00 -1.5952087625720253e+00 
        </Neuron>
        <Neuron NSynapses="17">
          9.3561921110552237e-01 -5.2956498106599470e-01 -7.5866584385609515e-01 3.0766239008456675e-01 -1.8684847471836699e+00 -1.5274732077987836e+00 -1.5303731475744031e+00 7.7912553068451562e-01 -1.2316650382484362e+00 -1.6819872577637074e+00 -4.9121306888992555e-01 -9.5555472820512255e-01 -1.6334016246107281e+00 1.2562224705172265e+00 -1.5518148497590414e+00 -1.1924369351053594e+00 1.5415844597771584e+00 
        </Neuron>
        <Neuron NSynapses="17">
          6.8058282154056693e-01 3.1749514659530270e-01 -4.8222738605374287e-02 1.3508887264673692e+00 1.8599032245699727e+00 9.2820525266076426e-01 -1.0462219264012431e+00 -4.4457435568306619e-01 -1.8204784285261284e+00 8.7884227051391395e-01 8.1151956816862214e-01 9.8338222403327985e-02 1.1079367309297634e+00 8.3209572477707838e-01 1.5766843512234849e+00 -1.3183950620254070e+00 1.6439852780372461e+00 
        </Neuron>
        <Neuron NSynapses="17">
          7.7513453345319461e-01 -1.9248360186832829e+00 -1.6402000340719994e-01 -9.3497829646965258e-01 9.0029550337814923e-01 5.5746923444044794e-01 1.0571260902154447e+00 1.7763613588400147e+00 -2.0479777539688471e-01 1.6305651804509060e+00 1.8370064968335138e+00 2.1127033899595671e-01 -1.0052994591418984e+00 1.6002482654305306e+00 -2.0964913523535027e+00 6.5811156168764218e-01 1.6762530312445696e+00 
        </Neuron>
        <Neuron NSynapses="17">
          -3.4740339327795383e-01 -8.1084503623334103e-01 2.9038834351035298e-01 -1.2597137649407257e+00 3.8771602672184130e-01 -2.1521644850635111e+00 2.5241027823429452e-01 -5.0236135457234488e-01 1.9714364409392073e+00 1.1406104102853607e+00 1.8981707019665097e+00 -5.2797494704053216e-01 -2.3022527699609296e-01 3.1180481154334433e-01 1.5625226235826177e+00 -1.6644061769314120e+00 -1.4023422237861312e+00 
        </Neuron>
        <Neuron NSynapses="17">
          -7.0432867285094758e-01 -1.4864216393780125e+00 -1.4628794705595494e+00 -1.8354283775403117e+00 5.1239164775775170e-01 -1.8893382351710195e-01 -1.7704769507137854e+00 -1.9574487037456281e+00 -2.9857172725889086e-01 1.8598368757135837e+00 1.8084462075988643e+00 1.2999122909722747e+00 -6.0806307505671675e-01 -1.7606964167380725e+00 8.1287598310787759e-02 -1.3127845824908635e+00 -1.5089904160564409e+00 
        </Neuron>
        <Neuron NSynapses="17">
          -6.5289935952985212e-01 1.5160100876573221e-02 -1.8280639308515658e+00 1.4953422506537659e+00 1.2763333969227009e+00 1.1011257451065897e+00 -6.7028932397126284e-01 -5.0957213138359148e-01 1.5447453906380710e+00 -5.3902266082690864e-01 3.2077892290262040e-02 1.5949400762531267e+00 1.4937004166040018e+00 -1.0318366082609960e+00 1.6666592561462568e+00 -2.0557719171377733e+00 1.7556551189766674e+00 
        </Neuron>
        <Neuron NSynapses="17">
          2.0620589696850256e+00 -1.8094104492726271e-01 -8.3012965155456642e-02 3.2579720688201258e-01 -4.4931810770912600e-01 4.6826447681160160e-01 1.9353920729245461e-01 -9.0459267553779854e-01 -1.5347629982817661e+00 -5.6251773753796953e-02 1.5141293928156851e+00 3.9060489702787254e-01 -8.0155012993306474e-01 -1.8026113922486704e+00 1.7698126568848296e+00 3.9951367892470779e-01 -1.2205012498188965e+00 
        </Neuron>
        <Neuron NSynapses="17">
          -3.6639318825445205e-01 -1.0053306277979401e+00 1.5131840215163324e+00 1.3868002436667659e+00 -8.2066678338664267e-01 -1.8272824887237495e+00 1.6509643370423921e+00 9.5481687245561442e-01 4.8932796972180043e-01 1.9262363626356693e-01 -9.6129293527651616e-01 -1.2394821542565917e+00 1.0707585783597555e+00 3.9853518083051059e-01 2.3212396122093076e-01 -1.7507379729004704e+00 -1.9487297925440568e+00 
        </Neuron>
        <Neuron NSynapses="17">
          -2.0548441078207671e+00 -3.1526313537000550e-01 -1.3910961015569736e+00 1.8767144232118790e-01 -7.1902714642367627e-01 1.4952321708457428e+00 5.4898939533803859e-01 -1.8664340229862324e+00 1.1077399285195098e+00 2.0224190084589977e+00 1.0328967942655554e+00 -4.5454623774772251e-01 -8.8095539341397744e-01 2.1930851923829757e+00 -1.4526801764089063e+00 4.8378661818100843e-01 -1.4342569092492885e+00 
        </Neuron>
        <Neuron NSynapses="17">
          8.9280715609701156e-01 -1.1602967378599567e+00 1.4276821954470545e-01 -1.4941946195985900e-01 3.0280656747803025e-01 2.2968560543104546e-01 -7.9696236754709171e-01 1.0196557187430084e+00 4.5479939952610443e-01 8.6402185468316317e-01 9.5067376318238328e-01 -1.7003141296301278e+00 1.1053297685941654e+00 -1.7922083878607271e+00 1.1258308721776598e+00 8.1789017623809590e-01 7.4341771238994347e-01 
        </Neuron>
        <Neuron NSynapses="17">
          1.5580566916231646e+00 1.4624692027504216e+00 -2.0911509064189864e+00 -6.6372698367449734e-01 -9.5333555741758014e-01 8.2956326715337880e-01 -1.4936595282388868e-01 -1.0852599337411048e-01 -5.7988764897974676e-01 -5.7221042841001013e-01 -9.7112755417367957e-01 -3.4514924441571959e-01 -1.8486822644071050e+00 -2.8089259690063217e-01 2.8509772385728477e-01 -7.1770325460623463e-01 -1.2908610375956520e+00 
        </Neuron>
        <Neuron NSynapses="17">
          2.1462303227897145e-01 2.5123184863976683e-01 -2.4035294246987643e-01 -1.1731769885466441e+00 1.7516629541700077e+00 -8.2195845029425212e-03 7.5258116218077575e-01 5.9061300035734121e-01 -9.4389086542706391e-01 -8.1806672935170355e-01 -8.5411080765455616e-02 -1.9515196187223420e+00 -9.0460122638038698e-01 -1.0556172644257811e+00 1.0814926826575126e+00 -2.0960992112078509e+00 1.3006792460639212e+00 
        </Neuron>
        <Neuron NSynapses="17">
          1.9233429061300038e+00 1.5967539144831155e+00 9.0995545358406638e-01 7.6334373951748957e-01 2.4426265156711480e-01 -9.8886976029781315e-01 -2.0804902926459157e+00 -1.0326852608712513e+00 -8.9199362263240622e-01 1.3560475303296200e+00 4.2289457330989457e-03 8.6501703810343708e-02 1.5407790352330255e+00 1.0350140616058980e+00 -1.2643748699308888e+00 4.4046251615897353e-01 -1.5946063621902364e+00 
        </Neuron>
        <Neuron NSynapses="17">
          7.7868141812911740e-01 -1.8349769804252798e+00 3.9636198525076077e-01 -3.9998443364596070e-01 8.5726899370713561e-01 -2.1360161429795466e+00 3.7355039947107482e-01 -1.8589846482448817e+00 1.3885406700875043e-02 1.3170517574995819e+00 -6.0254449409670807e-01 5.3704989563555050e-01 -1.7735102991418963e+00 1.1101345554016187e+00 -5.4195577465788247e-01 7.4874855886968583e-01 -1.7466621994542606e+00 
        </Neuron>
        <Neuron NSynapses="17">
          -1.0113174499074684e+00 1.9442118782230433e+00 -2.3365833481033267e+00 -1.1229509474146355e+00 -7.5753196909946985e-01 2.3651296982293610e+00 1.3985635510020835e+00 1.8793477465649779e+00 -1.8867771431582625e+00 7.5891818154382917e-01 4.7752790661077643e-01 2.7776091676790127e-01 -1.2626081919741865e+00 -1.4077126778231992e+00 2.8888330976878968e-01 -2.5300186268822761e-01 1.8365158336770506e+00 
        </Neuron>
      </Layer>
      <Layer Index="2" NNeurons="18">
        <Neuron NSynapses="1">
          -2.7564537355367784e-02 
        </Neuron>
        <Neuron NSynapses="1">
          -5.4607692796114346e-03 
        </Neuron>
        <Neuron NSynapses="1">
          -1.3292026621241695e-01 
        </Neuron>
        <Neuron NSynapses="1">
          8.9095543339540032e-04 
        </Neuron>
        <Neuron NSynapses="1">
          -1.5848994291331003e-02 
        </Neuron>
        <Neuron NSynapses="1">
          -8.5185891272880809e-01 
        </Neuron>
        <Neuron NSynapses="1">
          2.0684867456713288e-02 
        </Neuron>
        <Neuron NSynapses="1">
          4.0994231413234291e-03 
        </Neuron>
        <Neuron NSynapses="1">
          -1.5534653562808943e-02 
        </Neuron>
        <Neuron NSynapses="1">
          3.7070883502237049e-02 
        </Neuron>
        <Neuron NSynapses="1">
          2.5189194222618844e-03 
        </Neuron>
        <Neuron NSynapses="1">
          -6.1922645794741608e-03 
        </Neuron>
        <Neuron NSynapses="1">
          -4.6913312274407065e-02 
        </Neuron>
        <Neuron NSynapses="1">
          -9.4163351617354372e-03 
        </Neuron>
        <Neuron NSynapses="1">
          1.9514948658389869e-03 
        </Neuron>
        <Neuron NSynapses="1">
          -2.5068808713760885e-02 
        </Neuron>
        <Neuron NSynapses="1">
          4.5924649199444671e-03 
        </Neuron>
        <Neuron NSynapses="1">
          7.0658105551727346e-01 
        </Neuron>
      </Layer>
      <Layer Index="3" NNeurons="1">
        <Neuron NSynapses="0"/>
      </Layer>
    </Layout>
  </Weights>
</MethodSetup>
