<?xml version="1.0"?>
<MethodSetup Method="MLP::XS_75_185_0_n2n">
  <GeneralInfo>
    <Info name="TMVA Release" value="4.2.1 [262657]"/>
    <Info name="ROOT Release" value="6.06/02 [394754]"/>
    <Info name="Creator" value="mouginot"/>
    <Info name="Date" value="Thu Feb 23 12:33:48 2017"/>
    <Info name="Host" value="Linux e300.chtc.wisc.edu 2.6.32-642.13.1.el6.x86_64 #1 SMP Tue Jan 10 11:22:50 CST 2017 x86_64 x86_64 x86_64 GNU/Linux"/>
    <Info name="Dir" value="/mnt/gluster/mouginot/TRU_MOX_XS/Generate"/>
    <Info name="Training events" value="198960"/>
    <Info name="TrainingTime" value="2.04178953e+04"/>
    <Info name="AnalysisType" value="Regression"/>
  </GeneralInfo>
  <Options>
    <Option name="NCycles" modified="Yes">20000</Option>
    <Option name="HiddenLayers" modified="Yes">N,N</Option>
    <Option name="NeuronType" modified="Yes">tanh</Option>
    <Option name="RandomSeed" modified="No">1</Option>
    <Option name="EstimatorType" modified="No">MSE</Option>
    <Option name="NeuronInputType" modified="No">sum</Option>
    <Option name="V" modified="Yes">False</Option>
    <Option name="VerbosityLevel" modified="No">Default</Option>
    <Option name="VarTransform" modified="Yes">Norm</Option>
    <Option name="H" modified="Yes">False</Option>
    <Option name="CreateMVAPdfs" modified="No">False</Option>
    <Option name="IgnoreNegWeightsInTraining" modified="No">False</Option>
    <Option name="TrainingMethod" modified="Yes">BFGS</Option>
    <Option name="LearningRate" modified="No">2.000000e-02</Option>
    <Option name="DecayRate" modified="No">1.000000e-02</Option>
    <Option name="TestRate" modified="Yes">6</Option>
    <Option name="EpochMonitoring" modified="No">False</Option>
    <Option name="Sampling" modified="Yes">3.000000e-01</Option>
    <Option name="SamplingEpoch" modified="Yes">8.000000e-01</Option>
    <Option name="SamplingImportance" modified="No">1.000000e+00</Option>
    <Option name="SamplingTraining" modified="No">True</Option>
    <Option name="SamplingTesting" modified="No">False</Option>
    <Option name="ResetStep" modified="No">50</Option>
    <Option name="Tau" modified="No">3.000000e+00</Option>
    <Option name="BPMode" modified="No">sequential</Option>
    <Option name="BatchSize" modified="No">-1</Option>
    <Option name="ConvergenceImprove" modified="Yes">1.000000e-06</Option>
    <Option name="ConvergenceTests" modified="Yes">15</Option>
    <Option name="UseRegulator" modified="Yes">False</Option>
    <Option name="UpdateLimit" modified="No">10000</Option>
    <Option name="CalculateErrors" modified="No">False</Option>
    <Option name="WeightRange" modified="No">1.000000e+00</Option>
  </Options>
  <Variables NVar="17">
    <Variable VarIndex="0" Expression="235U" Label="235U" Title="235U" Unit="IsotopicFraction" Internal="235U" Type="F" Min="1.71346517e-06" Max="1.92414057e-02"/>
    <Variable VarIndex="1" Expression="238U" Label="238U" Title="238U" Unit="IsotopicFraction" Internal="238U" Type="F" Min="7.85399854e-01" Max="9.68733251e-01"/>
    <Variable VarIndex="2" Expression="237Np" Label="237Np" Title="237Np" Unit="IsotopicFraction" Internal="237Np" Type="F" Min="1.63990119e-08" Max="1.97294168e-04"/>
    <Variable VarIndex="3" Expression="238Pu" Label="238Pu" Title="238Pu" Unit="IsotopicFraction" Internal="238Pu" Type="F" Min="4.69728775e-07" Max="3.96428024e-03"/>
    <Variable VarIndex="4" Expression="239Pu" Label="239Pu" Title="239Pu" Unit="IsotopicFraction" Internal="239Pu" Type="F" Min="2.15940680e-02" Max="1.89886928e-01"/>
    <Variable VarIndex="5" Expression="240Pu" Label="240Pu" Title="240Pu" Unit="IsotopicFraction" Internal="240Pu" Type="F" Min="1.54567579e-06" Max="3.95636074e-02"/>
    <Variable VarIndex="6" Expression="241Pu" Label="241Pu" Title="241Pu" Unit="IsotopicFraction" Internal="241Pu" Type="F" Min="3.22813172e-08" Max="7.04628276e-03"/>
    <Variable VarIndex="7" Expression="242Pu" Label="242Pu" Title="242Pu" Unit="IsotopicFraction" Internal="242Pu" Type="F" Min="1.58277174e-07" Max="1.98803633e-03"/>
    <Variable VarIndex="8" Expression="241Am" Label="241Am" Title="241Am" Unit="IsotopicFraction" Internal="241Am" Type="F" Min="3.13082671e-10" Max="7.48056592e-03"/>
    <Variable VarIndex="9" Expression="242Amm" Label="242Amm" Title="242Amm" Unit="IsotopicFraction" Internal="242Amm" Type="F" Min="1.34159976e-07" Max="1.16249369e-02"/>
    <Variable VarIndex="10" Expression="243Am" Label="243Am" Title="243Am" Unit="IsotopicFraction" Internal="243Am" Type="F" Min="2.04390229e-08" Max="1.99559363e-04"/>
    <Variable VarIndex="11" Expression="242Cm" Label="242Cm" Title="242Cm" Unit="IsotopicFraction" Internal="242Cm" Type="F" Min="1.48285639e-09" Max="1.93909858e-04"/>
    <Variable VarIndex="12" Expression="243Cm" Label="243Cm" Title="243Cm" Unit="IsotopicFraction" Internal="243Cm" Type="F" Min="9.09117492e-09" Max="1.97552916e-04"/>
    <Variable VarIndex="13" Expression="244Cm" Label="244Cm" Title="244Cm" Unit="IsotopicFraction" Internal="244Cm" Type="F" Min="2.46570231e-09" Max="1.97112051e-04"/>
    <Variable VarIndex="14" Expression="245Cm" Label="245Cm" Title="245Cm" Unit="IsotopicFraction" Internal="245Cm" Type="F" Min="9.47205692e-09" Max="1.97873349e-04"/>
    <Variable VarIndex="15" Expression="246Cm" Label="246Cm" Title="246Cm" Unit="IsotopicFraction" Internal="246Cm" Type="F" Min="2.33963915e-09" Max="1.98596885e-04"/>
    <Variable VarIndex="16" Expression="Time" Label="Time" Title="Time" Unit="seconds" Internal="Time" Type="F" Min="0.00000000e+00" Max="1.89328320e+08"/>
  </Variables>
  <Spectators NSpec="0"/>
  <Classes NClass="1">
    <Class Name="Regression" Index="0"/>
  </Classes>
  <Targets NTrgt="1">
    <Target TargetIndex="0" Expression="XS_75_185_0_n2n" Label="XS_75_185_0_n2n" Title="XS_75_185_0_n2n" Unit="" Internal="XS_75_185_0_n2n" Type="F" Min="1.88872870e-03" Max="3.27095436e-03"/>
  </Targets>
  <Transformations NTransformations="1">
    <Transform Name="Normalize">
      <Selection>
        <Input NInputs="18">
          <Input Type="Variable" Label="235U" Expression="235U"/>
          <Input Type="Variable" Label="238U" Expression="238U"/>
          <Input Type="Variable" Label="237Np" Expression="237Np"/>
          <Input Type="Variable" Label="238Pu" Expression="238Pu"/>
          <Input Type="Variable" Label="239Pu" Expression="239Pu"/>
          <Input Type="Variable" Label="240Pu" Expression="240Pu"/>
          <Input Type="Variable" Label="241Pu" Expression="241Pu"/>
          <Input Type="Variable" Label="242Pu" Expression="242Pu"/>
          <Input Type="Variable" Label="241Am" Expression="241Am"/>
          <Input Type="Variable" Label="242Amm" Expression="242Amm"/>
          <Input Type="Variable" Label="243Am" Expression="243Am"/>
          <Input Type="Variable" Label="242Cm" Expression="242Cm"/>
          <Input Type="Variable" Label="243Cm" Expression="243Cm"/>
          <Input Type="Variable" Label="244Cm" Expression="244Cm"/>
          <Input Type="Variable" Label="245Cm" Expression="245Cm"/>
          <Input Type="Variable" Label="246Cm" Expression="246Cm"/>
          <Input Type="Variable" Label="Time" Expression="Time"/>
          <Input Type="Target" Label="XS_75_185_0_n2n" Expression="XS_75_185_0_n2n"/>
        </Input>
        <Output NOutputs="18">
          <Output Type="Variable" Label="235U" Expression="235U"/>
          <Output Type="Variable" Label="238U" Expression="238U"/>
          <Output Type="Variable" Label="237Np" Expression="237Np"/>
          <Output Type="Variable" Label="238Pu" Expression="238Pu"/>
          <Output Type="Variable" Label="239Pu" Expression="239Pu"/>
          <Output Type="Variable" Label="240Pu" Expression="240Pu"/>
          <Output Type="Variable" Label="241Pu" Expression="241Pu"/>
          <Output Type="Variable" Label="242Pu" Expression="242Pu"/>
          <Output Type="Variable" Label="241Am" Expression="241Am"/>
          <Output Type="Variable" Label="242Amm" Expression="242Amm"/>
          <Output Type="Variable" Label="243Am" Expression="243Am"/>
          <Output Type="Variable" Label="242Cm" Expression="242Cm"/>
          <Output Type="Variable" Label="243Cm" Expression="243Cm"/>
          <Output Type="Variable" Label="244Cm" Expression="244Cm"/>
          <Output Type="Variable" Label="245Cm" Expression="245Cm"/>
          <Output Type="Variable" Label="246Cm" Expression="246Cm"/>
          <Output Type="Variable" Label="Time" Expression="Time"/>
          <Output Type="Target" Label="XS_75_185_0_n2n" Expression="XS_75_185_0_n2n"/>
        </Output>
      </Selection>
      <Class ClassIndex="0">
        <Ranges>
          <Range Index="0" Min="1.7134651670858148e-06" Max="1.9241405650973320e-02"/>
          <Range Index="1" Min="7.8539985418319702e-01" Max="9.6873325109481812e-01"/>
          <Range Index="2" Min="1.6399011926182538e-08" Max="1.9729416817426682e-04"/>
          <Range Index="3" Min="4.6972877498774324e-07" Max="3.9642802439630032e-03"/>
          <Range Index="4" Min="2.1594068035483360e-02" Max="1.8988692760467529e-01"/>
          <Range Index="5" Min="1.5456757864740212e-06" Max="3.9563607424497604e-02"/>
          <Range Index="6" Min="3.2281317174920332e-08" Max="7.0462827570736408e-03"/>
          <Range Index="7" Min="1.5827717447791656e-07" Max="1.9880363252013922e-03"/>
          <Range Index="8" Min="3.1308267089968922e-10" Max="7.4805659241974354e-03"/>
          <Range Index="9" Min="1.3415997557331139e-07" Max="1.1624936945736408e-02"/>
          <Range Index="10" Min="2.0439022918594674e-08" Max="1.9955936295446008e-04"/>
          <Range Index="11" Min="1.4828563932312022e-09" Max="1.9390985835343599e-04"/>
          <Range Index="12" Min="9.0911749239808159e-09" Max="1.9755291577894241e-04"/>
          <Range Index="13" Min="2.4657023089957875e-09" Max="1.9711205095518380e-04"/>
          <Range Index="14" Min="9.4720569165929192e-09" Max="1.9787334895227104e-04"/>
          <Range Index="15" Min="2.3396391490848600e-09" Max="1.9859688472934067e-04"/>
          <Range Index="16" Min="0.0000000000000000e+00" Max="1.8932832000000000e+08"/>
          <Range Index="17" Min="1.8887287005782127e-03" Max="3.2709543593227863e-03"/>
        </Ranges>
      </Class>
    </Transform>
  </Transformations>
  <MVAPdfs/>
  <Weights>
    <Layout NLayers="4">
      <Layer Index="0" NNeurons="18">
        <Neuron NSynapses="17">
          -2.8437717771820981e-01 1.4117018922350328e+00 9.5047004542612501e-01 1.6651571125372486e+00 -1.8548457406702459e+00 -1.4488571672226185e+00 -6.9346765564442681e-01 1.8566936228249202e+00 -1.4014029829627448e+00 -1.2077856909622311e+00 -1.4832514407093895e+00 -7.0279001044454381e-01 -1.1577156513638012e+00 -3.5173351017112464e-01 -2.6304861883876995e-01 4.2637689500562448e-01 -4.5440820923878761e-01 
        </Neuron>
        <Neuron NSynapses="17">
          1.8395041763015818e+00 1.0241705369332819e+00 2.0400033758658389e+00 -2.4654431676984917e-01 -7.4817753659852471e-01 2.9849572752784254e-01 2.1169978782754326e-01 -1.2596835802426547e+00 -4.7959259990574810e-01 1.4900628882700022e+00 -8.3813816903801408e-01 -2.2213004909998286e+00 6.8721086389099528e-03 5.8585943633525095e-01 1.0529932905376358e+00 7.2125858774439644e-01 3.7714213787107276e-01 
        </Neuron>
        <Neuron NSynapses="17">
          1.6004610011041734e-01 -2.9946404035601126e-01 -1.2962759358331941e+00 1.6291537029519927e+00 -1.4242045598268984e+00 9.6908298742868326e-01 1.3418058549328591e+00 8.0631520846319904e-01 1.7338923846418741e+00 1.3698917624447779e+00 -6.3629428859310322e-01 -1.3300683889986988e+00 7.3825324645188328e-01 -2.4166668247262532e-01 1.7585399737696668e+00 1.1992249444592660e+00 1.4449078540795197e+00 
        </Neuron>
        <Neuron NSynapses="17">
          1.3204496779595121e+00 -1.3544841839328259e+00 1.6550228464195718e+00 -1.7364694006953172e+00 -1.0747046324391305e+00 -1.5181727860052940e+00 -1.3724410860826195e+00 1.2223627976660345e+00 5.1345363536216049e-01 -1.5890898400332698e+00 4.3490766866498964e-01 -6.3777260779189138e-01 7.0624576206052092e-01 1.1549354028894436e+00 -3.1315367828901534e-02 2.4619854802259700e-01 -7.2279711542814074e-01 
        </Neuron>
        <Neuron NSynapses="17">
          6.9521970639779351e-01 -1.4591747929080068e+00 -1.1745780352360558e+00 -1.4845642588996628e+00 6.3500264227365499e-01 1.4385245012071006e+00 1.3330823858371985e+00 -3.2424621678534798e-01 -1.7801627753503755e+00 -1.8191170846669114e+00 8.2600615462456184e-01 7.9190827697440913e-01 2.0457436602803525e+00 5.7010611232226982e-01 1.5158956621069157e+00 -1.6204094535372617e+00 -1.2710701934593704e+00 
        </Neuron>
        <Neuron NSynapses="17">
          -2.3773648728496539e-02 9.6861537349817395e-01 -8.6974744358190104e-01 -1.5072219787233303e+00 -1.9312075724369393e+00 -2.9850266808549480e-01 3.3847172114263413e-01 1.6114686966592238e+00 -1.5644471059071845e+00 -8.4750039893347118e-01 1.6730067979414678e+00 -9.3148506195005476e-01 -1.5202627456503208e+00 -1.8734506132988589e+00 3.9147111431957693e-01 -1.9608503638251362e+00 -1.2208755663409123e+00 
        </Neuron>
        <Neuron NSynapses="17">
          8.0235749008977342e-01 1.8666645430162090e+00 -6.1549310790630596e-01 1.6937398779539663e+00 -1.2568971333603687e+00 -1.0860232671872603e+00 3.5987940355043502e-01 1.3190372516800738e-02 -2.0125754463162822e+00 3.4417039709955166e-01 4.6483591936102098e-01 2.1903902875809453e-01 -1.4906172465570786e+00 1.0946865201017306e+00 5.7713306577122248e-01 -6.2573569197740941e-01 1.2761296683498147e+00 
        </Neuron>
        <Neuron NSynapses="17">
          -9.9437356159024592e-01 -1.3300897145581392e+00 3.9722822721986023e-01 -3.2828459262924753e-01 1.5212362642461028e+00 6.4548590641795356e-01 2.8664872669651636e-01 -5.5756157229706726e-01 9.0656486804605668e-02 -1.6832455041223218e+00 1.0454666156046601e+00 -6.3985570968631608e-03 -1.7611530085946181e+00 1.0986532783801789e-01 -1.0989988326271887e+00 5.6408405049785906e-02 1.2828614200335695e+00 
        </Neuron>
        <Neuron NSynapses="17">
          1.9084925839529743e+00 -1.6433735046684335e+00 9.0785522453518785e-01 1.6232647058854361e+00 1.1602215742364146e+00 -1.8867463954253971e-01 -8.7257308939690936e-01 -2.9929107975299296e-01 -1.5806390570657163e+00 1.6067478928410215e+00 1.4044357989837817e+00 -4.2952602976953819e-01 -5.3471454287494669e-01 -4.8336620760400717e-01 -1.0690159230760401e+00 8.5061226866391004e-01 2.1893216182260704e+00 
        </Neuron>
        <Neuron NSynapses="17">
          -5.0843759092470009e-01 -8.3033027647427982e-01 4.1943144386527897e-01 1.1580642804083030e+00 2.9183065527395580e-01 9.6143983866024985e-01 -9.3847922322855570e-01 1.4435375513538833e+00 5.0558216262850331e-01 4.0914332780545154e-01 6.4473573704413045e-01 1.1121945437159257e+00 -6.9453790830655859e-01 -8.7976829736374518e-01 1.6037044419209978e+00 -1.1809572691550376e+00 -3.0606426029197448e-01 
        </Neuron>
        <Neuron NSynapses="17">
          1.4956130301355059e+00 7.3346881797611940e-01 -2.3293205313740245e-01 1.3825316416691356e+00 1.5910395264645301e+00 -1.8712888985775646e+00 8.4750063655749208e-01 -1.6940757683113186e-01 3.7487661131520095e-01 -1.6692654521609085e+00 -1.4420126520697334e+00 1.0074577963762628e+00 1.7143984707527082e+00 -1.9331223275466534e+00 1.3266787397681185e-01 -8.3107425673126234e-01 2.1980224263666659e-01 
        </Neuron>
        <Neuron NSynapses="17">
          1.7746971670020240e+00 -3.6486501561340132e-02 -2.0609404654203241e-02 -1.0392952837631844e+00 7.9106655636190248e-01 1.4513115436220323e+00 1.2999462692185235e+00 6.5862903215572893e-02 -8.3595719630859266e-01 -1.9362353678548399e+00 1.1062468102565701e+00 3.0545355093042642e-01 -1.3187653439738751e+00 -1.2841945483051911e+00 4.8899141407462743e-01 2.9682358299824974e-01 -1.5538927856992246e+00 
        </Neuron>
        <Neuron NSynapses="17">
          1.7677800976726119e+00 1.0892608940800537e+00 -3.6118028426192453e-02 -4.3057840746484430e-02 1.3903584078801636e+00 8.8578129341508971e-01 8.8636189628924256e-01 -3.2259083865316190e-01 -1.8830298387613189e+00 -8.5604190496907662e-01 1.8159087084357322e+00 9.3238414228868916e-01 8.3106621155607119e-01 -3.3243953369113816e-01 2.1360378481011475e+00 -1.3110144524112675e+00 -8.1897284252878955e-01 
        </Neuron>
        <Neuron NSynapses="17">
          -2.9134363951271391e-02 -1.3507551401146649e+00 1.1725930355637730e+00 1.7650112324382996e+00 -1.4540467305410874e+00 6.7555189569838792e-01 5.1785504079256639e-02 -2.0919919004157927e+00 -1.1634601491940910e+00 1.0708611877576022e+00 6.0428935303601508e-02 7.0571399386293054e-01 -1.1644561686813344e+00 1.0663347774138399e+00 -1.4801505816938501e+00 8.4481089854087144e-01 2.9669401497454556e-01 
        </Neuron>
        <Neuron NSynapses="17">
          -1.3824437483674479e+00 -1.4598133856832309e+00 -1.6903162815082320e+00 -3.5356679171888167e-01 -2.1726487199363156e+00 -1.6229261719431463e+00 -1.4871296974788035e+00 1.2364278594332168e-01 -1.0408217054823283e+00 -1.6314221693992652e+00 1.3924725140160850e+00 -5.1074769962397293e-01 1.1369919013354805e-01 -1.3830326940963151e+00 5.5916927722518039e-01 1.5284712212928742e+00 1.4117930955160858e+00 
        </Neuron>
        <Neuron NSynapses="17">
          -8.4382205746490668e-01 -1.1031358480237192e+00 -6.9341025225204778e-01 -9.3682556939577943e-01 -1.8544542199786180e+00 1.5729105870512905e-01 5.1842573949302806e-01 1.6024842071102594e+00 -3.3550141260206906e-01 2.9956855257244042e-01 -4.7931346096835153e-01 -2.0088771550210893e+00 1.3465950423673496e+00 6.1645817417568727e-01 -6.4703784910619289e-01 -8.9525447880649678e-01 1.0802854594537148e+00 
        </Neuron>
        <Neuron NSynapses="17">
          1.2036275709484974e+00 8.2932836431496515e-01 -1.2045793579584496e-01 -3.5320926203780717e-01 1.3319141109919215e+00 8.5529698728222914e-01 6.4053820117738347e-01 -5.7623543519286913e-01 2.0427326776755508e-01 -1.6532864214375187e-01 -1.3112935228246401e+00 -8.9319101255821032e-01 -1.6115341523497722e+00 -1.5422056516288305e+00 -1.4821050816830605e+00 2.1790173936782571e+00 -1.3717739973956824e+00 
        </Neuron>
        <Neuron NSynapses="17">
          1.3826409403472391e+00 -2.2476756602628796e+00 -6.4253263009983796e-02 -1.2755450713942822e+00 1.0736653659402147e+00 1.5030477066599068e+00 -2.8248056720577379e+00 5.7207360994296297e-01 1.0666065477875735e+00 -1.9457996718343877e+00 -1.8922830424886514e+00 -1.3457712824716612e+00 -6.5906820544115352e-01 2.9222232829747798e+00 -6.9776848451993756e-01 -6.0802142774150403e-01 -2.0010015902539977e+00 
        </Neuron>
      </Layer>
      <Layer Index="1" NNeurons="18">
        <Neuron NSynapses="17">
          -9.4820361127409403e-01 -1.6755214553492319e+00 -5.7804512776691452e-01 -1.5296466956985644e+00 8.5031917025123704e-01 -1.7809853320846478e+00 -1.2521662157730298e+00 1.3630663886809891e+00 3.7668735564966843e-01 -5.9969250199249979e-01 2.0249516162268133e+00 -1.7151418922763235e+00 1.6230378841579363e+00 1.0071539427666090e+00 -1.1782303787378132e+00 -6.1274624346267237e-01 -1.4851777322427726e-01 
        </Neuron>
        <Neuron NSynapses="17">
          -1.0838208697857401e+00 4.6656024394104828e-01 1.6621774181835809e+00 1.3574411959093255e+00 1.7644037217388935e+00 -1.5072325353625760e+00 1.1387403980803688e+00 -2.0496233538772124e+00 5.6268243405638252e-01 -1.6111521395183237e+00 -2.0595577377338130e+00 1.3623214918224893e-02 1.2403886499598848e+00 3.4387921432442181e-01 9.6934977921451715e-01 4.4221547686160373e-01 -2.1317945836262742e-01 
        </Neuron>
        <Neuron NSynapses="17">
          -6.2111421123382804e-01 1.0026735377566387e-01 1.8745467600364192e+00 -1.4365947661109564e+00 5.3221684654456058e-01 -1.7095095360958181e+00 -3.7355955513413192e-01 3.1179681294601164e-01 -2.0666180457725281e-02 -1.2126201340976142e+00 7.3846019172544808e-01 1.7142464029292326e+00 7.4311434846580382e-01 -1.0139848405221520e-01 -6.9947190076093391e-01 -1.4150081645381043e+00 -1.6049060492711587e+00 
        </Neuron>
        <Neuron NSynapses="17">
          1.0772328353005489e+00 -5.3967479741609281e-01 -7.0475099266635588e-01 3.1177883602481599e-01 -1.8742944407427693e+00 -1.6423843917629906e+00 -1.7259100558605147e+00 6.3950723545767596e-01 -1.2893413638668214e+00 -1.6754944046157800e+00 -4.8913759936828749e-01 -9.1669594834630697e-01 -1.6351200741289122e+00 1.2645219566289068e+00 -1.5540725031808031e+00 -1.2258198711107748e+00 1.5372250840150674e+00 
        </Neuron>
        <Neuron NSynapses="17">
          5.8812013885227565e-01 3.3152809540697359e-01 3.7771336573400411e-03 1.3329924642556741e+00 1.9016785148422386e+00 1.0947615234463681e+00 -8.3531726268682160e-01 -3.8134349213052393e-01 -1.7778090999199685e+00 8.7628901336305576e-01 8.1397358463762537e-01 8.1127696413315367e-02 1.1380335150416345e+00 8.1897871089683394e-01 1.5738500486940399e+00 -1.2727278833915581e+00 1.6533159142688545e+00 
        </Neuron>
        <Neuron NSynapses="17">
          7.1980677567859386e-01 -1.9141671871585204e+00 -1.5016003309903750e-01 -9.6525756761825854e-01 9.0453763407360865e-01 7.0077554369571149e-01 1.0138838676440143e+00 1.6760959459818436e+00 -2.8027935590678194e-01 1.5626870200273049e+00 1.8348044881425478e+00 2.0308801868347412e-01 -8.8750304396326507e-01 1.5944969435623411e+00 -2.0954040254649660e+00 6.5541983649803826e-01 1.6832301628579078e+00 
        </Neuron>
        <Neuron NSynapses="17">
          -1.7520590119929735e-01 -7.9512116778698105e-01 3.0248344932737581e-01 -1.2810390457173788e+00 3.9598131633396816e-01 -2.2131474893361109e+00 1.6950986679378660e-01 -6.1057582473626704e-01 1.8363932310132818e+00 1.1454465107100962e+00 1.8862346956541454e+00 -4.3096735926661084e-01 -1.5914375745622733e-01 3.2279697642446437e-01 1.5445178418988255e+00 -1.7160309910858906e+00 -1.3996971711076340e+00 
        </Neuron>
        <Neuron NSynapses="17">
          -6.4894468864353816e-01 -1.4878212634467698e+00 -1.4759978707587731e+00 -1.8124905084634513e+00 4.4031332135403639e-01 -5.4993608802863241e-02 -2.0001243967769717e+00 -2.0285442492621777e+00 -2.7723447535771406e-01 1.8424822992074721e+00 1.7884874633265873e+00 1.2843503676681893e+00 -6.1863627261194076e-01 -1.7468772920769080e+00 8.0256233544368588e-02 -1.3776775472953051e+00 -1.4980282188007672e+00 
        </Neuron>
        <Neuron NSynapses="17">
          -8.0312271259307633e-01 1.7666930785525246e-02 -1.8448046877319275e+00 1.4969227613024148e+00 1.2858490560922999e+00 1.2159265426080406e+00 -5.3675846849303854e-01 -3.7470205683912755e-01 1.6265862414010024e+00 -5.6666580556694135e-01 2.4769390837292547e-02 1.5314771991924316e+00 1.5054773873326348e+00 -1.0402227813608103e+00 1.6775262934527588e+00 -2.0176621088091555e+00 1.7499564912442218e+00 
        </Neuron>
        <Neuron NSynapses="17">
          2.1314255244670814e+00 -1.9354597680255672e-01 1.8516062648893417e-01 3.3108229417838514e-01 -3.2189128744620671e-01 2.9553724725097597e-01 5.1748559536614003e-01 -9.7395150551830934e-01 -1.6150380821015879e+00 -9.0375584835910225e-02 1.5433504361144907e+00 4.1945993311546875e-01 -7.5323017290068883e-01 -1.8089409574602993e+00 1.7706662629281249e+00 5.0610693351815916e-01 -1.2173182965612315e+00 
        </Neuron>
        <Neuron NSynapses="17">
          -3.2339660325428199e-01 -1.0124782290582313e+00 1.5284184108141892e+00 1.3822136326073891e+00 -8.7673620760045778e-01 -1.9006309607414678e+00 1.4676074097211158e+00 8.1885253039137962e-01 4.7862727518931558e-01 2.3960886745437127e-01 -9.6828580504474615e-01 -1.2441323707258169e+00 9.5247335582747727e-01 3.9789780104072886e-01 2.2440403953116669e-01 -1.8199294268883774e+00 -1.9480214369760811e+00 
        </Neuron>
        <Neuron NSynapses="17">
          -1.9656496883604653e+00 -3.1489218272868741e-01 -1.4808104218750893e+00 1.8078080576010300e-01 -7.6770192917561453e-01 1.4802099183879938e+00 3.2397211048875274e-01 -1.9057006538449117e+00 1.1592239090333494e+00 2.0432582460974467e+00 1.0167383745437046e+00 -4.5332528947436840e-01 -9.0229454779909735e-01 2.2024248985318735e+00 -1.4576130884483316e+00 3.9382165579248035e-01 -1.4284132562119609e+00 
        </Neuron>
        <Neuron NSynapses="17">
          6.6505614296639903e-01 -1.1562476859316442e+00 1.3861106981794091e-01 -1.2157801905942099e-01 1.7891411275514388e-01 4.0206716750185911e-01 -9.5441508960200183e-01 1.1370446730429038e+00 5.5961675947934086e-01 9.0657482048651883e-01 9.3140544449957763e-01 -1.7655646306593182e+00 9.6936253921319182e-01 -1.7757557802070767e+00 1.1215467892099891e+00 7.5859624613389964e-01 7.2370280075016225e-01 
        </Neuron>
        <Neuron NSynapses="17">
          1.4907551482122947e+00 1.4671575577200990e+00 -1.9188254496100867e+00 -6.5989387251139309e-01 -9.4262451197194286e-01 1.0137476569771044e+00 3.1148472719429471e-02 -1.5694018647149904e-01 -5.8755072367793959e-01 -6.9544946463959223e-01 -9.5180625672452879e-01 -3.6594290425367060e-01 -1.7885137086504019e+00 -2.6984426064191341e-01 2.7655694165657713e-01 -6.1904928843119922e-01 -1.2913844685818023e+00 
        </Neuron>
        <Neuron NSynapses="17">
          1.2756597246767548e-01 2.5510609019317398e-01 -1.5530784496332800e-01 -1.1643660646018406e+00 1.6831892875479870e+00 -1.2141997327712771e-01 5.9840623508139568e-01 6.1873601185676808e-01 -9.4181803249927365e-01 -7.0064421573343594e-01 -1.1399053149760853e-01 -1.9927580345651319e+00 -1.0158122207989038e+00 -1.0422318909791064e+00 1.0850569683913238e+00 -2.1664034279579876e+00 1.2978694594934879e+00 
        </Neuron>
        <Neuron NSynapses="17">
          2.0045459851886531e+00 1.5922794777997631e+00 9.6263974902677452e-01 7.5165449468489975e-01 3.2860812591922489e-01 -9.2133316013515076e-01 -1.8569080088411736e+00 -1.1037705580549813e+00 -9.2414709889462476e-01 1.2988475742369705e+00 2.2255930805278025e-02 9.8096778962509443e-02 1.5461663704080715e+00 1.0190734848249881e+00 -1.2519679654373961e+00 4.9125233381567368e-01 -1.5952600788482272e+00 
        </Neuron>
        <Neuron NSynapses="17">
          8.5763998859944812e-01 -1.8480587127817101e+00 3.6360317762456856e-01 -3.7865429558390240e-01 8.2181480578333488e-01 -2.1528341585001427e+00 1.6046850567595963e-01 -1.9317342475801136e+00 -1.5085071700341518e-02 1.3570156941646820e+00 -5.9271283222549476e-01 5.6060402493132266e-01 -1.8904915155271562e+00 1.1109494966399289e+00 -5.4286494877076197e-01 6.7849984521855122e-01 -1.7786324274153262e+00 
        </Neuron>
        <Neuron NSynapses="17">
          -1.1802369545392282e+00 1.9581147233147556e+00 -2.4209563750909355e+00 -1.1184590212238446e+00 -7.6036881941732726e-01 2.5185175600152530e+00 1.5381965894872254e+00 2.0401185905585590e+00 -1.8136167055371692e+00 7.5341502363613699e-01 4.7298920315300585e-01 2.1636908503691243e-01 -1.2391713263823616e+00 -1.4179287932557780e+00 2.9350523833304071e-01 -2.2536257498523302e-01 1.8360645694777455e+00 
        </Neuron>
      </Layer>
      <Layer Index="2" NNeurons="18">
        <Neuron NSynapses="1">
          -3.3956792563203463e-02 
        </Neuron>
        <Neuron NSynapses="1">
          -9.0775676865872991e-03 
        </Neuron>
        <Neuron NSynapses="1">
          -1.7637970398627173e-01 
        </Neuron>
        <Neuron NSynapses="1">
          4.5703258034534965e-03 
        </Neuron>
        <Neuron NSynapses="1">
          -2.1339856405055781e-02 
        </Neuron>
        <Neuron NSynapses="1">
          -7.4012411497295805e-01 
        </Neuron>
        <Neuron NSynapses="1">
          3.4207458799665196e-03 
        </Neuron>
        <Neuron NSynapses="1">
          3.2913554960628151e-02 
        </Neuron>
        <Neuron NSynapses="1">
          9.8978126847218493e-03 
        </Neuron>
        <Neuron NSynapses="1">
          4.7707124682935295e-02 
        </Neuron>
        <Neuron NSynapses="1">
          8.0056739234470684e-03 
        </Neuron>
        <Neuron NSynapses="1">
          -1.7965428329950836e-02 
        </Neuron>
        <Neuron NSynapses="1">
          -5.9237961047734836e-02 
        </Neuron>
        <Neuron NSynapses="1">
          -6.2309379640992577e-03 
        </Neuron>
        <Neuron NSynapses="1">
          9.6045758216204769e-04 
        </Neuron>
        <Neuron NSynapses="1">
          -2.5634885157208173e-02 
        </Neuron>
        <Neuron NSynapses="1">
          -2.1562022625773454e-02 
        </Neuron>
        <Neuron NSynapses="1">
          6.4981663221678343e-01 
        </Neuron>
      </Layer>
      <Layer Index="3" NNeurons="1">
        <Neuron NSynapses="0"/>
      </Layer>
    </Layout>
  </Weights>
</MethodSetup>
