<?xml version="1.0"?>
<MethodSetup Method="MLP::XS_54_126_0_cap">
  <GeneralInfo>
    <Info name="TMVA Release" value="4.2.1 [262657]"/>
    <Info name="ROOT Release" value="6.06/02 [394754]"/>
    <Info name="Creator" value="mouginot"/>
    <Info name="Date" value="Thu Feb 23 08:45:06 2017"/>
    <Info name="Host" value="Linux e300.chtc.wisc.edu 2.6.32-642.13.1.el6.x86_64 #1 SMP Tue Jan 10 11:22:50 CST 2017 x86_64 x86_64 x86_64 GNU/Linux"/>
    <Info name="Dir" value="/mnt/gluster/mouginot/TRU_MOX_XS/Generate"/>
    <Info name="Training events" value="198960"/>
    <Info name="TrainingTime" value="4.08736887e+04"/>
    <Info name="AnalysisType" value="Regression"/>
  </GeneralInfo>
  <Options>
    <Option name="NCycles" modified="Yes">20000</Option>
    <Option name="HiddenLayers" modified="Yes">N,N</Option>
    <Option name="NeuronType" modified="Yes">tanh</Option>
    <Option name="RandomSeed" modified="No">1</Option>
    <Option name="EstimatorType" modified="No">MSE</Option>
    <Option name="NeuronInputType" modified="No">sum</Option>
    <Option name="V" modified="Yes">False</Option>
    <Option name="VerbosityLevel" modified="No">Default</Option>
    <Option name="VarTransform" modified="Yes">Norm</Option>
    <Option name="H" modified="Yes">False</Option>
    <Option name="CreateMVAPdfs" modified="No">False</Option>
    <Option name="IgnoreNegWeightsInTraining" modified="No">False</Option>
    <Option name="TrainingMethod" modified="Yes">BFGS</Option>
    <Option name="LearningRate" modified="No">2.000000e-02</Option>
    <Option name="DecayRate" modified="No">1.000000e-02</Option>
    <Option name="TestRate" modified="Yes">6</Option>
    <Option name="EpochMonitoring" modified="No">False</Option>
    <Option name="Sampling" modified="Yes">3.000000e-01</Option>
    <Option name="SamplingEpoch" modified="Yes">8.000000e-01</Option>
    <Option name="SamplingImportance" modified="No">1.000000e+00</Option>
    <Option name="SamplingTraining" modified="No">True</Option>
    <Option name="SamplingTesting" modified="No">False</Option>
    <Option name="ResetStep" modified="No">50</Option>
    <Option name="Tau" modified="No">3.000000e+00</Option>
    <Option name="BPMode" modified="No">sequential</Option>
    <Option name="BatchSize" modified="No">-1</Option>
    <Option name="ConvergenceImprove" modified="Yes">1.000000e-06</Option>
    <Option name="ConvergenceTests" modified="Yes">15</Option>
    <Option name="UseRegulator" modified="Yes">False</Option>
    <Option name="UpdateLimit" modified="No">10000</Option>
    <Option name="CalculateErrors" modified="No">False</Option>
    <Option name="WeightRange" modified="No">1.000000e+00</Option>
  </Options>
  <Variables NVar="17">
    <Variable VarIndex="0" Expression="235U" Label="235U" Title="235U" Unit="IsotopicFraction" Internal="235U" Type="F" Min="1.71346517e-06" Max="1.92414057e-02"/>
    <Variable VarIndex="1" Expression="238U" Label="238U" Title="238U" Unit="IsotopicFraction" Internal="238U" Type="F" Min="7.85399854e-01" Max="9.68733251e-01"/>
    <Variable VarIndex="2" Expression="237Np" Label="237Np" Title="237Np" Unit="IsotopicFraction" Internal="237Np" Type="F" Min="1.63990119e-08" Max="1.97294168e-04"/>
    <Variable VarIndex="3" Expression="238Pu" Label="238Pu" Title="238Pu" Unit="IsotopicFraction" Internal="238Pu" Type="F" Min="4.69728775e-07" Max="3.96428024e-03"/>
    <Variable VarIndex="4" Expression="239Pu" Label="239Pu" Title="239Pu" Unit="IsotopicFraction" Internal="239Pu" Type="F" Min="2.15940680e-02" Max="1.89886928e-01"/>
    <Variable VarIndex="5" Expression="240Pu" Label="240Pu" Title="240Pu" Unit="IsotopicFraction" Internal="240Pu" Type="F" Min="1.54567579e-06" Max="3.95636074e-02"/>
    <Variable VarIndex="6" Expression="241Pu" Label="241Pu" Title="241Pu" Unit="IsotopicFraction" Internal="241Pu" Type="F" Min="3.22813172e-08" Max="7.04628276e-03"/>
    <Variable VarIndex="7" Expression="242Pu" Label="242Pu" Title="242Pu" Unit="IsotopicFraction" Internal="242Pu" Type="F" Min="1.58277174e-07" Max="1.98803633e-03"/>
    <Variable VarIndex="8" Expression="241Am" Label="241Am" Title="241Am" Unit="IsotopicFraction" Internal="241Am" Type="F" Min="3.13082671e-10" Max="7.48056592e-03"/>
    <Variable VarIndex="9" Expression="242Amm" Label="242Amm" Title="242Amm" Unit="IsotopicFraction" Internal="242Amm" Type="F" Min="1.34159976e-07" Max="1.16249369e-02"/>
    <Variable VarIndex="10" Expression="243Am" Label="243Am" Title="243Am" Unit="IsotopicFraction" Internal="243Am" Type="F" Min="2.04390229e-08" Max="1.99559363e-04"/>
    <Variable VarIndex="11" Expression="242Cm" Label="242Cm" Title="242Cm" Unit="IsotopicFraction" Internal="242Cm" Type="F" Min="1.48285639e-09" Max="1.93909858e-04"/>
    <Variable VarIndex="12" Expression="243Cm" Label="243Cm" Title="243Cm" Unit="IsotopicFraction" Internal="243Cm" Type="F" Min="9.09117492e-09" Max="1.97552916e-04"/>
    <Variable VarIndex="13" Expression="244Cm" Label="244Cm" Title="244Cm" Unit="IsotopicFraction" Internal="244Cm" Type="F" Min="2.46570231e-09" Max="1.97112051e-04"/>
    <Variable VarIndex="14" Expression="245Cm" Label="245Cm" Title="245Cm" Unit="IsotopicFraction" Internal="245Cm" Type="F" Min="9.47205692e-09" Max="1.97873349e-04"/>
    <Variable VarIndex="15" Expression="246Cm" Label="246Cm" Title="246Cm" Unit="IsotopicFraction" Internal="246Cm" Type="F" Min="2.33963915e-09" Max="1.98596885e-04"/>
    <Variable VarIndex="16" Expression="Time" Label="Time" Title="Time" Unit="seconds" Internal="Time" Type="F" Min="0.00000000e+00" Max="1.89328320e+08"/>
  </Variables>
  <Spectators NSpec="0"/>
  <Classes NClass="1">
    <Class Name="Regression" Index="0"/>
  </Classes>
  <Targets NTrgt="1">
    <Target TargetIndex="0" Expression="XS_54_126_0_cap" Label="XS_54_126_0_cap" Title="XS_54_126_0_cap" Unit="" Internal="XS_54_126_0_cap" Type="F" Min="1.38744235e+00" Max="1.81193316e+00"/>
  </Targets>
  <Transformations NTransformations="1">
    <Transform Name="Normalize">
      <Selection>
        <Input NInputs="18">
          <Input Type="Variable" Label="235U" Expression="235U"/>
          <Input Type="Variable" Label="238U" Expression="238U"/>
          <Input Type="Variable" Label="237Np" Expression="237Np"/>
          <Input Type="Variable" Label="238Pu" Expression="238Pu"/>
          <Input Type="Variable" Label="239Pu" Expression="239Pu"/>
          <Input Type="Variable" Label="240Pu" Expression="240Pu"/>
          <Input Type="Variable" Label="241Pu" Expression="241Pu"/>
          <Input Type="Variable" Label="242Pu" Expression="242Pu"/>
          <Input Type="Variable" Label="241Am" Expression="241Am"/>
          <Input Type="Variable" Label="242Amm" Expression="242Amm"/>
          <Input Type="Variable" Label="243Am" Expression="243Am"/>
          <Input Type="Variable" Label="242Cm" Expression="242Cm"/>
          <Input Type="Variable" Label="243Cm" Expression="243Cm"/>
          <Input Type="Variable" Label="244Cm" Expression="244Cm"/>
          <Input Type="Variable" Label="245Cm" Expression="245Cm"/>
          <Input Type="Variable" Label="246Cm" Expression="246Cm"/>
          <Input Type="Variable" Label="Time" Expression="Time"/>
          <Input Type="Target" Label="XS_54_126_0_cap" Expression="XS_54_126_0_cap"/>
        </Input>
        <Output NOutputs="18">
          <Output Type="Variable" Label="235U" Expression="235U"/>
          <Output Type="Variable" Label="238U" Expression="238U"/>
          <Output Type="Variable" Label="237Np" Expression="237Np"/>
          <Output Type="Variable" Label="238Pu" Expression="238Pu"/>
          <Output Type="Variable" Label="239Pu" Expression="239Pu"/>
          <Output Type="Variable" Label="240Pu" Expression="240Pu"/>
          <Output Type="Variable" Label="241Pu" Expression="241Pu"/>
          <Output Type="Variable" Label="242Pu" Expression="242Pu"/>
          <Output Type="Variable" Label="241Am" Expression="241Am"/>
          <Output Type="Variable" Label="242Amm" Expression="242Amm"/>
          <Output Type="Variable" Label="243Am" Expression="243Am"/>
          <Output Type="Variable" Label="242Cm" Expression="242Cm"/>
          <Output Type="Variable" Label="243Cm" Expression="243Cm"/>
          <Output Type="Variable" Label="244Cm" Expression="244Cm"/>
          <Output Type="Variable" Label="245Cm" Expression="245Cm"/>
          <Output Type="Variable" Label="246Cm" Expression="246Cm"/>
          <Output Type="Variable" Label="Time" Expression="Time"/>
          <Output Type="Target" Label="XS_54_126_0_cap" Expression="XS_54_126_0_cap"/>
        </Output>
      </Selection>
      <Class ClassIndex="0">
        <Ranges>
          <Range Index="0" Min="1.7134651670858148e-06" Max="1.9241405650973320e-02"/>
          <Range Index="1" Min="7.8539985418319702e-01" Max="9.6873325109481812e-01"/>
          <Range Index="2" Min="1.6399011926182538e-08" Max="1.9729416817426682e-04"/>
          <Range Index="3" Min="4.6972877498774324e-07" Max="3.9642802439630032e-03"/>
          <Range Index="4" Min="2.1594068035483360e-02" Max="1.8988692760467529e-01"/>
          <Range Index="5" Min="1.5456757864740212e-06" Max="3.9563607424497604e-02"/>
          <Range Index="6" Min="3.2281317174920332e-08" Max="7.0462827570736408e-03"/>
          <Range Index="7" Min="1.5827717447791656e-07" Max="1.9880363252013922e-03"/>
          <Range Index="8" Min="3.1308267089968922e-10" Max="7.4805659241974354e-03"/>
          <Range Index="9" Min="1.3415997557331139e-07" Max="1.1624936945736408e-02"/>
          <Range Index="10" Min="2.0439022918594674e-08" Max="1.9955936295446008e-04"/>
          <Range Index="11" Min="1.4828563932312022e-09" Max="1.9390985835343599e-04"/>
          <Range Index="12" Min="9.0911749239808159e-09" Max="1.9755291577894241e-04"/>
          <Range Index="13" Min="2.4657023089957875e-09" Max="1.9711205095518380e-04"/>
          <Range Index="14" Min="9.4720569165929192e-09" Max="1.9787334895227104e-04"/>
          <Range Index="15" Min="2.3396391490848600e-09" Max="1.9859688472934067e-04"/>
          <Range Index="16" Min="0.0000000000000000e+00" Max="1.8932832000000000e+08"/>
          <Range Index="17" Min="1.3874423503875732e+00" Max="1.8119331598281860e+00"/>
        </Ranges>
      </Class>
    </Transform>
  </Transformations>
  <MVAPdfs/>
  <Weights>
    <Layout NLayers="4">
      <Layer Index="0" NNeurons="18">
        <Neuron NSynapses="17">
          3.1131876454832574e-01 2.6467414882599610e-01 -5.4085985016130511e-01 1.3608521556450957e+00 -1.6680404069917305e+00 -3.0665717566333839e-01 3.4892950537722567e-01 1.9807274151052465e+00 -2.6733316515214725e+00 -1.1132275234746687e+00 -4.9047092975161183e-01 -7.3689070890805133e-02 -1.4999574410551684e+00 -2.8439697657241747e-01 -3.9413186747835738e-01 -2.5702947007114535e-01 -2.0736317860417339e-01 
        </Neuron>
        <Neuron NSynapses="17">
          1.3446438024332747e+00 2.1068685008289711e+00 2.3305649524760104e+00 -6.3656806121122778e-01 3.8483398179972733e-01 -1.0329242374420007e+00 -1.2066943824189231e+00 -1.8002524848338508e+00 7.5353010544580143e-02 2.6416068534252761e+00 -1.2784553264420975e+00 -1.5946786975051215e+00 -4.5976367859272788e-01 -1.3169078326757191e-01 8.3693298918624426e-01 8.0144624512569584e-01 1.3907056685916694e-01 
        </Neuron>
        <Neuron NSynapses="17">
          2.3170237814173567e-01 -1.6543935232290150e-01 -1.1525321956844508e+00 2.0448418080572806e+00 -1.6764627821050377e+00 4.4237249199860473e-01 2.6271341453789249e-02 1.0435042920190549e+00 8.9668572750321218e-01 7.0617241804694497e-01 -5.4994007442468351e-01 -2.6412923473933238e-02 6.1328308926394615e-01 -4.0914835788884257e-01 1.3627585406343063e+00 2.4515552103919178e-02 1.5708893294582906e+00 
        </Neuron>
        <Neuron NSynapses="17">
          1.6318336487681089e+00 -4.3089880211065662e-01 7.9605521800273671e-01 -1.3240901203360322e+00 -1.4806256247791945e+00 -1.3003104933874927e+00 3.6034161714286826e-02 1.2951804641484701e+00 -1.7244816917969430e-01 -5.2948442070407720e-01 -7.0858523936489165e-03 -3.5877154165458856e-02 5.6811663838381388e-01 3.1484205408065141e-01 -1.3268385792350237e-01 -4.9154180891354614e-02 -4.7111201222272425e-01 
        </Neuron>
        <Neuron NSynapses="17">
          1.4658210688819939e+00 -2.7229627612731488e+00 -1.6403514704652395e+00 -9.0320205691508260e-01 -8.5615917534325114e-01 2.8400497539962317e+00 2.3366870371512110e+00 6.5442762911568586e-01 -2.4745297163234277e+00 -2.8566230327495754e+00 1.6314256129518625e+00 4.0516631308631662e-01 2.3672240166959768e+00 8.5850432958093170e-01 1.8854320162586786e+00 -2.0356013874818024e+00 -9.1467599108146291e-01 
        </Neuron>
        <Neuron NSynapses="17">
          -3.6210454552088467e-01 3.7327864085569240e-01 -4.7852743097759443e-01 -1.5119599465554543e+00 -1.1309229329475285e+00 -1.0971774958562619e+00 4.3480154727895487e-01 7.8752582094417334e-01 -1.3468467307748946e+00 8.2359984630189342e-02 -1.0405722416851811e-01 -4.8365831248707464e-01 -1.3333348672000322e+00 -1.4144118136981436e+00 -6.4758477432090997e-02 -1.0332877008584493e-02 -1.1999408031685779e+00 
        </Neuron>
        <Neuron NSynapses="17">
          1.3417401852821675e+00 -2.9821871032321068e-01 -7.2298130358262636e-01 2.0791699917595516e+00 -1.4309144509474920e+00 -3.0310913177387883e-01 -5.5136480497909195e-02 1.0652495302394573e+00 -2.3682805849891677e+00 8.1396701209037858e-01 -5.1064236925711187e-02 4.9020375304966335e-02 -1.2606199041530215e+00 2.9199747111743574e-01 6.6728828182196331e-01 -4.2147967872413608e-02 1.5187665626611837e+00 
        </Neuron>
        <Neuron NSynapses="17">
          -5.1851366884838646e-01 -5.1947394258664048e-01 5.8597285599016480e-01 -2.0656447664807875e-01 8.8171352497595934e-01 5.2989381517126954e-01 -2.8493748727107127e-02 -5.4905991653500585e-01 -6.6239307590171312e-02 -1.8860016773228641e-01 2.6005711840380330e-01 -1.0886880864821489e-02 -1.2184590094268475e+00 -6.0334417147182580e-02 -7.6724529940685005e-01 3.8701230878059559e-02 1.0462455159999078e+00 
        </Neuron>
        <Neuron NSynapses="17">
          2.3088515876862399e+00 -1.0273526845493002e+00 4.1900699901209293e-01 1.4873482214894373e+00 4.5876602892775126e-01 -2.9505698480443754e-01 -1.1444743044797218e-01 2.4776656119983317e-01 -2.3989977953373658e+00 1.1417194400682604e+00 9.1542632832105697e-01 3.4101294612933736e-02 -1.1461623766339413e+00 -9.0249555544035043e-01 -1.0909888258475811e+00 1.3828359461468888e-02 2.2143390582064177e+00 
        </Neuron>
        <Neuron NSynapses="17">
          -2.1255706930308108e-01 -1.3582748231763667e-01 2.3248632780696787e-01 9.7516841925224929e-01 -1.2163013654364950e-01 -1.6321345183335504e-02 1.4785722821540281e-01 1.1482024938518700e+00 2.4343866473501211e-01 1.9439468660402995e-01 5.5353629727610998e-01 6.1496162540612818e-02 -5.7947054701093370e-01 -5.4175404323940257e-01 1.3153613213609274e+00 -1.3936502401324946e-01 -2.3100009907851188e-01 
        </Neuron>
        <Neuron NSynapses="17">
          1.5173795381143880e+00 2.9011448677670287e-02 -8.8717847278725670e-02 1.3850683170292775e+00 8.9507089413334562e-01 -6.7912589728799944e-01 7.4336870074251993e-02 1.5546109375150902e-01 3.9562187914252813e-03 -4.6264645472763666e-01 -9.4036817582120347e-01 -4.2121089756425575e-02 1.0798991185726505e+00 -1.3630728008929665e+00 3.8741164036060999e-01 -2.1622068677439110e-02 1.4685189475820762e-01 
        </Neuron>
        <Neuron NSynapses="17">
          1.8106666104042126e+00 -1.4664241074113024e-01 -8.4955012918565220e-02 -8.8287155221637126e-01 7.6335879111801486e-01 1.0631416789806052e+00 -3.5307600431824057e-02 -9.9766960361387838e-02 -4.5254793891485051e-01 -3.0016342798887530e-01 1.2601183625310014e-01 -2.7102733463318504e-03 -7.6567547262150593e-01 -8.3579902867488054e-01 4.8815473387111574e-01 3.7573483343521417e-02 -1.3110731949001364e+00 
        </Neuron>
        <Neuron NSynapses="17">
          1.5366298584479245e+00 3.4827881535638411e-01 -5.2263848474413004e-02 -2.2982591836331984e-01 1.2399786774749060e+00 5.8913572064823139e-01 5.3423012960839931e-03 -1.1139727448101390e-01 -1.9742986583768221e+00 -3.9970805942483693e-02 9.1181533995075936e-01 -1.3489989962241510e-02 7.4515755510896481e-02 -2.7628347468518516e-01 2.1874228727431997e+00 -6.6641746759332540e-03 -7.7560450436246475e-01 
        </Neuron>
        <Neuron NSynapses="17">
          6.9063228838732682e-01 -4.2488914615184720e-01 4.7323059116364619e-01 1.5533293697650019e+00 -1.8467885370518220e+00 2.9261961621032645e-01 -6.5283615672450765e-02 -1.3550116297151338e+00 -1.5318905026352980e+00 6.9203999021245344e-01 1.9684218124156241e-01 3.6722576279401176e-02 -9.9611006987831785e-01 6.4223844234665517e-01 -1.0967410784188851e+00 3.6179567120441566e-03 3.0022769497485957e-01 
        </Neuron>
        <Neuron NSynapses="17">
          -6.9612356227235073e-01 -6.8255964864434437e-01 -1.4675844584753084e+00 -1.6074514833080442e-01 -2.5629909530922679e+00 -7.9380005272127285e-01 -1.2710368257481405e-01 1.8000060526379713e-01 -1.2981140012046060e+00 -6.6265629739961918e-01 9.7184586542193052e-01 3.9620618710036422e-02 -1.1895048444268318e-01 -1.2914069673796003e+00 4.7251724871677675e-01 4.4412681753341877e-02 1.4695626841799352e+00 
        </Neuron>
        <Neuron NSynapses="17">
          -4.3966456116391955e-01 -1.1094010673296331e-01 -5.3346030264942357e-01 -9.0627833627721632e-01 -2.0493291449766136e+00 3.0569667901720915e-01 -3.1726066673512042e-02 1.2194560172253881e+00 -9.6573560218066878e-01 4.8210194702262821e-01 -3.7493719009431919e-01 -3.5609693576533373e-03 7.9493429582385944e-01 1.0793153238018859e-01 -3.9523714908790220e-01 6.0419916080840146e-03 9.7762587717991511e-01 
        </Neuron>
        <Neuron NSynapses="17">
          2.1746417743895283e-01 2.1436469687676776e+00 3.5140982960686007e-01 -4.1271807531240529e-01 1.1553083340384236e+00 5.8219343629406561e-01 -1.8885616425930560e-01 2.2469131687814500e-01 8.4014363631446098e-01 9.9128693869101969e-01 -2.0254830748129726e+00 -6.9443632413891343e-01 -2.2967379000617556e+00 -5.7638879589011283e-01 -1.8545297365149525e+00 4.9522089331256797e-01 -1.1721563210701085e+00 
        </Neuron>
        <Neuron NSynapses="17">
          5.1911342980505371e-01 -1.2782203017547176e+00 7.5821314565253983e-01 -1.6521881751943861e+00 1.4642427907481692e+00 1.9107757040590252e+00 -2.0036955763738686e+00 -1.8609911632600759e-01 1.8463500916473408e+00 -3.3321531269322917e+00 -1.7576541778771757e+00 -2.5998367694595483e+00 -9.5749525782624398e-02 4.1719993261721342e+00 -6.9012033722299804e-01 -9.1570736756519144e-01 -2.4366228087058177e+00 
        </Neuron>
      </Layer>
      <Layer Index="1" NNeurons="18">
        <Neuron NSynapses="17">
          -4.3684293399963249e-02 -9.5558463435623742e-01 -4.6376926217716291e-01 -7.1401642770889950e-01 3.7178257755526045e-01 -6.4779764210299118e-01 -1.2577003103123328e+00 4.0764549480842335e-02 1.3855999569599211e-02 -9.0888012859456568e-01 1.7839138880629215e+00 -1.2053665374869447e+00 1.0709104389515240e+00 3.1372763150956157e-01 -1.0332671446364634e+00 -5.5067711379890893e-01 -2.0736365247818092e-01 
        </Neuron>
        <Neuron NSynapses="17">
          -9.0374165526348835e-03 4.4023081478183018e-01 1.1922743323862888e+00 1.7216095710948924e+00 2.1135562408350927e+00 -1.2652737375425889e+00 6.0518635013099142e-01 -3.4552238167682274e+00 5.0975996481956798e-01 -1.0805233115900583e+00 -2.1690855813621668e+00 1.3970061856544347e-01 8.4663044014178213e-01 1.9463031185988805e-01 1.0869668906320191e+00 4.0674148062924265e-01 -3.2539575708504836e-01 
        </Neuron>
        <Neuron NSynapses="17">
          2.0724031121097723e-02 -1.9753902923261135e-01 1.3361008732228263e+00 -5.7877332515351143e-01 6.4472236548905315e-01 -1.3699431549358694e+00 -8.5559122892858619e-01 6.7821066916796069e-01 5.2556372873249421e-02 -1.2438377647371670e+00 4.5596419722139414e-01 1.5378583837966082e+00 -1.5216711406042430e-01 -4.4028018272719621e-01 -4.0959682002668413e-01 -1.5629538581835125e+00 -1.6304895127831125e+00 
        </Neuron>
        <Neuron NSynapses="17">
          3.2095564425472414e-02 -6.6655639020315749e-01 -2.8423392065170255e-01 6.3359881972118126e-01 -1.6873038188442471e+00 -1.0802406635303246e+00 -1.2399691216001385e+00 -1.5441847993216160e-01 -2.9260770626068139e-01 -5.1713390124478276e-01 -4.2642160583628652e-01 -1.1428361579794737e+00 -1.0855640413192424e+00 1.1883700453611399e+00 -1.5550472044109065e+00 -1.2794845240201627e+00 1.4494646790371983e+00 
        </Neuron>
        <Neuron NSynapses="17">
          2.2734005179752173e-02 -2.5248390768296258e-01 -3.4056525009148346e-02 1.0210098824707095e+00 1.5826006566983013e+00 4.6106050958072597e-01 -7.2892229788225538e-01 5.1973756300848539e-01 -1.8596367430507765e-01 7.6775458931273577e-01 8.3943988232567046e-01 1.2848770829687675e-01 -2.3495917481666304e-01 6.7870661190730985e-01 1.4398662805247084e+00 -1.4140901338755834e+00 1.5984445048019638e+00 
        </Neuron>
        <Neuron NSynapses="17">
          -3.1870697482432070e-02 -1.7770257234497955e+00 -1.7200535380847543e-03 -1.1074378385862897e+00 6.0603096425707748e-01 1.0288181037689366e+00 1.0523594922552864e+00 2.1725547642935696e+00 -2.2935701425880337e-01 3.0184823123241211e-01 2.1692257432331781e+00 3.6021496168614964e-01 -9.7033220621603589e-01 1.8243393079939654e+00 -2.2288496424080675e+00 6.0804468509780318e-01 1.7698744208127355e+00 
        </Neuron>
        <Neuron NSynapses="17">
          -3.4922846453753537e-01 -1.2943957620553486e+00 5.8153196436053256e-01 -7.2421523993706027e-01 3.0119353361914808e-01 -1.2115017251341602e+00 3.5797566569874911e-01 -1.3689247238748692e+00 1.0839367500990249e+00 8.7982191531653253e-01 1.8711506423554376e+00 -2.0544423925360433e-01 -2.1241127245993316e-01 4.7260921165794106e-01 1.4298851581621401e+00 -1.8849159003223663e+00 -1.4820049287115469e+00 
        </Neuron>
        <Neuron NSynapses="17">
          -2.1577772517614661e-02 -1.0246737031568813e+00 -6.7085394452289737e-01 -1.7666564470886914e+00 2.7984144186444310e-01 -5.7529345252938908e-02 -1.6155268607758153e+00 -2.8268386481011953e+00 -1.2228309660944142e-01 1.1999908951806273e+00 1.1898066006498575e+00 1.5186471770146006e+00 2.6618655431204746e-01 -1.5048039993700246e+00 -7.1165120359631462e-02 -1.2356210926626925e+00 -1.4538282569520091e+00 
        </Neuron>
        <Neuron NSynapses="17">
          -3.5252444111760995e-03 3.1403308480617370e-01 -1.2122521115436631e+00 1.0824774803193173e+00 1.1393908225431701e+00 2.9322205420160585e-01 -7.6668365223404900e-01 6.5663196411142732e-01 4.0862836440104949e-01 -9.0973480760523717e-01 1.8045971353454304e-03 1.5000732217441672e+00 1.1788129928707094e+00 -9.7065668870095489e-01 1.5119662482643044e+00 -1.8159664053731341e+00 1.7058293071982544e+00 
        </Neuron>
        <Neuron NSynapses="17">
          1.8644653488926426e+00 -8.3961552991164951e-02 2.8057142546682071e-02 1.2321760981407051e+00 2.1936239231213167e-01 9.6022500581541792e-01 2.1233484331749649e-02 -2.7078448440785747e+00 -1.6005440820455576e+00 -1.3468620336877024e-01 1.5822258420990343e+00 3.3970789097834403e-01 -8.5235640646596322e-01 -2.1005907770003174e+00 1.8113534799177584e+00 3.4278066279770936e-01 -1.3290543328610540e+00 
        </Neuron>
        <Neuron NSynapses="17">
          -5.5258315751037831e-02 -2.6446693701107010e-01 1.3087690080445715e+00 1.2225507054097418e+00 -8.9163969740366655e-01 -1.2314823535115442e+00 1.8128328777843195e+00 7.9253602522952604e-01 4.2190715599618116e-02 3.4871721747702744e-01 -7.4328496854724380e-01 -1.1008266424428232e+00 1.1880826681740984e+00 7.9780045614202355e-01 1.0785887645400474e-01 -1.8706279928795990e+00 -1.8731750544802481e+00 
        </Neuron>
        <Neuron NSynapses="17">
          -3.2411245207092576e+00 -1.7533213585207243e+00 -1.0308337704103294e+00 2.3851269317382590e-01 -1.4714598917888750e+00 1.4049423966547609e+00 9.5482515546861368e-01 -1.4371787948170607e+00 2.2911417440229718e+00 2.4955489770531156e+00 1.3529093788575739e+00 -9.0876197926694557e-01 -1.7019287297308847e+00 2.7314701734885358e+00 -1.8302676332315315e+00 -9.5593602399596453e-02 -1.4395211771469674e+00 
        </Neuron>
        <Neuron NSynapses="17">
          -5.7786118171084455e-03 -9.8404823936101538e-01 1.0205975118315458e-01 -1.8004788940907857e-01 -4.8509363863864546e-01 -5.1559489102702338e-01 -7.7204072995958728e-01 2.5237261251464194e+00 4.0142613593112343e-03 3.8727411077723695e-01 7.5407787627159106e-01 -1.8522989579611260e+00 7.1366404126063732e-01 -1.3501612322568437e+00 1.0056183836233015e+00 8.5598105982295303e-01 7.2698235715963211e-01 
        </Neuron>
        <Neuron NSynapses="17">
          2.9450961124453834e-01 1.2174115914580428e+00 -1.4616967435827160e+00 -1.2061641362646767e+00 -1.1023449653336923e+00 6.4953357354997421e-01 -1.2625301324227028e-01 1.0336983826257817e+00 -5.6069228826029627e-01 -8.1180583343011992e-01 -6.0101282144272239e-01 -4.4709386533655743e-01 -2.0486575203162003e+00 5.2989691590062650e-02 -7.2262084823282698e-03 -5.8421759138380114e-01 -1.2007522831795916e+00 
        </Neuron>
        <Neuron NSynapses="17">
          3.2377669881181043e-02 3.0356315349095309e-01 -8.7693828445608121e-02 -5.4323388616762069e-01 1.3580210942056268e+00 -2.0743866160190122e-01 8.5640058652484485e-01 7.6653157184864840e-01 -3.7451492761966285e-02 -5.2510201857477101e-01 9.3172621336752651e-02 -1.6011069720828333e+00 -4.4769748346648119e-01 -5.5152438415123484e-01 1.0351442003496718e+00 -2.1200159764720974e+00 1.1420538964848523e+00 
        </Neuron>
        <Neuron NSynapses="17">
          1.3918502356661802e+00 1.6154920122483014e+00 1.0252107660336340e+00 1.2555797681743137e+00 4.9122036295442328e-01 -9.2279319293981343e-01 -1.6998629387757251e+00 -1.7592312738583074e+00 -9.3257070313538337e-01 1.6156987430464576e+00 -2.2844394023401288e-01 -2.6246261719854497e-01 1.1407951855405607e+00 8.4529612591859848e-01 -1.0859077828295196e+00 5.7335079678486230e-02 -1.6672837727299261e+00 
        </Neuron>
        <Neuron NSynapses="17">
          1.1177331583310278e-01 -1.3397163838805330e+00 5.3285110937272791e-02 -9.0091120671956806e-02 4.8301618749020231e-01 -1.9512801792943069e+00 5.3182212625248393e-01 -2.7481783253911662e+00 -4.2725526340929471e-01 1.7771776362563521e+00 -8.1590902109483177e-01 3.8962256548152419e-01 -1.8704131197915028e+00 8.9246594105116639e-01 -4.5553044581231200e-01 5.9707529717796448e-01 -1.8631664090090920e+00 
        </Neuron>
        <Neuron NSynapses="17">
          -4.3977282987728589e-01 1.9179458067254127e+00 -2.2152137241244123e+00 -1.7376542831257646e+00 -7.0179037573474368e-01 1.6257911719408231e+00 1.2444392058339542e+00 3.3284829555532460e+00 -1.7551307475402023e+00 5.4631911260931243e-01 6.0049337676281134e-01 2.4428574367071834e-01 -1.0879507213874873e+00 -1.1253755213187029e+00 1.3039287432653238e-01 -3.4692435627742005e-02 1.9331809154622841e+00 
        </Neuron>
      </Layer>
      <Layer Index="2" NNeurons="18">
        <Neuron NSynapses="1">
          2.6192372210850279e-01 
        </Neuron>
        <Neuron NSynapses="1">
          2.3443283756610523e-02 
        </Neuron>
        <Neuron NSynapses="1">
          7.4851709815586198e-01 
        </Neuron>
        <Neuron NSynapses="1">
          1.0386748205121882e-02 
        </Neuron>
        <Neuron NSynapses="1">
          1.5720363836655667e-03 
        </Neuron>
        <Neuron NSynapses="1">
          -2.8107245643957612e-02 
        </Neuron>
        <Neuron NSynapses="1">
          -4.1486637791424488e-03 
        </Neuron>
        <Neuron NSynapses="1">
          1.2894919461379360e-02 
        </Neuron>
        <Neuron NSynapses="1">
          -7.3634250043805249e-02 
        </Neuron>
        <Neuron NSynapses="1">
          -7.7932734031911999e-03 
        </Neuron>
        <Neuron NSynapses="1">
          -6.9204645216554925e-03 
        </Neuron>
        <Neuron NSynapses="1">
          4.1347632248373697e-03 
        </Neuron>
        <Neuron NSynapses="1">
          1.4614914105423829e-02 
        </Neuron>
        <Neuron NSynapses="1">
          -1.2035655585069742e-02 
        </Neuron>
        <Neuron NSynapses="1">
          -7.1658632990421968e-04 
        </Neuron>
        <Neuron NSynapses="1">
          2.6990868459087509e-03 
        </Neuron>
        <Neuron NSynapses="1">
          -3.3458487962728902e-05 
        </Neuron>
        <Neuron NSynapses="1">
          5.1815420774828147e-01 
        </Neuron>
      </Layer>
      <Layer Index="3" NNeurons="1">
        <Neuron NSynapses="0"/>
      </Layer>
    </Layout>
  </Weights>
</MethodSetup>
