<?xml version="1.0"?>
<MethodSetup Method="MLP::XS_46_105_0_n2n">
  <GeneralInfo>
    <Info name="TMVA Release" value="4.2.1 [262657]"/>
    <Info name="ROOT Release" value="6.06/02 [394754]"/>
    <Info name="Creator" value="mouginot"/>
    <Info name="Date" value="Thu Feb 23 01:51:46 2017"/>
    <Info name="Host" value="Linux e300.chtc.wisc.edu 2.6.32-642.13.1.el6.x86_64 #1 SMP Tue Jan 10 11:22:50 CST 2017 x86_64 x86_64 x86_64 GNU/Linux"/>
    <Info name="Dir" value="/mnt/gluster/mouginot/TRU_MOX_XS/Generate"/>
    <Info name="Training events" value="198960"/>
    <Info name="TrainingTime" value="1.88225898e+04"/>
    <Info name="AnalysisType" value="Regression"/>
  </GeneralInfo>
  <Options>
    <Option name="NCycles" modified="Yes">20000</Option>
    <Option name="HiddenLayers" modified="Yes">N,N</Option>
    <Option name="NeuronType" modified="Yes">tanh</Option>
    <Option name="RandomSeed" modified="No">1</Option>
    <Option name="EstimatorType" modified="No">MSE</Option>
    <Option name="NeuronInputType" modified="No">sum</Option>
    <Option name="V" modified="Yes">False</Option>
    <Option name="VerbosityLevel" modified="No">Default</Option>
    <Option name="VarTransform" modified="Yes">Norm</Option>
    <Option name="H" modified="Yes">False</Option>
    <Option name="CreateMVAPdfs" modified="No">False</Option>
    <Option name="IgnoreNegWeightsInTraining" modified="No">False</Option>
    <Option name="TrainingMethod" modified="Yes">BFGS</Option>
    <Option name="LearningRate" modified="No">2.000000e-02</Option>
    <Option name="DecayRate" modified="No">1.000000e-02</Option>
    <Option name="TestRate" modified="Yes">6</Option>
    <Option name="EpochMonitoring" modified="No">False</Option>
    <Option name="Sampling" modified="Yes">3.000000e-01</Option>
    <Option name="SamplingEpoch" modified="Yes">8.000000e-01</Option>
    <Option name="SamplingImportance" modified="No">1.000000e+00</Option>
    <Option name="SamplingTraining" modified="No">True</Option>
    <Option name="SamplingTesting" modified="No">False</Option>
    <Option name="ResetStep" modified="No">50</Option>
    <Option name="Tau" modified="No">3.000000e+00</Option>
    <Option name="BPMode" modified="No">sequential</Option>
    <Option name="BatchSize" modified="No">-1</Option>
    <Option name="ConvergenceImprove" modified="Yes">1.000000e-06</Option>
    <Option name="ConvergenceTests" modified="Yes">15</Option>
    <Option name="UseRegulator" modified="Yes">False</Option>
    <Option name="UpdateLimit" modified="No">10000</Option>
    <Option name="CalculateErrors" modified="No">False</Option>
    <Option name="WeightRange" modified="No">1.000000e+00</Option>
  </Options>
  <Variables NVar="17">
    <Variable VarIndex="0" Expression="235U" Label="235U" Title="235U" Unit="IsotopicFraction" Internal="235U" Type="F" Min="1.71346517e-06" Max="1.92414057e-02"/>
    <Variable VarIndex="1" Expression="238U" Label="238U" Title="238U" Unit="IsotopicFraction" Internal="238U" Type="F" Min="7.85399854e-01" Max="9.68733251e-01"/>
    <Variable VarIndex="2" Expression="237Np" Label="237Np" Title="237Np" Unit="IsotopicFraction" Internal="237Np" Type="F" Min="1.63990119e-08" Max="1.97294168e-04"/>
    <Variable VarIndex="3" Expression="238Pu" Label="238Pu" Title="238Pu" Unit="IsotopicFraction" Internal="238Pu" Type="F" Min="4.69728775e-07" Max="3.96428024e-03"/>
    <Variable VarIndex="4" Expression="239Pu" Label="239Pu" Title="239Pu" Unit="IsotopicFraction" Internal="239Pu" Type="F" Min="2.15940680e-02" Max="1.89886928e-01"/>
    <Variable VarIndex="5" Expression="240Pu" Label="240Pu" Title="240Pu" Unit="IsotopicFraction" Internal="240Pu" Type="F" Min="1.54567579e-06" Max="3.95636074e-02"/>
    <Variable VarIndex="6" Expression="241Pu" Label="241Pu" Title="241Pu" Unit="IsotopicFraction" Internal="241Pu" Type="F" Min="3.22813172e-08" Max="7.04628276e-03"/>
    <Variable VarIndex="7" Expression="242Pu" Label="242Pu" Title="242Pu" Unit="IsotopicFraction" Internal="242Pu" Type="F" Min="1.58277174e-07" Max="1.98803633e-03"/>
    <Variable VarIndex="8" Expression="241Am" Label="241Am" Title="241Am" Unit="IsotopicFraction" Internal="241Am" Type="F" Min="3.13082671e-10" Max="7.48056592e-03"/>
    <Variable VarIndex="9" Expression="242Amm" Label="242Amm" Title="242Amm" Unit="IsotopicFraction" Internal="242Amm" Type="F" Min="1.34159976e-07" Max="1.16249369e-02"/>
    <Variable VarIndex="10" Expression="243Am" Label="243Am" Title="243Am" Unit="IsotopicFraction" Internal="243Am" Type="F" Min="2.04390229e-08" Max="1.99559363e-04"/>
    <Variable VarIndex="11" Expression="242Cm" Label="242Cm" Title="242Cm" Unit="IsotopicFraction" Internal="242Cm" Type="F" Min="1.48285639e-09" Max="1.93909858e-04"/>
    <Variable VarIndex="12" Expression="243Cm" Label="243Cm" Title="243Cm" Unit="IsotopicFraction" Internal="243Cm" Type="F" Min="9.09117492e-09" Max="1.97552916e-04"/>
    <Variable VarIndex="13" Expression="244Cm" Label="244Cm" Title="244Cm" Unit="IsotopicFraction" Internal="244Cm" Type="F" Min="2.46570231e-09" Max="1.97112051e-04"/>
    <Variable VarIndex="14" Expression="245Cm" Label="245Cm" Title="245Cm" Unit="IsotopicFraction" Internal="245Cm" Type="F" Min="9.47205692e-09" Max="1.97873349e-04"/>
    <Variable VarIndex="15" Expression="246Cm" Label="246Cm" Title="246Cm" Unit="IsotopicFraction" Internal="246Cm" Type="F" Min="2.33963915e-09" Max="1.98596885e-04"/>
    <Variable VarIndex="16" Expression="Time" Label="Time" Title="Time" Unit="seconds" Internal="Time" Type="F" Min="0.00000000e+00" Max="1.89328320e+08"/>
  </Variables>
  <Spectators NSpec="0"/>
  <Classes NClass="1">
    <Class Name="Regression" Index="0"/>
  </Classes>
  <Targets NTrgt="1">
    <Target TargetIndex="0" Expression="XS_46_105_0_n2n" Label="XS_46_105_0_n2n" Title="XS_46_105_0_n2n" Unit="" Internal="XS_46_105_0_n2n" Type="F" Min="2.97009363e-03" Max="4.73326398e-03"/>
  </Targets>
  <Transformations NTransformations="1">
    <Transform Name="Normalize">
      <Selection>
        <Input NInputs="18">
          <Input Type="Variable" Label="235U" Expression="235U"/>
          <Input Type="Variable" Label="238U" Expression="238U"/>
          <Input Type="Variable" Label="237Np" Expression="237Np"/>
          <Input Type="Variable" Label="238Pu" Expression="238Pu"/>
          <Input Type="Variable" Label="239Pu" Expression="239Pu"/>
          <Input Type="Variable" Label="240Pu" Expression="240Pu"/>
          <Input Type="Variable" Label="241Pu" Expression="241Pu"/>
          <Input Type="Variable" Label="242Pu" Expression="242Pu"/>
          <Input Type="Variable" Label="241Am" Expression="241Am"/>
          <Input Type="Variable" Label="242Amm" Expression="242Amm"/>
          <Input Type="Variable" Label="243Am" Expression="243Am"/>
          <Input Type="Variable" Label="242Cm" Expression="242Cm"/>
          <Input Type="Variable" Label="243Cm" Expression="243Cm"/>
          <Input Type="Variable" Label="244Cm" Expression="244Cm"/>
          <Input Type="Variable" Label="245Cm" Expression="245Cm"/>
          <Input Type="Variable" Label="246Cm" Expression="246Cm"/>
          <Input Type="Variable" Label="Time" Expression="Time"/>
          <Input Type="Target" Label="XS_46_105_0_n2n" Expression="XS_46_105_0_n2n"/>
        </Input>
        <Output NOutputs="18">
          <Output Type="Variable" Label="235U" Expression="235U"/>
          <Output Type="Variable" Label="238U" Expression="238U"/>
          <Output Type="Variable" Label="237Np" Expression="237Np"/>
          <Output Type="Variable" Label="238Pu" Expression="238Pu"/>
          <Output Type="Variable" Label="239Pu" Expression="239Pu"/>
          <Output Type="Variable" Label="240Pu" Expression="240Pu"/>
          <Output Type="Variable" Label="241Pu" Expression="241Pu"/>
          <Output Type="Variable" Label="242Pu" Expression="242Pu"/>
          <Output Type="Variable" Label="241Am" Expression="241Am"/>
          <Output Type="Variable" Label="242Amm" Expression="242Amm"/>
          <Output Type="Variable" Label="243Am" Expression="243Am"/>
          <Output Type="Variable" Label="242Cm" Expression="242Cm"/>
          <Output Type="Variable" Label="243Cm" Expression="243Cm"/>
          <Output Type="Variable" Label="244Cm" Expression="244Cm"/>
          <Output Type="Variable" Label="245Cm" Expression="245Cm"/>
          <Output Type="Variable" Label="246Cm" Expression="246Cm"/>
          <Output Type="Variable" Label="Time" Expression="Time"/>
          <Output Type="Target" Label="XS_46_105_0_n2n" Expression="XS_46_105_0_n2n"/>
        </Output>
      </Selection>
      <Class ClassIndex="0">
        <Ranges>
          <Range Index="0" Min="1.7134651670858148e-06" Max="1.9241405650973320e-02"/>
          <Range Index="1" Min="7.8539985418319702e-01" Max="9.6873325109481812e-01"/>
          <Range Index="2" Min="1.6399011926182538e-08" Max="1.9729416817426682e-04"/>
          <Range Index="3" Min="4.6972877498774324e-07" Max="3.9642802439630032e-03"/>
          <Range Index="4" Min="2.1594068035483360e-02" Max="1.8988692760467529e-01"/>
          <Range Index="5" Min="1.5456757864740212e-06" Max="3.9563607424497604e-02"/>
          <Range Index="6" Min="3.2281317174920332e-08" Max="7.0462827570736408e-03"/>
          <Range Index="7" Min="1.5827717447791656e-07" Max="1.9880363252013922e-03"/>
          <Range Index="8" Min="3.1308267089968922e-10" Max="7.4805659241974354e-03"/>
          <Range Index="9" Min="1.3415997557331139e-07" Max="1.1624936945736408e-02"/>
          <Range Index="10" Min="2.0439022918594674e-08" Max="1.9955936295446008e-04"/>
          <Range Index="11" Min="1.4828563932312022e-09" Max="1.9390985835343599e-04"/>
          <Range Index="12" Min="9.0911749239808159e-09" Max="1.9755291577894241e-04"/>
          <Range Index="13" Min="2.4657023089957875e-09" Max="1.9711205095518380e-04"/>
          <Range Index="14" Min="9.4720569165929192e-09" Max="1.9787334895227104e-04"/>
          <Range Index="15" Min="2.3396391490848600e-09" Max="1.9859688472934067e-04"/>
          <Range Index="16" Min="0.0000000000000000e+00" Max="1.8932832000000000e+08"/>
          <Range Index="17" Min="2.9700936283916235e-03" Max="4.7332639805972576e-03"/>
        </Ranges>
      </Class>
    </Transform>
  </Transformations>
  <MVAPdfs/>
  <Weights>
    <Layout NLayers="4">
      <Layer Index="0" NNeurons="18">
        <Neuron NSynapses="17">
          -1.0813611503226181e-01 6.1071272662642717e-01 2.4354153351791852e-01 1.4946452294564649e+00 -1.7317454695025511e+00 -1.5074747438940883e+00 -7.8030116595435051e-01 1.1271248197707784e+00 -1.5993747035326829e+00 -1.0612488325513552e+00 -1.6384913454157957e+00 -3.1498964533704027e-01 -1.0823735217988220e+00 -3.8999539214803647e-01 -3.7577390982866971e-01 3.4046699221638455e-01 -4.2754749505401901e-01 
        </Neuron>
        <Neuron NSynapses="17">
          1.5236109236021789e+00 1.1069932837103436e+00 2.1874016492835238e+00 -3.5707689516640151e-01 -5.8269781030624845e-01 2.2851881710758959e-01 3.8577848866987258e-02 -1.5166110286281924e+00 -6.2562393531682622e-02 1.5055422448014717e+00 -1.9355766191201460e+00 -2.4030352895067000e+00 -1.0326086662823294e-01 5.2180834277026211e-01 1.3267109056741118e+00 7.6873279038776976e-01 2.5390448492198098e-01 
        </Neuron>
        <Neuron NSynapses="17">
          3.3951937704477736e-01 -8.5877558516814889e-02 -9.5649404717606956e-01 1.7297666269103156e+00 -1.5576073215709936e+00 8.2860236749463334e-01 1.3302261460814213e+00 8.1794783279456218e-01 1.4911192664004933e+00 1.3890832150181960e+00 -2.6317557970965388e-01 -1.0556859299266350e+00 7.4349258000249441e-01 -1.6263889747364246e-01 1.4976674891889152e+00 1.0642480876903186e+00 1.4471011537428566e+00 
        </Neuron>
        <Neuron NSynapses="17">
          1.3073607473758502e+00 -1.1633779743569788e+00 1.3930243980339905e+00 -1.6408030582144062e+00 -1.1892545406675592e+00 -1.5116892537475755e+00 -1.3913731020010858e+00 1.2215719386216348e+00 1.6872722139038213e-01 -1.4402864030294273e+00 9.2853011549202613e-01 -5.2180862515287640e-01 7.3246672527335333e-01 1.2358873436789453e+00 -2.3070687077811652e-01 8.7750917964399253e-02 -7.7441666137456333e-01 
        </Neuron>
        <Neuron NSynapses="17">
          9.5269022261416703e-01 -1.3275127387288530e+00 -1.1413721258402343e+00 -1.3630030353106102e+00 4.4335973321541233e-01 1.4823302549645907e+00 1.4953982040574774e+00 -3.6246940234114469e-02 -2.1777363295447749e+00 -1.8039767541592759e+00 1.8248897818695620e+00 7.8681364323527503e-01 2.1268512236235479e+00 6.2547088864879274e-01 1.2384800318628859e+00 -1.6600321585994897e+00 -1.1858892144651434e+00 
        </Neuron>
        <Neuron NSynapses="17">
          1.1936352632216662e-01 5.0041340894866737e-01 -1.0440282871587907e+00 -1.3899286372820483e+00 -1.9114931377598536e+00 -3.2018955816732553e-01 3.2606007840677886e-01 1.6287599221113001e+00 -1.8529022197571487e+00 -8.2069160676600628e-01 2.0910476674854368e+00 -6.9085755686301376e-01 -1.4133913682278096e+00 -1.7643511032975445e+00 2.1646931775265274e-01 -1.8721569986892410e+00 -1.2410129317290022e+00 
        </Neuron>
        <Neuron NSynapses="17">
          7.3948805195118705e-01 1.3938257200652460e+00 -4.8446652068211354e-01 1.7968013917639578e+00 -1.3348658528672217e+00 -1.0639706472341701e+00 3.3611576718966685e-01 8.9818482561301958e-03 -2.3357230468192105e+00 4.4996222151047643e-01 6.8956665052757005e-01 1.7021335285082248e-01 -1.4168573173727073e+00 1.1807402612756965e+00 4.9438755572858017e-01 -6.3227580430851404e-01 1.2111747462218256e+00 
        </Neuron>
        <Neuron NSynapses="17">
          -8.8953398180214993e-01 -9.6948337959570063e-01 5.7236845107085754e-01 -2.4732752296513189e-01 1.2952811542962013e+00 6.0584864697839969e-01 4.0225289980384410e-01 -4.7122856107416672e-01 -2.2155762109890323e-01 -1.5995168304906324e+00 1.6158660940782432e+00 -1.7415516348254181e-01 -1.7291237488711990e+00 1.4965782248021958e-01 -1.1864335070478107e+00 -3.0083439014089657e-02 1.3051420343368290e+00 
        </Neuron>
        <Neuron NSynapses="17">
          1.7948309989834543e+00 -1.5330137431311484e+00 9.4099290671558300e-01 1.7312679439401844e+00 9.8960875092932565e-01 -2.2062959926076264e-01 -8.9682133056733293e-01 -1.6725645657334945e-01 -1.9012900175361618e+00 1.6662946320716048e+00 1.8299536576379707e+00 -1.5710415387691848e-01 -4.9233818358734904e-01 -4.1379164750901981e-01 -1.0632429205906242e+00 5.3115966032008444e-01 2.1806028041029477e+00 
        </Neuron>
        <Neuron NSynapses="17">
          -5.5709328295812066e-01 -7.1846696989993242e-01 5.0812582428953146e-01 1.1661327673887056e+00 1.6089929757309884e-01 1.0390333520846100e+00 -1.0994336962396678e+00 1.4207385957381484e+00 1.1044110904209919e-01 5.5259078167065034e-01 1.4729072614929042e+00 1.1364574408051207e+00 -6.1647512578979757e-01 -7.6302757257939835e-01 1.6604021818196963e+00 -1.2611762217683065e+00 -3.4316915436152495e-01 
        </Neuron>
        <Neuron NSynapses="17">
          1.5115022888252776e+00 9.0693991198288837e-01 1.1737792365000983e-01 1.5205010321760419e+00 1.4420027230987895e+00 -1.7766431726262120e+00 8.6289069232148452e-01 -1.4609934235038607e-01 8.9056939833831048e-02 -1.5197372996405101e+00 -9.5193660275902692e-01 3.9158364458642847e-01 1.7706380432263960e+00 -1.8470602846732955e+00 -1.1430268230400945e-01 -5.9681107473865747e-01 2.9208407684491916e-01 
        </Neuron>
        <Neuron NSynapses="17">
          1.8172709612934748e+00 1.7788393202586020e-01 1.6005044348233238e-01 -9.2072117716359259e-01 7.3322888304786682e-01 1.3886102200160368e+00 1.2645589461350295e+00 -3.2020798698698796e-02 -1.1313584478069889e+00 -1.7457129041279222e+00 1.4692785212883501e+00 -3.6446695262408998e-02 -1.3082172527778262e+00 -1.1853134416079867e+00 3.3470629501744781e-01 2.6123305599208857e-01 -1.5856312809439472e+00 
        </Neuron>
        <Neuron NSynapses="17">
          1.9426383885931862e+00 1.2861387296331819e+00 -1.0013803419392753e-01 -6.6151220182539328e-02 1.4724092065654839e+00 8.4685227508646810e-01 6.8918174714970348e-01 -3.9644687498648129e-01 -2.1349950876450001e+00 -6.9214149580196604e-01 1.9784198153424764e+00 2.8451413050583163e-01 8.2844324962472682e-01 -2.3615500421411806e-01 1.6320770414664214e+00 -8.6529435949651146e-01 -8.6496373897014389e-01 
        </Neuron>
        <Neuron NSynapses="17">
          9.4884075837141563e-02 -1.1610905022686144e+00 9.6326514449005152e-01 1.7713108786883400e+00 -1.4772731442818010e+00 6.0482837386140120e-01 1.6410202855314093e-02 -1.8199595421876782e+00 -1.4022097053672646e+00 1.0263497129730195e+00 5.9267665107619050e-01 6.1115554558460672e-01 -1.1185697650413029e+00 1.1269327930431778e+00 -1.5346457061862229e+00 8.3901128410309489e-01 2.9807612513604215e-01 
        </Neuron>
        <Neuron NSynapses="17">
          -1.3343074382366973e+00 -1.0255386944984641e+00 -1.0493163999481279e+00 -2.2126317669576961e-01 -2.3350653718320658e+00 -1.5868878271883995e+00 -1.4191134650333241e+00 1.1616217439288971e-01 -1.3399829224661741e+00 -1.5002512771907193e+00 1.8648538965866082e+00 -6.3457908017347819e-01 1.4814322898554064e-01 -1.3869102069106138e+00 4.3265071031194369e-01 1.4090746576875626e+00 1.4500541282320787e+00 
        </Neuron>
        <Neuron NSynapses="17">
          -6.5682873071848047e-01 -8.8452025991911321e-01 -4.9860845407568111e-01 -9.1118390524379433e-01 -1.9620264031984713e+00 8.4228392809509389e-02 5.7604926369793041e-01 1.4178669038572063e+00 -6.0837113881023197e-01 4.0083636621101426e-01 3.6889233775382994e-02 -1.7598229886899395e+00 1.3450600279787799e+00 6.7164184454592846e-01 -7.9781675749277225e-01 -9.4674742159477443e-01 1.0870855567403543e+00 
        </Neuron>
        <Neuron NSynapses="17">
          1.1817530956220885e+00 6.5092747345746127e-01 -1.9230171841273680e-01 -3.0693902462152556e-01 1.2433169711035101e+00 6.8201861019193000e-01 7.1231252427771330e-01 -5.6353172567976495e-01 3.8259680313226002e-01 -3.3263516961485901e-01 -2.0925756037031542e+00 -7.4690395081562344e-01 -1.6648144530331195e+00 -1.5341666893943866e+00 -2.0481880863829227e+00 2.2280133877946260e+00 -1.3784339083335178e+00 
        </Neuron>
        <Neuron NSynapses="17">
          1.5020257477201946e+00 -2.3166328539482031e+00 -3.0829071418174325e-01 -1.3411549096622604e+00 1.1277985807183479e+00 1.6190786396121983e+00 -2.6750595900841176e+00 7.6491459798771844e-01 1.3654138734811321e+00 -2.1708360339929853e+00 -1.8676957829208205e+00 -1.0787797315488610e+00 -6.7874676374166865e-01 2.8512804375611900e+00 -5.8172862220905208e-01 -6.0407615538929982e-01 -1.8338784362437575e+00 
        </Neuron>
      </Layer>
      <Layer Index="1" NNeurons="18">
        <Neuron NSynapses="17">
          -9.0327061582114188e-01 -1.3835346305664706e+00 -7.6254622944065154e-01 -1.5207358356838483e+00 8.1304286253383418e-01 -2.0283596961124659e+00 -1.2791575015580599e+00 1.4347641355680356e+00 2.4190416233361070e-01 -3.6031288789015381e-01 2.0786294649099935e+00 -1.5945538534764856e+00 1.6572091235191224e+00 9.9802696104098731e-01 -1.1862699600727882e+00 -4.2619133951724641e-01 -1.5903483725941839e-01 
        </Neuron>
        <Neuron NSynapses="17">
          -9.2038152905059056e-01 6.1591129407677470e-01 1.3689262129464541e+00 1.4075426639590596e+00 1.8745215979401628e+00 -1.6367077163266457e+00 1.1990299644681450e+00 -2.1106746898041351e+00 4.9325177422840460e-01 -1.3583170483716789e+00 -2.0582392761495631e+00 1.1389710639657645e-01 9.5322344656686986e-01 3.5281307298232834e-01 1.0048311034991877e+00 4.8968586888137072e-01 -2.0695922604519187e-01 
        </Neuron>
        <Neuron NSynapses="17">
          -4.3571098557176607e-01 8.8617440037288914e-02 1.8290610824091680e+00 -1.4213263591672294e+00 8.2575915124606392e-01 -1.6199276802657250e+00 -2.4567541847900590e-01 1.3213334037756855e-01 -1.4590836531201545e-01 -1.5683313682706170e+00 7.0269006795670630e-01 1.7046006873467696e+00 3.6830022772982313e-01 -1.0658461376548083e-01 -6.5288704168872869e-01 -1.4189627017800066e+00 -1.5848999943894559e+00 
        </Neuron>
        <Neuron NSynapses="17">
          1.2252300854231428e+00 -4.1824495299187447e-01 -6.4162691481214551e-01 3.2631300285155629e-01 -1.7241981370161266e+00 -1.8519070449679931e+00 -1.8101314398960455e+00 6.8705237482470816e-01 -1.4069343121935212e+00 -1.5386173405509653e+00 -4.1659761908518111e-01 -8.7635551138953871e-01 -1.6701619823575518e+00 1.2632633265252455e+00 -1.5672197134916384e+00 -1.1094992227665432e+00 1.4947242870285249e+00 
        </Neuron>
        <Neuron NSynapses="17">
          4.6071626861999437e-01 2.8637570151952146e-01 2.3597098521830579e-02 1.3062140530042718e+00 1.7478956326351887e+00 1.2468115988438644e+00 -7.6392944362155091e-01 -4.2134087016320781e-01 -1.6343610019100208e+00 9.0968900095271177e-01 7.6292857040146733e-01 3.5436277723295599e-02 1.0344856928393134e+00 8.2832660189379259e-01 1.5880973653130286e+00 -1.2808951214007211e+00 1.6691897404168812e+00 
        </Neuron>
        <Neuron NSynapses="17">
          5.2657509573010985e-01 -1.9500297945793168e+00 -2.3842785662714257e-02 -9.8330672075714332e-01 8.4940840988863853e-01 8.9959476257004123e-01 1.0650649004662875e+00 1.6493049339358052e+00 -3.3129494072675048e-01 1.3728707697807421e+00 1.7547776969143150e+00 1.5226252983370792e-01 -5.8937281860084267e-01 1.5967480852234179e+00 -2.0719111243023982e+00 6.5632372822187512e-01 1.6954512946878391e+00 
        </Neuron>
        <Neuron NSynapses="17">
          -8.7428782314858289e-02 -4.4572220857660116e-01 -1.0937725038578308e-01 -1.2680658865811396e+00 6.2623717798208134e-01 -2.6221715352098149e+00 1.3505631686530808e-01 -5.4692226536610711e-01 1.6390770003834643e+00 1.2629958604267488e+00 1.9418779008764298e+00 -2.7714933110161893e-01 3.5449386016353751e-02 3.2249779624789232e-01 1.5554562566946561e+00 -1.5170611778418364e+00 -1.4658414722233892e+00 
        </Neuron>
        <Neuron NSynapses="17">
          -5.6929193322392480e-01 -1.5727728928274871e+00 -1.2529166906283973e+00 -1.8062024855064118e+00 1.3810898192393628e-01 1.4095559329308471e-01 -2.0641913393709048e+00 -1.8690197079366468e+00 -1.5021465518763846e-01 1.6292416118750950e+00 1.8414834617919968e+00 1.2802701041513762e+00 -4.1632487577268634e-01 -1.7586303133137893e+00 5.1915458298424588e-02 -1.1666634543236523e+00 -1.4961056605991323e+00 
        </Neuron>
        <Neuron NSynapses="17">
          -9.3175958176189322e-01 -1.0592454409401271e-01 -1.7461486973411915e+00 1.4937809315505437e+00 1.2138819562017296e+00 1.3202569435707412e+00 -4.4515312916766675e-01 -4.4886494824296730e-01 1.7024276010665749e+00 -7.1752491843299759e-01 -4.3513883535621682e-02 1.4699514453231022e+00 1.6524516480545888e+00 -1.0363486816562701e+00 1.6842583843180119e+00 -2.0290935086456421e+00 1.7600175093904160e+00 
        </Neuron>
        <Neuron NSynapses="17">
          2.0192988442855242e+00 -1.6945454520206424e-01 3.2777478616766720e-01 3.5125408514955003e-01 -5.0207573120630476e-02 5.9105453759846638e-01 6.2075518487500136e-01 -1.0394881843849488e+00 -1.7135675699755117e+00 -1.3048699335473629e-01 1.5156752684660468e+00 3.8908158647490110e-01 -1.0867274481955540e+00 -1.8098333816146117e+00 1.7792787721305128e+00 1.2517164350229082e-01 -1.2024270561245074e+00 
        </Neuron>
        <Neuron NSynapses="17">
          -2.4815953923264145e-01 -1.0906573994895203e+00 1.6024007961823445e+00 1.3717721919810042e+00 -1.0002412188778205e+00 -1.8934027745332522e+00 1.3315299799645646e+00 8.9162629392462123e-01 6.8647194247700827e-01 4.4069900456564182e-01 -8.4976910428324737e-01 -1.2977969096345063e+00 4.4637727354120088e-01 3.9022535310390366e-01 1.6864261689487792e-01 -1.9481894919508385e+00 -1.9747850325872565e+00 
        </Neuron>
        <Neuron NSynapses="17">
          -1.9419186621907962e+00 -4.2336253033049254e-01 -1.3976814758689831e+00 1.6517656313075518e-01 -8.0943201567516188e-01 1.9597791497927612e+00 2.1890415029025787e-01 -1.7585968081292187e+00 1.2272353317449243e+00 2.2008585513098895e+00 1.0967222109888553e+00 -5.3506759863590492e-01 -9.6811155224506451e-01 2.1861939617867936e+00 -1.4909036306435504e+00 1.9352465246406159e-01 -1.4537843145331504e+00 
        </Neuron>
        <Neuron NSynapses="17">
          6.1583623510839680e-01 -1.2786770500803872e+00 1.8109819731685694e-02 -1.5335789045236106e-01 9.8106683611113132e-02 6.0815401357107546e-01 -1.0283780578409047e+00 1.1784544341982535e+00 6.9654209905556985e-01 7.9192419832499894e-01 9.3339232636494163e-01 -1.8113081880219755e+00 7.7400078588868815e-01 -1.7823685646755787e+00 1.0745992620508771e+00 5.4069316622141406e-01 7.0442031612856615e-01 
        </Neuron>
        <Neuron NSynapses="17">
          1.4205345834211112e+00 1.4594096814942346e+00 -1.9844165142126517e+00 -6.6820413206712637e-01 -8.9166398390733181e-01 1.2322755202962485e+00 1.2078054060883620e-01 -1.6299492996904169e-01 -6.3750024576708875e-01 -7.9268076203792459e-01 -1.0447407290721242e+00 -3.9912067439399884e-01 -1.5065198681289524e+00 -2.8356992538193188e-01 3.0496857865690863e-01 -6.5831336142255970e-01 -1.2736418285805464e+00 
        </Neuron>
        <Neuron NSynapses="17">
          1.7606450034235988e-01 2.3108894136159733e-01 8.1582396426609222e-02 -1.1653850915448540e+00 1.4282737073009935e+00 3.5997116190752637e-01 5.0296564954521694e-01 6.3491429017965340e-01 -8.6436180375539007e-01 -4.7734959226237628e-01 3.0008792721003094e-03 -2.0126482342375516e+00 -1.2303345006924493e+00 -1.0501374532523888e+00 1.0288565620767498e+00 -2.2977369681527828e+00 1.2372372250919756e+00 
        </Neuron>
        <Neuron NSynapses="17">
          2.0434398442541153e+00 1.6579727775124122e+00 7.2203438218733795e-01 7.8315929847788279e-01 5.8338339057825850e-01 -1.5439934898073742e+00 -1.7642047723009935e+00 -1.2196776549212878e+00 -9.8845106004576844e-01 1.0064249898167374e+00 -8.3505447757046838e-02 1.1407808747670273e-01 1.5229699079344432e+00 1.0391435263922502e+00 -1.2342995719377958e+00 6.8060622279106908e-01 -1.5716794771749159e+00 
        </Neuron>
        <Neuron NSynapses="17">
          9.7766792539895730e-01 -1.8015310216747886e+00 5.6092596344987411e-01 -3.6368702550294957e-01 8.7366289997708046e-01 -2.4081617589272275e+00 3.0743884041231202e-02 -1.8986850855672286e+00 -2.8192006044631967e-02 1.4350202358212147e+00 -5.0194573595613090e-01 5.7810259743865722e-01 -2.0933525098585712e+00 1.1103911549309431e+00 -5.7562180028442500e-01 6.7638060092118302e-01 -1.8383413325239113e+00 
        </Neuron>
        <Neuron NSynapses="17">
          -1.3342278421182334e+00 1.8225360461715039e+00 -2.4478238760493372e+00 -1.1321073543229103e+00 -8.9023861488144396e-01 2.6137035343157224e+00 1.6206210383858530e+00 1.9737878411953738e+00 -1.6878908664006205e+00 6.5901331333430757e-01 4.1726430005514537e-01 1.3419566253819454e-01 -1.0958047669932982e+00 -1.4136239141584701e+00 2.9961591145533772e-01 -2.9457587652277878e-01 1.8764504711987460e+00 
        </Neuron>
      </Layer>
      <Layer Index="2" NNeurons="18">
        <Neuron NSynapses="1">
          -2.0058822515626601e-02 
        </Neuron>
        <Neuron NSynapses="1">
          -2.8669732891544543e-02 
        </Neuron>
        <Neuron NSynapses="1">
          -4.3587428843784509e-01 
        </Neuron>
        <Neuron NSynapses="1">
          -5.9201104069532703e-04 
        </Neuron>
        <Neuron NSynapses="1">
          -3.6292786585392610e-02 
        </Neuron>
        <Neuron NSynapses="1">
          1.2180041147954423e-01 
        </Neuron>
        <Neuron NSynapses="1">
          -6.6355968008875504e-03 
        </Neuron>
        <Neuron NSynapses="1">
          1.6795324708573475e-02 
        </Neuron>
        <Neuron NSynapses="1">
          2.8356752185439552e-02 
        </Neuron>
        <Neuron NSynapses="1">
          4.1197290291423570e-02 
        </Neuron>
        <Neuron NSynapses="1">
          8.9347476253678303e-03 
        </Neuron>
        <Neuron NSynapses="1">
          -1.6943732322330964e-02 
        </Neuron>
        <Neuron NSynapses="1">
          -3.8675305943424221e-02 
        </Neuron>
        <Neuron NSynapses="1">
          2.0120869461242850e-03 
        </Neuron>
        <Neuron NSynapses="1">
          -9.2381959649675393e-03 
        </Neuron>
        <Neuron NSynapses="1">
          -3.8746104059698264e-02 
        </Neuron>
        <Neuron NSynapses="1">
          -4.9247794109189662e-02 
        </Neuron>
        <Neuron NSynapses="1">
          -4.3537921195541635e-01 
        </Neuron>
      </Layer>
      <Layer Index="3" NNeurons="1">
        <Neuron NSynapses="0"/>
      </Layer>
    </Layout>
  </Weights>
</MethodSetup>
