<?xml version="1.0"?>
<MethodSetup Method="MLP::XS_55_133_0_cap">
  <GeneralInfo>
    <Info name="TMVA Release" value="4.2.1 [262657]"/>
    <Info name="ROOT Release" value="6.06/02 [394754]"/>
    <Info name="Creator" value="mouginot"/>
    <Info name="Date" value="Thu Feb 23 02:16:41 2017"/>
    <Info name="Host" value="Linux e300.chtc.wisc.edu 2.6.32-642.13.1.el6.x86_64 #1 SMP Tue Jan 10 11:22:50 CST 2017 x86_64 x86_64 x86_64 GNU/Linux"/>
    <Info name="Dir" value="/mnt/gluster/mouginot/TRU_MOX_XS/Generate"/>
    <Info name="Training events" value="198960"/>
    <Info name="TrainingTime" value="1.79645329e+04"/>
    <Info name="AnalysisType" value="Regression"/>
  </GeneralInfo>
  <Options>
    <Option name="NCycles" modified="Yes">20000</Option>
    <Option name="HiddenLayers" modified="Yes">N,N</Option>
    <Option name="NeuronType" modified="Yes">tanh</Option>
    <Option name="RandomSeed" modified="No">1</Option>
    <Option name="EstimatorType" modified="No">MSE</Option>
    <Option name="NeuronInputType" modified="No">sum</Option>
    <Option name="V" modified="Yes">False</Option>
    <Option name="VerbosityLevel" modified="No">Default</Option>
    <Option name="VarTransform" modified="Yes">Norm</Option>
    <Option name="H" modified="Yes">False</Option>
    <Option name="CreateMVAPdfs" modified="No">False</Option>
    <Option name="IgnoreNegWeightsInTraining" modified="No">False</Option>
    <Option name="TrainingMethod" modified="Yes">BFGS</Option>
    <Option name="LearningRate" modified="No">2.000000e-02</Option>
    <Option name="DecayRate" modified="No">1.000000e-02</Option>
    <Option name="TestRate" modified="Yes">6</Option>
    <Option name="EpochMonitoring" modified="No">False</Option>
    <Option name="Sampling" modified="Yes">3.000000e-01</Option>
    <Option name="SamplingEpoch" modified="Yes">8.000000e-01</Option>
    <Option name="SamplingImportance" modified="No">1.000000e+00</Option>
    <Option name="SamplingTraining" modified="No">True</Option>
    <Option name="SamplingTesting" modified="No">False</Option>
    <Option name="ResetStep" modified="No">50</Option>
    <Option name="Tau" modified="No">3.000000e+00</Option>
    <Option name="BPMode" modified="No">sequential</Option>
    <Option name="BatchSize" modified="No">-1</Option>
    <Option name="ConvergenceImprove" modified="Yes">1.000000e-06</Option>
    <Option name="ConvergenceTests" modified="Yes">15</Option>
    <Option name="UseRegulator" modified="Yes">False</Option>
    <Option name="UpdateLimit" modified="No">10000</Option>
    <Option name="CalculateErrors" modified="No">False</Option>
    <Option name="WeightRange" modified="No">1.000000e+00</Option>
  </Options>
  <Variables NVar="17">
    <Variable VarIndex="0" Expression="235U" Label="235U" Title="235U" Unit="IsotopicFraction" Internal="235U" Type="F" Min="1.71346517e-06" Max="1.92414057e-02"/>
    <Variable VarIndex="1" Expression="238U" Label="238U" Title="238U" Unit="IsotopicFraction" Internal="238U" Type="F" Min="7.85399854e-01" Max="9.68733251e-01"/>
    <Variable VarIndex="2" Expression="237Np" Label="237Np" Title="237Np" Unit="IsotopicFraction" Internal="237Np" Type="F" Min="1.63990119e-08" Max="1.97294168e-04"/>
    <Variable VarIndex="3" Expression="238Pu" Label="238Pu" Title="238Pu" Unit="IsotopicFraction" Internal="238Pu" Type="F" Min="4.69728775e-07" Max="3.96428024e-03"/>
    <Variable VarIndex="4" Expression="239Pu" Label="239Pu" Title="239Pu" Unit="IsotopicFraction" Internal="239Pu" Type="F" Min="2.15940680e-02" Max="1.89886928e-01"/>
    <Variable VarIndex="5" Expression="240Pu" Label="240Pu" Title="240Pu" Unit="IsotopicFraction" Internal="240Pu" Type="F" Min="1.54567579e-06" Max="3.95636074e-02"/>
    <Variable VarIndex="6" Expression="241Pu" Label="241Pu" Title="241Pu" Unit="IsotopicFraction" Internal="241Pu" Type="F" Min="3.22813172e-08" Max="7.04628276e-03"/>
    <Variable VarIndex="7" Expression="242Pu" Label="242Pu" Title="242Pu" Unit="IsotopicFraction" Internal="242Pu" Type="F" Min="1.58277174e-07" Max="1.98803633e-03"/>
    <Variable VarIndex="8" Expression="241Am" Label="241Am" Title="241Am" Unit="IsotopicFraction" Internal="241Am" Type="F" Min="3.13082671e-10" Max="7.48056592e-03"/>
    <Variable VarIndex="9" Expression="242Amm" Label="242Amm" Title="242Amm" Unit="IsotopicFraction" Internal="242Amm" Type="F" Min="1.34159976e-07" Max="1.16249369e-02"/>
    <Variable VarIndex="10" Expression="243Am" Label="243Am" Title="243Am" Unit="IsotopicFraction" Internal="243Am" Type="F" Min="2.04390229e-08" Max="1.99559363e-04"/>
    <Variable VarIndex="11" Expression="242Cm" Label="242Cm" Title="242Cm" Unit="IsotopicFraction" Internal="242Cm" Type="F" Min="1.48285639e-09" Max="1.93909858e-04"/>
    <Variable VarIndex="12" Expression="243Cm" Label="243Cm" Title="243Cm" Unit="IsotopicFraction" Internal="243Cm" Type="F" Min="9.09117492e-09" Max="1.97552916e-04"/>
    <Variable VarIndex="13" Expression="244Cm" Label="244Cm" Title="244Cm" Unit="IsotopicFraction" Internal="244Cm" Type="F" Min="2.46570231e-09" Max="1.97112051e-04"/>
    <Variable VarIndex="14" Expression="245Cm" Label="245Cm" Title="245Cm" Unit="IsotopicFraction" Internal="245Cm" Type="F" Min="9.47205692e-09" Max="1.97873349e-04"/>
    <Variable VarIndex="15" Expression="246Cm" Label="246Cm" Title="246Cm" Unit="IsotopicFraction" Internal="246Cm" Type="F" Min="2.33963915e-09" Max="1.98596885e-04"/>
    <Variable VarIndex="16" Expression="Time" Label="Time" Title="Time" Unit="seconds" Internal="Time" Type="F" Min="0.00000000e+00" Max="1.89328320e+08"/>
  </Variables>
  <Spectators NSpec="0"/>
  <Classes NClass="1">
    <Class Name="Regression" Index="0"/>
  </Classes>
  <Targets NTrgt="1">
    <Target TargetIndex="0" Expression="XS_55_133_0_cap" Label="XS_55_133_0_cap" Title="XS_55_133_0_cap" Unit="" Internal="XS_55_133_0_cap" Type="F" Min="6.81713343e+00" Max="1.17228870e+01"/>
  </Targets>
  <Transformations NTransformations="1">
    <Transform Name="Normalize">
      <Selection>
        <Input NInputs="18">
          <Input Type="Variable" Label="235U" Expression="235U"/>
          <Input Type="Variable" Label="238U" Expression="238U"/>
          <Input Type="Variable" Label="237Np" Expression="237Np"/>
          <Input Type="Variable" Label="238Pu" Expression="238Pu"/>
          <Input Type="Variable" Label="239Pu" Expression="239Pu"/>
          <Input Type="Variable" Label="240Pu" Expression="240Pu"/>
          <Input Type="Variable" Label="241Pu" Expression="241Pu"/>
          <Input Type="Variable" Label="242Pu" Expression="242Pu"/>
          <Input Type="Variable" Label="241Am" Expression="241Am"/>
          <Input Type="Variable" Label="242Amm" Expression="242Amm"/>
          <Input Type="Variable" Label="243Am" Expression="243Am"/>
          <Input Type="Variable" Label="242Cm" Expression="242Cm"/>
          <Input Type="Variable" Label="243Cm" Expression="243Cm"/>
          <Input Type="Variable" Label="244Cm" Expression="244Cm"/>
          <Input Type="Variable" Label="245Cm" Expression="245Cm"/>
          <Input Type="Variable" Label="246Cm" Expression="246Cm"/>
          <Input Type="Variable" Label="Time" Expression="Time"/>
          <Input Type="Target" Label="XS_55_133_0_cap" Expression="XS_55_133_0_cap"/>
        </Input>
        <Output NOutputs="18">
          <Output Type="Variable" Label="235U" Expression="235U"/>
          <Output Type="Variable" Label="238U" Expression="238U"/>
          <Output Type="Variable" Label="237Np" Expression="237Np"/>
          <Output Type="Variable" Label="238Pu" Expression="238Pu"/>
          <Output Type="Variable" Label="239Pu" Expression="239Pu"/>
          <Output Type="Variable" Label="240Pu" Expression="240Pu"/>
          <Output Type="Variable" Label="241Pu" Expression="241Pu"/>
          <Output Type="Variable" Label="242Pu" Expression="242Pu"/>
          <Output Type="Variable" Label="241Am" Expression="241Am"/>
          <Output Type="Variable" Label="242Amm" Expression="242Amm"/>
          <Output Type="Variable" Label="243Am" Expression="243Am"/>
          <Output Type="Variable" Label="242Cm" Expression="242Cm"/>
          <Output Type="Variable" Label="243Cm" Expression="243Cm"/>
          <Output Type="Variable" Label="244Cm" Expression="244Cm"/>
          <Output Type="Variable" Label="245Cm" Expression="245Cm"/>
          <Output Type="Variable" Label="246Cm" Expression="246Cm"/>
          <Output Type="Variable" Label="Time" Expression="Time"/>
          <Output Type="Target" Label="XS_55_133_0_cap" Expression="XS_55_133_0_cap"/>
        </Output>
      </Selection>
      <Class ClassIndex="0">
        <Ranges>
          <Range Index="0" Min="1.7134651670858148e-06" Max="1.9241405650973320e-02"/>
          <Range Index="1" Min="7.8539985418319702e-01" Max="9.6873325109481812e-01"/>
          <Range Index="2" Min="1.6399011926182538e-08" Max="1.9729416817426682e-04"/>
          <Range Index="3" Min="4.6972877498774324e-07" Max="3.9642802439630032e-03"/>
          <Range Index="4" Min="2.1594068035483360e-02" Max="1.8988692760467529e-01"/>
          <Range Index="5" Min="1.5456757864740212e-06" Max="3.9563607424497604e-02"/>
          <Range Index="6" Min="3.2281317174920332e-08" Max="7.0462827570736408e-03"/>
          <Range Index="7" Min="1.5827717447791656e-07" Max="1.9880363252013922e-03"/>
          <Range Index="8" Min="3.1308267089968922e-10" Max="7.4805659241974354e-03"/>
          <Range Index="9" Min="1.3415997557331139e-07" Max="1.1624936945736408e-02"/>
          <Range Index="10" Min="2.0439022918594674e-08" Max="1.9955936295446008e-04"/>
          <Range Index="11" Min="1.4828563932312022e-09" Max="1.9390985835343599e-04"/>
          <Range Index="12" Min="9.0911749239808159e-09" Max="1.9755291577894241e-04"/>
          <Range Index="13" Min="2.4657023089957875e-09" Max="1.9711205095518380e-04"/>
          <Range Index="14" Min="9.4720569165929192e-09" Max="1.9787334895227104e-04"/>
          <Range Index="15" Min="2.3396391490848600e-09" Max="1.9859688472934067e-04"/>
          <Range Index="16" Min="0.0000000000000000e+00" Max="1.8932832000000000e+08"/>
          <Range Index="17" Min="6.8171334266662598e+00" Max="1.1722887039184570e+01"/>
        </Ranges>
      </Class>
    </Transform>
  </Transformations>
  <MVAPdfs/>
  <Weights>
    <Layout NLayers="4">
      <Layer Index="0" NNeurons="18">
        <Neuron NSynapses="17">
          3.7868788249559809e-01 2.3434407458217302e-01 2.9687536336797882e-01 1.3161551766655335e+00 -1.8484001287959211e+00 3.1256724914882641e-02 -3.8791409719790998e-01 1.4087022702432535e+00 -1.4132668910755772e+00 -4.8698868859082239e-01 -1.4403796944868545e+00 4.0467099679845110e-02 -1.0882794245729939e+00 -5.1358270395144678e-01 -1.6307119246069998e-01 8.5914541775197317e-01 -6.6417258798884560e-01 
        </Neuron>
        <Neuron NSynapses="17">
          2.3853402378719005e-01 1.8842441348286501e+00 2.2024002666025293e+00 -9.2374946388570967e-01 -1.0456669145818989e+00 -7.5269805275737012e-01 -3.5669017325307673e-01 -1.6836290662370468e+00 -3.4182208320965651e-01 2.3350106168911213e+00 -1.0127531112897215e+00 -2.8935047449757305e+00 -3.8374457152426872e-01 1.5905585759930527e+00 1.8029887529873379e+00 -7.9015368087024795e-01 1.4289978268609036e+00 
        </Neuron>
        <Neuron NSynapses="17">
          5.4552286781075307e-02 -3.5905761363411709e-01 -7.8149031783335166e-01 1.9199303440904816e+00 -1.1047791238179585e+00 1.1773336351310819e+00 1.1053190083598898e+00 6.5423468640832561e-01 1.5508320455512379e+00 1.0711866629612408e+00 -5.7211001636594594e-01 -1.0846567622693717e+00 1.0822706212430302e+00 -6.3757976664034863e-02 9.2794508333212644e-01 1.6828398839473533e+00 8.7294701089214377e-01 
        </Neuron>
        <Neuron NSynapses="17">
          9.6869268315922807e-01 -9.9998549506584200e-01 1.2612068583946952e+00 -1.8912192238768453e+00 -7.4132187420305073e-01 -1.3537259295899804e+00 -1.0451690109150593e+00 1.6730659403560941e+00 5.9620037489310629e-01 -8.0977203485326310e-01 4.7261868275910895e-01 1.7502139027931266e-01 1.0852782002000290e+00 1.4974001037805189e+00 1.5440917712866797e-01 6.2303536806683268e-01 -1.4155493533381496e+00 
        </Neuron>
        <Neuron NSynapses="17">
          1.8732037653797697e+00 -1.9674344776671564e+00 -1.3430333043617866e+00 -9.3633450063567691e-01 9.7925184624289818e-01 2.1817156840546987e+00 1.8118413392411128e+00 3.6131187811697474e-01 -1.8781492837393801e+00 -2.4251103915664913e+00 9.4705959992633104e-01 1.3344644358439564e+00 2.4694888201325034e+00 -1.7241643977015858e-01 7.9066065238548799e-01 -2.5994110927524516e-01 -2.2597509251139041e+00 
        </Neuron>
        <Neuron NSynapses="17">
          -8.9079555744228184e-02 6.5852435838430623e-01 -8.4661684601490217e-01 -1.5006218919146488e+00 -1.4211869077145407e+00 4.3229048939413027e-03 3.3179393846335603e-01 1.2701518943273413e+00 -1.6987763959288131e+00 -9.1806052071261535e-01 1.7066108894942842e+00 -1.2846308986857349e-01 -1.2732353318482874e+00 -1.3677331822659260e+00 5.5089285842445823e-01 -1.4313332502250744e+00 -1.6711970689286215e+00 
        </Neuron>
        <Neuron NSynapses="17">
          9.7898069584574099e-01 1.2031814320293157e+00 -9.7166930305857346e-01 1.8093673182101293e+00 -8.0600903483531627e-01 -2.2799592120344453e-01 5.9532858174588821e-01 4.5763050599247740e-01 -1.9959948468625537e+00 1.4995516094152178e-01 3.9991604290608451e-01 5.6833266179130237e-01 -9.6298691270760128e-01 1.3936090703644093e+00 -3.3196818848761189e-01 -1.7378315721684651e-01 4.2138376734732158e-01 
        </Neuron>
        <Neuron NSynapses="17">
          -1.3306032467113522e+00 -5.9400589151452821e-01 1.9799600041520618e-01 -4.7812482248999266e-01 1.9611497433463110e+00 2.5441732551982554e-01 3.3180361069914321e-01 3.6431237255906440e-02 1.2575142941086528e-01 -6.8636035893823621e-01 1.0629869943219297e+00 2.0147991490720313e-01 -1.4628506506876413e+00 5.8744790035863848e-01 -4.2179924071481251e-01 6.2206622130095157e-01 9.6154326776850818e-01 
        </Neuron>
        <Neuron NSynapses="17">
          1.1175931077714347e+00 -1.1161692350627379e+00 6.2631588082197498e-01 1.2700099929647930e+00 1.7208425899327964e+00 -3.1971414206186349e-01 -9.1408487555640872e-01 3.2608861006274921e-02 -1.5652896256337916e+00 2.0790544267161626e+00 1.3789455752353794e+00 -4.0588376477216883e-04 -2.1253324428359466e-01 3.2335594158627234e-01 -7.7046342043176930e-01 1.2801608439584327e+00 1.7142529942554068e+00 
        </Neuron>
        <Neuron NSynapses="17">
          -1.9645397800015807e-01 -6.5150460644236763e-01 6.8300527144198853e-01 1.1167768793840853e+00 6.4900798503221657e-01 1.2920416929547438e+00 -7.7500893994064002e-01 1.4745508088528485e+00 4.9305816586372220e-01 3.5059069977278490e-01 7.6009531894290450e-01 6.4955721511979814e-01 -3.0992784485401198e-01 -9.6129712060167094e-01 5.7200088239948621e-01 -2.9182633358788862e-01 -8.8316997527644137e-01 
        </Neuron>
        <Neuron NSynapses="17">
          1.0840008647782244e+00 8.5448252484261522e-01 2.5228223703824959e-01 1.6057425348722036e+00 2.0042302690050291e+00 -1.6750204461671909e+00 3.2683305361142295e-01 -6.0382384162732938e-01 1.7096183321355715e-01 -1.1572917425844593e+00 -1.3732914421890881e+00 -3.4883400465566858e-02 1.9604910443500463e+00 -1.1242658865452073e+00 3.6314456947472207e-01 -3.9128360753153574e-01 -2.0032933686056037e-01 
        </Neuron>
        <Neuron NSynapses="17">
          5.0177958376551757e-01 8.2726871296696736e-01 3.0402380184208666e-01 -1.4171537207501534e+00 1.3986776723158310e+00 6.5426646219798179e-01 1.2234385278575124e+00 2.1265105192158093e-01 -8.1932817920173551e-01 -6.6069541621644401e-01 1.1977941727157979e+00 6.6846973445128410e-02 -1.1268093887721544e+00 -1.1953455061960888e-01 1.0043403658330246e+00 1.7935382401190011e-01 -1.5908246442692051e+00 
        </Neuron>
        <Neuron NSynapses="17">
          1.1157921540025133e+00 1.1371919064612888e+00 8.7891775948212805e-02 -2.6707435278701946e-01 1.8651890519848113e+00 8.2179637617713153e-01 6.9739481405664849e-01 -1.2693712317391029e-01 -2.0204316236516506e+00 -2.5794094624870179e-01 1.8381163868213073e+00 6.3284891097810503e-01 1.0675904783825396e+00 2.9372751945295134e-01 1.4833829582998475e+00 -1.2253134390051907e+00 -1.2919684477863818e+00 
        </Neuron>
        <Neuron NSynapses="17">
          -4.7314887599414301e-01 -7.5603797680987628e-01 1.0240373060846186e+00 1.6841532412357114e+00 -8.9646060164258146e-01 5.4396866717279113e-01 2.0736103400578570e-01 -1.2816911574979675e+00 -1.0228949000472396e+00 1.3329500321736087e+00 6.5666302024507087e-02 5.5404344403957873e-01 -7.1156102173954450e-01 1.3337426350606014e+00 -6.0808452780676103e-01 1.2471994219128200e+00 -6.1595572726049180e-02 
        </Neuron>
        <Neuron NSynapses="17">
          -1.0801234413481580e+00 -1.3567400980638109e+00 -1.3391924030489448e+00 -3.0206720900631384e-01 -1.8032623820106644e+00 -1.3366672321908335e+00 -1.3851184167190611e+00 2.5968987826242551e-01 -1.0211741606263340e+00 -1.2122025028761807e+00 1.4535004761945605e+00 -8.1621948354900353e-01 4.7559441400470903e-01 -1.2231328479789543e+00 1.6289904415809145e-01 1.9517001721147109e+00 6.6254219532962144e-01 
        </Neuron>
        <Neuron NSynapses="17">
          -7.7397929015247813e-01 -1.0715263055641528e+00 -7.0849819942926040e-01 -8.5775726008802267e-01 -1.3907202279823785e+00 4.0365759543093871e-01 6.2214070438412272e-01 1.6731032082206505e+00 -4.4273016932695236e-01 3.9401274285601662e-01 -4.3275926441372492e-01 -1.1115258697084669e+00 1.5718386272297000e+00 8.9403413105554552e-01 -2.7512974528080431e-01 -4.2998898620961684e-01 4.8861485681227784e-01 
        </Neuron>
        <Neuron NSynapses="17">
          2.1635756764519294e+00 -1.0176890877003419e+00 -9.5210472400995672e-01 1.2807628544950986e-01 1.3350045736119711e+00 1.6992685206949742e+00 1.5654900091208297e+00 1.1969055974998217e+00 6.2092659522306422e-02 -1.1219241895295076e+00 -1.4046717192268257e+00 1.7441563721506130e+00 -1.5614500793208304e+00 -2.9285464323152937e+00 -3.5003651619761458e+00 1.8465006947846478e+00 -2.9772903791191103e+00 
        </Neuron>
        <Neuron NSynapses="17">
          2.9109687721564059e+00 -2.9719257846584264e+00 1.6631228483693086e-01 -5.5661690138240949e-01 4.1528523414867702e-01 1.8181704655141824e+00 -2.5920799895122713e+00 1.4962402000237063e-01 1.0056828754853253e+00 -3.1750455622359541e+00 -1.7452678546324161e+00 -1.6554890080626579e+00 -1.0718202357452140e+00 1.4322350811290225e+00 -8.6572518705425128e-01 -6.2495762749557915e-01 -1.7283127120795760e+00 
        </Neuron>
      </Layer>
      <Layer Index="1" NNeurons="18">
        <Neuron NSynapses="17">
          -8.9919166633718517e-01 -1.7125368654438449e+00 -8.2500156869092989e-01 -1.5460349455061051e+00 9.5080143389841854e-01 -1.3487333190307287e+00 -1.0250220127095682e+00 7.6520011627558338e-01 2.9164097695268454e-01 -1.4152506100085220e+00 1.6136946801331509e+00 -1.8941333802329356e+00 1.2707119629392867e+00 6.0717297307442397e-01 -1.2548705115457244e+00 -8.1312416275791211e-01 4.5203113476596329e-01 
        </Neuron>
        <Neuron NSynapses="17">
          -1.8849313916613848e+00 4.6370504916966199e-01 1.4326159296979779e+00 1.1840812266835885e+00 1.4641599473289113e+00 -1.1236401827876559e+00 8.6035149670241617e-01 -1.9929724890493767e+00 3.7684495418112196e-01 -1.0253076997896178e+00 -2.0249923115830883e+00 5.6451371865417259e-02 1.1428940993544598e+00 3.1634264136144186e-01 1.1748977804843872e+00 3.8199825572719154e-01 -8.5720882914311314e-01 
        </Neuron>
        <Neuron NSynapses="17">
          -4.9284263036360276e-01 2.3265649122083965e-01 2.1300571705587679e+00 -1.3499799531973575e+00 1.1154232821351435e+00 -1.0345188975714394e+00 1.7602574843602095e-01 8.2330267002773838e-01 -2.6153277713517786e-01 -1.3298087910575633e+00 4.7120626113263131e-01 1.8107093683479814e+00 5.4201083293959684e-01 -2.4601502624344487e-01 -6.4447619647395771e-01 -1.5170385944710600e+00 -2.4801592562538528e+00 
        </Neuron>
        <Neuron NSynapses="17">
          1.3163630179836043e+00 -6.7384806913423079e-01 -9.6221797465581849e-01 2.4409293574382807e-01 -1.8178163386966650e+00 -1.4012079076033201e+00 -1.9641664103403056e+00 -1.1073658654081896e-01 -1.1124841803959711e+00 -1.4876595688562546e+00 -5.3874802404181699e-01 -9.2626619517807174e-01 -1.6765967471634871e+00 9.5216020653767064e-01 -1.1152807258966204e+00 -1.2456945557046022e+00 2.3614302862259007e+00 
        </Neuron>
        <Neuron NSynapses="17">
          2.0615671057030657e-01 3.0661412371612473e-01 1.9837626514216247e-01 1.5385749261324322e+00 1.3179304256896911e+00 7.1184582192812318e-01 -8.7003262932278225e-01 -1.8694479222306737e-01 -8.6830970997798373e-01 7.3795248244307099e-01 1.0675030610157499e+00 9.8756102272562624e-03 9.3703823171280076e-01 1.1473413212553154e+00 1.2659106599781755e+00 -1.2526230209821148e+00 7.3673254581618453e-01 
        </Neuron>
        <Neuron NSynapses="17">
          2.9409251069133269e-01 -1.8896699801099939e+00 -1.8719194660543098e-01 -8.0249920826503252e-01 6.3182884243936599e-01 5.5244089682996544e-01 7.4899837953192239e-01 2.7041973723896358e+00 -4.3205899282764149e-01 1.4152699665389852e+00 1.8058812039598686e+00 1.0039306605715513e-01 -1.1325702156826523e+00 1.7908222387190507e+00 -2.0895370994334734e+00 6.0964402411024388e-01 1.8903270489515760e+00 
        </Neuron>
        <Neuron NSynapses="17">
          -3.2646909958450376e-01 -9.6178460767736418e-01 3.1712819736779231e-02 -1.2748479743684951e+00 1.1531349899053459e-01 -1.8325334495850101e+00 -2.8307561702795292e-01 -1.2734113032588454e+00 1.9407041104804366e+00 1.1740916980457101e+00 1.8231126790749637e+00 -5.6527573549947563e-01 -5.1420128868852866e-01 1.1800855808050953e-01 1.7626341529969292e+00 -1.8622645810908998e+00 -6.1711430929090361e-01 
        </Neuron>
        <Neuron NSynapses="17">
          -5.3272338717997081e-01 -1.8066066476409339e+00 -1.6001377321145251e+00 -1.9051467641837840e+00 -4.3032327999051385e-02 -3.8257286532536411e-01 -1.9126120462966669e+00 -2.4671917416458466e+00 -1.0830978889977280e-01 1.5984615786832126e+00 1.7048339972848545e+00 1.2309923416723461e+00 -6.1132543046761167e-01 -1.8583195550150564e+00 3.0793641165686464e-01 -1.2139132609731491e+00 -3.7140473014677483e-01 
        </Neuron>
        <Neuron NSynapses="17">
          -1.0172081625788454e+00 2.5216904854981970e-01 -1.3828377763291593e+00 1.5491733352410850e+00 1.3326132028300219e+00 5.7383995290970036e-01 -1.7667805249984031e-01 4.6355823707271004e-01 1.3484061014038851e+00 -7.5756734247854518e-01 1.7514497166518056e-01 1.6009402976840366e+00 1.6141510552495473e+00 -6.4643247829282169e-01 1.1915033293262016e+00 -1.8231152128763064e+00 7.8492045464462556e-01 
        </Neuron>
        <Neuron NSynapses="17">
          1.5753475497983185e+00 -1.7327598051411053e-01 3.7605901633832123e-01 2.0912478363473908e-01 -2.1948196460545627e-01 9.1495747485860823e-01 1.0185389198247978e+00 -1.7188379253335098e+00 -1.8045773709608477e+00 -1.1254481739320966e-02 1.3912013550902298e+00 4.9400926420359770e-01 -1.1543873075350053e+00 -2.0960727731761239e+00 2.2984231457220865e+00 3.3213552278156244e-01 -2.2991126582286410e+00 
        </Neuron>
        <Neuron NSynapses="17">
          3.4633486279258879e-01 -1.0544345309350682e+00 1.1761288137106982e+00 1.3601258898803785e+00 -5.4757825580321751e-01 -1.4904523892092532e+00 1.4715932704728298e+00 -2.1215500431068077e-01 5.2631344410453273e-01 -1.1930154520437347e-01 -1.1044582802276302e+00 -1.1585060537753411e+00 8.4954685757516035e-01 -1.5244114415362522e-01 6.7258526582433875e-01 -1.9025146247563249e+00 -1.1237086073120759e+00 
        </Neuron>
        <Neuron NSynapses="17">
          -1.1822470856689489e+00 -5.5033966981538129e-01 -1.6842607768172344e+00 4.0266041527724672e-01 -5.6586459556852264e-01 1.1842490928111085e+00 -7.5906796020207973e-02 -3.0735146396068931e+00 1.7659189190741713e+00 1.7324170396039222e+00 9.8622363460401719e-01 -5.2921748985177508e-01 -1.0144234272052624e+00 1.6854153780511505e+00 -1.1753249966531509e+00 4.0796449282183300e-01 -6.4017973819783380e-01 
        </Neuron>
        <Neuron NSynapses="17">
          1.6046617340591767e+00 -8.3080590981103797e-01 1.9824544268509231e-01 -4.9530724895637439e-03 5.9462268799631890e-01 -3.2279416764177477e-01 -6.5435987501503839e-02 1.3433177320166909e-01 7.0376042789426363e-01 2.3790573031304357e-01 1.2460226078071703e+00 -1.6280485803005926e+00 9.8561087864778463e-01 -1.9574593086377656e+00 9.4990644309909189e-01 1.0243883980167610e+00 3.7003286351057818e-01 
        </Neuron>
        <Neuron NSynapses="17">
          2.0323617432587979e+00 1.5850070786611210e+00 -1.6299653270534018e+00 -6.1204135649957636e-01 -6.7512230234549386e-01 6.7110275473784542e-01 1.4809556105240521e-01 -1.0728365571998424e+00 -4.1193241236252875e-01 -1.7968831941265632e-02 -8.7046135991729223e-01 -2.7303222540594863e-01 -1.8620623412569517e+00 -3.1002930375193716e-01 1.9985020772536286e-01 -8.0665384572366439e-01 -1.9097934249656829e+00 
        </Neuron>
        <Neuron NSynapses="17">
          1.0882410486796910e+00 5.2279032614867027e-01 7.8390487631136332e-02 -1.2414751386400593e+00 2.2475228120509301e+00 -1.8389210185879618e-01 8.6579208747735370e-01 -3.6550943709698680e-01 -1.1687615910441933e+00 -1.0613781488726317e+00 1.0043900580712090e-01 -1.8052402186102925e+00 -1.0706162979590375e+00 -1.4889393060111420e+00 1.4802552241425202e+00 -1.9633289786305810e+00 1.1183230913130395e+00 
        </Neuron>
        <Neuron NSynapses="17">
          6.3768042614086695e-01 9.1228545339691480e-01 1.2519515590271058e+00 8.0970022600540437e-01 -5.3466328635319593e-01 -7.0301641401263859e-01 -1.6647492700410722e+00 5.2348023357463795e-02 -6.8712241424275866e-01 1.5430327928353065e+00 2.6631587501265239e-02 7.0326295799054722e-02 1.5849475575850305e+00 1.3849754935080167e+00 -9.5720413583143249e-01 3.8773477130959466e-01 -1.7037475115286580e+00 
        </Neuron>
        <Neuron NSynapses="17">
          1.6446703390520738e+00 -1.7346830492380410e+00 2.6080934924024396e-01 -5.8205227467659160e-01 1.2221410871260778e+00 -1.9432055054976132e+00 1.2134451711458205e+00 -2.9801455086887727e+00 -2.2921984232790688e-01 1.0254272329465328e+00 -8.8575230503446722e-01 6.6893275322749945e-01 -1.7699913150957494e+00 7.6196546525242359e-01 -3.3183932244224768e-01 6.7260760209118764e-01 -2.4009885848501100e+00 
        </Neuron>
        <Neuron NSynapses="17">
          -1.4027729690106603e+00 2.1232589194528315e+00 -2.0281629451595102e+00 -1.0735074100295341e+00 -8.1517714014359555e-01 1.7804492741862414e+00 1.6100715773283039e+00 3.0280755853916430e+00 -1.8863369204971541e+00 6.7136276475624113e-01 6.4338970676775142e-01 1.8689545820031350e-01 -1.0483460304427621e+00 -9.6644577745279281e-01 -1.7102368670854198e-01 -5.7021726133728058e-02 9.9721681509892213e-01 
        </Neuron>
      </Layer>
      <Layer Index="2" NNeurons="18">
        <Neuron NSynapses="1">
          1.4912843653537769e-02 
        </Neuron>
        <Neuron NSynapses="1">
          4.8441982274518021e-02 
        </Neuron>
        <Neuron NSynapses="1">
          1.2251907270591848e-01 
        </Neuron>
        <Neuron NSynapses="1">
          -1.1971004995708181e-02 
        </Neuron>
        <Neuron NSynapses="1">
          3.8532645788709172e-02 
        </Neuron>
        <Neuron NSynapses="1">
          -6.2694838445590387e-02 
        </Neuron>
        <Neuron NSynapses="1">
          4.7947039536442276e-02 
        </Neuron>
        <Neuron NSynapses="1">
          -3.3394616654899345e-01 
        </Neuron>
        <Neuron NSynapses="1">
          -5.7436622361075440e-02 
        </Neuron>
        <Neuron NSynapses="1">
          -5.8424838028199942e-02 
        </Neuron>
        <Neuron NSynapses="1">
          -5.2567604415227315e-02 
        </Neuron>
        <Neuron NSynapses="1">
          2.1989031339725441e-02 
        </Neuron>
        <Neuron NSynapses="1">
          -1.0886955336007427e-02 
        </Neuron>
        <Neuron NSynapses="1">
          -3.2063446481994357e-02 
        </Neuron>
        <Neuron NSynapses="1">
          4.2276782068028172e-02 
        </Neuron>
        <Neuron NSynapses="1">
          4.9663180288913808e-04 
        </Neuron>
        <Neuron NSynapses="1">
          -4.1795832088462097e-02 
        </Neuron>
        <Neuron NSynapses="1">
          2.0255744204868453e-01 
        </Neuron>
      </Layer>
      <Layer Index="3" NNeurons="1">
        <Neuron NSynapses="0"/>
      </Layer>
    </Layout>
  </Weights>
</MethodSetup>
