<?xml version="1.0"?>
<MethodSetup Method="MLP::XS_24_52_0_n2n">
  <GeneralInfo>
    <Info name="TMVA Release" value="4.2.1 [262657]"/>
    <Info name="ROOT Release" value="6.06/02 [394754]"/>
    <Info name="Creator" value="mouginot"/>
    <Info name="Date" value="Thu Feb 23 09:03:54 2017"/>
    <Info name="Host" value="Linux e300.chtc.wisc.edu 2.6.32-642.13.1.el6.x86_64 #1 SMP Tue Jan 10 11:22:50 CST 2017 x86_64 x86_64 x86_64 GNU/Linux"/>
    <Info name="Dir" value="/mnt/gluster/mouginot/TRU_MOX_XS/Generate"/>
    <Info name="Training events" value="198960"/>
    <Info name="TrainingTime" value="1.77831549e+04"/>
    <Info name="AnalysisType" value="Regression"/>
  </GeneralInfo>
  <Options>
    <Option name="NCycles" modified="Yes">20000</Option>
    <Option name="HiddenLayers" modified="Yes">N,N</Option>
    <Option name="NeuronType" modified="Yes">tanh</Option>
    <Option name="RandomSeed" modified="No">1</Option>
    <Option name="EstimatorType" modified="No">MSE</Option>
    <Option name="NeuronInputType" modified="No">sum</Option>
    <Option name="V" modified="Yes">False</Option>
    <Option name="VerbosityLevel" modified="No">Default</Option>
    <Option name="VarTransform" modified="Yes">Norm</Option>
    <Option name="H" modified="Yes">False</Option>
    <Option name="CreateMVAPdfs" modified="No">False</Option>
    <Option name="IgnoreNegWeightsInTraining" modified="No">False</Option>
    <Option name="TrainingMethod" modified="Yes">BFGS</Option>
    <Option name="LearningRate" modified="No">2.000000e-02</Option>
    <Option name="DecayRate" modified="No">1.000000e-02</Option>
    <Option name="TestRate" modified="Yes">6</Option>
    <Option name="EpochMonitoring" modified="No">False</Option>
    <Option name="Sampling" modified="Yes">3.000000e-01</Option>
    <Option name="SamplingEpoch" modified="Yes">8.000000e-01</Option>
    <Option name="SamplingImportance" modified="No">1.000000e+00</Option>
    <Option name="SamplingTraining" modified="No">True</Option>
    <Option name="SamplingTesting" modified="No">False</Option>
    <Option name="ResetStep" modified="No">50</Option>
    <Option name="Tau" modified="No">3.000000e+00</Option>
    <Option name="BPMode" modified="No">sequential</Option>
    <Option name="BatchSize" modified="No">-1</Option>
    <Option name="ConvergenceImprove" modified="Yes">1.000000e-06</Option>
    <Option name="ConvergenceTests" modified="Yes">15</Option>
    <Option name="UseRegulator" modified="Yes">False</Option>
    <Option name="UpdateLimit" modified="No">10000</Option>
    <Option name="CalculateErrors" modified="No">False</Option>
    <Option name="WeightRange" modified="No">1.000000e+00</Option>
  </Options>
  <Variables NVar="17">
    <Variable VarIndex="0" Expression="235U" Label="235U" Title="235U" Unit="IsotopicFraction" Internal="235U" Type="F" Min="1.71346517e-06" Max="1.92414057e-02"/>
    <Variable VarIndex="1" Expression="238U" Label="238U" Title="238U" Unit="IsotopicFraction" Internal="238U" Type="F" Min="7.85399854e-01" Max="9.68733251e-01"/>
    <Variable VarIndex="2" Expression="237Np" Label="237Np" Title="237Np" Unit="IsotopicFraction" Internal="237Np" Type="F" Min="1.63990119e-08" Max="1.97294168e-04"/>
    <Variable VarIndex="3" Expression="238Pu" Label="238Pu" Title="238Pu" Unit="IsotopicFraction" Internal="238Pu" Type="F" Min="4.69728775e-07" Max="3.96428024e-03"/>
    <Variable VarIndex="4" Expression="239Pu" Label="239Pu" Title="239Pu" Unit="IsotopicFraction" Internal="239Pu" Type="F" Min="2.15940680e-02" Max="1.89886928e-01"/>
    <Variable VarIndex="5" Expression="240Pu" Label="240Pu" Title="240Pu" Unit="IsotopicFraction" Internal="240Pu" Type="F" Min="1.54567579e-06" Max="3.95636074e-02"/>
    <Variable VarIndex="6" Expression="241Pu" Label="241Pu" Title="241Pu" Unit="IsotopicFraction" Internal="241Pu" Type="F" Min="3.22813172e-08" Max="7.04628276e-03"/>
    <Variable VarIndex="7" Expression="242Pu" Label="242Pu" Title="242Pu" Unit="IsotopicFraction" Internal="242Pu" Type="F" Min="1.58277174e-07" Max="1.98803633e-03"/>
    <Variable VarIndex="8" Expression="241Am" Label="241Am" Title="241Am" Unit="IsotopicFraction" Internal="241Am" Type="F" Min="3.13082671e-10" Max="7.48056592e-03"/>
    <Variable VarIndex="9" Expression="242Amm" Label="242Amm" Title="242Amm" Unit="IsotopicFraction" Internal="242Amm" Type="F" Min="1.34159976e-07" Max="1.16249369e-02"/>
    <Variable VarIndex="10" Expression="243Am" Label="243Am" Title="243Am" Unit="IsotopicFraction" Internal="243Am" Type="F" Min="2.04390229e-08" Max="1.99559363e-04"/>
    <Variable VarIndex="11" Expression="242Cm" Label="242Cm" Title="242Cm" Unit="IsotopicFraction" Internal="242Cm" Type="F" Min="1.48285639e-09" Max="1.93909858e-04"/>
    <Variable VarIndex="12" Expression="243Cm" Label="243Cm" Title="243Cm" Unit="IsotopicFraction" Internal="243Cm" Type="F" Min="9.09117492e-09" Max="1.97552916e-04"/>
    <Variable VarIndex="13" Expression="244Cm" Label="244Cm" Title="244Cm" Unit="IsotopicFraction" Internal="244Cm" Type="F" Min="2.46570231e-09" Max="1.97112051e-04"/>
    <Variable VarIndex="14" Expression="245Cm" Label="245Cm" Title="245Cm" Unit="IsotopicFraction" Internal="245Cm" Type="F" Min="9.47205692e-09" Max="1.97873349e-04"/>
    <Variable VarIndex="15" Expression="246Cm" Label="246Cm" Title="246Cm" Unit="IsotopicFraction" Internal="246Cm" Type="F" Min="2.33963915e-09" Max="1.98596885e-04"/>
    <Variable VarIndex="16" Expression="Time" Label="Time" Title="Time" Unit="seconds" Internal="Time" Type="F" Min="0.00000000e+00" Max="1.89328320e+08"/>
  </Variables>
  <Spectators NSpec="0"/>
  <Classes NClass="1">
    <Class Name="Regression" Index="0"/>
  </Classes>
  <Targets NTrgt="1">
    <Target TargetIndex="0" Expression="XS_24_52_0_n2n" Label="XS_24_52_0_n2n" Title="XS_24_52_0_n2n" Unit="" Internal="XS_24_52_0_n2n" Type="F" Min="5.43966826e-06" Max="6.71732196e-05"/>
  </Targets>
  <Transformations NTransformations="1">
    <Transform Name="Normalize">
      <Selection>
        <Input NInputs="18">
          <Input Type="Variable" Label="235U" Expression="235U"/>
          <Input Type="Variable" Label="238U" Expression="238U"/>
          <Input Type="Variable" Label="237Np" Expression="237Np"/>
          <Input Type="Variable" Label="238Pu" Expression="238Pu"/>
          <Input Type="Variable" Label="239Pu" Expression="239Pu"/>
          <Input Type="Variable" Label="240Pu" Expression="240Pu"/>
          <Input Type="Variable" Label="241Pu" Expression="241Pu"/>
          <Input Type="Variable" Label="242Pu" Expression="242Pu"/>
          <Input Type="Variable" Label="241Am" Expression="241Am"/>
          <Input Type="Variable" Label="242Amm" Expression="242Amm"/>
          <Input Type="Variable" Label="243Am" Expression="243Am"/>
          <Input Type="Variable" Label="242Cm" Expression="242Cm"/>
          <Input Type="Variable" Label="243Cm" Expression="243Cm"/>
          <Input Type="Variable" Label="244Cm" Expression="244Cm"/>
          <Input Type="Variable" Label="245Cm" Expression="245Cm"/>
          <Input Type="Variable" Label="246Cm" Expression="246Cm"/>
          <Input Type="Variable" Label="Time" Expression="Time"/>
          <Input Type="Target" Label="XS_24_52_0_n2n" Expression="XS_24_52_0_n2n"/>
        </Input>
        <Output NOutputs="18">
          <Output Type="Variable" Label="235U" Expression="235U"/>
          <Output Type="Variable" Label="238U" Expression="238U"/>
          <Output Type="Variable" Label="237Np" Expression="237Np"/>
          <Output Type="Variable" Label="238Pu" Expression="238Pu"/>
          <Output Type="Variable" Label="239Pu" Expression="239Pu"/>
          <Output Type="Variable" Label="240Pu" Expression="240Pu"/>
          <Output Type="Variable" Label="241Pu" Expression="241Pu"/>
          <Output Type="Variable" Label="242Pu" Expression="242Pu"/>
          <Output Type="Variable" Label="241Am" Expression="241Am"/>
          <Output Type="Variable" Label="242Amm" Expression="242Amm"/>
          <Output Type="Variable" Label="243Am" Expression="243Am"/>
          <Output Type="Variable" Label="242Cm" Expression="242Cm"/>
          <Output Type="Variable" Label="243Cm" Expression="243Cm"/>
          <Output Type="Variable" Label="244Cm" Expression="244Cm"/>
          <Output Type="Variable" Label="245Cm" Expression="245Cm"/>
          <Output Type="Variable" Label="246Cm" Expression="246Cm"/>
          <Output Type="Variable" Label="Time" Expression="Time"/>
          <Output Type="Target" Label="XS_24_52_0_n2n" Expression="XS_24_52_0_n2n"/>
        </Output>
      </Selection>
      <Class ClassIndex="0">
        <Ranges>
          <Range Index="0" Min="1.7134651670858148e-06" Max="1.9241405650973320e-02"/>
          <Range Index="1" Min="7.8539985418319702e-01" Max="9.6873325109481812e-01"/>
          <Range Index="2" Min="1.6399011926182538e-08" Max="1.9729416817426682e-04"/>
          <Range Index="3" Min="4.6972877498774324e-07" Max="3.9642802439630032e-03"/>
          <Range Index="4" Min="2.1594068035483360e-02" Max="1.8988692760467529e-01"/>
          <Range Index="5" Min="1.5456757864740212e-06" Max="3.9563607424497604e-02"/>
          <Range Index="6" Min="3.2281317174920332e-08" Max="7.0462827570736408e-03"/>
          <Range Index="7" Min="1.5827717447791656e-07" Max="1.9880363252013922e-03"/>
          <Range Index="8" Min="3.1308267089968922e-10" Max="7.4805659241974354e-03"/>
          <Range Index="9" Min="1.3415997557331139e-07" Max="1.1624936945736408e-02"/>
          <Range Index="10" Min="2.0439022918594674e-08" Max="1.9955936295446008e-04"/>
          <Range Index="11" Min="1.4828563932312022e-09" Max="1.9390985835343599e-04"/>
          <Range Index="12" Min="9.0911749239808159e-09" Max="1.9755291577894241e-04"/>
          <Range Index="13" Min="2.4657023089957875e-09" Max="1.9711205095518380e-04"/>
          <Range Index="14" Min="9.4720569165929192e-09" Max="1.9787334895227104e-04"/>
          <Range Index="15" Min="2.3396391490848600e-09" Max="1.9859688472934067e-04"/>
          <Range Index="16" Min="0.0000000000000000e+00" Max="1.8932832000000000e+08"/>
          <Range Index="17" Min="5.4396682571677957e-06" Max="6.7173219576943666e-05"/>
        </Ranges>
      </Class>
    </Transform>
  </Transformations>
  <MVAPdfs/>
  <Weights>
    <Layout NLayers="4">
      <Layer Index="0" NNeurons="18">
        <Neuron NSynapses="17">
          -4.0800276063045210e-01 1.6832384505183822e+00 8.7954658115957096e-01 1.6984894754931805e+00 -1.9066767552531594e+00 -1.4020327523114180e+00 -8.2831865108059533e-01 1.8846515980053895e+00 -1.3797717711842483e+00 -1.1353750204234774e+00 -1.4669970008627959e+00 -5.5970337915893087e-01 -1.2578013387304652e+00 -4.7026937859099194e-01 -2.4180081042360019e-01 1.8512884873816302e-01 -4.3317621159750447e-01 
        </Neuron>
        <Neuron NSynapses="17">
          1.8006817232123857e+00 3.6687280769585046e-01 1.6698906345214521e+00 -1.1082292961759860e-01 -8.2975000702045909e-01 3.9135795521017219e-01 1.6774705655756597e-01 -1.0266777661496100e+00 -4.1251598014129010e-01 1.4334422650051064e+00 -9.1138843849680962e-01 -1.8355787892879791e+00 8.5237323201911408e-02 4.8997179370848731e-01 1.3151886153728647e+00 1.0201658355554465e-02 1.9585570320605111e-01 
        </Neuron>
        <Neuron NSynapses="17">
          2.5345024214763673e-01 -1.8356550301891270e-01 -1.4600809403211230e+00 1.5603811575178657e+00 -1.4556012650901693e+00 1.0540428611887802e+00 1.2684628776187707e+00 8.8707505378870899e-01 1.8608423951486890e+00 1.1428876713591973e+00 -7.1965440368560296e-01 -1.4624099506878125e+00 7.2530109001447785e-01 -2.8145983836067728e-02 1.4689747640291968e+00 1.3147815410166919e+00 1.5042156399046187e+00 
        </Neuron>
        <Neuron NSynapses="17">
          1.4199009945068035e+00 -1.4383944022277415e+00 1.3835364983533138e+00 -1.6900892975824777e+00 -1.1170160920279173e+00 -1.2684765112379499e+00 -1.4663912352707944e+00 1.4208340430135771e+00 5.3472088046972488e-01 -1.7365250485895176e+00 4.0963834693675499e-01 -5.5528015822949117e-01 6.2270852136593102e-01 1.5292906656826546e+00 -1.4444370726984249e-01 2.3504427588289886e-01 -8.7703364617086588e-01 
        </Neuron>
        <Neuron NSynapses="17">
          7.8308245381268615e-01 -9.3992581254620811e-01 -9.4099270327763507e-01 -1.6016557839474534e+00 6.8845115887379460e-01 1.3845765777776780e+00 1.3662386826195032e+00 -4.5464623784506014e-01 -1.8180763049343762e+00 -1.8332760032778519e+00 8.7497545314237624e-01 4.4263056099407733e-01 1.9816242903813281e+00 7.2840896829595725e-01 1.2337100164240691e+00 -1.0559603628801031e+00 -1.1240818388185974e+00 
        </Neuron>
        <Neuron NSynapses="17">
          -9.6574685071116897e-02 1.2470195670192163e+00 -1.0357852789777784e+00 -1.5369064976753646e+00 -1.9488332960330719e+00 -1.6655680443516702e-01 1.9865800540620523e-01 1.6281973372378864e+00 -1.5601389961150987e+00 -9.4514057399290474e-01 1.6608469093786828e+00 -9.6024788280983642e-01 -1.5865551957959181e+00 -1.6254294901854069e+00 2.1173153841549339e-01 -1.7473726827679794e+00 -1.3497222238511344e+00 
        </Neuron>
        <Neuron NSynapses="17">
          8.7805886712403625e-01 1.9042491517998041e+00 -9.8435040222348502e-01 1.6614801608333087e+00 -1.3619625659757084e+00 -9.1274788247863436e-01 2.8362323690969365e-01 2.8869397480520115e-01 -1.9254624972338117e+00 4.1644046227196307e-02 4.0846379938233796e-01 2.1714938109659249e-01 -1.5229031054040503e+00 1.4601657866664493e+00 3.4636642852307231e-01 -7.1006508303445803e-01 1.1751481751095239e+00 
        </Neuron>
        <Neuron NSynapses="17">
          -9.1536872768116706e-01 -1.3689832801481234e+00 2.4439051218207181e-01 -3.0166790795131160e-01 1.4588449383470248e+00 7.8318842518470577e-01 2.4807079040720445e-01 -3.9163547891590994e-01 1.1296752862002379e-01 -1.8988393515705220e+00 1.0871801795996909e+00 3.5653866761329082e-02 -1.8310636137878262e+00 4.0520031594251477e-01 -1.1881629523107451e+00 1.4099563012124300e-01 1.2549615575836259e+00 
        </Neuron>
        <Neuron NSynapses="17">
          1.9543009289145992e+00 -1.7485047894165993e+00 5.4197492079824883e-01 1.7195232205663002e+00 1.0666914031246648e+00 7.7525262953165433e-02 -1.0546829978591556e+00 -4.0770416168791089e-02 -1.5561700424033011e+00 1.3473936289659718e+00 1.3647925595215997e+00 -4.4109472829357860e-01 -6.3428935702985834e-01 -1.5502520624041638e-01 -1.1094797549119726e+00 6.1427629714623111e-01 2.0589312800773709e+00 
        </Neuron>
        <Neuron NSynapses="17">
          -5.1674625057659651e-01 -9.7402371029896651e-01 2.0929457038309193e-01 1.1255558654690692e+00 3.7265515693861234e-01 1.2863139707991482e+00 -1.1809778507503657e+00 1.6127772079001932e+00 5.4842975256608562e-01 4.6102590036789404e-01 5.7784912631336172e-01 1.2145443792539852e+00 -9.1638007163352120e-01 -4.9247324554567012e-01 1.9130791845331243e+00 -1.5604783774186954e+00 -4.8249339364611410e-01 
        </Neuron>
        <Neuron NSynapses="17">
          1.4143718937607384e+00 8.1517995409280875e-01 -4.1067041006254557e-01 1.3854839269360193e+00 1.5666311069089729e+00 -1.7846087326643798e+00 6.6134571946568499e-01 -1.2238472198647119e-04 4.0321876877542212e-01 -1.8020097380782976e+00 -1.5399420463455580e+00 1.0436980701824008e+00 1.5460299868598550e+00 -1.6359982330832386e+00 8.4242421581800342e-02 -8.1657543759507967e-01 2.6700403045481719e-01 
        </Neuron>
        <Neuron NSynapses="17">
          1.8393426892284497e+00 -2.3515545936617405e-01 -4.0373706116316588e-01 -9.9834188478458363e-01 7.2216543847797265e-01 1.6531025782439852e+00 1.3456546949086843e+00 3.5709066454027122e-01 -7.8959160520973570e-01 -2.1002669935172387e+00 1.1016066258634454e+00 4.9192595095720304e-01 -1.4363658000552941e+00 -9.2723291908742389e-01 3.4608514083275821e-01 2.0476301396199570e-01 -1.6659760756002093e+00 
        </Neuron>
        <Neuron NSynapses="17">
          1.7653045114772741e+00 1.1082558934002917e+00 -4.0585628395221712e-01 -1.6745832893395354e-01 1.2991356622264072e+00 9.8963285412993107e-01 8.3714868590072533e-01 -1.2886863894200118e-01 -1.8887964681612652e+00 -1.0873196799919984e+00 1.7546347301711125e+00 1.1544930559910682e+00 8.0392201671015406e-01 -6.9440235948490581e-02 1.6014180380227785e+00 -1.1255536341416599e+00 -9.4798698157608730e-01 
        </Neuron>
        <Neuron NSynapses="17">
          -9.3426008580415401e-03 -1.3537089796640831e+00 1.0132333446441382e+00 1.6635361588908804e+00 -1.4382620315535257e+00 8.7997739513329654e-01 7.1909350551378606e-02 -1.8273476688631496e+00 -1.1010571484665326e+00 8.9925939036635716e-01 9.3582811502867014e-02 8.9180981538127790e-01 -1.2812924518068431e+00 1.4366726767266391e+00 -1.4912136518550536e+00 7.1195339090800902e-01 2.3651404056036912e-01 
        </Neuron>
        <Neuron NSynapses="17">
          -1.3455470393417215e+00 -1.3216972058049259e+00 -1.8702883215025741e+00 -3.7440347364885662e-01 -2.1091501994856849e+00 -1.5241556356224182e+00 -1.6252863046849180e+00 1.9972573592900064e-01 -1.0375646624958015e+00 -1.6973183471761626e+00 1.4091690141718818e+00 -6.9467662474632741e-01 2.0277263033098825e-03 -1.1326411126734020e+00 4.6406810700335138e-01 1.5705381155853906e+00 1.4669427088722167e+00 
        </Neuron>
        <Neuron NSynapses="17">
          -7.3114306064254164e-01 -1.2240457365657635e+00 -9.7391579706266940e-01 -8.9167398037569967e-01 -1.8959631530981724e+00 3.2024157699731781e-01 5.4562834649486780e-01 1.8403090009656877e+00 -2.4988290247056427e-01 9.1157029981316376e-02 -4.9434415749785898e-01 -1.9621305130227005e+00 1.2819704273000112e+00 9.5615294898348824e-01 -7.3696390646942822e-01 -8.7644915448464233e-01 9.8799189363569839e-01 
        </Neuron>
        <Neuron NSynapses="17">
          1.3080797929701919e+00 9.9782240112250542e-01 -3.2784579666117797e-01 -3.9163558696261669e-01 1.2110099932109362e+00 7.2621878361752534e-01 7.9071120307011211e-01 -4.7496680920477818e-01 2.1737065478844558e-01 -3.3770354363053967e-01 -1.2795935929262194e+00 -9.4882724231912940e-01 -1.4679236395147608e+00 -1.7016320419234976e+00 -2.0903308367688691e+00 2.5682117857423261e+00 -1.3511384341738006e+00 
        </Neuron>
        <Neuron NSynapses="17">
          1.3172908609443870e+00 -1.9093424142272295e+00 7.2503685736135137e-01 -1.3827365803841900e+00 1.2216508454311976e+00 1.1454569481608954e+00 -2.5490584523319013e+00 7.1592220323475564e-02 9.2816636651370399e-01 -1.6010467590175939e+00 -1.7726259106993509e+00 -1.6084729626921521e+00 -5.6497793214996628e-01 2.4279706727530157e+00 -6.0556877033523704e-01 -1.2170555244938369e-01 -1.7261650040569139e+00 
        </Neuron>
      </Layer>
      <Layer Index="1" NNeurons="18">
        <Neuron NSynapses="17">
          -1.1824475062651612e+00 -1.6793542572842337e+00 -7.8551177019066643e-01 -1.5134889927200483e+00 8.5495447664537472e-01 -1.7237473126731706e+00 -1.2491230651308818e+00 1.6679512549994657e+00 5.3174865343617250e-01 -5.4527215413124797e-01 2.0358565257243550e+00 -1.8171385616144526e+00 1.5010450964287829e+00 9.6764544921666906e-01 -1.1520612055706725e+00 -5.3522063246926699e-01 -1.5242329069633878e-01 
        </Neuron>
        <Neuron NSynapses="17">
          -1.1053900579780458e+00 4.7046940771379486e-01 1.9277130793320758e+00 1.3321575981318474e+00 1.6880942079080912e+00 -1.6596034902465640e+00 9.0308240337286227e-01 -2.1179599947957755e+00 6.0379135526966532e-01 -1.7235444535601765e+00 -2.0478113222413561e+00 -5.7060459029434567e-02 1.3361980054628242e+00 3.8244624935293275e-01 9.5340093249410518e-01 5.1507589512029806e-01 -2.0830967636299139e-01 
        </Neuron>
        <Neuron NSynapses="17">
          -7.1914864576179727e-01 1.0878378041310213e-01 1.8759602767205243e+00 -1.4126914523711578e+00 3.6924164958137251e-01 -1.1150996734194767e+00 -4.7896784001691606e-01 1.7706258176319387e-01 -7.7773109017893263e-02 -1.1113598563723077e+00 7.1128745286488704e-01 1.6751047070642229e+00 5.6827922697914313e-01 -1.0247078879550371e-01 -7.3472328183142677e-01 -1.5501853766482534e+00 -1.5942329561561333e+00 
        </Neuron>
        <Neuron NSynapses="17">
          9.6109772694051543e-01 -5.2387682931564827e-01 -9.8977783554601262e-01 3.0443309327780088e-01 -1.8423734621712911e+00 -1.5885663677421196e+00 -1.5215414947542663e+00 9.0711241418437094e-01 -1.2124833422912566e+00 -1.7123857922796872e+00 -4.8636691182229747e-01 -9.4372502403706149e-01 -1.6523428650349805e+00 1.2371718959997904e+00 -1.5572332255747148e+00 -1.2544014501835088e+00 1.5517080790821336e+00 
        </Neuron>
        <Neuron NSynapses="17">
          6.2208735627136336e-01 3.0740259145266396e-01 4.0939350425670810e-02 1.3772756724907906e+00 1.8142027981849551e+00 9.4040356866078645e-01 -1.0721053634928304e+00 -5.0542652528685483e-01 -1.7966678982464135e+00 9.0029611657749886e-01 8.1076176043465586e-01 9.7118325570950167e-02 1.1045714391080288e+00 8.5451691995561263e-01 1.5817270941773378e+00 -1.1988934224747874e+00 1.6452984251457636e+00 
        </Neuron>
        <Neuron NSynapses="17">
          8.1975795932762618e-01 -1.9261422200048701e+00 -5.4821045472723436e-02 -9.2820222306774858e-01 8.7042187345554001e-01 6.8821830701053166e-01 9.5630895823136541e-01 1.8360018186194149e+00 -1.0116183936663162e-01 1.7452164474615766e+00 1.8430608469577656e+00 2.0160200825755023e-01 -9.6492850603140756e-01 1.6146260772028658e+00 -2.0868488617387335e+00 7.6467705125355256e-01 1.6648647673948929e+00 
        </Neuron>
        <Neuron NSynapses="17">
          -3.5565383951620022e-01 -7.9320940210136959e-01 1.0673800073749716e-01 -1.2760120719146495e+00 3.7166331168875705e-01 -2.2187828892525618e+00 1.4993998519532711e-01 -3.5796161046293667e-01 2.1204585501154565e+00 1.1541922878167794e+00 1.9140923354166111e+00 -5.6313817198322191e-01 -2.2751574748462688e-01 3.2306417684996441e-01 1.5880156485682360e+00 -1.5899069974279256e+00 -1.3972806040594621e+00 
        </Neuron>
        <Neuron NSynapses="17">
          -6.4323651762675671e-01 -1.4797415140256223e+00 -1.5286804289408138e+00 -1.8469237636824580e+00 5.7202962941206970e-01 -1.8515972903704198e-01 -1.7921624308235844e+00 -1.8865080241836629e+00 -3.3548687079609957e-01 1.8209653076484054e+00 1.8311944776964675e+00 1.3126942848908099e+00 -6.6776245163952419e-01 -1.7856294513879853e+00 6.7420324829718548e-02 -1.3557264412413605e+00 -1.5239596621148077e+00 
        </Neuron>
        <Neuron NSynapses="17">
          -6.4943999643257000e-01 5.4867174810452691e-03 -1.6303629012217553e+00 1.5110838792178372e+00 1.2829950242117791e+00 1.0710154932939679e+00 -6.2829169981382271e-01 -6.6458918750846452e-01 1.4985200763124473e+00 -5.4873835250175840e-01 3.7063835838886269e-02 1.6098343655622320e+00 1.4784882819199019e+00 -1.0111256247593334e+00 1.6584360889312333e+00 -2.0095190396666034e+00 1.7665957186227212e+00 
        </Neuron>
        <Neuron NSynapses="17">
          1.8940191407323697e+00 -1.8343041440950200e-01 -2.6297002100151184e-01 3.2069941020623405e-01 -5.5614357629955624e-01 7.0816202752586610e-01 2.3823631583797364e-01 -8.5113990148354257e-01 -1.4760322551389973e+00 6.2857321794415047e-03 1.5080872392086735e+00 3.8634280189371478e-01 -8.1722642808752111e-01 -1.7971536171191453e+00 1.7587972159303669e+00 2.6807079869823275e-01 -1.2177428537268837e+00 
        </Neuron>
        <Neuron NSynapses="17">
          -3.2963633633674078e-01 -1.0061208510761428e+00 1.3077742250126088e+00 1.3880018940580372e+00 -7.9833369107735408e-01 -1.8114962276511730e+00 1.6202152885603669e+00 1.1011533181737652e+00 4.8469262719363398e-01 1.7198877093997569e-01 -9.7030428079627595e-01 -1.2302096669179865e+00 1.0492732803573783e+00 3.7864350109680550e-01 2.3690949540050860e-01 -1.7972771046284011e+00 -1.9514223269123783e+00 
        </Neuron>
        <Neuron NSynapses="17">
          -2.0333844749825514e+00 -3.2179019799529923e-01 -1.5553723765590408e+00 2.3150393260839258e-01 -6.6027830635922669e-01 1.5459076994427239e+00 5.8642039252644362e-01 -1.7873851053594074e+00 1.0262072940362921e+00 1.9843473834545240e+00 1.0386539388870402e+00 -4.2628480795588242e-01 -9.6935156215762008e-01 2.1501834955846961e+00 -1.4707314604082566e+00 3.9669763589223062e-01 -1.4494645276217819e+00 
        </Neuron>
        <Neuron NSynapses="17">
          1.1403056053434530e+00 -1.1684427760950618e+00 3.6671655267334347e-02 -1.5265385018360891e-01 3.8615160903727258e-01 1.9899028627148271e-01 -6.6137516258541107e-01 9.3758343237580422e-01 3.8956354805287080e-01 8.1334187461918339e-01 9.6373296458663393e-01 -1.6846651710583580e+00 1.0937661082868393e+00 -1.8174328236453003e+00 1.1204207313409171e+00 8.0839349115088022e-01 7.6160768761887598e-01 
        </Neuron>
        <Neuron NSynapses="17">
          1.6306892570079745e+00 1.4573630080069147e+00 -1.9747277497299329e+00 -6.5896239715432714e-01 -9.5722894755373489e-01 9.5314650592431516e-01 -1.7781500387568219e-01 -1.0793999214640046e-01 -4.4674571072891545e-01 -4.8640746504170823e-01 -9.8291575435147638e-01 -3.6458332069703181e-01 -1.8125195971538952e+00 -2.8458592054400722e-01 2.8605038444536979e-01 -6.8817588839444099e-01 -1.3071066268004512e+00 
        </Neuron>
        <Neuron NSynapses="17">
          3.4013339105413448e-01 2.4411845753241138e-01 -4.8255656013343801e-01 -1.1662749930546283e+00 1.8066933701137056e+00 1.6807162016665969e-01 7.8804569385042889e-01 5.7225600769731821e-01 -9.8357676025280738e-01 -8.8643729281287464e-01 -7.8074663428169794e-02 -1.9374756681920058e+00 -9.5133231643649763e-01 -1.0795784748371842e+00 1.0764052099342845e+00 -2.1662825814847118e+00 1.3126247876911905e+00 
        </Neuron>
        <Neuron NSynapses="17">
          1.8160790422975019e+00 1.5951367108380030e+00 1.1921401309129216e+00 7.5333235776145180e-01 1.7879549081802165e-01 -1.3151115562204292e+00 -2.1320904878935814e+00 -1.0042551363071772e+00 -8.7704131190223311e-01 1.4055116636122131e+00 6.2228430795420635e-03 8.8319614302497004e-02 1.6160578807705652e+00 1.0656223521694699e+00 -1.2652066230349970e+00 5.4680044286211016e-01 -1.5830230834108370e+00 
        </Neuron>
        <Neuron NSynapses="17">
          8.4318349418619576e-01 -1.8320115077711152e+00 2.2083372801386511e-01 -4.1702396727949276e-01 8.9745278830565478e-01 -2.3270362878817403e+00 4.0566363026770313e-01 -1.7890103370919106e+00 1.9982411636355397e-02 1.2755917857404717e+00 -6.0329652502138487e-01 5.4216171437556582e-01 -1.7266061994042841e+00 1.0976226700026670e+00 -5.5333995917705048e-01 6.7887135627694950e-01 -1.7129487802794212e+00 
        </Neuron>
        <Neuron NSynapses="17">
          -9.8781547501109279e-01 1.9338219048583623e+00 -2.0629020228081587e+00 -1.1278099373853572e+00 -7.6350475926154182e-01 2.4008340203947052e+00 1.4286578459403172e+00 1.7071702924224512e+00 -1.9174311369918733e+00 7.6119462450411679e-01 4.6943751355120505e-01 2.8386495533503597e-01 -1.2315991705579021e+00 -1.3789981953474124e+00 2.9998008031686518e-01 -1.8558808027134355e-01 1.8299956519460385e+00 
        </Neuron>
      </Layer>
      <Layer Index="2" NNeurons="18">
        <Neuron NSynapses="1">
          -1.5948535862390038e-02 
        </Neuron>
        <Neuron NSynapses="1">
          -6.1592388407263427e-03 
        </Neuron>
        <Neuron NSynapses="1">
          -2.6998090324194143e-02 
        </Neuron>
        <Neuron NSynapses="1">
          5.7040953755079348e-03 
        </Neuron>
        <Neuron NSynapses="1">
          -2.9504079696975089e-03 
        </Neuron>
        <Neuron NSynapses="1">
          -5.6059081011300582e-01 
        </Neuron>
        <Neuron NSynapses="1">
          1.8625989883889197e-02 
        </Neuron>
        <Neuron NSynapses="1">
          1.0133348845139207e-02 
        </Neuron>
        <Neuron NSynapses="1">
          -2.3781968801791904e-02 
        </Neuron>
        <Neuron NSynapses="1">
          1.0000671742496990e-02 
        </Neuron>
        <Neuron NSynapses="1">
          1.2266989024269708e-03 
        </Neuron>
        <Neuron NSynapses="1">
          4.9581143958343293e-03 
        </Neuron>
        <Neuron NSynapses="1">
          -4.0801212322194448e-02 
        </Neuron>
        <Neuron NSynapses="1">
          -5.9872882702042092e-03 
        </Neuron>
        <Neuron NSynapses="1">
          8.3487220241301111e-04 
        </Neuron>
        <Neuron NSynapses="1">
          -3.0453720630705734e-02 
        </Neuron>
        <Neuron NSynapses="1">
          5.9951592099630191e-03 
        </Neuron>
        <Neuron NSynapses="1">
          2.6912308470246132e-01 
        </Neuron>
      </Layer>
      <Layer Index="3" NNeurons="1">
        <Neuron NSynapses="0"/>
      </Layer>
    </Layout>
  </Weights>
</MethodSetup>
