<?xml version="1.0"?>
<MethodSetup Method="MLP::XS_82_207_0_n2n">
  <GeneralInfo>
    <Info name="TMVA Release" value="4.2.1 [262657]"/>
    <Info name="ROOT Release" value="6.06/02 [394754]"/>
    <Info name="Creator" value="mouginot"/>
    <Info name="Date" value="Wed Feb 22 22:33:24 2017"/>
    <Info name="Host" value="Linux e300.chtc.wisc.edu 2.6.32-642.13.1.el6.x86_64 #1 SMP Tue Jan 10 11:22:50 CST 2017 x86_64 x86_64 x86_64 GNU/Linux"/>
    <Info name="Dir" value="/mnt/gluster/mouginot/TRU_MOX_XS/Generate"/>
    <Info name="Training events" value="198960"/>
    <Info name="TrainingTime" value="3.69136995e+04"/>
    <Info name="AnalysisType" value="Regression"/>
  </GeneralInfo>
  <Options>
    <Option name="NCycles" modified="Yes">20000</Option>
    <Option name="HiddenLayers" modified="Yes">N,N</Option>
    <Option name="NeuronType" modified="Yes">tanh</Option>
    <Option name="RandomSeed" modified="No">1</Option>
    <Option name="EstimatorType" modified="No">MSE</Option>
    <Option name="NeuronInputType" modified="No">sum</Option>
    <Option name="V" modified="Yes">False</Option>
    <Option name="VerbosityLevel" modified="No">Default</Option>
    <Option name="VarTransform" modified="Yes">Norm</Option>
    <Option name="H" modified="Yes">False</Option>
    <Option name="CreateMVAPdfs" modified="No">False</Option>
    <Option name="IgnoreNegWeightsInTraining" modified="No">False</Option>
    <Option name="TrainingMethod" modified="Yes">BFGS</Option>
    <Option name="LearningRate" modified="No">2.000000e-02</Option>
    <Option name="DecayRate" modified="No">1.000000e-02</Option>
    <Option name="TestRate" modified="Yes">6</Option>
    <Option name="EpochMonitoring" modified="No">False</Option>
    <Option name="Sampling" modified="Yes">3.000000e-01</Option>
    <Option name="SamplingEpoch" modified="Yes">8.000000e-01</Option>
    <Option name="SamplingImportance" modified="No">1.000000e+00</Option>
    <Option name="SamplingTraining" modified="No">True</Option>
    <Option name="SamplingTesting" modified="No">False</Option>
    <Option name="ResetStep" modified="No">50</Option>
    <Option name="Tau" modified="No">3.000000e+00</Option>
    <Option name="BPMode" modified="No">sequential</Option>
    <Option name="BatchSize" modified="No">-1</Option>
    <Option name="ConvergenceImprove" modified="Yes">1.000000e-06</Option>
    <Option name="ConvergenceTests" modified="Yes">15</Option>
    <Option name="UseRegulator" modified="Yes">False</Option>
    <Option name="UpdateLimit" modified="No">10000</Option>
    <Option name="CalculateErrors" modified="No">False</Option>
    <Option name="WeightRange" modified="No">1.000000e+00</Option>
  </Options>
  <Variables NVar="17">
    <Variable VarIndex="0" Expression="235U" Label="235U" Title="235U" Unit="IsotopicFraction" Internal="235U" Type="F" Min="1.71346517e-06" Max="1.92414057e-02"/>
    <Variable VarIndex="1" Expression="238U" Label="238U" Title="238U" Unit="IsotopicFraction" Internal="238U" Type="F" Min="7.85399854e-01" Max="9.68733251e-01"/>
    <Variable VarIndex="2" Expression="237Np" Label="237Np" Title="237Np" Unit="IsotopicFraction" Internal="237Np" Type="F" Min="1.63990119e-08" Max="1.97294168e-04"/>
    <Variable VarIndex="3" Expression="238Pu" Label="238Pu" Title="238Pu" Unit="IsotopicFraction" Internal="238Pu" Type="F" Min="4.69728775e-07" Max="3.96428024e-03"/>
    <Variable VarIndex="4" Expression="239Pu" Label="239Pu" Title="239Pu" Unit="IsotopicFraction" Internal="239Pu" Type="F" Min="2.15940680e-02" Max="1.89886928e-01"/>
    <Variable VarIndex="5" Expression="240Pu" Label="240Pu" Title="240Pu" Unit="IsotopicFraction" Internal="240Pu" Type="F" Min="1.54567579e-06" Max="3.95636074e-02"/>
    <Variable VarIndex="6" Expression="241Pu" Label="241Pu" Title="241Pu" Unit="IsotopicFraction" Internal="241Pu" Type="F" Min="3.22813172e-08" Max="7.04628276e-03"/>
    <Variable VarIndex="7" Expression="242Pu" Label="242Pu" Title="242Pu" Unit="IsotopicFraction" Internal="242Pu" Type="F" Min="1.58277174e-07" Max="1.98803633e-03"/>
    <Variable VarIndex="8" Expression="241Am" Label="241Am" Title="241Am" Unit="IsotopicFraction" Internal="241Am" Type="F" Min="3.13082671e-10" Max="7.48056592e-03"/>
    <Variable VarIndex="9" Expression="242Amm" Label="242Amm" Title="242Amm" Unit="IsotopicFraction" Internal="242Amm" Type="F" Min="1.34159976e-07" Max="1.16249369e-02"/>
    <Variable VarIndex="10" Expression="243Am" Label="243Am" Title="243Am" Unit="IsotopicFraction" Internal="243Am" Type="F" Min="2.04390229e-08" Max="1.99559363e-04"/>
    <Variable VarIndex="11" Expression="242Cm" Label="242Cm" Title="242Cm" Unit="IsotopicFraction" Internal="242Cm" Type="F" Min="1.48285639e-09" Max="1.93909858e-04"/>
    <Variable VarIndex="12" Expression="243Cm" Label="243Cm" Title="243Cm" Unit="IsotopicFraction" Internal="243Cm" Type="F" Min="9.09117492e-09" Max="1.97552916e-04"/>
    <Variable VarIndex="13" Expression="244Cm" Label="244Cm" Title="244Cm" Unit="IsotopicFraction" Internal="244Cm" Type="F" Min="2.46570231e-09" Max="1.97112051e-04"/>
    <Variable VarIndex="14" Expression="245Cm" Label="245Cm" Title="245Cm" Unit="IsotopicFraction" Internal="245Cm" Type="F" Min="9.47205692e-09" Max="1.97873349e-04"/>
    <Variable VarIndex="15" Expression="246Cm" Label="246Cm" Title="246Cm" Unit="IsotopicFraction" Internal="246Cm" Type="F" Min="2.33963915e-09" Max="1.98596885e-04"/>
    <Variable VarIndex="16" Expression="Time" Label="Time" Title="Time" Unit="seconds" Internal="Time" Type="F" Min="0.00000000e+00" Max="1.89328320e+08"/>
  </Variables>
  <Spectators NSpec="0"/>
  <Classes NClass="1">
    <Class Name="Regression" Index="0"/>
  </Classes>
  <Targets NTrgt="1">
    <Target TargetIndex="0" Expression="XS_82_207_0_n2n" Label="XS_82_207_0_n2n" Title="XS_82_207_0_n2n" Unit="" Internal="XS_82_207_0_n2n" Type="F" Min="2.81750411e-03" Max="4.53272229e-03"/>
  </Targets>
  <Transformations NTransformations="1">
    <Transform Name="Normalize">
      <Selection>
        <Input NInputs="18">
          <Input Type="Variable" Label="235U" Expression="235U"/>
          <Input Type="Variable" Label="238U" Expression="238U"/>
          <Input Type="Variable" Label="237Np" Expression="237Np"/>
          <Input Type="Variable" Label="238Pu" Expression="238Pu"/>
          <Input Type="Variable" Label="239Pu" Expression="239Pu"/>
          <Input Type="Variable" Label="240Pu" Expression="240Pu"/>
          <Input Type="Variable" Label="241Pu" Expression="241Pu"/>
          <Input Type="Variable" Label="242Pu" Expression="242Pu"/>
          <Input Type="Variable" Label="241Am" Expression="241Am"/>
          <Input Type="Variable" Label="242Amm" Expression="242Amm"/>
          <Input Type="Variable" Label="243Am" Expression="243Am"/>
          <Input Type="Variable" Label="242Cm" Expression="242Cm"/>
          <Input Type="Variable" Label="243Cm" Expression="243Cm"/>
          <Input Type="Variable" Label="244Cm" Expression="244Cm"/>
          <Input Type="Variable" Label="245Cm" Expression="245Cm"/>
          <Input Type="Variable" Label="246Cm" Expression="246Cm"/>
          <Input Type="Variable" Label="Time" Expression="Time"/>
          <Input Type="Target" Label="XS_82_207_0_n2n" Expression="XS_82_207_0_n2n"/>
        </Input>
        <Output NOutputs="18">
          <Output Type="Variable" Label="235U" Expression="235U"/>
          <Output Type="Variable" Label="238U" Expression="238U"/>
          <Output Type="Variable" Label="237Np" Expression="237Np"/>
          <Output Type="Variable" Label="238Pu" Expression="238Pu"/>
          <Output Type="Variable" Label="239Pu" Expression="239Pu"/>
          <Output Type="Variable" Label="240Pu" Expression="240Pu"/>
          <Output Type="Variable" Label="241Pu" Expression="241Pu"/>
          <Output Type="Variable" Label="242Pu" Expression="242Pu"/>
          <Output Type="Variable" Label="241Am" Expression="241Am"/>
          <Output Type="Variable" Label="242Amm" Expression="242Amm"/>
          <Output Type="Variable" Label="243Am" Expression="243Am"/>
          <Output Type="Variable" Label="242Cm" Expression="242Cm"/>
          <Output Type="Variable" Label="243Cm" Expression="243Cm"/>
          <Output Type="Variable" Label="244Cm" Expression="244Cm"/>
          <Output Type="Variable" Label="245Cm" Expression="245Cm"/>
          <Output Type="Variable" Label="246Cm" Expression="246Cm"/>
          <Output Type="Variable" Label="Time" Expression="Time"/>
          <Output Type="Target" Label="XS_82_207_0_n2n" Expression="XS_82_207_0_n2n"/>
        </Output>
      </Selection>
      <Class ClassIndex="0">
        <Ranges>
          <Range Index="0" Min="1.7134651670858148e-06" Max="1.9241405650973320e-02"/>
          <Range Index="1" Min="7.8539985418319702e-01" Max="9.6873325109481812e-01"/>
          <Range Index="2" Min="1.6399011926182538e-08" Max="1.9729416817426682e-04"/>
          <Range Index="3" Min="4.6972877498774324e-07" Max="3.9642802439630032e-03"/>
          <Range Index="4" Min="2.1594068035483360e-02" Max="1.8988692760467529e-01"/>
          <Range Index="5" Min="1.5456757864740212e-06" Max="3.9563607424497604e-02"/>
          <Range Index="6" Min="3.2281317174920332e-08" Max="7.0462827570736408e-03"/>
          <Range Index="7" Min="1.5827717447791656e-07" Max="1.9880363252013922e-03"/>
          <Range Index="8" Min="3.1308267089968922e-10" Max="7.4805659241974354e-03"/>
          <Range Index="9" Min="1.3415997557331139e-07" Max="1.1624936945736408e-02"/>
          <Range Index="10" Min="2.0439022918594674e-08" Max="1.9955936295446008e-04"/>
          <Range Index="11" Min="1.4828563932312022e-09" Max="1.9390985835343599e-04"/>
          <Range Index="12" Min="9.0911749239808159e-09" Max="1.9755291577894241e-04"/>
          <Range Index="13" Min="2.4657023089957875e-09" Max="1.9711205095518380e-04"/>
          <Range Index="14" Min="9.4720569165929192e-09" Max="1.9787334895227104e-04"/>
          <Range Index="15" Min="2.3396391490848600e-09" Max="1.9859688472934067e-04"/>
          <Range Index="16" Min="0.0000000000000000e+00" Max="1.8932832000000000e+08"/>
          <Range Index="17" Min="2.8175041079521179e-03" Max="4.5327222906053066e-03"/>
        </Ranges>
      </Class>
    </Transform>
  </Transformations>
  <MVAPdfs/>
  <Weights>
    <Layout NLayers="4">
      <Layer Index="0" NNeurons="18">
        <Neuron NSynapses="17">
          -9.2704401691530020e-02 6.6776444628815401e-01 2.3803848774142278e-01 1.4889907764787347e+00 -1.7201651006485319e+00 -1.5306684475107322e+00 -7.9850668974447958e-01 1.1776361553141255e+00 -1.6055794658345928e+00 -1.0772402323465522e+00 -1.6431471912346773e+00 -3.1344707737408661e-01 -1.1185760218553704e+00 -3.8070141850193318e-01 -3.8492658907788213e-01 3.4553233989157212e-01 -4.3460000508356972e-01 
        </Neuron>
        <Neuron NSynapses="17">
          1.5200535334705845e+00 1.1316995127366336e+00 2.1930202750439194e+00 -3.4169314988285682e-01 -5.7557839172120118e-01 2.2828803129682027e-01 5.8750397617904661e-02 -1.5059550229354175e+00 -4.6413286111630217e-02 1.5288566470412375e+00 -1.8907825193702068e+00 -2.4424321514152423e+00 -5.3485713110181715e-02 5.1250772227904784e-01 1.3397760572039705e+00 7.5210512664521056e-01 2.4399163877480853e-01 
        </Neuron>
        <Neuron NSynapses="17">
          3.2963611737488097e-01 -7.1687010483575606e-02 -9.0805551193873946e-01 1.7116433742343806e+00 -1.5568281501156460e+00 8.4335282322088234e-01 1.3288308570726159e+00 8.0212618701813743e-01 1.5108947873892105e+00 1.3253679610044959e+00 -2.8988251582370977e-01 -1.0807868905479463e+00 7.1172193101598058e-01 -1.7977706345494637e-01 1.4999114258508290e+00 1.0684101169101612e+00 1.4421689565046094e+00 
        </Neuron>
        <Neuron NSynapses="17">
          1.2982445296022822e+00 -1.2077598321654583e+00 1.3335565199115176e+00 -1.6306904987206656e+00 -1.2029172844169667e+00 -1.5069903231132384e+00 -1.4033315650495819e+00 1.2402541274661962e+00 1.8567990993692635e-01 -1.4670139771533173e+00 9.2369364930964293e-01 -4.8971022756801019e-01 6.8810109594887492e-01 1.2342356954238853e+00 -2.2995916649631742e-01 9.5697566468526354e-02 -7.9014539003590256e-01 
        </Neuron>
        <Neuron NSynapses="17">
          9.3569152632314512e-01 -1.3572871890616320e+00 -1.1493680002763202e+00 -1.3547494247045240e+00 4.4583601996408606e-01 1.4976807601449056e+00 1.4844650733529805e+00 -6.5104291570333969e-02 -2.2154596285947066e+00 -1.8348886704970659e+00 1.7821679805733857e+00 7.6306462210622350e-01 2.0798142528191113e+00 6.2007943148159295e-01 1.2399029263511152e+00 -1.6603748793207422e+00 -1.1567104469372480e+00 
        </Neuron>
        <Neuron NSynapses="17">
          9.2001513987632358e-02 5.5027645275756998e-01 -1.0147970256151799e+00 -1.4114893365924026e+00 -1.9069114626512096e+00 -3.2866087864802074e-01 3.3016125447248235e-01 1.6465062253904255e+00 -1.8429279897559936e+00 -8.3854289470110821e-01 2.1230079124214902e+00 -6.6089646976729033e-01 -1.4557696081579981e+00 -1.7727462823559947e+00 2.1070718049586404e-01 -1.8627236983500637e+00 -1.2628663335843191e+00 
        </Neuron>
        <Neuron NSynapses="17">
          7.1918359400349052e-01 1.3783199280112290e+00 -4.5925447636993888e-01 1.7862575700302428e+00 -1.3753119797363904e+00 -1.0800760081785457e+00 3.2919870980425031e-01 1.2398379667180170e-02 -2.3414147873519813e+00 4.1759684088057941e-01 6.8022931863029334e-01 1.3955655249318363e-01 -1.4528784998240294e+00 1.1622315247902846e+00 4.9500368744877332e-01 -6.2376114500209556e-01 1.1946485973059724e+00 
        </Neuron>
        <Neuron NSynapses="17">
          -8.7968847803620520e-01 -9.7350861760015917e-01 5.5686922220429980e-01 -2.4100319649888199e-01 1.3160125196825341e+00 6.0169499578337693e-01 3.8690602832208326e-01 -4.6941556320455063e-01 -2.0189301106229837e-01 -1.6521413809578189e+00 1.5930100007383021e+00 -1.7391077166788893e-01 -1.7794885982410094e+00 1.4688229581898057e-01 -1.2034124825629886e+00 9.3266128780959481e-03 1.3076686241427553e+00 
        </Neuron>
        <Neuron NSynapses="17">
          1.8018225278050581e+00 -1.5485248702198202e+00 9.5179827178255338e-01 1.7414762615485544e+00 9.7719668029810869e-01 -2.1673428703567693e-01 -8.9670387492469272e-01 -1.6823345962934225e-01 -1.9043331918901243e+00 1.6205630434062406e+00 1.8304762144968585e+00 -1.8356243970306088e-01 -5.4130638490090088e-01 -4.3748444027593103e-01 -1.0587514809045382e+00 5.5135611738096746e-01 2.1682677228774878e+00 
        </Neuron>
        <Neuron NSynapses="17">
          -5.8455407884203670e-01 -7.4967814609683237e-01 5.0634257116779335e-01 1.1766564832233253e+00 1.7159912658456344e-01 1.0206035379351299e+00 -1.1317729434063510e+00 1.4275960649492567e+00 1.2350898849463587e-01 5.1707753870748407e-01 1.4192202408246941e+00 1.1912085284465002e+00 -6.4938494445440176e-01 -7.6449157226346376e-01 1.6499558267468672e+00 -1.3114683161922944e+00 -3.4227470188528886e-01 
        </Neuron>
        <Neuron NSynapses="17">
          1.5031381544421241e+00 8.8378227018391098e-01 7.9480305678631499e-02 1.5096326002989346e+00 1.4305777056543896e+00 -1.7663085278705759e+00 8.4718820563994157e-01 -1.3507274845557365e-01 9.8848061217048977e-02 -1.5407388187817455e+00 -9.4105796133053110e-01 4.0934211364531847e-01 1.7334980307689440e+00 -1.8515592033780510e+00 -1.0975390343734985e-01 -6.0849757174978802e-01 2.8759366790875157e-01 
        </Neuron>
        <Neuron NSynapses="17">
          1.8372755758311843e+00 1.6283730213027500e-01 1.6229863947119610e-01 -9.0483155902452872e-01 7.0639587964018247e-01 1.3835710809071520e+00 1.2744286012941723e+00 -4.0028043903364646e-02 -1.1028744661351351e+00 -1.8031204154925746e+00 1.4597281715482724e+00 -4.2814515038631901e-02 -1.3437214289709141e+00 -1.1850390108227189e+00 3.0581238669554583e-01 2.7434428687400803e-01 -1.6169570917465899e+00 
        </Neuron>
        <Neuron NSynapses="17">
          1.8987291373843742e+00 1.2940172055848966e+00 -8.5384031613385439e-02 -4.8236736848674348e-02 1.4811653214238349e+00 8.4582208329494069e-01 6.9410873104594462e-01 -4.0562560201100567e-01 -2.1570824241740176e+00 -7.4350038471917634e-01 1.9948961799141707e+00 2.9532835351192765e-01 7.9825591581991806e-01 -2.4785320657298512e-01 1.6096471793833955e+00 -8.6483900143031511e-01 -8.6577977569577491e-01 
        </Neuron>
        <Neuron NSynapses="17">
          8.4399356079463000e-02 -1.1400263253912466e+00 9.5471659227235084e-01 1.7691762275518590e+00 -1.4764859849804803e+00 6.2315267172763533e-01 2.2569776502347682e-03 -1.7973832993061329e+00 -1.4199417441006708e+00 9.8106201242038016e-01 5.8658939770592811e-01 5.9776728451208916e-01 -1.1659595397925548e+00 1.1057392690491505e+00 -1.5432291931624296e+00 8.2196123691290757e-01 3.0293712782688537e-01 
        </Neuron>
        <Neuron NSynapses="17">
          -1.3698278637898165e+00 -1.0456282359273741e+00 -1.0658496524311705e+00 -2.3771332017490965e-01 -2.3414401337310182e+00 -1.5763504769728329e+00 -1.4220948514026057e+00 1.2700537073998341e-01 -1.3147873453350605e+00 -1.5339215836656077e+00 1.8596849831448476e+00 -6.0618608259960560e-01 1.1918486950092222e-01 -1.3922417012699684e+00 4.2241077199547789e-01 1.4030709135361163e+00 1.4764763683012823e+00 
        </Neuron>
        <Neuron NSynapses="17">
          -6.2940596432552620e-01 -9.1236176302927730e-01 -4.7730669032081841e-01 -8.9623324802546112e-01 -1.9823954490359477e+00 7.8955415071792490e-02 5.6345458785851743e-01 1.4063461287178047e+00 -5.9527598812765870e-01 3.6233986260095297e-01 1.5642049723996487e-03 -1.7900971833412624e+00 1.2996339020752861e+00 6.6470493234806216e-01 -8.1411839274642750e-01 -9.2386464990959805e-01 1.0884233695046097e+00 
        </Neuron>
        <Neuron NSynapses="17">
          1.1758918700843632e+00 6.9473516737963348e-01 -1.8033238375522229e-01 -3.2637204736386238e-01 1.2170337013756589e+00 6.8453477302811694e-01 7.4963001007202623e-01 -5.3553551489707396e-01 4.0500600572647572e-01 -3.4497254852994530e-01 -2.0096382977356329e+00 -8.0767436772698720e-01 -1.6189272006095878e+00 -1.5296048608824893e+00 -2.0503561602632168e+00 2.2452340775542976e+00 -1.3864539693615177e+00 
        </Neuron>
        <Neuron NSynapses="17">
          1.4948598422212991e+00 -2.3365027740944089e+00 -3.0054780377387230e-01 -1.3452873742368403e+00 1.1302020200381979e+00 1.6149202988229132e+00 -2.6763537319838622e+00 7.4876833593336500e-01 1.3062041744907482e+00 -2.1026594923925370e+00 -1.8359404460954738e+00 -1.1036919971646972e+00 -6.4038161811968486e-01 2.8696648547200296e+00 -5.8927519612811452e-01 -5.9041725582292393e-01 -1.8109937845522719e+00 
        </Neuron>
      </Layer>
      <Layer Index="1" NNeurons="18">
        <Neuron NSynapses="17">
          -9.0851565347542640e-01 -1.4157883744605502e+00 -7.3782728987901769e-01 -1.5254589335633224e+00 8.0682771935292785e-01 -2.0878013023042632e+00 -1.2816701527813388e+00 1.4354196418074803e+00 2.4938067655978896e-01 -3.4062008013897077e-01 2.0888707704470137e+00 -1.5962339458088501e+00 1.6296629738835096e+00 9.9184329344619682e-01 -1.1802102185417960e+00 -4.3183194406595532e-01 -1.4533303167370767e-01 
        </Neuron>
        <Neuron NSynapses="17">
          -9.3836751516135919e-01 6.0247135040903099e-01 1.3924633776121418e+00 1.4043348968007405e+00 1.8693211946470740e+00 -1.6550293322420810e+00 1.1782181509900007e+00 -2.1058781524940784e+00 4.9328347874111678e-01 -1.3331297769164641e+00 -2.0595324412430127e+00 1.0334836864310556e-01 9.4595527333520413e-01 3.5439587167229031e-01 1.0065983049638660e+00 4.9646379934456591e-01 -1.8668519532331113e-01 
        </Neuron>
        <Neuron NSynapses="17">
          -4.6546097989484708e-01 9.5342606735930036e-02 1.7862838196038340e+00 -1.4128493886894096e+00 8.1605160565524604e-01 -1.6547970099220168e+00 -2.6589206312881514e-01 1.5931822587056119e-01 -1.3878805226839769e-01 -1.5530238018427494e+00 7.0047486673394244e-01 1.7121742136991629e+00 3.8106597641735374e-01 -1.0955267405731688e-01 -6.5589721378353993e-01 -1.4122796871808478e+00 -1.5842139361360741e+00 
        </Neuron>
        <Neuron NSynapses="17">
          1.2124582496807750e+00 -4.3240565008306853e-01 -6.3367106189817002e-01 3.2412778143631599e-01 -1.7236217336502588e+00 -1.9104201303027657e+00 -1.8097304620993775e+00 6.8429982152054003e-01 -1.4096403976710676e+00 -1.5032561483909879e+00 -4.1763140606271337e-01 -8.7935281393839793e-01 -1.6863653743923948e+00 1.2615415000886772e+00 -1.5583109624989537e+00 -1.1203810094372066e+00 1.5238799977358313e+00 
        </Neuron>
        <Neuron NSynapses="17">
          4.6467613528694723e-01 2.8547088656083380e-01 2.2107818551651094e-02 1.3143308084037653e+00 1.7518788110407264e+00 1.3063114039429704e+00 -7.6721303815046615e-01 -4.1904783003232721e-01 -1.6461280881375515e+00 8.8168981360878662e-01 7.6384346276524095e-01 4.1844093721484156e-02 1.0582719410776258e+00 8.2523049378291014e-01 1.5830328527420314e+00 -1.2596602835196447e+00 1.6751773585274690e+00 
        </Neuron>
        <Neuron NSynapses="17">
          5.4602983909094971e-01 -1.9480780954599979e+00 -2.6810663160786171e-02 -9.7923883968825309e-01 8.4259904079530568e-01 9.2824751954259099e-01 1.0572012811609923e+00 1.6601932207146908e+00 -3.1593111662682000e-01 1.3557106769150136e+00 1.7605420369574498e+00 1.5005957313561097e-01 -5.9493032005136948e-01 1.5956136686160214e+00 -2.0843653495763026e+00 6.5391379183212006e-01 1.6924842792971724e+00 
        </Neuron>
        <Neuron NSynapses="17">
          -9.0161791142769412e-02 -4.7207518342841726e-01 -6.4780469998218612e-02 -1.2715794738658672e+00 6.1725088437486442e-01 -2.7050272223861378e+00 1.2852425492548661e-01 -5.4820227157939416e-01 1.6619862664311298e+00 1.3046090905890226e+00 1.9472263493735282e+00 -2.9462425662606123e-01 2.1966672455925672e-02 3.2432396552430698e-01 1.5678238942683709e+00 -1.5353320470614269e+00 -1.4313179854792111e+00 
        </Neuron>
        <Neuron NSynapses="17">
          -5.8289864534428570e-01 -1.5818320055368271e+00 -1.2459161205571923e+00 -1.8144977268233262e+00 1.5378190177727408e-01 1.4394504668404912e-01 -2.0568826715393578e+00 -1.8844735670647146e+00 -1.5916846838149246e-01 1.6235909277107194e+00 1.8443718864192444e+00 1.2815600900818815e+00 -4.1280665099710728e-01 -1.7602003389324892e+00 5.6211457421157504e-02 -1.1873396562408749e+00 -1.5099931247145868e+00 
        </Neuron>
        <Neuron NSynapses="17">
          -9.4001824938855116e-01 -1.0214299176064125e-01 -1.7209760259731628e+00 1.5002144331739506e+00 1.2123205895103777e+00 1.4407671977505836e+00 -4.5270763007644227e-01 -4.4417436588831882e-01 1.7045568968967910e+00 -7.4474141408727035e-01 -3.7190241914136078e-02 1.4695525062698793e+00 1.6551498057762608e+00 -1.0400167652381103e+00 1.6759449225009648e+00 -2.0366155804058450e+00 1.7638985501545981e+00 
        </Neuron>
        <Neuron NSynapses="17">
          2.0102097266872003e+00 -1.7825562791900620e-01 3.6984186555494619e-01 3.5419319460906573e-01 -6.0528701528718705e-02 5.2764346306540033e-01 5.9933722784852117e-01 -1.0261626551280747e+00 -1.7110807679113220e+00 -1.3008252542310161e-01 1.5127912817200051e+00 3.8621303747724972e-01 -1.0846481317122902e+00 -1.8108430056733906e+00 1.7874029637108009e+00 1.4706907839074176e-01 -1.1819148514243381e+00 
        </Neuron>
        <Neuron NSynapses="17">
          -2.4937816516570213e-01 -1.0941327238331193e+00 1.5630899686535049e+00 1.3657879658926408e+00 -9.7984823735365245e-01 -2.0494818255823128e+00 1.3436336250565113e+00 8.9327072625792425e-01 6.5840912794747353e-01 4.7043642762752869e-01 -8.5851092555099873e-01 -1.2837832482357689e+00 4.8757092606376884e-01 3.9697068180184997e-01 1.8373809429063462e-01 -1.9284155439905770e+00 -1.9824008870366567e+00 
        </Neuron>
        <Neuron NSynapses="17">
          -1.9429674343638526e+00 -4.2699810327559368e-01 -1.3677896672486101e+00 1.7051627165363256e-01 -8.3126079246164286e-01 1.9709523066779000e+00 2.4077319914814982e-01 -1.7841210576455866e+00 1.1923461104226307e+00 2.1751422057852237e+00 1.0944184533411132e+00 -5.2624874958054191e-01 -9.6411530247973920e-01 2.1746006160002809e+00 -1.4741660523583140e+00 2.0340096933784679e-01 -1.4598430293043609e+00 
        </Neuron>
        <Neuron NSynapses="17">
          6.2416589130774103e-01 -1.2735777663878360e+00 1.7608011425173892e-02 -1.4883035095979602e-01 1.1320989223296568e-01 6.4485627202603468e-01 -1.0100109121778140e+00 1.1525297679696749e+00 6.8880895162431299e-01 7.5147617872745776e-01 9.2578098574365819e-01 -1.8040329592133064e+00 7.8326878797830990e-01 -1.7901248288158482e+00 1.0769660638409713e+00 5.5948749238743101e-01 7.1063760979601154e-01 
        </Neuron>
        <Neuron NSynapses="17">
          1.4269120573954728e+00 1.4588457829718782e+00 -1.9593535014124319e+00 -6.6403890720117897e-01 -9.2030656875818628e-01 1.3079364719561124e+00 1.0331095383053296e-01 -1.5287699647580921e-01 -6.2757314718260615e-01 -8.2368875125934526e-01 -1.0441861542747644e+00 -3.9415476304948799e-01 -1.4838570607452031e+00 -2.8568594039663570e-01 2.9604085841254280e-01 -6.4019711251285616e-01 -1.2986454713065705e+00 
        </Neuron>
        <Neuron NSynapses="17">
          1.8077858176538747e-01 2.2359820395885768e-01 7.7538612993413428e-02 -1.1634549047979212e+00 1.4123717739893153e+00 3.9777384856501319e-01 5.1817958869548275e-01 6.2650701600285708e-01 -8.6612582231561941e-01 -4.7403918516296828e-01 -8.0871706667758909e-03 -2.0085836405120951e+00 -1.2290109448177946e+00 -1.0452758225306831e+00 1.0347977201966958e+00 -2.2866496313439297e+00 1.2593156135487815e+00 
        </Neuron>
        <Neuron NSynapses="17">
          2.0397348220255340e+00 1.6720163909921104e+00 6.6813602172645470e-01 7.7622502731962351e-01 5.8990827471195917e-01 -1.5892711843392888e+00 -1.7827148893184335e+00 -1.2084325420829365e+00 -9.7914763107111724e-01 1.0352543633231921e+00 -7.3748957101792995e-02 1.1386446792739691e-01 1.5297682958821330e+00 1.0422459379326601e+00 -1.2471476777581623e+00 6.7756378612795931e-01 -1.5642478380965310e+00 
        </Neuron>
        <Neuron NSynapses="17">
          9.8704419401683940e-01 -1.7951054916303499e+00 5.2963306500434593e-01 -3.6617772263445186e-01 8.9179048693167295e-01 -2.5279589526490640e+00 4.9117733663293459e-02 -1.9006197905702453e+00 -4.3736765636362314e-02 1.4701069149961881e+00 -5.0578376295488325e-01 5.7267707974935822e-01 -2.0821732452746273e+00 1.1145956876261496e+00 -5.6577997968988680e-01 6.7958363125241128e-01 -1.8148621481704399e+00 
        </Neuron>
        <Neuron NSynapses="17">
          -1.3387338920478205e+00 1.8127750169665018e+00 -2.4348724164064990e+00 -1.1295557769128444e+00 -8.9983386830833900e-01 2.7088350599340467e+00 1.6147131624012683e+00 1.9770082185217237e+00 -1.6865997011961258e+00 6.2718192459980671e-01 4.1422183873298296e-01 1.4018079932335026e-01 -1.0758534582367318e+00 -1.4166703791259705e+00 2.8828976196644879e-01 -2.9358674871552404e-01 1.8470209187390108e+00 
        </Neuron>
      </Layer>
      <Layer Index="2" NNeurons="18">
        <Neuron NSynapses="1">
          -1.9694740146933332e-02 
        </Neuron>
        <Neuron NSynapses="1">
          -2.9869835156430231e-02 
        </Neuron>
        <Neuron NSynapses="1">
          -4.3448069180330973e-01 
        </Neuron>
        <Neuron NSynapses="1">
          1.2777500218241004e-04 
        </Neuron>
        <Neuron NSynapses="1">
          -3.6168929582574956e-02 
        </Neuron>
        <Neuron NSynapses="1">
          9.7191489915583518e-02 
        </Neuron>
        <Neuron NSynapses="1">
          -8.2678944936961304e-03 
        </Neuron>
        <Neuron NSynapses="1">
          1.1827216605776299e-02 
        </Neuron>
        <Neuron NSynapses="1">
          2.6713000092943466e-02 
        </Neuron>
        <Neuron NSynapses="1">
          3.8208183989494555e-02 
        </Neuron>
        <Neuron NSynapses="1">
          8.4170669035208544e-03 
        </Neuron>
        <Neuron NSynapses="1">
          -1.6536864702188441e-02 
        </Neuron>
        <Neuron NSynapses="1">
          -4.2301022034537152e-02 
        </Neuron>
        <Neuron NSynapses="1">
          5.3507821458070818e-03 
        </Neuron>
        <Neuron NSynapses="1">
          -7.7560910338624117e-03 
        </Neuron>
        <Neuron NSynapses="1">
          -3.7742103948490459e-02 
        </Neuron>
        <Neuron NSynapses="1">
          -3.9344911553172386e-02 
        </Neuron>
        <Neuron NSynapses="1">
          -4.0664273184475502e-01 
        </Neuron>
      </Layer>
      <Layer Index="3" NNeurons="1">
        <Neuron NSynapses="0"/>
      </Layer>
    </Layout>
  </Weights>
</MethodSetup>
