<?xml version="1.0"?>
<MethodSetup Method="MLP::XS_16_34_0_n2n">
  <GeneralInfo>
    <Info name="TMVA Release" value="4.2.1 [262657]"/>
    <Info name="ROOT Release" value="6.06/02 [394754]"/>
    <Info name="Creator" value="mouginot"/>
    <Info name="Date" value="Thu Feb 23 07:29:32 2017"/>
    <Info name="Host" value="Linux e300.chtc.wisc.edu 2.6.32-642.13.1.el6.x86_64 #1 SMP Tue Jan 10 11:22:50 CST 2017 x86_64 x86_64 x86_64 GNU/Linux"/>
    <Info name="Dir" value="/mnt/gluster/mouginot/TRU_MOX_XS/Generate"/>
    <Info name="Training events" value="198960"/>
    <Info name="TrainingTime" value="7.46775275e+03"/>
    <Info name="AnalysisType" value="Regression"/>
  </GeneralInfo>
  <Options>
    <Option name="NCycles" modified="Yes">20000</Option>
    <Option name="HiddenLayers" modified="Yes">N,N</Option>
    <Option name="NeuronType" modified="Yes">tanh</Option>
    <Option name="RandomSeed" modified="No">1</Option>
    <Option name="EstimatorType" modified="No">MSE</Option>
    <Option name="NeuronInputType" modified="No">sum</Option>
    <Option name="V" modified="Yes">False</Option>
    <Option name="VerbosityLevel" modified="No">Default</Option>
    <Option name="VarTransform" modified="Yes">Norm</Option>
    <Option name="H" modified="Yes">False</Option>
    <Option name="CreateMVAPdfs" modified="No">False</Option>
    <Option name="IgnoreNegWeightsInTraining" modified="No">False</Option>
    <Option name="TrainingMethod" modified="Yes">BFGS</Option>
    <Option name="LearningRate" modified="No">2.000000e-02</Option>
    <Option name="DecayRate" modified="No">1.000000e-02</Option>
    <Option name="TestRate" modified="Yes">6</Option>
    <Option name="EpochMonitoring" modified="No">False</Option>
    <Option name="Sampling" modified="Yes">3.000000e-01</Option>
    <Option name="SamplingEpoch" modified="Yes">8.000000e-01</Option>
    <Option name="SamplingImportance" modified="No">1.000000e+00</Option>
    <Option name="SamplingTraining" modified="No">True</Option>
    <Option name="SamplingTesting" modified="No">False</Option>
    <Option name="ResetStep" modified="No">50</Option>
    <Option name="Tau" modified="No">3.000000e+00</Option>
    <Option name="BPMode" modified="No">sequential</Option>
    <Option name="BatchSize" modified="No">-1</Option>
    <Option name="ConvergenceImprove" modified="Yes">1.000000e-06</Option>
    <Option name="ConvergenceTests" modified="Yes">15</Option>
    <Option name="UseRegulator" modified="Yes">False</Option>
    <Option name="UpdateLimit" modified="No">10000</Option>
    <Option name="CalculateErrors" modified="No">False</Option>
    <Option name="WeightRange" modified="No">1.000000e+00</Option>
  </Options>
  <Variables NVar="17">
    <Variable VarIndex="0" Expression="235U" Label="235U" Title="235U" Unit="IsotopicFraction" Internal="235U" Type="F" Min="1.71346517e-06" Max="1.92414057e-02"/>
    <Variable VarIndex="1" Expression="238U" Label="238U" Title="238U" Unit="IsotopicFraction" Internal="238U" Type="F" Min="7.85399854e-01" Max="9.68733251e-01"/>
    <Variable VarIndex="2" Expression="237Np" Label="237Np" Title="237Np" Unit="IsotopicFraction" Internal="237Np" Type="F" Min="1.63990119e-08" Max="1.97294168e-04"/>
    <Variable VarIndex="3" Expression="238Pu" Label="238Pu" Title="238Pu" Unit="IsotopicFraction" Internal="238Pu" Type="F" Min="4.69728775e-07" Max="3.96428024e-03"/>
    <Variable VarIndex="4" Expression="239Pu" Label="239Pu" Title="239Pu" Unit="IsotopicFraction" Internal="239Pu" Type="F" Min="2.15940680e-02" Max="1.89886928e-01"/>
    <Variable VarIndex="5" Expression="240Pu" Label="240Pu" Title="240Pu" Unit="IsotopicFraction" Internal="240Pu" Type="F" Min="1.54567579e-06" Max="3.95636074e-02"/>
    <Variable VarIndex="6" Expression="241Pu" Label="241Pu" Title="241Pu" Unit="IsotopicFraction" Internal="241Pu" Type="F" Min="3.22813172e-08" Max="7.04628276e-03"/>
    <Variable VarIndex="7" Expression="242Pu" Label="242Pu" Title="242Pu" Unit="IsotopicFraction" Internal="242Pu" Type="F" Min="1.58277174e-07" Max="1.98803633e-03"/>
    <Variable VarIndex="8" Expression="241Am" Label="241Am" Title="241Am" Unit="IsotopicFraction" Internal="241Am" Type="F" Min="3.13082671e-10" Max="7.48056592e-03"/>
    <Variable VarIndex="9" Expression="242Amm" Label="242Amm" Title="242Amm" Unit="IsotopicFraction" Internal="242Amm" Type="F" Min="1.34159976e-07" Max="1.16249369e-02"/>
    <Variable VarIndex="10" Expression="243Am" Label="243Am" Title="243Am" Unit="IsotopicFraction" Internal="243Am" Type="F" Min="2.04390229e-08" Max="1.99559363e-04"/>
    <Variable VarIndex="11" Expression="242Cm" Label="242Cm" Title="242Cm" Unit="IsotopicFraction" Internal="242Cm" Type="F" Min="1.48285639e-09" Max="1.93909858e-04"/>
    <Variable VarIndex="12" Expression="243Cm" Label="243Cm" Title="243Cm" Unit="IsotopicFraction" Internal="243Cm" Type="F" Min="9.09117492e-09" Max="1.97552916e-04"/>
    <Variable VarIndex="13" Expression="244Cm" Label="244Cm" Title="244Cm" Unit="IsotopicFraction" Internal="244Cm" Type="F" Min="2.46570231e-09" Max="1.97112051e-04"/>
    <Variable VarIndex="14" Expression="245Cm" Label="245Cm" Title="245Cm" Unit="IsotopicFraction" Internal="245Cm" Type="F" Min="9.47205692e-09" Max="1.97873349e-04"/>
    <Variable VarIndex="15" Expression="246Cm" Label="246Cm" Title="246Cm" Unit="IsotopicFraction" Internal="246Cm" Type="F" Min="2.33963915e-09" Max="1.98596885e-04"/>
    <Variable VarIndex="16" Expression="Time" Label="Time" Title="Time" Unit="seconds" Internal="Time" Type="F" Min="0.00000000e+00" Max="1.89328320e+08"/>
  </Variables>
  <Spectators NSpec="0"/>
  <Classes NClass="1">
    <Class Name="Regression" Index="0"/>
  </Classes>
  <Targets NTrgt="1">
    <Target TargetIndex="0" Expression="XS_16_34_0_n2n" Label="XS_16_34_0_n2n" Title="XS_16_34_0_n2n" Unit="" Internal="XS_16_34_0_n2n" Type="F" Min="9.26547909e-06" Max="5.75970771e-05"/>
  </Targets>
  <Transformations NTransformations="1">
    <Transform Name="Normalize">
      <Selection>
        <Input NInputs="18">
          <Input Type="Variable" Label="235U" Expression="235U"/>
          <Input Type="Variable" Label="238U" Expression="238U"/>
          <Input Type="Variable" Label="237Np" Expression="237Np"/>
          <Input Type="Variable" Label="238Pu" Expression="238Pu"/>
          <Input Type="Variable" Label="239Pu" Expression="239Pu"/>
          <Input Type="Variable" Label="240Pu" Expression="240Pu"/>
          <Input Type="Variable" Label="241Pu" Expression="241Pu"/>
          <Input Type="Variable" Label="242Pu" Expression="242Pu"/>
          <Input Type="Variable" Label="241Am" Expression="241Am"/>
          <Input Type="Variable" Label="242Amm" Expression="242Amm"/>
          <Input Type="Variable" Label="243Am" Expression="243Am"/>
          <Input Type="Variable" Label="242Cm" Expression="242Cm"/>
          <Input Type="Variable" Label="243Cm" Expression="243Cm"/>
          <Input Type="Variable" Label="244Cm" Expression="244Cm"/>
          <Input Type="Variable" Label="245Cm" Expression="245Cm"/>
          <Input Type="Variable" Label="246Cm" Expression="246Cm"/>
          <Input Type="Variable" Label="Time" Expression="Time"/>
          <Input Type="Target" Label="XS_16_34_0_n2n" Expression="XS_16_34_0_n2n"/>
        </Input>
        <Output NOutputs="18">
          <Output Type="Variable" Label="235U" Expression="235U"/>
          <Output Type="Variable" Label="238U" Expression="238U"/>
          <Output Type="Variable" Label="237Np" Expression="237Np"/>
          <Output Type="Variable" Label="238Pu" Expression="238Pu"/>
          <Output Type="Variable" Label="239Pu" Expression="239Pu"/>
          <Output Type="Variable" Label="240Pu" Expression="240Pu"/>
          <Output Type="Variable" Label="241Pu" Expression="241Pu"/>
          <Output Type="Variable" Label="242Pu" Expression="242Pu"/>
          <Output Type="Variable" Label="241Am" Expression="241Am"/>
          <Output Type="Variable" Label="242Amm" Expression="242Amm"/>
          <Output Type="Variable" Label="243Am" Expression="243Am"/>
          <Output Type="Variable" Label="242Cm" Expression="242Cm"/>
          <Output Type="Variable" Label="243Cm" Expression="243Cm"/>
          <Output Type="Variable" Label="244Cm" Expression="244Cm"/>
          <Output Type="Variable" Label="245Cm" Expression="245Cm"/>
          <Output Type="Variable" Label="246Cm" Expression="246Cm"/>
          <Output Type="Variable" Label="Time" Expression="Time"/>
          <Output Type="Target" Label="XS_16_34_0_n2n" Expression="XS_16_34_0_n2n"/>
        </Output>
      </Selection>
      <Class ClassIndex="0">
        <Ranges>
          <Range Index="0" Min="1.7134651670858148e-06" Max="1.9241405650973320e-02"/>
          <Range Index="1" Min="7.8539985418319702e-01" Max="9.6873325109481812e-01"/>
          <Range Index="2" Min="1.6399011926182538e-08" Max="1.9729416817426682e-04"/>
          <Range Index="3" Min="4.6972877498774324e-07" Max="3.9642802439630032e-03"/>
          <Range Index="4" Min="2.1594068035483360e-02" Max="1.8988692760467529e-01"/>
          <Range Index="5" Min="1.5456757864740212e-06" Max="3.9563607424497604e-02"/>
          <Range Index="6" Min="3.2281317174920332e-08" Max="7.0462827570736408e-03"/>
          <Range Index="7" Min="1.5827717447791656e-07" Max="1.9880363252013922e-03"/>
          <Range Index="8" Min="3.1308267089968922e-10" Max="7.4805659241974354e-03"/>
          <Range Index="9" Min="1.3415997557331139e-07" Max="1.1624936945736408e-02"/>
          <Range Index="10" Min="2.0439022918594674e-08" Max="1.9955936295446008e-04"/>
          <Range Index="11" Min="1.4828563932312022e-09" Max="1.9390985835343599e-04"/>
          <Range Index="12" Min="9.0911749239808159e-09" Max="1.9755291577894241e-04"/>
          <Range Index="13" Min="2.4657023089957875e-09" Max="1.9711205095518380e-04"/>
          <Range Index="14" Min="9.4720569165929192e-09" Max="1.9787334895227104e-04"/>
          <Range Index="15" Min="2.3396391490848600e-09" Max="1.9859688472934067e-04"/>
          <Range Index="16" Min="0.0000000000000000e+00" Max="1.8932832000000000e+08"/>
          <Range Index="17" Min="9.2654790933011100e-06" Max="5.7597077102400362e-05"/>
        </Ranges>
      </Class>
    </Transform>
  </Transformations>
  <MVAPdfs/>
  <Weights>
    <Layout NLayers="4">
      <Layer Index="0" NNeurons="18">
        <Neuron NSynapses="17">
          -4.0150736849513791e-01 1.8506575388665536e+00 8.7143763592585499e-01 1.7028588251771004e+00 -1.8974591428256271e+00 -1.4177105787014106e+00 -7.8227921931625954e-01 1.8793226044733242e+00 -1.3950929282958611e+00 -1.1350616222244925e+00 -1.5495216105469305e+00 -5.7846579569473511e-01 -1.2207255914133890e+00 -4.2705917516811798e-01 -4.3461957482179564e-01 4.5382448309791784e-01 -4.8497024837043867e-01 
        </Neuron>
        <Neuron NSynapses="17">
          1.7591013840136991e+00 4.1104104340022274e-01 1.6680026745270105e+00 -2.0232823568706643e-01 -7.9490414562012901e-01 4.1783547458463660e-01 1.2481473674529781e-01 -1.0634102992161625e+00 -3.6628080484154996e-01 1.4375341696466892e+00 -9.4423964301526964e-01 -1.8354154905672257e+00 1.3150454931003633e-01 6.2689413585504217e-01 1.2941253181102135e+00 1.0583236129871369e-01 1.5161593506262805e-01 
        </Neuron>
        <Neuron NSynapses="17">
          2.9157197823489578e-01 -2.5506454404464135e-01 -1.4559756231392766e+00 1.6564464292874042e+00 -1.4736353680712926e+00 1.1232168353677134e+00 1.3456305801356709e+00 9.0797732858271574e-01 1.8303492088159090e+00 1.1605708705243052e+00 -7.2038624046963462e-01 -1.4169565468295247e+00 6.8696028824593169e-01 -7.2787402359099460e-02 1.5878332408575353e+00 1.3342711933881706e+00 1.5068336304191607e+00 
        </Neuron>
        <Neuron NSynapses="17">
          1.4710309916034101e+00 -1.5022851272924862e+00 1.4618405974187401e+00 -1.7022060342714653e+00 -1.1021742018747984e+00 -1.2688140628276459e+00 -1.4151114298418310e+00 1.4202371665654303e+00 5.5020111620358236e-01 -1.7803658840706718e+00 4.1646755073865782e-01 -5.5166243385302172e-01 6.0701045304981671e-01 1.5227558311849514e+00 -1.4933152135406128e-01 2.3263702203374106e-01 -8.8216993492016105e-01 
        </Neuron>
        <Neuron NSynapses="17">
          8.0690558600956297e-01 -1.0151773710204377e+00 -9.3009694784115227e-01 -1.5173399826439133e+00 6.6478543484441488e-01 1.3817009313249362e+00 1.4055150620456933e+00 -4.2936149355934672e-01 -1.8473218109865592e+00 -1.8386419216645473e+00 9.0314741672383581e-01 4.8855909863516850e-01 1.9363372903145242e+00 6.1751507963586183e-01 1.2876578823470135e+00 -1.1122195831802348e+00 -1.0945356554414156e+00 
        </Neuron>
        <Neuron NSynapses="17">
          -3.9738930401407066e-02 1.2388664508951461e+00 -1.0115137117143167e+00 -1.5172339477250709e+00 -1.9490031247681419e+00 -1.6255672220710016e-01 2.2488017917454364e-01 1.6707211292590176e+00 -1.5755351983380372e+00 -9.5098506686903728e-01 1.6303503312909371e+00 -9.1657871841240224e-01 -1.6299814241003550e+00 -1.7154268745518282e+00 2.3440537917948237e-01 -1.8614797137506984e+00 -1.3463632052755341e+00 
        </Neuron>
        <Neuron NSynapses="17">
          8.9814562695440747e-01 1.8764209710313966e+00 -9.7286162821439470e-01 1.7019922042886493e+00 -1.3437178931376823e+00 -8.4954815176365273e-01 3.0217014268481479e-01 3.1964624787860485e-01 -1.9195288325806419e+00 4.4970292247624055e-02 3.8490284691013038e-01 3.6272158126655313e-01 -1.5702725708241378e+00 1.4798171920445131e+00 4.3412999319972562e-01 -7.3812682911539318e-01 1.1056166062242061e+00 
        </Neuron>
        <Neuron NSynapses="17">
          -8.7649369916074382e-01 -1.4556840006650993e+00 2.3211597096787448e-01 -2.8941595228293099e-01 1.4787131821834851e+00 8.1296741275361173e-01 2.9941339076069884e-01 -3.7396165552064159e-01 1.0710219598601897e-01 -1.8914798339910146e+00 1.0700356176514745e+00 8.5709404389738134e-02 -1.8659088457253907e+00 3.8875295279490651e-01 -1.2395026098808894e+00 1.1625540823200278e-01 1.2862887665370062e+00 
        </Neuron>
        <Neuron NSynapses="17">
          2.0267312739241086e+00 -1.7277755432095834e+00 5.7600790089682818e-01 1.6480301926746632e+00 1.0902008655778905e+00 1.0436832929369357e-01 -9.7811377919015774e-01 -6.5539359592133931e-02 -1.5132510982699907e+00 1.3168370552621451e+00 1.3306577857289825e+00 -3.8138543270480052e-01 -6.0416429333919730e-01 -1.7590426104686049e-01 -1.2342973391059850e+00 7.7176775460235203e-01 2.0424882648330684e+00 
        </Neuron>
        <Neuron NSynapses="17">
          -4.1710121549611701e-01 -7.6318125576254281e-01 3.3610580530129858e-01 1.0985069613761165e+00 3.1096234561114738e-01 1.1025700551862470e+00 -1.0926747656913731e+00 1.5005424588569087e+00 5.8379177236777291e-01 3.5480481381865581e-01 6.2971213456004249e-01 1.0094642666446954e+00 -8.0957109096822488e-01 -6.6014626564654155e-01 1.4910660226810375e+00 -1.1790627193255849e+00 -4.4396340689085267e-01 
        </Neuron>
        <Neuron NSynapses="17">
          1.5487063491019295e+00 8.6865895876317489e-01 -3.4453716421035335e-01 1.4141904075183116e+00 1.5576510884720030e+00 -1.8019074299413760e+00 8.0859584038181831e-01 -2.8292479794322211e-02 4.0435656631699152e-01 -1.8206807469172228e+00 -1.4852077894927731e+00 1.0715926013739143e+00 1.6114708192011991e+00 -1.7731180771461352e+00 2.7415663846958961e-02 -7.3331924053292008e-01 2.9047726430256871e-01 
        </Neuron>
        <Neuron NSynapses="17">
          1.8626990476645731e+00 -3.0629745281443016e-01 -3.4933174414750306e-01 -9.9955032023354295e-01 7.3551041010611806e-01 1.6778927430847548e+00 1.3235369284887661e+00 3.5343036902672770e-01 -8.0017366206163032e-01 -2.1275389391806998e+00 1.0889853369129965e+00 5.4708091943039772e-01 -1.4459209156706792e+00 -9.5333793044119963e-01 3.6978684565291392e-01 2.1140644675691969e-01 -1.7058328438500918e+00 
        </Neuron>
        <Neuron NSynapses="17">
          1.7445554541917223e+00 9.4328718157913338e-01 -3.9016643764217968e-01 -4.4945830136568748e-02 1.3077012413838314e+00 1.0721567112354429e+00 8.5671588056997328e-01 -5.1099728869923568e-02 -1.8984439088033367e+00 -1.0668278646693483e+00 1.7290108019168038e+00 1.3529216042500654e+00 7.0584735283235933e-01 -7.5283878874854868e-02 1.9635245064905500e+00 -1.4398266397048032e+00 -9.4628316761183318e-01 
        </Neuron>
        <Neuron NSynapses="17">
          2.9532956403459303e-02 -1.3877736989699687e+00 1.0209724978523216e+00 1.7549596161396572e+00 -1.4574952489878223e+00 8.9131868098677192e-01 8.5087232542192817e-02 -1.8656667470074892e+00 -1.1369630642495558e+00 8.6972569726949067e-01 8.0427618680749463e-02 8.8830490424029684e-01 -1.2733488890947899e+00 1.3997088280973262e+00 -1.5912967165658669e+00 8.1400261988671818e-01 2.1934694315106792e-01 
        </Neuron>
        <Neuron NSynapses="17">
          -1.3287410402696398e+00 -1.2977438510207076e+00 -1.8633562840528568e+00 -3.9124558141984084e-01 -2.1377977824766154e+00 -1.5062872906288209e+00 -1.5496341322402063e+00 1.7751920484990988e-01 -1.0372826083843452e+00 -1.7242826091178118e+00 1.4029359959839307e+00 -6.8678037562014560e-01 2.8558047259689041e-02 -1.2289732815497278e+00 3.8710756166838695e-01 1.7643773682306325e+00 1.4287867846521276e+00 
        </Neuron>
        <Neuron NSynapses="17">
          -6.8648307983870771e-01 -1.3242284778551123e+00 -9.6953772578416664e-01 -8.5775178468004654e-01 -1.9041720085337135e+00 3.4831269380145791e-01 5.7196025838809694e-01 1.8737389712264008e+00 -2.8788217259484200e-01 7.9446328193805579e-02 -4.9503777698653206e-01 -1.9418731522840973e+00 1.2264461135729199e+00 9.2796902506153922e-01 -7.3341071680341674e-01 -9.5589696612483399e-01 1.0558335502684888e+00 
        </Neuron>
        <Neuron NSynapses="17">
          1.1597953134254286e+00 7.2089470231222985e-01 -3.0057096215930873e-01 -3.1598983956438087e-01 1.2277987559352810e+00 8.5752634479341283e-01 7.3510272807639820e-01 -3.9760158263579365e-01 2.1686822412314066e-01 -2.6649724031895711e-01 -1.3752034364621502e+00 -6.4633734237507667e-01 -1.5932846675419310e+00 -1.5186945395775822e+00 -1.7052917253408093e+00 2.1846269470281627e+00 -1.5026964579037876e+00 
        </Neuron>
        <Neuron NSynapses="17">
          1.3005517685571049e+00 -1.9174719260693820e+00 6.4998473300854243e-01 -1.3199773480608150e+00 1.1822211929169775e+00 1.0671265717073863e+00 -2.5983661301905046e+00 1.0651184593814383e-01 8.6858806492205820e-01 -1.5659141170253932e+00 -1.7056061301516658e+00 -1.7502632099245901e+00 -5.8569094401785360e-01 2.4030865993044115e+00 -5.5322219736739264e-01 -1.9238702824102066e-01 -1.6261265047446556e+00 
        </Neuron>
      </Layer>
      <Layer Index="1" NNeurons="18">
        <Neuron NSynapses="17">
          -1.2398002516624491e+00 -1.6981388178647785e+00 -8.5366133472306627e-01 -1.5071496044299226e+00 8.4556702024549202e-01 -1.6156531723134091e+00 -1.1193014070833325e+00 1.6568716318399557e+00 4.8802869709214353e-01 -5.4607553048134072e-01 2.0298326600884029e+00 -1.8114929061192557e+00 1.4733819490768603e+00 9.6911028772681573e-01 -1.1563809490760031e+00 -6.2838487815031530e-01 -1.5768595452647594e-01 
        </Neuron>
        <Neuron NSynapses="17">
          -1.0907611355920315e+00 4.7591354049244500e-01 2.0038677527069186e+00 1.3316377612135659e+00 1.6831909916102370e+00 -1.3698574396514425e+00 8.8943370727943771e-01 -2.1078161648287645e+00 5.7684878053056077e-01 -1.7159846778583869e+00 -2.0675463787107917e+00 -4.4277850015372308e-02 1.2715980423465987e+00 3.7225178094534772e-01 9.5030621725686515e-01 3.4119884413302526e-01 -2.0702169539571402e-01 
        </Neuron>
        <Neuron NSynapses="17">
          -6.3372197947352071e-01 1.2201689220124248e-01 1.9135554663795959e+00 -1.4233688065726242e+00 3.7463280352672823e-01 -1.1638426810934317e+00 -6.0772430407399647e-01 1.8116814821630703e-01 -4.6312030169761632e-02 -1.1121717542646048e+00 7.1110788852476958e-01 1.6732110384207073e+00 6.8506567519866401e-01 -9.8828880965400753e-02 -7.2577887880212832e-01 -1.5437940412929159e+00 -1.5885897110823866e+00 
        </Neuron>
        <Neuron NSynapses="17">
          9.2233924535580492e-01 -5.2287925638396882e-01 -1.0251157619806945e+00 3.0672824839151480e-01 -1.8483160900724769e+00 -1.4684144424392380e+00 -1.4643478636011975e+00 9.0058101610331587e-01 -1.2164067527973614e+00 -1.7102052354880506e+00 -4.8584353805824398e-01 -9.5246725477187766e-01 -1.6258982702923743e+00 1.2420737278870237e+00 -1.5603974004654166e+00 -1.2100013208392169e+00 1.5457383364411355e+00 
        </Neuron>
        <Neuron NSynapses="17">
          6.7733440911133180e-01 3.1064521848812715e-01 6.2500815859174205e-02 1.3737794915117070e+00 1.8136772386935016e+00 8.3966754043964531e-01 -1.1237396336012098e+00 -5.0837899465564595e-01 -1.8013267055196227e+00 9.0389043632407007e-01 8.0884930318027404e-01 9.8971513275680573e-02 1.0846890989228626e+00 8.5376803489404662e-01 1.5811693834479232e+00 -1.3054854132085940e+00 1.6399848765775169e+00 
        </Neuron>
        <Neuron NSynapses="17">
          7.6136927354085793e-01 -1.9357361520460992e+00 -2.2527926414940844e-01 -9.2256659482198511e-01 8.6776238478558321e-01 5.8965066818884826e-01 1.0667192983057359e+00 1.8443964993260353e+00 -1.7604795276331930e-01 1.7432751329080340e+00 1.8382945675768003e+00 2.0457079005040665e-01 -1.1260422556966800e+00 1.6133562154615524e+00 -2.0889004819561090e+00 6.6828174973641774e-01 1.6627377069547933e+00 
        </Neuron>
        <Neuron NSynapses="17">
          -4.3138492567143255e-01 -8.1345145709144173e-01 3.2650243202722445e-02 -1.2615829294275376e+00 3.6080345866037172e-01 -2.0716510508168153e+00 3.0164020388239460e-01 -3.6151711818659310e-01 2.0026611126171230e+00 1.1563223359861152e+00 1.9053903905520673e+00 -5.5105996967506665e-01 -3.3602407251764344e-01 3.0694640501440207e-01 1.5742123758046416e+00 -1.6978622231625145e+00 -1.4014788713871966e+00 
        </Neuron>
        <Neuron NSynapses="17">
          -6.9466678777931545e-01 -1.4910887763413057e+00 -1.5771350323483440e+00 -1.8471602310888446e+00 5.6810559002856409e-01 -2.8406372494890691e-01 -1.7053073578053375e+00 -1.8875909726328270e+00 -3.0770790985301882e-01 1.8193505024150805e+00 1.8306173307372222e+00 1.3063277235632735e+00 -5.9691346525990063e-01 -1.7822852728413558e+00 7.2026496229038547e-02 -1.2928465769371709e+00 -1.5246753937570452e+00 
        </Neuron>
        <Neuron NSynapses="17">
          -5.8646767290213953e-01 1.4778488730515829e-02 -1.5662198371840161e+00 1.4954134848544789e+00 1.2874785083115725e+00 8.8309485642022645e-01 -7.3088468858078048e-01 -6.5914805762178674e-01 1.5421440002230302e+00 -5.4883201150437211e-01 3.4379799673005029e-02 1.6061173197672809e+00 1.5409024103736053e+00 -1.0119157855486045e+00 1.6685232004996524e+00 -2.0065360980064346e+00 1.7744931514633566e+00 
        </Neuron>
        <Neuron NSynapses="17">
          1.9710087125510405e+00 -1.6815038064277502e-01 -1.6209955730102546e-01 3.1600603141736539e-01 -5.4657951045847819e-01 7.8045432991142294e-01 1.4759925028926427e-01 -8.7301303327790336e-01 -1.5106419527264083e+00 3.7395561351511943e-03 1.4976157733599249e+00 3.8563332567498160e-01 -7.8142452607401836e-01 -1.7992614353977996e+00 1.7610263821472374e+00 3.4551230713301762e-01 -1.2143071823383309e+00 
        </Neuron>
        <Neuron NSynapses="17">
          -3.9243800940099094e-01 -1.0061349198706018e+00 1.2584594114648320e+00 1.3924428077647364e+00 -8.0100399908475661e-01 -1.7075498809649294e+00 1.7053614036854801e+00 1.0942064368989213e+00 4.9077422721906527e-01 1.6841883068082669e-01 -9.5727596591306696e-01 -1.2380609232017716e+00 1.0674081409303446e+00 3.8661390231475240e-01 2.3165356319738456e-01 -1.7707612337748446e+00 -1.9595162285100798e+00 
        </Neuron>
        <Neuron NSynapses="17">
          -2.0489524705452662e+00 -3.1722207315080642e-01 -1.5985249089487783e+00 2.1397151540744830e-01 -6.6009312199025338e-01 1.2836512933609365e+00 6.0430503972531358e-01 -1.7897428767634520e+00 1.1190672864783378e+00 1.9735045591639648e+00 1.0450340860646745e+00 -4.4479525541315618e-01 -8.7736510144660707e-01 2.1715519885468302e+00 -1.4646123040760592e+00 5.1542020028920221e-01 -1.4531759772237165e+00 
        </Neuron>
        <Neuron NSynapses="17">
          1.1034678238575746e+00 -1.1630634208740456e+00 9.6679529615044113e-02 -1.5270449205487124e-01 3.8137752564403121e-01 -1.9498684933190593e-02 -6.9893666712548319e-01 9.4876421321445337e-01 4.4883760748796653e-01 8.2065974498320049e-01 9.6240409414201300e-01 -1.6881031376880609e+00 1.2342529324596356e+00 -1.8081781497136651e+00 1.1213036599518222e+00 8.8825711283375985e-01 7.6545703937102771e-01 
        </Neuron>
        <Neuron NSynapses="17">
          1.5727097906414005e+00 1.4600914100524616e+00 -2.0033963212109591e+00 -6.6054385810723792e-01 -9.6840576803207890e-01 7.4442735333204735e-01 -1.5127185579671948e-01 -1.0797837243137633e-01 -5.5722805226545835e-01 -4.8444419198303484e-01 -9.8472755619731556e-01 -3.5359076354676922e-01 -1.8547020616603982e+00 -2.9196829365837634e-01 2.9245926917187626e-01 -7.3551047709565065e-01 -1.2980774632772545e+00 
        </Neuron>
        <Neuron NSynapses="17">
          2.8012006399273504e-01 2.4832538957473485e-01 -4.3272880058861574e-01 -1.1726159398004705e+00 1.8219155010275248e+00 -1.3201773726212437e-01 8.1475558864564301e-01 5.8151789921214025e-01 -9.5820333496629928e-01 -8.9332078113519553e-01 -7.3813999717136980e-02 -1.9422494353529529e+00 -8.5139363939055701e-01 -1.0711677742694570e+00 1.0716038189086927e+00 -2.0893694966323495e+00 1.3105411178791249e+00 
        </Neuron>
        <Neuron NSynapses="17">
          1.8927128856727955e+00 1.6054162438234163e+00 1.1605012027797985e+00 7.5487594365464294e-01 1.6874199402342005e-01 -8.2476414520921171e-01 -2.1679862898615223e+00 -1.0041686515064061e+00 -8.8279261418896326e-01 1.4166748615666700e+00 -1.0719278166972442e-03 8.7636284893762711e-02 1.5458487230489117e+00 1.0599538196404408e+00 -1.2663085868246726e+00 4.2022966740426532e-01 -1.5771430809544120e+00 
        </Neuron>
        <Neuron NSynapses="17">
          7.9237275234330373e-01 -1.8284498854194167e+00 1.7024105131792122e-01 -4.1356736954328110e-01 8.8664231920766934e-01 -2.1156622277555619e+00 4.6880405411795745e-01 -1.7784034202071481e+00 1.8948546921814885e-02 1.2821429766084598e+00 -6.0652088621003453e-01 5.3848064200543744e-01 -1.7109259818849967e+00 1.1007127183689913e+00 -5.5318043928858585e-01 7.3862071589024381e-01 -1.7127533055278370e+00 
        </Neuron>
        <Neuron NSynapses="17">
          -9.5133419484965076e-01 1.9353901365583766e+00 -2.0172049159079521e+00 -1.1336194998879325e+00 -7.6008646973943672e-01 2.1582655750639090e+00 1.3422719136127577e+00 1.7212294557015535e+00 -1.9145831860373357e+00 7.6336739318348446e-01 4.6948118615035284e-01 2.8694833358402788e-01 -1.2517867849928246e+00 -1.3870666308528119e+00 3.0539598836673726e-01 -2.1565809200916969e-01 1.8369207204311440e+00 
        </Neuron>
      </Layer>
      <Layer Index="2" NNeurons="18">
        <Neuron NSynapses="1">
          -1.8488406524852764e-02 
        </Neuron>
        <Neuron NSynapses="1">
          -5.0650454235982639e-03 
        </Neuron>
        <Neuron NSynapses="1">
          -3.7499179811826606e-02 
        </Neuron>
        <Neuron NSynapses="1">
          7.5316407879329889e-03 
        </Neuron>
        <Neuron NSynapses="1">
          -8.9745583390014334e-03 
        </Neuron>
        <Neuron NSynapses="1">
          -1.1820267614915025e+00 
        </Neuron>
        <Neuron NSynapses="1">
          2.1531639627160443e-02 
        </Neuron>
        <Neuron NSynapses="1">
          1.1479021206211569e-02 
        </Neuron>
        <Neuron NSynapses="1">
          -2.6043921740222385e-02 
        </Neuron>
        <Neuron NSynapses="1">
          8.9765771834729047e-03 
        </Neuron>
        <Neuron NSynapses="1">
          1.7168846971887079e-03 
        </Neuron>
        <Neuron NSynapses="1">
          8.8070229479442728e-03 
        </Neuron>
        <Neuron NSynapses="1">
          -2.7279842715729401e-02 
        </Neuron>
        <Neuron NSynapses="1">
          -1.0268668513660732e-02 
        </Neuron>
        <Neuron NSynapses="1">
          4.1980718726885779e-03 
        </Neuron>
        <Neuron NSynapses="1">
          -2.5664856358791451e-02 
        </Neuron>
        <Neuron NSynapses="1">
          -6.8454783004334016e-03 
        </Neuron>
        <Neuron NSynapses="1">
          9.4643739615265310e-01 
        </Neuron>
      </Layer>
      <Layer Index="3" NNeurons="1">
        <Neuron NSynapses="0"/>
      </Layer>
    </Layout>
  </Weights>
</MethodSetup>
