<?xml version="1.0"?>
<MethodSetup Method="MLP::XS_60_143_0_cap">
  <GeneralInfo>
    <Info name="TMVA Release" value="4.2.1 [262657]"/>
    <Info name="ROOT Release" value="6.06/02 [394754]"/>
    <Info name="Creator" value="mouginot"/>
    <Info name="Date" value="Thu Feb 23 06:12:16 2017"/>
    <Info name="Host" value="Linux e300.chtc.wisc.edu 2.6.32-642.13.1.el6.x86_64 #1 SMP Tue Jan 10 11:22:50 CST 2017 x86_64 x86_64 x86_64 GNU/Linux"/>
    <Info name="Dir" value="/mnt/gluster/mouginot/TRU_MOX_XS/Generate"/>
    <Info name="Training events" value="198960"/>
    <Info name="TrainingTime" value="2.64561920e+04"/>
    <Info name="AnalysisType" value="Regression"/>
  </GeneralInfo>
  <Options>
    <Option name="NCycles" modified="Yes">20000</Option>
    <Option name="HiddenLayers" modified="Yes">N,N</Option>
    <Option name="NeuronType" modified="Yes">tanh</Option>
    <Option name="RandomSeed" modified="No">1</Option>
    <Option name="EstimatorType" modified="No">MSE</Option>
    <Option name="NeuronInputType" modified="No">sum</Option>
    <Option name="V" modified="Yes">False</Option>
    <Option name="VerbosityLevel" modified="No">Default</Option>
    <Option name="VarTransform" modified="Yes">Norm</Option>
    <Option name="H" modified="Yes">False</Option>
    <Option name="CreateMVAPdfs" modified="No">False</Option>
    <Option name="IgnoreNegWeightsInTraining" modified="No">False</Option>
    <Option name="TrainingMethod" modified="Yes">BFGS</Option>
    <Option name="LearningRate" modified="No">2.000000e-02</Option>
    <Option name="DecayRate" modified="No">1.000000e-02</Option>
    <Option name="TestRate" modified="Yes">6</Option>
    <Option name="EpochMonitoring" modified="No">False</Option>
    <Option name="Sampling" modified="Yes">3.000000e-01</Option>
    <Option name="SamplingEpoch" modified="Yes">8.000000e-01</Option>
    <Option name="SamplingImportance" modified="No">1.000000e+00</Option>
    <Option name="SamplingTraining" modified="No">True</Option>
    <Option name="SamplingTesting" modified="No">False</Option>
    <Option name="ResetStep" modified="No">50</Option>
    <Option name="Tau" modified="No">3.000000e+00</Option>
    <Option name="BPMode" modified="No">sequential</Option>
    <Option name="BatchSize" modified="No">-1</Option>
    <Option name="ConvergenceImprove" modified="Yes">1.000000e-06</Option>
    <Option name="ConvergenceTests" modified="Yes">15</Option>
    <Option name="UseRegulator" modified="Yes">False</Option>
    <Option name="UpdateLimit" modified="No">10000</Option>
    <Option name="CalculateErrors" modified="No">False</Option>
    <Option name="WeightRange" modified="No">1.000000e+00</Option>
  </Options>
  <Variables NVar="17">
    <Variable VarIndex="0" Expression="235U" Label="235U" Title="235U" Unit="IsotopicFraction" Internal="235U" Type="F" Min="1.71346517e-06" Max="1.92414057e-02"/>
    <Variable VarIndex="1" Expression="238U" Label="238U" Title="238U" Unit="IsotopicFraction" Internal="238U" Type="F" Min="7.85399854e-01" Max="9.68733251e-01"/>
    <Variable VarIndex="2" Expression="237Np" Label="237Np" Title="237Np" Unit="IsotopicFraction" Internal="237Np" Type="F" Min="1.63990119e-08" Max="1.97294168e-04"/>
    <Variable VarIndex="3" Expression="238Pu" Label="238Pu" Title="238Pu" Unit="IsotopicFraction" Internal="238Pu" Type="F" Min="4.69728775e-07" Max="3.96428024e-03"/>
    <Variable VarIndex="4" Expression="239Pu" Label="239Pu" Title="239Pu" Unit="IsotopicFraction" Internal="239Pu" Type="F" Min="2.15940680e-02" Max="1.89886928e-01"/>
    <Variable VarIndex="5" Expression="240Pu" Label="240Pu" Title="240Pu" Unit="IsotopicFraction" Internal="240Pu" Type="F" Min="1.54567579e-06" Max="3.95636074e-02"/>
    <Variable VarIndex="6" Expression="241Pu" Label="241Pu" Title="241Pu" Unit="IsotopicFraction" Internal="241Pu" Type="F" Min="3.22813172e-08" Max="7.04628276e-03"/>
    <Variable VarIndex="7" Expression="242Pu" Label="242Pu" Title="242Pu" Unit="IsotopicFraction" Internal="242Pu" Type="F" Min="1.58277174e-07" Max="1.98803633e-03"/>
    <Variable VarIndex="8" Expression="241Am" Label="241Am" Title="241Am" Unit="IsotopicFraction" Internal="241Am" Type="F" Min="3.13082671e-10" Max="7.48056592e-03"/>
    <Variable VarIndex="9" Expression="242Amm" Label="242Amm" Title="242Amm" Unit="IsotopicFraction" Internal="242Amm" Type="F" Min="1.34159976e-07" Max="1.16249369e-02"/>
    <Variable VarIndex="10" Expression="243Am" Label="243Am" Title="243Am" Unit="IsotopicFraction" Internal="243Am" Type="F" Min="2.04390229e-08" Max="1.99559363e-04"/>
    <Variable VarIndex="11" Expression="242Cm" Label="242Cm" Title="242Cm" Unit="IsotopicFraction" Internal="242Cm" Type="F" Min="1.48285639e-09" Max="1.93909858e-04"/>
    <Variable VarIndex="12" Expression="243Cm" Label="243Cm" Title="243Cm" Unit="IsotopicFraction" Internal="243Cm" Type="F" Min="9.09117492e-09" Max="1.97552916e-04"/>
    <Variable VarIndex="13" Expression="244Cm" Label="244Cm" Title="244Cm" Unit="IsotopicFraction" Internal="244Cm" Type="F" Min="2.46570231e-09" Max="1.97112051e-04"/>
    <Variable VarIndex="14" Expression="245Cm" Label="245Cm" Title="245Cm" Unit="IsotopicFraction" Internal="245Cm" Type="F" Min="9.47205692e-09" Max="1.97873349e-04"/>
    <Variable VarIndex="15" Expression="246Cm" Label="246Cm" Title="246Cm" Unit="IsotopicFraction" Internal="246Cm" Type="F" Min="2.33963915e-09" Max="1.98596885e-04"/>
    <Variable VarIndex="16" Expression="Time" Label="Time" Title="Time" Unit="seconds" Internal="Time" Type="F" Min="0.00000000e+00" Max="1.89328320e+08"/>
  </Variables>
  <Spectators NSpec="0"/>
  <Classes NClass="1">
    <Class Name="Regression" Index="0"/>
  </Classes>
  <Targets NTrgt="1">
    <Target TargetIndex="0" Expression="XS_60_143_0_cap" Label="XS_60_143_0_cap" Title="XS_60_143_0_cap" Unit="" Internal="XS_60_143_0_cap" Type="F" Min="3.48937201e+00" Max="2.18745079e+01"/>
  </Targets>
  <Transformations NTransformations="1">
    <Transform Name="Normalize">
      <Selection>
        <Input NInputs="18">
          <Input Type="Variable" Label="235U" Expression="235U"/>
          <Input Type="Variable" Label="238U" Expression="238U"/>
          <Input Type="Variable" Label="237Np" Expression="237Np"/>
          <Input Type="Variable" Label="238Pu" Expression="238Pu"/>
          <Input Type="Variable" Label="239Pu" Expression="239Pu"/>
          <Input Type="Variable" Label="240Pu" Expression="240Pu"/>
          <Input Type="Variable" Label="241Pu" Expression="241Pu"/>
          <Input Type="Variable" Label="242Pu" Expression="242Pu"/>
          <Input Type="Variable" Label="241Am" Expression="241Am"/>
          <Input Type="Variable" Label="242Amm" Expression="242Amm"/>
          <Input Type="Variable" Label="243Am" Expression="243Am"/>
          <Input Type="Variable" Label="242Cm" Expression="242Cm"/>
          <Input Type="Variable" Label="243Cm" Expression="243Cm"/>
          <Input Type="Variable" Label="244Cm" Expression="244Cm"/>
          <Input Type="Variable" Label="245Cm" Expression="245Cm"/>
          <Input Type="Variable" Label="246Cm" Expression="246Cm"/>
          <Input Type="Variable" Label="Time" Expression="Time"/>
          <Input Type="Target" Label="XS_60_143_0_cap" Expression="XS_60_143_0_cap"/>
        </Input>
        <Output NOutputs="18">
          <Output Type="Variable" Label="235U" Expression="235U"/>
          <Output Type="Variable" Label="238U" Expression="238U"/>
          <Output Type="Variable" Label="237Np" Expression="237Np"/>
          <Output Type="Variable" Label="238Pu" Expression="238Pu"/>
          <Output Type="Variable" Label="239Pu" Expression="239Pu"/>
          <Output Type="Variable" Label="240Pu" Expression="240Pu"/>
          <Output Type="Variable" Label="241Pu" Expression="241Pu"/>
          <Output Type="Variable" Label="242Pu" Expression="242Pu"/>
          <Output Type="Variable" Label="241Am" Expression="241Am"/>
          <Output Type="Variable" Label="242Amm" Expression="242Amm"/>
          <Output Type="Variable" Label="243Am" Expression="243Am"/>
          <Output Type="Variable" Label="242Cm" Expression="242Cm"/>
          <Output Type="Variable" Label="243Cm" Expression="243Cm"/>
          <Output Type="Variable" Label="244Cm" Expression="244Cm"/>
          <Output Type="Variable" Label="245Cm" Expression="245Cm"/>
          <Output Type="Variable" Label="246Cm" Expression="246Cm"/>
          <Output Type="Variable" Label="Time" Expression="Time"/>
          <Output Type="Target" Label="XS_60_143_0_cap" Expression="XS_60_143_0_cap"/>
        </Output>
      </Selection>
      <Class ClassIndex="0">
        <Ranges>
          <Range Index="0" Min="1.7134651670858148e-06" Max="1.9241405650973320e-02"/>
          <Range Index="1" Min="7.8539985418319702e-01" Max="9.6873325109481812e-01"/>
          <Range Index="2" Min="1.6399011926182538e-08" Max="1.9729416817426682e-04"/>
          <Range Index="3" Min="4.6972877498774324e-07" Max="3.9642802439630032e-03"/>
          <Range Index="4" Min="2.1594068035483360e-02" Max="1.8988692760467529e-01"/>
          <Range Index="5" Min="1.5456757864740212e-06" Max="3.9563607424497604e-02"/>
          <Range Index="6" Min="3.2281317174920332e-08" Max="7.0462827570736408e-03"/>
          <Range Index="7" Min="1.5827717447791656e-07" Max="1.9880363252013922e-03"/>
          <Range Index="8" Min="3.1308267089968922e-10" Max="7.4805659241974354e-03"/>
          <Range Index="9" Min="1.3415997557331139e-07" Max="1.1624936945736408e-02"/>
          <Range Index="10" Min="2.0439022918594674e-08" Max="1.9955936295446008e-04"/>
          <Range Index="11" Min="1.4828563932312022e-09" Max="1.9390985835343599e-04"/>
          <Range Index="12" Min="9.0911749239808159e-09" Max="1.9755291577894241e-04"/>
          <Range Index="13" Min="2.4657023089957875e-09" Max="1.9711205095518380e-04"/>
          <Range Index="14" Min="9.4720569165929192e-09" Max="1.9787334895227104e-04"/>
          <Range Index="15" Min="2.3396391490848600e-09" Max="1.9859688472934067e-04"/>
          <Range Index="16" Min="0.0000000000000000e+00" Max="1.8932832000000000e+08"/>
          <Range Index="17" Min="3.4893720149993896e+00" Max="2.1874507904052734e+01"/>
        </Ranges>
      </Class>
    </Transform>
  </Transformations>
  <MVAPdfs/>
  <Weights>
    <Layout NLayers="4">
      <Layer Index="0" NNeurons="18">
        <Neuron NSynapses="17">
          -2.7020164035974142e-01 1.3136149699277779e+00 8.0725075018003933e-01 1.8553664905867135e+00 -1.9820401013152620e+00 -5.4599470945746920e-01 -8.1572981121657573e-01 1.6526434618048724e+00 -1.3399666312701282e+00 -1.2654497962207221e+00 -1.5906481173383931e+00 -5.5273847539631493e-01 -9.9389023027329348e-01 -4.2750274998658999e-01 -1.2039487051043397e-01 -7.6248185184796244e-02 -6.2503614428780374e-01 
        </Neuron>
        <Neuron NSynapses="17">
          1.5906625400496477e+00 8.5544898907387168e-01 1.7322502942954978e+00 -5.9241587873908730e-01 -8.4665640357404370e-01 -4.5891201828115918e-01 2.8467089646366966e-01 -8.2099382821511657e-01 -3.7182699773144817e-01 1.7104621293904803e+00 -8.5562889824914878e-01 -1.3656578318100572e+00 5.1989384471439082e-02 7.2801748050993464e-01 8.2784824755512221e-01 6.3175826525060896e-01 2.1400352204293227e-01 
        </Neuron>
        <Neuron NSynapses="17">
          2.5687290867581886e-01 -2.4998243314773733e-01 -1.3689362412055230e+00 1.6846485246935541e+00 -1.5221820727689814e+00 1.2680881092202732e+00 1.3083416628023508e+00 1.0840180577954595e+00 1.7651510250515889e+00 1.3572331984565187e+00 -6.5163457912833100e-01 -1.2011384275189052e+00 5.0324731391549082e-01 1.5096167354193629e-01 1.6518158531944953e+00 1.4444391386523576e+00 1.6181179334113678e+00 
        </Neuron>
        <Neuron NSynapses="17">
          1.4874332620747850e+00 -1.4448617625191302e+00 1.4790272253672607e+00 -1.9997323559079572e+00 -9.7514651314388878e-01 -1.2349283666597246e+00 -1.4388809088705463e+00 1.6555477940153627e+00 6.1653899491722730e-01 -1.3006438148420514e+00 3.7885873380322571e-01 -3.4060739639779120e-01 4.2322914482337920e-01 1.9171347592119115e+00 -1.5654853225426463e-01 3.7006054618793921e-01 -8.9833223859022227e-01 
        </Neuron>
        <Neuron NSynapses="17">
          9.2650793301772305e-01 -1.2937055493401761e+00 -9.8127920263133206e-01 -1.2619537294125447e+00 7.4120934720073794e-01 2.0733416763091004e+00 1.2748719336935097e+00 -5.0756456234242353e-01 -1.8282761410317154e+00 -1.9364457023016313e+00 8.3358675215779443e-01 1.8597873254878836e-01 1.9083510962490666e+00 6.1928310066907410e-01 1.6546600254402986e+00 -1.4614263891678814e+00 -1.1226988315938526e+00 
        </Neuron>
        <Neuron NSynapses="17">
          -7.2455966606862210e-02 1.2424684869992857e+00 -9.6078482511870467e-01 -1.7287103436346485e+00 -1.8639833289153624e+00 7.0297840440193271e-02 1.1128944437917083e-01 1.7981608550048480e+00 -1.6091959722140443e+00 -6.5448853908562654e-01 1.5723698000868096e+00 -7.5414613570249478e-01 -1.7413616113430901e+00 -1.4842419070669643e+00 3.8437405501569200e-01 -1.8204954597895759e+00 -1.2810195814132990e+00 
        </Neuron>
        <Neuron NSynapses="17">
          8.5480540751955048e-01 2.0467974035217349e+00 -7.7788808381482810e-01 1.4462443260210232e+00 -1.2763780037115289e+00 -8.5626203660428657e-01 3.4234401072855397e-01 7.6575859105146582e-01 -1.9404236549618556e+00 5.7722898657340016e-01 4.3223270055013591e-01 7.1621647892724072e-01 -1.8150358458119107e+00 1.9434489155421968e+00 4.3053628663809879e-01 -4.6594510630976688e-01 1.2405760543305882e+00 
        </Neuron>
        <Neuron NSynapses="17">
          -9.9893547128713145e-01 -1.4067609058118331e+00 3.0520579370298273e-01 -4.7810524214005407e-01 1.6621619005664969e+00 9.5088457905613233e-01 2.1773595163374942e-01 -1.2539167963681186e-01 1.4252371701716166e-01 -1.4967787059678233e+00 1.0507665310265584e+00 2.9101409617578794e-01 -1.9808611551403195e+00 6.8790555892918193e-01 -1.1942212980025209e+00 2.7395462061610487e-01 1.2571914196998046e+00 
        </Neuron>
        <Neuron NSynapses="17">
          1.8719077420406287e+00 -1.4844709193029579e+00 7.5614410878579730e-01 1.2363149010852981e+00 1.2089816507990925e+00 -5.7133239085596692e-02 -1.0111612876732732e+00 3.2240534429230916e-01 -1.5100083881524100e+00 1.8606916862250020e+00 1.3995847706068678e+00 1.2765248083004349e-01 -8.9288132126066200e-01 2.7834911116820410e-01 -1.4275520617641713e+00 1.1854841646830903e+00 2.1470603294047930e+00 
        </Neuron>
        <Neuron NSynapses="17">
          -4.4325191999552327e-01 -4.9450977057313783e-01 5.0968884010282967e-01 9.5562354036909170e-01 3.6211327616982525e-01 1.1603872115244349e+00 -1.1057504503857520e+00 1.5978363223034395e+00 5.2151466968556370e-01 6.2125437249042859e-01 6.7367074248951198e-01 8.4246859349030301e-01 -8.5556757960428864e-01 -5.7391151817414865e-01 1.4071148637692592e+00 -7.8505361500339277e-01 -2.5610809510855975e-01 
        </Neuron>
        <Neuron NSynapses="17">
          1.6359530752788254e+00 9.7855832212203320e-01 -1.2513583932855007e-01 1.4393013339340628e+00 1.5929616815776340e+00 -1.7088209603089479e+00 8.2254510435814931e-01 1.4605717399844187e-01 3.3298528488440104e-01 -1.5616225230735097e+00 -1.4060142041537327e+00 1.0528635385690972e+00 1.4423569114394752e+00 -1.6237583630846502e+00 6.3336576679720813e-02 -4.9531028592261972e-01 4.9035158527138589e-01 
        </Neuron>
        <Neuron NSynapses="17">
          1.8418206522158611e+00 -1.1899641824837510e-01 -3.1209667378783157e-01 -1.3285048342699342e+00 8.6008864364017767e-01 1.6743311881006564e+00 1.2985684466818452e+00 6.6049112011239042e-01 -7.9783495243741098e-01 -1.5867205670026343e+00 1.0941570236503009e+00 7.5030593213981134e-01 -1.6781129814656841e+00 -5.7493803912522423e-01 3.9400961104646581e-01 4.4430698846215605e-01 -1.4987803139256886e+00 
        </Neuron>
        <Neuron NSynapses="17">
          1.6505539404420650e+00 1.1143886702073811e+00 -3.8116016116976797e-01 -3.9323143246107428e-01 1.4704087323289172e+00 1.1236897767604306e+00 7.2372415669974222e-01 2.8177408434478068e-01 -1.9253661132506477e+00 -5.6023719891793311e-01 1.7331998217510547e+00 1.5534944632809942e+00 4.0425059176095263e-01 3.2808053004660931e-01 2.0377762651707498e+00 -1.3124878318926929e+00 -8.1227336969057085e-01 
        </Neuron>
        <Neuron NSynapses="17">
          -3.5466818878037848e-02 -1.2767577760065807e+00 1.1050968400851000e+00 1.6867225272618211e+00 -1.3304961260001531e+00 1.0083950277788309e+00 5.0612421592941749e-02 -1.5943578652060439e+00 -1.1398368533073382e+00 1.2149762046308532e+00 5.5842675797181079e-02 1.0121184387067172e+00 -1.3554432017553670e+00 1.7353325631636964e+00 -1.6602415357219513e+00 1.0152725900641277e+00 2.8942320387265147e-01 
        </Neuron>
        <Neuron NSynapses="17">
          -1.3689224975411824e+00 -1.3421350985864842e+00 -1.8529496546340420e+00 -4.6467797163746016e-01 -2.0350644486118599e+00 -1.2501459193307776e+00 -1.5391508198571275e+00 2.8105296781693379e-01 -1.0401833793880289e+00 -1.4650622162147959e+00 1.3800189071325610e+00 -6.2059421446278096e-01 -4.4417595513894584e-02 -1.0834310695273466e+00 4.8339880966577270e-01 1.8953320183535445e+00 1.4634159571147294e+00 
        </Neuron>
        <Neuron NSynapses="17">
          -7.8110283356996890e-01 -1.2192334679977210e+00 -9.6427445475204598e-01 -1.0451607902932827e+00 -1.8327973635785122e+00 3.9030729602636044e-01 5.3740058533591017e-01 2.0313954212338134e+00 -2.7124972321088719e-01 4.4279226824675183e-01 -5.0313983983222466e-01 -1.6387419099061011e+00 1.0003572643150362e+00 1.2530321605421422e+00 -6.9655327801975919e-01 -7.7831211730035976e-01 1.0826379798541574e+00 
        </Neuron>
        <Neuron NSynapses="17">
          1.1427141865865800e+00 4.2796342379361624e-01 -4.0447077525109132e-01 -4.2455378690793766e-01 1.2583782831323511e+00 6.4047160411227588e-01 8.0295576908491961e-01 -1.7120416159011431e-01 2.1575950471509664e-01 -1.5590683768149624e-01 -1.3218137268839023e+00 -1.9278187781771780e-01 -1.6997048952683507e+00 -1.2473154160255195e+00 -1.6718746891985254e+00 1.9411625725725767e+00 -1.3762180184611410e+00 
        </Neuron>
        <Neuron NSynapses="17">
          1.6212233825325930e+00 -2.4446975668621156e+00 3.9957108214943693e-01 -5.5846966988972568e-01 1.0433795471425609e+00 1.5493725353822170e+00 -2.5631129602573002e+00 -6.5364656007779165e-01 8.6491279730410475e-01 -2.5261511029267636e+00 -1.7905532375446920e+00 -2.5760145098200069e+00 -1.3739221503832658e-01 1.6980745931969459e+00 -2.1215813545251552e-01 -9.3052978234505579e-01 -1.8431689872121153e+00 
        </Neuron>
      </Layer>
      <Layer Index="1" NNeurons="18">
        <Neuron NSynapses="17">
          -1.4056542559259837e+00 -1.7063712881264728e+00 -8.9048178404737965e-01 -1.4999838678126267e+00 9.4798137925746040e-01 -1.1331676589913620e+00 -1.0484363256351958e+00 1.5298118656213939e+00 4.7674454927492310e-01 -5.9426658220801121e-01 1.7503441114417240e+00 -1.8195434710212992e+00 1.3707799519449853e+00 9.7502831568036419e-01 -1.1742112520413530e+00 -7.8472810758174627e-01 -7.9407860246761519e-01 
        </Neuron>
        <Neuron NSynapses="17">
          -1.0068796237307918e+00 5.0041318704133164e-01 2.0631319204320717e+00 1.3026985242720985e+00 1.4891139018278507e+00 -1.2241908847269753e+00 8.2257779545108956e-01 -2.2000156980205841e+00 5.7848619566943460e-01 -1.7083940950144776e+00 -1.8028489592832040e+00 -3.5938923970622254e-02 1.2898628408885697e+00 3.5153444388185606e-01 9.3680423690698844e-01 3.3576745601400915e-01 -5.8218416156210384e-01 
        </Neuron>
        <Neuron NSynapses="17">
          -5.1817264882745417e-01 1.4762034208349287e-01 1.9225372502596381e+00 -1.3416409154281681e+00 2.7537740964540497e-01 -1.2263723525100774e+00 -7.5811499056998721e-01 1.0865167289264102e-01 6.7745774911501758e-02 -1.1165243625998951e+00 1.0246565349758570e+00 1.6742160821459258e+00 8.0648649097956393e-01 -1.4261885052263873e-01 -7.2938297181385403e-01 -1.4814970230896314e+00 -1.3080829664612394e+00 
        </Neuron>
        <Neuron NSynapses="17">
          8.0573237859208691e-01 -5.5398685729070285e-01 -9.8657011255491311e-01 2.4396264761385841e-01 -1.8423517988082796e+00 -1.3239114680953750e+00 -1.3513190900505023e+00 8.0575702023020535e-01 -1.1602295047095865e+00 -1.7132079989768305e+00 -8.0972467896712019e-01 -9.6487106528966449e-01 -1.6464370849451557e+00 1.2964978592412890e+00 -1.5868622477957173e+00 -1.2343223793229490e+00 1.2207443290850877e+00 
        </Neuron>
        <Neuron NSynapses="17">
          7.8329593163301692e-01 3.9682804490255563e-01 6.2311653191902908e-03 1.4342979603106398e+00 1.8687162919473832e+00 7.8164156049715794e-01 -1.2745261902165896e+00 -6.8981254579890450e-01 -1.7326600401543018e+00 9.1966714104210256e-01 1.0534128444766568e+00 1.2316593418895190e-01 1.1099609617696731e+00 8.0819240068941200e-01 1.5531394894040087e+00 -1.3431552475045123e+00 1.7734058619199033e+00 
        </Neuron>
        <Neuron NSynapses="17">
          6.4321011150919083e-01 -1.9097821234888455e+00 -4.2563913134871922e-01 -8.0747495129041347e-01 1.0387086872652453e+00 7.8897288011723032e-01 9.2128986018898085e-01 1.1552770912762942e+00 -1.6346327116162826e-01 1.6780567797920023e+00 1.9621478642804351e+00 2.0568211539638870e-01 -1.2289990260897361e+00 1.5947630197279450e+00 -2.0909789858418573e+00 5.3889930029584943e-01 1.7456443869633451e+00 
        </Neuron>
        <Neuron NSynapses="17">
          -6.2508028271105120e-01 -8.4115246706957292e-01 -2.1413574857057936e-02 -1.1432497697216393e+00 4.8139288529624430e-01 -1.6247718642834357e+00 3.5887245787806588e-01 -5.2018893997623938e-01 2.0834457856841762e+00 1.1247034614159754e+00 1.6555889468140039e+00 -5.5731676192889779e-01 -5.2588810709389211e-01 2.4620191173702063e-01 1.5060791035919803e+00 -1.8817615345062872e+00 -2.0895067893907679e+00 
        </Neuron>
        <Neuron NSynapses="17">
          -7.7523850790641080e-01 -1.5304295020833272e+00 -1.5379124248394349e+00 -1.9924314500673423e+00 6.1599287618370768e-01 -3.0784790224641456e-01 -1.5946050307621820e+00 -1.7004451174344217e+00 -3.9491645837771561e-01 1.8151251692381758e+00 1.5345558410678155e+00 1.2889449005688589e+00 -6.1155916229340646e-01 -1.7447137175186982e+00 8.9434105417243101e-02 -1.2677244487641783e+00 -1.9396366373924359e+00 
        </Neuron>
        <Neuron NSynapses="17">
          -5.1218712301995495e-01 7.4847258169221498e-02 -1.5901069137109336e+00 1.5058060441873951e+00 1.1938616118688861e+00 3.2005317274965267e-01 -8.1918823364781612e-01 -5.0413562437781489e-01 1.5855021036920416e+00 -4.9322418518930539e-01 3.0817025664778797e-01 1.6246274441090813e+00 1.6692955367664206e+00 -1.0602305739209876e+00 1.6676751787897854e+00 -1.9219733142169397e+00 2.2316406049374726e+00 
        </Neuron>
        <Neuron NSynapses="17">
          2.2693256021686281e+00 -1.3385929707977298e-01 4.1513129059231241e-02 3.1779481582528624e-01 -6.3058850308484715e-01 1.1140887242482684e+00 -4.7940065471783866e-02 -1.6915740562589425e+00 -1.3370187522831150e+00 -3.0754981348744131e-02 1.7492945769297790e+00 3.9240347664893244e-01 -6.6614238557158545e-01 -1.8202495966133161e+00 1.7084153903455870e+00 3.8411956324358709e-01 -1.9142609368043544e+00 
        </Neuron>
        <Neuron NSynapses="17">
          -3.7987753237245048e-01 -1.0683237458886026e+00 1.3583203899895631e+00 1.3313755139070136e+00 -6.1968541075658123e-01 -1.2818145669760213e+00 1.7699845291625484e+00 8.7654212471743309e-01 4.4754419775835491e-01 5.2307283366038626e-02 -1.2079669156930242e+00 -1.2542618165055262e+00 1.0068564565973406e+00 4.7729752088058669e-01 2.5853639964199765e-01 -1.7702861151880716e+00 -2.5177726677018284e+00 
        </Neuron>
        <Neuron NSynapses="17">
          -2.0767094325791513e+00 -3.3719817852785217e-01 -1.5173696981782887e+00 1.9297908969182806e-01 -5.0177452122090127e-01 1.4205251600691522e+00 6.2341827209087852e-01 -1.9275867646074256e+00 1.1709378688789480e+00 1.9050429530706590e+00 8.2166177900958737e-01 -4.5558056692509569e-01 -9.0173450312076897e-01 2.2349493133042970e+00 -1.5128239406355926e+00 5.4325366714739520e-01 -2.0987692807238556e+00 
        </Neuron>
        <Neuron NSynapses="17">
          8.2161268523576181e-01 -1.1447168106307326e+00 1.1288370781605121e-01 -1.8832171205441575e-01 2.6579684518739338e-01 -5.3883900233175419e-01 -6.4615163872729320e-01 7.6100432608179480e-01 3.7853146955517208e-01 8.6150771835976059e-01 9.8321788467256999e-01 -1.6814797816690252e+00 1.3892908466040264e+00 -1.8079834400495993e+00 1.0876216452785217e+00 1.0779920359400839e+00 1.3238277736514019e+00 
        </Neuron>
        <Neuron NSynapses="17">
          1.4017663074749618e+00 1.3905163431761212e+00 -1.9961675062157465e+00 -6.1591141314438158e-01 -1.0882589673857264e+00 5.7696884668906245e-01 6.3709528630959536e-02 -1.5027541128120284e-01 -6.0838872591106019e-01 -5.0837493745194018e-01 -1.0162409239394354e+00 -3.5166522351992940e-01 -1.8026509203755394e+00 -2.8740058868595020e-01 2.9906841776752863e-01 -7.1645744057707050e-01 -1.1855458203229996e+00 
        </Neuron>
        <Neuron NSynapses="17">
          9.9532620753084250e-02 2.1736971819468054e-01 -3.5574095730956390e-01 -1.2619145661146938e+00 1.9025832822597140e+00 -2.2858851585895815e-01 1.0183999137258002e+00 6.8450043606026845e-01 -1.0231885440373316e+00 -8.8621513944327812e-01 -3.2715180799933313e-01 -1.9349154109164424e+00 -7.1483372590363425e-01 -1.0190349744253442e+00 1.0711896441842184e+00 -1.8872953289150194e+00 1.1793067485882025e+00 
        </Neuron>
        <Neuron NSynapses="17">
          2.0244126404034737e+00 1.6381893588426433e+00 1.0533062419504722e+00 8.4331740757375839e-01 1.2593217510469139e-02 -7.6318599505052442e-01 -2.2923271413605284e+00 -9.7533492825589152e-01 -7.4843260575784132e-01 1.5012410909114395e+00 2.4844220382885229e-01 9.5207370778845252e-02 1.5108756331989486e+00 1.0100081173589597e+00 -1.2622997219187213e+00 2.3939043200453688e-01 -1.7867207325879884e+00 
        </Neuron>
        <Neuron NSynapses="17">
          7.0534264209332798e-01 -1.8615128456353438e+00 2.4208816979023492e-01 -4.8972449993293315e-01 8.3208213638050077e-01 -2.1956235363095216e+00 5.8649105071703289e-01 -1.6831356764925858e+00 4.4372391672225640e-02 1.3266933432883485e+00 -9.3018222821299879e-01 5.3089543648477788e-01 -1.6451682005170130e+00 1.1463389068180008e+00 -5.7009357866522981e-01 8.0187706732676323e-01 -2.1295387156488381e+00 
        </Neuron>
        <Neuron NSynapses="17">
          -8.7798039076149426e-01 1.9976857407669577e+00 -2.0576614898526611e+00 -1.1294336907203493e+00 -8.5779675127871324e-01 1.5016986371548324e+00 1.2794573327592438e+00 1.9740039418461759e+00 -1.9709602785341576e+00 8.2203360531786374e-01 7.5524763533487715e-01 3.0613009400097663e-01 -1.1533688747313413e+00 -1.4188627092792143e+00 3.6220660375071601e-01 -1.3175918972868192e-01 2.5956950509632222e+00 
        </Neuron>
      </Layer>
      <Layer Index="2" NNeurons="18">
        <Neuron NSynapses="1">
          4.7778166147048613e-02 
        </Neuron>
        <Neuron NSynapses="1">
          -2.7602773520863832e-02 
        </Neuron>
        <Neuron NSynapses="1">
          1.4794421536181557e-01 
        </Neuron>
        <Neuron NSynapses="1">
          -3.8045929047563404e-02 
        </Neuron>
        <Neuron NSynapses="1">
          -5.4374045391982831e-02 
        </Neuron>
        <Neuron NSynapses="1">
          -2.0476607725381796e-01 
        </Neuron>
        <Neuron NSynapses="1">
          -3.8831986040294371e-02 
        </Neuron>
        <Neuron NSynapses="1">
          -4.4198979183182113e-01 
        </Neuron>
        <Neuron NSynapses="1">
          7.0618353244821372e-03 
        </Neuron>
        <Neuron NSynapses="1">
          -8.0372156799606211e-03 
        </Neuron>
        <Neuron NSynapses="1">
          1.2002552499430666e-03 
        </Neuron>
        <Neuron NSynapses="1">
          1.3413387988456342e-02 
        </Neuron>
        <Neuron NSynapses="1">
          4.5438937756517132e-02 
        </Neuron>
        <Neuron NSynapses="1">
          4.4230498896857165e-02 
        </Neuron>
        <Neuron NSynapses="1">
          4.3125963281764025e-02 
        </Neuron>
        <Neuron NSynapses="1">
          1.7060197778593588e-02 
        </Neuron>
        <Neuron NSynapses="1">
          1.1029351268633638e+00 
        </Neuron>
        <Neuron NSynapses="1">
          -1.2731220970065078e+00 
        </Neuron>
      </Layer>
      <Layer Index="3" NNeurons="1">
        <Neuron NSynapses="0"/>
      </Layer>
    </Layout>
  </Weights>
</MethodSetup>
