<?xml version="1.0"?>
<MethodSetup Method="MLP::XS_16_33_0_cap">
  <GeneralInfo>
    <Info name="TMVA Release" value="4.2.1 [262657]"/>
    <Info name="ROOT Release" value="6.06/02 [394754]"/>
    <Info name="Creator" value="mouginot"/>
    <Info name="Date" value="Thu Feb 23 10:56:27 2017"/>
    <Info name="Host" value="Linux e300.chtc.wisc.edu 2.6.32-642.13.1.el6.x86_64 #1 SMP Tue Jan 10 11:22:50 CST 2017 x86_64 x86_64 x86_64 GNU/Linux"/>
    <Info name="Dir" value="/mnt/gluster/mouginot/TRU_MOX_XS/Generate"/>
    <Info name="Training events" value="198960"/>
    <Info name="TrainingTime" value="1.65141570e+04"/>
    <Info name="AnalysisType" value="Regression"/>
  </GeneralInfo>
  <Options>
    <Option name="NCycles" modified="Yes">20000</Option>
    <Option name="HiddenLayers" modified="Yes">N,N</Option>
    <Option name="NeuronType" modified="Yes">tanh</Option>
    <Option name="RandomSeed" modified="No">1</Option>
    <Option name="EstimatorType" modified="No">MSE</Option>
    <Option name="NeuronInputType" modified="No">sum</Option>
    <Option name="V" modified="Yes">False</Option>
    <Option name="VerbosityLevel" modified="No">Default</Option>
    <Option name="VarTransform" modified="Yes">Norm</Option>
    <Option name="H" modified="Yes">False</Option>
    <Option name="CreateMVAPdfs" modified="No">False</Option>
    <Option name="IgnoreNegWeightsInTraining" modified="No">False</Option>
    <Option name="TrainingMethod" modified="Yes">BFGS</Option>
    <Option name="LearningRate" modified="No">2.000000e-02</Option>
    <Option name="DecayRate" modified="No">1.000000e-02</Option>
    <Option name="TestRate" modified="Yes">6</Option>
    <Option name="EpochMonitoring" modified="No">False</Option>
    <Option name="Sampling" modified="Yes">3.000000e-01</Option>
    <Option name="SamplingEpoch" modified="Yes">8.000000e-01</Option>
    <Option name="SamplingImportance" modified="No">1.000000e+00</Option>
    <Option name="SamplingTraining" modified="No">True</Option>
    <Option name="SamplingTesting" modified="No">False</Option>
    <Option name="ResetStep" modified="No">50</Option>
    <Option name="Tau" modified="No">3.000000e+00</Option>
    <Option name="BPMode" modified="No">sequential</Option>
    <Option name="BatchSize" modified="No">-1</Option>
    <Option name="ConvergenceImprove" modified="Yes">1.000000e-06</Option>
    <Option name="ConvergenceTests" modified="Yes">15</Option>
    <Option name="UseRegulator" modified="Yes">False</Option>
    <Option name="UpdateLimit" modified="No">10000</Option>
    <Option name="CalculateErrors" modified="No">False</Option>
    <Option name="WeightRange" modified="No">1.000000e+00</Option>
  </Options>
  <Variables NVar="17">
    <Variable VarIndex="0" Expression="235U" Label="235U" Title="235U" Unit="IsotopicFraction" Internal="235U" Type="F" Min="1.71346517e-06" Max="1.92414057e-02"/>
    <Variable VarIndex="1" Expression="238U" Label="238U" Title="238U" Unit="IsotopicFraction" Internal="238U" Type="F" Min="7.85399854e-01" Max="9.68733251e-01"/>
    <Variable VarIndex="2" Expression="237Np" Label="237Np" Title="237Np" Unit="IsotopicFraction" Internal="237Np" Type="F" Min="1.63990119e-08" Max="1.97294168e-04"/>
    <Variable VarIndex="3" Expression="238Pu" Label="238Pu" Title="238Pu" Unit="IsotopicFraction" Internal="238Pu" Type="F" Min="4.69728775e-07" Max="3.96428024e-03"/>
    <Variable VarIndex="4" Expression="239Pu" Label="239Pu" Title="239Pu" Unit="IsotopicFraction" Internal="239Pu" Type="F" Min="2.15940680e-02" Max="1.89886928e-01"/>
    <Variable VarIndex="5" Expression="240Pu" Label="240Pu" Title="240Pu" Unit="IsotopicFraction" Internal="240Pu" Type="F" Min="1.54567579e-06" Max="3.95636074e-02"/>
    <Variable VarIndex="6" Expression="241Pu" Label="241Pu" Title="241Pu" Unit="IsotopicFraction" Internal="241Pu" Type="F" Min="3.22813172e-08" Max="7.04628276e-03"/>
    <Variable VarIndex="7" Expression="242Pu" Label="242Pu" Title="242Pu" Unit="IsotopicFraction" Internal="242Pu" Type="F" Min="1.58277174e-07" Max="1.98803633e-03"/>
    <Variable VarIndex="8" Expression="241Am" Label="241Am" Title="241Am" Unit="IsotopicFraction" Internal="241Am" Type="F" Min="3.13082671e-10" Max="7.48056592e-03"/>
    <Variable VarIndex="9" Expression="242Amm" Label="242Amm" Title="242Amm" Unit="IsotopicFraction" Internal="242Amm" Type="F" Min="1.34159976e-07" Max="1.16249369e-02"/>
    <Variable VarIndex="10" Expression="243Am" Label="243Am" Title="243Am" Unit="IsotopicFraction" Internal="243Am" Type="F" Min="2.04390229e-08" Max="1.99559363e-04"/>
    <Variable VarIndex="11" Expression="242Cm" Label="242Cm" Title="242Cm" Unit="IsotopicFraction" Internal="242Cm" Type="F" Min="1.48285639e-09" Max="1.93909858e-04"/>
    <Variable VarIndex="12" Expression="243Cm" Label="243Cm" Title="243Cm" Unit="IsotopicFraction" Internal="243Cm" Type="F" Min="9.09117492e-09" Max="1.97552916e-04"/>
    <Variable VarIndex="13" Expression="244Cm" Label="244Cm" Title="244Cm" Unit="IsotopicFraction" Internal="244Cm" Type="F" Min="2.46570231e-09" Max="1.97112051e-04"/>
    <Variable VarIndex="14" Expression="245Cm" Label="245Cm" Title="245Cm" Unit="IsotopicFraction" Internal="245Cm" Type="F" Min="9.47205692e-09" Max="1.97873349e-04"/>
    <Variable VarIndex="15" Expression="246Cm" Label="246Cm" Title="246Cm" Unit="IsotopicFraction" Internal="246Cm" Type="F" Min="2.33963915e-09" Max="1.98596885e-04"/>
    <Variable VarIndex="16" Expression="Time" Label="Time" Title="Time" Unit="seconds" Internal="Time" Type="F" Min="0.00000000e+00" Max="1.89328320e+08"/>
  </Variables>
  <Spectators NSpec="0"/>
  <Classes NClass="1">
    <Class Name="Regression" Index="0"/>
  </Classes>
  <Targets NTrgt="1">
    <Target TargetIndex="0" Expression="XS_16_33_0_cap" Label="XS_16_33_0_cap" Title="XS_16_33_0_cap" Unit="" Internal="XS_16_33_0_cap" Type="F" Min="3.65903205e-03" Max="2.34956034e-02"/>
  </Targets>
  <Transformations NTransformations="1">
    <Transform Name="Normalize">
      <Selection>
        <Input NInputs="18">
          <Input Type="Variable" Label="235U" Expression="235U"/>
          <Input Type="Variable" Label="238U" Expression="238U"/>
          <Input Type="Variable" Label="237Np" Expression="237Np"/>
          <Input Type="Variable" Label="238Pu" Expression="238Pu"/>
          <Input Type="Variable" Label="239Pu" Expression="239Pu"/>
          <Input Type="Variable" Label="240Pu" Expression="240Pu"/>
          <Input Type="Variable" Label="241Pu" Expression="241Pu"/>
          <Input Type="Variable" Label="242Pu" Expression="242Pu"/>
          <Input Type="Variable" Label="241Am" Expression="241Am"/>
          <Input Type="Variable" Label="242Amm" Expression="242Amm"/>
          <Input Type="Variable" Label="243Am" Expression="243Am"/>
          <Input Type="Variable" Label="242Cm" Expression="242Cm"/>
          <Input Type="Variable" Label="243Cm" Expression="243Cm"/>
          <Input Type="Variable" Label="244Cm" Expression="244Cm"/>
          <Input Type="Variable" Label="245Cm" Expression="245Cm"/>
          <Input Type="Variable" Label="246Cm" Expression="246Cm"/>
          <Input Type="Variable" Label="Time" Expression="Time"/>
          <Input Type="Target" Label="XS_16_33_0_cap" Expression="XS_16_33_0_cap"/>
        </Input>
        <Output NOutputs="18">
          <Output Type="Variable" Label="235U" Expression="235U"/>
          <Output Type="Variable" Label="238U" Expression="238U"/>
          <Output Type="Variable" Label="237Np" Expression="237Np"/>
          <Output Type="Variable" Label="238Pu" Expression="238Pu"/>
          <Output Type="Variable" Label="239Pu" Expression="239Pu"/>
          <Output Type="Variable" Label="240Pu" Expression="240Pu"/>
          <Output Type="Variable" Label="241Pu" Expression="241Pu"/>
          <Output Type="Variable" Label="242Pu" Expression="242Pu"/>
          <Output Type="Variable" Label="241Am" Expression="241Am"/>
          <Output Type="Variable" Label="242Amm" Expression="242Amm"/>
          <Output Type="Variable" Label="243Am" Expression="243Am"/>
          <Output Type="Variable" Label="242Cm" Expression="242Cm"/>
          <Output Type="Variable" Label="243Cm" Expression="243Cm"/>
          <Output Type="Variable" Label="244Cm" Expression="244Cm"/>
          <Output Type="Variable" Label="245Cm" Expression="245Cm"/>
          <Output Type="Variable" Label="246Cm" Expression="246Cm"/>
          <Output Type="Variable" Label="Time" Expression="Time"/>
          <Output Type="Target" Label="XS_16_33_0_cap" Expression="XS_16_33_0_cap"/>
        </Output>
      </Selection>
      <Class ClassIndex="0">
        <Ranges>
          <Range Index="0" Min="1.7134651670858148e-06" Max="1.9241405650973320e-02"/>
          <Range Index="1" Min="7.8539985418319702e-01" Max="9.6873325109481812e-01"/>
          <Range Index="2" Min="1.6399011926182538e-08" Max="1.9729416817426682e-04"/>
          <Range Index="3" Min="4.6972877498774324e-07" Max="3.9642802439630032e-03"/>
          <Range Index="4" Min="2.1594068035483360e-02" Max="1.8988692760467529e-01"/>
          <Range Index="5" Min="1.5456757864740212e-06" Max="3.9563607424497604e-02"/>
          <Range Index="6" Min="3.2281317174920332e-08" Max="7.0462827570736408e-03"/>
          <Range Index="7" Min="1.5827717447791656e-07" Max="1.9880363252013922e-03"/>
          <Range Index="8" Min="3.1308267089968922e-10" Max="7.4805659241974354e-03"/>
          <Range Index="9" Min="1.3415997557331139e-07" Max="1.1624936945736408e-02"/>
          <Range Index="10" Min="2.0439022918594674e-08" Max="1.9955936295446008e-04"/>
          <Range Index="11" Min="1.4828563932312022e-09" Max="1.9390985835343599e-04"/>
          <Range Index="12" Min="9.0911749239808159e-09" Max="1.9755291577894241e-04"/>
          <Range Index="13" Min="2.4657023089957875e-09" Max="1.9711205095518380e-04"/>
          <Range Index="14" Min="9.4720569165929192e-09" Max="1.9787334895227104e-04"/>
          <Range Index="15" Min="2.3396391490848600e-09" Max="1.9859688472934067e-04"/>
          <Range Index="16" Min="0.0000000000000000e+00" Max="1.8932832000000000e+08"/>
          <Range Index="17" Min="3.6590320523828268e-03" Max="2.3495603352785110e-02"/>
        </Ranges>
      </Class>
    </Transform>
  </Transformations>
  <MVAPdfs/>
  <Weights>
    <Layout NLayers="4">
      <Layer Index="0" NNeurons="18">
        <Neuron NSynapses="17">
          -2.8048471854816936e-01 1.3088816469708913e+00 7.9981053270285218e-01 1.8267429826254877e+00 -1.9779206858993061e+00 -5.7031073565027124e-01 -8.3561966481603356e-01 1.6760092676107443e+00 -1.3548444121168364e+00 -1.2438837037844461e+00 -1.5608832494983129e+00 -5.2287734428117449e-01 -1.0040873518193683e+00 -3.9626335230257015e-01 -1.0595635014862634e-01 -4.4222092116066036e-02 -6.4991799735135125e-01 
        </Neuron>
        <Neuron NSynapses="17">
          1.5833218246977725e+00 8.6939927944908935e-01 1.7872526273600526e+00 -6.3014298269399527e-01 -8.4821659943374950e-01 -4.4679499691258340e-01 3.1113852716629570e-01 -8.0003165354576944e-01 -3.7701435585199894e-01 1.7181420672743222e+00 -8.1296924770107160e-01 -1.3128831647550425e+00 3.5929223156905853e-02 7.6009160051802149e-01 8.1022611095595365e-01 6.5267261292599998e-01 2.2318709973964526e-01 
        </Neuron>
        <Neuron NSynapses="17">
          2.4439207370136698e-01 -2.4787299704289031e-01 -1.3399076847331188e+00 1.6868880822669121e+00 -1.5243482247600468e+00 1.2768259511097020e+00 1.3182723548733790e+00 1.0622920878896895e+00 1.7713735883831165e+00 1.3186464296721323e+00 -6.4704548536056150e-01 -1.2048489529810333e+00 5.2408820361970065e-01 1.2780852629780895e-01 1.6426486580247486e+00 1.4110749900245068e+00 1.6155838592318585e+00 
        </Neuron>
        <Neuron NSynapses="17">
          1.4711458336281040e+00 -1.4765890228026959e+00 1.5560984442309804e+00 -2.0567718924828502e+00 -9.8288233703848338e-01 -1.2809962984246090e+00 -1.4150185742703989e+00 1.6419017044345865e+00 5.9928390552865296e-01 -1.3185852955200570e+00 4.0682896459138207e-01 -3.1622564902348499e-01 4.3210563985224365e-01 1.9206946387890671e+00 -1.5144674314476289e-01 3.8893122198438629e-01 -8.9356034450892374e-01 
        </Neuron>
        <Neuron NSynapses="17">
          9.0161351117531041e-01 -1.3234366526985331e+00 -1.0028238213729910e+00 -1.2164926955996989e+00 7.3186854458684802e-01 2.0263916891116147e+00 1.2420379390585135e+00 -5.1600049226522637e-01 -1.8341672905616628e+00 -1.9525039228292560e+00 8.1381598115904608e-01 1.5280145768918449e-01 1.9163483232719123e+00 5.7595281558162359e-01 1.6584881093426151e+00 -1.4896354819339730e+00 -1.1075874098960130e+00 
        </Neuron>
        <Neuron NSynapses="17">
          -7.1926444276089463e-02 1.2281757369293580e+00 -9.2683102087747615e-01 -1.7360684741848411e+00 -1.8739754467199810e+00 8.3299164702933817e-02 1.2426149767461685e-01 1.7972051136585181e+00 -1.6079267679834857e+00 -6.9353766135987893e-01 1.5850698818736511e+00 -7.3008129341137351e-01 -1.7277696639679656e+00 -1.4825013430507612e+00 3.8769034236223693e-01 -1.7857531498177379e+00 -1.3262466968108377e+00 
        </Neuron>
        <Neuron NSynapses="17">
          8.5771164863633809e-01 2.0114681926015026e+00 -7.3657907406310719e-01 1.4252515114586908e+00 -1.2917279749482409e+00 -8.2621955850190465e-01 3.5955185310272419e-01 7.8240444110383800e-01 -1.9266528886762844e+00 5.4611519008266529e-01 4.6917813754279697e-01 7.3584799853382343e-01 -1.7876634632126331e+00 1.9235909238015809e+00 4.3134777973153487e-01 -4.6327062435620409e-01 1.2060660982177922e+00 
        </Neuron>
        <Neuron NSynapses="17">
          -9.9065372328225776e-01 -1.4298883644826859e+00 3.1122803493815043e-01 -4.5922441252583879e-01 1.6285329883471478e+00 9.6832790144485759e-01 2.1969911771928752e-01 -1.3362331326099350e-01 1.3658395312404911e-01 -1.5001578757394822e+00 1.0801639110326233e+00 3.0723361769764496e-01 -1.9720920645256463e+00 6.8912742825525752e-01 -1.1729613437088611e+00 2.9324270885584314e-01 1.2392279924608571e+00 
        </Neuron>
        <Neuron NSynapses="17">
          1.8549082770866059e+00 -1.5132648141978919e+00 7.6272241641890948e-01 1.2499860268570395e+00 1.1933000630869484e+00 -1.9145051231243340e-02 -9.7886438535390430e-01 2.9975053405868135e-01 -1.5071775586546625e+00 1.8271116492127950e+00 1.4144159583243860e+00 1.6297400448456023e-01 -8.7098147370499879e-01 2.8892025875070987e-01 -1.4277061411330809e+00 1.2125939370168917e+00 2.0946459689910935e+00 
        </Neuron>
        <Neuron NSynapses="17">
          -4.4365896517712961e-01 -5.0480945952977607e-01 5.4036154173317841e-01 9.6636822424463731e-01 3.6517897261938759e-01 1.1178270483302266e+00 -1.1272318457771560e+00 1.6090672926160647e+00 5.3607736461513378e-01 6.0782636210287189e-01 6.4907415025393955e-01 8.1939957335762770e-01 -8.4466971685511016e-01 -6.0714412208913804e-01 1.4030768195729890e+00 -7.8667961482596660e-01 -2.6882662388156447e-01 
        </Neuron>
        <Neuron NSynapses="17">
          1.6360668648795671e+00 9.6965554154591971e-01 -1.0144602813368667e-01 1.4504494170786240e+00 1.5883965476788309e+00 -1.6910598967539270e+00 8.1226008820106543e-01 1.5173024618059933e-01 3.3942591006041195e-01 -1.5461870298638898e+00 -1.3971718404882740e+00 1.0939573690298121e+00 1.4568384873117821e+00 -1.6439395621656141e+00 7.7548233147629222e-02 -5.0684815453509624e-01 4.8957081185812423e-01 
        </Neuron>
        <Neuron NSynapses="17">
          1.8268231508139610e+00 -1.2221696610875064e-01 -2.9643922326660227e-01 -1.3304454856629464e+00 8.5505992375990714e-01 1.6641062690558672e+00 1.2696278453421386e+00 6.6645377766400016e-01 -8.1134647173593788e-01 -1.5966915186123443e+00 1.1063367778529918e+00 7.8027453200801133e-01 -1.6574236015541020e+00 -5.6270221562447387e-01 3.9741606791923206e-01 4.5972323750230165e-01 -1.5452132116135364e+00 
        </Neuron>
        <Neuron NSynapses="17">
          1.6231485762527396e+00 1.1044473796839060e+00 -3.5708724332125824e-01 -3.7681178857860026e-01 1.4316106741499641e+00 1.0933819985034776e+00 7.2830376668448960e-01 2.9200267192283402e-01 -1.9143656153084758e+00 -5.7253733563136466e-01 1.7051878995336553e+00 1.5194629035000058e+00 4.1846705199972833e-01 3.0742111873449918e-01 2.0881160546442867e+00 -1.2863426388638628e+00 -8.0964007464586729e-01 
        </Neuron>
        <Neuron NSynapses="17">
          -3.2960386525807149e-02 -1.2939289818411754e+00 1.1081670067426272e+00 1.7372392351402264e+00 -1.3227630146523637e+00 1.0229970218773408e+00 4.9619997096232493e-02 -1.5658199788046285e+00 -1.1341978491429674e+00 1.1908326781904133e+00 3.9835424704805215e-02 9.9196983334821354e-01 -1.3432742179265440e+00 1.6870826462063053e+00 -1.6333268736349575e+00 1.0185477479935414e+00 2.6058697309086731e-01 
        </Neuron>
        <Neuron NSynapses="17">
          -1.3879248478579025e+00 -1.3490539690748096e+00 -1.8169924599860536e+00 -4.3824909743288737e-01 -2.0516719847550640e+00 -1.2300975040654669e+00 -1.5618743674931912e+00 2.8825001164807568e-01 -1.0439138911028354e+00 -1.4771753724637418e+00 1.3882943114154567e+00 -6.2829570031645932e-01 -3.5711392188246205e-02 -1.1330345393064367e+00 5.0940429408358523e-01 1.8650219908514054e+00 1.4648077647342848e+00 
        </Neuron>
        <Neuron NSynapses="17">
          -7.6971136681347274e-01 -1.2345771513626997e+00 -9.0239102509453872e-01 -1.0632054246121039e+00 -1.8234784136889135e+00 3.7647256279598129e-01 5.5358349172250920e-01 2.0290722927547140e+00 -2.7658456392934166e-01 4.5614360275717947e-01 -4.7167893353743506e-01 -1.6418244582506483e+00 9.9289490807975256e-01 1.2829857670947200e+00 -6.9189651161162047e-01 -7.6244405099454649e-01 1.0577648865464828e+00 
        </Neuron>
        <Neuron NSynapses="17">
          1.1405268418121299e+00 4.1118860582328948e-01 -3.7902238575514596e-01 -4.2404989814958421e-01 1.2117358386467987e+00 6.6570539525362171e-01 7.9232751285849845e-01 -1.7919142189828943e-01 2.1923583477596492e-01 -1.4229645870308028e-01 -1.3267116421062526e+00 -1.7901910928038656e-01 -1.7099990528258182e+00 -1.2319179568798588e+00 -1.6764898536584092e+00 1.8702569087531609e+00 -1.4361460071590122e+00 
        </Neuron>
        <Neuron NSynapses="17">
          1.5987220315995079e+00 -2.3845972713157546e+00 3.5454534160347562e-01 -5.4519131859871328e-01 1.0849059566003993e+00 1.5124920730315223e+00 -2.6273230907832206e+00 -6.3137718401777199e-01 8.7902850903729879e-01 -2.4949564583897859e+00 -1.8543512555449724e+00 -2.6647052944827649e+00 -1.3827593455566609e-01 1.6981604073773298e+00 -2.2361971874149408e-01 -9.4707432274612602e-01 -1.8246416157630123e+00 
        </Neuron>
      </Layer>
      <Layer Index="1" NNeurons="18">
        <Neuron NSynapses="17">
          -1.3936962151691177e+00 -1.7044283761329082e+00 -8.9747958361373981e-01 -1.4945293819359708e+00 9.4962108427391245e-01 -1.1453202753964253e+00 -1.0547258999260092e+00 1.5056889242191573e+00 4.7709348845715260e-01 -5.9265761232722669e-01 1.7598113042347654e+00 -1.8186045869883301e+00 1.3702940390868492e+00 9.7373184676313762e-01 -1.1777199557084561e+00 -7.9232176629643736e-01 -8.3797397819745867e-01 
        </Neuron>
        <Neuron NSynapses="17">
          -1.0178474898764254e+00 4.9709912740001400e-01 2.0500170747952970e+00 1.3071416800928386e+00 1.4976917442359443e+00 -1.2265816207293445e+00 8.3657175376739390e-01 -2.2006556946017501e+00 5.7910292473765113e-01 -1.7078243195395979e+00 -1.8057948575657305e+00 -3.4371744981811843e-02 1.2884580343208851e+00 3.5851691649160622e-01 9.3880872291505446e-01 3.3416325023213955e-01 -5.5658837659825178e-01 
        </Neuron>
        <Neuron NSynapses="17">
          -5.2560014260727905e-01 1.4632262323029860e-01 1.9281055771228739e+00 -1.3403098716047717e+00 2.8182671838614509e-01 -1.2304233983086004e+00 -7.4378334487961850e-01 1.1097736493861583e-01 6.8760913555837147e-02 -1.1182850406752334e+00 1.0209775194043962e+00 1.6736173700606358e+00 8.0512395723427166e-01 -1.4133870046863647e-01 -7.3074451765881099e-01 -1.4769790069068900e+00 -1.3420937152085310e+00 
        </Neuron>
        <Neuron NSynapses="17">
          8.1897781918877988e-01 -5.5497368074016873e-01 -9.9139634776311136e-01 2.4603493853464486e-01 -1.8539664449391957e+00 -1.3355649697224516e+00 -1.3651058831856662e+00 7.4891270005276389e-01 -1.1653599922490985e+00 -1.7133014453740818e+00 -8.0023993289414563e-01 -9.6582902595810116e-01 -1.6431951620299827e+00 1.2994419720955568e+00 -1.5786042186303801e+00 -1.2318908172957743e+00 1.2738791329596277e+00 
        </Neuron>
        <Neuron NSynapses="17">
          7.7044116226307757e-01 3.9488632315436273e-01 7.2899080384660857e-03 1.4346864704711788e+00 1.8664143020839146e+00 7.7590683606300770e-01 -1.2609431867959122e+00 -6.7312643231612690e-01 -1.7331798214856413e+00 9.1798356759652433e-01 1.0466308829325865e+00 1.2124701866575777e-01 1.1090131589647461e+00 8.1092251099359902e-01 1.5558200592393274e+00 -1.3369301520988428e+00 1.8043920286048463e+00 
        </Neuron>
        <Neuron NSynapses="17">
          6.4472889909876130e-01 -1.9084522664931358e+00 -4.3516996619126264e-01 -8.1151308890849227e-01 1.0304881802867254e+00 7.8224588946535623e-01 9.2298163709191339e-01 1.1536289523040961e+00 -1.6577070480033046e-01 1.6802720879078228e+00 1.9536548126855680e+00 2.0485718023825811e-01 -1.2276793475922874e+00 1.5923121376156477e+00 -2.0904898404785635e+00 5.3898142598154009e-01 1.7632015646354862e+00 
        </Neuron>
        <Neuron NSynapses="17">
          -6.1513021417690061e-01 -8.4034786453425148e-01 -1.9834431135924421e-02 -1.1452425601133771e+00 4.8054967461186343e-01 -1.6296888471447670e+00 3.5275338579890358e-01 -5.0779942153123137e-01 2.0769135513420247e+00 1.1273085148200608e+00 1.6623308200263174e+00 -5.5539795767752542e-01 -5.2436671732700679e-01 2.4956739541604619e-01 1.5103448215365560e+00 -1.8864649078086551e+00 -2.2197911258978134e+00 
        </Neuron>
        <Neuron NSynapses="17">
          -7.6636954155204629e-01 -1.5287577208607470e+00 -1.5379208407245817e+00 -1.9892416709629137e+00 6.1784860536822406e-01 -3.0246204659276299e-01 -1.6060949459984000e+00 -1.7238527397650083e+00 -3.9518028934504673e-01 1.8162576134414183e+00 1.5434915763509964e+00 1.2902743656565152e+00 -6.1288526237201091e-01 -1.7466176812756304e+00 8.9507138197908467e-02 -1.2728469171501984e+00 -2.0037925883675949e+00 
        </Neuron>
        <Neuron NSynapses="17">
          -5.2252438853791694e-01 7.3991778440875872e-02 -1.5907053320511002e+00 1.5058372735916377e+00 1.1941271251905361e+00 3.1504824341915316e-01 -8.1089610868018802e-01 -5.1731469705444477e-01 1.5874862386931670e+00 -4.9540395163139361e-01 3.0065664355212712e-01 1.6220666372073691e+00 1.6688300769821112e+00 -1.0600850238692823e+00 1.6667782744230610e+00 -1.9138893876664211e+00 2.3528071073562495e+00 
        </Neuron>
        <Neuron NSynapses="17">
          2.2463394093292024e+00 -1.3867930372855947e-01 6.6251818670672383e-02 3.2583016358418238e-01 -6.3709263856369180e-01 1.1250405992332451e+00 -3.7842569497256250e-02 -1.6683993361586897e+00 -1.3429819576505548e+00 -3.4500689865769596e-02 1.7543360360886833e+00 3.9341014012299880e-01 -6.7107535944934671e-01 -1.8226823886389973e+00 1.7092637268302342e+00 3.7964182647762545e-01 -1.9723982337331052e+00 
        </Neuron>
        <Neuron NSynapses="17">
          -3.6111196336683776e-01 -1.0658575478541190e+00 1.3543422806947558e+00 1.3358839321350944e+00 -6.2272167870346540e-01 -1.2759336448772407e+00 1.7627727018077142e+00 8.9164930777808726e-01 4.4689795956532002e-01 5.5103352359351973e-02 -1.2028251369643299e+00 -1.2519972418528116e+00 1.0057727496552364e+00 4.7490728097308238e-01 2.5717374636712020e-01 -1.7798889934862532e+00 -2.6157168856183075e+00 
        </Neuron>
        <Neuron NSynapses="17">
          -2.0693461248062257e+00 -3.3708818554428233e-01 -1.5190786882431833e+00 2.0007795165109302e-01 -5.0246858750994250e-01 1.4247248061912650e+00 6.1373578553703745e-01 -1.9469374239257733e+00 1.1742151669620071e+00 1.9059062164154483e+00 8.3130298198330332e-01 -4.5519630077942014e-01 -9.0477917062440538e-01 2.2317620381429673e+00 -1.5169851546081388e+00 5.3421181754229341e-01 -2.1893554536077531e+00 
        </Neuron>
        <Neuron NSynapses="17">
          8.3884022399584202e-01 -1.1439894089849114e+00 1.1957412287811978e-01 -1.8442556315228231e-01 2.6945034088562053e-01 -5.4115620245705853e-01 -6.5464978509377170e-01 7.4204222641880591e-01 3.8108674480238375e-01 8.5838011087194288e-01 9.8075260461162828e-01 -1.6837669998848066e+00 1.3897764671040616e+00 -1.8091968224083075e+00 1.0900175437987192e+00 1.0872934651817849e+00 1.3469048231392660e+00 
        </Neuron>
        <Neuron NSynapses="17">
          1.4128229248157538e+00 1.3939522223583287e+00 -1.9472842251556159e+00 -6.1506237768478700e-01 -1.0731623815601767e+00 5.8805365684614230e-01 4.7340473556092701e-02 -1.3979706243415524e-01 -6.0669604623386386e-01 -5.0847311487829483e-01 -1.0089184245755149e+00 -3.5067716674834504e-01 -1.8073520161679524e+00 -2.9335314911359539e-01 2.9528529249962315e-01 -7.2133459018155754e-01 -1.2799551882105833e+00 
        </Neuron>
        <Neuron NSynapses="17">
          1.0683767734746069e-01 2.1981770164120917e-01 -3.5482384390136423e-01 -1.2613833193675010e+00 1.9023278737883516e+00 -2.2506552095266208e-01 9.9817286778443515e-01 6.4877630210697323e-01 -1.0229017037745924e+00 -8.8667939841432486e-01 -3.2055408737894242e-01 -1.9369488743611052e+00 -7.1548868756935091e-01 -1.0218153712193638e+00 1.0730466110308552e+00 -1.8871601391752040e+00 1.1955045301359353e+00 
        </Neuron>
        <Neuron NSynapses="17">
          2.0104215653937567e+00 1.6342100739320822e+00 1.0615101711419921e+00 8.4470538666694905e-01 2.0611041998317509e-02 -7.6571509432082163e-01 -2.2792158118897419e+00 -9.7008791914625359e-01 -7.5305781310535935e-01 1.4970483810995727e+00 2.4514248524294829e-01 9.6047971766858378e-02 1.5077953006569829e+00 1.0126760473611958e+00 -1.2669233067678685e+00 2.3745768311861343e-01 -1.7915072096298565e+00 
        </Neuron>
        <Neuron NSynapses="17">
          7.1503683766560466e-01 -1.8622203458901292e+00 2.4270238501380262e-01 -4.8511371377487589e-01 8.3584565591446702e-01 -2.1860026734263331e+00 5.7101151486710688e-01 -1.7115894594395145e+00 3.9426996512754241e-02 1.3254259757285434e+00 -9.1693741580742016e-01 5.3245052069963583e-01 -1.6484546807089504e+00 1.1466037045075381e+00 -5.6918442372109612e-01 7.9647075963908753e-01 -2.2666575815065158e+00 
        </Neuron>
        <Neuron NSynapses="17">
          -8.8628655584691363e-01 1.9977680224816543e+00 -2.0552962659899783e+00 -1.1319103384569067e+00 -8.5723734431215060e-01 1.4956332475456962e+00 1.2871006186801417e+00 1.9863929342943321e+00 -1.9657629297878854e+00 8.2005971071381900e-01 7.4556181613383365e-01 3.0375370976285554e-01 -1.1544861869553495e+00 -1.4196232646448770e+00 3.5923288887663485e-01 -1.2559322912100437e-01 2.6984352608633553e+00 
        </Neuron>
      </Layer>
      <Layer Index="2" NNeurons="18">
        <Neuron NSynapses="1">
          5.2582308809579446e-02 
        </Neuron>
        <Neuron NSynapses="1">
          -2.4791213052970499e-02 
        </Neuron>
        <Neuron NSynapses="1">
          1.5350193398129816e-01 
        </Neuron>
        <Neuron NSynapses="1">
          -3.5849242597580350e-02 
        </Neuron>
        <Neuron NSynapses="1">
          -4.7673472951299055e-02 
        </Neuron>
        <Neuron NSynapses="1">
          -1.1659700177041066e-01 
        </Neuron>
        <Neuron NSynapses="1">
          -3.4650840761420491e-02 
        </Neuron>
        <Neuron NSynapses="1">
          -4.4003486229386551e-01 
        </Neuron>
        <Neuron NSynapses="1">
          1.7086710260141882e-02 
        </Neuron>
        <Neuron NSynapses="1">
          -6.8657878719100658e-03 
        </Neuron>
        <Neuron NSynapses="1">
          6.1069066207161318e-03 
        </Neuron>
        <Neuron NSynapses="1">
          1.9420289946465698e-02 
        </Neuron>
        <Neuron NSynapses="1">
          4.2163418890057473e-02 
        </Neuron>
        <Neuron NSynapses="1">
          4.4919781403047844e-02 
        </Neuron>
        <Neuron NSynapses="1">
          3.9154660938921261e-02 
        </Neuron>
        <Neuron NSynapses="1">
          6.4845020306093801e-03 
        </Neuron>
        <Neuron NSynapses="1">
          9.7080667777500618e-01 
        </Neuron>
        <Neuron NSynapses="1">
          -1.2110335507281045e+00 
        </Neuron>
      </Layer>
      <Layer Index="3" NNeurons="1">
        <Neuron NSynapses="0"/>
      </Layer>
    </Layout>
  </Weights>
</MethodSetup>
