<?xml version="1.0"?>
<MethodSetup Method="MLP::XS_63_152_0_n2n">
  <GeneralInfo>
    <Info name="TMVA Release" value="4.2.1 [262657]"/>
    <Info name="ROOT Release" value="6.06/02 [394754]"/>
    <Info name="Creator" value="mouginot"/>
    <Info name="Date" value="Thu Feb 23 02:50:10 2017"/>
    <Info name="Host" value="Linux e300.chtc.wisc.edu 2.6.32-642.13.1.el6.x86_64 #1 SMP Tue Jan 10 11:22:50 CST 2017 x86_64 x86_64 x86_64 GNU/Linux"/>
    <Info name="Dir" value="/mnt/gluster/mouginot/TRU_MOX_XS/Generate"/>
    <Info name="Training events" value="198960"/>
    <Info name="TrainingTime" value="1.22519650e+04"/>
    <Info name="AnalysisType" value="Regression"/>
  </GeneralInfo>
  <Options>
    <Option name="NCycles" modified="Yes">20000</Option>
    <Option name="HiddenLayers" modified="Yes">N,N</Option>
    <Option name="NeuronType" modified="Yes">tanh</Option>
    <Option name="RandomSeed" modified="No">1</Option>
    <Option name="EstimatorType" modified="No">MSE</Option>
    <Option name="NeuronInputType" modified="No">sum</Option>
    <Option name="V" modified="Yes">False</Option>
    <Option name="VerbosityLevel" modified="No">Default</Option>
    <Option name="VarTransform" modified="Yes">Norm</Option>
    <Option name="H" modified="Yes">False</Option>
    <Option name="CreateMVAPdfs" modified="No">False</Option>
    <Option name="IgnoreNegWeightsInTraining" modified="No">False</Option>
    <Option name="TrainingMethod" modified="Yes">BFGS</Option>
    <Option name="LearningRate" modified="No">2.000000e-02</Option>
    <Option name="DecayRate" modified="No">1.000000e-02</Option>
    <Option name="TestRate" modified="Yes">6</Option>
    <Option name="EpochMonitoring" modified="No">False</Option>
    <Option name="Sampling" modified="Yes">3.000000e-01</Option>
    <Option name="SamplingEpoch" modified="Yes">8.000000e-01</Option>
    <Option name="SamplingImportance" modified="No">1.000000e+00</Option>
    <Option name="SamplingTraining" modified="No">True</Option>
    <Option name="SamplingTesting" modified="No">False</Option>
    <Option name="ResetStep" modified="No">50</Option>
    <Option name="Tau" modified="No">3.000000e+00</Option>
    <Option name="BPMode" modified="No">sequential</Option>
    <Option name="BatchSize" modified="No">-1</Option>
    <Option name="ConvergenceImprove" modified="Yes">1.000000e-06</Option>
    <Option name="ConvergenceTests" modified="Yes">15</Option>
    <Option name="UseRegulator" modified="Yes">False</Option>
    <Option name="UpdateLimit" modified="No">10000</Option>
    <Option name="CalculateErrors" modified="No">False</Option>
    <Option name="WeightRange" modified="No">1.000000e+00</Option>
  </Options>
  <Variables NVar="17">
    <Variable VarIndex="0" Expression="235U" Label="235U" Title="235U" Unit="IsotopicFraction" Internal="235U" Type="F" Min="1.71346517e-06" Max="1.92414057e-02"/>
    <Variable VarIndex="1" Expression="238U" Label="238U" Title="238U" Unit="IsotopicFraction" Internal="238U" Type="F" Min="7.85399854e-01" Max="9.68733251e-01"/>
    <Variable VarIndex="2" Expression="237Np" Label="237Np" Title="237Np" Unit="IsotopicFraction" Internal="237Np" Type="F" Min="1.63990119e-08" Max="1.97294168e-04"/>
    <Variable VarIndex="3" Expression="238Pu" Label="238Pu" Title="238Pu" Unit="IsotopicFraction" Internal="238Pu" Type="F" Min="4.69728775e-07" Max="3.96428024e-03"/>
    <Variable VarIndex="4" Expression="239Pu" Label="239Pu" Title="239Pu" Unit="IsotopicFraction" Internal="239Pu" Type="F" Min="2.15940680e-02" Max="1.89886928e-01"/>
    <Variable VarIndex="5" Expression="240Pu" Label="240Pu" Title="240Pu" Unit="IsotopicFraction" Internal="240Pu" Type="F" Min="1.54567579e-06" Max="3.95636074e-02"/>
    <Variable VarIndex="6" Expression="241Pu" Label="241Pu" Title="241Pu" Unit="IsotopicFraction" Internal="241Pu" Type="F" Min="3.22813172e-08" Max="7.04628276e-03"/>
    <Variable VarIndex="7" Expression="242Pu" Label="242Pu" Title="242Pu" Unit="IsotopicFraction" Internal="242Pu" Type="F" Min="1.58277174e-07" Max="1.98803633e-03"/>
    <Variable VarIndex="8" Expression="241Am" Label="241Am" Title="241Am" Unit="IsotopicFraction" Internal="241Am" Type="F" Min="3.13082671e-10" Max="7.48056592e-03"/>
    <Variable VarIndex="9" Expression="242Amm" Label="242Amm" Title="242Amm" Unit="IsotopicFraction" Internal="242Amm" Type="F" Min="1.34159976e-07" Max="1.16249369e-02"/>
    <Variable VarIndex="10" Expression="243Am" Label="243Am" Title="243Am" Unit="IsotopicFraction" Internal="243Am" Type="F" Min="2.04390229e-08" Max="1.99559363e-04"/>
    <Variable VarIndex="11" Expression="242Cm" Label="242Cm" Title="242Cm" Unit="IsotopicFraction" Internal="242Cm" Type="F" Min="1.48285639e-09" Max="1.93909858e-04"/>
    <Variable VarIndex="12" Expression="243Cm" Label="243Cm" Title="243Cm" Unit="IsotopicFraction" Internal="243Cm" Type="F" Min="9.09117492e-09" Max="1.97552916e-04"/>
    <Variable VarIndex="13" Expression="244Cm" Label="244Cm" Title="244Cm" Unit="IsotopicFraction" Internal="244Cm" Type="F" Min="2.46570231e-09" Max="1.97112051e-04"/>
    <Variable VarIndex="14" Expression="245Cm" Label="245Cm" Title="245Cm" Unit="IsotopicFraction" Internal="245Cm" Type="F" Min="9.47205692e-09" Max="1.97873349e-04"/>
    <Variable VarIndex="15" Expression="246Cm" Label="246Cm" Title="246Cm" Unit="IsotopicFraction" Internal="246Cm" Type="F" Min="2.33963915e-09" Max="1.98596885e-04"/>
    <Variable VarIndex="16" Expression="Time" Label="Time" Title="Time" Unit="seconds" Internal="Time" Type="F" Min="0.00000000e+00" Max="1.89328320e+08"/>
  </Variables>
  <Spectators NSpec="0"/>
  <Classes NClass="1">
    <Class Name="Regression" Index="0"/>
  </Classes>
  <Targets NTrgt="1">
    <Target TargetIndex="0" Expression="XS_63_152_0_n2n" Label="XS_63_152_0_n2n" Title="XS_63_152_0_n2n" Unit="" Internal="XS_63_152_0_n2n" Type="F" Min="3.15281237e-03" Max="4.78655705e-03"/>
  </Targets>
  <Transformations NTransformations="1">
    <Transform Name="Normalize">
      <Selection>
        <Input NInputs="18">
          <Input Type="Variable" Label="235U" Expression="235U"/>
          <Input Type="Variable" Label="238U" Expression="238U"/>
          <Input Type="Variable" Label="237Np" Expression="237Np"/>
          <Input Type="Variable" Label="238Pu" Expression="238Pu"/>
          <Input Type="Variable" Label="239Pu" Expression="239Pu"/>
          <Input Type="Variable" Label="240Pu" Expression="240Pu"/>
          <Input Type="Variable" Label="241Pu" Expression="241Pu"/>
          <Input Type="Variable" Label="242Pu" Expression="242Pu"/>
          <Input Type="Variable" Label="241Am" Expression="241Am"/>
          <Input Type="Variable" Label="242Amm" Expression="242Amm"/>
          <Input Type="Variable" Label="243Am" Expression="243Am"/>
          <Input Type="Variable" Label="242Cm" Expression="242Cm"/>
          <Input Type="Variable" Label="243Cm" Expression="243Cm"/>
          <Input Type="Variable" Label="244Cm" Expression="244Cm"/>
          <Input Type="Variable" Label="245Cm" Expression="245Cm"/>
          <Input Type="Variable" Label="246Cm" Expression="246Cm"/>
          <Input Type="Variable" Label="Time" Expression="Time"/>
          <Input Type="Target" Label="XS_63_152_0_n2n" Expression="XS_63_152_0_n2n"/>
        </Input>
        <Output NOutputs="18">
          <Output Type="Variable" Label="235U" Expression="235U"/>
          <Output Type="Variable" Label="238U" Expression="238U"/>
          <Output Type="Variable" Label="237Np" Expression="237Np"/>
          <Output Type="Variable" Label="238Pu" Expression="238Pu"/>
          <Output Type="Variable" Label="239Pu" Expression="239Pu"/>
          <Output Type="Variable" Label="240Pu" Expression="240Pu"/>
          <Output Type="Variable" Label="241Pu" Expression="241Pu"/>
          <Output Type="Variable" Label="242Pu" Expression="242Pu"/>
          <Output Type="Variable" Label="241Am" Expression="241Am"/>
          <Output Type="Variable" Label="242Amm" Expression="242Amm"/>
          <Output Type="Variable" Label="243Am" Expression="243Am"/>
          <Output Type="Variable" Label="242Cm" Expression="242Cm"/>
          <Output Type="Variable" Label="243Cm" Expression="243Cm"/>
          <Output Type="Variable" Label="244Cm" Expression="244Cm"/>
          <Output Type="Variable" Label="245Cm" Expression="245Cm"/>
          <Output Type="Variable" Label="246Cm" Expression="246Cm"/>
          <Output Type="Variable" Label="Time" Expression="Time"/>
          <Output Type="Target" Label="XS_63_152_0_n2n" Expression="XS_63_152_0_n2n"/>
        </Output>
      </Selection>
      <Class ClassIndex="0">
        <Ranges>
          <Range Index="0" Min="1.7134651670858148e-06" Max="1.9241405650973320e-02"/>
          <Range Index="1" Min="7.8539985418319702e-01" Max="9.6873325109481812e-01"/>
          <Range Index="2" Min="1.6399011926182538e-08" Max="1.9729416817426682e-04"/>
          <Range Index="3" Min="4.6972877498774324e-07" Max="3.9642802439630032e-03"/>
          <Range Index="4" Min="2.1594068035483360e-02" Max="1.8988692760467529e-01"/>
          <Range Index="5" Min="1.5456757864740212e-06" Max="3.9563607424497604e-02"/>
          <Range Index="6" Min="3.2281317174920332e-08" Max="7.0462827570736408e-03"/>
          <Range Index="7" Min="1.5827717447791656e-07" Max="1.9880363252013922e-03"/>
          <Range Index="8" Min="3.1308267089968922e-10" Max="7.4805659241974354e-03"/>
          <Range Index="9" Min="1.3415997557331139e-07" Max="1.1624936945736408e-02"/>
          <Range Index="10" Min="2.0439022918594674e-08" Max="1.9955936295446008e-04"/>
          <Range Index="11" Min="1.4828563932312022e-09" Max="1.9390985835343599e-04"/>
          <Range Index="12" Min="9.0911749239808159e-09" Max="1.9755291577894241e-04"/>
          <Range Index="13" Min="2.4657023089957875e-09" Max="1.9711205095518380e-04"/>
          <Range Index="14" Min="9.4720569165929192e-09" Max="1.9787334895227104e-04"/>
          <Range Index="15" Min="2.3396391490848600e-09" Max="1.9859688472934067e-04"/>
          <Range Index="16" Min="0.0000000000000000e+00" Max="1.8932832000000000e+08"/>
          <Range Index="17" Min="3.1528123654425144e-03" Max="4.7865570522844791e-03"/>
        </Ranges>
      </Class>
    </Transform>
  </Transformations>
  <MVAPdfs/>
  <Weights>
    <Layout NLayers="4">
      <Layer Index="0" NNeurons="18">
        <Neuron NSynapses="17">
          -9.0674449843994198e-02 3.7853978426089951e-01 1.3318829361716375e-01 1.1988741232840738e+00 -1.5304114338219066e+00 -1.5247029380579544e+00 -4.4691164206948752e-01 1.0217225915248111e-01 -1.5308631499828100e+00 -6.1445241659834615e-01 -8.3387419858772416e-01 -4.5637570181752346e-01 -8.7206416136097187e-01 -3.9368860761476693e-01 9.8369658086644565e-02 2.7023440234370277e-01 -4.2905454674152960e-01 
        </Neuron>
        <Neuron NSynapses="17">
          1.4881348780944328e+00 1.3536239642297088e+00 2.2681006660044418e+00 -9.1006499269524244e-01 -1.1364357346238234e-01 -9.7472665264476469e-02 9.5821899213598904e-02 -1.8731020551122848e+00 -1.0471741409926361e-01 2.0706546587145276e+00 -1.9888101217424705e+00 -2.7878060012518793e+00 1.3756660912738752e-01 4.4180247305178899e-01 8.6186447495655316e-01 7.6983217970479489e-01 4.8630137902610726e-02 
        </Neuron>
        <Neuron NSynapses="17">
          2.8195051679525845e-01 -1.7694950418920477e-01 -8.0888748374757291e-01 1.5495360699867089e+00 -1.8116879368351697e+00 5.6625352907956128e-01 1.2583828046804062e+00 3.9340880912883969e-01 1.7880739782363022e+00 7.6117659919331793e-01 -1.0201264634242313e+00 -6.6399914810221194e-01 3.1182110226728182e-01 -7.1590144946400328e-02 1.1245167503633149e+00 5.6027268659432006e-01 1.4006056788187426e+00 
        </Neuron>
        <Neuron NSynapses="17">
          9.3628807606140130e-01 -7.9630036884647726e-01 1.2275568770413179e+00 -1.3806370291916441e+00 -1.5022345923546976e+00 -1.4146236896820596e+00 -1.0649151013290503e+00 8.9354298898858786e-01 2.2439200685122052e-01 -1.3915570701379774e+00 7.9876267480227847e-01 -7.2520133741020620e-01 4.7120636981918990e-01 9.8643578184481739e-01 -8.2020427561990586e-02 3.5334888681802346e-01 -6.3657946267206489e-01 
        </Neuron>
        <Neuron NSynapses="17">
          9.0181218819802456e-01 -1.4524998865791601e+00 -1.1641814098648309e+00 -8.2445900908847491e-01 -7.2546125267067663e-02 1.6992101865803761e+00 1.5129302054722282e+00 2.0517556531259529e-01 -2.1785825281688314e+00 -2.3691465188203193e+00 2.0656833729535253e+00 9.3976665777863622e-01 1.7690931343062217e+00 6.3013469710739067e-01 1.6798094896504057e+00 -1.7154053914516394e+00 -1.0054628026948045e+00 
        </Neuron>
        <Neuron NSynapses="17">
          3.4309486084467072e-01 4.2801282176904698e-01 -1.0172119536370861e+00 -1.4683533285115828e+00 -1.6805249226980472e+00 -4.1145679994850926e-01 4.2269985956544698e-01 1.3518913837022037e+00 -1.5815804069226920e+00 -1.2535636815244227e+00 1.1269218631326321e+00 -3.8776562074273269e-01 -1.5646950614184543e+00 -1.7988300263003669e+00 3.6992968645594776e-01 -1.3980436051048679e+00 -1.2145182708256830e+00 
        </Neuron>
        <Neuron NSynapses="17">
          7.7698734232695266e-01 1.0419762136348316e+00 -4.5483993225226377e-01 1.6213671180453615e+00 -1.2740476997334194e+00 -1.3653932036521379e+00 5.7847884403997385e-01 -2.0244325930393178e-01 -2.1080796047595904e+00 1.1527688317388325e-01 6.4299880180955660e-01 1.3601918449645650e-01 -1.7715901707577328e+00 1.0188983530938798e+00 6.2199279162830767e-01 -6.3997724780246779e-01 1.2586307820779492e+00 
        </Neuron>
        <Neuron NSynapses="17">
          -9.0873671049710558e-01 -8.5871014810591528e-01 2.5467813300381387e-01 -1.3856446194653790e-01 7.6466370680433993e-01 5.1086626723682471e-01 4.4183708711190695e-01 -4.5899234788159227e-01 -1.0924584351458681e-01 -1.5308255808891766e+00 1.3614698617859062e+00 -5.3234866480296884e-02 -2.0635281022348604e+00 1.5185442059961479e-01 -8.4658428107977801e-01 2.4672976553711198e-02 1.4465973759485564e+00 
        </Neuron>
        <Neuron NSynapses="17">
          1.8021976273997318e+00 -1.2860244956466940e+00 1.0152833108850905e+00 1.7872380519207001e+00 5.9648655349289770e-01 -4.6044677427087660e-01 -5.6334514210095854e-01 -5.3376263507457533e-01 -1.7276396527054108e+00 1.1277936147448990e+00 1.8897616710207739e+00 -1.7324948467560231e-01 -8.9650571060152218e-01 -5.8303850254431455e-01 -6.8209872648071790e-01 4.4573679345223299e-02 2.2051676232824442e+00 
        </Neuron>
        <Neuron NSynapses="17">
          -1.0094621427448198e+00 -5.9733267951776725e-01 1.4199809304955504e+00 1.7534501522373256e+00 -3.5890744142700731e-01 6.5061221172942041e-01 -8.8972390834023207e-01 1.0925083535363285e+00 1.9848472794852079e-01 1.2816371718355174e-01 2.2262378832862257e+00 3.1254693549961299e-01 -6.9679231498437000e-01 -6.3101668929371846e-01 2.4154038434848109e+00 -1.8158121780038634e+00 9.7573760619449446e-02 
        </Neuron>
        <Neuron NSynapses="17">
          1.4316717144880977e+00 8.1773525007454750e-01 -2.4993157780803155e-01 1.5962147895878354e+00 1.2485331411794507e+00 -1.6630964664959675e+00 8.2231176075895884e-01 -4.4114260293262464e-01 3.9932257279056366e-01 -1.4848898468863556e+00 -6.0937680007618666e-01 2.2957622904894767e-01 1.4633320670270371e+00 -1.9484480014063814e+00 2.4063596947781404e-01 -4.1768935329096318e-01 2.5524793426228048e-01 
        </Neuron>
        <Neuron NSynapses="17">
          1.6718304219271101e+00 1.5986976458150551e-01 -4.5167327847877345e-02 -8.9445580755284870e-01 6.2019372338016476e-01 1.0430287414284667e+00 1.3854955356908478e+00 -3.2916111787290264e-01 -9.8822215304920080e-01 -1.7606803072388011e+00 7.9185446294783901e-01 -1.0867643486802439e-01 -1.6074828357857645e+00 -1.3067513997687881e+00 4.4660283607487589e-01 1.5358440221784878e-01 -1.5219979268912376e+00 
        </Neuron>
        <Neuron NSynapses="17">
          1.7544294247783958e+00 1.0350354645259552e+00 -6.2062000976045462e-01 -1.8448395177642343e-01 1.8049876374888352e+00 6.9708913448919563e-01 3.9289763227815167e-01 -7.5983412755871971e-01 -1.9967056354607184e+00 -8.4131712701776162e-01 1.8631574911100676e-01 3.1383092343076902e-01 5.0263102396663162e-01 -3.2942675652796655e-01 1.0524164086305883e+00 -4.8539266607031312e-01 -9.4202668379486110e-01 
        </Neuron>
        <Neuron NSynapses="17">
          3.8393745710434651e-01 -1.0047602664701940e+00 9.2589544320627182e-01 1.9798708061440640e+00 -1.2813205438478572e+00 5.2484696121735197e-01 -8.2350272658727561e-02 -1.1555628851247040e+00 -9.0588089569637975e-01 5.8957917649655378e-01 6.6835370538266126e-01 6.5063608945497653e-01 -1.4684893491103275e+00 1.1276130221670495e+00 -1.2530016493669194e+00 6.6589396029067482e-01 3.7461302459010143e-01 
        </Neuron>
        <Neuron NSynapses="17">
          -1.3681039238895145e+00 -8.9152769630955175e-01 -1.2830320951115888e+00 -1.6760793360253812e-01 -2.3797410890806101e+00 -1.4629747782969826e+00 -1.1490111632346840e+00 1.3429082660055797e-01 -1.2094408814020938e+00 -1.6125277261330906e+00 8.6131091955891359e-01 -5.0393795949558928e-01 -2.0540713555166490e-01 -1.4347699348339478e+00 2.5030320465899120e-01 9.0287219006316455e-01 1.5208699525877305e+00 
        </Neuron>
        <Neuron NSynapses="17">
          -4.6760006200034865e-01 -8.9566187583862344e-01 -4.7224899212877613e-01 -1.0438150476918591e+00 -2.2368605424672197e+00 -1.4385579547242577e-01 5.6888094439218706e-01 1.0388254772739229e+00 -3.8616812502597264e-01 -3.0555015493632983e-02 2.6270313867166251e-01 -1.3233227695631655e+00 1.0877545404487599e+00 4.8140602346340244e-01 -4.7742571359631325e-01 -5.8918472258269217e-01 1.1489671062731546e+00 
        </Neuron>
        <Neuron NSynapses="17">
          1.1320110342171175e+00 5.5800912131881830e-01 -3.2966303597262364e-01 -1.0416182654183250e+00 1.0231461501146417e+00 5.0295126646453403e-01 7.1912894014153328e-01 -5.8600454927459666e-01 2.5846780258499397e-01 1.1881229920440994e-01 -2.7722379243087318e+00 -3.6639930960952560e-01 -1.6490603935486872e+00 -1.5048759356792112e+00 -2.3929644419390663e+00 2.6496364280414482e+00 -1.4252149850998279e+00 
        </Neuron>
        <Neuron NSynapses="17">
          1.7157241117136028e+00 -2.6497579667281945e+00 -6.4936952047097674e-01 -1.1287962801941478e+00 1.1058407111284712e+00 2.2338748208333170e+00 -3.2217913983371838e+00 1.8859038843561291e+00 1.2161107117780696e+00 -1.9744487496210148e+00 -2.1310391570382032e+00 -2.8654014556358037e-01 -2.1942613329304161e-01 3.1493506187725608e+00 -8.9310446226208606e-01 -5.9104286984433529e-01 -1.8379599958014348e+00 
        </Neuron>
      </Layer>
      <Layer Index="1" NNeurons="18">
        <Neuron NSynapses="17">
          -5.0150624890750639e-01 -7.9089826324875712e-01 -1.5736871747735934e+00 -1.3048776035391532e+00 6.0108211593062932e-01 -1.6628118407619517e+00 -1.2237227710304466e+00 1.3436094179443989e+00 -1.5018815890331930e-01 -9.1165764473084476e-01 2.0532444912730261e+00 -1.4923910106180629e+00 1.8905506630806488e+00 8.0454388709755464e-01 -1.0496134287223979e+00 7.0895289903654818e-02 -1.7208261153959978e-01 
        </Neuron>
        <Neuron NSynapses="17">
          -2.0866178210209638e-01 5.9393705984087775e-01 1.8200603888420814e+00 1.4939334078040853e+00 1.4937752164688873e+00 -1.5237295962358959e+00 1.1718860167627929e+00 -2.1004876474988992e+00 3.5128571193478930e-01 -1.4883848809580924e+00 -2.2851983653996171e+00 1.3604883690913505e-01 8.7466370197739851e-01 3.7017936431232418e-01 1.0802682824217427e+00 2.7810407684163624e-01 -2.1009675905606026e-01 
        </Neuron>
        <Neuron NSynapses="17">
          6.0909413395306988e-01 -1.9848695860078544e-01 2.3484325514738629e+00 -7.3845125543211698e-01 1.0981369713931779e+00 -1.5613162679048567e+00 -2.7141994627294164e-01 1.5853681675853278e-02 -1.6611560185580312e-01 -1.0394083081194161e+00 4.5870617225102428e-01 1.7224564447296240e+00 2.1735557938132233e-01 -1.4975569918817425e-01 -5.2017521744728934e-01 -1.6422819917514526e+00 -1.5310980626126540e+00 
        </Neuron>
        <Neuron NSynapses="17">
          1.3723113829267999e+00 -3.4383881466640409e-01 -8.6678584761524735e-01 3.0248320208918844e-01 -1.4924531601283137e+00 -1.8144770279003279e+00 -1.7578953408911226e+00 5.6142058689109620e-01 -1.3864825455791285e+00 -1.8950300882535014e+00 -3.6422462423381419e-01 -7.8502784884498367e-01 -1.6445535884567666e+00 1.2754333635322053e+00 -1.5786305554881204e+00 -9.8045772310783563e-01 1.4370312137861505e+00 
        </Neuron>
        <Neuron NSynapses="17">
          1.8333485986781570e-01 2.7128276733691870e-01 -2.3066306668282691e-01 1.2268950077477452e+00 1.6409003947353957e+00 1.2030596742012052e+00 -7.2194513660523940e-01 -3.2160370901550051e-01 -1.4357458156777227e+00 9.6590590809903598e-01 6.6992858329380844e-01 2.3244787896321163e-02 8.0403519068914620e-01 7.7812775858270000e-01 1.5805187366125495e+00 -1.1303516112452323e+00 1.6750003486585852e+00 
        </Neuron>
        <Neuron NSynapses="17">
          1.3617287998581556e-01 -1.8779988908031027e+00 -5.8624253827136952e-01 -1.0754904893509096e+00 6.8183879977000628e-01 8.1880339352132825e-01 1.0011462239488587e+00 1.6820277357440137e+00 -2.9788340509881489e-01 1.4795865397502146e+00 1.7766959196017889e+00 1.1200392563141603e-01 -3.6929425305482649e-01 1.5412170227000972e+00 -2.1049211735476163e+00 8.3097587406846740e-01 1.6306554168301706e+00 
        </Neuron>
        <Neuron NSynapses="17">
          2.1676501181076827e-01 -2.5062985916130281e-01 2.1302191182602412e-01 -1.2125892579006157e+00 7.3664792740154628e-01 -2.2668420504068676e+00 1.9685090224924731e-01 -6.1107634509141773e-01 1.3449922532820908e+00 8.0562513727674179e-01 1.9029902119441888e+00 -1.7883239059924644e-01 8.3352584414513681e-02 3.0635283255765233e-01 1.6203636671321051e+00 -1.5421335272440151e+00 -1.4704318474563192e+00 
        </Neuron>
        <Neuron NSynapses="17">
          -8.8972577370535155e-01 -1.6894986551354401e+00 -2.8527379953877025e-01 -1.9590465986508958e+00 -1.5543212999617059e-01 1.3348918224208151e-01 -2.1516201722849608e+00 -1.9700030327854547e+00 2.1238269565863793e-01 1.6229171004783478e+00 1.9220190382873810e+00 1.2110557752086251e+00 -3.8138150300346607e-01 -1.7365410616942285e+00 -7.2998583786124602e-02 -1.3216871574066953e+00 -1.3819847048492955e+00 
        </Neuron>
        <Neuron NSynapses="17">
          -1.2995051815221734e+00 -4.4849534540059084e-02 -2.3014343795854155e+00 1.3799496172825811e+00 1.1796145662545545e+00 1.2016435398769796e+00 -5.1742013150451505e-01 -3.4943545171855989e-01 1.6149175500698145e+00 -2.7601656957159154e-01 -1.0359386817407683e-01 1.4337729450045007e+00 1.6497120779384455e+00 -1.1162747118821137e+00 1.6747658848168070e+00 -1.6885803759807367e+00 1.8556022506343930e+00 
        </Neuron>
        <Neuron NSynapses="17">
          1.9019785952049055e+00 -3.0571962920952628e-01 8.5572268737708501e-01 4.5444257133382981e-01 -5.8233780884132191e-01 7.3255608899089031e-01 6.6441938853520532e-01 -9.9750202946738031e-01 -1.8264819559408223e+00 6.9952466209221215e-02 1.3382235159731541e+00 3.3795710737457196e-01 -6.8776459752123031e-01 -1.7690915911260319e+00 1.8326626443893421e+00 -7.3139508919508687e-03 -1.2072381967275985e+00 
        </Neuron>
        <Neuron NSynapses="17">
          1.8275098539564294e-03 -1.1358090764164768e+00 2.0971867175577663e+00 1.2289754637840171e+00 -1.2645217110114735e+00 -2.1905068973299269e+00 1.4347855975874289e+00 7.9553374052567660e-01 1.0746908989276853e+00 4.1732032234822344e-02 -6.7046188263532147e-01 -1.3183382108132617e+00 2.4897240453517372e-01 4.4168638923838499e-01 5.0374799724994652e-02 -2.1934171446459589e+00 -2.0290125787509345e+00 
        </Neuron>
        <Neuron NSynapses="17">
          -1.5384771293019615e+00 -4.6863364782836608e-01 -1.8461705492693665e+00 -1.7556429135389712e-01 -6.3158630414405925e-01 1.5316195689694752e+00 2.6143350444816943e-01 -1.7670541846237451e+00 1.5291624535746280e+00 2.0563659912691081e+00 1.2122096621452243e+00 -5.1296307609911374e-01 -1.1086865765237133e+00 2.1511618741610143e+00 -1.5606636113940704e+00 2.3721227284946034e-01 -1.4500778206817888e+00 
        </Neuron>
        <Neuron NSynapses="17">
          3.7142012995009588e-01 -1.3822030165510952e+00 1.5640030149128395e-01 -8.1497488081999622e-02 8.7194564335535379e-02 3.9993597873964942e-01 -1.1746202480907038e+00 1.0695585907451894e+00 7.6419286837991762e-01 9.5023123859148706e-01 8.6452250451348889e-01 -1.8479251933262448e+00 7.5281064933772190e-01 -1.8162209933663767e+00 1.0195759306706551e+00 4.8404959049882595e-01 7.8555854057012187e-01 
        </Neuron>
        <Neuron NSynapses="17">
          1.0821751223604605e+00 1.5913564717225339e+00 -2.4653007695439322e+00 -6.3458463273028609e-01 -6.9875599503155206e-01 1.1328497047384729e+00 4.4911976686521603e-02 -1.1197189769175944e-01 -5.8597569233308144e-01 -3.6807857328075555e-01 -1.0023442187908096e+00 -3.5049486383102113e-01 -1.3365806700471623e+00 -3.8197931382462014e-01 2.9661536849798298e-01 -3.6469597309279184e-01 -1.2408336501468142e+00 
        </Neuron>
        <Neuron NSynapses="17">
          1.7621757482977687e-01 1.4327120633136278e-01 -1.9512383293827845e-01 -1.3271325588407534e+00 1.3086279326400672e+00 -4.5729152085251207e-01 5.4845615727720953e-01 5.9329993273061832e-01 -5.0495466660681276e-01 -7.3855333336437878e-01 1.2434405208842998e-01 -1.9234658494756323e+00 -1.3672937847407678e+00 -9.7612705718060455e-01 9.3250449371790300e-01 -2.0536820749667721e+00 1.1531147865907423e+00 
        </Neuron>
        <Neuron NSynapses="17">
          1.8001003629215464e+00 1.6814386513142461e+00 2.1846531877328892e+00 8.2526614850231816e-01 3.3415777214576237e-01 -9.8329664157067209e-01 -1.7478967226522208e+00 -1.1968834058877016e+00 -9.6504749666397827e-01 1.0142147231394660e+00 -2.7381551143633664e-01 -4.6443259264104860e-03 1.0187096761710170e+00 1.1454537438684722e+00 -1.1458863351614945e+00 6.9653229109784209e-01 -1.5072527433183220e+00 
        </Neuron>
        <Neuron NSynapses="17">
          1.1440087360009923e+00 -1.7964328132474292e+00 9.1832444888615217e-01 -2.9788775994686145e-01 8.3540930307920569e-01 -2.2432210833103454e+00 6.4395244223204959e-02 -1.9498836336963690e+00 -7.8023806504888049e-02 1.0317433805282448e+00 -4.9588609546526324e-01 6.3665395211601150e-01 -2.2448138516955134e+00 1.1776668738610019e+00 -5.4732905418960265e-01 4.6498346671470059e-01 -1.9185146294793725e+00 
        </Neuron>
        <Neuron NSynapses="17">
          -1.7165667567879859e+00 1.8181262277243539e+00 -2.9401141069733971e+00 -1.3324001686255571e+00 -1.0519787611109381e+00 2.3820505013345108e+00 1.5640263123258586e+00 2.0855461882655231e+00 -1.5201225584745601e+00 1.0813895940034122e+00 4.3451470805753561e-01 5.0535726277390593e-02 -1.0237775063133530e+00 -1.4671670398395835e+00 2.5609947930879434e-01 -1.3785475849941592e-01 1.9444898616239366e+00 
        </Neuron>
      </Layer>
      <Layer Index="2" NNeurons="18">
        <Neuron NSynapses="1">
          -6.5146162882697173e-02 
        </Neuron>
        <Neuron NSynapses="1">
          -3.0767499599207264e-02 
        </Neuron>
        <Neuron NSynapses="1">
          -2.6572784494086360e-01 
        </Neuron>
        <Neuron NSynapses="1">
          -3.6566633273445143e-02 
        </Neuron>
        <Neuron NSynapses="1">
          -3.0885268179346215e-02 
        </Neuron>
        <Neuron NSynapses="1">
          2.5130793015297293e-02 
        </Neuron>
        <Neuron NSynapses="1">
          4.4087490133952467e-03 
        </Neuron>
        <Neuron NSynapses="1">
          -9.9017022202165959e-04 
        </Neuron>
        <Neuron NSynapses="1">
          3.9510770256682259e-02 
        </Neuron>
        <Neuron NSynapses="1">
          1.4512551543396851e-01 
        </Neuron>
        <Neuron NSynapses="1">
          2.0233573708855035e-02 
        </Neuron>
        <Neuron NSynapses="1">
          -1.8280688002481924e-02 
        </Neuron>
        <Neuron NSynapses="1">
          -3.0737492492619190e-02 
        </Neuron>
        <Neuron NSynapses="1">
          2.6557714068373529e-02 
        </Neuron>
        <Neuron NSynapses="1">
          -1.0119949611218633e-02 
        </Neuron>
        <Neuron NSynapses="1">
          -4.9208236136933786e-02 
        </Neuron>
        <Neuron NSynapses="1">
          -1.5994578385571025e-02 
        </Neuron>
        <Neuron NSynapses="1">
          -3.5056858475414926e-01 
        </Neuron>
      </Layer>
      <Layer Index="3" NNeurons="1">
        <Neuron NSynapses="0"/>
      </Layer>
    </Layout>
  </Weights>
</MethodSetup>
