<?xml version="1.0"?>
<MethodSetup Method="MLP::XS_20_40_0_n2n">
  <GeneralInfo>
    <Info name="TMVA Release" value="4.2.1 [262657]"/>
    <Info name="ROOT Release" value="6.06/02 [394754]"/>
    <Info name="Creator" value="mouginot"/>
    <Info name="Date" value="Thu Feb 23 09:45:30 2017"/>
    <Info name="Host" value="Linux e300.chtc.wisc.edu 2.6.32-642.13.1.el6.x86_64 #1 SMP Tue Jan 10 11:22:50 CST 2017 x86_64 x86_64 x86_64 GNU/Linux"/>
    <Info name="Dir" value="/mnt/gluster/mouginot/TRU_MOX_XS/Generate"/>
    <Info name="Training events" value="198960"/>
    <Info name="TrainingTime" value="1.43716912e+04"/>
    <Info name="AnalysisType" value="Regression"/>
  </GeneralInfo>
  <Options>
    <Option name="NCycles" modified="Yes">20000</Option>
    <Option name="HiddenLayers" modified="Yes">N,N</Option>
    <Option name="NeuronType" modified="Yes">tanh</Option>
    <Option name="RandomSeed" modified="No">1</Option>
    <Option name="EstimatorType" modified="No">MSE</Option>
    <Option name="NeuronInputType" modified="No">sum</Option>
    <Option name="V" modified="Yes">False</Option>
    <Option name="VerbosityLevel" modified="No">Default</Option>
    <Option name="VarTransform" modified="Yes">Norm</Option>
    <Option name="H" modified="Yes">False</Option>
    <Option name="CreateMVAPdfs" modified="No">False</Option>
    <Option name="IgnoreNegWeightsInTraining" modified="No">False</Option>
    <Option name="TrainingMethod" modified="Yes">BFGS</Option>
    <Option name="LearningRate" modified="No">2.000000e-02</Option>
    <Option name="DecayRate" modified="No">1.000000e-02</Option>
    <Option name="TestRate" modified="Yes">6</Option>
    <Option name="EpochMonitoring" modified="No">False</Option>
    <Option name="Sampling" modified="Yes">3.000000e-01</Option>
    <Option name="SamplingEpoch" modified="Yes">8.000000e-01</Option>
    <Option name="SamplingImportance" modified="No">1.000000e+00</Option>
    <Option name="SamplingTraining" modified="No">True</Option>
    <Option name="SamplingTesting" modified="No">False</Option>
    <Option name="ResetStep" modified="No">50</Option>
    <Option name="Tau" modified="No">3.000000e+00</Option>
    <Option name="BPMode" modified="No">sequential</Option>
    <Option name="BatchSize" modified="No">-1</Option>
    <Option name="ConvergenceImprove" modified="Yes">1.000000e-06</Option>
    <Option name="ConvergenceTests" modified="Yes">15</Option>
    <Option name="UseRegulator" modified="Yes">False</Option>
    <Option name="UpdateLimit" modified="No">10000</Option>
    <Option name="CalculateErrors" modified="No">False</Option>
    <Option name="WeightRange" modified="No">1.000000e+00</Option>
  </Options>
  <Variables NVar="17">
    <Variable VarIndex="0" Expression="235U" Label="235U" Title="235U" Unit="IsotopicFraction" Internal="235U" Type="F" Min="1.71346517e-06" Max="1.92414057e-02"/>
    <Variable VarIndex="1" Expression="238U" Label="238U" Title="238U" Unit="IsotopicFraction" Internal="238U" Type="F" Min="7.85399854e-01" Max="9.68733251e-01"/>
    <Variable VarIndex="2" Expression="237Np" Label="237Np" Title="237Np" Unit="IsotopicFraction" Internal="237Np" Type="F" Min="1.63990119e-08" Max="1.97294168e-04"/>
    <Variable VarIndex="3" Expression="238Pu" Label="238Pu" Title="238Pu" Unit="IsotopicFraction" Internal="238Pu" Type="F" Min="4.69728775e-07" Max="3.96428024e-03"/>
    <Variable VarIndex="4" Expression="239Pu" Label="239Pu" Title="239Pu" Unit="IsotopicFraction" Internal="239Pu" Type="F" Min="2.15940680e-02" Max="1.89886928e-01"/>
    <Variable VarIndex="5" Expression="240Pu" Label="240Pu" Title="240Pu" Unit="IsotopicFraction" Internal="240Pu" Type="F" Min="1.54567579e-06" Max="3.95636074e-02"/>
    <Variable VarIndex="6" Expression="241Pu" Label="241Pu" Title="241Pu" Unit="IsotopicFraction" Internal="241Pu" Type="F" Min="3.22813172e-08" Max="7.04628276e-03"/>
    <Variable VarIndex="7" Expression="242Pu" Label="242Pu" Title="242Pu" Unit="IsotopicFraction" Internal="242Pu" Type="F" Min="1.58277174e-07" Max="1.98803633e-03"/>
    <Variable VarIndex="8" Expression="241Am" Label="241Am" Title="241Am" Unit="IsotopicFraction" Internal="241Am" Type="F" Min="3.13082671e-10" Max="7.48056592e-03"/>
    <Variable VarIndex="9" Expression="242Amm" Label="242Amm" Title="242Amm" Unit="IsotopicFraction" Internal="242Amm" Type="F" Min="1.34159976e-07" Max="1.16249369e-02"/>
    <Variable VarIndex="10" Expression="243Am" Label="243Am" Title="243Am" Unit="IsotopicFraction" Internal="243Am" Type="F" Min="2.04390229e-08" Max="1.99559363e-04"/>
    <Variable VarIndex="11" Expression="242Cm" Label="242Cm" Title="242Cm" Unit="IsotopicFraction" Internal="242Cm" Type="F" Min="1.48285639e-09" Max="1.93909858e-04"/>
    <Variable VarIndex="12" Expression="243Cm" Label="243Cm" Title="243Cm" Unit="IsotopicFraction" Internal="243Cm" Type="F" Min="9.09117492e-09" Max="1.97552916e-04"/>
    <Variable VarIndex="13" Expression="244Cm" Label="244Cm" Title="244Cm" Unit="IsotopicFraction" Internal="244Cm" Type="F" Min="2.46570231e-09" Max="1.97112051e-04"/>
    <Variable VarIndex="14" Expression="245Cm" Label="245Cm" Title="245Cm" Unit="IsotopicFraction" Internal="245Cm" Type="F" Min="9.47205692e-09" Max="1.97873349e-04"/>
    <Variable VarIndex="15" Expression="246Cm" Label="246Cm" Title="246Cm" Unit="IsotopicFraction" Internal="246Cm" Type="F" Min="2.33963915e-09" Max="1.98596885e-04"/>
    <Variable VarIndex="16" Expression="Time" Label="Time" Title="Time" Unit="seconds" Internal="Time" Type="F" Min="0.00000000e+00" Max="1.89328320e+08"/>
  </Variables>
  <Spectators NSpec="0"/>
  <Classes NClass="1">
    <Class Name="Regression" Index="0"/>
  </Classes>
  <Targets NTrgt="1">
    <Target TargetIndex="0" Expression="XS_20_40_0_n2n" Label="XS_20_40_0_n2n" Title="XS_20_40_0_n2n" Unit="" Internal="XS_20_40_0_n2n" Type="F" Min="2.17470153e-14" Max="1.00300909e-07"/>
  </Targets>
  <Transformations NTransformations="1">
    <Transform Name="Normalize">
      <Selection>
        <Input NInputs="18">
          <Input Type="Variable" Label="235U" Expression="235U"/>
          <Input Type="Variable" Label="238U" Expression="238U"/>
          <Input Type="Variable" Label="237Np" Expression="237Np"/>
          <Input Type="Variable" Label="238Pu" Expression="238Pu"/>
          <Input Type="Variable" Label="239Pu" Expression="239Pu"/>
          <Input Type="Variable" Label="240Pu" Expression="240Pu"/>
          <Input Type="Variable" Label="241Pu" Expression="241Pu"/>
          <Input Type="Variable" Label="242Pu" Expression="242Pu"/>
          <Input Type="Variable" Label="241Am" Expression="241Am"/>
          <Input Type="Variable" Label="242Amm" Expression="242Amm"/>
          <Input Type="Variable" Label="243Am" Expression="243Am"/>
          <Input Type="Variable" Label="242Cm" Expression="242Cm"/>
          <Input Type="Variable" Label="243Cm" Expression="243Cm"/>
          <Input Type="Variable" Label="244Cm" Expression="244Cm"/>
          <Input Type="Variable" Label="245Cm" Expression="245Cm"/>
          <Input Type="Variable" Label="246Cm" Expression="246Cm"/>
          <Input Type="Variable" Label="Time" Expression="Time"/>
          <Input Type="Target" Label="XS_20_40_0_n2n" Expression="XS_20_40_0_n2n"/>
        </Input>
        <Output NOutputs="18">
          <Output Type="Variable" Label="235U" Expression="235U"/>
          <Output Type="Variable" Label="238U" Expression="238U"/>
          <Output Type="Variable" Label="237Np" Expression="237Np"/>
          <Output Type="Variable" Label="238Pu" Expression="238Pu"/>
          <Output Type="Variable" Label="239Pu" Expression="239Pu"/>
          <Output Type="Variable" Label="240Pu" Expression="240Pu"/>
          <Output Type="Variable" Label="241Pu" Expression="241Pu"/>
          <Output Type="Variable" Label="242Pu" Expression="242Pu"/>
          <Output Type="Variable" Label="241Am" Expression="241Am"/>
          <Output Type="Variable" Label="242Amm" Expression="242Amm"/>
          <Output Type="Variable" Label="243Am" Expression="243Am"/>
          <Output Type="Variable" Label="242Cm" Expression="242Cm"/>
          <Output Type="Variable" Label="243Cm" Expression="243Cm"/>
          <Output Type="Variable" Label="244Cm" Expression="244Cm"/>
          <Output Type="Variable" Label="245Cm" Expression="245Cm"/>
          <Output Type="Variable" Label="246Cm" Expression="246Cm"/>
          <Output Type="Variable" Label="Time" Expression="Time"/>
          <Output Type="Target" Label="XS_20_40_0_n2n" Expression="XS_20_40_0_n2n"/>
        </Output>
      </Selection>
      <Class ClassIndex="0">
        <Ranges>
          <Range Index="0" Min="1.7134651670858148e-06" Max="1.9241405650973320e-02"/>
          <Range Index="1" Min="7.8539985418319702e-01" Max="9.6873325109481812e-01"/>
          <Range Index="2" Min="1.6399011926182538e-08" Max="1.9729416817426682e-04"/>
          <Range Index="3" Min="4.6972877498774324e-07" Max="3.9642802439630032e-03"/>
          <Range Index="4" Min="2.1594068035483360e-02" Max="1.8988692760467529e-01"/>
          <Range Index="5" Min="1.5456757864740212e-06" Max="3.9563607424497604e-02"/>
          <Range Index="6" Min="3.2281317174920332e-08" Max="7.0462827570736408e-03"/>
          <Range Index="7" Min="1.5827717447791656e-07" Max="1.9880363252013922e-03"/>
          <Range Index="8" Min="3.1308267089968922e-10" Max="7.4805659241974354e-03"/>
          <Range Index="9" Min="1.3415997557331139e-07" Max="1.1624936945736408e-02"/>
          <Range Index="10" Min="2.0439022918594674e-08" Max="1.9955936295446008e-04"/>
          <Range Index="11" Min="1.4828563932312022e-09" Max="1.9390985835343599e-04"/>
          <Range Index="12" Min="9.0911749239808159e-09" Max="1.9755291577894241e-04"/>
          <Range Index="13" Min="2.4657023089957875e-09" Max="1.9711205095518380e-04"/>
          <Range Index="14" Min="9.4720569165929192e-09" Max="1.9787334895227104e-04"/>
          <Range Index="15" Min="2.3396391490848600e-09" Max="1.9859688472934067e-04"/>
          <Range Index="16" Min="0.0000000000000000e+00" Max="1.8932832000000000e+08"/>
          <Range Index="17" Min="2.1747015267140762e-14" Max="1.0030090891177679e-07"/>
        </Ranges>
      </Class>
    </Transform>
  </Transformations>
  <MVAPdfs/>
  <Weights>
    <Layout NLayers="4">
      <Layer Index="0" NNeurons="18">
        <Neuron NSynapses="17">
          -1.8166122827925475e-02 1.5436708624448816e+00 1.7343781900881257e+00 1.4542774689486617e+00 -1.8789962833132983e+00 -5.9255079804610600e-01 -1.0804372401994429e+00 1.0244579023737770e+00 -8.0241826686452611e-01 -1.2837367794251002e+00 -1.1561571828094397e+00 -1.5158706692239801e+00 -1.0426946645018731e+00 -1.1411673374402709e+00 3.8382674819656001e-02 -3.1373149100733255e-01 -5.4125484211863117e-01 
        </Neuron>
        <Neuron NSynapses="17">
          1.6463126038010143e+00 2.8899004150113050e-01 1.1983290622002709e+00 -3.3826325717387318e-01 -1.0536431104897654e+00 4.1768397824719095e-01 3.3388271881618387e-01 -4.9886045425540376e-01 -5.7895509660396316e-01 2.1788852502779732e+00 -1.3004960167077970e+00 -1.1696299574904276e+00 -1.9202743935101454e-01 9.8231885124532126e-01 1.8463712926812919e+00 -5.4852307387078014e-01 2.1170205302015042e-02 
        </Neuron>
        <Neuron NSynapses="17">
          4.7520373520987380e-01 -7.5997072462604587e-01 -2.0488986663798014e+00 1.6683290974737386e+00 -1.5185049494710878e+00 1.6488314391157193e+00 8.8087225400548208e-01 8.2711542287543949e-01 2.0617608848084674e+00 8.8240310926060361e-01 -6.2866283749791074e-01 -1.5474209404765196e+00 1.2766791945061202e+00 8.8755786575543583e-01 2.5683757136503393e-01 2.1562766446679024e-01 1.2629590683273084e+00 
        </Neuron>
        <Neuron NSynapses="17">
          9.1973861100587562e-01 -1.0779227469137356e+00 1.3258170366757167e+00 -1.7496834865774251e+00 -8.4219198022828945e-01 -1.2352873460961533e+00 -9.4689243972944215e-01 1.7261298041852371e+00 -1.6718932989311955e-01 -1.3485507038012552e+00 1.7123034163564613e-01 -1.8810562025997055e-01 9.2808211933281870e-01 1.5131893682831916e+00 -1.6486240388662710e-01 -4.2140032038739605e-01 -1.0553881907297571e+00 
        </Neuron>
        <Neuron NSynapses="17">
          8.1698564758732850e-01 -8.7136230070393283e-01 -2.4493429580332410e-01 -1.4038495877936865e+00 7.0257457424343139e-01 1.3573038652237521e+00 1.4387248388720377e+00 -3.9178861153512112e-01 -1.5929599778052905e+00 -2.5757010797184696e+00 1.4005614225890421e+00 8.5466589023170544e-02 2.0857883779632145e+00 4.1007289283587844e-01 7.9120887693212050e-01 -2.8041071423878905e-01 -1.1265136538528160e+00 
        </Neuron>
        <Neuron NSynapses="17">
          6.8935047878397027e-01 1.0614003371893510e+00 -1.6829295747860991e+00 -1.5782539892232108e+00 -2.2076447710277205e+00 -2.6226751621919137e-01 -7.8035168002119015e-02 6.5320457576185964e-01 -2.0476238307992918e+00 -8.0335556151074194e-01 1.3017918854468835e+00 -1.4181032798057471e+00 -1.0766649370450487e+00 -1.8971443157184666e+00 4.0138377435384442e-01 -7.5435720022336838e-01 -1.6077202474440169e+00 
        </Neuron>
        <Neuron NSynapses="17">
          8.7972494285335334e-01 1.2428558947919157e+00 -1.1462757112926977e-01 5.8969755758212661e-01 -1.2303355338183311e+00 -5.7049063906292130e-01 1.2009392621495263e-01 -2.3927444244497365e-01 -2.4717253300130961e+00 3.7688076295233131e-01 1.1291754074670612e+00 6.0800067835907723e-01 -1.4231854291917867e+00 1.2379934581372674e+00 -1.3397707234047564e-02 -4.0025448700656474e-01 -1.8196328997420799e-01 
        </Neuron>
        <Neuron NSynapses="17">
          -6.5196059703349973e-01 -1.0989235055278814e+00 2.9067820246423676e-01 -1.6557760327629447e+00 1.3292269398135819e+00 5.2806227134391037e-01 6.5929336117124260e-01 -3.4966680518440091e-01 -8.0431521451479238e-01 -2.4382758614131101e+00 3.7903761167407185e-01 1.1918760406600324e+00 -1.8889086088827907e+00 6.0566313639530867e-01 -3.6546628347464118e-02 3.5793995160474046e-01 1.0645973967100133e+00 
        </Neuron>
        <Neuron NSynapses="17">
          2.3964521815067230e+00 -1.1608342881287206e+00 -5.1807441893602291e-01 8.1233246782592938e-01 7.2915756121268116e-01 -9.7515823753680148e-02 -6.3845728157088966e-01 2.7414416146556320e-02 -1.6649877016424681e+00 8.2697294437704383e-01 1.4107486298130889e+00 9.2970384087100164e-02 -4.1827865489271993e-01 -9.1234765463364786e-02 1.5399632288359494e-01 1.3199416747677875e-01 1.5492218328780309e+00 
        </Neuron>
        <Neuron NSynapses="17">
          -5.9354243148035328e-02 -2.2979273244628282e+00 5.3027969036013289e-01 1.5965257943369096e+00 5.8915925545604886e-01 1.2548030008318096e+00 -1.5749737788333122e+00 2.2511377388515239e+00 8.5871982341047670e-01 1.9136434704240610e-01 8.2560583342170824e-01 9.1108319648416758e-01 -1.1626930943177929e+00 -2.8608879782784152e-01 2.0937671037887453e+00 -3.5652668501674758e+00 3.0714494227525047e-01 
        </Neuron>
        <Neuron NSynapses="17">
          1.7015765719237035e+00 1.8217482371814546e+00 -8.0881551616051428e-01 1.9205056721058991e+00 1.6200603004829042e+00 -1.6228740533713257e+00 8.5716243951851634e-01 7.4565032757238012e-02 -1.5534632662322898e-01 -1.4270468112322539e+00 -2.4365271678761133e+00 1.1223017926247767e+00 1.2610439998477547e+00 -2.2527840145009521e+00 1.0371912835256929e-01 3.6234907964113094e-01 2.7307700620283865e-01 
        </Neuron>
        <Neuron NSynapses="17">
          2.3045206367700359e+00 9.0296739627375250e-02 1.2636190162026911e-01 5.8512094691428547e-02 1.2399598809497756e-01 2.0587609430375742e+00 1.3894980308037141e+00 2.4946823528789100e-01 -1.0721494970336614e+00 -1.5696091304499158e+00 1.2328169253085657e-01 9.6939398470742377e-01 -1.1382857467686469e+00 -5.5263049369395834e-01 3.8586662222186603e-03 -3.2206292206130616e-01 -1.3171656604826101e+00 
        </Neuron>
        <Neuron NSynapses="17">
          1.8884705161337105e+00 1.2563444014539284e+00 -1.3369595025324741e+00 2.5200280029840399e-01 9.6896706874376293e-01 1.1892887176721312e+00 7.0600700710225150e-01 -1.8378585040639858e-01 -1.4945073588270350e+00 -6.4742596600437741e-01 1.9238138197792023e+00 1.2563560853814684e+00 1.7393499436017754e+00 -5.5157741747525979e-01 -2.0027976136914230e-01 -3.5300568348735534e-01 -1.6050173088832205e+00 
        </Neuron>
        <Neuron NSynapses="17">
          7.5182269618683528e-01 -3.7802909382865729e-01 4.6331160792374598e-01 1.7638950315996662e+00 -8.9139909526679062e-01 3.6984624474999217e-01 2.1947786895689073e-01 -1.4740414050021073e+00 -5.8263006801439510e-01 5.8117934453928954e-01 9.1561182893790019e-02 7.9552525448063083e-01 -5.4132770324761736e-01 1.9119721243569310e+00 7.9965731877971583e-02 3.3513434426909255e-01 -1.0902162677086569e-01 
        </Neuron>
        <Neuron NSynapses="17">
          -1.6193325384213662e+00 -1.1786347986023347e+00 -9.3049341753415793e-01 -1.7123987423548809e-01 -1.6492814920395817e+00 -1.4481267553628636e+00 -5.9251717132374038e-01 -8.6196169256259292e-01 -6.2819295479183457e-01 -1.7812488361528593e+00 8.6484876633393426e-01 -7.3142148091369108e-01 -1.3413362765216785e-01 -7.9043840108541719e-01 -6.7147983289725988e-02 3.7213504549361864e-01 2.2388720674233937e+00 
        </Neuron>
        <Neuron NSynapses="17">
          -1.1936580446143635e-01 -1.7508453830655801e+00 -9.4430241149579386e-01 -9.0088133119720426e-01 -2.1407760372644371e+00 -2.7049433266436644e-03 1.2449613299713385e+00 2.1867082853237023e+00 -2.5733719693669382e-01 2.5566763095782985e-01 -2.1473186610297419e-02 -1.0643165452269212e+00 1.8574004722681172e+00 2.1839664306363735e-01 2.8141775371040297e-02 1.9234105630626280e-01 6.9709182458371355e-01 
        </Neuron>
        <Neuron NSynapses="17">
          1.0772931192913788e+00 6.7920777136417032e-01 -8.4261646249030053e-01 -8.5166509604180329e-01 1.5419231561539832e+00 9.1501609355838365e-01 7.5130820297456657e-01 -9.7237624533096145e-01 -3.6468806292029643e-01 1.2494307119910455e+00 -2.0535136887008760e+00 -1.7657828803174459e-03 -6.0866070060136857e-01 -1.4166681556695142e+00 -2.2599197036209437e+00 2.7342325113220789e+00 -2.1297194902244185e+00 
        </Neuron>
        <Neuron NSynapses="17">
          9.0679933098006105e-01 -1.4596465683136941e+00 3.2610285959665930e-01 -9.1069412399971350e-01 2.0258102096899795e+00 8.9829638659746314e-01 -3.0251169293103310e+00 -9.2686545958931688e-01 1.0377376853214506e+00 -1.7815452569594821e+00 -2.0246988437608686e+00 -2.1697518988504791e+00 -4.3527426209027209e-01 2.1743008136724726e+00 -1.4133273986767787e+00 -4.8102800645605226e-01 -8.3104535476994512e-01 
        </Neuron>
      </Layer>
      <Layer Index="1" NNeurons="18">
        <Neuron NSynapses="17">
          -1.2301266014389989e+00 -1.1145510807380183e+00 -6.0139402510169149e-01 -1.0971011690488421e+00 1.7656611423337568e-01 -1.5820957439824428e+00 -1.1315525479573192e+00 1.5598485914545812e+00 5.9962421354370932e-01 -3.8162241713595274e-01 1.7834730006641912e+00 -1.7306552625774783e+00 1.3207644506214411e+00 9.7439264479376475e-01 -1.1656988973806000e+00 -2.7240521399147405e-01 -1.6408527991216235e-01 
        </Neuron>
        <Neuron NSynapses="17">
          -7.4833426289712979e-01 4.0900026695396979e-01 1.4548685789232509e+00 1.4903239359329747e+00 1.4888929757761737e+00 -1.0060155889575597e+00 2.6458751574231359e-01 -1.3915550560214123e+00 8.7808895176236268e-01 -1.2651593587898913e+00 -1.8612441981614825e+00 2.1938845476910868e-01 1.0036307246393690e+00 4.9743218231750319e-01 1.2778120891573344e+00 -3.3409067772206202e-01 -2.2378396545886009e-01 
        </Neuron>
        <Neuron NSynapses="17">
          -3.1655444085253559e-01 1.5169192390267853e-02 1.4457467443783172e+00 -1.5943083687943305e+00 1.8973345985403828e-01 -1.6932068896008929e+00 -4.2684845072548155e-01 3.7585621212996106e-01 2.1958951603829382e-01 -1.1623980214418053e+00 1.0062202871998305e+00 1.6364500293606237e+00 7.6009962937437436e-01 3.9178435011685681e-01 -8.0923751639622077e-01 -1.0674410645671100e+00 -1.5585835380948225e+00 
        </Neuron>
        <Neuron NSynapses="17">
          1.0594141271526454e+00 -5.3138468227633928e-01 -5.4639664347385164e-01 -2.2353901550546059e-02 -9.9422614534989140e-01 -1.6364566887884364e+00 -6.6677714272244681e-01 1.0923262826757363e+00 -1.3209914790951471e+00 -1.6251291688432767e+00 -7.5899415098496270e-01 -9.4163916406408465e-01 -9.4721982638194691e-01 1.4670504937143116e+00 -1.1136758207086965e+00 1.5158077393958175e-01 1.4978048122415066e+00 
        </Neuron>
        <Neuron NSynapses="17">
          5.4285550946994121e-01 2.0343772716521480e-01 -4.7735955392305834e-01 1.0966249885089931e+00 1.8909927111424134e+00 9.0948851483644444e-01 -4.2636003800258571e-01 -2.9123741049343455e-01 -1.2898140992333262e+00 8.7259522227738440e-01 9.9802043105435001e-01 2.0750198747840767e-01 2.1265977061339850e-01 5.8896893970561481e-01 1.2781911333294855e+00 4.0448922452523683e-02 1.6477407123307446e+00 
        </Neuron>
        <Neuron NSynapses="17">
          8.3459775775346212e-01 -1.6173232340015655e+00 -3.6051699912724877e-01 -7.7528135906203766e-01 7.6872110418383566e-01 9.2622430152953872e-01 4.2467814342848798e-01 1.6734847553666539e+00 -4.0442946485799214e-01 2.3443921877797260e+00 1.9826011951436406e+00 3.0880991644643113e-01 -4.4353012441815297e-02 1.4421712220383589e+00 -2.1462638070010405e+00 3.7794966108260158e-01 1.6230239499814618e+00 
        </Neuron>
        <Neuron NSynapses="17">
          -6.0528820264263417e-01 -7.9551485953376877e-01 -1.1437372373776931e-01 -1.0794256231614026e+00 2.2105257436112929e-01 -1.9875879293791425e+00 3.2440605583346510e-01 -4.9816029669079376e-01 2.2081870580265330e+00 1.3530425109106281e+00 1.8663799993723045e+00 -5.3054212504648068e-01 -2.9093391562245907e-01 4.4074726667357600e-01 1.7471543379768970e+00 -7.6774242872853260e-01 -1.4504935306658342e+00 
        </Neuron>
        <Neuron NSynapses="17">
          -8.7175019424978761e-01 -1.2487111598628882e+00 -1.4060334809099633e+00 -1.4640981555471253e+00 1.0689776727918407e+00 -3.6013229716562017e-01 -2.0784213043324740e+00 -2.0972292846476170e+00 -2.0921330193575882e-01 1.9999699689818902e+00 1.8307573533387105e+00 1.3128071245203190e+00 -5.5678272752469826e-01 -1.8307567799247184e+00 1.8868935735906273e-01 -7.3981140646786503e-01 -1.5581265307010412e+00 
        </Neuron>
        <Neuron NSynapses="17">
          -9.3902705222743998e-01 -6.2075296348894068e-02 -1.6659838659708162e+00 1.8110330705259456e+00 1.2663078615150229e+00 3.8996355679031969e-01 -7.4063523532583653e-01 -6.5398206936444814e-01 1.8080107945438622e+00 -2.4119060409991241e-01 1.2222021583349414e-01 1.8290321797037048e+00 1.4884009611457181e+00 -1.0978090986020530e+00 1.6141896768277668e+00 -8.6218616979623819e-01 1.7374364635201454e+00 
        </Neuron>
        <Neuron NSynapses="17">
          2.3129761973915079e+00 -5.0441561279677771e-01 -3.9341903417865470e-01 5.5195308455731917e-01 -5.8462817967224379e-01 9.3294251913239412e-01 -1.5552529145166238e-01 -5.1924393301178728e-01 -1.5248508558797118e+00 3.3123858475404437e-02 1.6626764871722555e+00 6.5342215262358649e-01 -3.4168509580934980e-01 -1.4684238151431377e+00 1.9120698275179100e+00 -5.2030735569707248e-02 -1.2530840949842457e+00 
        </Neuron>
        <Neuron NSynapses="17">
          -3.4051279075504154e-03 -9.4182435635191764e-01 1.8065644318649177e+00 1.2449037935233103e+00 -8.3587161179463587e-01 -1.3588236085681598e+00 1.6311567946870824e+00 1.1169123372806893e+00 1.8308944257731801e+00 8.5413027969021893e-02 -1.0555068535219809e+00 -1.3409605338994937e+00 1.1295740028897501e+00 -1.0277277783653593e-01 4.7749419824779266e-01 -1.3642251918511321e+00 -1.9424829494933893e+00 
        </Neuron>
        <Neuron NSynapses="17">
          -1.9776029057789206e+00 -2.3774342790034403e-01 -1.1041615254763701e+00 3.9141192876525138e-01 -5.1325129077403120e-01 1.0385619187362500e+00 6.6054420846069994e-01 -1.7768584459001968e+00 3.3803630276811669e-01 1.7174848906893714e+00 9.6369152190883767e-01 -1.6664888991192287e-01 -7.3177861746157036e-01 2.6262022318310820e+00 -1.9617998043346039e+00 3.8127928399414052e-01 -1.4856960130200627e+00 
        </Neuron>
        <Neuron NSynapses="17">
          7.4981796981315174e-01 -8.8477501495324751e-01 5.3457518493470274e-02 -3.4854207692277661e-01 3.5230269812629428e-01 -6.0747952358067425e-01 4.4687170072294713e-01 7.1047033940257598e-01 4.1765220436951389e-01 4.7314154742887132e-01 9.1843314542250598e-01 -1.2189444823869764e+00 3.7957067301926106e-01 -1.2233813446374973e+00 6.9564650281349760e-01 -2.6480546833792213e-02 7.7222521411175427e-01 
        </Neuron>
        <Neuron NSynapses="17">
          1.4910596736139574e+00 1.7701258906837010e+00 -1.5384481555769178e+00 -1.0247410039050246e+00 -1.6652614966933084e+00 9.1002803875017391e-01 -4.3206829864855362e-01 1.9303702665802172e-01 4.0732353574137170e-01 -4.9145854587454252e-01 -6.1112561228108531e-01 -4.6491279181138390e-01 -1.4617825366675248e+00 -1.9422717980268464e-01 2.9945683976692444e-01 1.5668985396692606e-01 -1.2630059711199395e+00 
        </Neuron>
        <Neuron NSynapses="17">
          1.8337479638417015e-01 -4.5587335065552598e-02 -1.6476342223094813e+00 -1.4571815409008468e+00 2.8568628045121578e+00 -5.8945033537018565e-01 2.2400541388925621e+00 8.5412599846894222e-01 -5.8596148085897037e-01 -1.1624413466488461e+00 -4.1746245210646088e-01 -2.0075058978995561e+00 -2.1234790801465482e+00 -1.2603228206861969e+00 8.0156723933881147e-01 -2.5838224168459707e+00 1.2623436567635702e+00 
        </Neuron>
        <Neuron NSynapses="17">
          1.8328247230894046e+00 1.4307648435898856e+00 1.5929264683342135e+00 1.1208079490420078e+00 -3.4510833905624261e-01 -9.1821850739820499e-01 -1.2986448921636662e+00 -1.3562271894208604e+00 -5.6521869050632412e-01 1.4755266589604366e+00 -2.8000167139767185e-01 2.3570856643682717e-01 1.9624134729288145e+00 1.1840749055300344e+00 -1.3659751912509681e+00 1.3057758613282699e+00 -1.5477334927749475e+00 
        </Neuron>
        <Neuron NSynapses="17">
          9.1194738121303576e-01 -2.2788043851955671e+00 -3.1952479196803368e-01 -1.4415882745651160e-01 -2.8121105430927168e-01 -2.0036196739516239e+00 5.7619339634453726e-01 -2.3202014012368735e+00 -4.8019856991244941e-01 1.3389799377676688e+00 -8.7663252839669736e-01 6.1959813677602116e-01 -1.2879531064166563e+00 1.0433451083612688e+00 -6.6072764343536416e-01 6.0329181159988221e-01 -1.7419093368423875e+00 
        </Neuron>
        <Neuron NSynapses="17">
          -9.7155182512301885e-01 2.0354599916874760e+00 -2.4304531994785110e+00 -1.1798903336298086e+00 -4.4051774427005636e-01 1.8943014569298597e+00 1.6268300937861331e+00 1.7808751127824991e+00 -1.9351175427913816e+00 6.2159594074270585e-01 7.1813264740423499e-01 1.5081554014502421e-01 -8.3467391015291470e-01 -1.5344146920693535e+00 4.7467793935408659e-01 3.0049562408816243e-02 1.8970716147284490e+00 
        </Neuron>
      </Layer>
      <Layer Index="2" NNeurons="18">
        <Neuron NSynapses="1">
          -5.9444177853781180e-03 
        </Neuron>
        <Neuron NSynapses="1">
          -4.5079784108730580e-03 
        </Neuron>
        <Neuron NSynapses="1">
          -1.3989816343906308e-02 
        </Neuron>
        <Neuron NSynapses="1">
          -1.4243105472662350e-03 
        </Neuron>
        <Neuron NSynapses="1">
          6.8482876298996643e-03 
        </Neuron>
        <Neuron NSynapses="1">
          6.6048855279259175e-02 
        </Neuron>
        <Neuron NSynapses="1">
          1.2853251038587327e-02 
        </Neuron>
        <Neuron NSynapses="1">
          2.9973452355238914e-03 
        </Neuron>
        <Neuron NSynapses="1">
          -9.8060391161676058e-03 
        </Neuron>
        <Neuron NSynapses="1">
          -4.9740009017114652e-03 
        </Neuron>
        <Neuron NSynapses="1">
          -5.3879850368518259e-03 
        </Neuron>
        <Neuron NSynapses="1">
          -6.0739894319757591e-03 
        </Neuron>
        <Neuron NSynapses="1">
          -1.5505948601071299e-02 
        </Neuron>
        <Neuron NSynapses="1">
          -6.1585492597682201e-03 
        </Neuron>
        <Neuron NSynapses="1">
          -5.6360405666660640e-03 
        </Neuron>
        <Neuron NSynapses="1">
          -2.2774781564344107e-02 
        </Neuron>
        <Neuron NSynapses="1">
          3.5720523002515897e-03 
        </Neuron>
        <Neuron NSynapses="1">
          -8.7192063585681001e-01 
        </Neuron>
      </Layer>
      <Layer Index="3" NNeurons="1">
        <Neuron NSynapses="0"/>
      </Layer>
    </Layout>
  </Weights>
</MethodSetup>
