<?xml version="1.0"?>
<MethodSetup Method="MLP::XS_90_228_0_cap">
  <GeneralInfo>
    <Info name="TMVA Release" value="4.2.1 [262657]"/>
    <Info name="ROOT Release" value="6.06/02 [394754]"/>
    <Info name="Creator" value="mouginot"/>
    <Info name="Date" value="Thu Feb 23 10:34:42 2017"/>
    <Info name="Host" value="Linux e300.chtc.wisc.edu 2.6.32-642.13.1.el6.x86_64 #1 SMP Tue Jan 10 11:22:50 CST 2017 x86_64 x86_64 x86_64 GNU/Linux"/>
    <Info name="Dir" value="/mnt/gluster/mouginot/TRU_MOX_XS/Generate"/>
    <Info name="Training events" value="198960"/>
    <Info name="TrainingTime" value="1.50072545e+04"/>
    <Info name="AnalysisType" value="Regression"/>
  </GeneralInfo>
  <Options>
    <Option name="NCycles" modified="Yes">20000</Option>
    <Option name="HiddenLayers" modified="Yes">N,N</Option>
    <Option name="NeuronType" modified="Yes">tanh</Option>
    <Option name="RandomSeed" modified="No">1</Option>
    <Option name="EstimatorType" modified="No">MSE</Option>
    <Option name="NeuronInputType" modified="No">sum</Option>
    <Option name="V" modified="Yes">False</Option>
    <Option name="VerbosityLevel" modified="No">Default</Option>
    <Option name="VarTransform" modified="Yes">Norm</Option>
    <Option name="H" modified="Yes">False</Option>
    <Option name="CreateMVAPdfs" modified="No">False</Option>
    <Option name="IgnoreNegWeightsInTraining" modified="No">False</Option>
    <Option name="TrainingMethod" modified="Yes">BFGS</Option>
    <Option name="LearningRate" modified="No">2.000000e-02</Option>
    <Option name="DecayRate" modified="No">1.000000e-02</Option>
    <Option name="TestRate" modified="Yes">6</Option>
    <Option name="EpochMonitoring" modified="No">False</Option>
    <Option name="Sampling" modified="Yes">3.000000e-01</Option>
    <Option name="SamplingEpoch" modified="Yes">8.000000e-01</Option>
    <Option name="SamplingImportance" modified="No">1.000000e+00</Option>
    <Option name="SamplingTraining" modified="No">True</Option>
    <Option name="SamplingTesting" modified="No">False</Option>
    <Option name="ResetStep" modified="No">50</Option>
    <Option name="Tau" modified="No">3.000000e+00</Option>
    <Option name="BPMode" modified="No">sequential</Option>
    <Option name="BatchSize" modified="No">-1</Option>
    <Option name="ConvergenceImprove" modified="Yes">1.000000e-06</Option>
    <Option name="ConvergenceTests" modified="Yes">15</Option>
    <Option name="UseRegulator" modified="Yes">False</Option>
    <Option name="UpdateLimit" modified="No">10000</Option>
    <Option name="CalculateErrors" modified="No">False</Option>
    <Option name="WeightRange" modified="No">1.000000e+00</Option>
  </Options>
  <Variables NVar="17">
    <Variable VarIndex="0" Expression="235U" Label="235U" Title="235U" Unit="IsotopicFraction" Internal="235U" Type="F" Min="1.71346517e-06" Max="1.92414057e-02"/>
    <Variable VarIndex="1" Expression="238U" Label="238U" Title="238U" Unit="IsotopicFraction" Internal="238U" Type="F" Min="7.85399854e-01" Max="9.68733251e-01"/>
    <Variable VarIndex="2" Expression="237Np" Label="237Np" Title="237Np" Unit="IsotopicFraction" Internal="237Np" Type="F" Min="1.63990119e-08" Max="1.97294168e-04"/>
    <Variable VarIndex="3" Expression="238Pu" Label="238Pu" Title="238Pu" Unit="IsotopicFraction" Internal="238Pu" Type="F" Min="4.69728775e-07" Max="3.96428024e-03"/>
    <Variable VarIndex="4" Expression="239Pu" Label="239Pu" Title="239Pu" Unit="IsotopicFraction" Internal="239Pu" Type="F" Min="2.15940680e-02" Max="1.89886928e-01"/>
    <Variable VarIndex="5" Expression="240Pu" Label="240Pu" Title="240Pu" Unit="IsotopicFraction" Internal="240Pu" Type="F" Min="1.54567579e-06" Max="3.95636074e-02"/>
    <Variable VarIndex="6" Expression="241Pu" Label="241Pu" Title="241Pu" Unit="IsotopicFraction" Internal="241Pu" Type="F" Min="3.22813172e-08" Max="7.04628276e-03"/>
    <Variable VarIndex="7" Expression="242Pu" Label="242Pu" Title="242Pu" Unit="IsotopicFraction" Internal="242Pu" Type="F" Min="1.58277174e-07" Max="1.98803633e-03"/>
    <Variable VarIndex="8" Expression="241Am" Label="241Am" Title="241Am" Unit="IsotopicFraction" Internal="241Am" Type="F" Min="3.13082671e-10" Max="7.48056592e-03"/>
    <Variable VarIndex="9" Expression="242Amm" Label="242Amm" Title="242Amm" Unit="IsotopicFraction" Internal="242Amm" Type="F" Min="1.34159976e-07" Max="1.16249369e-02"/>
    <Variable VarIndex="10" Expression="243Am" Label="243Am" Title="243Am" Unit="IsotopicFraction" Internal="243Am" Type="F" Min="2.04390229e-08" Max="1.99559363e-04"/>
    <Variable VarIndex="11" Expression="242Cm" Label="242Cm" Title="242Cm" Unit="IsotopicFraction" Internal="242Cm" Type="F" Min="1.48285639e-09" Max="1.93909858e-04"/>
    <Variable VarIndex="12" Expression="243Cm" Label="243Cm" Title="243Cm" Unit="IsotopicFraction" Internal="243Cm" Type="F" Min="9.09117492e-09" Max="1.97552916e-04"/>
    <Variable VarIndex="13" Expression="244Cm" Label="244Cm" Title="244Cm" Unit="IsotopicFraction" Internal="244Cm" Type="F" Min="2.46570231e-09" Max="1.97112051e-04"/>
    <Variable VarIndex="14" Expression="245Cm" Label="245Cm" Title="245Cm" Unit="IsotopicFraction" Internal="245Cm" Type="F" Min="9.47205692e-09" Max="1.97873349e-04"/>
    <Variable VarIndex="15" Expression="246Cm" Label="246Cm" Title="246Cm" Unit="IsotopicFraction" Internal="246Cm" Type="F" Min="2.33963915e-09" Max="1.98596885e-04"/>
    <Variable VarIndex="16" Expression="Time" Label="Time" Title="Time" Unit="seconds" Internal="Time" Type="F" Min="0.00000000e+00" Max="1.89328320e+08"/>
  </Variables>
  <Spectators NSpec="0"/>
  <Classes NClass="1">
    <Class Name="Regression" Index="0"/>
  </Classes>
  <Targets NTrgt="1">
    <Target TargetIndex="0" Expression="XS_90_228_0_cap" Label="XS_90_228_0_cap" Title="XS_90_228_0_cap" Unit="" Internal="XS_90_228_0_cap" Type="F" Min="2.04577866e+01" Max="3.66914825e+01"/>
  </Targets>
  <Transformations NTransformations="1">
    <Transform Name="Normalize">
      <Selection>
        <Input NInputs="18">
          <Input Type="Variable" Label="235U" Expression="235U"/>
          <Input Type="Variable" Label="238U" Expression="238U"/>
          <Input Type="Variable" Label="237Np" Expression="237Np"/>
          <Input Type="Variable" Label="238Pu" Expression="238Pu"/>
          <Input Type="Variable" Label="239Pu" Expression="239Pu"/>
          <Input Type="Variable" Label="240Pu" Expression="240Pu"/>
          <Input Type="Variable" Label="241Pu" Expression="241Pu"/>
          <Input Type="Variable" Label="242Pu" Expression="242Pu"/>
          <Input Type="Variable" Label="241Am" Expression="241Am"/>
          <Input Type="Variable" Label="242Amm" Expression="242Amm"/>
          <Input Type="Variable" Label="243Am" Expression="243Am"/>
          <Input Type="Variable" Label="242Cm" Expression="242Cm"/>
          <Input Type="Variable" Label="243Cm" Expression="243Cm"/>
          <Input Type="Variable" Label="244Cm" Expression="244Cm"/>
          <Input Type="Variable" Label="245Cm" Expression="245Cm"/>
          <Input Type="Variable" Label="246Cm" Expression="246Cm"/>
          <Input Type="Variable" Label="Time" Expression="Time"/>
          <Input Type="Target" Label="XS_90_228_0_cap" Expression="XS_90_228_0_cap"/>
        </Input>
        <Output NOutputs="18">
          <Output Type="Variable" Label="235U" Expression="235U"/>
          <Output Type="Variable" Label="238U" Expression="238U"/>
          <Output Type="Variable" Label="237Np" Expression="237Np"/>
          <Output Type="Variable" Label="238Pu" Expression="238Pu"/>
          <Output Type="Variable" Label="239Pu" Expression="239Pu"/>
          <Output Type="Variable" Label="240Pu" Expression="240Pu"/>
          <Output Type="Variable" Label="241Pu" Expression="241Pu"/>
          <Output Type="Variable" Label="242Pu" Expression="242Pu"/>
          <Output Type="Variable" Label="241Am" Expression="241Am"/>
          <Output Type="Variable" Label="242Amm" Expression="242Amm"/>
          <Output Type="Variable" Label="243Am" Expression="243Am"/>
          <Output Type="Variable" Label="242Cm" Expression="242Cm"/>
          <Output Type="Variable" Label="243Cm" Expression="243Cm"/>
          <Output Type="Variable" Label="244Cm" Expression="244Cm"/>
          <Output Type="Variable" Label="245Cm" Expression="245Cm"/>
          <Output Type="Variable" Label="246Cm" Expression="246Cm"/>
          <Output Type="Variable" Label="Time" Expression="Time"/>
          <Output Type="Target" Label="XS_90_228_0_cap" Expression="XS_90_228_0_cap"/>
        </Output>
      </Selection>
      <Class ClassIndex="0">
        <Ranges>
          <Range Index="0" Min="1.7134651670858148e-06" Max="1.9241405650973320e-02"/>
          <Range Index="1" Min="7.8539985418319702e-01" Max="9.6873325109481812e-01"/>
          <Range Index="2" Min="1.6399011926182538e-08" Max="1.9729416817426682e-04"/>
          <Range Index="3" Min="4.6972877498774324e-07" Max="3.9642802439630032e-03"/>
          <Range Index="4" Min="2.1594068035483360e-02" Max="1.8988692760467529e-01"/>
          <Range Index="5" Min="1.5456757864740212e-06" Max="3.9563607424497604e-02"/>
          <Range Index="6" Min="3.2281317174920332e-08" Max="7.0462827570736408e-03"/>
          <Range Index="7" Min="1.5827717447791656e-07" Max="1.9880363252013922e-03"/>
          <Range Index="8" Min="3.1308267089968922e-10" Max="7.4805659241974354e-03"/>
          <Range Index="9" Min="1.3415997557331139e-07" Max="1.1624936945736408e-02"/>
          <Range Index="10" Min="2.0439022918594674e-08" Max="1.9955936295446008e-04"/>
          <Range Index="11" Min="1.4828563932312022e-09" Max="1.9390985835343599e-04"/>
          <Range Index="12" Min="9.0911749239808159e-09" Max="1.9755291577894241e-04"/>
          <Range Index="13" Min="2.4657023089957875e-09" Max="1.9711205095518380e-04"/>
          <Range Index="14" Min="9.4720569165929192e-09" Max="1.9787334895227104e-04"/>
          <Range Index="15" Min="2.3396391490848600e-09" Max="1.9859688472934067e-04"/>
          <Range Index="16" Min="0.0000000000000000e+00" Max="1.8932832000000000e+08"/>
          <Range Index="17" Min="2.0457786560058594e+01" Max="3.6691482543945312e+01"/>
        </Ranges>
      </Class>
    </Transform>
  </Transformations>
  <MVAPdfs/>
  <Weights>
    <Layout NLayers="4">
      <Layer Index="0" NNeurons="18">
        <Neuron NSynapses="17">
          -3.1818933792160872e-02 1.3139251973439692e-01 6.8842824934743463e-01 1.5559254699284637e+00 -1.9392758903704339e+00 1.5522321481159021e-02 -5.4953685054043777e-01 1.8505296551148276e+00 -1.4856026776446776e+00 -1.2411118927768900e+00 -1.5322236683572574e+00 -2.2532984560936248e-01 -9.5022190736436685e-01 -1.5120006790829757e-01 -3.1148094151610584e-01 -7.8854607350538244e-02 -7.6740708789375234e-01 
        </Neuron>
        <Neuron NSynapses="17">
          1.2036780228019865e+00 1.9624987957353244e+00 2.2569052165471826e+00 -1.0002449590391833e+00 -2.8680660629724197e-01 -1.0439644185702370e+00 1.7273829970365234e-01 -1.2320784000938578e+00 -3.6494477181141649e-01 2.2064440560179706e+00 -8.2895813872293955e-01 -1.8766683502738954e+00 -1.0110906505915807e-01 7.8512672037157649e-01 8.8394227667495306e-01 1.3205379191025342e+00 7.7451156668970111e-01 
        </Neuron>
        <Neuron NSynapses="17">
          2.6326332900244231e-01 -2.0077193653198300e-01 -1.2273493336483434e+00 1.8515018092784812e+00 -1.7009160046868375e+00 1.1896749601155556e+00 1.3974255072510688e+00 1.0358319186662082e+00 1.7674618875073067e+00 1.2053519552726200e+00 -5.9564437909812651e-01 -1.1306999151823891e+00 6.9952616062025097e-01 -2.2326618215419142e-01 1.6684772393207681e+00 1.0914327669861974e+00 1.3418177094763011e+00 
        </Neuron>
        <Neuron NSynapses="17">
          1.4739548430305558e+00 -1.2048655595141737e+00 1.5103048534379340e+00 -2.0763137935760754e+00 -1.0805794239672057e+00 -1.3469936344041369e+00 -1.4766696945478850e+00 1.6333581631184322e+00 6.3277342964293570e-01 -1.1550484582800276e+00 3.8589703910163103e-01 -3.9072498670953915e-01 6.3967635831164216e-01 1.5309255407665974e+00 -1.0193244916189900e-01 1.4942015951076773e-01 -8.5831531562340990e-01 
        </Neuron>
        <Neuron NSynapses="17">
          1.1852818299413663e+00 -2.0988008117356998e+00 -1.3230096511938967e+00 -8.8438330588069680e-01 2.4849682843031826e-01 2.4345648781667051e+00 1.3394591245796748e+00 -1.8630224096848616e-01 -1.8292456249830220e+00 -2.3339248972357574e+00 8.2772351983529024e-01 6.0592643978368277e-01 2.0721196661233017e+00 4.4887327371672697e-01 1.6128224866180068e+00 -2.1347104233143046e+00 -1.5878475416247417e+00 
        </Neuron>
        <Neuron NSynapses="17">
          3.1562009541947093e-02 9.4266013997709797e-01 -1.0313592879636995e+00 -1.6827241746446981e+00 -2.0074846508140438e+00 1.4927500876495911e-01 1.7858226738648178e-01 1.5918968062179828e+00 -1.6042147499197335e+00 -8.1937949348941586e-01 1.5685836136257514e+00 -9.3776007213748680e-01 -1.4723258810649775e+00 -1.6708065164389061e+00 4.0788710726932326e-01 -1.9794432826301995e+00 -1.3922940040447511e+00 
        </Neuron>
        <Neuron NSynapses="17">
          8.0493778965260609e-01 2.0458117097880053e+00 -6.3203710671000257e-01 1.4316728182880221e+00 -1.3100040043585361e+00 -8.8157913921275100e-01 4.0587617415941485e-01 4.1967974854698031e-01 -1.9481404977233368e+00 5.7748008509444715e-01 4.5714122470865032e-01 4.4280513694998191e-01 -1.5124666826029280e+00 1.4505296563576531e+00 5.2355726787105394e-01 -7.0917092158602679e-01 1.1364188994473110e+00 
        </Neuron>
        <Neuron NSynapses="17">
          -1.0469801874727815e+00 -1.1902161970527714e+00 3.6135113654615264e-01 -4.3372445516524910e-01 1.5625811016214104e+00 8.4262266000570785e-01 1.9312407339823490e-01 -2.6744913736829612e-01 1.6950689710591196e-01 -1.3741706036577037e+00 1.0275043865814113e+00 1.8062685419993743e-01 -1.7738238076190456e+00 3.1486683699491624e-01 -1.1114312084111919e+00 -2.0865266061261472e-02 1.0534106669784380e+00 
        </Neuron>
        <Neuron NSynapses="17">
          1.8972295240245296e+00 -1.4657143673179833e+00 7.3110301618937579e-01 1.3740712720586079e+00 1.1725354860991819e+00 -1.6472092779854625e-01 -9.2540215470231690e-01 2.0088007449424181e-01 -1.5248784130000441e+00 1.7093189172029981e+00 1.3970371952971146e+00 1.2649755550904179e-01 -6.6792906191809220e-01 -1.8875005802814956e-01 -1.2996302007734089e+00 8.1260440242909471e-01 2.0350842383246204e+00 
        </Neuron>
        <Neuron NSynapses="17">
          -3.3125452599627087e-01 -7.1685798093437991e-01 4.5704743091696498e-01 1.1204976495970158e+00 2.1556234620133310e-01 1.1992112226588432e+00 -9.7926860183713571e-01 1.5612009222919656e+00 4.8487930376935140e-01 4.2278421361418700e-01 7.1748462890595588e-01 1.0405525820816974e+00 -6.5249708394408645e-01 -9.1968461972021209e-01 1.4536202295332208e+00 -1.0918213879173204e+00 -4.0904553950368855e-01 
        </Neuron>
        <Neuron NSynapses="17">
          1.7060589955250316e+00 7.0023341496538571e-01 -1.4947040850812277e-01 1.5062295240219092e+00 1.4844664452388565e+00 -1.5566957485779742e+00 9.1549666999726576e-01 4.2533392241947986e-02 3.3369025425385684e-01 -1.4179868864616680e+00 -1.4036207181999847e+00 1.0695276584707241e+00 1.6523512468462989e+00 -1.9242686562794382e+00 4.3551364826656620e-02 -7.9135863763710568e-01 2.2998474089347490e-01 
        </Neuron>
        <Neuron NSynapses="17">
          1.6958600931110124e+00 4.4149528252120462e-01 -1.0468918440904502e-01 -1.4987305301440226e+00 9.1742166368760847e-01 1.2984149242909955e+00 1.1806336055091462e+00 4.2097327836299347e-01 -7.0764288424894917e-01 -1.1642898054873008e+00 1.0157446204579219e+00 4.9095493282505770e-01 -1.4304907863802385e+00 -9.5512349751445103e-01 4.1197054414672729e-01 4.8155868167410848e-01 -1.5359808356532541e+00 
        </Neuron>
        <Neuron NSynapses="17">
          1.5636652412804417e+00 1.3226822401695071e+00 -2.6937953634922746e-01 -4.7666414871286822e-01 1.4447622759064100e+00 8.9770679905040551e-01 6.8136640953157923e-01 7.2583853649007823e-03 -1.8233012725137019e+00 -3.8859835520396424e-01 1.6855235936804747e+00 1.2615709286974712e+00 6.7008186658626179e-01 1.0540708293022687e-02 2.1598889167975330e+00 -1.4072118387457597e+00 -9.0061215662401595e-01 
        </Neuron>
        <Neuron NSynapses="17">
          -7.3991960904452189e-02 -9.6964482120474760e-01 1.1542701427733797e+00 1.7939316148795021e+00 -1.4593084124579825e+00 8.5005957025096379e-01 -5.6695421515420480e-02 -1.7664956768357805e+00 -1.0977688337071403e+00 1.1863944099284276e+00 4.6345661104252506e-02 9.7976154110521141e-01 -1.1172621780170477e+00 1.3555526143012284e+00 -1.6394303836505943e+00 9.4312772413891888e-01 1.8950951896997864e-01 
        </Neuron>
        <Neuron NSynapses="17">
          -1.3070017708576165e+00 -1.5373106094565616e+00 -1.8482835337532617e+00 -3.2675128609476695e-01 -2.2044042238396035e+00 -1.2527189077027479e+00 -1.4801091059646549e+00 2.6271767367709770e-01 -1.0728635513698481e+00 -1.3845381904520433e+00 1.4013734977762542e+00 -5.8394677412953044e-01 1.4953131755643367e-01 -1.4597160139236809e+00 5.0236552412014235e-01 1.6647711133409739e+00 1.2867730990701494e+00 
        </Neuron>
        <Neuron NSynapses="17">
          -8.7140428460527253e-01 -8.3893427784346331e-01 -7.3802365467201481e-01 -1.0617407464457551e+00 -1.9008809185158073e+00 1.6037842746850289e-01 5.3329038045066246e-01 1.8320756134623111e+00 -2.9540859938551484e-01 4.9798937323125569e-01 -5.0845520868812855e-01 -1.8990588966351787e+00 1.2436203896666527e+00 8.9618741698833271e-01 -6.2893705257781884e-01 -1.0201392371626006e+00 9.2402415420997785e-01 
        </Neuron>
        <Neuron NSynapses="17">
          1.1537798245752371e+00 4.7898547025853561e-01 -4.0672784507701754e-01 -3.9345921688748187e-01 1.0481396573936341e+00 1.0144358862252407e+00 6.8136494995657493e-01 -3.3112089239328296e-01 2.6502692017261409e-01 -2.2961466851475359e-01 -1.3892103268543972e+00 -2.9108265228484614e-01 -1.9195518121288266e+00 -1.1240110895246431e+00 -1.4486494587695464e+00 1.3411509444864167e+00 -1.4169534388153691e+00 
        </Neuron>
        <Neuron NSynapses="17">
          1.8062815362597511e+00 -2.9829638399974239e+00 6.7015820204725102e-02 -4.0182018882020504e-01 8.3869323673750484e-01 1.9565640934365354e+00 -2.7043839739341564e+00 -1.0660372679429571e-01 8.9302715129115973e-01 -2.8123347838757140e+00 -1.8390534848164075e+00 -2.2251914986219581e+00 -4.4923830700970890e-01 2.3351424532343490e+00 -3.5626955521465836e-01 -9.0292217934453889e-01 -2.0037305813709110e+00 
        </Neuron>
      </Layer>
      <Layer Index="1" NNeurons="18">
        <Neuron NSynapses="17">
          -9.8805805726126972e-01 -1.6585302984755896e+00 -1.0073316190562098e+00 -1.3354534097801256e+00 1.0311803048943782e+00 -9.8700328881292010e-01 -1.1188166366111294e+00 1.1738278637519768e+00 5.5139067727136282e-01 -8.9244230969437466e-01 1.8091700999064346e+00 -1.7542823337818736e+00 1.3938625425708226e+00 9.5201351896930153e-01 -1.1394478007287223e+00 -6.9347135426829476e-01 -5.1664864316361947e-01 
        </Neuron>
        <Neuron NSynapses="17">
          -8.7168115361696774e-01 4.6038670001396415e-01 1.8955903552038056e+00 1.2333588181374815e+00 1.6578867334532019e+00 -1.1962449756474609e+00 9.1232430205875559e-01 -2.1417777294798541e+00 5.0329598483242521e-01 -1.5698907708112579e+00 -1.7943515189339976e+00 5.0531884993173020e-03 1.2746480035562211e+00 3.6943126524001879e-01 1.0003527642395968e+00 3.4654002719954036e-01 -6.3179125978804829e-01 
        </Neuron>
        <Neuron NSynapses="17">
          -4.5054471191713530e-01 8.2918197505847530e-02 2.4603930886415402e+00 -1.2920248712587217e+00 5.0350105368487730e-01 -1.1601978614242832e+00 -6.9568937454970958e-01 1.0271675756627389e-01 6.4492190145761810e-02 -1.2907650755171511e+00 1.0628653144574411e+00 1.7260371029882453e+00 8.5213041822770408e-01 -1.5332450812306336e-01 -7.0992604876193410e-01 -1.4434053833871843e+00 -1.6513072327989131e+00 
        </Neuron>
        <Neuron NSynapses="17">
          9.8889790533306132e-01 -5.8401149941576891e-01 -9.6960765873138766e-01 2.5853827481860714e-01 -1.9843855239983097e+00 -1.2235269383688026e+00 -1.4300835155703544e+00 4.5924912452912348e-01 -1.1656751200080306e+00 -1.5234994110601456e+00 -7.9635064971825931e-01 -9.8429037411600173e-01 -1.7070829445168330e+00 1.3255871878674781e+00 -1.5857084225291755e+00 -1.2461265523957628e+00 1.4722482161379835e+00 
        </Neuron>
        <Neuron NSynapses="17">
          4.6427571794779399e-01 3.7654428262300538e-01 6.7159792829437959e-02 1.4699181979703970e+00 1.9611176076575658e+00 6.8823371607261474e-01 -1.1295126635140720e+00 -5.2165777857158968e-01 -1.7447838960566104e+00 9.6660878225160718e-01 9.9267132661273416e-01 9.5031880572607419e-02 1.0542806511946161e+00 7.9304643403128983e-01 1.5055139672671780e+00 -1.4143574222683479e+00 1.7330243610109464e+00 
        </Neuron>
        <Neuron NSynapses="17">
          4.0352930040999757e-01 -1.8702690440038761e+00 -1.6654279784724674e-01 -7.1088313915585410e-01 1.0289657890098871e+00 8.7629609225693705e-01 1.0396487519100712e+00 1.1089773442048194e+00 -1.1700060543517980e-01 1.1534838655824879e+00 1.9349442255031204e+00 1.9991610460749829e-01 -1.2230779209645231e+00 1.5635392621905044e+00 -2.1324828188949230e+00 4.9710382238190748e-01 1.9712385587431951e+00 
        </Neuron>
        <Neuron NSynapses="17">
          -2.6968086561251514e-01 -7.8523232956150002e-01 -7.4126320280259977e-02 -1.0149699694431769e+00 5.6296919460870143e-01 -1.4571128714912451e+00 2.8151005132804818e-01 -6.9975728323814146e-01 2.0685393760292294e+00 7.8489340863675972e-01 1.6847670675184987e+00 -4.6825814221980772e-01 -4.8200011526860903e-01 2.1571579945479946e-01 1.5582359512602222e+00 -1.8177303865095800e+00 -1.9670033018486259e+00 
        </Neuron>
        <Neuron NSynapses="17">
          -8.0747237754661449e-01 -1.5242492164148835e+00 -1.9093482151064216e+00 -2.1240327160157091e+00 3.8819295418797573e-01 -3.2564271723429816e-01 -1.6724090634472160e+00 -1.6372987834147197e+00 -3.8554526500751557e-01 2.0078740449782329e+00 1.4972749584062979e+00 1.2908801146186324e+00 -6.7368116913881515e-01 -1.7229916265851826e+00 8.1758101192125843e-02 -1.3382460204416493e+00 -1.5972499649364602e+00 
        </Neuron>
        <Neuron NSynapses="17">
          -8.8265255942569643e-01 2.6767267287635513e-02 -1.3831561835609407e+00 1.4536308127122817e+00 1.1600977806740782e+00 2.9242562547163337e-01 -7.5278565843676537e-01 -2.1522665939671839e-01 1.5466852217208971e+00 -3.3256893688362676e-01 2.1625648625250474e-01 1.5709255769358554e+00 1.6417888908760658e+00 -1.0704325980298599e+00 1.6250032124394682e+00 -2.0216919551871344e+00 2.0823527736727794e+00 
        </Neuron>
        <Neuron NSynapses="17">
          2.6618406234388976e+00 -1.5947293939354318e-01 8.6003365006133181e-01 4.8522866458854075e-01 -1.4606552139429727e-01 9.9166641762252239e-01 8.8654855007432851e-02 -2.0506996334065812e+00 -1.3748006221283429e+00 -6.9905238921104607e-01 1.9815798380255800e+00 4.3707445462050309e-01 -6.7534859158904381e-01 -1.8050231642372763e+00 1.7861332216702432e+00 4.6558495834418767e-01 -1.7005352991852938e+00 
        </Neuron>
        <Neuron NSynapses="17">
          -7.5612676707632498e-02 -1.0024325169566104e+00 1.0980855064681541e+00 1.3869850866611546e+00 -6.5863280826337134e-01 -1.2603034321648321e+00 1.7247435983525772e+00 4.9933525775349769e-01 5.1322181726746863e-01 -1.0285676212455556e-01 -1.1451652348078978e+00 -1.2205136694339052e+00 1.0195991725788589e+00 4.8078166340000783e-01 2.7465262175598715e-01 -1.7197040267255148e+00 -2.3024512270813737e+00 
        </Neuron>
        <Neuron NSynapses="17">
          -1.7440910559947467e+00 -3.1331931484347919e-01 -1.7509264769982740e+00 2.7204737611120816e-01 -4.8682983038738492e-01 1.4179906419175088e+00 5.5265067558293857e-01 -2.0798063007270109e+00 1.2121054874253105e+00 1.8482068868903778e+00 8.6101659462493152e-01 -4.1373850228615794e-01 -8.8863195821307861e-01 2.2496986069375677e+00 -1.4752186561680478e+00 5.8984067497847248e-01 -1.7766384796840813e+00 
        </Neuron>
        <Neuron NSynapses="17">
          4.1742326575489530e-01 -1.1254636208472604e+00 3.0493811783625396e-01 -2.2347258354593838e-01 6.2817416314883551e-02 -5.9682719401449391e-01 -7.1577164207074395e-01 6.2687967284666335e-01 3.7366784621188609e-01 1.1189786712066447e+00 9.7010412813241931e-01 -1.7417231623556266e+00 1.3314404939912898e+00 -1.7960515357242108e+00 1.0423745711330172e+00 9.9886820674879750e-01 1.2264798867298630e+00 
        </Neuron>
        <Neuron NSynapses="17">
          1.5440839588473489e+00 1.4347603065436361e+00 -1.1402288997252115e+00 -5.5095007466596679e-01 -9.3053832614259158e-01 6.7744734668286466e-01 -9.7545171977837450e-02 -6.0119128840110514e-01 -5.6575408229237611e-01 -1.0063160398486501e+00 -6.8417653239641862e-01 -3.3458026761267612e-01 -1.7706909918066582e+00 -3.2120364758299008e-01 3.2334591936670015e-01 -6.2991317360982324e-01 -1.0625026023994908e+00 
        </Neuron>
        <Neuron NSynapses="17">
          2.7633139048811162e-01 2.8344883676848476e-01 -3.3910049434712886e-01 -1.2800655329493924e+00 1.8190536034783582e+00 -2.7487833016191349e-01 8.4170642260989870e-01 4.8489423277657095e-01 -9.9630452192999897e-01 -8.6138775670342227e-01 -2.6093239121808576e-01 -1.9445539731469634e+00 -7.3003461091403865e-01 -1.0050433383644595e+00 1.0821715302186312e+00 -1.9005529700277015e+00 1.1290951303920016e+00 
        </Neuron>
        <Neuron NSynapses="17">
          1.7014005831951551e+00 1.5825747614800800e+00 1.0500302871675677e+00 8.4986555644020623e-01 8.3038357737068552e-02 -8.1619504722868952e-01 -2.1831994111578563e+00 -9.1877443374606560e-01 -8.1398070654384225e-01 1.3636528735692457e+00 2.1748360306159739e-01 8.7491523360559750e-02 1.4790330035765642e+00 1.0149403319759676e+00 -1.2030662849854397e+00 2.2391084913647760e-01 -1.8714864577864478e+00 
        </Neuron>
        <Neuron NSynapses="17">
          8.6511495940588756e-01 -1.8435520129443022e+00 2.9993745869171207e-01 -4.2707775333182357e-01 6.7057853206383078e-01 -2.2839938145632264e+00 4.2633386907283227e-01 -1.8518638415459718e+00 1.5550423675656689e-02 1.2803105081578960e+00 -7.8737872330763425e-01 5.6789337791109595e-01 -1.6659049820727887e+00 1.1659685619136131e+00 -5.0922446230583829e-01 8.0346599026094911e-01 -2.0222374482888683e+00 
        </Neuron>
        <Neuron NSynapses="17">
          -1.2929760687989429e+00 2.0044033570978748e+00 -2.0400875390445101e+00 -1.2245238212918705e+00 -8.9977501736944077e-01 1.4850615564195297e+00 1.3401402880483981e+00 2.4203744209705818e+00 -1.9659005040076272e+00 1.0489749829464303e+00 6.5937413822699109e-01 2.4291965127109266e-01 -1.1650291451970969e+00 -1.4455895645699888e+00 2.8802012998308402e-01 -2.0268196193740287e-01 2.3996254234824623e+00 
        </Neuron>
      </Layer>
      <Layer Index="2" NNeurons="18">
        <Neuron NSynapses="1">
          6.2403467927923888e-02 
        </Neuron>
        <Neuron NSynapses="1">
          5.9601136052082823e-02 
        </Neuron>
        <Neuron NSynapses="1">
          1.4824481539718995e-01 
        </Neuron>
        <Neuron NSynapses="1">
          2.2869551108270661e-03 
        </Neuron>
        <Neuron NSynapses="1">
          2.2759317040334071e-02 
        </Neuron>
        <Neuron NSynapses="1">
          -1.0357714265072970e+00 
        </Neuron>
        <Neuron NSynapses="1">
          -2.4615426868094419e-02 
        </Neuron>
        <Neuron NSynapses="1">
          -2.4606075901297231e-01 
        </Neuron>
        <Neuron NSynapses="1">
          5.2767390323344692e-03 
        </Neuron>
        <Neuron NSynapses="1">
          -6.9725680157248796e-02 
        </Neuron>
        <Neuron NSynapses="1">
          -1.5044068660040547e-02 
        </Neuron>
        <Neuron NSynapses="1">
          3.4994815320316140e-02 
        </Neuron>
        <Neuron NSynapses="1">
          6.0405471906132532e-02 
        </Neuron>
        <Neuron NSynapses="1">
          3.3287692456708076e-03 
        </Neuron>
        <Neuron NSynapses="1">
          2.6288438099001176e-02 
        </Neuron>
        <Neuron NSynapses="1">
          2.9226959929152582e-02 
        </Neuron>
        <Neuron NSynapses="1">
          7.8746639259991058e-01 
        </Neuron>
        <Neuron NSynapses="1">
          1.6371631269034215e-01 
        </Neuron>
      </Layer>
      <Layer Index="3" NNeurons="1">
        <Neuron NSynapses="0"/>
      </Layer>
    </Layout>
  </Weights>
</MethodSetup>
