<?xml version="1.0"?>
<MethodSetup Method="MLP::XS_26_57_0_n2n">
  <GeneralInfo>
    <Info name="TMVA Release" value="4.2.1 [262657]"/>
    <Info name="ROOT Release" value="6.06/02 [394754]"/>
    <Info name="Creator" value="mouginot"/>
    <Info name="Date" value="Thu Feb 23 13:12:01 2017"/>
    <Info name="Host" value="Linux e300.chtc.wisc.edu 2.6.32-642.13.1.el6.x86_64 #1 SMP Tue Jan 10 11:22:50 CST 2017 x86_64 x86_64 x86_64 GNU/Linux"/>
    <Info name="Dir" value="/mnt/gluster/mouginot/TRU_MOX_XS/Generate"/>
    <Info name="Training events" value="198960"/>
    <Info name="TrainingTime" value="2.90728000e+04"/>
    <Info name="AnalysisType" value="Regression"/>
  </GeneralInfo>
  <Options>
    <Option name="NCycles" modified="Yes">20000</Option>
    <Option name="HiddenLayers" modified="Yes">N,N</Option>
    <Option name="NeuronType" modified="Yes">tanh</Option>
    <Option name="RandomSeed" modified="No">1</Option>
    <Option name="EstimatorType" modified="No">MSE</Option>
    <Option name="NeuronInputType" modified="No">sum</Option>
    <Option name="V" modified="Yes">False</Option>
    <Option name="VerbosityLevel" modified="No">Default</Option>
    <Option name="VarTransform" modified="Yes">Norm</Option>
    <Option name="H" modified="Yes">False</Option>
    <Option name="CreateMVAPdfs" modified="No">False</Option>
    <Option name="IgnoreNegWeightsInTraining" modified="No">False</Option>
    <Option name="TrainingMethod" modified="Yes">BFGS</Option>
    <Option name="LearningRate" modified="No">2.000000e-02</Option>
    <Option name="DecayRate" modified="No">1.000000e-02</Option>
    <Option name="TestRate" modified="Yes">6</Option>
    <Option name="EpochMonitoring" modified="No">False</Option>
    <Option name="Sampling" modified="Yes">3.000000e-01</Option>
    <Option name="SamplingEpoch" modified="Yes">8.000000e-01</Option>
    <Option name="SamplingImportance" modified="No">1.000000e+00</Option>
    <Option name="SamplingTraining" modified="No">True</Option>
    <Option name="SamplingTesting" modified="No">False</Option>
    <Option name="ResetStep" modified="No">50</Option>
    <Option name="Tau" modified="No">3.000000e+00</Option>
    <Option name="BPMode" modified="No">sequential</Option>
    <Option name="BatchSize" modified="No">-1</Option>
    <Option name="ConvergenceImprove" modified="Yes">1.000000e-06</Option>
    <Option name="ConvergenceTests" modified="Yes">15</Option>
    <Option name="UseRegulator" modified="Yes">False</Option>
    <Option name="UpdateLimit" modified="No">10000</Option>
    <Option name="CalculateErrors" modified="No">False</Option>
    <Option name="WeightRange" modified="No">1.000000e+00</Option>
  </Options>
  <Variables NVar="17">
    <Variable VarIndex="0" Expression="235U" Label="235U" Title="235U" Unit="IsotopicFraction" Internal="235U" Type="F" Min="1.71346517e-06" Max="1.92414057e-02"/>
    <Variable VarIndex="1" Expression="238U" Label="238U" Title="238U" Unit="IsotopicFraction" Internal="238U" Type="F" Min="7.85399854e-01" Max="9.68733251e-01"/>
    <Variable VarIndex="2" Expression="237Np" Label="237Np" Title="237Np" Unit="IsotopicFraction" Internal="237Np" Type="F" Min="1.63990119e-08" Max="1.97294168e-04"/>
    <Variable VarIndex="3" Expression="238Pu" Label="238Pu" Title="238Pu" Unit="IsotopicFraction" Internal="238Pu" Type="F" Min="4.69728775e-07" Max="3.96428024e-03"/>
    <Variable VarIndex="4" Expression="239Pu" Label="239Pu" Title="239Pu" Unit="IsotopicFraction" Internal="239Pu" Type="F" Min="2.15940680e-02" Max="1.89886928e-01"/>
    <Variable VarIndex="5" Expression="240Pu" Label="240Pu" Title="240Pu" Unit="IsotopicFraction" Internal="240Pu" Type="F" Min="1.54567579e-06" Max="3.95636074e-02"/>
    <Variable VarIndex="6" Expression="241Pu" Label="241Pu" Title="241Pu" Unit="IsotopicFraction" Internal="241Pu" Type="F" Min="3.22813172e-08" Max="7.04628276e-03"/>
    <Variable VarIndex="7" Expression="242Pu" Label="242Pu" Title="242Pu" Unit="IsotopicFraction" Internal="242Pu" Type="F" Min="1.58277174e-07" Max="1.98803633e-03"/>
    <Variable VarIndex="8" Expression="241Am" Label="241Am" Title="241Am" Unit="IsotopicFraction" Internal="241Am" Type="F" Min="3.13082671e-10" Max="7.48056592e-03"/>
    <Variable VarIndex="9" Expression="242Amm" Label="242Amm" Title="242Amm" Unit="IsotopicFraction" Internal="242Amm" Type="F" Min="1.34159976e-07" Max="1.16249369e-02"/>
    <Variable VarIndex="10" Expression="243Am" Label="243Am" Title="243Am" Unit="IsotopicFraction" Internal="243Am" Type="F" Min="2.04390229e-08" Max="1.99559363e-04"/>
    <Variable VarIndex="11" Expression="242Cm" Label="242Cm" Title="242Cm" Unit="IsotopicFraction" Internal="242Cm" Type="F" Min="1.48285639e-09" Max="1.93909858e-04"/>
    <Variable VarIndex="12" Expression="243Cm" Label="243Cm" Title="243Cm" Unit="IsotopicFraction" Internal="243Cm" Type="F" Min="9.09117492e-09" Max="1.97552916e-04"/>
    <Variable VarIndex="13" Expression="244Cm" Label="244Cm" Title="244Cm" Unit="IsotopicFraction" Internal="244Cm" Type="F" Min="2.46570231e-09" Max="1.97112051e-04"/>
    <Variable VarIndex="14" Expression="245Cm" Label="245Cm" Title="245Cm" Unit="IsotopicFraction" Internal="245Cm" Type="F" Min="9.47205692e-09" Max="1.97873349e-04"/>
    <Variable VarIndex="15" Expression="246Cm" Label="246Cm" Title="246Cm" Unit="IsotopicFraction" Internal="246Cm" Type="F" Min="2.33963915e-09" Max="1.98596885e-04"/>
    <Variable VarIndex="16" Expression="Time" Label="Time" Title="Time" Unit="seconds" Internal="Time" Type="F" Min="0.00000000e+00" Max="1.89328320e+08"/>
  </Variables>
  <Spectators NSpec="0"/>
  <Classes NClass="1">
    <Class Name="Regression" Index="0"/>
  </Classes>
  <Targets NTrgt="1">
    <Target TargetIndex="0" Expression="XS_26_57_0_n2n" Label="XS_26_57_0_n2n" Title="XS_26_57_0_n2n" Unit="" Internal="XS_26_57_0_n2n" Type="F" Min="6.25454704e-04" Max="1.11953553e-03"/>
  </Targets>
  <Transformations NTransformations="1">
    <Transform Name="Normalize">
      <Selection>
        <Input NInputs="18">
          <Input Type="Variable" Label="235U" Expression="235U"/>
          <Input Type="Variable" Label="238U" Expression="238U"/>
          <Input Type="Variable" Label="237Np" Expression="237Np"/>
          <Input Type="Variable" Label="238Pu" Expression="238Pu"/>
          <Input Type="Variable" Label="239Pu" Expression="239Pu"/>
          <Input Type="Variable" Label="240Pu" Expression="240Pu"/>
          <Input Type="Variable" Label="241Pu" Expression="241Pu"/>
          <Input Type="Variable" Label="242Pu" Expression="242Pu"/>
          <Input Type="Variable" Label="241Am" Expression="241Am"/>
          <Input Type="Variable" Label="242Amm" Expression="242Amm"/>
          <Input Type="Variable" Label="243Am" Expression="243Am"/>
          <Input Type="Variable" Label="242Cm" Expression="242Cm"/>
          <Input Type="Variable" Label="243Cm" Expression="243Cm"/>
          <Input Type="Variable" Label="244Cm" Expression="244Cm"/>
          <Input Type="Variable" Label="245Cm" Expression="245Cm"/>
          <Input Type="Variable" Label="246Cm" Expression="246Cm"/>
          <Input Type="Variable" Label="Time" Expression="Time"/>
          <Input Type="Target" Label="XS_26_57_0_n2n" Expression="XS_26_57_0_n2n"/>
        </Input>
        <Output NOutputs="18">
          <Output Type="Variable" Label="235U" Expression="235U"/>
          <Output Type="Variable" Label="238U" Expression="238U"/>
          <Output Type="Variable" Label="237Np" Expression="237Np"/>
          <Output Type="Variable" Label="238Pu" Expression="238Pu"/>
          <Output Type="Variable" Label="239Pu" Expression="239Pu"/>
          <Output Type="Variable" Label="240Pu" Expression="240Pu"/>
          <Output Type="Variable" Label="241Pu" Expression="241Pu"/>
          <Output Type="Variable" Label="242Pu" Expression="242Pu"/>
          <Output Type="Variable" Label="241Am" Expression="241Am"/>
          <Output Type="Variable" Label="242Amm" Expression="242Amm"/>
          <Output Type="Variable" Label="243Am" Expression="243Am"/>
          <Output Type="Variable" Label="242Cm" Expression="242Cm"/>
          <Output Type="Variable" Label="243Cm" Expression="243Cm"/>
          <Output Type="Variable" Label="244Cm" Expression="244Cm"/>
          <Output Type="Variable" Label="245Cm" Expression="245Cm"/>
          <Output Type="Variable" Label="246Cm" Expression="246Cm"/>
          <Output Type="Variable" Label="Time" Expression="Time"/>
          <Output Type="Target" Label="XS_26_57_0_n2n" Expression="XS_26_57_0_n2n"/>
        </Output>
      </Selection>
      <Class ClassIndex="0">
        <Ranges>
          <Range Index="0" Min="1.7134651670858148e-06" Max="1.9241405650973320e-02"/>
          <Range Index="1" Min="7.8539985418319702e-01" Max="9.6873325109481812e-01"/>
          <Range Index="2" Min="1.6399011926182538e-08" Max="1.9729416817426682e-04"/>
          <Range Index="3" Min="4.6972877498774324e-07" Max="3.9642802439630032e-03"/>
          <Range Index="4" Min="2.1594068035483360e-02" Max="1.8988692760467529e-01"/>
          <Range Index="5" Min="1.5456757864740212e-06" Max="3.9563607424497604e-02"/>
          <Range Index="6" Min="3.2281317174920332e-08" Max="7.0462827570736408e-03"/>
          <Range Index="7" Min="1.5827717447791656e-07" Max="1.9880363252013922e-03"/>
          <Range Index="8" Min="3.1308267089968922e-10" Max="7.4805659241974354e-03"/>
          <Range Index="9" Min="1.3415997557331139e-07" Max="1.1624936945736408e-02"/>
          <Range Index="10" Min="2.0439022918594674e-08" Max="1.9955936295446008e-04"/>
          <Range Index="11" Min="1.4828563932312022e-09" Max="1.9390985835343599e-04"/>
          <Range Index="12" Min="9.0911749239808159e-09" Max="1.9755291577894241e-04"/>
          <Range Index="13" Min="2.4657023089957875e-09" Max="1.9711205095518380e-04"/>
          <Range Index="14" Min="9.4720569165929192e-09" Max="1.9787334895227104e-04"/>
          <Range Index="15" Min="2.3396391490848600e-09" Max="1.9859688472934067e-04"/>
          <Range Index="16" Min="0.0000000000000000e+00" Max="1.8932832000000000e+08"/>
          <Range Index="17" Min="6.2545470427721739e-04" Max="1.1195355327799916e-03"/>
        </Ranges>
      </Class>
    </Transform>
  </Transformations>
  <MVAPdfs/>
  <Weights>
    <Layout NLayers="4">
      <Layer Index="0" NNeurons="18">
        <Neuron NSynapses="17">
          -2.9989711956522425e-01 1.4212566489491623e+00 9.6140373821752267e-01 1.6857559074490840e+00 -1.8708268112945197e+00 -1.4496358830795388e+00 -6.9458526568810319e-01 1.8785641030138214e+00 -1.4050695322540023e+00 -1.1981791828790949e+00 -1.4671603927052834e+00 -6.8294602443214136e-01 -1.1720642866050583e+00 -3.4774268457692531e-01 -2.4788202359692912e-01 4.0670156303791533e-01 -4.5702337483994876e-01 
        </Neuron>
        <Neuron NSynapses="17">
          1.8652441942395557e+00 9.8781769400111552e-01 2.0628919837046027e+00 -2.0800797853438052e-01 -7.8473928277606797e-01 3.0018508790191611e-01 2.2435056704224532e-01 -1.2316388459723253e+00 -4.8393548696257771e-01 1.4753189474396027e+00 -8.2470076662718483e-01 -2.1987782968154779e+00 1.8165850688229391e-02 5.8733786423576972e-01 1.0073788632328498e+00 7.0214159292914469e-01 3.9223063300573363e-01 
        </Neuron>
        <Neuron NSynapses="17">
          1.5016483156964830e-01 -2.9752773733006171e-01 -1.3036354104038022e+00 1.6066018567243805e+00 -1.4141478765697200e+00 9.6810910836990149e-01 1.3409712010229131e+00 7.9310166826682649e-01 1.7393516938902633e+00 1.3602070731947962e+00 -6.3311469788771491e-01 -1.3363785172373746e+00 7.3275095282565983e-01 -2.5530821676072218e-01 1.7771086510325556e+00 1.1882547232114096e+00 1.4378591279878383e+00 
        </Neuron>
        <Neuron NSynapses="17">
          1.3090754532048581e+00 -1.3830096759132162e+00 1.6270935919722644e+00 -1.7263431117937602e+00 -1.0725887000925860e+00 -1.5207964766679469e+00 -1.3616348890783319e+00 1.2251547114921324e+00 5.1165212045244579e-01 -1.6246614708102736e+00 4.3744731531111247e-01 -6.2744075579754588e-01 6.9849647578676155e-01 1.1363416281440522e+00 -6.1571933201882640e-03 2.3909705416158961e-01 -7.1447964372183059e-01 
        </Neuron>
        <Neuron NSynapses="17">
          6.6645429826054492e-01 -1.4294368564056996e+00 -1.2004762484652935e+00 -1.5273489586910274e+00 6.6648171996405359e-01 1.4464465797261217e+00 1.3184823782025967e+00 -3.5164719709633846e-01 -1.7764833641310918e+00 -1.8136729562406764e+00 8.1160045339458453e-01 7.6561226468369958e-01 2.0367600488931163e+00 5.5988536537686318e-01 1.5553311889869710e+00 -1.6052714649750921e+00 -1.2812370650122513e+00 
        </Neuron>
        <Neuron NSynapses="17">
          -2.1648628813573649e-02 9.7652027915774275e-01 -8.6123341951474952e-01 -1.5022822552616912e+00 -1.9303413534025409e+00 -3.1221265807724796e-01 3.4741741591066228e-01 1.6002283314797843e+00 -1.5615026163683163e+00 -8.6473595120431157e-01 1.6830451030977129e+00 -9.4935954502517894e-01 -1.5325532972650124e+00 -1.8869802780540552e+00 4.2116873570368329e-01 -1.9528983427161042e+00 -1.2101977561612443e+00 
        </Neuron>
        <Neuron NSynapses="17">
          7.9924785504022444e-01 1.8630580339053542e+00 -6.1271752384178546e-01 1.6914715932230433e+00 -1.2641264002594996e+00 -1.1001265800470514e+00 3.6931926868566711e-01 4.9624626591238657e-03 -2.0137288918200222e+00 3.1587387440244336e-01 4.5988059935899084e-01 2.1482043318495778e-01 -1.4972235223954751e+00 1.0666626510637049e+00 5.9618021822203848e-01 -6.2729768697980925e-01 1.2865698856530883e+00 
        </Neuron>
        <Neuron NSynapses="17">
          -9.9814401428451038e-01 -1.3451616475228259e+00 3.7319892135063371e-01 -3.3136138087822881e-01 1.5248412679142656e+00 6.4312831754410038e-01 2.8271091028358569e-01 -5.6050257459558406e-01 9.1647979613568922e-02 -1.7028194404664734e+00 1.0488015305618557e+00 -9.8119846664297336e-03 -1.7651423760554386e+00 9.4716322370067413e-02 -1.0712578043818699e+00 6.5445030197339785e-02 1.2854388133125436e+00 
        </Neuron>
        <Neuron NSynapses="17">
          1.9017406047748888e+00 -1.6632530682917981e+00 8.9501811868863790e-01 1.6316013749737452e+00 1.1512532245824125e+00 -2.0364876702771223e-01 -8.5457055977980856e-01 -2.9584075677375021e-01 -1.5804578809113368e+00 1.5714736250259473e+00 1.4075414831533382e+00 -4.4337711579062189e-01 -5.4691448762631034e-01 -5.1079555043525648e-01 -1.0414056551803779e+00 8.3815717574831139e-01 2.1982092710678915e+00 
        </Neuron>
        <Neuron NSynapses="17">
          -5.3033795705449360e-01 -8.8130845323690576e-01 3.7832586898032444e-01 1.1470061335305453e+00 3.0864258748667944e-01 9.7284048303677317e-01 -9.3845997387686531e-01 1.4487083243953778e+00 5.0778371494982544e-01 3.8842719074085624e-01 6.2261819160567899e-01 1.1552738158133944e+00 -7.1908861269157209e-01 -8.7973122716587115e-01 1.6535977528942012e+00 -1.2190278026452490e+00 -3.1817595396012699e-01 
        </Neuron>
        <Neuron NSynapses="17">
          1.4608221464172095e+00 7.0067019779741646e-01 -2.8371077004080775e-01 1.3524270167984427e+00 1.6032870404878319e+00 -1.8575218133325313e+00 8.4120128536568795e-01 -1.6392546905616528e-01 3.7715059094115533e-01 -1.6904526466687175e+00 -1.4488410573865167e+00 1.0501608104278379e+00 1.7012577544870768e+00 -1.9348972571997987e+00 1.6834680585463185e-01 -8.5683264696220018e-01 2.1073035633204257e-01 
        </Neuron>
        <Neuron NSynapses="17">
          1.7670692398796402e+00 -4.1633452510852223e-02 -3.8043180919906341e-02 -1.0388601564518598e+00 7.9000703793988880e-01 1.4412518539160035e+00 1.3016528733091988e+00 6.8786706209199758e-02 -8.2888170684302176e-01 -1.9634713709678258e+00 1.1086271685189717e+00 3.0271113391564097e-01 -1.3239677679892621e+00 -1.3041506895857637e+00 5.0798577422943769e-01 3.0995127758151259e-01 -1.5482913266008167e+00 
        </Neuron>
        <Neuron NSynapses="17">
          1.7790494621760482e+00 1.0922254482251392e+00 -3.2410815062420224e-02 -3.7351194031525502e-02 1.3716100862924647e+00 8.7214159798228719e-01 9.1884006607712987e-01 -3.3093500294905059e-01 -1.8828284704374214e+00 -8.8143794590494795e-01 1.8258819078295063e+00 9.3649093660657412e-01 8.3114757353882240e-01 -3.5845917951277861e-01 2.1376273901661014e+00 -1.2927766036508799e+00 -8.1179154085798155e-01 
        </Neuron>
        <Neuron NSynapses="17">
          -3.2568777161275146e-02 -1.3465504406471591e+00 1.1657222173303874e+00 1.7449251085445636e+00 -1.4478939378629681e+00 6.7354150035964921e-01 5.7608902264696331e-02 -2.0908274503976423e+00 -1.1606276907859088e+00 1.0514499604323249e+00 5.8502933888326031e-02 7.0765912940369924e-01 -1.1699206474807817e+00 1.0465848983120565e+00 -1.4524565346956311e+00 8.4057219711053799e-01 2.9633864141343563e-01 
        </Neuron>
        <Neuron NSynapses="17">
          -1.3940902943244999e+00 -1.4700002348754471e+00 -1.7024083049765630e+00 -3.6908353160247315e-01 -2.1558647613016424e+00 -1.6206682062815889e+00 -1.4777193329875389e+00 1.2586560092711915e-01 -1.0402265778721449e+00 -1.6513250482801347e+00 1.3911423100944402e+00 -5.0681021575821572e-01 9.3033561206494655e-02 -1.3954720596267631e+00 5.8867465445747280e-01 1.4998734417223545e+00 1.4101118833105701e+00 
        </Neuron>
        <Neuron NSynapses="17">
          -8.3786273680418610e-01 -1.1160582353953163e+00 -7.0997958390667226e-01 -9.4320731076671760e-01 -1.8508652803611731e+00 1.5118420468552221e-01 5.1758207416536417e-01 1.6027986098816298e+00 -3.3172632420661735e-01 2.7403454914904996e-01 -4.8455974495741161e-01 -2.0032531758546299e+00 1.3485164070348599e+00 5.9938310699086161e-01 -6.2635423623407893e-01 -8.9150206066430848e-01 1.0825233805362697e+00 
        </Neuron>
        <Neuron NSynapses="17">
          1.2173859637707021e+00 8.9327376200238306e-01 -1.1362033319807595e-01 -3.5418640099498183e-01 1.3183014602773784e+00 8.3951919421024812e-01 6.5120424668214438e-01 -5.9807449361154474e-01 2.0044425698681390e-01 -1.7205385481711677e-01 -1.2904297131205822e+00 -9.0537659648550994e-01 -1.5805450404256784e+00 -1.5403713187338877e+00 -1.4872536066018436e+00 2.2333310216326687e+00 -1.3548839879996095e+00 
        </Neuron>
        <Neuron NSynapses="17">
          1.3770298535192633e+00 -2.2200588838290298e+00 -5.8779649537670571e-02 -1.3026250260532866e+00 1.1013410741978125e+00 1.5224921595941363e+00 -2.8476708805500768e+00 5.5994229248886318e-01 1.0687552450257083e+00 -1.8903419089323776e+00 -1.9058047920741863e+00 -1.3527048728961395e+00 -6.4598132042020473e-01 2.9578218764584858e+00 -7.1447191485278816e-01 -5.9099924240769675e-01 -2.0271164858386532e+00 
        </Neuron>
      </Layer>
      <Layer Index="1" NNeurons="18">
        <Neuron NSynapses="17">
          -9.7124230465928407e-01 -1.6797982919270122e+00 -5.8927563178356424e-01 -1.5181225158253431e+00 8.5536385229357370e-01 -1.8216685592301951e+00 -1.2310959863956135e+00 1.3618063515514198e+00 4.1386083358908726e-01 -5.9961470582235787e-01 2.0349022402586803e+00 -1.7340858963757155e+00 1.6327500537924649e+00 1.0045973886008004e+00 -1.1765395669310261e+00 -5.9166026185889220e-01 -1.4386389603238373e-01 
        </Neuron>
        <Neuron NSynapses="17">
          -1.0720126956117426e+00 4.6511881199821936e-01 1.7185362554901578e+00 1.3529255395070776e+00 1.7605426794411791e+00 -1.5593425775741530e+00 1.1175452375076207e+00 -2.0421481472213272e+00 5.7025469055041778e-01 -1.6375802848899328e+00 -2.0620179193585679e+00 1.7526081581475932e-03 1.2299094053031181e+00 3.4381577146415881e-01 9.6395877020847298e-01 4.4929617123956556e-01 -2.1569400759396387e-01 
        </Neuron>
        <Neuron NSynapses="17">
          -6.2553419118275211e-01 1.0418961588309884e-01 1.8722492480462387e+00 -1.4422373997583513e+00 5.0889936502509869e-01 -1.7246397128463529e+00 -4.2762847915374219e-01 3.3359906534634376e-01 -2.6922859795835415e-02 -1.1938305824304365e+00 7.2523763348474968e-01 1.7088799005157018e+00 7.0937694102152782e-01 -1.0171141622238870e-01 -7.0284559812262115e-01 -1.4305575913494908e+00 -1.6082562445851942e+00 
        </Neuron>
        <Neuron NSynapses="17">
          1.0454036113650633e+00 -5.3526271213863941e-01 -7.2125286220608986e-01 3.2153843890770772e-01 -1.8779146664033437e+00 -1.6893729819159453e+00 -1.6814242959044685e+00 6.4425823734958720e-01 -1.2575502942707721e+00 -1.6762883943350722e+00 -4.8286316220513481e-01 -9.2548969561773053e-01 -1.6444477657673373e+00 1.2595810927750106e+00 -1.5572342932836294e+00 -1.2260747882175485e+00 1.5433656722498628e+00 
        </Neuron>
        <Neuron NSynapses="17">
          6.1436578802043584e-01 3.2627844279797663e-01 2.0245197437512956e-02 1.3323115425708287e+00 1.9035325460896488e+00 1.1215709736535755e+00 -8.7963482328539222e-01 -3.8185062834313410e-01 -1.7963859847748869e+00 8.8268160901500292e-01 8.1133717583891329e-01 8.4558534788464937e-02 1.1386880407024469e+00 8.2189043657823069e-01 1.5755606735480716e+00 -1.2710819715990043e+00 1.6542900737474100e+00 
        </Neuron>
        <Neuron NSynapses="17">
          7.4427196081162594e-01 -1.9165383319306151e+00 -1.4173976131816135e-01 -9.6274179287370654e-01 9.0627855138034774e-01 7.2596810967937153e-01 1.0100537677037831e+00 1.6880914217919136e+00 -2.6203799336452860e-01 1.5597843305415151e+00 1.8367203444017388e+00 2.0446028312052772e-01 -8.8504277304695700e-01 1.5982882025356520e+00 -2.0951054264723057e+00 6.6530233191140953e-01 1.6849347489869506e+00 
        </Neuron>
        <Neuron NSynapses="17">
          -1.8580632104554093e-01 -7.9887044546178276e-01 3.0967768167747806e-01 -1.2728137653929028e+00 4.0121131308234181e-01 -2.2803223626811255e+00 1.9523722524924164e-01 -6.1614756059733689e-01 1.8806443889315696e+00 1.1362710907632974e+00 1.8964137950234721e+00 -4.5220402742153870e-01 -1.4265571640448826e-01 3.2141880660797306e-01 1.5427030670812092e+00 -1.6923544066939673e+00 -1.3914950131954686e+00 
        </Neuron>
        <Neuron NSynapses="17">
          -6.6801834774051994e-01 -1.4847634208567253e+00 -1.4933244126004839e+00 -1.8086321498240583e+00 4.5040087050102423e-01 -5.1790756080829455e-02 -1.9512817166898897e+00 -2.0359613929556195e+00 -2.7993185769474649e-01 1.8444377512648740e+00 1.7897210517412929e+00 1.2892249042080548e+00 -6.1661364390244733e-01 -1.7480462619630264e+00 8.0931012768851590e-02 -1.3827216744048094e+00 -1.5091507936576176e+00 
        </Neuron>
        <Neuron NSynapses="17">
          -7.8521009185959412e-01 1.7077163185561638e-02 -1.8456533440554848e+00 1.4842642024027828e+00 1.2812159196198836e+00 1.2833157990564923e+00 -5.7207064651751172e-01 -3.6614330596379530e-01 1.5905348230827105e+00 -5.4873064851157238e-01 1.2416008207389183e-02 1.5457435764942296e+00 1.4877913849097337e+00 -1.0369961320841814e+00 1.6812938085991420e+00 -2.0329732109994718e+00 1.7485900523587288e+00 
        </Neuron>
        <Neuron NSynapses="17">
          2.1350162269299893e+00 -1.9215992237730831e-01 1.7506216067579575e-01 3.2623968277839099e-01 -3.4208645694072115e-01 2.1044439056582145e-01 4.4522679960640216e-01 -9.5595884167718737e-01 -1.5894426831729414e+00 -1.0282889872988632e-01 1.5381931520728811e+00 4.1351337124012782e-01 -7.7522119425670744e-01 -1.8082999992438702e+00 1.7681087550787769e+00 5.1030530482438341e-01 -1.2192211369389077e+00 
        </Neuron>
        <Neuron NSynapses="17">
          -3.3682366132292269e-01 -1.0095668142380159e+00 1.5187805448811977e+00 1.3919831066867867e+00 -8.6408807844828939e-01 -1.9926983659522002e+00 1.5139976898190943e+00 8.1511852796018047e-01 4.8876192780762451e-01 2.2490260294003836e-01 -9.5808539206692356e-01 -1.2430731555969088e+00 9.8020812829605908e-01 3.9641869314121164e-01 2.2271802954633380e-01 -1.8099936461318755e+00 -1.9446992243156249e+00 
        </Neuron>
        <Neuron NSynapses="17">
          -1.9852529542649147e+00 -3.1535081582742919e-01 -1.4768197720999576e+00 1.8741828689940096e-01 -7.5814487011465093e-01 1.4873428313367569e+00 3.7550329975862307e-01 -1.9191611264122104e+00 1.1486818303816233e+00 2.0460441434953229e+00 1.0237563326901755e+00 -4.5627749565546866e-01 -8.8697814648660056e-01 2.2037436434517388e+00 -1.4539959430543163e+00 3.9823159093576815e-01 -1.4271080240794543e+00 
        </Neuron>
        <Neuron NSynapses="17">
          6.5840960799046455e-01 -1.1559152337424934e+00 1.5113527705454310e-01 -1.2926110059829127e-01 1.8582714773517661e-01 4.9375377473246462e-01 -9.0251731660012635e-01 1.1306326274100835e+00 5.2511311135824112e-01 9.1841690760544603e-01 9.2588603126724289e-01 -1.7509696116915905e+00 9.6681647506219404e-01 -1.7769221665500519e+00 1.1254064080270434e+00 7.5480292862272047e-01 7.2660280241660069e-01 
        </Neuron>
        <Neuron NSynapses="17">
          1.5025828703357140e+00 1.4654363200867113e+00 -1.9073281675729548e+00 -6.6590322062619456e-01 -9.4506612356375186e-01 1.0379214816734705e+00 -3.8658220637948952e-03 -1.4813149661805042e-01 -5.8797240799914452e-01 -6.8346387409617404e-01 -9.5278069772385943e-01 -3.6042947349136084e-01 -1.7997775514449790e+00 -2.6670096722544778e-01 2.7993971915135746e-01 -6.1921489585417600e-01 -1.2974227874875710e+00 
        </Neuron>
        <Neuron NSynapses="17">
          1.2510811885084561e-01 2.5483959349590746e-01 -1.7786453767946800e-01 -1.1694391620125655e+00 1.6873398171067275e+00 -1.4085053437077746e-01 6.4343182553979394e-01 6.1731409350357280e-01 -9.4232438797879270e-01 -7.1824638706455879e-01 -1.1635865757176689e-01 -1.9843009404192049e+00 -1.0226255290752211e+00 -1.0433111314707393e+00 1.0831021794615598e+00 -2.1752768067602219e+00 1.3043726136639864e+00 
        </Neuron>
        <Neuron NSynapses="17">
          2.0047092868925818e+00 1.5929233056803023e+00 9.4821307346809103e-01 7.5260152144363923e-01 3.1771515461155914e-01 -9.3838482521894384e-01 -1.9092856996771779e+00 -1.0858190879452556e+00 -9.1685535387717598e-01 1.3021301924098945e+00 2.1479211653320691e-02 9.5475315239251193e-02 1.5492495427671233e+00 1.0184771513309123e+00 -1.2527184959833697e+00 4.8911691651441142e-01 -1.5955811938839508e+00 
        </Neuron>
        <Neuron NSynapses="17">
          8.3227241458559498e-01 -1.8431353535280539e+00 3.5012385862693823e-01 -3.7502072712807938e-01 8.2452774295018638e-01 -2.2241906313542663e+00 2.1583544416080883e-01 -1.9342668566530641e+00 3.7777544193088736e-03 1.3527706823462373e+00 -5.9150136669033815e-01 5.5557421547098806e-01 -1.8820097351915313e+00 1.1066272753196100e+00 -5.4487983575455734e-01 6.7568931724733250e-01 -1.7645592769602305e+00 
        </Neuron>
        <Neuron NSynapses="17">
          -1.1518927512662636e+00 1.9538530998155210e+00 -2.4126207268908675e+00 -1.1301277195022619e+00 -7.6086030031612240e-01 2.6250356674024609e+00 1.5029791213348367e+00 2.0439490951977710e+00 -1.8498998818026289e+00 7.6186620233249636e-01 4.6322355648422531e-01 2.3008836956919693e-01 -1.2447801307185953e+00 -1.4133511428072456e+00 2.9740245882966521e-01 -2.3593176452644124e-01 1.8308213469258019e+00 
        </Neuron>
      </Layer>
      <Layer Index="2" NNeurons="18">
        <Neuron NSynapses="1">
          -3.5394039661871858e-02 
        </Neuron>
        <Neuron NSynapses="1">
          -7.2504026356095983e-03 
        </Neuron>
        <Neuron NSynapses="1">
          -1.5820332832169784e-01 
        </Neuron>
        <Neuron NSynapses="1">
          6.1001260102969855e-03 
        </Neuron>
        <Neuron NSynapses="1">
          -1.9059498607254678e-02 
        </Neuron>
        <Neuron NSynapses="1">
          -8.1415096204348580e-01 
        </Neuron>
        <Neuron NSynapses="1">
          1.0481933555916850e-02 
        </Neuron>
        <Neuron NSynapses="1">
          3.3873343737622796e-02 
        </Neuron>
        <Neuron NSynapses="1">
          3.7378629101513317e-03 
        </Neuron>
        <Neuron NSynapses="1">
          4.9827360236861809e-02 
        </Neuron>
        <Neuron NSynapses="1">
          9.0567280644490000e-03 
        </Neuron>
        <Neuron NSynapses="1">
          -1.4428832512140164e-02 
        </Neuron>
        <Neuron NSynapses="1">
          -6.1366438276167161e-02 
        </Neuron>
        <Neuron NSynapses="1">
          -7.3394102027363522e-03 
        </Neuron>
        <Neuron NSynapses="1">
          2.2656240132627602e-03 
        </Neuron>
        <Neuron NSynapses="1">
          -2.5423287690644801e-02 
        </Neuron>
        <Neuron NSynapses="1">
          -2.9187452472051047e-02 
        </Neuron>
        <Neuron NSynapses="1">
          7.4320459893533841e-01 
        </Neuron>
      </Layer>
      <Layer Index="3" NNeurons="1">
        <Neuron NSynapses="0"/>
      </Layer>
    </Layout>
  </Weights>
</MethodSetup>
