<?xml version="1.0"?>
<MethodSetup Method="MLP::XS_88_226_0_cap">
  <GeneralInfo>
    <Info name="TMVA Release" value="4.2.1 [262657]"/>
    <Info name="ROOT Release" value="6.06/02 [394754]"/>
    <Info name="Creator" value="mouginot"/>
    <Info name="Date" value="Thu Feb 23 07:52:30 2017"/>
    <Info name="Host" value="Linux e300.chtc.wisc.edu 2.6.32-642.13.1.el6.x86_64 #1 SMP Tue Jan 10 11:22:50 CST 2017 x86_64 x86_64 x86_64 GNU/Linux"/>
    <Info name="Dir" value="/mnt/gluster/mouginot/TRU_MOX_XS/Generate"/>
    <Info name="Training events" value="198960"/>
    <Info name="TrainingTime" value="7.05410229e+04"/>
    <Info name="AnalysisType" value="Regression"/>
  </GeneralInfo>
  <Options>
    <Option name="NCycles" modified="Yes">20000</Option>
    <Option name="HiddenLayers" modified="Yes">N,N</Option>
    <Option name="NeuronType" modified="Yes">tanh</Option>
    <Option name="RandomSeed" modified="No">1</Option>
    <Option name="EstimatorType" modified="No">MSE</Option>
    <Option name="NeuronInputType" modified="No">sum</Option>
    <Option name="V" modified="Yes">False</Option>
    <Option name="VerbosityLevel" modified="No">Default</Option>
    <Option name="VarTransform" modified="Yes">Norm</Option>
    <Option name="H" modified="Yes">False</Option>
    <Option name="CreateMVAPdfs" modified="No">False</Option>
    <Option name="IgnoreNegWeightsInTraining" modified="No">False</Option>
    <Option name="TrainingMethod" modified="Yes">BFGS</Option>
    <Option name="LearningRate" modified="No">2.000000e-02</Option>
    <Option name="DecayRate" modified="No">1.000000e-02</Option>
    <Option name="TestRate" modified="Yes">6</Option>
    <Option name="EpochMonitoring" modified="No">False</Option>
    <Option name="Sampling" modified="Yes">3.000000e-01</Option>
    <Option name="SamplingEpoch" modified="Yes">8.000000e-01</Option>
    <Option name="SamplingImportance" modified="No">1.000000e+00</Option>
    <Option name="SamplingTraining" modified="No">True</Option>
    <Option name="SamplingTesting" modified="No">False</Option>
    <Option name="ResetStep" modified="No">50</Option>
    <Option name="Tau" modified="No">3.000000e+00</Option>
    <Option name="BPMode" modified="No">sequential</Option>
    <Option name="BatchSize" modified="No">-1</Option>
    <Option name="ConvergenceImprove" modified="Yes">1.000000e-06</Option>
    <Option name="ConvergenceTests" modified="Yes">15</Option>
    <Option name="UseRegulator" modified="Yes">False</Option>
    <Option name="UpdateLimit" modified="No">10000</Option>
    <Option name="CalculateErrors" modified="No">False</Option>
    <Option name="WeightRange" modified="No">1.000000e+00</Option>
  </Options>
  <Variables NVar="17">
    <Variable VarIndex="0" Expression="235U" Label="235U" Title="235U" Unit="IsotopicFraction" Internal="235U" Type="F" Min="1.71346517e-06" Max="1.92414057e-02"/>
    <Variable VarIndex="1" Expression="238U" Label="238U" Title="238U" Unit="IsotopicFraction" Internal="238U" Type="F" Min="7.85399854e-01" Max="9.68733251e-01"/>
    <Variable VarIndex="2" Expression="237Np" Label="237Np" Title="237Np" Unit="IsotopicFraction" Internal="237Np" Type="F" Min="1.63990119e-08" Max="1.97294168e-04"/>
    <Variable VarIndex="3" Expression="238Pu" Label="238Pu" Title="238Pu" Unit="IsotopicFraction" Internal="238Pu" Type="F" Min="4.69728775e-07" Max="3.96428024e-03"/>
    <Variable VarIndex="4" Expression="239Pu" Label="239Pu" Title="239Pu" Unit="IsotopicFraction" Internal="239Pu" Type="F" Min="2.15940680e-02" Max="1.89886928e-01"/>
    <Variable VarIndex="5" Expression="240Pu" Label="240Pu" Title="240Pu" Unit="IsotopicFraction" Internal="240Pu" Type="F" Min="1.54567579e-06" Max="3.95636074e-02"/>
    <Variable VarIndex="6" Expression="241Pu" Label="241Pu" Title="241Pu" Unit="IsotopicFraction" Internal="241Pu" Type="F" Min="3.22813172e-08" Max="7.04628276e-03"/>
    <Variable VarIndex="7" Expression="242Pu" Label="242Pu" Title="242Pu" Unit="IsotopicFraction" Internal="242Pu" Type="F" Min="1.58277174e-07" Max="1.98803633e-03"/>
    <Variable VarIndex="8" Expression="241Am" Label="241Am" Title="241Am" Unit="IsotopicFraction" Internal="241Am" Type="F" Min="3.13082671e-10" Max="7.48056592e-03"/>
    <Variable VarIndex="9" Expression="242Amm" Label="242Amm" Title="242Amm" Unit="IsotopicFraction" Internal="242Amm" Type="F" Min="1.34159976e-07" Max="1.16249369e-02"/>
    <Variable VarIndex="10" Expression="243Am" Label="243Am" Title="243Am" Unit="IsotopicFraction" Internal="243Am" Type="F" Min="2.04390229e-08" Max="1.99559363e-04"/>
    <Variable VarIndex="11" Expression="242Cm" Label="242Cm" Title="242Cm" Unit="IsotopicFraction" Internal="242Cm" Type="F" Min="1.48285639e-09" Max="1.93909858e-04"/>
    <Variable VarIndex="12" Expression="243Cm" Label="243Cm" Title="243Cm" Unit="IsotopicFraction" Internal="243Cm" Type="F" Min="9.09117492e-09" Max="1.97552916e-04"/>
    <Variable VarIndex="13" Expression="244Cm" Label="244Cm" Title="244Cm" Unit="IsotopicFraction" Internal="244Cm" Type="F" Min="2.46570231e-09" Max="1.97112051e-04"/>
    <Variable VarIndex="14" Expression="245Cm" Label="245Cm" Title="245Cm" Unit="IsotopicFraction" Internal="245Cm" Type="F" Min="9.47205692e-09" Max="1.97873349e-04"/>
    <Variable VarIndex="15" Expression="246Cm" Label="246Cm" Title="246Cm" Unit="IsotopicFraction" Internal="246Cm" Type="F" Min="2.33963915e-09" Max="1.98596885e-04"/>
    <Variable VarIndex="16" Expression="Time" Label="Time" Title="Time" Unit="seconds" Internal="Time" Type="F" Min="0.00000000e+00" Max="1.89328320e+08"/>
  </Variables>
  <Spectators NSpec="0"/>
  <Classes NClass="1">
    <Class Name="Regression" Index="0"/>
  </Classes>
  <Targets NTrgt="1">
    <Target TargetIndex="0" Expression="XS_88_226_0_cap" Label="XS_88_226_0_cap" Title="XS_88_226_0_cap" Unit="" Internal="XS_88_226_0_cap" Type="F" Min="2.88362789e+00" Max="8.91949940e+00"/>
  </Targets>
  <Transformations NTransformations="1">
    <Transform Name="Normalize">
      <Selection>
        <Input NInputs="18">
          <Input Type="Variable" Label="235U" Expression="235U"/>
          <Input Type="Variable" Label="238U" Expression="238U"/>
          <Input Type="Variable" Label="237Np" Expression="237Np"/>
          <Input Type="Variable" Label="238Pu" Expression="238Pu"/>
          <Input Type="Variable" Label="239Pu" Expression="239Pu"/>
          <Input Type="Variable" Label="240Pu" Expression="240Pu"/>
          <Input Type="Variable" Label="241Pu" Expression="241Pu"/>
          <Input Type="Variable" Label="242Pu" Expression="242Pu"/>
          <Input Type="Variable" Label="241Am" Expression="241Am"/>
          <Input Type="Variable" Label="242Amm" Expression="242Amm"/>
          <Input Type="Variable" Label="243Am" Expression="243Am"/>
          <Input Type="Variable" Label="242Cm" Expression="242Cm"/>
          <Input Type="Variable" Label="243Cm" Expression="243Cm"/>
          <Input Type="Variable" Label="244Cm" Expression="244Cm"/>
          <Input Type="Variable" Label="245Cm" Expression="245Cm"/>
          <Input Type="Variable" Label="246Cm" Expression="246Cm"/>
          <Input Type="Variable" Label="Time" Expression="Time"/>
          <Input Type="Target" Label="XS_88_226_0_cap" Expression="XS_88_226_0_cap"/>
        </Input>
        <Output NOutputs="18">
          <Output Type="Variable" Label="235U" Expression="235U"/>
          <Output Type="Variable" Label="238U" Expression="238U"/>
          <Output Type="Variable" Label="237Np" Expression="237Np"/>
          <Output Type="Variable" Label="238Pu" Expression="238Pu"/>
          <Output Type="Variable" Label="239Pu" Expression="239Pu"/>
          <Output Type="Variable" Label="240Pu" Expression="240Pu"/>
          <Output Type="Variable" Label="241Pu" Expression="241Pu"/>
          <Output Type="Variable" Label="242Pu" Expression="242Pu"/>
          <Output Type="Variable" Label="241Am" Expression="241Am"/>
          <Output Type="Variable" Label="242Amm" Expression="242Amm"/>
          <Output Type="Variable" Label="243Am" Expression="243Am"/>
          <Output Type="Variable" Label="242Cm" Expression="242Cm"/>
          <Output Type="Variable" Label="243Cm" Expression="243Cm"/>
          <Output Type="Variable" Label="244Cm" Expression="244Cm"/>
          <Output Type="Variable" Label="245Cm" Expression="245Cm"/>
          <Output Type="Variable" Label="246Cm" Expression="246Cm"/>
          <Output Type="Variable" Label="Time" Expression="Time"/>
          <Output Type="Target" Label="XS_88_226_0_cap" Expression="XS_88_226_0_cap"/>
        </Output>
      </Selection>
      <Class ClassIndex="0">
        <Ranges>
          <Range Index="0" Min="1.7134651670858148e-06" Max="1.9241405650973320e-02"/>
          <Range Index="1" Min="7.8539985418319702e-01" Max="9.6873325109481812e-01"/>
          <Range Index="2" Min="1.6399011926182538e-08" Max="1.9729416817426682e-04"/>
          <Range Index="3" Min="4.6972877498774324e-07" Max="3.9642802439630032e-03"/>
          <Range Index="4" Min="2.1594068035483360e-02" Max="1.8988692760467529e-01"/>
          <Range Index="5" Min="1.5456757864740212e-06" Max="3.9563607424497604e-02"/>
          <Range Index="6" Min="3.2281317174920332e-08" Max="7.0462827570736408e-03"/>
          <Range Index="7" Min="1.5827717447791656e-07" Max="1.9880363252013922e-03"/>
          <Range Index="8" Min="3.1308267089968922e-10" Max="7.4805659241974354e-03"/>
          <Range Index="9" Min="1.3415997557331139e-07" Max="1.1624936945736408e-02"/>
          <Range Index="10" Min="2.0439022918594674e-08" Max="1.9955936295446008e-04"/>
          <Range Index="11" Min="1.4828563932312022e-09" Max="1.9390985835343599e-04"/>
          <Range Index="12" Min="9.0911749239808159e-09" Max="1.9755291577894241e-04"/>
          <Range Index="13" Min="2.4657023089957875e-09" Max="1.9711205095518380e-04"/>
          <Range Index="14" Min="9.4720569165929192e-09" Max="1.9787334895227104e-04"/>
          <Range Index="15" Min="2.3396391490848600e-09" Max="1.9859688472934067e-04"/>
          <Range Index="16" Min="0.0000000000000000e+00" Max="1.8932832000000000e+08"/>
          <Range Index="17" Min="2.8836278915405273e+00" Max="8.9194993972778320e+00"/>
        </Ranges>
      </Class>
    </Transform>
  </Transformations>
  <MVAPdfs/>
  <Weights>
    <Layout NLayers="4">
      <Layer Index="0" NNeurons="18">
        <Neuron NSynapses="17">
          4.2634647191569525e-01 -8.1177930930941555e-02 2.0690795232174066e-02 7.3529293062650114e-01 -1.6615683392596299e+00 9.7478588000047522e-02 8.8767988141396387e-02 6.5392729907927449e-01 -1.7255803804825189e+00 -4.8148906685978266e-02 -7.1446974868749746e-01 -3.3673430627360355e-02 -5.8961922438846437e-01 -1.6634119622911853e-01 1.2026858796316710e-01 -8.9735306136409315e-02 -2.2875788128720453e-01 
        </Neuron>
        <Neuron NSynapses="17">
          1.0563393161147914e+00 1.4056151658392084e+00 3.0494599680765657e+00 -1.0960001464565765e+00 3.7581767077024147e-01 -1.3934542763385394e+00 -2.0595523783131667e-01 -1.3881157594380373e+00 1.0677859256605474e-01 2.1277273694338108e+00 -1.2723146679400870e+00 -2.0372263060986042e+00 -1.2836986098169237e-01 4.2964712604620196e-02 5.0272006762434596e-01 9.5111243834843318e-01 9.0544839657963327e-01 
        </Neuron>
        <Neuron NSynapses="17">
          3.8918173579812743e-01 5.1030880903741353e-02 -1.2970409865432933e-01 1.2216223374375876e+00 -1.7409891165815754e+00 4.7679018495642500e-01 4.8189026818873154e-01 6.8886164257606941e-01 1.0497794458193312e+00 3.5649691283910939e-01 -8.6019662290902466e-01 -6.4854162790220285e-02 1.8756930876256805e-01 -3.8966976712383117e-01 4.1618615837390949e-01 4.7561194254040387e-02 1.0204524462295792e+00 
        </Neuron>
        <Neuron NSynapses="17">
          1.0258494052300009e+00 -1.5873696928483741e-01 1.2469189811475040e-01 -1.5495529795489562e+00 -1.5525359256900177e+00 -7.2752868937711690e-01 -3.5247958173518323e-01 3.1789182329482063e-01 2.1976813520780442e-01 -1.6399312970521016e-01 -8.6447063911030297e-02 -1.2231871390681111e-02 1.0747165007649506e-01 7.6816727860709000e-01 -2.4402968024508728e-01 -5.9363393509729807e-02 -6.2966131112256873e-01 
        </Neuron>
        <Neuron NSynapses="17">
          1.2522130222432664e+00 -1.0044599118374575e+00 -2.0790465190841254e+00 -7.0102435640774086e-01 -4.9664044617530534e-01 2.3289546878984808e+00 1.6471999884251309e+00 8.5401463526846499e-01 -2.4041159384254556e+00 -2.0816079785888109e+00 1.3071444578723459e+00 5.1430185331919465e-01 1.8318660506108693e+00 7.4909403082293391e-01 1.4735589834946183e+00 -1.7735904286058588e+00 -1.8252374647807224e+00 
        </Neuron>
        <Neuron NSynapses="17">
          6.1535841787530043e-01 -4.3422726837969583e-01 -6.7687034632739596e-01 -8.6542103943879012e-01 -1.9690184560658481e+00 6.7820612482407594e-01 3.5827908985612078e-01 8.9632870939985398e-01 -2.0565934935184034e+00 -1.0261764747233988e+00 1.3236017147577552e+00 2.3108176218400422e-01 -1.5589525204679178e+00 -1.4653525806139907e+00 1.3758471014404108e+00 -6.2175203549629965e-01 -1.0153541786064861e+00 
        </Neuron>
        <Neuron NSynapses="17">
          1.5429432189454464e+00 8.3990385300948767e-02 -3.1572474440346687e-01 1.4585306681361419e+00 -1.2240871472934221e+00 -1.7765036581596116e-01 2.4500681319545994e-01 6.4932209146437103e-01 -2.4921233232285060e+00 -4.4360073401980932e-01 3.0396173283367889e-01 -9.3305243496848485e-03 -1.7800692456465355e+00 2.2389040680372094e-01 1.3052863209699078e-01 -8.9099740282090431e-02 9.1774813722928139e-01 
        </Neuron>
        <Neuron NSynapses="17">
          -5.9339146672546772e-01 -5.8449923050313910e-03 7.8256901787492991e-02 -1.7439455827139477e-01 1.0468945100319775e+00 -5.3782892964348303e-03 9.0687499037808011e-02 -3.5731104604275914e-02 -2.5363401515477002e-01 -9.6877846316474003e-02 5.8514309410507814e-01 1.4215594273550198e-02 -2.0363346873429555e+00 -1.2648229076711717e-01 -3.7754492284191932e-01 -4.5099071009195205e-02 7.9144255805237895e-01 
        </Neuron>
        <Neuron NSynapses="17">
          2.4465870080661802e+00 -1.1585913300688377e+00 7.8356339659351237e-01 1.5242331584134492e+00 6.3622520558017437e-01 -2.3423433885807299e-02 -9.3869175987204845e-01 8.8808193799762580e-01 -2.1635367375521231e+00 9.8501958108939958e-01 1.1361878329230737e+00 3.0055950002642801e-01 -1.3975109653950264e+00 -9.3069983424487568e-01 -2.0431801804907276e-01 -5.2458942556975052e-01 2.3599409319362645e+00 
        </Neuron>
        <Neuron NSynapses="17">
          3.0743379459101328e-01 -2.1434730512275577e-01 7.2525710070325833e-01 1.7256288115018934e+00 -2.5649875370823134e-03 4.3786131535823547e-01 -1.5194886145907380e+00 1.8418318637909006e+00 -9.1989259762735073e-02 5.0221786351133446e-01 1.1266278758870902e+00 3.3079305486845245e-01 -9.1744760674891157e-01 -8.9782460326654434e-01 2.6533821625153649e+00 -4.1866990090246858e-01 3.4364696300589109e-01 
        </Neuron>
        <Neuron NSynapses="17">
          1.5001779894963323e+00 1.2560315673065167e-01 -1.6292871638423859e-01 1.2214990476730041e+00 1.0571169462452228e+00 -6.2711319150129374e-01 -4.8628182820062982e-02 2.2201104081870554e-01 -2.3622730775084944e-01 -5.5966258196264196e-01 -9.8987467001798690e-01 -2.7354821635295234e-02 1.0568675764600093e+00 -1.6933759309023841e+00 7.0736575800582249e-02 -5.9011939321935757e-03 -1.3389207352260188e-01 
        </Neuron>
        <Neuron NSynapses="17">
          1.7416895442752476e+00 1.5822981479407647e-01 -2.7980042709696101e-02 -1.1620257222270953e+00 4.8884132331055707e-01 2.7027145619011139e-01 1.6161286978519362e-01 1.9396892714860692e-01 -1.0338091738231612e+00 -1.2007844268784755e-01 7.0239945861549558e-01 -4.8284553559631155e-02 -1.8885857686440894e+00 -9.7073416511376764e-01 2.5564233281617876e-01 -1.0730606595541935e-02 -1.1949053242485388e+00 
        </Neuron>
        <Neuron NSynapses="17">
          1.6195278620642533e+00 2.7462558085575789e-01 -2.3250613415386895e-01 -2.8226951865142502e-01 1.4977921641876786e+00 2.5857966902926299e-01 1.4891609263906664e-02 -1.2741775294531354e-01 -2.0610396898669441e+00 -2.8249032937127072e-01 8.3111306907856453e-01 -3.3178604370196665e-02 3.2562948010218841e-02 -4.0395811012171889e-01 7.7619123584384730e-01 2.6777059262648947e-02 -6.4334066460661510e-01 
        </Neuron>
        <Neuron NSynapses="17">
          3.7152599926239332e-01 -3.3713831975641273e-01 3.7251035808509697e-01 1.7806987788005961e+00 -1.4738061546385686e+00 4.4845861273302973e-01 -1.6186594605398327e-01 -1.1619860567052497e-01 -1.2906129535147808e+00 6.4706734040765701e-01 -1.0758221891345207e-01 2.8726248543794290e-02 -1.2479503390666888e+00 5.6037443191825353e-01 -7.9221125196718989e-01 -4.6044229568861145e-02 3.0847119511057397e-01 
        </Neuron>
        <Neuron NSynapses="17">
          -9.4515954597105745e-01 -1.5267885570739195e-01 -2.7501292638231767e-01 -1.3175529577815351e-01 -2.0378425665562019e+00 -8.4164135877107737e-01 2.4855296806332666e-02 -7.2370294453522827e-03 -1.4495444754692650e+00 -4.2512952412211025e-01 4.5918176103370739e-01 -4.2427823720850221e-03 -2.0406474406345951e-01 -1.4954571203933114e+00 1.8410691810243277e-01 2.3681386621468643e-02 7.5368844518815792e-01 
        </Neuron>
        <Neuron NSynapses="17">
          -1.9938060537381411e-01 -1.2994112869903535e-01 3.9099273865728208e-02 -6.1944028007741947e-01 -2.2460970445319202e+00 -1.9745436130992219e-02 1.4358039934114156e-01 5.9340726817708200e-01 -9.1544606093232705e-01 1.1498954894113131e-01 -3.0158247591854065e-01 -4.0784294868676942e-02 7.6710847586221187e-01 2.9159258345914230e-01 -1.3583700343411059e-01 4.3461313916811099e-03 8.3184128696944060e-01 
        </Neuron>
        <Neuron NSynapses="17">
          1.0844363376391424e+00 -1.0425931016939444e-01 -6.5396932086638868e-02 -1.9390778801951289e+00 1.5099407605072754e+00 -1.6517831121683943e-01 1.5041759184519730e+00 -2.0024686830648237e+00 2.5735027800891874e-01 2.0140995340443160e-01 -1.8911317245497357e+00 -4.9464337580350665e-01 -1.4906264425060736e+00 -7.2583882080502815e-01 -2.6283375418820598e+00 4.9877194078579834e-01 -1.3085076631424626e+00 
        </Neuron>
        <Neuron NSynapses="17">
          1.2520829647653720e+00 -3.4275891996483767e+00 -4.0145344877662104e-01 -1.0811276326502379e+00 9.4221265025941869e-01 3.0305961027623147e+00 -2.6065762588796009e+00 -1.8171580014132984e+00 1.7722692543124092e+00 -3.4730124978222094e+00 -1.9171379239731356e+00 -2.0869077511378156e+00 4.8357545870488056e-01 3.9757143421388639e+00 8.5033044836466232e-02 -1.6522863618636783e+00 -2.3729947611991600e+00 
        </Neuron>
      </Layer>
      <Layer Index="1" NNeurons="18">
        <Neuron NSynapses="17">
          -4.9895085280091601e-02 -2.5346398275994369e-02 -5.9231470375804429e-01 -1.1469204189457205e+00 1.3446947542677719e+00 -6.1300213919109281e-01 -1.0259480758724058e+00 1.8615206479744928e+00 1.6941651597348337e-01 -4.7971324444155505e-01 1.8767918988520689e+00 -1.6311747232790317e+00 7.3788377070503597e-01 5.0994134349599252e-01 -1.0428112563864564e+00 -4.7169191791378046e-01 -1.0805024411147341e+00 
        </Neuron>
        <Neuron NSynapses="17">
          3.2639270492937389e-01 3.6100997447900701e-01 2.0902801690619580e-01 1.7306148285244538e+00 1.8373252187627469e+00 -9.8610142600272788e-01 -9.5657734435393008e-02 -3.6572797853479244e+00 3.5022688248407430e-01 -1.7671557542411320e+00 -1.7243316199879815e+00 3.0928006766385086e-01 1.8692245500179263e+00 1.3896874695634884e-01 1.0355463644120741e+00 6.8239296297171259e-01 -9.8786086206861179e-01 
        </Neuron>
        <Neuron NSynapses="17">
          6.5260403486426116e-03 -1.7792645445711927e-01 1.0841029056585727e+00 -1.1038382889062521e+00 5.7427409863093315e-01 -8.7507828166230872e-01 -5.0148976182291283e-01 -1.7707244384842844e+00 -4.4480220679523230e-01 -2.9423874533896377e-01 1.0649345127080985e+00 1.6306659170531528e+00 4.2774627897227951e-01 -4.6012702595853400e-01 -3.2461435312172909e-01 -1.6852009147874909e+00 -1.3646330670773676e+00 
        </Neuron>
        <Neuron NSynapses="17">
          1.2570227951560854e-02 -3.8305389317198629e-01 -3.0062484575425658e-01 3.7942923062440814e-01 -1.7552092944417730e+00 -1.0701075566672589e+00 -1.2726644509892659e+00 -9.1276744022094092e-01 -9.9501876688617996e-01 -4.8723993882515199e-01 -8.0828339686839301e-01 -9.5383968980510647e-01 -8.0956341657148989e-01 1.1922862280689031e+00 -1.3018995173865544e+00 -1.2022380328708231e+00 1.0409666551754715e+00 
        </Neuron>
        <Neuron NSynapses="17">
          -3.6246575053357863e-02 -2.8377747013307719e-01 -1.9493611914881800e-01 1.2616321890903124e+00 1.6642398197700687e+00 4.6857243399181764e-01 -8.8978685615448339e-01 -8.7762342095903023e-01 -9.8473792468134980e-01 9.3544086189377318e-01 8.5461476825736160e-01 -3.6459259731814814e-01 2.4668606161222500e-01 7.5720179716033464e-01 7.5685030499877815e-01 -1.3408255330762922e+00 1.8772919497839429e+00 
        </Neuron>
        <Neuron NSynapses="17">
          3.7569585394090721e-01 -1.7494576938041204e+00 -1.0316100508304664e-01 -7.5122815531095766e-01 1.1444563016291676e+00 6.7187373882482848e-01 1.0346604341492327e+00 2.2066486936247931e+00 1.1320452455178730e-01 1.0062913070200976e+00 1.9741109221469342e+00 7.4254060937954128e-02 -1.2361891938565734e+00 1.7887700353777984e+00 -2.2335557477950343e+00 5.4043746668442716e-01 1.9338224244231854e+00 
        </Neuron>
        <Neuron NSynapses="17">
          -1.0846312084685165e-01 -4.1989402850303204e-01 1.6017448819676397e-01 -5.9354451890510274e-01 5.6408614694346182e-01 -1.3113571849531882e+00 -1.0917635557694297e-01 -1.1968473083650664e+00 1.5664238132167001e+00 6.9734187270990988e-01 1.7043064808996569e+00 -4.0808543446378215e-01 -2.8287183905528668e-01 -1.6797267913296443e-02 1.6859187437589003e+00 -1.5528433573567799e+00 -2.2560144136282489e+00 
        </Neuron>
        <Neuron NSynapses="17">
          -3.2126418979577204e-01 -1.4810441297787726e+00 -9.5941038588475891e-01 -2.2323882616548523e+00 2.2153872542635680e-01 5.3453337533314958e-02 -1.2938746050713961e+00 -9.7059797979571893e-01 -1.5150779089582322e-01 1.1376195086963989e+00 1.5617968253548871e+00 1.1896785817832090e+00 -5.9126074060662759e-01 -1.6805906450619876e+00 2.3972556037195711e-01 -1.3372528630362390e+00 -2.0901941782929843e+00 
        </Neuron>
        <Neuron NSynapses="17">
          -1.5141598585629859e-01 8.7686550942443264e-02 -1.2581781246652031e+00 1.4011453801357079e+00 1.0049417065517192e+00 2.7325064134043980e-02 -6.5891986492898069e-01 1.0308335572253620e-01 1.6204817915831278e+00 -3.3186234002018433e-01 1.9007150069798040e-01 1.5494890062812907e+00 1.3411207560745797e+00 -8.6934399662475526e-01 1.4684885716742520e+00 -1.9114520732698890e+00 2.2751351809085212e+00 
        </Neuron>
        <Neuron NSynapses="17">
          1.7755712722444865e+00 -2.8675682282567527e-01 1.7206006960871836e-01 3.0868569250065242e-01 -4.1972303634760783e-01 1.3183381690065283e+00 -9.5240989150333105e-02 -3.7192170734985117e+00 -1.5918805672904797e+00 -3.6010456267425200e-01 2.0403258494014653e+00 4.6074643261374881e-01 -9.8320710317679039e-01 -2.0321224094941042e+00 1.8579161251804899e+00 2.4877918667763019e-01 -2.2852307525310702e+00 
        </Neuron>
        <Neuron NSynapses="17">
          -3.8034458390549121e-02 -7.7922717362897398e-01 9.1158380649591619e-01 8.8281850585225596e-01 -5.3341439147744962e-01 -8.8935360756480897e-01 1.7612272171471866e+00 8.0985494320250384e-01 5.0930557651476083e-01 -4.2200021030518071e-02 -1.1840517038701699e+00 -1.2886005651703041e+00 8.3379638043785542e-01 6.8571637057025392e-01 -3.2321810508163198e-02 -1.7404280644714309e+00 -2.7640747784794319e+00 
        </Neuron>
        <Neuron NSynapses="17">
          -2.9258105221742028e+00 -1.7113354761206254e+00 -8.8613555630941665e-01 -2.6934218671124827e-01 -1.2257349406908040e+00 1.2666757218105706e+00 8.4812153509489263e-01 -3.6751104391068115e+00 2.3157889848818742e+00 2.1904803414900766e+00 7.0971816386160791e-01 -1.0555245834128097e+00 -1.3003862264109161e+00 2.6719681811817289e+00 -2.2007938041212629e+00 -2.5278291369738800e-02 -1.8379925015391647e+00 
        </Neuron>
        <Neuron NSynapses="17">
          1.5014963973704066e-02 -7.1648807622811383e-01 -6.7203572529180078e-02 -5.3459837208591443e-01 -2.6759920280159721e-01 -8.1326904279428314e-01 -3.5218980371049741e-01 4.8039190731274029e-01 4.1767251540034439e-01 6.8131510785647120e-01 8.1048454780716417e-01 -1.5805888884687742e+00 4.5791146299485697e-01 -1.5533037423561669e+00 7.2964410216090514e-01 7.9729110330386177e-01 1.6251893751346020e+00 
        </Neuron>
        <Neuron NSynapses="17">
          1.3042096269123737e+00 1.2159367144943865e+00 -1.1279672140690569e+00 -6.2277837832884142e-01 -9.1617569659007358e-01 2.6526893115242778e-01 1.8224935379640247e-01 6.4589735134559234e-01 -4.6183480792669646e-01 -4.7210982722849582e-01 -7.4171132828249153e-01 -4.5840799235956758e-01 -1.6338175571290976e+00 -8.6140522611091105e-02 2.5813514709545005e-01 -7.3466540996493723e-01 -6.5949986749009260e-01 
        </Neuron>
        <Neuron NSynapses="17">
          -9.4142906100586302e-02 2.1454145253355142e-01 -3.7791236563191827e-01 -1.3046334273149252e+00 1.1724819834681075e+00 -4.6162296993396185e-01 6.3283700769739115e-01 5.0799910613878541e-01 -6.1849744256306194e-01 -6.2604573161771249e-01 -2.8695316053520875e-01 -1.3918401689524669e+00 -4.7856804359420441e-01 -6.9299058547981496e-01 8.1635833544733694e-01 -1.8303414235928712e+00 1.5399749945072907e+00 
        </Neuron>
        <Neuron NSynapses="17">
          2.1256977717303118e+00 1.4667468880352625e+00 1.1169899625509299e+00 1.1353367671165413e+00 4.2682216865522266e-01 -5.6032733534924073e-01 -2.4241080256658321e+00 -2.6364343693157362e+00 -9.6506514298526569e-01 4.1740985740640807e-01 2.5406481954170090e-01 2.4388912228858636e-01 1.6067047587497680e+00 7.6401685434045563e-01 -1.1360069253282250e+00 2.8289207434155295e-01 -2.0358527620993216e+00 
        </Neuron>
        <Neuron NSynapses="17">
          -6.9746015376431752e-03 -1.6034671140430317e+00 -1.1641962070932389e-01 -2.6742032473661376e-01 3.8004440550325563e-01 -1.9489075892620376e+00 3.8664264523574127e-01 -2.7087389239784243e+00 -3.1345632081434660e-01 1.7209001189949624e+00 -8.3035179788519531e-01 6.0983284813523253e-01 -1.4691097031173708e+00 8.8747713139670314e-01 -3.7443697559655592e-01 8.0853899188108214e-01 -2.3877392052863717e+00 
        </Neuron>
        <Neuron NSynapses="17">
          -8.3633001635714777e-01 2.0619917529078142e+00 -2.1792655253682272e+00 -1.3517486918929329e+00 -6.8171777621937435e-01 1.1559763364065181e+00 1.4029660850159487e+00 3.6387601698370871e+00 -1.6935300461611991e+00 7.5043801098356777e-01 6.4591458401781499e-01 1.4745798488119208e-01 -1.3488599011970444e+00 -1.2258400242182672e+00 2.1267319439587931e-01 -1.8269977471865748e-01 2.8080735708749547e+00 
        </Neuron>
      </Layer>
      <Layer Index="2" NNeurons="18">
        <Neuron NSynapses="1">
          2.0662475192662860e-01 
        </Neuron>
        <Neuron NSynapses="1">
          4.4250950923800499e-02 
        </Neuron>
        <Neuron NSynapses="1">
          1.1127345822892405e+00 
        </Neuron>
        <Neuron NSynapses="1">
          1.7836185935942352e-02 
        </Neuron>
        <Neuron NSynapses="1">
          1.0570756494986793e-02 
        </Neuron>
        <Neuron NSynapses="1">
          -4.3464431757140637e-01 
        </Neuron>
        <Neuron NSynapses="1">
          -5.3372956728047781e-02 
        </Neuron>
        <Neuron NSynapses="1">
          -3.6156153451023354e-02 
        </Neuron>
        <Neuron NSynapses="1">
          -1.2322852485122221e-02 
        </Neuron>
        <Neuron NSynapses="1">
          -3.3339913637234590e-02 
        </Neuron>
        <Neuron NSynapses="1">
          1.6535130057247314e-03 
        </Neuron>
        <Neuron NSynapses="1">
          4.7492054170453534e-03 
        </Neuron>
        <Neuron NSynapses="1">
          5.6693773536610932e-02 
        </Neuron>
        <Neuron NSynapses="1">
          -9.1937525150222552e-03 
        </Neuron>
        <Neuron NSynapses="1">
          1.2090807804943966e-02 
        </Neuron>
        <Neuron NSynapses="1">
          1.4517613717087714e-02 
        </Neuron>
        <Neuron NSynapses="1">
          2.7666694832178703e-02 
        </Neuron>
        <Neuron NSynapses="1">
          1.1166650465297197e+00 
        </Neuron>
      </Layer>
      <Layer Index="3" NNeurons="1">
        <Neuron NSynapses="0"/>
      </Layer>
    </Layout>
  </Weights>
</MethodSetup>
