<?xml version="1.0"?>
<MethodSetup Method="MLP::XS_44_103_0_cap">
  <GeneralInfo>
    <Info name="TMVA Release" value="4.2.1 [262657]"/>
    <Info name="ROOT Release" value="6.06/02 [394754]"/>
    <Info name="Creator" value="mouginot"/>
    <Info name="Date" value="Thu Feb 23 09:47:16 2017"/>
    <Info name="Host" value="Linux e300.chtc.wisc.edu 2.6.32-642.13.1.el6.x86_64 #1 SMP Tue Jan 10 11:22:50 CST 2017 x86_64 x86_64 x86_64 GNU/Linux"/>
    <Info name="Dir" value="/mnt/gluster/mouginot/TRU_MOX_XS/Generate"/>
    <Info name="Training events" value="198960"/>
    <Info name="TrainingTime" value="5.27211165e+04"/>
    <Info name="AnalysisType" value="Regression"/>
  </GeneralInfo>
  <Options>
    <Option name="NCycles" modified="Yes">20000</Option>
    <Option name="HiddenLayers" modified="Yes">N,N</Option>
    <Option name="NeuronType" modified="Yes">tanh</Option>
    <Option name="RandomSeed" modified="No">1</Option>
    <Option name="EstimatorType" modified="No">MSE</Option>
    <Option name="NeuronInputType" modified="No">sum</Option>
    <Option name="V" modified="Yes">False</Option>
    <Option name="VerbosityLevel" modified="No">Default</Option>
    <Option name="VarTransform" modified="Yes">Norm</Option>
    <Option name="H" modified="Yes">False</Option>
    <Option name="CreateMVAPdfs" modified="No">False</Option>
    <Option name="IgnoreNegWeightsInTraining" modified="No">False</Option>
    <Option name="TrainingMethod" modified="Yes">BFGS</Option>
    <Option name="LearningRate" modified="No">2.000000e-02</Option>
    <Option name="DecayRate" modified="No">1.000000e-02</Option>
    <Option name="TestRate" modified="Yes">6</Option>
    <Option name="EpochMonitoring" modified="No">False</Option>
    <Option name="Sampling" modified="Yes">3.000000e-01</Option>
    <Option name="SamplingEpoch" modified="Yes">8.000000e-01</Option>
    <Option name="SamplingImportance" modified="No">1.000000e+00</Option>
    <Option name="SamplingTraining" modified="No">True</Option>
    <Option name="SamplingTesting" modified="No">False</Option>
    <Option name="ResetStep" modified="No">50</Option>
    <Option name="Tau" modified="No">3.000000e+00</Option>
    <Option name="BPMode" modified="No">sequential</Option>
    <Option name="BatchSize" modified="No">-1</Option>
    <Option name="ConvergenceImprove" modified="Yes">1.000000e-06</Option>
    <Option name="ConvergenceTests" modified="Yes">15</Option>
    <Option name="UseRegulator" modified="Yes">False</Option>
    <Option name="UpdateLimit" modified="No">10000</Option>
    <Option name="CalculateErrors" modified="No">False</Option>
    <Option name="WeightRange" modified="No">1.000000e+00</Option>
  </Options>
  <Variables NVar="17">
    <Variable VarIndex="0" Expression="235U" Label="235U" Title="235U" Unit="IsotopicFraction" Internal="235U" Type="F" Min="1.71346517e-06" Max="1.92414057e-02"/>
    <Variable VarIndex="1" Expression="238U" Label="238U" Title="238U" Unit="IsotopicFraction" Internal="238U" Type="F" Min="7.85399854e-01" Max="9.68733251e-01"/>
    <Variable VarIndex="2" Expression="237Np" Label="237Np" Title="237Np" Unit="IsotopicFraction" Internal="237Np" Type="F" Min="1.63990119e-08" Max="1.97294168e-04"/>
    <Variable VarIndex="3" Expression="238Pu" Label="238Pu" Title="238Pu" Unit="IsotopicFraction" Internal="238Pu" Type="F" Min="4.69728775e-07" Max="3.96428024e-03"/>
    <Variable VarIndex="4" Expression="239Pu" Label="239Pu" Title="239Pu" Unit="IsotopicFraction" Internal="239Pu" Type="F" Min="2.15940680e-02" Max="1.89886928e-01"/>
    <Variable VarIndex="5" Expression="240Pu" Label="240Pu" Title="240Pu" Unit="IsotopicFraction" Internal="240Pu" Type="F" Min="1.54567579e-06" Max="3.95636074e-02"/>
    <Variable VarIndex="6" Expression="241Pu" Label="241Pu" Title="241Pu" Unit="IsotopicFraction" Internal="241Pu" Type="F" Min="3.22813172e-08" Max="7.04628276e-03"/>
    <Variable VarIndex="7" Expression="242Pu" Label="242Pu" Title="242Pu" Unit="IsotopicFraction" Internal="242Pu" Type="F" Min="1.58277174e-07" Max="1.98803633e-03"/>
    <Variable VarIndex="8" Expression="241Am" Label="241Am" Title="241Am" Unit="IsotopicFraction" Internal="241Am" Type="F" Min="3.13082671e-10" Max="7.48056592e-03"/>
    <Variable VarIndex="9" Expression="242Amm" Label="242Amm" Title="242Amm" Unit="IsotopicFraction" Internal="242Amm" Type="F" Min="1.34159976e-07" Max="1.16249369e-02"/>
    <Variable VarIndex="10" Expression="243Am" Label="243Am" Title="243Am" Unit="IsotopicFraction" Internal="243Am" Type="F" Min="2.04390229e-08" Max="1.99559363e-04"/>
    <Variable VarIndex="11" Expression="242Cm" Label="242Cm" Title="242Cm" Unit="IsotopicFraction" Internal="242Cm" Type="F" Min="1.48285639e-09" Max="1.93909858e-04"/>
    <Variable VarIndex="12" Expression="243Cm" Label="243Cm" Title="243Cm" Unit="IsotopicFraction" Internal="243Cm" Type="F" Min="9.09117492e-09" Max="1.97552916e-04"/>
    <Variable VarIndex="13" Expression="244Cm" Label="244Cm" Title="244Cm" Unit="IsotopicFraction" Internal="244Cm" Type="F" Min="2.46570231e-09" Max="1.97112051e-04"/>
    <Variable VarIndex="14" Expression="245Cm" Label="245Cm" Title="245Cm" Unit="IsotopicFraction" Internal="245Cm" Type="F" Min="9.47205692e-09" Max="1.97873349e-04"/>
    <Variable VarIndex="15" Expression="246Cm" Label="246Cm" Title="246Cm" Unit="IsotopicFraction" Internal="246Cm" Type="F" Min="2.33963915e-09" Max="1.98596885e-04"/>
    <Variable VarIndex="16" Expression="Time" Label="Time" Title="Time" Unit="seconds" Internal="Time" Type="F" Min="0.00000000e+00" Max="1.89328320e+08"/>
  </Variables>
  <Spectators NSpec="0"/>
  <Classes NClass="1">
    <Class Name="Regression" Index="0"/>
  </Classes>
  <Targets NTrgt="1">
    <Target TargetIndex="0" Expression="XS_44_103_0_cap" Label="XS_44_103_0_cap" Title="XS_44_103_0_cap" Unit="" Internal="XS_44_103_0_cap" Type="F" Min="1.34036016e+00" Max="1.55586171e+00"/>
  </Targets>
  <Transformations NTransformations="1">
    <Transform Name="Normalize">
      <Selection>
        <Input NInputs="18">
          <Input Type="Variable" Label="235U" Expression="235U"/>
          <Input Type="Variable" Label="238U" Expression="238U"/>
          <Input Type="Variable" Label="237Np" Expression="237Np"/>
          <Input Type="Variable" Label="238Pu" Expression="238Pu"/>
          <Input Type="Variable" Label="239Pu" Expression="239Pu"/>
          <Input Type="Variable" Label="240Pu" Expression="240Pu"/>
          <Input Type="Variable" Label="241Pu" Expression="241Pu"/>
          <Input Type="Variable" Label="242Pu" Expression="242Pu"/>
          <Input Type="Variable" Label="241Am" Expression="241Am"/>
          <Input Type="Variable" Label="242Amm" Expression="242Amm"/>
          <Input Type="Variable" Label="243Am" Expression="243Am"/>
          <Input Type="Variable" Label="242Cm" Expression="242Cm"/>
          <Input Type="Variable" Label="243Cm" Expression="243Cm"/>
          <Input Type="Variable" Label="244Cm" Expression="244Cm"/>
          <Input Type="Variable" Label="245Cm" Expression="245Cm"/>
          <Input Type="Variable" Label="246Cm" Expression="246Cm"/>
          <Input Type="Variable" Label="Time" Expression="Time"/>
          <Input Type="Target" Label="XS_44_103_0_cap" Expression="XS_44_103_0_cap"/>
        </Input>
        <Output NOutputs="18">
          <Output Type="Variable" Label="235U" Expression="235U"/>
          <Output Type="Variable" Label="238U" Expression="238U"/>
          <Output Type="Variable" Label="237Np" Expression="237Np"/>
          <Output Type="Variable" Label="238Pu" Expression="238Pu"/>
          <Output Type="Variable" Label="239Pu" Expression="239Pu"/>
          <Output Type="Variable" Label="240Pu" Expression="240Pu"/>
          <Output Type="Variable" Label="241Pu" Expression="241Pu"/>
          <Output Type="Variable" Label="242Pu" Expression="242Pu"/>
          <Output Type="Variable" Label="241Am" Expression="241Am"/>
          <Output Type="Variable" Label="242Amm" Expression="242Amm"/>
          <Output Type="Variable" Label="243Am" Expression="243Am"/>
          <Output Type="Variable" Label="242Cm" Expression="242Cm"/>
          <Output Type="Variable" Label="243Cm" Expression="243Cm"/>
          <Output Type="Variable" Label="244Cm" Expression="244Cm"/>
          <Output Type="Variable" Label="245Cm" Expression="245Cm"/>
          <Output Type="Variable" Label="246Cm" Expression="246Cm"/>
          <Output Type="Variable" Label="Time" Expression="Time"/>
          <Output Type="Target" Label="XS_44_103_0_cap" Expression="XS_44_103_0_cap"/>
        </Output>
      </Selection>
      <Class ClassIndex="0">
        <Ranges>
          <Range Index="0" Min="1.7134651670858148e-06" Max="1.9241405650973320e-02"/>
          <Range Index="1" Min="7.8539985418319702e-01" Max="9.6873325109481812e-01"/>
          <Range Index="2" Min="1.6399011926182538e-08" Max="1.9729416817426682e-04"/>
          <Range Index="3" Min="4.6972877498774324e-07" Max="3.9642802439630032e-03"/>
          <Range Index="4" Min="2.1594068035483360e-02" Max="1.8988692760467529e-01"/>
          <Range Index="5" Min="1.5456757864740212e-06" Max="3.9563607424497604e-02"/>
          <Range Index="6" Min="3.2281317174920332e-08" Max="7.0462827570736408e-03"/>
          <Range Index="7" Min="1.5827717447791656e-07" Max="1.9880363252013922e-03"/>
          <Range Index="8" Min="3.1308267089968922e-10" Max="7.4805659241974354e-03"/>
          <Range Index="9" Min="1.3415997557331139e-07" Max="1.1624936945736408e-02"/>
          <Range Index="10" Min="2.0439022918594674e-08" Max="1.9955936295446008e-04"/>
          <Range Index="11" Min="1.4828563932312022e-09" Max="1.9390985835343599e-04"/>
          <Range Index="12" Min="9.0911749239808159e-09" Max="1.9755291577894241e-04"/>
          <Range Index="13" Min="2.4657023089957875e-09" Max="1.9711205095518380e-04"/>
          <Range Index="14" Min="9.4720569165929192e-09" Max="1.9787334895227104e-04"/>
          <Range Index="15" Min="2.3396391490848600e-09" Max="1.9859688472934067e-04"/>
          <Range Index="16" Min="0.0000000000000000e+00" Max="1.8932832000000000e+08"/>
          <Range Index="17" Min="1.3403601646423340e+00" Max="1.5558617115020752e+00"/>
        </Ranges>
      </Class>
    </Transform>
  </Transformations>
  <MVAPdfs/>
  <Weights>
    <Layout NLayers="4">
      <Layer Index="0" NNeurons="18">
        <Neuron NSynapses="17">
          2.5949442712349363e-01 -8.1135192125887690e-01 -1.5264871139597069e-01 1.4593284816031231e+00 -2.3754242513987278e+00 -7.7939644149153675e-01 7.1850106066792141e-01 1.5629496913562173e+00 -2.4859068401758426e+00 -6.5526782493980007e-01 -1.0210657403381951e+00 2.2783439173134856e-01 -1.0165823247513752e+00 -3.1063104737943864e-01 1.4453325021061161e-01 -6.5886610177553651e-01 -9.9601883875189789e-01 
        </Neuron>
        <Neuron NSynapses="17">
          1.4752958885913054e+00 2.2209114701239181e+00 1.7288077619943167e+00 -8.5110536734746822e-01 7.1072305633705624e-01 -3.8290175468652798e-01 -1.0557941080495263e+00 -2.0205010240058341e+00 -8.4860992500460558e-02 2.7082104402626679e+00 -1.4563948888184453e+00 -1.6345482210453115e+00 2.9419596707837381e-01 -3.8749734293666005e-01 7.1481482903921778e-01 1.4975858784212295e+00 5.9660677561364783e-01 
        </Neuron>
        <Neuron NSynapses="17">
          2.6371817611859277e-01 -6.0575125798885333e-02 -4.1898394094876290e-01 1.1164151929339485e+00 -1.4934548101727310e+00 4.0003920505544105e-01 1.7610580330284423e-01 5.5087415111051830e-01 1.3229120911385055e+00 1.2527425563993130e-01 -7.7300373601744155e-01 -4.7711840023088564e-02 4.4416751372384636e-03 -1.6955112764940455e-01 1.5836811396133146e+00 1.0284665389175950e-01 9.0467325381689201e-01 
        </Neuron>
        <Neuron NSynapses="17">
          1.3433382157878997e+00 -6.1421865905976458e-01 -1.0027813453232023e-01 -1.2012807065011879e+00 -1.1350585158082318e+00 -1.4399920684332110e+00 -2.4956766434396613e-01 1.0460451732260949e+00 2.2672090285978258e-01 -4.9671252044857006e-02 2.1679846283228796e-01 -2.2616005543719436e-03 8.7006908750028242e-02 5.6906938782665395e-01 1.3476385393053930e-01 -1.3911763267944327e-01 -8.7593915147447821e-01 
        </Neuron>
        <Neuron NSynapses="17">
          1.1058471165023198e+00 -2.5068072304478886e+00 -1.0690828303556972e+00 -5.3610212285848813e-01 -9.9807209895331084e-01 1.7481583495746205e+00 2.3045198771562414e+00 1.6347127822621685e+00 -2.3100129622933760e+00 -2.9361478528489395e+00 1.4203462813007937e+00 1.9046604764886174e-01 1.4868090141194887e+00 1.1825447654902481e+00 1.8532066491587909e+00 -2.7702763620200859e+00 -1.3855395746369537e+00 
        </Neuron>
        <Neuron NSynapses="17">
          2.1803780995320554e-01 9.1877170687967558e-01 -1.2082676240643693e+00 -2.3749966551704706e+00 -1.0481409651111078e+00 -3.2110310319536356e-01 4.2080991384146071e-01 -3.5807795709055035e-03 -1.1206218043666967e+00 -6.0997659290980799e-01 1.3040213210650795e+00 -3.1834672982846052e-01 -1.8967775973789518e+00 -1.3664072353227461e+00 5.0333466222738266e-01 -1.9003112306124048e-01 -1.5438611058239955e+00 
        </Neuron>
        <Neuron NSynapses="17">
          1.4046776944507287e+00 7.3846492697544774e-01 -1.6605428400449118e-01 1.6372863676080727e+00 -9.3071169455842118e-01 -1.4707746396263486e+00 3.4516289695776980e-01 1.0196087692305023e+00 -2.2201810963973796e+00 -1.2771414595050193e-01 3.0780593989900157e-02 5.2387396382378097e-02 -1.8707890565561123e+00 1.9278866854961221e-01 5.5656073872927803e-01 -1.9210514763377731e-01 1.0641295462068532e+00 
        </Neuron>
        <Neuron NSynapses="17">
          -6.7514477623117941e-01 -6.3842758062033517e-02 9.3448724780910028e-02 -5.7611936121162755e-01 1.3106876731257338e+00 1.0957406549377330e-01 -4.6363015042511586e-04 2.8985801977794012e-01 -1.1458336224968473e-01 6.8502320689319982e-02 4.9123300485293131e-01 -2.2229503363611732e-02 -2.2463806532992372e+00 9.0148298413442393e-02 -7.9260620115869451e-01 -2.8688062855496063e-02 5.3900030377665831e-01 
        </Neuron>
        <Neuron NSynapses="17">
          2.6085984200428118e+00 -1.2158710176271113e+00 -2.4195882631343385e-01 1.0402417124909942e+00 8.9418924240018549e-01 -1.0722218816821825e+00 -2.7010041597015988e-01 2.8739567992857079e-01 -1.9030877869604992e+00 4.4943987595944546e-01 8.0803989368942464e-01 9.6652801818172922e-03 -1.4998464532433047e+00 -7.1608424008812499e-01 -7.5398880484165975e-01 -4.3916471539407385e-02 1.5354190016666176e+00 
        </Neuron>
        <Neuron NSynapses="17">
          -1.7700148834929798e-02 -9.7233290685576110e-02 1.5859957866006552e-01 8.3199994355386608e-02 1.1300464821538461e-01 3.5208419678643582e-01 -3.2343643761480835e-02 1.0594192376905880e+00 3.6321807136192014e-02 -6.5557501059336498e-02 4.8814996667300681e-01 7.8201644476829993e-02 -9.5333834842741549e-01 -4.9147253097904964e-01 1.2815022176966571e+00 -2.4886680468170769e-01 -2.2961861089557456e-01 
        </Neuron>
        <Neuron NSynapses="17">
          1.5992201864878046e+00 8.9484384957287333e-01 -8.2490453136786993e-03 7.6667754913639985e-01 7.9771416773632098e-01 -1.5804099261622859e+00 3.6693167533717580e-01 3.3854896488643677e-01 -8.6124479688243688e-02 -8.7616643259104218e-02 -9.9361263953718015e-01 -1.1558149114424066e-02 7.6802082172719921e-01 -1.3859651501917927e+00 2.0119690218745198e-01 -6.7202259684550573e-03 -2.1621049069607484e-01 
        </Neuron>
        <Neuron NSynapses="17">
          2.0433498487357995e+00 3.7179582886391094e-01 9.4540069033999682e-02 -7.8916439171185382e-01 5.8128137451027884e-01 6.7287329580838784e-01 1.0177541468528012e-01 3.4416667762855041e-01 -7.8077283070225068e-01 -1.2815631419072873e-01 5.3638450181738573e-01 2.2692356247951694e-02 -1.8163495164136836e+00 -8.1993627593610019e-01 6.6484850757485159e-01 -7.3630371897841787e-02 -1.4097339419931025e+00 
        </Neuron>
        <Neuron NSynapses="17">
          1.5582421549950294e+00 6.3305687926559495e-01 7.4494036773690098e-02 -1.1043890083885446e-01 1.3848246255659666e+00 3.4572324796212894e-01 1.9362606567324528e-01 2.0087790228652924e-01 -1.6202873847521491e+00 -1.4858518748892302e-01 1.0920892078357531e+00 2.2498806375959397e-03 5.8813642945619707e-02 -2.8659951009278345e-01 2.2475359613384174e+00 -8.9888192232138120e-02 -1.0841390738364967e+00 
        </Neuron>
        <Neuron NSynapses="17">
          4.9195498339027449e-01 -5.0915535809939316e-01 -2.7005642675887004e-01 8.4779373265024527e-01 -1.4185884440944583e+00 -2.3345955700483839e-01 6.4165278393084099e-02 -3.9806483088989586e-01 -9.7947555451720003e-01 2.1210788096382632e-01 -1.6495618077886839e-01 -3.1988322740893610e-02 -1.5902634800463344e+00 5.2916718425696307e-01 -1.5117695056514748e+00 3.2234695257460720e-02 1.9151132614645622e-01 
        </Neuron>
        <Neuron NSynapses="17">
          -4.0306567227993051e-01 -6.2857099695380736e-01 -3.7809751129160116e-02 -1.8253855804800576e-01 -2.0112920536597678e+00 -1.4921331840605263e+00 -2.9093336869591202e-01 1.2443072891840901e-01 -9.1752856668087757e-01 1.3441902171090864e-01 7.3998971433778593e-01 -1.0889386925108404e-02 -3.4118149135943071e-01 -1.2888264480651928e+00 5.3353628254005747e-01 -3.6102084024283790e-02 9.6116980859746970e-01 
        </Neuron>
        <Neuron NSynapses="17">
          -6.0194790007796439e-01 -4.0339459950429851e-01 -3.9339561378818458e-02 -4.9090545914618650e-01 -1.7094954571479331e+00 -1.3747082635270361e-01 6.0729574961800085e-02 6.2728907693165104e-01 -5.4106788575548459e-01 -1.7025464571676164e-03 -7.1157017089380137e-01 -2.0438369355816964e-02 6.1705806784130823e-01 4.5613232092208394e-01 -2.5668819993009562e-01 3.3489525305746837e-02 3.0365044116286022e-01 
        </Neuron>
        <Neuron NSynapses="17">
          3.7961787032557087e-01 1.4326758609790300e+00 -5.7840357850148694e-01 -1.7910078842608723e+00 2.0409169798746860e+00 5.6060180830210526e-01 -3.4437745664391867e-01 -8.8466075924976206e-01 -7.0164538147037381e-01 6.8363470890111988e-01 -2.3227965448480714e+00 -5.0246215109303327e-01 -1.5466841863904170e+00 -6.1265168990588537e-01 -1.6740836571348086e+00 8.7018718338963619e-01 -1.3307452115736635e+00 
        </Neuron>
        <Neuron NSynapses="17">
          7.1210815558722296e-01 -2.3877725575706297e+00 1.4773478094229484e+00 -1.1823037902514968e+00 8.1502248302750890e-01 2.8585772426418785e+00 -2.4761892697667927e+00 -1.6552845047045852e+00 1.6030251801157631e+00 -2.7769361928379848e+00 -1.3621324176912981e+00 -2.0561444991738127e+00 5.6228532080332472e-01 3.9651692219577046e+00 -8.1683335315285932e-01 -6.6519950392933580e-01 -1.8227662779457150e+00 
        </Neuron>
      </Layer>
      <Layer Index="1" NNeurons="18">
        <Neuron NSynapses="17">
          -3.2296155250113492e-02 -6.1572272891349555e-01 1.0150214166846484e-01 -8.6896821643800870e-01 9.7560116659001894e-01 -9.4785242310294504e-01 -1.3376931829615826e+00 1.6993412027346555e+00 4.8334682359598959e-02 -5.1891971103444856e-01 1.9957579917197259e+00 -1.4620528726528419e+00 1.4551304323591527e+00 9.1510787640593316e-01 -1.2808149276666416e+00 -3.7297873879373783e-01 -1.2251218708636048e-01 
        </Neuron>
        <Neuron NSynapses="17">
          4.8282151548147689e-03 3.0282965696490427e-01 6.8467940446326259e-02 1.6714508725889223e+00 1.6391542413197331e+00 -1.2581539235174752e+00 6.8060243604120241e-01 -2.5698128794795263e+00 4.3889432270736634e-01 -1.3361663820775962e+00 -1.6143074775343387e+00 4.2035036926541769e-01 1.1135589806710904e+00 3.3511828257795562e-01 1.2100058042762387e+00 5.9065300301764823e-01 -2.7205257403280009e-01 
        </Neuron>
        <Neuron NSynapses="17">
          1.8229017765080355e-01 -3.6297547175632078e-01 1.5818016097813461e+00 -9.7001353447407312e-01 6.0973225663475372e-01 -1.2627985523307308e+00 -4.1236964029898099e-01 -8.5442674508808658e-02 5.6614956606739181e-02 -1.0560324291536529e+00 1.0347043373652849e+00 1.7974018999102341e+00 5.0289530874207433e-01 -1.8660941999044789e-01 -3.6410474002921100e-01 -1.3920888229095958e+00 -1.5343126701847973e+00 
        </Neuron>
        <Neuron NSynapses="17">
          6.1682032032813923e-02 -5.4001221409668676e-01 -1.1552582785768085e-01 2.8470012547941043e-01 -1.7177363069731881e+00 -1.2117230906397218e+00 -1.4383897393654916e+00 4.0687016126821102e-01 -1.5453811706435094e-01 -9.5920700160959294e-01 -9.0871496100661386e-01 -7.3331543375707031e-01 -1.2661004472286090e+00 1.3197692850948490e+00 -1.4508148992283072e+00 -1.1806190458594013e+00 1.2649616675969251e+00 
        </Neuron>
        <Neuron NSynapses="17">
          1.3163662100631931e-02 -3.6409637856909244e-01 -8.4551297507921869e-02 1.2047517085941690e+00 1.6583488659739856e+00 5.9453788971613486e-01 -6.9493365380540484e-01 -9.3232030329855908e-01 -1.2067904877129204e-01 1.1780456474733663e+00 5.6134592583417720e-01 6.3365959201217292e-02 -5.0610161667890596e-01 7.9428425072790942e-01 8.3511153939170613e-01 -1.4890960856531770e+00 1.6140840236478224e+00 
        </Neuron>
        <Neuron NSynapses="17">
          4.7827202421861015e-01 -1.4821568877243132e+00 -3.6336024336456391e-01 -5.8751556967815122e-01 1.2928923711512719e+00 1.0023860221788334e+00 1.3133157622049187e+00 1.5011932854314241e+00 -2.6502374199869577e-01 6.3786372487342180e-01 2.0378382786810101e+00 2.7085353836934545e-01 -7.8844439527122312e-01 1.5939523085175900e+00 -1.9611139475020847e+00 8.9303134935616135e-01 1.6720113983013318e+00 
        </Neuron>
        <Neuron NSynapses="17">
          -1.5817869581264568e-01 -6.6555606127460654e-01 2.9705982139722270e-01 -7.9563097051848652e-01 4.5568149331463642e-01 -1.4039004278873080e+00 4.4552466413208217e-02 -6.7063616299346263e-01 2.9718481567185345e-01 3.2970344747256497e-01 1.6408635401895206e+00 -1.3751046172499212e-01 5.5319094876255782e-02 2.9408679570837010e-01 1.1392936222307883e+00 -1.6238316664706480e+00 -1.4652047882996440e+00 
        </Neuron>
        <Neuron NSynapses="17">
          -1.6910179817179873e-02 -1.4109810313573103e+00 -1.0203123682789235e+00 -2.2943521625625594e+00 3.2701122875030564e-01 -1.3048994716183901e-01 -1.8031706779073986e+00 -1.6123374875874663e+00 -7.8059832102089378e-03 1.2403895041183750e+00 1.4940089099640330e+00 1.0147374624468444e+00 -1.9580739079786749e-01 -1.7298339829549714e+00 -1.0807697626900442e-01 -1.5766821276482736e+00 -1.4995965937514772e+00 
        </Neuron>
        <Neuron NSynapses="17">
          -7.3057026960368296e-02 4.6057591202879405e-01 -1.1225745627547676e+00 1.5196655556912555e+00 1.1957082500987957e+00 3.8178302219850119e-01 -3.8016557199637807e-01 -2.6290051517555940e-01 2.3257174335622022e-01 -7.2678864373196317e-01 1.6751525237989248e-01 1.4704032544852066e+00 1.2770299141875339e+00 -1.0701429443836525e+00 1.6515538137252124e+00 -1.8149018646720603e+00 1.6440685000976640e+00 
        </Neuron>
        <Neuron NSynapses="17">
          2.1667001050032622e+00 -2.2739958241615149e-01 1.2133687084589895e-01 7.9532467716733268e-01 5.3745604402172372e-03 9.4707930844274879e-01 1.5758884904952689e-01 -2.6959753342769655e+00 -1.6757548045694615e+00 -6.8609632894743044e-01 2.3087464310928940e+00 6.6256194332640639e-01 -1.0284941921684152e+00 -1.8629638787752751e+00 1.7790604800940404e+00 4.7762485161160978e-01 -1.2119406268924258e+00 
        </Neuron>
        <Neuron NSynapses="17">
          1.2620534380470701e-02 -4.1909785773787461e-01 2.8154193315582154e-01 1.1544591463282059e+00 -7.6650121278906758e-01 -1.3163706185842663e+00 1.3977359144450783e+00 8.4642852343816077e-01 -1.9989998201322561e-02 -2.9165915282814969e-01 -1.0341211270743103e+00 -1.1448331634528475e+00 1.0341897333086594e+00 4.9646817953150491e-01 -4.5141612642944889e-02 -1.6506418145336745e+00 -1.8420060767958317e+00 
        </Neuron>
        <Neuron NSynapses="17">
          -2.9225170636393196e+00 -1.8259921384008153e+00 -1.9295843295489690e+00 -8.2577654867658251e-02 -1.1788501673142016e+00 1.4276259547505152e+00 4.9182445972471173e-01 -2.3328198288456439e+00 2.7274112513958375e+00 2.5153730756762087e+00 9.5307372837960216e-02 -9.0712556957598689e-01 -1.5895894368220003e+00 2.2476352335317387e+00 -2.4383539299053409e+00 -1.0116104028281871e-01 -1.4399841466089123e+00 
        </Neuron>
        <Neuron NSynapses="17">
          -3.9304115889059417e-02 -6.7055977371913589e-01 2.6344889628158532e-02 -4.2331481059089549e-01 -1.4381325460394107e-01 -4.7393756329393905e-01 -3.8591928304635659e-01 8.4400610559855183e-01 -1.8412159432535216e-01 6.5176550299860248e-01 4.7713538382225595e-01 -1.7917748108728395e+00 1.0914858896505613e+00 -1.7627068663571579e+00 9.1342376097981626e-01 8.1553751996109058e-01 7.6648984814273469e-01 
        </Neuron>
        <Neuron NSynapses="17">
          7.7665819522504442e-01 1.3483307175344628e+00 -1.4163882366185061e+00 -6.7911012791737912e-01 -9.6028971981013633e-01 6.8132402699051009e-01 2.9194160495057908e-01 -1.7721590148358982e-01 -4.8032740517263645e-01 -3.2915010043041881e-01 -8.4458322997445723e-01 -4.1744546243307584e-01 -1.5121169094126921e+00 -2.8667168630614742e-01 1.9066493455414799e-01 -6.2713953061492644e-01 -1.2435600298973759e+00 
        </Neuron>
        <Neuron NSynapses="17">
          9.4497800807150176e-03 -4.6738065842476001e-02 3.8482017710977159e-02 -1.2741172125160609e+00 1.3876515949537289e+00 -3.6173875054941357e-01 7.3114077328690463e-01 5.0117261758392895e-01 -2.1546910790297261e-02 -5.9790827407567504e-01 -4.3952340926798644e-01 -1.7367166373295106e+00 -4.7487532160524104e-01 -9.7731146918904221e-01 3.1859746674391465e-01 -1.9446708620456434e+00 1.1599649425004548e+00 
        </Neuron>
        <Neuron NSynapses="17">
          1.1050102730260789e+00 1.5442481516303610e+00 8.1540917050531114e-01 8.9203353492833204e-01 4.2713885271815011e-01 -8.8704089144936038e-01 -2.1959363364572093e+00 -1.6772850694630392e+00 -1.1203096116145310e+00 1.1761703946446185e+00 4.3269763703892267e-01 4.4535316070840325e-02 9.7725259403730980e-01 1.0335156806622647e+00 -9.6327296783448135e-01 1.3266659180957416e-01 -1.6491264790696314e+00 
        </Neuron>
        <Neuron NSynapses="17">
          -2.1246871440756390e-02 -1.4631236954801992e+00 8.1471603544727156e-02 -3.5567078030733967e-01 7.1935883511293741e-01 -2.2416015312696698e+00 1.4568541148780031e-01 -2.3525817333351684e+00 -3.1668205014690015e-01 1.3756391102478567e+00 -6.6935139657426923e-01 7.2260110459761762e-01 -1.8752973534399531e+00 1.1058424430797673e+00 -4.3238975449239514e-01 6.6183923320751115e-01 -1.8398322901305202e+00 
        </Neuron>
        <Neuron NSynapses="17">
          -6.5012863314906610e-01 2.0773410285452223e+00 -2.2698025169789222e+00 -1.3362934275997314e+00 -8.2545969965706445e-01 1.5981080233613500e+00 1.7401855699955948e+00 2.6873810772540492e+00 -1.6776631897191341e+00 7.5286696528699504e-01 4.4550078238386898e-01 3.6426702093876384e-02 -9.6673380077316540e-01 -1.3891027904875513e+00 2.9424932924978736e-01 -2.0584460242334202e-01 1.8649981095879611e+00 
        </Neuron>
      </Layer>
      <Layer Index="2" NNeurons="18">
        <Neuron NSynapses="1">
          2.6323818916850028e-01 
        </Neuron>
        <Neuron NSynapses="1">
          2.4982961122276257e-02 
        </Neuron>
        <Neuron NSynapses="1">
          7.2921110720996729e-01 
        </Neuron>
        <Neuron NSynapses="1">
          2.7666472864453068e-03 
        </Neuron>
        <Neuron NSynapses="1">
          1.9426434081106668e-03 
        </Neuron>
        <Neuron NSynapses="1">
          1.9354074185181744e-02 
        </Neuron>
        <Neuron NSynapses="1">
          -2.1891805959707255e-02 
        </Neuron>
        <Neuron NSynapses="1">
          2.0507251293339903e-03 
        </Neuron>
        <Neuron NSynapses="1">
          -1.3092019096375801e-01 
        </Neuron>
        <Neuron NSynapses="1">
          -9.3983987667534512e-03 
        </Neuron>
        <Neuron NSynapses="1">
          1.3155187943648786e-02 
        </Neuron>
        <Neuron NSynapses="1">
          3.6058656187999915e-03 
        </Neuron>
        <Neuron NSynapses="1">
          6.4842326505282280e-03 
        </Neuron>
        <Neuron NSynapses="1">
          -1.4366787036246415e-02 
        </Neuron>
        <Neuron NSynapses="1">
          1.1874091471585165e-02 
        </Neuron>
        <Neuron NSynapses="1">
          3.1390663417156070e-03 
        </Neuron>
        <Neuron NSynapses="1">
          3.6270713048556912e-02 
        </Neuron>
        <Neuron NSynapses="1">
          3.4821984793321092e-01 
        </Neuron>
      </Layer>
      <Layer Index="3" NNeurons="1">
        <Neuron NSynapses="0"/>
      </Layer>
    </Layout>
  </Weights>
</MethodSetup>
