<?xml version="1.0"?>
<MethodSetup Method="MLP::XS_51_124_0_cap">
  <GeneralInfo>
    <Info name="TMVA Release" value="4.2.1 [262657]"/>
    <Info name="ROOT Release" value="6.06/02 [394754]"/>
    <Info name="Creator" value="mouginot"/>
    <Info name="Date" value="Fri Feb 24 02:21:48 2017"/>
    <Info name="Host" value="Linux e300.chtc.wisc.edu 2.6.32-642.13.1.el6.x86_64 #1 SMP Tue Jan 10 11:22:50 CST 2017 x86_64 x86_64 x86_64 GNU/Linux"/>
    <Info name="Dir" value="/mnt/gluster/mouginot/TRU_MOX_XS/Generate"/>
    <Info name="Training events" value="198960"/>
    <Info name="TrainingTime" value="9.89464177e+04"/>
    <Info name="AnalysisType" value="Regression"/>
  </GeneralInfo>
  <Options>
    <Option name="NCycles" modified="Yes">20000</Option>
    <Option name="HiddenLayers" modified="Yes">N,N</Option>
    <Option name="NeuronType" modified="Yes">tanh</Option>
    <Option name="RandomSeed" modified="No">1</Option>
    <Option name="EstimatorType" modified="No">MSE</Option>
    <Option name="NeuronInputType" modified="No">sum</Option>
    <Option name="V" modified="Yes">False</Option>
    <Option name="VerbosityLevel" modified="No">Default</Option>
    <Option name="VarTransform" modified="Yes">Norm</Option>
    <Option name="H" modified="Yes">False</Option>
    <Option name="CreateMVAPdfs" modified="No">False</Option>
    <Option name="IgnoreNegWeightsInTraining" modified="No">False</Option>
    <Option name="TrainingMethod" modified="Yes">BFGS</Option>
    <Option name="LearningRate" modified="No">2.000000e-02</Option>
    <Option name="DecayRate" modified="No">1.000000e-02</Option>
    <Option name="TestRate" modified="Yes">6</Option>
    <Option name="EpochMonitoring" modified="No">False</Option>
    <Option name="Sampling" modified="Yes">3.000000e-01</Option>
    <Option name="SamplingEpoch" modified="Yes">8.000000e-01</Option>
    <Option name="SamplingImportance" modified="No">1.000000e+00</Option>
    <Option name="SamplingTraining" modified="No">True</Option>
    <Option name="SamplingTesting" modified="No">False</Option>
    <Option name="ResetStep" modified="No">50</Option>
    <Option name="Tau" modified="No">3.000000e+00</Option>
    <Option name="BPMode" modified="No">sequential</Option>
    <Option name="BatchSize" modified="No">-1</Option>
    <Option name="ConvergenceImprove" modified="Yes">1.000000e-06</Option>
    <Option name="ConvergenceTests" modified="Yes">15</Option>
    <Option name="UseRegulator" modified="Yes">False</Option>
    <Option name="UpdateLimit" modified="No">10000</Option>
    <Option name="CalculateErrors" modified="No">False</Option>
    <Option name="WeightRange" modified="No">1.000000e+00</Option>
  </Options>
  <Variables NVar="17">
    <Variable VarIndex="0" Expression="235U" Label="235U" Title="235U" Unit="IsotopicFraction" Internal="235U" Type="F" Min="1.71346517e-06" Max="1.92414057e-02"/>
    <Variable VarIndex="1" Expression="238U" Label="238U" Title="238U" Unit="IsotopicFraction" Internal="238U" Type="F" Min="7.85399854e-01" Max="9.68733251e-01"/>
    <Variable VarIndex="2" Expression="237Np" Label="237Np" Title="237Np" Unit="IsotopicFraction" Internal="237Np" Type="F" Min="1.63990119e-08" Max="1.97294168e-04"/>
    <Variable VarIndex="3" Expression="238Pu" Label="238Pu" Title="238Pu" Unit="IsotopicFraction" Internal="238Pu" Type="F" Min="4.69728775e-07" Max="3.96428024e-03"/>
    <Variable VarIndex="4" Expression="239Pu" Label="239Pu" Title="239Pu" Unit="IsotopicFraction" Internal="239Pu" Type="F" Min="2.15940680e-02" Max="1.89886928e-01"/>
    <Variable VarIndex="5" Expression="240Pu" Label="240Pu" Title="240Pu" Unit="IsotopicFraction" Internal="240Pu" Type="F" Min="1.54567579e-06" Max="3.95636074e-02"/>
    <Variable VarIndex="6" Expression="241Pu" Label="241Pu" Title="241Pu" Unit="IsotopicFraction" Internal="241Pu" Type="F" Min="3.22813172e-08" Max="7.04628276e-03"/>
    <Variable VarIndex="7" Expression="242Pu" Label="242Pu" Title="242Pu" Unit="IsotopicFraction" Internal="242Pu" Type="F" Min="1.58277174e-07" Max="1.98803633e-03"/>
    <Variable VarIndex="8" Expression="241Am" Label="241Am" Title="241Am" Unit="IsotopicFraction" Internal="241Am" Type="F" Min="3.13082671e-10" Max="7.48056592e-03"/>
    <Variable VarIndex="9" Expression="242Amm" Label="242Amm" Title="242Amm" Unit="IsotopicFraction" Internal="242Amm" Type="F" Min="1.34159976e-07" Max="1.16249369e-02"/>
    <Variable VarIndex="10" Expression="243Am" Label="243Am" Title="243Am" Unit="IsotopicFraction" Internal="243Am" Type="F" Min="2.04390229e-08" Max="1.99559363e-04"/>
    <Variable VarIndex="11" Expression="242Cm" Label="242Cm" Title="242Cm" Unit="IsotopicFraction" Internal="242Cm" Type="F" Min="1.48285639e-09" Max="1.93909858e-04"/>
    <Variable VarIndex="12" Expression="243Cm" Label="243Cm" Title="243Cm" Unit="IsotopicFraction" Internal="243Cm" Type="F" Min="9.09117492e-09" Max="1.97552916e-04"/>
    <Variable VarIndex="13" Expression="244Cm" Label="244Cm" Title="244Cm" Unit="IsotopicFraction" Internal="244Cm" Type="F" Min="2.46570231e-09" Max="1.97112051e-04"/>
    <Variable VarIndex="14" Expression="245Cm" Label="245Cm" Title="245Cm" Unit="IsotopicFraction" Internal="245Cm" Type="F" Min="9.47205692e-09" Max="1.97873349e-04"/>
    <Variable VarIndex="15" Expression="246Cm" Label="246Cm" Title="246Cm" Unit="IsotopicFraction" Internal="246Cm" Type="F" Min="2.33963915e-09" Max="1.98596885e-04"/>
    <Variable VarIndex="16" Expression="Time" Label="Time" Title="Time" Unit="seconds" Internal="Time" Type="F" Min="0.00000000e+00" Max="1.89328320e+08"/>
  </Variables>
  <Spectators NSpec="0"/>
  <Classes NClass="1">
    <Class Name="Regression" Index="0"/>
  </Classes>
  <Targets NTrgt="1">
    <Target TargetIndex="0" Expression="XS_51_124_0_cap" Label="XS_51_124_0_cap" Title="XS_51_124_0_cap" Unit="" Internal="XS_51_124_0_cap" Type="F" Min="9.03403997e-01" Max="1.25195038e+00"/>
  </Targets>
  <Transformations NTransformations="1">
    <Transform Name="Normalize">
      <Selection>
        <Input NInputs="18">
          <Input Type="Variable" Label="235U" Expression="235U"/>
          <Input Type="Variable" Label="238U" Expression="238U"/>
          <Input Type="Variable" Label="237Np" Expression="237Np"/>
          <Input Type="Variable" Label="238Pu" Expression="238Pu"/>
          <Input Type="Variable" Label="239Pu" Expression="239Pu"/>
          <Input Type="Variable" Label="240Pu" Expression="240Pu"/>
          <Input Type="Variable" Label="241Pu" Expression="241Pu"/>
          <Input Type="Variable" Label="242Pu" Expression="242Pu"/>
          <Input Type="Variable" Label="241Am" Expression="241Am"/>
          <Input Type="Variable" Label="242Amm" Expression="242Amm"/>
          <Input Type="Variable" Label="243Am" Expression="243Am"/>
          <Input Type="Variable" Label="242Cm" Expression="242Cm"/>
          <Input Type="Variable" Label="243Cm" Expression="243Cm"/>
          <Input Type="Variable" Label="244Cm" Expression="244Cm"/>
          <Input Type="Variable" Label="245Cm" Expression="245Cm"/>
          <Input Type="Variable" Label="246Cm" Expression="246Cm"/>
          <Input Type="Variable" Label="Time" Expression="Time"/>
          <Input Type="Target" Label="XS_51_124_0_cap" Expression="XS_51_124_0_cap"/>
        </Input>
        <Output NOutputs="18">
          <Output Type="Variable" Label="235U" Expression="235U"/>
          <Output Type="Variable" Label="238U" Expression="238U"/>
          <Output Type="Variable" Label="237Np" Expression="237Np"/>
          <Output Type="Variable" Label="238Pu" Expression="238Pu"/>
          <Output Type="Variable" Label="239Pu" Expression="239Pu"/>
          <Output Type="Variable" Label="240Pu" Expression="240Pu"/>
          <Output Type="Variable" Label="241Pu" Expression="241Pu"/>
          <Output Type="Variable" Label="242Pu" Expression="242Pu"/>
          <Output Type="Variable" Label="241Am" Expression="241Am"/>
          <Output Type="Variable" Label="242Amm" Expression="242Amm"/>
          <Output Type="Variable" Label="243Am" Expression="243Am"/>
          <Output Type="Variable" Label="242Cm" Expression="242Cm"/>
          <Output Type="Variable" Label="243Cm" Expression="243Cm"/>
          <Output Type="Variable" Label="244Cm" Expression="244Cm"/>
          <Output Type="Variable" Label="245Cm" Expression="245Cm"/>
          <Output Type="Variable" Label="246Cm" Expression="246Cm"/>
          <Output Type="Variable" Label="Time" Expression="Time"/>
          <Output Type="Target" Label="XS_51_124_0_cap" Expression="XS_51_124_0_cap"/>
        </Output>
      </Selection>
      <Class ClassIndex="0">
        <Ranges>
          <Range Index="0" Min="1.7134651670858148e-06" Max="1.9241405650973320e-02"/>
          <Range Index="1" Min="7.8539985418319702e-01" Max="9.6873325109481812e-01"/>
          <Range Index="2" Min="1.6399011926182538e-08" Max="1.9729416817426682e-04"/>
          <Range Index="3" Min="4.6972877498774324e-07" Max="3.9642802439630032e-03"/>
          <Range Index="4" Min="2.1594068035483360e-02" Max="1.8988692760467529e-01"/>
          <Range Index="5" Min="1.5456757864740212e-06" Max="3.9563607424497604e-02"/>
          <Range Index="6" Min="3.2281317174920332e-08" Max="7.0462827570736408e-03"/>
          <Range Index="7" Min="1.5827717447791656e-07" Max="1.9880363252013922e-03"/>
          <Range Index="8" Min="3.1308267089968922e-10" Max="7.4805659241974354e-03"/>
          <Range Index="9" Min="1.3415997557331139e-07" Max="1.1624936945736408e-02"/>
          <Range Index="10" Min="2.0439022918594674e-08" Max="1.9955936295446008e-04"/>
          <Range Index="11" Min="1.4828563932312022e-09" Max="1.9390985835343599e-04"/>
          <Range Index="12" Min="9.0911749239808159e-09" Max="1.9755291577894241e-04"/>
          <Range Index="13" Min="2.4657023089957875e-09" Max="1.9711205095518380e-04"/>
          <Range Index="14" Min="9.4720569165929192e-09" Max="1.9787334895227104e-04"/>
          <Range Index="15" Min="2.3396391490848600e-09" Max="1.9859688472934067e-04"/>
          <Range Index="16" Min="0.0000000000000000e+00" Max="1.8932832000000000e+08"/>
          <Range Index="17" Min="9.0340399742126465e-01" Max="1.2519503831863403e+00"/>
        </Ranges>
      </Class>
    </Transform>
  </Transformations>
  <MVAPdfs/>
  <Weights>
    <Layout NLayers="4">
      <Layer Index="0" NNeurons="18">
        <Neuron NSynapses="17">
          -2.8772957948071737e-01 1.3036137514560648e+00 7.7827534037676915e-01 1.8908448774725475e+00 -2.0248574868691387e+00 -6.6890542668862052e-01 -8.1946554617900313e-01 1.6964612684187255e+00 -1.3690631295803486e+00 -1.3141029651268439e+00 -1.5859158348356626e+00 -5.6438757588342980e-01 -1.0314570929551972e+00 -2.9873114136425910e-01 -1.1486041816011615e-01 -5.3317488133123259e-02 -6.5418882804456913e-01 
        </Neuron>
        <Neuron NSynapses="17">
          1.5704097133165482e+00 9.2255329940982256e-01 1.8225516216415427e+00 -5.6135822076171704e-01 -7.6493265289906498e-01 -3.0109962681422170e-01 2.7095561723742961e-01 -8.0842120201147472e-01 -3.6998299949262403e-01 1.7303521505526023e+00 -8.4108789620458546e-01 -1.3467261364209742e+00 8.9092634347593486e-02 5.6264961844586359e-01 8.3227898292125935e-01 5.9511145600289617e-01 2.4177902677128393e-01 
        </Neuron>
        <Neuron NSynapses="17">
          2.7222869005805289e-01 -2.4357992235082543e-01 -1.3192556127624451e+00 1.6453887573912653e+00 -1.5146430688440877e+00 1.1615120914762200e+00 1.3328041497013066e+00 1.0834501603621405e+00 1.7846148951856189e+00 1.3356549965944959e+00 -6.5561564340449918e-01 -1.1947469015350527e+00 4.9198734743861106e-01 2.1321641868558910e-01 1.6497790395065444e+00 1.4153751653100017e+00 1.6013448533442489e+00 
        </Neuron>
        <Neuron NSynapses="17">
          1.4936664375054369e+00 -1.4692274711449258e+00 1.5541064032235263e+00 -2.1087177542175435e+00 -9.6350645604013363e-01 -1.3411034443996552e+00 -1.4409533836252013e+00 1.6417633004869960e+00 6.0642021408524482e-01 -1.3064415160536478e+00 3.8013849106772041e-01 -3.6642297796724760e-01 4.2202762036089958e-01 1.9545317769655515e+00 -1.3798670142585906e-01 3.5641832918424216e-01 -9.3185010851846717e-01 
        </Neuron>
        <Neuron NSynapses="17">
          9.2167283253405741e-01 -1.3845329961619841e+00 -9.7779114251478494e-01 -1.2436875206190532e+00 7.2344518146012371e-01 1.9573062147817961e+00 1.2427704359547822e+00 -4.8898258889692703e-01 -1.8375888533608211e+00 -1.9697393066138820e+00 8.4258266944477700e-01 2.0047355934636762e-01 1.8774108086975976e+00 7.1046663405528565e-01 1.6898690467845940e+00 -1.5094095256393125e+00 -1.1543995948193306e+00 
        </Neuron>
        <Neuron NSynapses="17">
          -5.0917272342213236e-02 1.2609114194468891e+00 -9.4697515750302030e-01 -1.8014435651271996e+00 -1.8461045135422243e+00 -2.6904725403245587e-02 9.2799033377526013e-02 1.7787825972302804e+00 -1.5972313453191531e+00 -6.4566050029176225e-01 1.5659815582294601e+00 -7.6251805522953253e-01 -1.7366406614324836e+00 -1.4226953588554458e+00 3.4728213003362418e-01 -1.7382687847980065e+00 -1.3180537782229915e+00 
        </Neuron>
        <Neuron NSynapses="17">
          8.8330855856888491e-01 2.0408128551550040e+00 -7.7393459859500779e-01 1.3393623429120012e+00 -1.2640188204147795e+00 -9.1136785881824167e-01 3.2359080338368079e-01 7.6510406559953759e-01 -1.9216273094376894e+00 5.9899344499654672e-01 4.1696561937509025e-01 7.1700551768233423e-01 -1.8014862433768890e+00 1.9560920669571886e+00 4.1613543816383386e-01 -4.8317041075550154e-01 1.1902543765382951e+00 
        </Neuron>
        <Neuron NSynapses="17">
          -9.5680507611518728e-01 -1.4191469413819011e+00 2.8948266871491407e-01 -5.1773345185740216e-01 1.6444679537957312e+00 8.5484227598116302e-01 1.9781166424365829e-01 -1.5647818893102278e-01 1.4317918268036212e-01 -1.4761493804814620e+00 1.0459909755499417e+00 2.7733279973755537e-01 -1.9859332415331730e+00 7.2654016023811741e-01 -1.1711580066377094e+00 2.6323281126527692e-01 1.2231102191887873e+00 
        </Neuron>
        <Neuron NSynapses="17">
          1.8922919087840382e+00 -1.5151613760132330e+00 7.2665124078322230e-01 1.1944250307545246e+00 1.2137071322640602e+00 -9.6678263531346301e-02 -1.0088392650307578e+00 2.5903251808493855e-01 -1.4965245520352484e+00 1.8092451209970983e+00 1.3844555960703326e+00 1.1222244633408107e-01 -8.8125732400533607e-01 2.9473424020330286e-01 -1.4219742510407871e+00 1.1664338448631912e+00 2.0865606961102880e+00 
        </Neuron>
        <Neuron NSynapses="17">
          -4.0433456552679081e-01 -5.3290761489952754e-01 5.3382212130072004e-01 9.2275690745357419e-01 3.7452427504416935e-01 1.0322904844980121e+00 -1.1136481176741899e+00 1.5752805284090081e+00 5.4100909567035549e-01 5.9728742016142877e-01 6.6598723981686225e-01 8.1161577839792742e-01 -8.6250276389364211e-01 -5.0870634415211957e-01 1.4014029618173891e+00 -8.0468168213735392e-01 -3.0128403628392353e-01 
        </Neuron>
        <Neuron NSynapses="17">
          1.6674420917078989e+00 9.2041688427014245e-01 -1.5118855492860669e-01 1.4314521886447980e+00 1.5993309905273232e+00 -1.7219286923417372e+00 8.2427389923581018e-01 1.1487045846617865e-01 3.4301761246827767e-01 -1.5669641633134037e+00 -1.4134005929868898e+00 1.0575663520235956e+00 1.4451720449374359e+00 -1.5820273932356022e+00 8.5903106765443507e-02 -5.7368783713893490e-01 4.3804977925033534e-01 
        </Neuron>
        <Neuron NSynapses="17">
          1.8436118894860853e+00 -1.2585940678661814e-01 -3.1208976376432462e-01 -1.3809912085949170e+00 8.8399075025722562e-01 1.5522105006196714e+00 1.2488197671209589e+00 6.3786870358633840e-01 -7.9820349685636693e-01 -1.5885151796970696e+00 1.0767725289545120e+00 7.5737155431828151e-01 -1.6694526980388524e+00 -5.4015779408041453e-01 4.0593761421789132e-01 4.3564055680300018e-01 -1.5857914375704378e+00 
        </Neuron>
        <Neuron NSynapses="17">
          1.6674327183600948e+00 1.0870077315202606e+00 -3.6464271226666140e-01 -4.0792338884853768e-01 1.4529106683306687e+00 1.0001640798864946e+00 7.1425731803272741e-01 2.3429104450667326e-01 -1.9131790023854416e+00 -5.6790463085688980e-01 1.7172222969974245e+00 1.5343827811232056e+00 4.1379239859510841e-01 3.2753083402107880e-01 2.0523001769196116e+00 -1.2946852832254778e+00 -8.6110670288439639e-01 
        </Neuron>
        <Neuron NSynapses="17">
          -1.4220646354241463e-02 -1.2799244828941945e+00 1.1251788810083119e+00 1.6640462176428847e+00 -1.3277134915409496e+00 9.1093943408885214e-01 3.1063899460003434e-02 -1.5904868570097441e+00 -1.1315629629530743e+00 1.1973149556493161e+00 5.1872606774464029e-02 1.0185623527002023e+00 -1.3589744042011884e+00 1.7503050179441857e+00 -1.6616064046104577e+00 1.0265084688553945e+00 2.4712285924003888e-01 
        </Neuron>
        <Neuron NSynapses="17">
          -1.3404367212868717e+00 -1.3607476965186716e+00 -1.8195264144358052e+00 -4.8290081542760127e-01 -2.0326053067600833e+00 -1.2942186534019366e+00 -1.5635846327573477e+00 2.7392757848227978e-01 -1.0477515815097116e+00 -1.4468336273205655e+00 1.3860787231179392e+00 -6.3735243981547141e-01 -4.6805364455878996e-02 -1.0578367275655407e+00 4.9144990403260536e-01 1.8685487212516847e+00 1.4501181292568450e+00 
        </Neuron>
        <Neuron NSynapses="17">
          -7.4416861982311744e-01 -1.2145838496508661e+00 -9.6389378517803126e-01 -1.1115370312889017e+00 -1.8052371841655626e+00 3.0135513014624771e-01 5.3609734279468901e-01 2.0247832137996000e+00 -2.7014646704087791e-01 4.6800164418431534e-01 -5.0171092914848880e-01 -1.6705997975249258e+00 9.9069385399867960e-01 1.3156167126241369e+00 -7.0856548584971146e-01 -7.7130081257879102e-01 1.0475170417766646e+00 
        </Neuron>
        <Neuron NSynapses="17">
          1.1127498517332239e+00 5.7060332985969309e-01 -3.9273811553866383e-01 -4.7405032635685179e-01 1.2720583500185243e+00 7.3728877521275704e-01 7.9250626809608371e-01 -1.8632378894137686e-01 2.2630358138264553e-01 -1.1773924013147696e-01 -1.3459077924072413e+00 -1.9150259942276132e-01 -1.6825267399724226e+00 -1.2453015411058614e+00 -1.7135341219155662e+00 2.0073231253713355e+00 -1.4072457005560244e+00 
        </Neuron>
        <Neuron NSynapses="17">
          1.5436427897383747e+00 -2.3955284523113898e+00 4.2331984768163677e-01 -5.2921130206197087e-01 9.7594233495342797e-01 1.4822708708523036e+00 -2.5945467644914038e+00 -5.2328391532800644e-01 8.6097181832598091e-01 -2.4950377569169411e+00 -1.8189708848762387e+00 -2.6180376028424264e+00 -1.6587437056641940e-01 1.6922936982458667e+00 -2.7697801153208312e-01 -8.1484898450105381e-01 -1.7919679485807787e+00 
        </Neuron>
      </Layer>
      <Layer Index="1" NNeurons="18">
        <Neuron NSynapses="17">
          -1.4103068425937855e+00 -1.7182294827494764e+00 -8.6891414642351583e-01 -1.4307198558280281e+00 9.6684123636829367e-01 -1.0964770059164106e+00 -1.0594146955788215e+00 1.5252679923438675e+00 4.8624201420860985e-01 -6.2806716445973254e-01 1.6930600364028270e+00 -1.8128162732334758e+00 1.3739338760586002e+00 9.5542518420016098e-01 -1.1929094416096824e+00 -7.5802180443016864e-01 -7.3903719629230447e-01 
        </Neuron>
        <Neuron NSynapses="17">
          -9.9303411129597263e-01 4.9664485285048199e-01 2.0348591585509896e+00 1.3153491439248925e+00 1.5098903738549379e+00 -1.2256965855024260e+00 8.2279885754702820e-01 -2.2537915953775096e+00 6.0128751144652437e-01 -1.7240226574448576e+00 -1.6884599912378935e+00 -3.8438037382485191e-02 1.2945488772438247e+00 3.6093942570091464e-01 9.4535860950569806e-01 3.2505170681241996e-01 -5.0996266650429101e-01 
        </Neuron>
        <Neuron NSynapses="17">
          -5.1636498799522790e-01 1.5231039717911590e-01 1.9080318930876168e+00 -1.3613808669506888e+00 2.6413645577068884e-01 -1.2367427272477383e+00 -7.5752396318979853e-01 7.5621691128531329e-02 6.8265453384871944e-02 -1.1091229258434767e+00 1.0833323775061239e+00 1.6768487924720497e+00 8.0324311623314304e-01 -1.3671901840778200e-01 -7.2645445952531273e-01 -1.5025421030047728e+00 -1.3444300984319961e+00 
        </Neuron>
        <Neuron NSynapses="17">
          7.9068204067607062e-01 -5.5192490873071798e-01 -9.6672206314871700e-01 2.5772072000191848e-01 -1.8506503786627513e+00 -1.3285979702587674e+00 -1.3468630999650655e+00 8.3023387458104658e-01 -1.1805352711095372e+00 -1.6952227469459000e+00 -8.9472062983245404e-01 -9.6789918272109010e-01 -1.6451322626360971e+00 1.2916033063148609e+00 -1.5841077030234316e+00 -1.2274412417883214e+00 1.3092629154963846e+00 
        </Neuron>
        <Neuron NSynapses="17">
          7.7150813104593596e-01 4.0047118324026360e-01 -1.0328361755983912e-02 1.4219175513070201e+00 1.8585646158146749e+00 7.7757463015306161e-01 -1.2720273125453634e+00 -6.8116590984679715e-01 -1.7383506963309068e+00 9.2323690446902196e-01 1.1004584567111368e+00 1.1408214554067456e-01 1.1015193252785402e+00 8.1656243099369252e-01 1.5549665708955684e+00 -1.3636029438038890e+00 1.7456686897696208e+00 
        </Neuron>
        <Neuron NSynapses="17">
          6.3993614142733568e-01 -1.9102131081329590e+00 -3.8202110479674423e-01 -7.7816288931812350e-01 1.0508807375070501e+00 8.3085422468979742e-01 9.0422669245375020e-01 1.0901799396360632e+00 -1.6314867808735592e-01 1.6149876300580432e+00 1.9797465472973392e+00 2.0761194655107748e-01 -1.2336214973491570e+00 1.5886501630523049e+00 -2.1075351752934064e+00 5.4228106708892676e-01 1.7535706610068127e+00 
        </Neuron>
        <Neuron NSynapses="17">
          -6.3979008308756713e-01 -8.4920054170284320e-01 7.7042763396847284e-04 -1.0906622833554933e+00 4.9945988411668329e-01 -1.5806890436317957e+00 3.5517407495526337e-01 -4.8696099789037939e-01 2.0805548822363886e+00 1.1010452710635366e+00 1.5881297921517750e+00 -5.4908891991537501e-01 -5.1933438256372544e-01 2.3466714919250470e-01 1.4986239899942571e+00 -1.8592125831112523e+00 -1.9260602288968749e+00 
        </Neuron>
        <Neuron NSynapses="17">
          -7.9119568840770094e-01 -1.5298425741354476e+00 -1.5434626821615598e+00 -2.0006419772790327e+00 6.2399071597045908e-01 -2.9086848424956291e-01 -1.5925109277833320e+00 -1.6829170449458728e+00 -3.9441591961016270e-01 1.8291049108611681e+00 1.4565709035521623e+00 1.2998558649055021e+00 -6.0741842392984946e-01 -1.7548978976983909e+00 8.6935053869812678e-02 -1.2613370050850208e+00 -1.8772878137729330e+00 
        </Neuron>
        <Neuron NSynapses="17">
          -5.0327063479960288e-01 8.0942030105324192e-02 -1.6109230019667962e+00 1.4780076355502594e+00 1.1856194247501615e+00 3.0329863594377204e-01 -8.2473611902562949e-01 -5.5867450528722917e-01 1.5966256070272307e+00 -4.7912944479768321e-01 3.5891745496030075e-01 1.6140439651737608e+00 1.6547467898824402e+00 -1.0516050109974557e+00 1.6667273595094176e+00 -1.9480985453730679e+00 2.0706221338366477e+00 
        </Neuron>
        <Neuron NSynapses="17">
          2.2912401331938703e+00 -1.3154351711461629e-01 6.6561043012248258e-02 3.7446632682656700e-01 -6.0036478342548794e-01 1.1157160739593177e+00 -5.8251479521742179e-02 -1.7281242297491175e+00 -1.3347941985468594e+00 -9.8592069790317399e-02 1.9144793673329228e+00 3.9332444982512971e-01 -6.7352939634961573e-01 -1.8219502046004006e+00 1.7059900160879686e+00 3.8960512396879837e-01 -1.7480117206700787e+00 
        </Neuron>
        <Neuron NSynapses="17">
          -3.7788613409968813e-01 -1.0692714521099498e+00 1.3838201419235223e+00 1.3669484150203657e+00 -6.1282091369163272e-01 -1.2653872273171196e+00 1.7790175256000575e+00 9.2399852330936472e-01 4.3429290811457871e-01 2.9884883147467178e-02 -1.2513325502494781e+00 -1.2370428953842501e+00 1.0206989926145691e+00 4.6597620221148661e-01 2.5554777860705169e-01 -1.7436368346236713e+00 -2.3222613298313517e+00 
        </Neuron>
        <Neuron NSynapses="17">
          -2.1135533991814039e+00 -3.4086194904446498e-01 -1.5188121904093963e+00 2.2018631307926761e-01 -5.1209916898641705e-01 1.4359847303072968e+00 6.3498472162189912e-01 -1.8666116759890323e+00 1.1608712497748539e+00 1.9188515526697500e+00 7.4246878223902313e-01 -4.4929674917673212e-01 -8.9277914679891524e-01 2.2224498596095943e+00 -1.5131207887604559e+00 5.5381000229006161e-01 -1.9032702701390807e+00 
        </Neuron>
        <Neuron NSynapses="17">
          7.7838928104021832e-01 -1.1354197090835854e+00 7.4922558910270401e-02 -2.3953663911869033e-01 2.1752233962966469e-01 -5.6181587876115657e-01 -6.3766640673430142e-01 8.2662964593172450e-01 3.6981503947601468e-01 9.1063748966377389e-01 9.6433104920039214e-01 -1.6915587342051088e+00 1.3851230335830644e+00 -1.8130287941428112e+00 1.0952960373154845e+00 1.0545308251617229e+00 1.2770030431314279e+00 
        </Neuron>
        <Neuron NSynapses="17">
          1.3857507424252475e+00 1.4008136389452643e+00 -1.9495890431212222e+00 -6.2837359931867487e-01 -1.0838330896990698e+00 5.6699843088745816e-01 4.6332736829442618e-02 -1.3522697373069165e-01 -6.1805712321500561e-01 -5.1164521507420391e-01 -9.9347682326053743e-01 -3.4517952639043487e-01 -1.8101432379277074e+00 -2.9404214140846552e-01 2.9450457653585943e-01 -7.1026939381405796e-01 -1.1207447013183804e+00 
        </Neuron>
        <Neuron NSynapses="17">
          7.9874572677490749e-02 2.2177857820501995e-01 -3.6584164054224427e-01 -1.2744096478206195e+00 1.9009884530280785e+00 -2.2531665715353363e-01 1.0190819545006287e+00 6.9780009028978229e-01 -1.0234928203991198e+00 -8.5719232794434941e-01 -4.0222026035365227e-01 -1.9378908643032369e+00 -7.1820196111269641e-01 -1.0271410999390100e+00 1.0697489457664531e+00 -1.8985493917986722e+00 1.2094334779848219e+00 
        </Neuron>
        <Neuron NSynapses="17">
          2.0277727934408971e+00 1.6401806461519217e+00 1.0406316805511051e+00 8.5515836438460324e-01 1.8801023336763756e-02 -7.7558958690656599e-01 -2.2860704660862043e+00 -1.1189468146254684e+00 -7.4314858600264555e-01 1.4893830532572017e+00 3.1939185252820329e-01 9.1105881264469710e-02 1.5064562704900866e+00 1.0214633117992786e+00 -1.2533922792715639e+00 2.3617248643421992e-01 -1.7355573612194564e+00 
        </Neuron>
        <Neuron NSynapses="17">
          6.7899187672981876e-01 -1.8584208029365843e+00 2.2809803960857455e-01 -4.8402860345885873e-01 8.1726105406301741e-01 -2.2172497416275712e+00 5.9767813909583045e-01 -1.6575799571953334e+00 2.3463985848186823e-02 1.3561862437927084e+00 -1.0132441126118275e+00 5.3516619844279756e-01 -1.6453173203787448e+00 1.1422527989881703e+00 -5.6154293890784146e-01 8.1118989168481659e-01 -1.9598024546835049e+00 
        </Neuron>
        <Neuron NSynapses="17">
          -8.6750290782019657e-01 2.0019838995876400e+00 -2.0855450912262521e+00 -1.1642117555410501e+00 -8.7020934864091803e-01 1.4863919714593286e+00 1.2729974596372036e+00 1.9529791396598688e+00 -1.9464476903654437e+00 8.3665363440175022e-01 8.0716819880999879e-01 2.9577940132504033e-01 -1.1657555901610983e+00 -1.4140151121180966e+00 3.5547895201931357e-01 -1.5569970279480494e-01 2.4089331275489525e+00 
        </Neuron>
      </Layer>
      <Layer Index="2" NNeurons="18">
        <Neuron NSynapses="1">
          5.3917745721113880e-02 
        </Neuron>
        <Neuron NSynapses="1">
          -2.8351844646143997e-02 
        </Neuron>
        <Neuron NSynapses="1">
          1.6233408745883129e-01 
        </Neuron>
        <Neuron NSynapses="1">
          -2.5183508866105261e-02 
        </Neuron>
        <Neuron NSynapses="1">
          -3.8371164662865026e-02 
        </Neuron>
        <Neuron NSynapses="1">
          -1.8526365189774932e-01 
        </Neuron>
        <Neuron NSynapses="1">
          -4.0098217625569713e-02 
        </Neuron>
        <Neuron NSynapses="1">
          -3.7653823990151680e-01 
        </Neuron>
        <Neuron NSynapses="1">
          1.4963949966618486e-02 
        </Neuron>
        <Neuron NSynapses="1">
          -1.6011554105539377e-02 
        </Neuron>
        <Neuron NSynapses="1">
          5.7734978559254970e-03 
        </Neuron>
        <Neuron NSynapses="1">
          2.8642690638288209e-02 
        </Neuron>
        <Neuron NSynapses="1">
          5.2318935083876174e-02 
        </Neuron>
        <Neuron NSynapses="1">
          3.7646738579849535e-02 
        </Neuron>
        <Neuron NSynapses="1">
          4.3320393941958371e-02 
        </Neuron>
        <Neuron NSynapses="1">
          2.9079200975371571e-02 
        </Neuron>
        <Neuron NSynapses="1">
          1.0642030701866076e+00 
        </Neuron>
        <Neuron NSynapses="1">
          -1.1606327993742245e+00 
        </Neuron>
      </Layer>
      <Layer Index="3" NNeurons="1">
        <Neuron NSynapses="0"/>
      </Layer>
    </Layout>
  </Weights>
</MethodSetup>
