<?xml version="1.0"?>
<MethodSetup Method="MLP::XS_60_150_0_n2n">
  <GeneralInfo>
    <Info name="TMVA Release" value="4.2.1 [262657]"/>
    <Info name="ROOT Release" value="6.06/02 [394754]"/>
    <Info name="Creator" value="mouginot"/>
    <Info name="Date" value="Thu Feb 23 13:48:39 2017"/>
    <Info name="Host" value="Linux e300.chtc.wisc.edu 2.6.32-642.13.1.el6.x86_64 #1 SMP Tue Jan 10 11:22:50 CST 2017 x86_64 x86_64 x86_64 GNU/Linux"/>
    <Info name="Dir" value="/mnt/gluster/mouginot/TRU_MOX_XS/Generate"/>
    <Info name="Training events" value="198960"/>
    <Info name="TrainingTime" value="3.63636295e+04"/>
    <Info name="AnalysisType" value="Regression"/>
  </GeneralInfo>
  <Options>
    <Option name="NCycles" modified="Yes">20000</Option>
    <Option name="HiddenLayers" modified="Yes">N,N</Option>
    <Option name="NeuronType" modified="Yes">tanh</Option>
    <Option name="RandomSeed" modified="No">1</Option>
    <Option name="EstimatorType" modified="No">MSE</Option>
    <Option name="NeuronInputType" modified="No">sum</Option>
    <Option name="V" modified="Yes">False</Option>
    <Option name="VerbosityLevel" modified="No">Default</Option>
    <Option name="VarTransform" modified="Yes">Norm</Option>
    <Option name="H" modified="Yes">False</Option>
    <Option name="CreateMVAPdfs" modified="No">False</Option>
    <Option name="IgnoreNegWeightsInTraining" modified="No">False</Option>
    <Option name="TrainingMethod" modified="Yes">BFGS</Option>
    <Option name="LearningRate" modified="No">2.000000e-02</Option>
    <Option name="DecayRate" modified="No">1.000000e-02</Option>
    <Option name="TestRate" modified="Yes">6</Option>
    <Option name="EpochMonitoring" modified="No">False</Option>
    <Option name="Sampling" modified="Yes">3.000000e-01</Option>
    <Option name="SamplingEpoch" modified="Yes">8.000000e-01</Option>
    <Option name="SamplingImportance" modified="No">1.000000e+00</Option>
    <Option name="SamplingTraining" modified="No">True</Option>
    <Option name="SamplingTesting" modified="No">False</Option>
    <Option name="ResetStep" modified="No">50</Option>
    <Option name="Tau" modified="No">3.000000e+00</Option>
    <Option name="BPMode" modified="No">sequential</Option>
    <Option name="BatchSize" modified="No">-1</Option>
    <Option name="ConvergenceImprove" modified="Yes">1.000000e-06</Option>
    <Option name="ConvergenceTests" modified="Yes">15</Option>
    <Option name="UseRegulator" modified="Yes">False</Option>
    <Option name="UpdateLimit" modified="No">10000</Option>
    <Option name="CalculateErrors" modified="No">False</Option>
    <Option name="WeightRange" modified="No">1.000000e+00</Option>
  </Options>
  <Variables NVar="17">
    <Variable VarIndex="0" Expression="235U" Label="235U" Title="235U" Unit="IsotopicFraction" Internal="235U" Type="F" Min="1.71346517e-06" Max="1.92414057e-02"/>
    <Variable VarIndex="1" Expression="238U" Label="238U" Title="238U" Unit="IsotopicFraction" Internal="238U" Type="F" Min="7.85399854e-01" Max="9.68733251e-01"/>
    <Variable VarIndex="2" Expression="237Np" Label="237Np" Title="237Np" Unit="IsotopicFraction" Internal="237Np" Type="F" Min="1.63990119e-08" Max="1.97294168e-04"/>
    <Variable VarIndex="3" Expression="238Pu" Label="238Pu" Title="238Pu" Unit="IsotopicFraction" Internal="238Pu" Type="F" Min="4.69728775e-07" Max="3.96428024e-03"/>
    <Variable VarIndex="4" Expression="239Pu" Label="239Pu" Title="239Pu" Unit="IsotopicFraction" Internal="239Pu" Type="F" Min="2.15940680e-02" Max="1.89886928e-01"/>
    <Variable VarIndex="5" Expression="240Pu" Label="240Pu" Title="240Pu" Unit="IsotopicFraction" Internal="240Pu" Type="F" Min="1.54567579e-06" Max="3.95636074e-02"/>
    <Variable VarIndex="6" Expression="241Pu" Label="241Pu" Title="241Pu" Unit="IsotopicFraction" Internal="241Pu" Type="F" Min="3.22813172e-08" Max="7.04628276e-03"/>
    <Variable VarIndex="7" Expression="242Pu" Label="242Pu" Title="242Pu" Unit="IsotopicFraction" Internal="242Pu" Type="F" Min="1.58277174e-07" Max="1.98803633e-03"/>
    <Variable VarIndex="8" Expression="241Am" Label="241Am" Title="241Am" Unit="IsotopicFraction" Internal="241Am" Type="F" Min="3.13082671e-10" Max="7.48056592e-03"/>
    <Variable VarIndex="9" Expression="242Amm" Label="242Amm" Title="242Amm" Unit="IsotopicFraction" Internal="242Amm" Type="F" Min="1.34159976e-07" Max="1.16249369e-02"/>
    <Variable VarIndex="10" Expression="243Am" Label="243Am" Title="243Am" Unit="IsotopicFraction" Internal="243Am" Type="F" Min="2.04390229e-08" Max="1.99559363e-04"/>
    <Variable VarIndex="11" Expression="242Cm" Label="242Cm" Title="242Cm" Unit="IsotopicFraction" Internal="242Cm" Type="F" Min="1.48285639e-09" Max="1.93909858e-04"/>
    <Variable VarIndex="12" Expression="243Cm" Label="243Cm" Title="243Cm" Unit="IsotopicFraction" Internal="243Cm" Type="F" Min="9.09117492e-09" Max="1.97552916e-04"/>
    <Variable VarIndex="13" Expression="244Cm" Label="244Cm" Title="244Cm" Unit="IsotopicFraction" Internal="244Cm" Type="F" Min="2.46570231e-09" Max="1.97112051e-04"/>
    <Variable VarIndex="14" Expression="245Cm" Label="245Cm" Title="245Cm" Unit="IsotopicFraction" Internal="245Cm" Type="F" Min="9.47205692e-09" Max="1.97873349e-04"/>
    <Variable VarIndex="15" Expression="246Cm" Label="246Cm" Title="246Cm" Unit="IsotopicFraction" Internal="246Cm" Type="F" Min="2.33963915e-09" Max="1.98596885e-04"/>
    <Variable VarIndex="16" Expression="Time" Label="Time" Title="Time" Unit="seconds" Internal="Time" Type="F" Min="0.00000000e+00" Max="1.89328320e+08"/>
  </Variables>
  <Spectators NSpec="0"/>
  <Classes NClass="1">
    <Class Name="Regression" Index="0"/>
  </Classes>
  <Targets NTrgt="1">
    <Target TargetIndex="0" Expression="XS_60_150_0_n2n" Label="XS_60_150_0_n2n" Title="XS_60_150_0_n2n" Unit="" Internal="XS_60_150_0_n2n" Type="F" Min="3.42871388e-03" Max="5.54784900e-03"/>
  </Targets>
  <Transformations NTransformations="1">
    <Transform Name="Normalize">
      <Selection>
        <Input NInputs="18">
          <Input Type="Variable" Label="235U" Expression="235U"/>
          <Input Type="Variable" Label="238U" Expression="238U"/>
          <Input Type="Variable" Label="237Np" Expression="237Np"/>
          <Input Type="Variable" Label="238Pu" Expression="238Pu"/>
          <Input Type="Variable" Label="239Pu" Expression="239Pu"/>
          <Input Type="Variable" Label="240Pu" Expression="240Pu"/>
          <Input Type="Variable" Label="241Pu" Expression="241Pu"/>
          <Input Type="Variable" Label="242Pu" Expression="242Pu"/>
          <Input Type="Variable" Label="241Am" Expression="241Am"/>
          <Input Type="Variable" Label="242Amm" Expression="242Amm"/>
          <Input Type="Variable" Label="243Am" Expression="243Am"/>
          <Input Type="Variable" Label="242Cm" Expression="242Cm"/>
          <Input Type="Variable" Label="243Cm" Expression="243Cm"/>
          <Input Type="Variable" Label="244Cm" Expression="244Cm"/>
          <Input Type="Variable" Label="245Cm" Expression="245Cm"/>
          <Input Type="Variable" Label="246Cm" Expression="246Cm"/>
          <Input Type="Variable" Label="Time" Expression="Time"/>
          <Input Type="Target" Label="XS_60_150_0_n2n" Expression="XS_60_150_0_n2n"/>
        </Input>
        <Output NOutputs="18">
          <Output Type="Variable" Label="235U" Expression="235U"/>
          <Output Type="Variable" Label="238U" Expression="238U"/>
          <Output Type="Variable" Label="237Np" Expression="237Np"/>
          <Output Type="Variable" Label="238Pu" Expression="238Pu"/>
          <Output Type="Variable" Label="239Pu" Expression="239Pu"/>
          <Output Type="Variable" Label="240Pu" Expression="240Pu"/>
          <Output Type="Variable" Label="241Pu" Expression="241Pu"/>
          <Output Type="Variable" Label="242Pu" Expression="242Pu"/>
          <Output Type="Variable" Label="241Am" Expression="241Am"/>
          <Output Type="Variable" Label="242Amm" Expression="242Amm"/>
          <Output Type="Variable" Label="243Am" Expression="243Am"/>
          <Output Type="Variable" Label="242Cm" Expression="242Cm"/>
          <Output Type="Variable" Label="243Cm" Expression="243Cm"/>
          <Output Type="Variable" Label="244Cm" Expression="244Cm"/>
          <Output Type="Variable" Label="245Cm" Expression="245Cm"/>
          <Output Type="Variable" Label="246Cm" Expression="246Cm"/>
          <Output Type="Variable" Label="Time" Expression="Time"/>
          <Output Type="Target" Label="XS_60_150_0_n2n" Expression="XS_60_150_0_n2n"/>
        </Output>
      </Selection>
      <Class ClassIndex="0">
        <Ranges>
          <Range Index="0" Min="1.7134651670858148e-06" Max="1.9241405650973320e-02"/>
          <Range Index="1" Min="7.8539985418319702e-01" Max="9.6873325109481812e-01"/>
          <Range Index="2" Min="1.6399011926182538e-08" Max="1.9729416817426682e-04"/>
          <Range Index="3" Min="4.6972877498774324e-07" Max="3.9642802439630032e-03"/>
          <Range Index="4" Min="2.1594068035483360e-02" Max="1.8988692760467529e-01"/>
          <Range Index="5" Min="1.5456757864740212e-06" Max="3.9563607424497604e-02"/>
          <Range Index="6" Min="3.2281317174920332e-08" Max="7.0462827570736408e-03"/>
          <Range Index="7" Min="1.5827717447791656e-07" Max="1.9880363252013922e-03"/>
          <Range Index="8" Min="3.1308267089968922e-10" Max="7.4805659241974354e-03"/>
          <Range Index="9" Min="1.3415997557331139e-07" Max="1.1624936945736408e-02"/>
          <Range Index="10" Min="2.0439022918594674e-08" Max="1.9955936295446008e-04"/>
          <Range Index="11" Min="1.4828563932312022e-09" Max="1.9390985835343599e-04"/>
          <Range Index="12" Min="9.0911749239808159e-09" Max="1.9755291577894241e-04"/>
          <Range Index="13" Min="2.4657023089957875e-09" Max="1.9711205095518380e-04"/>
          <Range Index="14" Min="9.4720569165929192e-09" Max="1.9787334895227104e-04"/>
          <Range Index="15" Min="2.3396391490848600e-09" Max="1.9859688472934067e-04"/>
          <Range Index="16" Min="0.0000000000000000e+00" Max="1.8932832000000000e+08"/>
          <Range Index="17" Min="3.4287138842046261e-03" Max="5.5478489957749844e-03"/>
        </Ranges>
      </Class>
    </Transform>
  </Transformations>
  <MVAPdfs/>
  <Weights>
    <Layout NLayers="4">
      <Layer Index="0" NNeurons="18">
        <Neuron NSynapses="17">
          -2.9306759486575074e-01 1.2486062951129278e+00 9.6737787684067811e-01 1.6941370239229039e+00 -1.8282267981360858e+00 -1.4704311533643712e+00 -6.9238269951435771e-01 1.6392203926178128e+00 -1.3983134324045194e+00 -1.2237782417922602e+00 -1.4488749084282793e+00 -7.9199812877812248e-01 -1.1936903028681731e+00 -3.4766917214299597e-01 -1.2681997124588473e-01 2.5434605450868375e-01 -3.5167568168249541e-01 
        </Neuron>
        <Neuron NSynapses="17">
          2.0759807825354337e+00 1.1577188898328110e+00 2.3522730232805933e+00 -1.6743508249736558e-01 -7.5204918855815406e-01 -2.4935154550218202e-02 2.2491927712124166e-01 -1.4328867347755307e+00 -5.3134629478606699e-01 1.5408773116391994e+00 -7.0060603424822776e-01 -2.5232239998249471e+00 -8.2466081630020421e-02 4.3486359646767364e-01 9.5357679853942146e-01 1.2508140130296712e+00 4.6142119035117690e-01 
        </Neuron>
        <Neuron NSynapses="17">
          1.1995010924059452e-01 -2.8190561308005702e-01 -1.1710739341404732e+00 1.6660611074261771e+00 -1.4284372997522741e+00 1.0162056555706627e+00 1.3310765660543638e+00 5.4511402833064393e-01 1.6961055221233525e+00 1.4553734361845929e+00 -5.4483877827512894e-01 -1.2388052856949781e+00 6.5860838026867530e-01 -2.7184844921630130e-01 1.8512206716240553e+00 8.6461375204242996e-01 1.4554874726148888e+00 
        </Neuron>
        <Neuron NSynapses="17">
          1.0752270181345325e+00 -1.2971646994004400e+00 1.5626645098631939e+00 -1.7305087062359319e+00 -1.0374422243174048e+00 -1.3731962933628119e+00 -1.5012765321535553e+00 9.7722987209955403e-01 4.7924232385461263e-01 -1.4734829522782802e+00 4.5858455786601821e-01 -6.1377137016764094e-01 6.4828489060465833e-01 1.0647451132415093e+00 4.1833590798115265e-02 -6.6267578001116378e-02 -6.5265243466977463e-01 
        </Neuron>
        <Neuron NSynapses="17">
          4.8113073743815721e-01 -1.5442460393924033e+00 -1.3853460367183703e+00 -1.5524535570432973e+00 6.4503508170945290e-01 1.7218774701016628e+00 1.3023587937224068e+00 -2.6234464684241210e-01 -1.7417165046191065e+00 -1.8234619619178765e+00 7.0727412046239369e-01 1.0045620780387967e+00 2.0912491850019252e+00 6.6722980990928693e-01 1.6107429985880088e+00 -2.1637667722202338e+00 -1.3410460788845675e+00 
        </Neuron>
        <Neuron NSynapses="17">
          1.0932132434094052e-01 8.3767741490070025e-01 -6.9717206074476867e-01 -1.4342133349824400e+00 -1.9397669363564041e+00 -1.6491126913428328e-01 3.9638056018623286e-01 1.4838532280708856e+00 -1.5838598803267294e+00 -8.4214008681501984e-01 1.7597404713929592e+00 -9.8309709854547778e-01 -1.5445670525743971e+00 -1.8549106570633429e+00 4.7080254788538578e-01 -1.9010813092955632e+00 -1.1319610040922949e+00 
        </Neuron>
        <Neuron NSynapses="17">
          8.8960901307445150e-01 1.7017020282003423e+00 -3.7899963274065634e-01 1.7513189896376302e+00 -1.2239115053242284e+00 -9.4627506033551811e-01 3.2024756867837723e-01 -3.3486167819068746e-01 -2.0483280456080828e+00 4.2171690908648324e-01 5.5714602686537940e-01 9.2493545904096752e-02 -1.5728569104020953e+00 9.5418678823359326e-01 6.6164209181183464e-01 -6.8817884106617933e-01 1.3859509193461523e+00 
        </Neuron>
        <Neuron NSynapses="17">
          -9.4034933800355902e-01 -1.1576892914621113e+00 5.6173881153501803e-01 -3.3736974778939938e-01 1.5605740268718133e+00 7.7292144127828599e-01 2.6510906241604643e-01 -7.5472169175160331e-01 9.3133465219541148e-02 -1.5982800806526452e+00 1.0157365552415882e+00 -1.1216241051390465e-01 -1.8097968233298158e+00 4.7923920930820242e-02 -9.8700438364614351e-01 -1.7180377917117953e-01 1.2621934311914584e+00 
        </Neuron>
        <Neuron NSynapses="17">
          1.8655525121634373e+00 -1.7211252905899248e+00 1.0257842144241651e+00 1.6518723453859951e+00 1.1912977598114947e+00 -6.4735476552898241e-02 -9.5913810222688678e-01 -6.3429722998698712e-01 -1.5972478496570390e+00 1.7188686056327580e+00 1.4758626103392449e+00 -2.7725777248433886e-01 -6.3729385249733195e-01 -5.4446716521298388e-01 -9.3733465444162989e-01 4.4281873385878590e-01 2.2003044804102836e+00 
        </Neuron>
        <Neuron NSynapses="17">
          -6.7329361331052962e-01 -8.3618648008885677e-01 3.4379894353440021e-01 1.0647047299285755e+00 3.7587357247192132e-01 1.1153419946468051e+00 -1.0630941719182918e+00 1.1397214197016219e+00 5.2108773701108069e-01 5.0724438242051106e-01 5.8584204535633155e-01 1.0863454574073321e+00 -6.9424590800387942e-01 -8.7861594275325705e-01 1.7214089641784178e+00 -1.4418233250873493e+00 -3.1455219146929175e-01 
        </Neuron>
        <Neuron NSynapses="17">
          1.5256939432494121e+00 8.0379467615055433e-01 -3.4963617305008132e-02 1.4235590815880308e+00 1.6238676643034149e+00 -1.6350677588869258e+00 8.4703927314600369e-01 -4.2457140318365144e-01 3.6094846621729243e-01 -1.6098857169325911e+00 -1.4154917529099649e+00 8.3255705147252201e-01 1.6558128912360137e+00 -1.9128073996820723e+00 2.2506657616403478e-01 -9.4065247109082784e-01 2.6300515602716507e-01 
        </Neuron>
        <Neuron NSynapses="17">
          1.7144443002273746e+00 1.0569060197633237e-01 1.3281755904361242e-01 -1.0171630937146188e+00 8.3552320802834967e-01 1.4868909115228610e+00 1.2350101209754716e+00 -3.0787908486723647e-01 -8.5263948778320420e-01 -1.8005888299139758e+00 1.1176441905386807e+00 1.3476801675891780e-03 -1.3817473115944858e+00 -1.3040906892160959e+00 5.8614205404826658e-01 6.9839538337340371e-02 -1.4658513394846173e+00 
        </Neuron>
        <Neuron NSynapses="17">
          1.9533860047183245e+00 1.2438173495157645e+00 2.5178575238401596e-01 3.9688660236291452e-02 1.4102356208541931e+00 9.0712309093612753e-01 9.4881396029520060e-01 -6.4521674663256601e-01 -1.8937660394161149e+00 -7.3661849417104097e-01 1.9372759678657629e+00 4.5934644562383553e-01 7.0505588321300239e-01 -4.1172416403960033e-01 2.1975258784294329e+00 -1.1691312046262874e+00 -7.0268713852843911e-01 
        </Neuron>
        <Neuron NSynapses="17">
          4.5959909782922304e-02 -1.1764179419806433e+00 1.2144030913093311e+00 1.7260289573705867e+00 -1.4244560743429204e+00 7.8679268286045578e-01 2.8332548639478712e-02 -2.1523344064779697e+00 -1.1190366465189185e+00 1.0959127177557664e+00 5.0414422472432392e-02 4.9635589659790097e-01 -1.1653407131619729e+00 9.6826122794256597e-01 -1.3674567306027532e+00 7.3240080539832775e-01 3.2582336080646490e-01 
        </Neuron>
        <Neuron NSynapses="17">
          -1.3347186437220118e+00 -1.4037394739789810e+00 -1.3736898387643393e+00 -3.4704972930994887e-01 -2.1753612177870632e+00 -1.4708424431928255e+00 -1.5358310464178533e+00 -9.4378116172930279e-02 -1.0398403268719725e+00 -1.5359946938515807e+00 1.3893144180745578e+00 -6.0434447090569454e-01 4.2604237999828765e-02 -1.3533995383023436e+00 6.7191612138255752e-01 1.1702362094608552e+00 1.3970646446684709e+00 
        </Neuron>
        <Neuron NSynapses="17">
          -7.7137249365587335e-01 -9.0533180061034635e-01 -3.3911881873027433e-01 -9.3333062987340965e-01 -1.8412142269752596e+00 2.4080452138288608e-01 5.0338078796166708e-01 1.3323300259011097e+00 -3.6180577112481799e-01 3.8847755721008331e-01 -4.0736067533222065e-01 -2.0597216115939725e+00 1.2543446662043392e+00 5.2380310302946342e-01 -5.7437762878315812e-01 -9.1808666314889298e-01 1.0688927797923737e+00 
        </Neuron>
        <Neuron NSynapses="17">
          1.2257113739766075e+00 8.8706111733091042e-01 2.8609297170875923e-02 -2.2930573406391913e-01 1.3221457681573427e+00 7.6117967554573251e-01 6.2861948463149520e-01 -6.0560193607276558e-01 1.7700283610532741e-01 -1.3120749266297727e-01 -1.2036064431445490e+00 -8.5755570282801330e-01 -1.5726287358636086e+00 -1.5808140358239495e+00 -1.4166033352183631e+00 2.0028052531741953e+00 -1.2845818924227548e+00 
        </Neuron>
        <Neuron NSynapses="17">
          1.2167591485143745e+00 -2.2633917235901340e+00 -5.9272376828459439e-01 -1.3856734010831513e+00 1.0237930209637549e+00 1.5495189902072639e+00 -2.7741296896813887e+00 1.2767679739375744e+00 1.1362247517626662e+00 -2.1492503715638693e+00 -2.0764252898571929e+00 -9.3728738870885098e-01 -4.5024641828881384e-01 3.1345636580040872e+00 -8.2081224463566627e-01 -5.3800483922520581e-01 -2.1774805816815177e+00 
        </Neuron>
      </Layer>
      <Layer Index="1" NNeurons="18">
        <Neuron NSynapses="17">
          -7.3648253692876620e-01 -1.6374665604517156e+00 -8.4777103577042257e-01 -1.5173389899298113e+00 8.9530981770870921e-01 -2.1745850916324239e+00 -1.2483064398031622e+00 1.2923538079546282e+00 3.0912848906812412e-01 -7.3224324855376033e-01 2.0469173677484553e+00 -1.6071757341335633e+00 1.6423141058641622e+00 1.0092747119288932e+00 -1.1999459436102560e+00 -6.5629201693149808e-01 -1.4349361054728454e-01 
        </Neuron>
        <Neuron NSynapses="17">
          -1.0442146978163060e+00 4.8896368720524896e-01 1.7991488606696202e+00 1.3627461697408729e+00 1.8350211407286428e+00 -2.1744734073571226e+00 1.1448417708949705e+00 -1.9966635424488537e+00 4.7621121013711826e-01 -1.5689658187812385e+00 -2.0957461423468451e+00 1.0952549915572077e-01 1.2450720027352640e+00 3.4222626586805704e-01 9.5594633828573405e-01 5.6774587900068851e-01 -2.2144086648860395e-01 
        </Neuron>
        <Neuron NSynapses="17">
          -5.2122710354461788e-01 8.2280618100356903e-02 2.1129985973579464e+00 -1.4334112923072675e+00 7.5502603515745292e-01 -2.4414979194011508e+00 -3.0503747435844170e-01 3.0980216200118205e-01 -1.1732678928030059e-01 -1.2089815112939897e+00 6.3571273459807398e-01 1.7619610209547525e+00 8.3041618987533261e-01 -9.4048723247738136e-02 -7.0542850463747231e-01 -1.2281488374279457e+00 -1.6075363746557816e+00 
        </Neuron>
        <Neuron NSynapses="17">
          1.2810695348606547e+00 -5.3408470102665806e-01 -8.9107326306254553e-01 3.4546737392722876e-01 -1.7245517781681758e+00 -2.1280216177120583e+00 -1.7996564451949595e+00 5.6049507291344536e-01 -1.3223505122215320e+00 -1.9441860274146443e+00 -4.7089319747731145e-01 -8.6330976762336631e-01 -1.6344116593488214e+00 1.2590994172809140e+00 -1.5739898492442812e+00 -1.2497571296609082e+00 1.5401390955979122e+00 
        </Neuron>
        <Neuron NSynapses="17">
          4.3294196888263586e-01 3.2459659899322563e-01 3.6583601977686897e-01 1.3063039525549187e+00 1.7924429696670514e+00 1.7967613602148236e+00 -7.2871655726470108e-01 -3.4430243889696949e-01 -1.6816156446393071e+00 1.0039812812800926e+00 8.5043408759280070e-01 3.4650818364468539e-02 1.0778300406565366e+00 8.2588755339141129e-01 1.5942454855873691e+00 -1.2149385692014949e+00 1.6621210884255668e+00 
        </Neuron>
        <Neuron NSynapses="17">
          5.7432809610613200e-01 -1.9099865827058715e+00 -3.5620883955003166e-02 -9.7572527068595583e-01 8.6990837069030147e-01 1.1474776153749553e+00 1.0298614599092459e+00 1.6682042503067915e+00 -3.0984735870076119e-01 1.7126043269306415e+00 1.8283867519724391e+00 1.7552705554028813e-01 -7.6577599915014738e-01 1.5956207041759416e+00 -2.0830464910774542e+00 6.5717374094384173e-01 1.6919004842147223e+00 
        </Neuron>
        <Neuron NSynapses="17">
          2.3567419650661139e-02 -7.2072746166374435e-01 3.3559945175803060e-02 -1.2759183578769453e+00 6.3369729491120630e-01 -2.9613220694413229e+00 1.4749551022295973e-01 -6.4127005004915261e-01 1.6925847463312653e+00 8.6101004712912355e-01 1.8726829063431460e+00 -2.7332004786866521e-01 -6.4114280580516991e-02 3.2935501852328319e-01 1.5166465977158436e+00 -1.7196565086473037e+00 -1.3907789175312459e+00 
        </Neuron>
        <Neuron NSynapses="17">
          -5.5936429136153165e-01 -1.5046720408502845e+00 -1.3390484989584026e+00 -1.7945475660098711e+00 1.4852045423955362e-01 5.4283906079115285e-01 -2.1124891105028714e+00 -2.0943079709122912e+00 -1.9309200581688141e-01 1.6822617999819589e+00 1.7377631382690959e+00 1.2209722171402952e+00 -6.6718560257965320e-01 -1.7528354205602401e+00 6.4332341466771817e-02 -1.4227173521808998e+00 -1.5007623934713834e+00 
        </Neuron>
        <Neuron NSynapses="17">
          -1.0107471492756104e+00 -8.9315517539567384e-03 -1.6131655925895729e+00 1.4663532425936092e+00 1.1434860266699585e+00 1.6798658191295797e+00 -4.9360120979819189e-01 -3.1093388551735307e-01 1.6750274734412787e+00 -2.8287561124523319e-01 6.7026472293587810e-04 1.4477255261998805e+00 1.5441910045552587e+00 -1.0338934604283319e+00 1.7018127369591838e+00 -1.9655111073674449e+00 1.7536607007266960e+00 
        </Neuron>
        <Neuron NSynapses="17">
          2.1605994923077616e+00 -1.9394085131921060e-01 4.2584572848243540e-01 3.3832996267146853e-01 -1.1089915776362079e-01 -1.8266764161178095e-01 6.5988625438767412e-01 -9.4157067650870940e-01 -1.7219470591500707e+00 -7.1957570613463834e-02 1.5678255913222443e+00 4.6374867730945735e-01 -7.0494044042691062e-01 -1.8123244066293578e+00 1.7461760792636796e+00 6.2472244193667281e-01 -1.2163885297015267e+00 
        </Neuron>
        <Neuron NSynapses="17">
          -1.9506445325321051e-01 -1.0045699351476931e+00 1.3069615648000947e+00 1.4052894520190511e+00 -7.9287188678867049e-01 -2.2357174827111774e+00 1.3984307012037283e+00 7.4790797013782473e-01 4.9807771922040739e-01 -1.7914951436641301e-02 -9.2113190196939387e-01 -1.2313268577400487e+00 8.1164683144484251e-01 3.9156995299867642e-01 2.2364454982917079e-01 -1.9064194329283515e+00 -1.9561255378704214e+00 
        </Neuron>
        <Neuron NSynapses="17">
          -1.8264618854105252e+00 -3.2992478816041093e-01 -1.7152067285316481e+00 1.7758172122357363e-01 -8.3082590937349876e-01 2.1744823761406287e+00 2.8313640528280165e-01 -1.9059211507832163e+00 1.2803616379496414e+00 1.9809745908632832e+00 1.0745311986804713e+00 -4.9796851875351811e-01 -9.7334765409286850e-01 2.1987568686235845e+00 -1.4483538866708170e+00 2.1098249023377366e-01 -1.4262555769909229e+00 
        </Neuron>
        <Neuron NSynapses="17">
          5.6433392002522720e-01 -1.1804997462148290e+00 2.3618628692876364e-01 -1.4173418715417491e-01 -2.3414245724039388e-02 8.2315077876241893e-01 -1.0571900432836179e+00 1.1430772253154067e+00 6.6423385345125874e-01 8.7028979050139943e-01 9.4563162881068996e-01 -1.8363817055227802e+00 8.8291873770207230e-01 -1.7729065885415267e+00 1.1406478836107692e+00 6.5197726573120862e-01 7.0895094516625823e-01 
        </Neuron>
        <Neuron NSynapses="17">
          1.3877575658345578e+00 1.4829352547459247e+00 -1.5822272107631414e+00 -6.5399578488182331e-01 -1.0091588370651354e+00 1.4939058291132321e+00 7.6053544466647471e-02 -1.5567750471981393e-01 -5.8121431048929162e-01 -4.7043177758459243e-01 -9.5316424173630288e-01 -4.0251615954189468e-01 -1.6758136022152343e+00 -2.7430224863398406e-01 2.7492019321756550e-01 -5.3878572899572996e-01 -1.3068007059341504e+00 
        </Neuron>
        <Neuron NSynapses="17">
          1.9135260588064865e-01 2.6932683359985765e-01 -6.6706554353132635e-02 -1.1729762275421649e+00 1.6173560557984583e+00 -9.9235884691394868e-02 5.3007581391118297e-01 5.8981861506099409e-01 -8.8223654624962322e-01 -8.6120330912065568e-01 -8.4027156535538855e-02 -2.0339675752389548e+00 -1.1090247510823097e+00 -1.0481306755498172e+00 1.0905057155651603e+00 -2.2349072200441182e+00 1.3027285786515812e+00 
        </Neuron>
        <Neuron NSynapses="17">
          1.9766812615181215e+00 1.5913051139936638e+00 9.2634368006352419e-01 7.5309520351350490e-01 4.6357900270201863e-01 -1.2397970083235117e+00 -1.7922038603004600e+00 -1.1102360943248317e+00 -1.0443900231745165e+00 1.3008631076023107e+00 -2.5099066424989176e-02 1.4274810084115769e-01 1.4931740756012974e+00 1.0270344723868245e+00 -1.2396034472177782e+00 6.5677327747690961e-01 -1.5838982951963436e+00 
        </Neuron>
        <Neuron NSynapses="17">
          1.0209201398775687e+00 -1.8575444076119294e+00 1.9201477163313505e-01 -3.4701863744002476e-01 9.1706432893379852e-01 -2.6384528567464614e+00 6.7751934240223896e-02 -1.9879471610654156e+00 -2.8842406348934601e-02 1.0733513968924633e+00 -5.5192890824247354e-01 6.0511768741968486e-01 -1.9699297117344199e+00 1.1064493985231310e+00 -5.5401061480247182e-01 6.3124438198682942e-01 -1.7920002142639537e+00 
        </Neuron>
        <Neuron NSynapses="17">
          -1.3997669335722056e+00 1.9498423625348738e+00 -2.2363299644273531e+00 -1.1568010271735218e+00 -9.1507626570532974e-01 3.0115733458914473e+00 1.5829721986459779e+00 2.1186819110064699e+00 -1.7589130896636507e+00 1.0475916086720050e+00 4.5790497263133356e-01 1.3133691184569418e-01 -1.1896392392637509e+00 -1.4116046030347758e+00 3.1577688242752600e-01 -1.8178075355527792e-01 1.8321081778786401e+00 
        </Neuron>
      </Layer>
      <Layer Index="2" NNeurons="18">
        <Neuron NSynapses="1">
          -3.1876721948655373e-02 
        </Neuron>
        <Neuron NSynapses="1">
          -2.3584118259428896e-02 
        </Neuron>
        <Neuron NSynapses="1">
          -1.0244201128931890e-01 
        </Neuron>
        <Neuron NSynapses="1">
          -1.4522746805293051e-02 
        </Neuron>
        <Neuron NSynapses="1">
          -3.9910732074293701e-02 
        </Neuron>
        <Neuron NSynapses="1">
          1.1212737753287920e-01 
        </Neuron>
        <Neuron NSynapses="1">
          8.8563350580589707e-03 
        </Neuron>
        <Neuron NSynapses="1">
          3.9893349883311233e-03 
        </Neuron>
        <Neuron NSynapses="1">
          2.2988516570532087e-02 
        </Neuron>
        <Neuron NSynapses="1">
          5.2494317368214111e-02 
        </Neuron>
        <Neuron NSynapses="1">
          1.2607773252493498e-02 
        </Neuron>
        <Neuron NSynapses="1">
          -2.8492402613048199e-02 
        </Neuron>
        <Neuron NSynapses="1">
          -4.6190201120015054e-02 
        </Neuron>
        <Neuron NSynapses="1">
          5.1968668959099908e-03 
        </Neuron>
        <Neuron NSynapses="1">
          -5.1490111374260326e-03 
        </Neuron>
        <Neuron NSynapses="1">
          -2.9172853904944247e-02 
        </Neuron>
        <Neuron NSynapses="1">
          -6.2688247318746599e-03 
        </Neuron>
        <Neuron NSynapses="1">
          -1.8579752940171798e-01 
        </Neuron>
      </Layer>
      <Layer Index="3" NNeurons="1">
        <Neuron NSynapses="0"/>
      </Layer>
    </Layout>
  </Weights>
</MethodSetup>
