<?xml version="1.0"?>
<MethodSetup Method="MLP::XS_46_107_0_cap">
  <GeneralInfo>
    <Info name="TMVA Release" value="4.2.1 [262657]"/>
    <Info name="ROOT Release" value="6.06/02 [394754]"/>
    <Info name="Creator" value="mouginot"/>
    <Info name="Date" value="Thu Feb 23 06:37:16 2017"/>
    <Info name="Host" value="Linux e300.chtc.wisc.edu 2.6.32-642.13.1.el6.x86_64 #1 SMP Tue Jan 10 11:22:50 CST 2017 x86_64 x86_64 x86_64 GNU/Linux"/>
    <Info name="Dir" value="/mnt/gluster/mouginot/TRU_MOX_XS/Generate"/>
    <Info name="Training events" value="198960"/>
    <Info name="TrainingTime" value="3.24476811e+04"/>
    <Info name="AnalysisType" value="Regression"/>
  </GeneralInfo>
  <Options>
    <Option name="NCycles" modified="Yes">20000</Option>
    <Option name="HiddenLayers" modified="Yes">N,N</Option>
    <Option name="NeuronType" modified="Yes">tanh</Option>
    <Option name="RandomSeed" modified="No">1</Option>
    <Option name="EstimatorType" modified="No">MSE</Option>
    <Option name="NeuronInputType" modified="No">sum</Option>
    <Option name="V" modified="Yes">False</Option>
    <Option name="VerbosityLevel" modified="No">Default</Option>
    <Option name="VarTransform" modified="Yes">Norm</Option>
    <Option name="H" modified="Yes">False</Option>
    <Option name="CreateMVAPdfs" modified="No">False</Option>
    <Option name="IgnoreNegWeightsInTraining" modified="No">False</Option>
    <Option name="TrainingMethod" modified="Yes">BFGS</Option>
    <Option name="LearningRate" modified="No">2.000000e-02</Option>
    <Option name="DecayRate" modified="No">1.000000e-02</Option>
    <Option name="TestRate" modified="Yes">6</Option>
    <Option name="EpochMonitoring" modified="No">False</Option>
    <Option name="Sampling" modified="Yes">3.000000e-01</Option>
    <Option name="SamplingEpoch" modified="Yes">8.000000e-01</Option>
    <Option name="SamplingImportance" modified="No">1.000000e+00</Option>
    <Option name="SamplingTraining" modified="No">True</Option>
    <Option name="SamplingTesting" modified="No">False</Option>
    <Option name="ResetStep" modified="No">50</Option>
    <Option name="Tau" modified="No">3.000000e+00</Option>
    <Option name="BPMode" modified="No">sequential</Option>
    <Option name="BatchSize" modified="No">-1</Option>
    <Option name="ConvergenceImprove" modified="Yes">1.000000e-06</Option>
    <Option name="ConvergenceTests" modified="Yes">15</Option>
    <Option name="UseRegulator" modified="Yes">False</Option>
    <Option name="UpdateLimit" modified="No">10000</Option>
    <Option name="CalculateErrors" modified="No">False</Option>
    <Option name="WeightRange" modified="No">1.000000e+00</Option>
  </Options>
  <Variables NVar="17">
    <Variable VarIndex="0" Expression="235U" Label="235U" Title="235U" Unit="IsotopicFraction" Internal="235U" Type="F" Min="1.71346517e-06" Max="1.92414057e-02"/>
    <Variable VarIndex="1" Expression="238U" Label="238U" Title="238U" Unit="IsotopicFraction" Internal="238U" Type="F" Min="7.85399854e-01" Max="9.68733251e-01"/>
    <Variable VarIndex="2" Expression="237Np" Label="237Np" Title="237Np" Unit="IsotopicFraction" Internal="237Np" Type="F" Min="1.63990119e-08" Max="1.97294168e-04"/>
    <Variable VarIndex="3" Expression="238Pu" Label="238Pu" Title="238Pu" Unit="IsotopicFraction" Internal="238Pu" Type="F" Min="4.69728775e-07" Max="3.96428024e-03"/>
    <Variable VarIndex="4" Expression="239Pu" Label="239Pu" Title="239Pu" Unit="IsotopicFraction" Internal="239Pu" Type="F" Min="2.15940680e-02" Max="1.89886928e-01"/>
    <Variable VarIndex="5" Expression="240Pu" Label="240Pu" Title="240Pu" Unit="IsotopicFraction" Internal="240Pu" Type="F" Min="1.54567579e-06" Max="3.95636074e-02"/>
    <Variable VarIndex="6" Expression="241Pu" Label="241Pu" Title="241Pu" Unit="IsotopicFraction" Internal="241Pu" Type="F" Min="3.22813172e-08" Max="7.04628276e-03"/>
    <Variable VarIndex="7" Expression="242Pu" Label="242Pu" Title="242Pu" Unit="IsotopicFraction" Internal="242Pu" Type="F" Min="1.58277174e-07" Max="1.98803633e-03"/>
    <Variable VarIndex="8" Expression="241Am" Label="241Am" Title="241Am" Unit="IsotopicFraction" Internal="241Am" Type="F" Min="3.13082671e-10" Max="7.48056592e-03"/>
    <Variable VarIndex="9" Expression="242Amm" Label="242Amm" Title="242Amm" Unit="IsotopicFraction" Internal="242Amm" Type="F" Min="1.34159976e-07" Max="1.16249369e-02"/>
    <Variable VarIndex="10" Expression="243Am" Label="243Am" Title="243Am" Unit="IsotopicFraction" Internal="243Am" Type="F" Min="2.04390229e-08" Max="1.99559363e-04"/>
    <Variable VarIndex="11" Expression="242Cm" Label="242Cm" Title="242Cm" Unit="IsotopicFraction" Internal="242Cm" Type="F" Min="1.48285639e-09" Max="1.93909858e-04"/>
    <Variable VarIndex="12" Expression="243Cm" Label="243Cm" Title="243Cm" Unit="IsotopicFraction" Internal="243Cm" Type="F" Min="9.09117492e-09" Max="1.97552916e-04"/>
    <Variable VarIndex="13" Expression="244Cm" Label="244Cm" Title="244Cm" Unit="IsotopicFraction" Internal="244Cm" Type="F" Min="2.46570231e-09" Max="1.97112051e-04"/>
    <Variable VarIndex="14" Expression="245Cm" Label="245Cm" Title="245Cm" Unit="IsotopicFraction" Internal="245Cm" Type="F" Min="9.47205692e-09" Max="1.97873349e-04"/>
    <Variable VarIndex="15" Expression="246Cm" Label="246Cm" Title="246Cm" Unit="IsotopicFraction" Internal="246Cm" Type="F" Min="2.33963915e-09" Max="1.98596885e-04"/>
    <Variable VarIndex="16" Expression="Time" Label="Time" Title="Time" Unit="seconds" Internal="Time" Type="F" Min="0.00000000e+00" Max="1.89328320e+08"/>
  </Variables>
  <Spectators NSpec="0"/>
  <Classes NClass="1">
    <Class Name="Regression" Index="0"/>
  </Classes>
  <Targets NTrgt="1">
    <Target TargetIndex="0" Expression="XS_46_107_0_cap" Label="XS_46_107_0_cap" Title="XS_46_107_0_cap" Unit="" Internal="XS_46_107_0_cap" Type="F" Min="2.79719472e+00" Max="3.57241058e+00"/>
  </Targets>
  <Transformations NTransformations="1">
    <Transform Name="Normalize">
      <Selection>
        <Input NInputs="18">
          <Input Type="Variable" Label="235U" Expression="235U"/>
          <Input Type="Variable" Label="238U" Expression="238U"/>
          <Input Type="Variable" Label="237Np" Expression="237Np"/>
          <Input Type="Variable" Label="238Pu" Expression="238Pu"/>
          <Input Type="Variable" Label="239Pu" Expression="239Pu"/>
          <Input Type="Variable" Label="240Pu" Expression="240Pu"/>
          <Input Type="Variable" Label="241Pu" Expression="241Pu"/>
          <Input Type="Variable" Label="242Pu" Expression="242Pu"/>
          <Input Type="Variable" Label="241Am" Expression="241Am"/>
          <Input Type="Variable" Label="242Amm" Expression="242Amm"/>
          <Input Type="Variable" Label="243Am" Expression="243Am"/>
          <Input Type="Variable" Label="242Cm" Expression="242Cm"/>
          <Input Type="Variable" Label="243Cm" Expression="243Cm"/>
          <Input Type="Variable" Label="244Cm" Expression="244Cm"/>
          <Input Type="Variable" Label="245Cm" Expression="245Cm"/>
          <Input Type="Variable" Label="246Cm" Expression="246Cm"/>
          <Input Type="Variable" Label="Time" Expression="Time"/>
          <Input Type="Target" Label="XS_46_107_0_cap" Expression="XS_46_107_0_cap"/>
        </Input>
        <Output NOutputs="18">
          <Output Type="Variable" Label="235U" Expression="235U"/>
          <Output Type="Variable" Label="238U" Expression="238U"/>
          <Output Type="Variable" Label="237Np" Expression="237Np"/>
          <Output Type="Variable" Label="238Pu" Expression="238Pu"/>
          <Output Type="Variable" Label="239Pu" Expression="239Pu"/>
          <Output Type="Variable" Label="240Pu" Expression="240Pu"/>
          <Output Type="Variable" Label="241Pu" Expression="241Pu"/>
          <Output Type="Variable" Label="242Pu" Expression="242Pu"/>
          <Output Type="Variable" Label="241Am" Expression="241Am"/>
          <Output Type="Variable" Label="242Amm" Expression="242Amm"/>
          <Output Type="Variable" Label="243Am" Expression="243Am"/>
          <Output Type="Variable" Label="242Cm" Expression="242Cm"/>
          <Output Type="Variable" Label="243Cm" Expression="243Cm"/>
          <Output Type="Variable" Label="244Cm" Expression="244Cm"/>
          <Output Type="Variable" Label="245Cm" Expression="245Cm"/>
          <Output Type="Variable" Label="246Cm" Expression="246Cm"/>
          <Output Type="Variable" Label="Time" Expression="Time"/>
          <Output Type="Target" Label="XS_46_107_0_cap" Expression="XS_46_107_0_cap"/>
        </Output>
      </Selection>
      <Class ClassIndex="0">
        <Ranges>
          <Range Index="0" Min="1.7134651670858148e-06" Max="1.9241405650973320e-02"/>
          <Range Index="1" Min="7.8539985418319702e-01" Max="9.6873325109481812e-01"/>
          <Range Index="2" Min="1.6399011926182538e-08" Max="1.9729416817426682e-04"/>
          <Range Index="3" Min="4.6972877498774324e-07" Max="3.9642802439630032e-03"/>
          <Range Index="4" Min="2.1594068035483360e-02" Max="1.8988692760467529e-01"/>
          <Range Index="5" Min="1.5456757864740212e-06" Max="3.9563607424497604e-02"/>
          <Range Index="6" Min="3.2281317174920332e-08" Max="7.0462827570736408e-03"/>
          <Range Index="7" Min="1.5827717447791656e-07" Max="1.9880363252013922e-03"/>
          <Range Index="8" Min="3.1308267089968922e-10" Max="7.4805659241974354e-03"/>
          <Range Index="9" Min="1.3415997557331139e-07" Max="1.1624936945736408e-02"/>
          <Range Index="10" Min="2.0439022918594674e-08" Max="1.9955936295446008e-04"/>
          <Range Index="11" Min="1.4828563932312022e-09" Max="1.9390985835343599e-04"/>
          <Range Index="12" Min="9.0911749239808159e-09" Max="1.9755291577894241e-04"/>
          <Range Index="13" Min="2.4657023089957875e-09" Max="1.9711205095518380e-04"/>
          <Range Index="14" Min="9.4720569165929192e-09" Max="1.9787334895227104e-04"/>
          <Range Index="15" Min="2.3396391490848600e-09" Max="1.9859688472934067e-04"/>
          <Range Index="16" Min="0.0000000000000000e+00" Max="1.8932832000000000e+08"/>
          <Range Index="17" Min="2.7971947193145752e+00" Max="3.5724105834960938e+00"/>
        </Ranges>
      </Class>
    </Transform>
  </Transformations>
  <MVAPdfs/>
  <Weights>
    <Layout NLayers="4">
      <Layer Index="0" NNeurons="18">
        <Neuron NSynapses="17">
          4.7869113243407324e-01 3.0196570712583793e-02 -1.0106353464537068e-01 1.1378352770427489e+00 -1.7659962526299391e+00 3.4176302548172599e-01 2.1209029681584821e-02 1.1380043872486199e+00 -1.2681737250948129e+00 -9.5699364301824241e-02 -8.6524514223927806e-01 -9.6064932797932198e-02 -7.4923752789495279e-01 5.1467802230932551e-02 -1.1107583929817498e-01 -2.4740896199210080e-01 -3.5625499062099292e-01 
        </Neuron>
        <Neuron NSynapses="17">
          1.3103888502781378e+00 2.5420702618348150e+00 3.1008214257784976e+00 -6.3446390961902710e-01 5.5678699982650359e-01 -1.6487022770442306e+00 -1.9862278324732332e+00 -7.9062585752872483e-01 -2.9126425463880634e-01 3.2471230670836966e+00 -1.6868650434966865e+00 -1.5602866497070091e+00 -5.9751669511929939e-01 -4.7642131041266017e-01 -9.6778279194152897e-02 2.3392660795737106e+00 5.0071393537157749e-01 
        </Neuron>
        <Neuron NSynapses="17">
          5.0371619848146099e-01 -1.2738087787795263e-02 -3.1455032138258343e-01 1.9661100395643909e+00 -1.5704425029064522e+00 5.3243415741110278e-01 -1.3233561678633363e-01 8.3145762378805033e-01 1.3457803636791106e+00 -2.2355491731922868e-02 -7.1332975191575956e-02 -2.7258500787955653e-03 -7.7788723988097802e-02 -1.5968572956822075e-01 1.6930075792946460e+00 7.8962129419556354e-02 1.2568028505304167e+00 
        </Neuron>
        <Neuron NSynapses="17">
          1.1893343167482440e+00 -1.1018058065485983e-01 3.8971648665658311e-02 -1.1375584410927646e+00 -1.1613839776715937e+00 -8.2243963909638529e-01 1.3039435604656352e-01 1.2881664281852352e+00 4.5358520155159127e-01 -1.7243117224416768e-01 3.3970586635701344e-01 -2.7382653088437334e-02 -2.3128036958691817e-01 4.6378198034146251e-01 4.3905553656777924e-02 1.1522646645000061e-01 -6.1888366382409532e-01 
        </Neuron>
        <Neuron NSynapses="17">
          1.3774550323896866e+00 -2.8034973452402858e+00 -2.3796303266607621e+00 -8.3851895909322327e-01 -1.0774166808478172e+00 2.9176157625413452e+00 3.0413534101790582e+00 3.7680657401884643e-01 -2.1547539631548194e+00 -3.5162940187411187e+00 1.9707036940842750e+00 -5.4751527930988486e-01 2.3164084048943949e+00 1.1659634680596742e+00 2.5453330694239731e+00 -3.3550182769915411e+00 -1.2221756312875867e+00 
        </Neuron>
        <Neuron NSynapses="17">
          9.5408266294878155e-02 5.2275637113195150e-01 -2.4295101642166664e-01 -1.4680287819199243e+00 -1.1888978362821547e+00 -1.4147247040734393e-01 -3.8800420267218549e-01 4.5457568241711177e-01 -1.3546856494458155e+00 -1.8941580132578392e-01 1.0261553030339932e+00 -2.3617711608744399e-01 -9.6268794201293340e-01 -1.3386972417313383e+00 4.6677980876346126e-01 -7.1341097466764855e-02 -1.2089604452349805e+00 
        </Neuron>
        <Neuron NSynapses="17">
          1.5531082384467434e+00 -1.1359522584633371e-01 -1.7917586816951220e-01 1.9413848779345579e+00 -1.0066487781916493e+00 -7.2284286197258374e-01 -2.1326846900843141e-01 1.2204892251573896e+00 -1.9808478070205728e+00 2.1260939852795988e-01 8.8716465545528833e-01 -4.2221174670312812e-02 -8.9955218669711312e-01 2.0339574723093748e-01 6.3443964137237774e-01 9.9633921655101779e-02 1.2600222164896331e+00 
        </Neuron>
        <Neuron NSynapses="17">
          -4.6199551073615186e-01 -1.1560992644377151e-01 4.7540824340239429e-02 -2.4005729326620473e-01 9.4276914545537083e-01 6.8672537195859959e-02 -9.8688452709624619e-02 1.6847750832952543e-01 -2.6196127845386354e-02 1.2033014472969256e-01 1.2791884479586180e+00 -1.6035960771805347e-02 -5.8379972817936909e-01 -2.2444009056452865e-01 -8.2323412654555794e-01 1.3201604724763547e-01 1.0105063952432831e+00 
        </Neuron>
        <Neuron NSynapses="17">
          2.3740815356887404e+00 -3.0044513618972918e-01 -4.0699562052944727e-01 2.2105617233128934e+00 4.9516323034559773e-01 -7.1452531207103165e-01 -4.8227204407650041e-02 1.0363434231543984e+00 -1.6489268618466513e+00 2.3660474779539312e-01 1.1392067362957687e+00 -5.4739543639295452e-02 -1.1370703648590550e+00 -1.0803172595175787e+00 -8.8181311689163300e-01 3.7061466346424282e-01 2.3905565161317015e+00 
        </Neuron>
        <Neuron NSynapses="17">
          1.5589678499942905e-01 2.1201332771689524e-01 -2.1096824145436158e-01 1.0675747775668811e+00 6.5535334101142123e-02 3.5730475291312574e-01 -9.4252728584335060e-02 9.0083635216154645e-01 2.6723296041100414e-01 -1.8413056932330063e-01 7.5944500950648597e-01 -4.9053231354232493e-02 -1.0235617472402081e+00 -6.3257416338664874e-01 1.0322747046196490e+00 -4.6263262123249480e-02 -3.3105520523025794e-01 
        </Neuron>
        <Neuron NSynapses="17">
          1.7823392388387200e+00 -7.0066990929215173e-02 1.1203045931884807e-01 1.6010714353684918e+00 6.8164917902807554e-01 -8.6986876823916415e-01 1.7993993052710439e-01 2.4562185381523094e-01 8.5602134128371934e-02 -2.7492977365658555e-01 -6.0004183694028335e-01 -3.6809397265533707e-03 3.7712471466935910e-01 -1.4332831581775125e+00 3.4242071310432975e-01 1.5291230348653659e-01 -7.3649548354390262e-02 
        </Neuron>
        <Neuron NSynapses="17">
          1.6173837660618784e+00 -1.2965955903543464e-01 -1.7512261143071536e-01 -9.0886267328625636e-01 6.6082719579156668e-01 2.3638116615425911e-01 -1.4383991276623509e-01 9.1600418097644173e-02 -6.7236989371970013e-01 2.4042035092653517e-02 9.1922364299586501e-01 -5.5038628207721872e-04 -2.9082329051566613e-01 -9.8631827798165395e-01 4.8457554024916361e-01 1.3121822180974177e-01 -1.2538990470114546e+00 
        </Neuron>
        <Neuron NSynapses="17">
          1.7541498420343302e+00 -3.9763713761541343e-02 -1.8824560328538506e-01 1.2615152210059946e-01 1.1076414317692507e+00 1.5663241482951357e-01 -7.6019165569722977e-02 -1.0974348405408041e-01 -1.4325684976240303e+00 -1.7139805874233205e-01 1.2830123920403700e+00 -5.7134254965339666e-04 5.4569510970203641e-02 -2.4081797757055190e-01 1.9325220511722785e+00 1.3768764028351155e-01 -7.0096563524869615e-01 
        </Neuron>
        <Neuron NSynapses="17">
          6.5402290934812302e-01 -1.3706616436671415e-01 -5.1991393897734750e-03 1.6937334134793780e+00 -1.9583746415767191e+00 -5.1848724692856389e-02 1.1796467717765970e-01 -7.9627608746802003e-01 -8.3281653980330594e-01 -2.8299209441951446e-02 -1.4950961443940940e-02 -4.7016233126275838e-03 -3.2660122768332156e-01 3.8119437959086300e-01 -1.3539927996818490e+00 1.3158824332037894e-01 3.8078668673556354e-01 
        </Neuron>
        <Neuron NSynapses="17">
          -5.7052009311696261e-01 -1.9883614272580924e-01 -2.2953103314674750e-01 -1.5938236181805177e-01 -2.5340199856863528e+00 -6.0377662537588861e-01 -7.8159549220892535e-02 2.3269019230299412e-01 -1.0594971047746493e+00 -1.3239772453875143e-01 1.3512813457210711e+00 -3.3092713735128833e-03 -1.5580360793126838e-01 -1.1261251415727545e+00 6.8331551684892855e-01 1.8794599891094488e-01 1.1538494290901440e+00 
        </Neuron>
        <Neuron NSynapses="17">
          -4.1426464049672229e-01 1.3853446757682320e-02 -1.0036853861654009e-01 -3.7706993015301399e-01 -2.0194458386732594e+00 9.1548559993331696e-02 -2.7182490613074730e-02 1.0800430139394741e+00 -4.9038142409087637e-01 4.8344176858543478e-03 -2.6703155708431919e-01 -3.1251915463524666e-03 1.1168009608781512e-01 4.3053622250481866e-01 -2.4573722840287565e-01 2.2046646161423468e-02 7.5089072355028763e-01 
        </Neuron>
        <Neuron NSynapses="17">
          1.6630359430477046e-01 1.2288321289482369e+00 7.8763403637233209e-01 -4.3804451057024218e-01 1.3033861172189050e+00 6.2508458116586851e-01 -8.0369365329579390e-01 5.4090392984003222e-01 5.9879670830906950e-01 5.6456091047176915e-01 -1.1193685458504483e+00 -1.9553935436105310e-01 -3.2417076529782638e+00 -3.7480826740936279e-01 -1.2782507842855724e+00 5.5657289689796430e-01 -1.0393693024179596e+00 
        </Neuron>
        <Neuron NSynapses="17">
          4.4832302029447840e-01 -2.6621741528445084e+00 3.5950964381341954e-01 -1.9103802911012167e+00 1.5217279182186723e+00 2.7919913636509555e+00 -8.7284164175447365e-01 -2.1569758611278269e+00 1.4477312399189519e+00 -3.2458936802836917e+00 -2.3396214896673593e+00 -8.2272207154987703e-02 1.7341019380560765e-01 4.3192404352439375e+00 -4.7842271004408916e-02 -1.9950091964457057e+00 -2.5846190808899325e+00 
        </Neuron>
      </Layer>
      <Layer Index="1" NNeurons="18">
        <Neuron NSynapses="17">
          1.0667436304922288e-01 -1.1259801130236675e+00 -2.6189067702656244e-01 -4.9176890615142133e-01 6.5530396651749301e-01 -3.4237018000726682e-01 -1.2911868431396305e+00 9.0668626681207021e-01 -8.0097824628889915e-04 -4.8038619743803773e-01 1.7928892982687505e+00 -1.4615455405392783e+00 5.7417809904152028e-01 2.8455129947534435e-01 -9.7171395572242680e-01 -1.2801405125234974e-01 -4.0394657412359458e-01 
        </Neuron>
        <Neuron NSynapses="17">
          -4.3599325418394903e-02 5.5556684847315185e-01 4.9862121272430776e-01 1.4986741846508604e+00 1.9362408205600010e+00 -1.4165501511354524e+00 1.5929453147076061e-01 -1.8697889126295344e+00 5.5987075692933042e-01 -1.8816528492990809e+00 -1.5067465837984688e+00 3.8471570695990026e-01 1.2889499223344372e+00 1.4351285029293520e-01 1.0552869573085766e+00 5.9472228115285053e-01 -3.2026236683072978e-01 
        </Neuron>
        <Neuron NSynapses="17">
          1.8282778357992668e-01 2.1994903037739977e-01 1.2834557726355009e+00 -1.2835749363900706e+00 7.9530548778771548e-01 -1.2784499208741702e+00 -9.9083428551790220e-01 5.9250611075309378e-02 -2.8863328029690088e-02 -4.9754179429959139e-01 9.3977892138376629e-01 1.9034679366507896e+00 9.2773874543871682e-01 -7.2758166132409596e-01 -3.8286689972445659e-01 -1.5254829307235931e+00 -1.3560782628315049e+00 
        </Neuron>
        <Neuron NSynapses="17">
          -1.6969833855246783e-01 -5.2361304705687095e-01 -7.5936191773308082e-01 8.5719583859409665e-01 -1.9255764465015448e+00 -5.4294183617437208e-01 -1.3461063866190490e+00 3.5405389888709715e-01 5.7003886529339636e-03 -5.6052428112058150e-01 -9.1009778402458652e-01 -1.0761753388082496e+00 -1.4844230257793589e+00 8.0292036650805487e-01 -1.3732296541110236e+00 -1.0212833240599868e+00 7.6227863937355766e-01 
        </Neuron>
        <Neuron NSynapses="17">
          1.8185158008246596e-01 1.2215229315118373e-01 1.3005596225894328e-01 1.0861459001537119e+00 1.5896201258063096e+00 2.8693677737882084e-01 -8.8556471732909037e-01 -3.6905110326623924e-01 -4.0839099913346812e-03 8.2576512708647787e-01 9.7670400335748975e-01 1.3152819227862547e-01 1.0620967158810219e-02 6.3655208223557813e-01 1.6170397188116448e+00 -1.7985567067682737e+00 1.5838801391185953e+00 
        </Neuron>
        <Neuron NSynapses="17">
          -5.1384655190577311e-01 -1.8826647959604919e+00 1.0066721926035448e-01 -5.0939022120620892e-01 8.0385042529537443e-01 3.8394405092226547e-01 1.2781902986594753e+00 2.5116616318051833e-02 8.2346199719891183e-02 5.5121128962008814e-01 2.1266058377114092e+00 2.2413248907939995e-01 -9.2081572152082058e-01 1.8276106246173136e+00 -2.2910075691265326e+00 4.8482036578022797e-01 2.3324157060313540e+00 
        </Neuron>
        <Neuron NSynapses="17">
          -2.6125424993991540e-02 -9.4882752628113520e-01 -5.0099544152834452e-01 -5.9404548318425776e-01 3.6155030340932770e-01 -9.2980966623339489e-01 3.7164399979572127e-01 -7.8859312546061300e-01 6.6758076269508443e-02 5.8113626154006981e-01 1.5681656845842566e+00 -4.7199680909414676e-01 -1.2151414874126162e-01 4.6531242428704850e-01 1.2942585522808219e+00 -1.7079830348720220e+00 -2.8229334089692828e+00 
        </Neuron>
        <Neuron NSynapses="17">
          -3.6049649661652472e-01 -1.5778216432755110e+00 -1.7883228973354186e+00 -1.6496207458781360e+00 2.6989782732194995e-01 8.3174672181189360e-02 -1.3588417307538503e+00 -1.9260682351395979e+00 6.8930582830234403e-03 1.2601701113336756e+00 1.4785428885622725e+00 1.1712516902331318e+00 -6.1564719797484491e-01 -1.7357209239596030e+00 6.8204990722159908e-02 -9.0133485174788497e-01 -1.5189641919569494e+00 
        </Neuron>
        <Neuron NSynapses="17">
          4.7961524995267563e-01 1.8975354732826358e-01 -7.5581122875141526e-01 9.3338746844581688e-01 1.1678755861154115e+00 -1.5247433719877477e-02 -7.5231182489489912e-01 3.2374105931489025e-02 -2.2573437456254440e-03 -4.4850853742117536e-01 1.6831098600008798e-01 1.4775050942580372e+00 1.5999750853224448e+00 -7.9144282154711498e-01 1.5932452363121017e+00 -2.1406839384477085e+00 2.4015089665527087e+00 
        </Neuron>
        <Neuron NSynapses="17">
          1.1694063969208990e+00 2.2590324223663603e-02 -6.8854767923154134e-02 1.0289604701158741e+00 -2.7495600354623409e-02 5.7965317913898251e-01 -7.4861957657447367e-02 -1.7678509950248926e+00 -7.7043564485993321e-01 -4.9762448786038432e-01 2.3747602465120554e+00 5.1215198360601810e-01 -1.0542446796425222e+00 -2.0857291817959331e+00 1.8524930028829840e+00 6.0191472821574010e-01 -2.1443921468239528e+00 
        </Neuron>
        <Neuron NSynapses="17">
          1.5038786277199795e-02 -9.9695415466467729e-01 7.3356985346811732e-01 1.3667091819799648e+00 -9.8958300280943012e-01 -9.3129049561642274e-01 1.8761483370659136e+00 4.2891594405747815e-02 -8.5338864319158675e-04 7.7359730873522062e-02 -9.6806739538352493e-01 -1.2239339946385641e+00 3.1584942126298821e-01 1.6497539363767463e-01 2.0871429669676766e-01 -1.5231389664836619e+00 -2.4876376814922030e+00 
        </Neuron>
        <Neuron NSynapses="17">
          -3.6525833720647194e+00 -1.0608979670310907e+00 -3.0909643411732288e+00 3.5692810616654358e-01 -1.2752880585817179e+00 1.3648308498869395e+00 9.9989288294605772e-01 -2.7561259904276127e+00 1.8192050728750186e+00 2.6443183750652124e+00 7.2178002198820690e-01 -9.7255461359303408e-01 -1.7870520198936231e+00 2.8625476921177899e+00 -1.9745926162986818e+00 2.6673315320377944e-01 -2.4493943817502353e+00 
        </Neuron>
        <Neuron NSynapses="17">
          9.8808771104450008e-02 -1.5596608326939123e+00 8.3007191209574019e-02 3.9400114654885671e-01 -5.2956888469016450e-01 -1.4840361513422529e+00 -1.0733663980259462e+00 -8.1477279548662379e-02 -1.2529063735681675e-02 2.8830588783286293e-01 4.1668888200220927e-01 -1.5350092269765592e+00 1.6706637102818742e-01 -1.0067756352308967e+00 6.3610544211047693e-01 1.0728811692979803e+00 1.6276985717660029e+00 
        </Neuron>
        <Neuron NSynapses="17">
          1.4991756348140324e+00 1.2711830685510255e+00 -1.3723672884521594e+00 -1.0820720874275047e+00 -9.9773804540403310e-01 4.2117439224979142e-01 1.1077328113338808e-02 -4.2951704383999589e-01 9.4803972450611413e-03 -5.2703543548939269e-01 -5.8236722883487924e-01 -3.3309602465459243e-01 -1.7877806735338475e+00 1.2544337782073023e-01 -6.3979377818367501e-03 -1.0705963609995628e+00 -6.6750729035635212e-02 
        </Neuron>
        <Neuron NSynapses="17">
          -5.5292263889227103e-02 -2.0613588228592997e-01 4.7971318980838548e-02 -9.1269104511655552e-01 1.3251251060151661e+00 -1.9096888730831446e-01 3.3559918461543348e-01 4.9375197770854257e-01 -4.6839615222276270e-03 -2.2520065061501582e-01 -4.8810364071567641e-01 -1.4803422578653798e+00 -5.0379442978329436e-01 -4.5706422242078426e-01 7.2813806416284832e-01 -1.6234949314478255e+00 1.0477052140994385e+00 
        </Neuron>
        <Neuron NSynapses="17">
          5.3066424247290467e-01 1.6816939900268779e+00 3.1411366718438427e-01 1.0402230046215737e+00 4.2535283232365412e-01 -9.7742712708001356e-01 -1.2171911994154390e+00 -1.2525204860731094e+00 -1.8931467753484171e-01 1.0544051254791917e+00 4.3759954198809209e-01 -3.4765166734272407e-02 1.0107309277575092e+00 9.1314093176799449e-01 -1.1962007018118428e+00 3.3871067913596720e-01 -2.7053355519190223e+00 
        </Neuron>
        <Neuron NSynapses="17">
          -2.6547535376457693e-01 -1.6933134366459368e+00 -2.4937286309010623e-01 4.0942202715467578e-02 4.5400522289331452e-01 -1.6956130628151802e+00 5.6464568433244067e-01 -2.0267129933726586e+00 2.6968317741461168e-03 1.7999749380874015e+00 -8.4532456420110158e-01 4.9558762051474237e-01 -1.9235872629346276e+00 8.2910529004746303e-01 -3.6681168153908539e-01 1.0881652722980977e+00 -2.5295297876381073e+00 
        </Neuron>
        <Neuron NSynapses="17">
          1.6195221426494361e-01 1.9671075484749698e+00 -1.7467487740409373e+00 -1.8569922125483074e+00 -6.8821576828178277e-01 1.2383988520480080e+00 1.2854088252430800e+00 2.7185357581308844e+00 -2.6996623051505835e+00 6.1127256437335942e-01 6.4995226884000146e-01 2.1524257880856060e-01 -8.3798075612373657e-01 -1.1269756210318451e+00 1.9892722900082715e-01 -4.9767645620338419e-01 2.9796184399953938e+00 
        </Neuron>
      </Layer>
      <Layer Index="2" NNeurons="18">
        <Neuron NSynapses="1">
          1.1584669832495219e-01 
        </Neuron>
        <Neuron NSynapses="1">
          2.9851040621465809e-04 
        </Neuron>
        <Neuron NSynapses="1">
          1.3578781145175051e-01 
        </Neuron>
        <Neuron NSynapses="1">
          4.3370767651162885e-02 
        </Neuron>
        <Neuron NSynapses="1">
          -2.8535382112050674e-03 
        </Neuron>
        <Neuron NSynapses="1">
          -6.0475886874206808e-01 
        </Neuron>
        <Neuron NSynapses="1">
          -5.8599351151800184e-03 
        </Neuron>
        <Neuron NSynapses="1">
          -1.1706272234824624e+00 
        </Neuron>
        <Neuron NSynapses="1">
          -1.7348334570712993e+00 
        </Neuron>
        <Neuron NSynapses="1">
          -1.7563861816058207e-02 
        </Neuron>
        <Neuron NSynapses="1">
          -1.7152050502757324e-03 
        </Neuron>
        <Neuron NSynapses="1">
          4.6029414367632391e-04 
        </Neuron>
        <Neuron NSynapses="1">
          -1.3736886737741478e-02 
        </Neuron>
        <Neuron NSynapses="1">
          -4.9738798499326291e-03 
        </Neuron>
        <Neuron NSynapses="1">
          -3.3993358868079728e-03 
        </Neuron>
        <Neuron NSynapses="1">
          4.3721365226585844e-03 
        </Neuron>
        <Neuron NSynapses="1">
          5.7207799929307690e-02 
        </Neuron>
        <Neuron NSynapses="1">
          2.7898310224334760e-01 
        </Neuron>
      </Layer>
      <Layer Index="3" NNeurons="1">
        <Neuron NSynapses="0"/>
      </Layer>
    </Layout>
  </Weights>
</MethodSetup>
