<?xml version="1.0"?>
<MethodSetup Method="MLP::XS_50_112_0_n2n">
  <GeneralInfo>
    <Info name="TMVA Release" value="4.2.1 [262657]"/>
    <Info name="ROOT Release" value="6.06/02 [394754]"/>
    <Info name="Creator" value="mouginot"/>
    <Info name="Date" value="Thu Feb 23 08:07:10 2017"/>
    <Info name="Host" value="Linux e300.chtc.wisc.edu 2.6.32-642.13.1.el6.x86_64 #1 SMP Tue Jan 10 11:22:50 CST 2017 x86_64 x86_64 x86_64 GNU/Linux"/>
    <Info name="Dir" value="/mnt/gluster/mouginot/TRU_MOX_XS/Generate"/>
    <Info name="Training events" value="198960"/>
    <Info name="TrainingTime" value="2.19158523e+04"/>
    <Info name="AnalysisType" value="Regression"/>
  </GeneralInfo>
  <Options>
    <Option name="NCycles" modified="Yes">20000</Option>
    <Option name="HiddenLayers" modified="Yes">N,N</Option>
    <Option name="NeuronType" modified="Yes">tanh</Option>
    <Option name="RandomSeed" modified="No">1</Option>
    <Option name="EstimatorType" modified="No">MSE</Option>
    <Option name="NeuronInputType" modified="No">sum</Option>
    <Option name="V" modified="Yes">False</Option>
    <Option name="VerbosityLevel" modified="No">Default</Option>
    <Option name="VarTransform" modified="Yes">Norm</Option>
    <Option name="H" modified="Yes">False</Option>
    <Option name="CreateMVAPdfs" modified="No">False</Option>
    <Option name="IgnoreNegWeightsInTraining" modified="No">False</Option>
    <Option name="TrainingMethod" modified="Yes">BFGS</Option>
    <Option name="LearningRate" modified="No">2.000000e-02</Option>
    <Option name="DecayRate" modified="No">1.000000e-02</Option>
    <Option name="TestRate" modified="Yes">6</Option>
    <Option name="EpochMonitoring" modified="No">False</Option>
    <Option name="Sampling" modified="Yes">3.000000e-01</Option>
    <Option name="SamplingEpoch" modified="Yes">8.000000e-01</Option>
    <Option name="SamplingImportance" modified="No">1.000000e+00</Option>
    <Option name="SamplingTraining" modified="No">True</Option>
    <Option name="SamplingTesting" modified="No">False</Option>
    <Option name="ResetStep" modified="No">50</Option>
    <Option name="Tau" modified="No">3.000000e+00</Option>
    <Option name="BPMode" modified="No">sequential</Option>
    <Option name="BatchSize" modified="No">-1</Option>
    <Option name="ConvergenceImprove" modified="Yes">1.000000e-06</Option>
    <Option name="ConvergenceTests" modified="Yes">15</Option>
    <Option name="UseRegulator" modified="Yes">False</Option>
    <Option name="UpdateLimit" modified="No">10000</Option>
    <Option name="CalculateErrors" modified="No">False</Option>
    <Option name="WeightRange" modified="No">1.000000e+00</Option>
  </Options>
  <Variables NVar="17">
    <Variable VarIndex="0" Expression="235U" Label="235U" Title="235U" Unit="IsotopicFraction" Internal="235U" Type="F" Min="1.71346517e-06" Max="1.92414057e-02"/>
    <Variable VarIndex="1" Expression="238U" Label="238U" Title="238U" Unit="IsotopicFraction" Internal="238U" Type="F" Min="7.85399854e-01" Max="9.68733251e-01"/>
    <Variable VarIndex="2" Expression="237Np" Label="237Np" Title="237Np" Unit="IsotopicFraction" Internal="237Np" Type="F" Min="1.63990119e-08" Max="1.97294168e-04"/>
    <Variable VarIndex="3" Expression="238Pu" Label="238Pu" Title="238Pu" Unit="IsotopicFraction" Internal="238Pu" Type="F" Min="4.69728775e-07" Max="3.96428024e-03"/>
    <Variable VarIndex="4" Expression="239Pu" Label="239Pu" Title="239Pu" Unit="IsotopicFraction" Internal="239Pu" Type="F" Min="2.15940680e-02" Max="1.89886928e-01"/>
    <Variable VarIndex="5" Expression="240Pu" Label="240Pu" Title="240Pu" Unit="IsotopicFraction" Internal="240Pu" Type="F" Min="1.54567579e-06" Max="3.95636074e-02"/>
    <Variable VarIndex="6" Expression="241Pu" Label="241Pu" Title="241Pu" Unit="IsotopicFraction" Internal="241Pu" Type="F" Min="3.22813172e-08" Max="7.04628276e-03"/>
    <Variable VarIndex="7" Expression="242Pu" Label="242Pu" Title="242Pu" Unit="IsotopicFraction" Internal="242Pu" Type="F" Min="1.58277174e-07" Max="1.98803633e-03"/>
    <Variable VarIndex="8" Expression="241Am" Label="241Am" Title="241Am" Unit="IsotopicFraction" Internal="241Am" Type="F" Min="3.13082671e-10" Max="7.48056592e-03"/>
    <Variable VarIndex="9" Expression="242Amm" Label="242Amm" Title="242Amm" Unit="IsotopicFraction" Internal="242Amm" Type="F" Min="1.34159976e-07" Max="1.16249369e-02"/>
    <Variable VarIndex="10" Expression="243Am" Label="243Am" Title="243Am" Unit="IsotopicFraction" Internal="243Am" Type="F" Min="2.04390229e-08" Max="1.99559363e-04"/>
    <Variable VarIndex="11" Expression="242Cm" Label="242Cm" Title="242Cm" Unit="IsotopicFraction" Internal="242Cm" Type="F" Min="1.48285639e-09" Max="1.93909858e-04"/>
    <Variable VarIndex="12" Expression="243Cm" Label="243Cm" Title="243Cm" Unit="IsotopicFraction" Internal="243Cm" Type="F" Min="9.09117492e-09" Max="1.97552916e-04"/>
    <Variable VarIndex="13" Expression="244Cm" Label="244Cm" Title="244Cm" Unit="IsotopicFraction" Internal="244Cm" Type="F" Min="2.46570231e-09" Max="1.97112051e-04"/>
    <Variable VarIndex="14" Expression="245Cm" Label="245Cm" Title="245Cm" Unit="IsotopicFraction" Internal="245Cm" Type="F" Min="9.47205692e-09" Max="1.97873349e-04"/>
    <Variable VarIndex="15" Expression="246Cm" Label="246Cm" Title="246Cm" Unit="IsotopicFraction" Internal="246Cm" Type="F" Min="2.33963915e-09" Max="1.98596885e-04"/>
    <Variable VarIndex="16" Expression="Time" Label="Time" Title="Time" Unit="seconds" Internal="Time" Type="F" Min="0.00000000e+00" Max="1.89328320e+08"/>
  </Variables>
  <Spectators NSpec="0"/>
  <Classes NClass="1">
    <Class Name="Regression" Index="0"/>
  </Classes>
  <Targets NTrgt="1">
    <Target TargetIndex="0" Expression="XS_50_112_0_n2n" Label="XS_50_112_0_n2n" Title="XS_50_112_0_n2n" Unit="" Internal="XS_50_112_0_n2n" Type="F" Min="7.97313915e-05" Max="3.28808004e-04"/>
  </Targets>
  <Transformations NTransformations="1">
    <Transform Name="Normalize">
      <Selection>
        <Input NInputs="18">
          <Input Type="Variable" Label="235U" Expression="235U"/>
          <Input Type="Variable" Label="238U" Expression="238U"/>
          <Input Type="Variable" Label="237Np" Expression="237Np"/>
          <Input Type="Variable" Label="238Pu" Expression="238Pu"/>
          <Input Type="Variable" Label="239Pu" Expression="239Pu"/>
          <Input Type="Variable" Label="240Pu" Expression="240Pu"/>
          <Input Type="Variable" Label="241Pu" Expression="241Pu"/>
          <Input Type="Variable" Label="242Pu" Expression="242Pu"/>
          <Input Type="Variable" Label="241Am" Expression="241Am"/>
          <Input Type="Variable" Label="242Amm" Expression="242Amm"/>
          <Input Type="Variable" Label="243Am" Expression="243Am"/>
          <Input Type="Variable" Label="242Cm" Expression="242Cm"/>
          <Input Type="Variable" Label="243Cm" Expression="243Cm"/>
          <Input Type="Variable" Label="244Cm" Expression="244Cm"/>
          <Input Type="Variable" Label="245Cm" Expression="245Cm"/>
          <Input Type="Variable" Label="246Cm" Expression="246Cm"/>
          <Input Type="Variable" Label="Time" Expression="Time"/>
          <Input Type="Target" Label="XS_50_112_0_n2n" Expression="XS_50_112_0_n2n"/>
        </Input>
        <Output NOutputs="18">
          <Output Type="Variable" Label="235U" Expression="235U"/>
          <Output Type="Variable" Label="238U" Expression="238U"/>
          <Output Type="Variable" Label="237Np" Expression="237Np"/>
          <Output Type="Variable" Label="238Pu" Expression="238Pu"/>
          <Output Type="Variable" Label="239Pu" Expression="239Pu"/>
          <Output Type="Variable" Label="240Pu" Expression="240Pu"/>
          <Output Type="Variable" Label="241Pu" Expression="241Pu"/>
          <Output Type="Variable" Label="242Pu" Expression="242Pu"/>
          <Output Type="Variable" Label="241Am" Expression="241Am"/>
          <Output Type="Variable" Label="242Amm" Expression="242Amm"/>
          <Output Type="Variable" Label="243Am" Expression="243Am"/>
          <Output Type="Variable" Label="242Cm" Expression="242Cm"/>
          <Output Type="Variable" Label="243Cm" Expression="243Cm"/>
          <Output Type="Variable" Label="244Cm" Expression="244Cm"/>
          <Output Type="Variable" Label="245Cm" Expression="245Cm"/>
          <Output Type="Variable" Label="246Cm" Expression="246Cm"/>
          <Output Type="Variable" Label="Time" Expression="Time"/>
          <Output Type="Target" Label="XS_50_112_0_n2n" Expression="XS_50_112_0_n2n"/>
        </Output>
      </Selection>
      <Class ClassIndex="0">
        <Ranges>
          <Range Index="0" Min="1.7134651670858148e-06" Max="1.9241405650973320e-02"/>
          <Range Index="1" Min="7.8539985418319702e-01" Max="9.6873325109481812e-01"/>
          <Range Index="2" Min="1.6399011926182538e-08" Max="1.9729416817426682e-04"/>
          <Range Index="3" Min="4.6972877498774324e-07" Max="3.9642802439630032e-03"/>
          <Range Index="4" Min="2.1594068035483360e-02" Max="1.8988692760467529e-01"/>
          <Range Index="5" Min="1.5456757864740212e-06" Max="3.9563607424497604e-02"/>
          <Range Index="6" Min="3.2281317174920332e-08" Max="7.0462827570736408e-03"/>
          <Range Index="7" Min="1.5827717447791656e-07" Max="1.9880363252013922e-03"/>
          <Range Index="8" Min="3.1308267089968922e-10" Max="7.4805659241974354e-03"/>
          <Range Index="9" Min="1.3415997557331139e-07" Max="1.1624936945736408e-02"/>
          <Range Index="10" Min="2.0439022918594674e-08" Max="1.9955936295446008e-04"/>
          <Range Index="11" Min="1.4828563932312022e-09" Max="1.9390985835343599e-04"/>
          <Range Index="12" Min="9.0911749239808159e-09" Max="1.9755291577894241e-04"/>
          <Range Index="13" Min="2.4657023089957875e-09" Max="1.9711205095518380e-04"/>
          <Range Index="14" Min="9.4720569165929192e-09" Max="1.9787334895227104e-04"/>
          <Range Index="15" Min="2.3396391490848600e-09" Max="1.9859688472934067e-04"/>
          <Range Index="16" Min="0.0000000000000000e+00" Max="1.8932832000000000e+08"/>
          <Range Index="17" Min="7.9731391451787204e-05" Max="3.2880800426937640e-04"/>
        </Ranges>
      </Class>
    </Transform>
  </Transformations>
  <MVAPdfs/>
  <Weights>
    <Layout NLayers="4">
      <Layer Index="0" NNeurons="18">
        <Neuron NSynapses="17">
          -4.8187743743422046e-01 1.2914660467911536e+00 9.8658169357303138e-01 1.7458541273375667e+00 -1.9297242452251608e+00 -1.1821620588298647e+00 -8.6481446496204484e-01 1.9163164777672370e+00 -1.4081538237981530e+00 -1.2946165010682080e+00 -1.2798717547891354e+00 -6.6907496374158526e-01 -1.2464848714507915e+00 -4.5012334224994777e-01 -4.6957577091885805e-01 4.3906107521534188e-01 -3.7528478230284185e-01 
        </Neuron>
        <Neuron NSynapses="17">
          1.9809986658469318e+00 3.5474031848916526e-01 2.0912291923249340e+00 -1.6056071423944332e-01 -8.6293516023368100e-01 2.6745933127907617e-01 1.6270776261436937e-01 -9.9945807316473734e-01 -4.3178328956689249e-01 1.3309628292032460e+00 -1.1009116228625631e+00 -2.1856129129465107e+00 1.1755876901384515e-01 4.4534607667660903e-01 1.3057648681578027e+00 2.2860448209239609e-01 2.0742080036158470e-01 
        </Neuron>
        <Neuron NSynapses="17">
          1.8373035633428664e-01 -3.7100814585419850e-01 -1.3005931543283891e+00 1.6448665693221383e+00 -1.4944421861639012e+00 1.0446348243545180e+00 1.2965502748406121e+00 9.3212490797462144e-01 1.8367285013021764e+00 1.1441875284747125e+00 -4.9647302012062822e-01 -1.5073452025138929e+00 6.9716226921981883e-01 -7.0504649490874607e-02 1.5016067684246721e+00 1.3911151379116518e+00 1.5788251535658842e+00 
        </Neuron>
        <Neuron NSynapses="17">
          1.3009119764040868e+00 -1.5235677244512860e+00 1.5060632724121135e+00 -1.5533324953441794e+00 -1.1199811264922428e+00 -1.2056131547208362e+00 -1.4974553429345712e+00 1.4280276827339229e+00 5.4226822700635424e-01 -1.7216082102583186e+00 4.6956030990138681e-01 -4.7991153287082183e-01 5.9613640810761959e-01 1.3433045774017587e+00 -1.5590930015517585e-01 1.7118955399021915e-01 -7.5153992910528611e-01 
        </Neuron>
        <Neuron NSynapses="17">
          6.1180012454932775e-01 -1.0728258566305255e+00 -7.3162366517784783e-01 -1.6195809013681839e+00 6.8451472734400376e-01 1.6496818182573130e+00 1.3268026519525558e+00 -4.5664240673966994e-01 -1.8101353875487081e+00 -1.7150355690622570e+00 6.4832442610491348e-01 6.7791115501152954e-01 1.9356394340439969e+00 7.4954396169054438e-01 1.2508859599419770e+00 -1.3102973757744505e+00 -1.2334626454153284e+00 
        </Neuron>
        <Neuron NSynapses="17">
          -5.8885595571403798e-02 1.2409113289892197e+00 -8.4172374185833676e-01 -1.3148297045024078e+00 -1.9995052025716897e+00 -1.2834293592874430e-01 2.5911764081531025e-01 1.6909492613514463e+00 -1.5574643206965149e+00 -1.0417992997469767e+00 1.7519652449237249e+00 -7.3951047571322459e-01 -1.6263062377707198e+00 -1.7507011393340637e+00 3.3220493236749538e-01 -1.6030097928382983e+00 -1.0915276778921779e+00 
        </Neuron>
        <Neuron NSynapses="17">
          7.1941113488817643e-01 1.8651775952263707e+00 -7.0397952488892790e-01 1.8850811691836573e+00 -1.4441929814992274e+00 -1.0117371823115380e+00 3.3952167120163307e-01 3.7054579548154476e-01 -1.8905791360458895e+00 7.0660247843026297e-02 4.3342035938318119e-01 3.9028322889210793e-01 -1.5647187407790644e+00 1.2609492140858227e+00 3.6357042322648403e-01 -5.1341363598390766e-01 1.3536214421580155e+00 
        </Neuron>
        <Neuron NSynapses="17">
          -8.6742620276073468e-01 -1.1963581770784149e+00 1.3636586018656638e-01 -1.8563950115177108e-01 1.3459072039192708e+00 8.1191350076254964e-01 2.7895554029955782e-01 -3.3028525875791287e-01 9.0878634374861142e-02 -1.9648670844484022e+00 1.2425031018405490e+00 8.4250960398658384e-02 -1.8590206501074407e+00 2.4106869280352386e-01 -1.2518588172366714e+00 1.0271918218803312e-01 1.3667483160010623e+00 
        </Neuron>
        <Neuron NSynapses="17">
          1.8398662883256205e+00 -1.6206108936007642e+00 3.5503438221470390e-01 1.8395131616080842e+00 1.0148409835631280e+00 5.2366851277658881e-02 -1.1716239406144755e+00 -8.5712708022998560e-02 -1.5515673629296460e+00 1.2678693639769656e+00 1.6316933539228606e+00 -5.1274364596541255e-01 -6.1876505751972688e-01 -2.0403247342557754e-01 -1.1875776699417575e+00 8.2864645347071131e-01 2.2192279049626382e+00 
        </Neuron>
        <Neuron NSynapses="17">
          -4.2254679461981909e-01 -8.5329803304495744e-01 3.5946171478724098e-01 9.7803390179993033e-01 2.1548962768796717e-01 1.5854109167480921e+00 -1.6217328771303552e+00 1.5268894718000270e+00 5.6534101942663662e-01 4.0052436370843542e-01 3.7456250768430460e-01 8.2236798686579793e-01 -8.8481751040142442e-01 -5.5818151826392082e-01 1.7328756279825561e+00 -1.6929678263618666e+00 -4.9597126937540142e-01 
        </Neuron>
        <Neuron NSynapses="17">
          1.2571573542019432e+00 6.6960379594215269e-01 -3.7409048370643722e-01 1.4337536214252364e+00 1.5540032624731392e+00 -1.6335612650542979e+00 5.3240551238621581e-01 -2.4181813941694798e-02 4.2190677598499748e-01 -1.8438520225085613e+00 -1.4605410692908594e+00 9.8502876833273156e-01 1.5433925735282483e+00 -1.6875688684054002e+00 6.1378857169138934e-02 -8.1923976340015081e-01 2.8261597439604136e-01 
        </Neuron>
        <Neuron NSynapses="17">
          1.8317065729134756e+00 -2.9930929023896924e-01 -2.4574715157915147e-01 -9.0549480334037902e-01 6.5741387966842446e-01 1.6223830820518088e+00 1.2331531858560330e+00 3.8484454184370065e-01 -8.1247909804180563e-01 -2.1960528973682094e+00 1.1553863363029206e+00 5.9303147273795320e-01 -1.4091887945459354e+00 -1.1031619671698683e+00 2.7362702595010924e-01 1.7159930363921044e-01 -1.5393776116732805e+00 
        </Neuron>
        <Neuron NSynapses="17">
          1.8357637232057797e+00 8.2013206197033284e-01 -3.7005117118568481e-01 -2.5412334070510998e-02 1.2222030038656821e+00 8.8547331419996123e-01 9.0480899924262148e-01 -5.5679974551888986e-02 -1.8831322037034728e+00 -1.1711630679020781e+00 1.8575277405667778e+00 1.7024054526557788e+00 7.8104020158123511e-01 -9.2249005932211747e-02 1.7164759060568806e+00 -9.1686274604816842e-01 -7.2097321617183741e-01 
        </Neuron>
        <Neuron NSynapses="17">
          -6.8533224560512092e-03 -1.2935811003976398e+00 1.1722577406786718e+00 1.6808894218986778e+00 -1.4964141561608566e+00 9.1413152254660757e-01 1.1213480602990850e-01 -1.8271651226566366e+00 -1.1326521416123287e+00 9.3422098995546599e-01 1.1657034137715459e-01 6.8509774108319121e-01 -1.2910601625706770e+00 1.2980839889874618e+00 -1.5599016899016791e+00 8.5434268736179231e-01 1.7432531989765068e-01 
        </Neuron>
        <Neuron NSynapses="17">
          -1.4958538623072557e+00 -1.4594473540750805e+00 -1.9418842652429060e+00 -2.8027463991648660e-01 -2.1572026093758354e+00 -1.4099620307464482e+00 -1.7253152908771179e+00 2.3923552637160897e-01 -1.0731584317659524e+00 -1.7092628197265827e+00 1.4775088576520525e+00 -6.3960145190180862e-01 2.6103285719224968e-02 -1.2061258474306276e+00 4.3442751125509421e-01 1.4640858920494138e+00 1.4923754396412090e+00 
        </Neuron>
        <Neuron NSynapses="17">
          -5.9724716317275894e-01 -9.1107387109242344e-01 -1.1447595037892213e+00 -7.1276213680510836e-01 -1.9515380084617850e+00 2.0476124792072933e-01 6.9124196089381240e-01 1.8640995732510159e+00 -2.9534592995164116e-01 7.3969575137544194e-02 -5.1732001920059467e-01 -2.1856116103255494e+00 1.2584296702618216e+00 7.3765364531906574e-01 -8.2345481823678601e-01 -1.1550286616292735e+00 1.1098573832292467e+00 
        </Neuron>
        <Neuron NSynapses="17">
          1.4598112482321395e+00 6.4518271857434595e-01 -1.6779528112288064e-01 -4.2144961101786133e-01 9.6209468424574207e-01 9.9629337367651838e-01 4.9341594791870896e-01 -3.4459063529699296e-01 1.6907749679661738e-01 -2.9002248812842979e-01 -9.2685183824913131e-01 -9.8767521915485590e-01 -1.5024553917904031e+00 -1.6383911520406587e+00 -1.9620642639696999e+00 2.7271301661858214e+00 -1.1004568342510297e+00 
        </Neuron>
        <Neuron NSynapses="17">
          1.4442619184783108e+00 -2.0965590853450120e+00 6.2470171507305516e-01 -1.7023832127026710e+00 1.3403670642565522e+00 1.4024351338568528e+00 -2.4056529806649420e+00 9.9034778426501741e-02 9.4572115911761090e-01 -1.4067764972380736e+00 -2.2980763921641207e+00 -2.0850352295757619e+00 -5.5627346431976266e-01 2.7259595438446569e+00 -5.5532389463918141e-01 -1.6709436854788345e-01 -2.0643501276043206e+00 
        </Neuron>
      </Layer>
      <Layer Index="1" NNeurons="18">
        <Neuron NSynapses="17">
          -1.1761041375354111e+00 -1.6696277699295288e+00 -7.7662259502154385e-01 -1.5389122501786061e+00 8.7372613838407387e-01 -1.6644890250480595e+00 -1.3061397224227160e+00 1.5556989921821498e+00 5.3069089728589502e-01 -5.9214539734648164e-01 2.0250510732267415e+00 -1.8379391639008040e+00 1.5583561652117812e+00 9.8737398947592769e-01 -1.1541292521022399e+00 -4.4731568384993259e-01 -1.5042894398629791e-01 
        </Neuron>
        <Neuron NSynapses="17">
          -1.0580541073423424e+00 4.6870262215942554e-01 1.8046400331508246e+00 1.3104246654023912e+00 1.7086596781296768e+00 -1.5068333914306018e+00 9.5189367667895397e-01 -2.1073324158351037e+00 6.1841137229458620e-01 -1.7385461962217137e+00 -2.0665454874283786e+00 -5.9821568396690505e-02 1.3367867365518036e+00 3.6454065687288079e-01 9.5246562660235390e-01 4.3426871697059877e-01 -2.1237532836167383e-01 
        </Neuron>
        <Neuron NSynapses="17">
          -6.9678402351162638e-01 1.1377091082907935e-01 1.8942378855160289e+00 -1.3949380921548120e+00 3.6473434229265023e-01 -1.0814362101052499e+00 -4.4965891799696250e-01 1.3510983348720151e-01 -3.1795463679338713e-02 -1.0858123532338169e+00 7.1878894442755736e-01 1.6747399497064972e+00 5.9502606223228427e-01 -1.1494226288286233e-01 -7.2797592048200821e-01 -1.6007024786552961e+00 -1.5986045995263309e+00 
        </Neuron>
        <Neuron NSynapses="17">
          9.5254317917588016e-01 -5.2425224186257324e-01 -9.5175513454266492e-01 3.0845045501615376e-01 -1.8234134453758244e+00 -1.4066498790846025e+00 -1.6039805268170482e+00 8.0707020435260957e-01 -1.2045503266494653e+00 -1.6826142183579622e+00 -4.8876996534779837e-01 -9.5414683601834527e-01 -1.6371751611884162e+00 1.2176109171775444e+00 -1.5566932544153744e+00 -1.1416970966618156e+00 1.5529452563594031e+00 
        </Neuron>
        <Neuron NSynapses="17">
          6.3876717635733937e-01 3.1174152303967734e-01 4.8169862102983858e-02 1.3685221720318215e+00 1.8479258888116799e+00 7.4538988344364809e-01 -9.8215510932161509e-01 -4.4081951336489889e-01 -1.8324368513504006e+00 8.8935681263935573e-01 8.1055663951406776e-01 1.0414476576595125e-01 1.0970679061846214e+00 8.5176311239718638e-01 1.5807263703885028e+00 -1.3266344945374455e+00 1.6475473889018295e+00 
        </Neuron>
        <Neuron NSynapses="17">
          8.2482059615150793e-01 -1.9360406552883205e+00 -2.3610196801897113e-01 -9.3827640429580172e-01 8.9660967622417553e-01 5.9662160190064595e-01 9.4080558080529342e-01 1.7304899599168313e+00 -2.3197000301421306e-01 1.6600757173379281e+00 1.8363743053720927e+00 1.9944309531883245e-01 -9.4687089812147529e-01 1.6088641530702454e+00 -2.0905417797335319e+00 8.0281231973785327e-01 1.6718057545293670e+00 
        </Neuron>
        <Neuron NSynapses="17">
          -3.2458536162874119e-01 -8.0229472487432585e-01 6.1445198854551422e-02 -1.2940973798689086e+00 4.2296474207595880e-01 -1.4696910088345376e+00 3.3477444652734095e-01 -4.8864369289207027e-01 2.1179575640344988e+00 1.1266463393684676e+00 1.9002766990195037e+00 -5.5940491113484481e-01 -1.9197047107361428e-01 3.2694404245643938e-01 1.5758095721865426e+00 -1.5068560284962713e+00 -1.3953052859976680e+00 
        </Neuron>
        <Neuron NSynapses="17">
          -6.5825951667980309e-01 -1.4930958033004880e+00 -1.5287953380117276e+00 -1.8491978755805010e+00 5.5203001666252416e-01 -1.1425573300574068e-01 -1.8491238883203012e+00 -1.9765755787014183e+00 -3.0341731115247395e-01 1.8478433454235756e+00 1.8258314830644828e+00 1.3042073512991790e+00 -6.6628572881179082e-01 -1.7511641383699814e+00 7.1145379702153830e-02 -1.2832685368374954e+00 -1.5225119892954915e+00 
        </Neuron>
        <Neuron NSynapses="17">
          -6.6769506857283822e-01 1.6655410421774059e-02 -1.6357251035235167e+00 1.5309349248113029e+00 1.2303164276241469e+00 1.0779462971794105e+00 -5.3840286306249752e-01 -5.3353523517447210e-01 1.4747991967454392e+00 -5.2964449578411488e-01 4.1620745418241331e-02 1.6321596795056987e+00 1.4924006046981491e+00 -1.0121230737989997e+00 1.6967532414841868e+00 -2.1591639313168418e+00 1.7670805494117374e+00 
        </Neuron>
        <Neuron NSynapses="17">
          1.9899350858625384e+00 -1.7930978869684716e-01 -1.2606945653880799e-01 3.2519582476555692e-01 -5.1317131058233911e-01 7.1915377610290321e-01 1.1398753767331603e-01 -8.4530625174831553e-01 -1.4967991473722519e+00 -1.5492138622065913e-03 1.5023868719100126e+00 3.7934938562003123e-01 -7.8298852275305486e-01 -1.8001725886596533e+00 1.7635123044933187e+00 2.8933554844499026e-01 -1.2156950105778270e+00 
        </Neuron>
        <Neuron NSynapses="17">
          -3.2758999671328987e-01 -1.0076100006971911e+00 1.3242856131717342e+00 1.3889280874795660e+00 -7.7614141566104033e-01 -1.5478226597020934e+00 1.5396567087433695e+00 9.9749210871443461e-01 5.1799195151914446e-01 1.6795200268716831e-01 -9.6114215151534710e-01 -1.2366478335174695e+00 1.0928241689515197e+00 3.9513916132698712e-01 2.2530796587724966e-01 -1.7036906016951583e+00 -1.9541579948820633e+00 
        </Neuron>
        <Neuron NSynapses="17">
          -2.0348650632734286e+00 -3.2478405258617166e-01 -1.5654970403754054e+00 2.4236267432563119e-01 -7.2416153640168157e-01 1.8268374942449535e+00 5.7746388944481464e-01 -1.8294740704887080e+00 9.9421434269813147e-01 2.0232583321800135e+00 1.0453104917691984e+00 -4.3578845547997608e-01 -1.0261406597157985e+00 2.1759993530467225e+00 -1.4654615103269579e+00 4.1536840292328980e-01 -1.4435736371568935e+00 
        </Neuron>
        <Neuron NSynapses="17">
          9.9464858719639548e-01 -1.1607446166959183e+00 1.3138633627145030e-01 -1.1177912348081870e-01 3.0301432170753578e-01 1.5296063703693855e-01 -6.4329402810886638e-01 1.0047826319518625e+00 3.8563060969822449e-01 8.6682304298261115e-01 9.6682569413885466e-01 -1.6622291390531827e+00 1.0755307935350171e+00 -1.8016133012354045e+00 1.1211203672542427e+00 7.1580942628022304e-01 7.6265354665504292e-01 
        </Neuron>
        <Neuron NSynapses="17">
          1.5683248282861535e+00 1.4623864312448074e+00 -1.9638789031305945e+00 -6.5868411933163917e-01 -9.6447485887993867e-01 1.0317773879092260e+00 -8.5028957688777246e-02 -1.3490292096048107e-01 -4.9333469289465437e-01 -5.3001415025291032e-01 -9.8131050441168710e-01 -3.5822927697751344e-01 -1.8522405505649044e+00 -2.7196373465957396e-01 2.8167469536391870e-01 -7.6766944160409989e-01 -1.3040369588950476e+00 
        </Neuron>
        <Neuron NSynapses="17">
          2.9939351405354969e-01 2.4762072008786348e-01 -3.8728156195891983e-01 -1.1455605309819248e+00 1.7657561463084250e+00 1.1444823424924960e-02 7.4027836717878526e-01 5.6224241298637878e-01 -9.5491150809418046e-01 -8.4985531183657192e-01 -7.0255592175429038e-02 -1.9156750729915357e+00 -9.2616564276774760e-01 -1.0716650967104633e+00 1.0739392441426314e+00 -2.1861116675881864e+00 1.3147332671445573e+00 
        </Neuron>
        <Neuron NSynapses="17">
          1.8712476470107122e+00 1.6083772115175781e+00 1.1743913652271440e+00 7.3056457180429091e-01 2.4285340032753938e-01 -1.2885965700357167e+00 -2.1359822842488585e+00 -1.0044288798648082e+00 -8.8692191583608571e-01 1.3921238847416180e+00 -1.7828576917789921e-03 8.4021611963173093e-02 1.5921979992012512e+00 1.0588636694297815e+00 -1.2661873407833446e+00 4.9419203664873929e-01 -1.5861616566655465e+00 
        </Neuron>
        <Neuron NSynapses="17">
          8.2156992323159361e-01 -1.8295342445855722e+00 2.5459936694463392e-01 -4.1318598694741787e-01 8.9714629421916658e-01 -3.2563878643803048e+00 3.0233404702886618e-01 -1.8685483875241620e+00 1.0849844305478855e-02 1.2805316323411060e+00 -6.0609595378723746e-01 5.3927957975088003e-01 -1.7555271480233718e+00 1.0753838064343162e+00 -5.4999185151684649e-01 7.8649478573524523e-01 -1.7166467543166406e+00 
        </Neuron>
        <Neuron NSynapses="17">
          -1.0051247078545065e+00 1.9379177743134908e+00 -2.0888185482088621e+00 -1.1259035645658515e+00 -7.8737267858350068e-01 1.3228274287422901e+00 1.5052493823331028e+00 1.8188815889800460e+00 -1.9229467435396737e+00 7.5232277292257088e-01 4.7509620882888098e-01 2.8623079247975025e-01 -1.2443791605627434e+00 -1.3624718102369613e+00 2.9979757983029109e-01 -1.5855015196283970e-01 1.8294694971977805e+00 
        </Neuron>
      </Layer>
      <Layer Index="2" NNeurons="18">
        <Neuron NSynapses="1">
          -2.1843194175418933e-02 
        </Neuron>
        <Neuron NSynapses="1">
          -1.3128048229744784e-02 
        </Neuron>
        <Neuron NSynapses="1">
          -4.3283647596384665e-02 
        </Neuron>
        <Neuron NSynapses="1">
          6.6564998605377883e-03 
        </Neuron>
        <Neuron NSynapses="1">
          -4.2808935838024318e-03 
        </Neuron>
        <Neuron NSynapses="1">
          -9.8351546994762695e-01 
        </Neuron>
        <Neuron NSynapses="1">
          1.7177619338463578e-02 
        </Neuron>
        <Neuron NSynapses="1">
          1.7271663947147672e-02 
        </Neuron>
        <Neuron NSynapses="1">
          -2.8063676978339933e-02 
        </Neuron>
        <Neuron NSynapses="1">
          1.5191293004525564e-02 
        </Neuron>
        <Neuron NSynapses="1">
          2.1162771492837869e-03 
        </Neuron>
        <Neuron NSynapses="1">
          9.3887923899797754e-04 
        </Neuron>
        <Neuron NSynapses="1">
          -4.7592796120105973e-02 
        </Neuron>
        <Neuron NSynapses="1">
          -2.2060547446818642e-03 
        </Neuron>
        <Neuron NSynapses="1">
          5.8139473856394100e-03 
        </Neuron>
        <Neuron NSynapses="1">
          -1.6844913476156919e-02 
        </Neuron>
        <Neuron NSynapses="1">
          -1.0456770968206588e-02 
        </Neuron>
        <Neuron NSynapses="1">
          7.6940092417101191e-01 
        </Neuron>
      </Layer>
      <Layer Index="3" NNeurons="1">
        <Neuron NSynapses="0"/>
      </Layer>
    </Layout>
  </Weights>
</MethodSetup>
