<?xml version="1.0"?>
<MethodSetup Method="MLP::XS_50_115_0_n2n">
  <GeneralInfo>
    <Info name="TMVA Release" value="4.2.1 [262657]"/>
    <Info name="ROOT Release" value="6.06/02 [394754]"/>
    <Info name="Creator" value="mouginot"/>
    <Info name="Date" value="Thu Feb 23 04:03:03 2017"/>
    <Info name="Host" value="Linux e300.chtc.wisc.edu 2.6.32-642.13.1.el6.x86_64 #1 SMP Tue Jan 10 11:22:50 CST 2017 x86_64 x86_64 x86_64 GNU/Linux"/>
    <Info name="Dir" value="/mnt/gluster/mouginot/TRU_MOX_XS/Generate"/>
    <Info name="Training events" value="198960"/>
    <Info name="TrainingTime" value="2.54203358e+04"/>
    <Info name="AnalysisType" value="Regression"/>
  </GeneralInfo>
  <Options>
    <Option name="NCycles" modified="Yes">20000</Option>
    <Option name="HiddenLayers" modified="Yes">N,N</Option>
    <Option name="NeuronType" modified="Yes">tanh</Option>
    <Option name="RandomSeed" modified="No">1</Option>
    <Option name="EstimatorType" modified="No">MSE</Option>
    <Option name="NeuronInputType" modified="No">sum</Option>
    <Option name="V" modified="Yes">False</Option>
    <Option name="VerbosityLevel" modified="No">Default</Option>
    <Option name="VarTransform" modified="Yes">Norm</Option>
    <Option name="H" modified="Yes">False</Option>
    <Option name="CreateMVAPdfs" modified="No">False</Option>
    <Option name="IgnoreNegWeightsInTraining" modified="No">False</Option>
    <Option name="TrainingMethod" modified="Yes">BFGS</Option>
    <Option name="LearningRate" modified="No">2.000000e-02</Option>
    <Option name="DecayRate" modified="No">1.000000e-02</Option>
    <Option name="TestRate" modified="Yes">6</Option>
    <Option name="EpochMonitoring" modified="No">False</Option>
    <Option name="Sampling" modified="Yes">3.000000e-01</Option>
    <Option name="SamplingEpoch" modified="Yes">8.000000e-01</Option>
    <Option name="SamplingImportance" modified="No">1.000000e+00</Option>
    <Option name="SamplingTraining" modified="No">True</Option>
    <Option name="SamplingTesting" modified="No">False</Option>
    <Option name="ResetStep" modified="No">50</Option>
    <Option name="Tau" modified="No">3.000000e+00</Option>
    <Option name="BPMode" modified="No">sequential</Option>
    <Option name="BatchSize" modified="No">-1</Option>
    <Option name="ConvergenceImprove" modified="Yes">1.000000e-06</Option>
    <Option name="ConvergenceTests" modified="Yes">15</Option>
    <Option name="UseRegulator" modified="Yes">False</Option>
    <Option name="UpdateLimit" modified="No">10000</Option>
    <Option name="CalculateErrors" modified="No">False</Option>
    <Option name="WeightRange" modified="No">1.000000e+00</Option>
  </Options>
  <Variables NVar="17">
    <Variable VarIndex="0" Expression="235U" Label="235U" Title="235U" Unit="IsotopicFraction" Internal="235U" Type="F" Min="1.71346517e-06" Max="1.92414057e-02"/>
    <Variable VarIndex="1" Expression="238U" Label="238U" Title="238U" Unit="IsotopicFraction" Internal="238U" Type="F" Min="7.85399854e-01" Max="9.68733251e-01"/>
    <Variable VarIndex="2" Expression="237Np" Label="237Np" Title="237Np" Unit="IsotopicFraction" Internal="237Np" Type="F" Min="1.63990119e-08" Max="1.97294168e-04"/>
    <Variable VarIndex="3" Expression="238Pu" Label="238Pu" Title="238Pu" Unit="IsotopicFraction" Internal="238Pu" Type="F" Min="4.69728775e-07" Max="3.96428024e-03"/>
    <Variable VarIndex="4" Expression="239Pu" Label="239Pu" Title="239Pu" Unit="IsotopicFraction" Internal="239Pu" Type="F" Min="2.15940680e-02" Max="1.89886928e-01"/>
    <Variable VarIndex="5" Expression="240Pu" Label="240Pu" Title="240Pu" Unit="IsotopicFraction" Internal="240Pu" Type="F" Min="1.54567579e-06" Max="3.95636074e-02"/>
    <Variable VarIndex="6" Expression="241Pu" Label="241Pu" Title="241Pu" Unit="IsotopicFraction" Internal="241Pu" Type="F" Min="3.22813172e-08" Max="7.04628276e-03"/>
    <Variable VarIndex="7" Expression="242Pu" Label="242Pu" Title="242Pu" Unit="IsotopicFraction" Internal="242Pu" Type="F" Min="1.58277174e-07" Max="1.98803633e-03"/>
    <Variable VarIndex="8" Expression="241Am" Label="241Am" Title="241Am" Unit="IsotopicFraction" Internal="241Am" Type="F" Min="3.13082671e-10" Max="7.48056592e-03"/>
    <Variable VarIndex="9" Expression="242Amm" Label="242Amm" Title="242Amm" Unit="IsotopicFraction" Internal="242Amm" Type="F" Min="1.34159976e-07" Max="1.16249369e-02"/>
    <Variable VarIndex="10" Expression="243Am" Label="243Am" Title="243Am" Unit="IsotopicFraction" Internal="243Am" Type="F" Min="2.04390229e-08" Max="1.99559363e-04"/>
    <Variable VarIndex="11" Expression="242Cm" Label="242Cm" Title="242Cm" Unit="IsotopicFraction" Internal="242Cm" Type="F" Min="1.48285639e-09" Max="1.93909858e-04"/>
    <Variable VarIndex="12" Expression="243Cm" Label="243Cm" Title="243Cm" Unit="IsotopicFraction" Internal="243Cm" Type="F" Min="9.09117492e-09" Max="1.97552916e-04"/>
    <Variable VarIndex="13" Expression="244Cm" Label="244Cm" Title="244Cm" Unit="IsotopicFraction" Internal="244Cm" Type="F" Min="2.46570231e-09" Max="1.97112051e-04"/>
    <Variable VarIndex="14" Expression="245Cm" Label="245Cm" Title="245Cm" Unit="IsotopicFraction" Internal="245Cm" Type="F" Min="9.47205692e-09" Max="1.97873349e-04"/>
    <Variable VarIndex="15" Expression="246Cm" Label="246Cm" Title="246Cm" Unit="IsotopicFraction" Internal="246Cm" Type="F" Min="2.33963915e-09" Max="1.98596885e-04"/>
    <Variable VarIndex="16" Expression="Time" Label="Time" Title="Time" Unit="seconds" Internal="Time" Type="F" Min="0.00000000e+00" Max="1.89328320e+08"/>
  </Variables>
  <Spectators NSpec="0"/>
  <Classes NClass="1">
    <Class Name="Regression" Index="0"/>
  </Classes>
  <Targets NTrgt="1">
    <Target TargetIndex="0" Expression="XS_50_115_0_n2n" Label="XS_50_115_0_n2n" Title="XS_50_115_0_n2n" Unit="" Internal="XS_50_115_0_n2n" Type="F" Min="1.29717344e-03" Max="2.22863234e-03"/>
  </Targets>
  <Transformations NTransformations="1">
    <Transform Name="Normalize">
      <Selection>
        <Input NInputs="18">
          <Input Type="Variable" Label="235U" Expression="235U"/>
          <Input Type="Variable" Label="238U" Expression="238U"/>
          <Input Type="Variable" Label="237Np" Expression="237Np"/>
          <Input Type="Variable" Label="238Pu" Expression="238Pu"/>
          <Input Type="Variable" Label="239Pu" Expression="239Pu"/>
          <Input Type="Variable" Label="240Pu" Expression="240Pu"/>
          <Input Type="Variable" Label="241Pu" Expression="241Pu"/>
          <Input Type="Variable" Label="242Pu" Expression="242Pu"/>
          <Input Type="Variable" Label="241Am" Expression="241Am"/>
          <Input Type="Variable" Label="242Amm" Expression="242Amm"/>
          <Input Type="Variable" Label="243Am" Expression="243Am"/>
          <Input Type="Variable" Label="242Cm" Expression="242Cm"/>
          <Input Type="Variable" Label="243Cm" Expression="243Cm"/>
          <Input Type="Variable" Label="244Cm" Expression="244Cm"/>
          <Input Type="Variable" Label="245Cm" Expression="245Cm"/>
          <Input Type="Variable" Label="246Cm" Expression="246Cm"/>
          <Input Type="Variable" Label="Time" Expression="Time"/>
          <Input Type="Target" Label="XS_50_115_0_n2n" Expression="XS_50_115_0_n2n"/>
        </Input>
        <Output NOutputs="18">
          <Output Type="Variable" Label="235U" Expression="235U"/>
          <Output Type="Variable" Label="238U" Expression="238U"/>
          <Output Type="Variable" Label="237Np" Expression="237Np"/>
          <Output Type="Variable" Label="238Pu" Expression="238Pu"/>
          <Output Type="Variable" Label="239Pu" Expression="239Pu"/>
          <Output Type="Variable" Label="240Pu" Expression="240Pu"/>
          <Output Type="Variable" Label="241Pu" Expression="241Pu"/>
          <Output Type="Variable" Label="242Pu" Expression="242Pu"/>
          <Output Type="Variable" Label="241Am" Expression="241Am"/>
          <Output Type="Variable" Label="242Amm" Expression="242Amm"/>
          <Output Type="Variable" Label="243Am" Expression="243Am"/>
          <Output Type="Variable" Label="242Cm" Expression="242Cm"/>
          <Output Type="Variable" Label="243Cm" Expression="243Cm"/>
          <Output Type="Variable" Label="244Cm" Expression="244Cm"/>
          <Output Type="Variable" Label="245Cm" Expression="245Cm"/>
          <Output Type="Variable" Label="246Cm" Expression="246Cm"/>
          <Output Type="Variable" Label="Time" Expression="Time"/>
          <Output Type="Target" Label="XS_50_115_0_n2n" Expression="XS_50_115_0_n2n"/>
        </Output>
      </Selection>
      <Class ClassIndex="0">
        <Ranges>
          <Range Index="0" Min="1.7134651670858148e-06" Max="1.9241405650973320e-02"/>
          <Range Index="1" Min="7.8539985418319702e-01" Max="9.6873325109481812e-01"/>
          <Range Index="2" Min="1.6399011926182538e-08" Max="1.9729416817426682e-04"/>
          <Range Index="3" Min="4.6972877498774324e-07" Max="3.9642802439630032e-03"/>
          <Range Index="4" Min="2.1594068035483360e-02" Max="1.8988692760467529e-01"/>
          <Range Index="5" Min="1.5456757864740212e-06" Max="3.9563607424497604e-02"/>
          <Range Index="6" Min="3.2281317174920332e-08" Max="7.0462827570736408e-03"/>
          <Range Index="7" Min="1.5827717447791656e-07" Max="1.9880363252013922e-03"/>
          <Range Index="8" Min="3.1308267089968922e-10" Max="7.4805659241974354e-03"/>
          <Range Index="9" Min="1.3415997557331139e-07" Max="1.1624936945736408e-02"/>
          <Range Index="10" Min="2.0439022918594674e-08" Max="1.9955936295446008e-04"/>
          <Range Index="11" Min="1.4828563932312022e-09" Max="1.9390985835343599e-04"/>
          <Range Index="12" Min="9.0911749239808159e-09" Max="1.9755291577894241e-04"/>
          <Range Index="13" Min="2.4657023089957875e-09" Max="1.9711205095518380e-04"/>
          <Range Index="14" Min="9.4720569165929192e-09" Max="1.9787334895227104e-04"/>
          <Range Index="15" Min="2.3396391490848600e-09" Max="1.9859688472934067e-04"/>
          <Range Index="16" Min="0.0000000000000000e+00" Max="1.8932832000000000e+08"/>
          <Range Index="17" Min="1.2971734395250678e-03" Max="2.2286323364824057e-03"/>
        </Ranges>
      </Class>
    </Transform>
  </Transformations>
  <MVAPdfs/>
  <Weights>
    <Layout NLayers="4">
      <Layer Index="0" NNeurons="18">
        <Neuron NSynapses="17">
          -2.7657219204121658e-01 1.3919334776839449e+00 9.5080521234831028e-01 1.6524052522660120e+00 -1.8357038209916856e+00 -1.4690141323484940e+00 -6.9504602416010597e-01 1.8063468416716508e+00 -1.4053325174702020e+00 -1.2115661866375596e+00 -1.4841482330285893e+00 -6.9385402636999605e-01 -1.1434321627803445e+00 -3.5952551560423829e-01 -2.6066254562804331e-01 4.4454639122410777e-01 -4.3895998000567055e-01 
        </Neuron>
        <Neuron NSynapses="17">
          1.8500255963665730e+00 1.0386385917904555e+00 2.0614001555197441e+00 -2.6397354145442870e-01 -7.3032935677033772e-01 2.9582186724690357e-01 2.0621905558489259e-01 -1.2830227358498967e+00 -4.7627011615012627e-01 1.4908541649047218e+00 -8.4225876816411804e-01 -2.2438138498251283e+00 2.5472961100731446e-02 5.7057940579487121e-01 1.0415284470916935e+00 7.3821348197154169e-01 3.7084740863843474e-01 
        </Neuron>
        <Neuron NSynapses="17">
          1.7062358975764108e-01 -3.0754966947025575e-01 -1.2758706800445163e+00 1.6477457459829556e+00 -1.4367204963586939e+00 9.6381674632130432e-01 1.3477233640265933e+00 8.1338990631344121e-01 1.7346644213423326e+00 1.3740107001355277e+00 -6.1916386316836780e-01 -1.3156022866349408e+00 7.1447824095094847e-01 -2.3861806404209546e-01 1.7630996676951496e+00 1.1876728986918781e+00 1.4532313404220663e+00 
        </Neuron>
        <Neuron NSynapses="17">
          1.3136734122771394e+00 -1.3627361250788299e+00 1.6590574246422278e+00 -1.7212405210127486e+00 -1.0897441282054725e+00 -1.5144217523596109e+00 -1.3804940502975562e+00 1.2291549288390538e+00 5.1206122905081208e-01 -1.5768527958442766e+00 4.4162004990853154e-01 -6.2832911871269936e-01 6.8272478646155887e-01 1.1569110196213974e+00 -2.0073006978368758e-02 2.2710389038819931e-01 -7.2465445790827232e-01 
        </Neuron>
        <Neuron NSynapses="17">
          6.8286637613795598e-01 -1.4650906731174071e+00 -1.1900832823072813e+00 -1.4718065973521017e+00 6.1747544971355617e-01 1.4481595478121017e+00 1.3349693780377154e+00 -3.0079979376364341e-01 -1.7830854283872188e+00 -1.8165564320311518e+00 8.1954108499454237e-01 8.0183337525041654e-01 2.0230178885400174e+00 5.8299226027214734e-01 1.5276981181237577e+00 -1.6405300985487508e+00 -1.2717977770659308e+00 
        </Neuron>
        <Neuron NSynapses="17">
          -1.2245121809464977e-02 9.2218151151373784e-01 -8.5585759413711371e-01 -1.4911158276787038e+00 -1.9435984863743607e+00 -2.9188147564983880e-01 3.3563242040400082e-01 1.6216000287590786e+00 -1.5661074438853382e+00 -8.4105005902429930e-01 1.6879128394699110e+00 -9.3192275522908030e-01 -1.5370743870246573e+00 -1.8647459115784930e+00 3.9166078623126360e-01 -1.9466304405143637e+00 -1.2149488755007725e+00 
        </Neuron>
        <Neuron NSynapses="17">
          8.1108316969051375e-01 1.8199789060481162e+00 -5.8261020411393827e-01 1.7134665737188262e+00 -1.2666804833005150e+00 -1.0817131151057038e+00 3.5767895581875364e-01 1.1942104603924216e-02 -2.0134231732565082e+00 3.5193897096445237e-01 4.7217099784730632e-01 2.0334454761122964e-01 -1.5119616481897826e+00 1.0924415621800878e+00 5.8057519280831638e-01 -6.1785563722699999e-01 1.2829866565756383e+00 
        </Neuron>
        <Neuron NSynapses="17">
          -9.8951820600566420e-01 -1.3141127901778422e+00 4.1455735152465240e-01 -3.1389547844105692e-01 1.5064786697319119e+00 6.4973489818848418e-01 2.8944694483822014e-01 -5.5401492291591892e-01 9.1414462929345727e-02 -1.6781342097073451e+00 1.0433674550687606e+00 -1.5520431361322836e-02 -1.7837040993410691e+00 1.1509556155689993e-01 -1.0918188726023095e+00 5.2131701156266225e-02 1.2813149245048330e+00 
        </Neuron>
        <Neuron NSynapses="17">
          1.9041444024143093e+00 -1.6651080415378516e+00 9.3243099300188281e-01 1.6384075987449682e+00 1.1481367078576910e+00 -1.8103786046740383e-01 -8.7958441139825294e-01 -2.9383496401710857e-01 -1.5793360326594337e+00 1.6189014081152011e+00 1.4162115307256733e+00 -4.1634585507025251e-01 -5.5884444398015376e-01 -4.8029773333715675e-01 -1.0548108714627440e+00 8.2957713509490605e-01 2.1864403043679594e+00 
        </Neuron>
        <Neuron NSynapses="17">
          -5.2413119335447600e-01 -8.4886371501099100e-01 4.0932002863799688e-01 1.1532052657795153e+00 2.7860344243173663e-01 9.8571054914724210e-01 -9.4560045904187440e-01 1.4599112179547311e+00 5.0756467801882876e-01 4.1965600365460082e-01 6.3427028118350803e-01 1.1583355386221315e+00 -7.1261279548489997e-01 -8.6870280072104089e-01 1.6264225068641547e+00 -1.2013202495833439e+00 -3.1627941341816102e-01 
        </Neuron>
        <Neuron NSynapses="17">
          1.4863161354979251e+00 7.2560840754390854e-01 -2.2131071462680585e-01 1.4032238358113853e+00 1.5770799034360052e+00 -1.8545099808718486e+00 8.5015006577945962e-01 -1.6547031409897880e-01 3.7502185335616367e-01 -1.6613721483137882e+00 -1.4403353199738136e+00 9.8068450248790673e-01 1.6965674023920418e+00 -1.9245950146238542e+00 1.3897711224690523e-01 -8.2759012944200305e-01 2.2894011754489318e-01 
        </Neuron>
        <Neuron NSynapses="17">
          1.7785097351050481e+00 -3.9350403556444757e-02 -6.9402631120235453e-03 -1.0284255307911072e+00 7.7752874130162619e-01 1.4510659903586669e+00 1.2975045395563631e+00 6.0035019335090110e-02 -8.3596185398557687e-01 -1.9265224787966337e+00 1.1123083228287354e+00 2.8544442776840251e-01 -1.3415264047862967e+00 -1.2775203076716914e+00 4.8953966402568150e-01 2.9361833837585827e-01 -1.5489658914958906e+00 
        </Neuron>
        <Neuron NSynapses="17">
          1.7813618173733774e+00 1.0995399352100301e+00 -1.1500799607258074e-02 -3.4400876410189171e-02 1.3828401156192494e+00 8.8115066508304862e-01 8.8795521206823780e-01 -3.2663222449017887e-01 -1.8830794783965419e+00 -8.4641988425451631e-01 1.8176682629519365e+00 8.6799761799685748e-01 8.1799168636559694e-01 -3.3046504477324468e-01 2.1238298772953810e+00 -1.2787618423954881e+00 -8.1259888072158681e-01 
        </Neuron>
        <Neuron NSynapses="17">
          -2.4112998344552671e-02 -1.3555346161276172e+00 1.1779089419921922e+00 1.7744370775011380e+00 -1.4654499221431281e+00 6.7490953174739632e-01 5.1747555193860546e-02 -2.0801209379691756e+00 -1.1610340184763721e+00 1.0757553385752019e+00 6.9583349643778408e-02 6.8958792757538545e-01 -1.1849687938542883e+00 1.0666547555637838e+00 -1.4673657635478197e+00 8.4042548946219997e-01 2.9772641556298823e-01 
        </Neuron>
        <Neuron NSynapses="17">
          -1.3822520074082931e+00 -1.4630151639730931e+00 -1.6612136994654128e+00 -3.3969935627363212e-01 -2.1913550258743011e+00 -1.6137194739467104e+00 -1.4905726477463124e+00 1.2494205746321846e-01 -1.0435508208751825e+00 -1.6240972933106015e+00 1.4030304142241403e+00 -5.0783087575457531e-01 9.1959496667626608e-02 -1.3720196467014154e+00 5.7483438522480246e-01 1.5061004094035493e+00 1.4126243244063716e+00 
        </Neuron>
        <Neuron NSynapses="17">
          -8.3174803098708039e-01 -1.0972790046996368e+00 -6.5786942991989894e-01 -9.2795430022203007e-01 -1.8654573378433377e+00 1.5742022158916422e-01 5.1778746927208408e-01 1.5935717318734668e+00 -3.3613326948771499e-01 3.0847937252216595e-01 -4.7091831073996426e-01 -2.0067073527751860e+00 1.3273035305523853e+00 6.1671436153156034e-01 -6.4562229919919800e-01 -8.9255078028431512e-01 1.0743006653442413e+00 
        </Neuron>
        <Neuron NSynapses="17">
          1.2189331659872951e+00 7.8520989538328378e-01 -9.7326956650689661e-02 -3.3430545589754923e-01 1.3175758463926484e+00 8.2812052387673296e-01 6.4057382446666733e-01 -5.8043676436820490e-01 2.0477498614733386e-01 -1.6413646532921697e-01 -1.2976625110261586e+00 -9.1869418660919411e-01 -1.6149915131051329e+00 -1.5506864196056267e+00 -1.4931050697819164e+00 2.1985292003055124e+00 -1.3652352605697542e+00 
        </Neuron>
        <Neuron NSynapses="17">
          1.3684611299752576e+00 -2.2223050648825491e+00 -1.0471810710869967e-01 -1.2849572716486799e+00 1.0817176727700866e+00 1.5000240679227228e+00 -2.8147341919317777e+00 5.8419440482760387e-01 1.0639022035659429e+00 -1.9644985834899718e+00 -1.9095906361705848e+00 -1.3238767314521722e+00 -6.3152023217230990e-01 2.9282673559219456e+00 -7.0613860415844698e-01 -6.0851659662956159e-01 -2.0028424598620673e+00 
        </Neuron>
      </Layer>
      <Layer Index="1" NNeurons="18">
        <Neuron NSynapses="17">
          -9.3248933626768371e-01 -1.6667404151259577e+00 -5.8183562817513368e-01 -1.5313871293559627e+00 8.5301631288312241e-01 -1.7984878940598146e+00 -1.2513633548788570e+00 1.3693013727054693e+00 3.6982937153904555e-01 -5.9440923351805508e-01 2.0258775417833652e+00 -1.7065943093946256e+00 1.6273966313953314e+00 1.0076531061228278e+00 -1.1776730645964777e+00 -6.0370537775044963e-01 -1.5391114257454042e-01 
        </Neuron>
        <Neuron NSynapses="17">
          -1.0714683852674014e+00 4.7149387971414858e-01 1.5948377638411804e+00 1.3577094451472684e+00 1.7776822248119006e+00 -1.5481431384179070e+00 1.1385095291630953e+00 -2.0572803657745760e+00 5.4665346550818927e-01 -1.6019260923507206e+00 -2.0596125905810179e+00 2.5152061087334067e-02 1.2555090537685047e+00 3.4473875885264205e-01 9.7171483284930382e-01 4.6556005177335669e-01 -2.0601478119410754e-01 
        </Neuron>
        <Neuron NSynapses="17">
          -6.1542390149314385e-01 9.5766227729311704e-02 1.8696646627861195e+00 -1.4351721007437621e+00 5.5381239908191748e-01 -1.7586102803981014e+00 -3.7703221353327904e-01 2.9789221279371503e-01 -2.4207169935913906e-02 -1.2223494861943105e+00 7.3752844258127570e-01 1.7157242714745260e+00 7.6415017018021225e-01 -1.0025920203814263e-01 -6.9567832560380083e-01 -1.3985885402766929e+00 -1.6002992428316849e+00 
        </Neuron>
        <Neuron NSynapses="17">
          1.0926265374968651e+00 -5.3747596918003671e-01 -6.8882483690722041e-01 3.1214320618239039e-01 -1.8623266296878733e+00 -1.6583162846004069e+00 -1.7283835572497528e+00 6.4190282581875036e-01 -1.2973239145056001e+00 -1.6658070834312009e+00 -4.8405595150615316e-01 -9.1099225949895990e-01 -1.6299273500126439e+00 1.2637616644046983e+00 -1.5542658777652574e+00 -1.2237239890130633e+00 1.5329473290413442e+00 
        </Neuron>
        <Neuron NSynapses="17">
          5.7292023024446392e-01 3.2946362951038993e-01 -1.0019896550316211e-02 1.3338517450404170e+00 1.8937660294864191e+00 1.1195088382065208e+00 -8.3135472408686439e-01 -3.8956475865313356e-01 -1.7682889318122690e+00 8.7535325366304073e-01 8.1233111246041079e-01 7.6477655392207633e-02 1.1263144235693956e+00 8.1980736519521169e-01 1.5718576800344701e+00 -1.2655550909807562e+00 1.6570499579256648e+00 
        </Neuron>
        <Neuron NSynapses="17">
          7.1251919778183581e-01 -1.9153911125264305e+00 -1.6166628464760679e-01 -9.6539850731107901e-01 9.0461932784162746e-01 7.0558950254454977e-01 1.0119781383336921e+00 1.6636794341203365e+00 -2.8017957220512274e-01 1.5520395265133298e+00 1.8308818035132304e+00 1.9976556879730245e-01 -8.6425152510512981e-01 1.5947076089539878e+00 -2.0942126133000922e+00 6.6327363076955093e-01 1.6791837829616427e+00 
        </Neuron>
        <Neuron NSynapses="17">
          -1.5569842613151699e-01 -7.8163354491231973e-01 2.9904478419992908e-01 -1.2846910103419060e+00 4.0537961272770323e-01 -2.2381301123207913e+00 1.7041111846007087e-01 -6.0359276474648704e-01 1.8198894314628091e+00 1.1544043217052435e+00 1.8882387555063060e+00 -4.1676974311827103e-01 -1.5040380691442626e-01 3.2402388726148784e-01 1.5468111013281416e+00 -1.7076245018271696e+00 -1.4045318539241956e+00 
        </Neuron>
        <Neuron NSynapses="17">
          -6.3874239768389363e-01 -1.4908133848399332e+00 -1.4512107881142378e+00 -1.8102345628367644e+00 4.2817471671022045e-01 3.6852139325096204e-03 -2.0023514703956775e+00 -2.0204609569604068e+00 -2.6979374077204404e-01 1.8347114994825835e+00 1.7922357404473603e+00 1.2810704092158571e+00 -6.2583807350119813e-01 -1.7466001938562552e+00 8.1408131158372130e-02 -1.3762181315338620e+00 -1.4952646188907774e+00 
        </Neuron>
        <Neuron NSynapses="17">
          -8.2007538959976578e-01 1.0903716601027442e-02 -1.8455531729447947e+00 1.4990506383487299e+00 1.2769460176084546e+00 1.2244656869094015e+00 -5.3635086463543358e-01 -3.8369157688223737e-01 1.6359997937512274e+00 -5.7566108111890002e-01 2.2304357217179945e-02 1.5206606310307604e+00 1.5103555015011754e+00 -1.0399547727946050e+00 1.6754634274972087e+00 -2.0183583746376890e+00 1.7565574725004014e+00 
        </Neuron>
        <Neuron NSynapses="17">
          2.1230814428875537e+00 -1.9475062323399717e-01 1.9490518954541186e-01 3.3182656678293987e-01 -2.9466156339078092e-01 2.6553661486892388e-01 5.1556498558807129e-01 -9.7927740569415778e-01 -1.6259345386235886e+00 -8.2819739412045387e-02 1.5443219013670550e+00 4.2632327537283587e-01 -7.2784040118443427e-01 -1.8088989875058130e+00 1.7729657151740170e+00 5.0516168275944950e-01 -1.2098595006041206e+00 
        </Neuron>
        <Neuron NSynapses="17">
          -3.1659207846971726e-01 -1.0135620472393780e+00 1.5315226858036650e+00 1.3814359971189030e+00 -8.7739203321979142e-01 -1.8668085897105366e+00 1.4677064716207939e+00 8.2843302013572018e-01 4.8284860561903836e-01 2.5031793922091272e-01 -9.6519158660452131e-01 -1.2444636547102699e+00 9.1845413796690034e-01 3.9608975706333743e-01 2.2196386750881578e-01 -1.8298080976532742e+00 -1.9549494492628856e+00 
        </Neuron>
        <Neuron NSynapses="17">
          -1.9649078859333049e+00 -3.1425742439906595e-01 -1.4843739878890130e+00 1.8224547243233111e-01 -7.8259493178977579e-01 1.5607638636056993e+00 3.2577485691109809e-01 -1.8959629528915329e+00 1.1730933512226536e+00 2.0526539512372466e+00 1.0210478931331537e+00 -4.5956740353074110e-01 -9.3008324800020159e-01 2.2006479331923363e+00 -1.4606903822861648e+00 3.7330252263223523e-01 -1.4339315392117491e+00 
        </Neuron>
        <Neuron NSynapses="17">
          6.6171293904902917e-01 -1.1604930762288277e+00 1.1443356621218359e-01 -1.2058166974441661e-01 1.6756762123755795e-01 4.2640788304000976e-01 -9.6058519532279973e-01 1.1444419016966136e+00 5.7287083125702698e-01 8.9822136224331772e-01 9.3285957736128455e-01 -1.7763560134306284e+00 9.4302604661989498e-01 -1.7758605845167963e+00 1.1186069660976561e+00 7.3117518718748153e-01 7.2724674960079194e-01 
        </Neuron>
        <Neuron NSynapses="17">
          1.4851517341805793e+00 1.4663703781381792e+00 -1.9206948205693342e+00 -6.5865323077544724e-01 -9.4585566011861144e-01 1.0219431702739563e+00 2.9605921206900712e-02 -1.5918437916366165e-01 -5.8017483460909069e-01 -7.0169807275473983e-01 -9.5492245388981389e-01 -3.7247217558991175e-01 -1.7709113601695343e+00 -2.7019440980888249e-01 2.7677939050868938e-01 -6.1664328186716033e-01 -1.2875045957056384e+00 
        </Neuron>
        <Neuron NSynapses="17">
          1.3623158521998605e-01 2.5695431566501992e-01 -1.4394088818253101e-01 -1.1632727560148532e+00 1.6742041633468747e+00 -8.0745200064049755e-02 5.9724820247319754e-01 6.2133088722424723e-01 -9.4229443088158704e-01 -6.8545485533385186e-01 -1.0969858074557635e-01 -1.9944538606472828e+00 -1.0345561601415769e+00 -1.0426149465984071e+00 1.0827597689300887e+00 -2.1803724519259950e+00 1.2922861560873788e+00 
        </Neuron>
        <Neuron NSynapses="17">
          2.0014227984955668e+00 1.5935702946734456e+00 9.7041503434409671e-01 7.4941525588133029e-01 3.4334052766759893e-01 -9.8111055936607450e-01 -1.8558797500813522e+00 -1.1144800178674166e+00 -9.3425226057428712e-01 1.2875091912972032e+00 1.7960296804888119e-02 1.0200505371630035e-01 1.5553293308838869e+00 1.0192780690859262e+00 -1.2530905171930169e+00 5.0906317404835888e-01 -1.5879690365034069e+00 
        </Neuron>
        <Neuron NSynapses="17">
          8.6989355733215634e-01 -1.8478944204194949e+00 3.7513957602065284e-01 -3.7848171998688174e-01 8.2828827026329577e-01 -2.1894866242069058e+00 1.5862850855073640e-01 -1.9244412954014483e+00 -2.2096585149362809e-02 1.3669287262955010e+00 -5.8685907205948229e-01 5.6743976848253730e-01 -1.9028969282457102e+00 1.1097186276143332e+00 -5.4460308478180464e-01 6.7356491942476082e-01 -1.7852441480532026e+00 
        </Neuron>
        <Neuron NSynapses="17">
          -1.1956137230841568e+00 1.9535678161213061e+00 -2.4241928201726588e+00 -1.1175241429527456e+00 -7.6936989710212644e-01 2.5404899683437097e+00 1.5388890148105816e+00 2.0309136901642986e+00 -1.8046291264307621e+00 7.4518951018941670e-01 4.6888487264506856e-01 2.0658566400286832e-01 -1.2307863375010200e+00 -1.4169485534181259e+00 2.9250265204233489e-01 -2.2521593630534856e-01 1.8405488544349857e+00 
        </Neuron>
      </Layer>
      <Layer Index="2" NNeurons="18">
        <Neuron NSynapses="1">
          -3.3575838455073295e-02 
        </Neuron>
        <Neuron NSynapses="1">
          -8.5007832188940275e-03 
        </Neuron>
        <Neuron NSynapses="1">
          -1.9540921822566190e-01 
        </Neuron>
        <Neuron NSynapses="1">
          3.8123497215525786e-03 
        </Neuron>
        <Neuron NSynapses="1">
          -2.3272726388623849e-02 
        </Neuron>
        <Neuron NSynapses="1">
          -6.7900613201616034e-01 
        </Neuron>
        <Neuron NSynapses="1">
          3.0986140900995962e-03 
        </Neuron>
        <Neuron NSynapses="1">
          2.4214276123062921e-02 
        </Neuron>
        <Neuron NSynapses="1">
          1.0435164942965336e-02 
        </Neuron>
        <Neuron NSynapses="1">
          4.5616607154925576e-02 
        </Neuron>
        <Neuron NSynapses="1">
          1.0295258070611676e-02 
        </Neuron>
        <Neuron NSynapses="1">
          -1.7030501096446441e-02 
        </Neuron>
        <Neuron NSynapses="1">
          -5.9883418993324271e-02 
        </Neuron>
        <Neuron NSynapses="1">
          -7.4028351222763305e-03 
        </Neuron>
        <Neuron NSynapses="1">
          -1.0823615475315123e-03 
        </Neuron>
        <Neuron NSynapses="1">
          -2.7865849395188720e-02 
        </Neuron>
        <Neuron NSynapses="1">
          -2.3021336718623400e-02 
        </Neuron>
        <Neuron NSynapses="1">
          5.8022605616049083e-01 
        </Neuron>
      </Layer>
      <Layer Index="3" NNeurons="1">
        <Neuron NSynapses="0"/>
      </Layer>
    </Layout>
  </Weights>
</MethodSetup>
