<?xml version="1.0"?>
<MethodSetup Method="MLP::XS_94_240_0_fis">
  <GeneralInfo>
    <Info name="TMVA Release" value="4.2.1 [262657]"/>
    <Info name="ROOT Release" value="6.06/02 [394754]"/>
    <Info name="Creator" value="mouginot"/>
    <Info name="Date" value="Wed Feb 22 18:41:10 2017"/>
    <Info name="Host" value="Linux e300.chtc.wisc.edu 2.6.32-642.13.1.el6.x86_64 #1 SMP Tue Jan 10 11:22:50 CST 2017 x86_64 x86_64 x86_64 GNU/Linux"/>
    <Info name="Dir" value="/mnt/gluster/mouginot/TRU_MOX_XS/Generate"/>
    <Info name="Training events" value="198960"/>
    <Info name="TrainingTime" value="2.48366330e+04"/>
    <Info name="AnalysisType" value="Regression"/>
  </GeneralInfo>
  <Options>
    <Option name="NCycles" modified="Yes">20000</Option>
    <Option name="HiddenLayers" modified="Yes">N,N</Option>
    <Option name="NeuronType" modified="Yes">tanh</Option>
    <Option name="RandomSeed" modified="No">1</Option>
    <Option name="EstimatorType" modified="No">MSE</Option>
    <Option name="NeuronInputType" modified="No">sum</Option>
    <Option name="V" modified="Yes">False</Option>
    <Option name="VerbosityLevel" modified="No">Default</Option>
    <Option name="VarTransform" modified="Yes">Norm</Option>
    <Option name="H" modified="Yes">False</Option>
    <Option name="CreateMVAPdfs" modified="No">False</Option>
    <Option name="IgnoreNegWeightsInTraining" modified="No">False</Option>
    <Option name="TrainingMethod" modified="Yes">BFGS</Option>
    <Option name="LearningRate" modified="No">2.000000e-02</Option>
    <Option name="DecayRate" modified="No">1.000000e-02</Option>
    <Option name="TestRate" modified="Yes">6</Option>
    <Option name="EpochMonitoring" modified="No">False</Option>
    <Option name="Sampling" modified="Yes">3.000000e-01</Option>
    <Option name="SamplingEpoch" modified="Yes">8.000000e-01</Option>
    <Option name="SamplingImportance" modified="No">1.000000e+00</Option>
    <Option name="SamplingTraining" modified="No">True</Option>
    <Option name="SamplingTesting" modified="No">False</Option>
    <Option name="ResetStep" modified="No">50</Option>
    <Option name="Tau" modified="No">3.000000e+00</Option>
    <Option name="BPMode" modified="No">sequential</Option>
    <Option name="BatchSize" modified="No">-1</Option>
    <Option name="ConvergenceImprove" modified="Yes">1.000000e-06</Option>
    <Option name="ConvergenceTests" modified="Yes">15</Option>
    <Option name="UseRegulator" modified="Yes">False</Option>
    <Option name="UpdateLimit" modified="No">10000</Option>
    <Option name="CalculateErrors" modified="No">False</Option>
    <Option name="WeightRange" modified="No">1.000000e+00</Option>
  </Options>
  <Variables NVar="17">
    <Variable VarIndex="0" Expression="235U" Label="235U" Title="235U" Unit="IsotopicFraction" Internal="235U" Type="F" Min="1.71346517e-06" Max="1.92414057e-02"/>
    <Variable VarIndex="1" Expression="238U" Label="238U" Title="238U" Unit="IsotopicFraction" Internal="238U" Type="F" Min="7.85399854e-01" Max="9.68733251e-01"/>
    <Variable VarIndex="2" Expression="237Np" Label="237Np" Title="237Np" Unit="IsotopicFraction" Internal="237Np" Type="F" Min="1.63990119e-08" Max="1.97294168e-04"/>
    <Variable VarIndex="3" Expression="238Pu" Label="238Pu" Title="238Pu" Unit="IsotopicFraction" Internal="238Pu" Type="F" Min="4.69728775e-07" Max="3.96428024e-03"/>
    <Variable VarIndex="4" Expression="239Pu" Label="239Pu" Title="239Pu" Unit="IsotopicFraction" Internal="239Pu" Type="F" Min="2.15940680e-02" Max="1.89886928e-01"/>
    <Variable VarIndex="5" Expression="240Pu" Label="240Pu" Title="240Pu" Unit="IsotopicFraction" Internal="240Pu" Type="F" Min="1.54567579e-06" Max="3.95636074e-02"/>
    <Variable VarIndex="6" Expression="241Pu" Label="241Pu" Title="241Pu" Unit="IsotopicFraction" Internal="241Pu" Type="F" Min="3.22813172e-08" Max="7.04628276e-03"/>
    <Variable VarIndex="7" Expression="242Pu" Label="242Pu" Title="242Pu" Unit="IsotopicFraction" Internal="242Pu" Type="F" Min="1.58277174e-07" Max="1.98803633e-03"/>
    <Variable VarIndex="8" Expression="241Am" Label="241Am" Title="241Am" Unit="IsotopicFraction" Internal="241Am" Type="F" Min="3.13082671e-10" Max="7.48056592e-03"/>
    <Variable VarIndex="9" Expression="242Amm" Label="242Amm" Title="242Amm" Unit="IsotopicFraction" Internal="242Amm" Type="F" Min="1.34159976e-07" Max="1.16249369e-02"/>
    <Variable VarIndex="10" Expression="243Am" Label="243Am" Title="243Am" Unit="IsotopicFraction" Internal="243Am" Type="F" Min="2.04390229e-08" Max="1.99559363e-04"/>
    <Variable VarIndex="11" Expression="242Cm" Label="242Cm" Title="242Cm" Unit="IsotopicFraction" Internal="242Cm" Type="F" Min="1.48285639e-09" Max="1.93909858e-04"/>
    <Variable VarIndex="12" Expression="243Cm" Label="243Cm" Title="243Cm" Unit="IsotopicFraction" Internal="243Cm" Type="F" Min="9.09117492e-09" Max="1.97552916e-04"/>
    <Variable VarIndex="13" Expression="244Cm" Label="244Cm" Title="244Cm" Unit="IsotopicFraction" Internal="244Cm" Type="F" Min="2.46570231e-09" Max="1.97112051e-04"/>
    <Variable VarIndex="14" Expression="245Cm" Label="245Cm" Title="245Cm" Unit="IsotopicFraction" Internal="245Cm" Type="F" Min="9.47205692e-09" Max="1.97873349e-04"/>
    <Variable VarIndex="15" Expression="246Cm" Label="246Cm" Title="246Cm" Unit="IsotopicFraction" Internal="246Cm" Type="F" Min="2.33963915e-09" Max="1.98596885e-04"/>
    <Variable VarIndex="16" Expression="Time" Label="Time" Title="Time" Unit="seconds" Internal="Time" Type="F" Min="0.00000000e+00" Max="1.89328320e+08"/>
  </Variables>
  <Spectators NSpec="0"/>
  <Classes NClass="1">
    <Class Name="Regression" Index="0"/>
  </Classes>
  <Targets NTrgt="1">
    <Target TargetIndex="0" Expression="XS_94_240_0_fis" Label="XS_94_240_0_fis" Title="XS_94_240_0_fis" Unit="" Internal="XS_94_240_0_fis" Type="F" Min="5.86369812e-01" Max="7.21463263e-01"/>
  </Targets>
  <Transformations NTransformations="1">
    <Transform Name="Normalize">
      <Selection>
        <Input NInputs="18">
          <Input Type="Variable" Label="235U" Expression="235U"/>
          <Input Type="Variable" Label="238U" Expression="238U"/>
          <Input Type="Variable" Label="237Np" Expression="237Np"/>
          <Input Type="Variable" Label="238Pu" Expression="238Pu"/>
          <Input Type="Variable" Label="239Pu" Expression="239Pu"/>
          <Input Type="Variable" Label="240Pu" Expression="240Pu"/>
          <Input Type="Variable" Label="241Pu" Expression="241Pu"/>
          <Input Type="Variable" Label="242Pu" Expression="242Pu"/>
          <Input Type="Variable" Label="241Am" Expression="241Am"/>
          <Input Type="Variable" Label="242Amm" Expression="242Amm"/>
          <Input Type="Variable" Label="243Am" Expression="243Am"/>
          <Input Type="Variable" Label="242Cm" Expression="242Cm"/>
          <Input Type="Variable" Label="243Cm" Expression="243Cm"/>
          <Input Type="Variable" Label="244Cm" Expression="244Cm"/>
          <Input Type="Variable" Label="245Cm" Expression="245Cm"/>
          <Input Type="Variable" Label="246Cm" Expression="246Cm"/>
          <Input Type="Variable" Label="Time" Expression="Time"/>
          <Input Type="Target" Label="XS_94_240_0_fis" Expression="XS_94_240_0_fis"/>
        </Input>
        <Output NOutputs="18">
          <Output Type="Variable" Label="235U" Expression="235U"/>
          <Output Type="Variable" Label="238U" Expression="238U"/>
          <Output Type="Variable" Label="237Np" Expression="237Np"/>
          <Output Type="Variable" Label="238Pu" Expression="238Pu"/>
          <Output Type="Variable" Label="239Pu" Expression="239Pu"/>
          <Output Type="Variable" Label="240Pu" Expression="240Pu"/>
          <Output Type="Variable" Label="241Pu" Expression="241Pu"/>
          <Output Type="Variable" Label="242Pu" Expression="242Pu"/>
          <Output Type="Variable" Label="241Am" Expression="241Am"/>
          <Output Type="Variable" Label="242Amm" Expression="242Amm"/>
          <Output Type="Variable" Label="243Am" Expression="243Am"/>
          <Output Type="Variable" Label="242Cm" Expression="242Cm"/>
          <Output Type="Variable" Label="243Cm" Expression="243Cm"/>
          <Output Type="Variable" Label="244Cm" Expression="244Cm"/>
          <Output Type="Variable" Label="245Cm" Expression="245Cm"/>
          <Output Type="Variable" Label="246Cm" Expression="246Cm"/>
          <Output Type="Variable" Label="Time" Expression="Time"/>
          <Output Type="Target" Label="XS_94_240_0_fis" Expression="XS_94_240_0_fis"/>
        </Output>
      </Selection>
      <Class ClassIndex="0">
        <Ranges>
          <Range Index="0" Min="1.7134651670858148e-06" Max="1.9241405650973320e-02"/>
          <Range Index="1" Min="7.8539985418319702e-01" Max="9.6873325109481812e-01"/>
          <Range Index="2" Min="1.6399011926182538e-08" Max="1.9729416817426682e-04"/>
          <Range Index="3" Min="4.6972877498774324e-07" Max="3.9642802439630032e-03"/>
          <Range Index="4" Min="2.1594068035483360e-02" Max="1.8988692760467529e-01"/>
          <Range Index="5" Min="1.5456757864740212e-06" Max="3.9563607424497604e-02"/>
          <Range Index="6" Min="3.2281317174920332e-08" Max="7.0462827570736408e-03"/>
          <Range Index="7" Min="1.5827717447791656e-07" Max="1.9880363252013922e-03"/>
          <Range Index="8" Min="3.1308267089968922e-10" Max="7.4805659241974354e-03"/>
          <Range Index="9" Min="1.3415997557331139e-07" Max="1.1624936945736408e-02"/>
          <Range Index="10" Min="2.0439022918594674e-08" Max="1.9955936295446008e-04"/>
          <Range Index="11" Min="1.4828563932312022e-09" Max="1.9390985835343599e-04"/>
          <Range Index="12" Min="9.0911749239808159e-09" Max="1.9755291577894241e-04"/>
          <Range Index="13" Min="2.4657023089957875e-09" Max="1.9711205095518380e-04"/>
          <Range Index="14" Min="9.4720569165929192e-09" Max="1.9787334895227104e-04"/>
          <Range Index="15" Min="2.3396391490848600e-09" Max="1.9859688472934067e-04"/>
          <Range Index="16" Min="0.0000000000000000e+00" Max="1.8932832000000000e+08"/>
          <Range Index="17" Min="5.8636981248855591e-01" Max="7.2146326303482056e-01"/>
        </Ranges>
      </Class>
    </Transform>
  </Transformations>
  <MVAPdfs/>
  <Weights>
    <Layout NLayers="4">
      <Layer Index="0" NNeurons="18">
        <Neuron NSynapses="17">
          -1.7783675124552992e-01 1.3772836251789680e-01 6.9524997767476127e-01 1.4652457798666589e+00 -1.8079227633682236e+00 -1.5048562840544002e+00 -6.7279506775325715e-01 1.0412527970337675e+00 -1.4795323579180026e+00 -1.1734668847485490e+00 -1.5296607707896706e+00 2.3386154725073216e-01 -9.9352038465403159e-01 -3.1740024891983543e-01 -2.8293593814652912e-01 4.4515038127940432e-01 -4.5167403260704747e-01 
        </Neuron>
        <Neuron NSynapses="17">
          1.6378916309853284e+00 1.2850506572175580e+00 1.8393761274893701e+00 -5.6055573576239803e-01 -5.2970529055882010e-01 7.6728034526422928e-01 -1.2688464260567772e-01 -2.1428195438586233e+00 -2.9301396827559750e-01 1.6526427776930883e+00 -1.0231889705931188e+00 -2.8788827323423800e+00 -2.3675030282950971e-01 4.9746105079254316e-01 1.3313975496186237e+00 6.5388140464925770e-01 5.2839371396550434e-02 
        </Neuron>
        <Neuron NSynapses="17">
          3.1936423662945296e-01 -4.5890498077353320e-01 -1.2429392815629141e+00 1.8304411102365223e+00 -1.5438474597446827e+00 7.1863678748319348e-01 1.3967974176883546e+00 9.3223688947184646e-01 1.7336298160796155e+00 1.2215438633217286e+00 -5.9005716812602560e-01 -9.9630339823452074e-01 9.1298740757359076e-01 -2.1047486575725805e-01 1.6787160917074548e+00 1.2557678920147608e+00 1.4966536488708466e+00 
        </Neuron>
        <Neuron NSynapses="17">
          1.3830350238493712e+00 -1.0272604998250632e+00 1.6916082301229605e+00 -1.6965075274796553e+00 -1.1988924029968910e+00 -1.6770340783471120e+00 -1.4441447679801700e+00 1.0088664069281326e+00 4.3386791915097317e-01 -1.5547540049283148e+00 4.8021476842735222e-01 -7.4713599541395403e-01 8.4395187454732845e-01 1.1420749217091304e+00 -1.5264421896932412e-01 1.6781471216993271e-01 -8.1391427306560571e-01 
        </Neuron>
        <Neuron NSynapses="17">
          8.6673982147278061e-01 -1.6698351070059179e+00 -9.6964347722243105e-01 -1.1516900260095464e+00 4.0417063650396318e-01 9.9193373213080827e-01 1.6507554618104767e+00 5.8756244127937496e-01 -1.9481028607488211e+00 -2.0078490174494505e+00 1.0180025500963394e+00 1.3519583059169058e+00 2.2741915684781659e+00 6.4870286925990739e-01 1.2710818018499019e+00 -1.6365876251142844e+00 -1.0230562703559929e+00 
        </Neuron>
        <Neuron NSynapses="17">
          1.3783667385981843e-02 1.3295430369987462e+00 -1.0081412920859167e+00 -1.6015789985612008e+00 -1.8663665784043992e+00 -5.0843722067711461e-01 1.8491626015690546e-01 1.2758371438792311e+00 -1.5769863143585028e+00 -8.1466612495541257e-01 1.6607614123077776e+00 -1.1265268509697888e+00 -1.2843181894280560e+00 -1.8159083521753221e+00 2.8588681371385749e-01 -1.7642222913213665e+00 -1.3310270147543510e+00 
        </Neuron>
        <Neuron NSynapses="17">
          8.3535131172947241e-01 1.6104481244247186e+00 -7.4729362485529738e-01 1.7249395614499603e+00 -1.3315348260998712e+00 -1.2370486678825825e+00 3.4998758948593744e-01 -5.3057033898787484e-03 -2.0180749131482387e+00 2.4966184487948337e-01 5.1609446996940689e-01 3.9876222160798769e-01 -1.1894619095524546e+00 1.0943220040912889e+00 5.5765213701361782e-01 -6.8502682206758725e-01 1.1669036585126591e+00 
        </Neuron>
        <Neuron NSynapses="17">
          -9.5732193835717638e-01 -1.1996724116194257e+00 4.6338991898490323e-01 -1.8241286546978164e-01 1.3658202161810209e+00 4.0288621050555656e-01 3.7628941739789001e-01 -4.9108969043902917e-01 -4.4872384282873587e-02 -1.7278261777215667e+00 1.1365685860412993e+00 -4.6035855526709274e-02 -1.5816113059985777e+00 1.7528234407836493e-01 -1.1564632788682454e+00 -9.1641019362350015e-02 1.2790765840376666e+00 
        </Neuron>
        <Neuron NSynapses="17">
          1.9838504461869384e+00 -1.5278869083830338e+00 8.6197840616812227e-01 1.6381562637774159e+00 1.0879346982371221e+00 -4.2261508778646145e-01 -9.7157539344841659e-01 -4.4529930366802845e-01 -1.6768177218148665e+00 1.5099445227747998e+00 1.4826587470443877e+00 -3.7497783824042602e-01 -2.1285349154869632e-01 -5.0004113330570399e-01 -1.1816197096064560e+00 8.8262852514863899e-01 2.0666413525648237e+00 
        </Neuron>
        <Neuron NSynapses="17">
          -4.0685847982800349e-01 -2.8118701722084299e-01 7.3285505147360397e-01 1.2307047008436178e+00 2.2571292930571635e-01 5.5032160515384920e-01 -9.5626052920380511e-01 1.0385062813233710e+00 3.9399141257710490e-01 3.4327553094875984e-01 8.0759323529241578e-01 3.2524192612460706e-01 -3.5812766750197672e-01 -9.6953186879013264e-01 1.3887308007538246e+00 -9.6946679510266753e-01 -2.6678219723255142e-01 
        </Neuron>
        <Neuron NSynapses="17">
          1.6088150258362628e+00 1.0948889942902895e+00 -8.9673236183865884e-02 1.4320382021601947e+00 1.5955691110246881e+00 -2.1482308224298650e+00 8.3516138088782443e-01 -4.3191810329434555e-01 3.8221794885618038e-01 -1.6288502303391144e+00 -1.4005285282798323e+00 5.3573876460544534e-01 1.8720826584663059e+00 -1.9751934912229889e+00 2.4957729500043640e-02 -6.0855989935300214e-01 3.0314935687472622e-01 
        </Neuron>
        <Neuron NSynapses="17">
          1.8353654692984589e+00 1.5912666866567952e-02 -9.6860269787276979e-02 -9.9227585135582574e-01 7.0649003316680992e-01 1.2707872899409809e+00 1.3630115943672332e+00 1.4766988215750437e-02 -8.9861455634023168e-01 -1.9429777684461231e+00 1.1630086208565928e+00 1.0210959606839910e-01 -1.2157253747732908e+00 -1.1810488500355472e+00 5.1079951906386933e-01 2.1300179965016104e-02 -1.6707186521648481e+00 
        </Neuron>
        <Neuron NSynapses="17">
          1.7339483464110321e+00 1.1479439626446390e+00 -2.3887970587409760e-01 -9.1374641848104524e-02 1.3813393573602750e+00 7.5408265642845762e-01 7.3822054337343290e-01 -4.4796918088517701e-01 -1.8917838923974593e+00 -8.7350558484710827e-01 1.8254381334256340e+00 6.3250005330805592e-01 8.7727550111438568e-01 -2.2016309583315499e-01 2.1967737540743153e+00 -1.5935083688287939e+00 -9.7894228049603949e-01 
        </Neuron>
        <Neuron NSynapses="17">
          7.9240984599730085e-03 -1.2337935526128345e+00 1.1472667821167861e+00 1.8561598305300584e+00 -1.4545990570668599e+00 4.2597173801966964e-01 7.6688538607046830e-02 -1.6831588261351702e+00 -1.1684874847896458e+00 9.6942000697931763e-01 1.4245600014066664e-01 6.1482133874081091e-01 -9.8434200419361795e-01 1.0991459289368102e+00 -1.4841068090213954e+00 7.6036149890128257e-01 2.8147203648809455e-01 
        </Neuron>
        <Neuron NSynapses="17">
          -1.3013780039847791e+00 -1.1059624870217484e+00 -1.6314859825569099e+00 -2.4836860741597006e-01 -2.2811104864110061e+00 -1.9384533791516025e+00 -1.4754676895744550e+00 1.2554497088408265e-01 -1.1197129413188844e+00 -1.6361597141550235e+00 1.4204958071997116e+00 -7.3834628473082831e-01 3.1059045558362564e-01 -1.3615974146298495e+00 3.9450376176046853e-01 1.8049192849680449e+00 1.4872047453640569e+00 
        </Neuron>
        <Neuron NSynapses="17">
          -7.6660280720077301e-01 -1.0386042714753956e+00 -6.9368820424833677e-01 -9.3387749514638507e-01 -1.9601243997738427e+00 -5.4537195852535541e-03 4.9581778950099503e-01 1.4506519198753729e+00 -3.6164753937057859e-01 2.4900711766565456e-01 -3.6347340345051088e-01 -1.8046895978674484e+00 1.4061575003532056e+00 6.2541504131713854e-01 -6.6111368130797976e-01 -1.0667803274343830e+00 1.0536938398929312e+00 
        </Neuron>
        <Neuron NSynapses="17">
          1.0616100462960609e+00 1.1034860854626938e+00 -4.4956446270667655e-01 -5.3965539533258522e-01 1.3393448449373420e+00 9.7514110616206306e-01 4.4431229699622177e-01 -8.5393691098627711e-01 3.8258900968361936e-01 -2.2202750993623593e-02 -1.5118206112166130e+00 -8.2994887544499374e-01 -1.9184960016279582e+00 -1.3489697868534023e+00 -1.4170890825092850e+00 1.8422187752585431e+00 -1.6126996599913210e+00 
        </Neuron>
        <Neuron NSynapses="17">
          1.4132285734523735e+00 -2.4142646830636756e+00 1.1115666535046270e-01 -1.1480317346149549e+00 1.0405144881331578e+00 1.6330691787158558e+00 -2.5607749748548168e+00 1.3306409947373836e+00 1.0395495614249077e+00 -1.9100400162445006e+00 -1.8972787398039550e+00 -9.3855380435412583e-01 -9.3402964806106048e-01 2.9447161894389091e+00 -7.1799132067131644e-01 -5.1785194571091309e-01 -1.5916637213553766e+00 
        </Neuron>
      </Layer>
      <Layer Index="1" NNeurons="18">
        <Neuron NSynapses="17">
          -8.8026104187177712e-01 -1.6193360528631071e+00 -7.5923200145556524e-01 -1.4591605987853791e+00 8.4477404943576651e-01 -1.5466126564143914e+00 -1.0971480255091302e+00 1.4926785329952899e+00 1.5381513313457543e-01 -4.6141109514469747e-01 2.0282776233762245e+00 -1.5640993635910396e+00 1.6202035882851107e+00 9.4357357524376417e-01 -1.1930104301274433e+00 -6.5078449417782658e-01 -9.2843321543157234e-02 
        </Neuron>
        <Neuron NSynapses="17">
          -1.1137413638235742e+00 5.1633754996391157e-01 1.6608174727403229e+00 1.5092883172322780e+00 1.8144601720814406e+00 -1.2016929706428736e+00 1.3874734253722896e+00 -2.0366024491894810e+00 4.9084078084037852e-01 -1.4906139825935298e+00 -2.0766060633039767e+00 7.6459703738582172e-02 1.2047538824294040e+00 3.5656478132944858e-01 9.5907567894568257e-01 3.1419503103130519e-01 -2.3183965499648956e-01 
        </Neuron>
        <Neuron NSynapses="17">
          -6.0230281648874961e-01 8.9121852520803707e-02 1.9402111719811903e+00 -1.3771876947453756e+00 5.8498874225635800e-01 -1.2427962175867542e+00 -6.5664291508202742e-03 2.5807124223093830e-01 -4.6420870377246667e-02 -1.3675840045924474e+00 6.7871012056220603e-01 1.6950802451555294e+00 8.4026266080204326e-01 -6.2158919294628072e-02 -6.8215194299121540e-01 -1.4749345025367795e+00 -1.6295840301769113e+00 
        </Neuron>
        <Neuron NSynapses="17">
          1.1407059067053331e+00 -4.9382088349854592e-01 -5.3618010564510032e-01 3.9929868219214948e-01 -1.7722937544194242e+00 -1.4121520711389082e+00 -1.9349611405175642e+00 7.5124914525219944e-01 -1.4535929025990553e+00 -1.5117702187037310e+00 -4.3748220418411837e-01 -8.7735568558508714e-01 -1.6085045730429701e+00 1.2363364392922358e+00 -1.5911097889853865e+00 -1.2326054060481750e+00 1.5611686861799958e+00 
        </Neuron>
        <Neuron NSynapses="17">
          4.5747643937222104e-01 2.8977086415935333e-01 -8.8378621770363361e-02 1.2131349884100346e+00 1.7332825909396474e+00 8.5927792819292492e-01 -6.6888485505872108e-01 -3.9913218844936482e-01 -1.6599458694132014e+00 8.0347241251546886e-01 7.8151386834582837e-01 -6.6666832867070388e-03 1.0668055728985861e+00 8.7962438569806789e-01 1.5892802509263382e+00 -1.3217998137599027e+00 1.6689782153913846e+00 
        </Neuron>
        <Neuron NSynapses="17">
          6.7345801241361802e-01 -1.9360498057155522e+00 -2.0350926324115473e-01 -1.0263542782710384e+00 8.7918469026782420e-01 5.6930395450729299e-01 1.2165484097803858e+00 1.9192838802313816e+00 -3.4299855340635571e-01 1.4687628139305704e+00 1.7965081844762198e+00 1.5094779957241325e-01 -8.1992203935047281e-01 1.6256482850059570e+00 -2.0606209530460156e+00 6.9227369339415434e-01 1.7291696532856502e+00 
        </Neuron>
        <Neuron NSynapses="17">
          -1.6824194946998250e-01 -7.1819861541910290e-01 -2.7427812495561539e-02 -1.1908674096966165e+00 5.0274373780770765e-01 -1.9278052042452611e+00 2.2652736963927930e-01 -4.5270903530175011e-01 1.5535716836497129e+00 1.2359023859145524e+00 1.8675075688934772e+00 -3.1352762662259120e-01 -1.9313953895302607e-01 2.6767794986495563e-01 1.5352662840245739e+00 -1.7804594711699055e+00 -1.3419919876589059e+00 
        </Neuron>
        <Neuron NSynapses="17">
          -5.9411174660362653e-01 -1.5073247461439527e+00 -1.0246250790736020e+00 -1.8415498005502775e+00 3.7814082642634506e-01 -2.5692194921663858e-01 -2.0204019417018757e+00 -1.9696096298956491e+00 -2.1015995565323367e-01 1.7059366563085174e+00 1.8929722301067111e+00 1.2632022852364284e+00 -4.5055848658316622e-01 -1.8221025771677719e+00 5.0619370985224565e-02 -1.2460609632754500e+00 -1.4588784333158307e+00 
        </Neuron>
        <Neuron NSynapses="17">
          -8.2106862863086549e-01 -7.4806518272149281e-03 -1.9662185603301685e+00 1.3917170998545809e+00 1.2287976679626516e+00 7.3699757888292461e-01 -3.6678456251059399e-01 -5.1132192608440852e-01 1.7395855739879640e+00 -6.7927626352936665e-01 1.3489370422041137e-02 1.4827961408596748e+00 1.6497761839310581e+00 -9.8208298828519125e-01 1.6900480225668841e+00 -1.9499727047736704e+00 1.7267927314024527e+00 
        </Neuron>
        <Neuron NSynapses="17">
          2.0660640696165062e+00 -1.5872833509419329e-01 2.6414085749756477e-01 4.3143776363862052e-01 -2.4365684295282611e-01 9.2347936266855712e-01 9.2324201988577226e-01 -8.7912981491889897e-01 -1.8185589738676624e+00 -2.0264444374842572e-01 1.5275567602100402e+00 4.2328554883636976e-01 -5.5924348227976228e-01 -1.8203737671300344e+00 1.7734711758739257e+00 4.2340592764555218e-01 -1.2050931549664150e+00 
        </Neuron>
        <Neuron NSynapses="17">
          -3.0742687358676302e-01 -1.0439757512041912e+00 1.8370917845393873e+00 1.3735103399665645e+00 -9.5653401673169347e-01 -1.5430553393976536e+00 1.0277932765721958e+00 9.2474994938891653e-01 5.3533173101337728e-01 3.2369390226611983e-01 -9.0492954978549600e-01 -1.2652217178650831e+00 6.9487658479973258e-01 3.7448220402307236e-01 2.0162739594834159e-01 -1.8284442397570815e+00 -1.9358305968030507e+00 
        </Neuron>
        <Neuron NSynapses="17">
          -2.0490880407623377e+00 -3.4453420899014486e-01 -1.5354031829647410e+00 9.8773621841978784e-02 -9.1660188707470258e-01 1.3285376013390113e+00 -2.5078546653744427e-01 -1.8135382975345395e+00 1.2844426764602734e+00 2.1908966952637461e+00 1.0737287342646837e+00 -5.1020374029315929e-01 -1.1052958972631515e+00 2.1836997090849430e+00 -1.4489365549155093e+00 4.0359278313004116e-01 -1.3681177310589596e+00 
        </Neuron>
        <Neuron NSynapses="17">
          7.4599751208911058e-01 -1.1814151023733011e+00 2.6334827256540603e-02 -2.3597364897203074e-01 -5.8894595241632854e-02 1.1774414300016553e-01 -1.7803084992748039e+00 1.0077171095693176e+00 7.6004235706316436e-01 1.2144639027111868e+00 1.0037959980515669e+00 -1.7930018636408243e+00 7.7772429903187146e-01 -1.7825415764726051e+00 1.1043668012312393e+00 6.5679428858867650e-01 5.9406674304872997e-01 
        </Neuron>
        <Neuron NSynapses="17">
          1.4316936183367894e+00 1.4551078220294629e+00 -2.1851797417837848e+00 -7.0819140109775625e-01 -9.9708814754611108e-01 7.9415175849919661e-01 2.3242711006125452e-01 -3.6322763305698044e-02 -5.1562991836342542e-01 -7.2335794486739136e-01 -9.7603930421830842e-01 -4.2142862938073511e-01 -1.7422867895140388e+00 -2.9738633465871317e-01 3.0515973956041609e-01 -6.9602542493126163e-01 -1.3482023557410454e+00 
        </Neuron>
        <Neuron NSynapses="17">
          1.9210721846968934e-01 2.6403733596168544e-01 -7.6156090480334088e-02 -1.1661516114774864e+00 1.6395495055290881e+00 -1.5250663451224819e-01 -1.9297521530084134e-02 6.0926831737552933e-01 -8.7071418972796433e-01 -4.3804054731391190e-01 -5.4817679347214640e-02 -2.0329661664730589e+00 -9.7031664611674329e-01 -1.0892565907983121e+00 1.0696968939563078e+00 -2.2020777083463003e+00 1.2942719480249063e+00 
        </Neuron>
        <Neuron NSynapses="17">
          1.8938528124891763e+00 1.6049869756617137e+00 1.1624301134880617e+00 8.1655010430147901e-01 3.3744763421581969e-01 -6.4737697138497474e-01 -1.4162867765354206e+00 -1.0193935779002996e+00 -9.8676266124253642e-01 9.2437447327581146e-01 -3.7884903656958881e-02 8.7327052158434726e-02 1.5002071724051189e+00 1.1017843333935553e+00 -1.2407105486850885e+00 4.9640029649157302e-01 -1.6171089286621751e+00 
        </Neuron>
        <Neuron NSynapses="17">
          9.1089050227578638e-01 -1.8400646525292901e+00 6.7670650063614080e-01 -2.9785337086886060e-01 8.4022651660622827e-01 -1.8545593195177053e+00 -4.1004598744072601e-01 -1.8801297490018074e+00 -3.9019585708889810e-02 1.3835948363537349e+00 -5.3213917717029868e-01 5.5737216155505342e-01 -2.0220853173194140e+00 1.0918193906360221e+00 -5.7384337800758589e-01 6.4329856582838330e-01 -1.8431235556750085e+00 
        </Neuron>
        <Neuron NSynapses="17">
          -1.2617799349189456e+00 1.9100826090262080e+00 -2.6263186592988936e+00 -1.2403943148452037e+00 -8.7268244241989068e-01 2.0428348884139393e+00 1.6579384548037479e+00 1.8868158044751839e+00 -1.6448565405339137e+00 7.2140946537847872e-01 4.6133117678930474e-01 1.4286866010826893e-01 -1.2460280839729612e+00 -1.3675283636316233e+00 3.1248047065828743e-01 -1.9659056071469561e-01 1.7873100172430738e+00 
        </Neuron>
      </Layer>
      <Layer Index="2" NNeurons="18">
        <Neuron NSynapses="1">
          -3.1158647168086934e-02 
        </Neuron>
        <Neuron NSynapses="1">
          -1.8831825169065983e-02 
        </Neuron>
        <Neuron NSynapses="1">
          -1.5180645796703738e+00 
        </Neuron>
        <Neuron NSynapses="1">
          -1.4378144291258110e-03 
        </Neuron>
        <Neuron NSynapses="1">
          -4.2939622475232996e-02 
        </Neuron>
        <Neuron NSynapses="1">
          -8.1787519602018877e-01 
        </Neuron>
        <Neuron NSynapses="1">
          -3.4648173038986964e-02 
        </Neuron>
        <Neuron NSynapses="1">
          -5.5538270329916596e-03 
        </Neuron>
        <Neuron NSynapses="1">
          2.1186241458427620e-02 
        </Neuron>
        <Neuron NSynapses="1">
          6.9714468483920197e-02 
        </Neuron>
        <Neuron NSynapses="1">
          2.8228118183589151e-02 
        </Neuron>
        <Neuron NSynapses="1">
          -2.1232640009180310e-02 
        </Neuron>
        <Neuron NSynapses="1">
          -4.0163186528965930e-02 
        </Neuron>
        <Neuron NSynapses="1">
          1.1337893416165873e-03 
        </Neuron>
        <Neuron NSynapses="1">
          -7.1353248799682946e-03 
        </Neuron>
        <Neuron NSynapses="1">
          -2.1824198320282717e-02 
        </Neuron>
        <Neuron NSynapses="1">
          -5.1594025446099631e-02 
        </Neuron>
        <Neuron NSynapses="1">
          -4.5605242269161389e-01 
        </Neuron>
      </Layer>
      <Layer Index="3" NNeurons="1">
        <Neuron NSynapses="0"/>
      </Layer>
    </Layout>
  </Weights>
</MethodSetup>
