<?xml version="1.0"?>
<MethodSetup Method="MLP::XS_94_240_0_n2n">
  <GeneralInfo>
    <Info name="TMVA Release" value="4.2.1 [262657]"/>
    <Info name="ROOT Release" value="6.06/02 [394754]"/>
    <Info name="Creator" value="mouginot"/>
    <Info name="Date" value="Wed Feb 22 15:57:39 2017"/>
    <Info name="Host" value="Linux e300.chtc.wisc.edu 2.6.32-642.13.1.el6.x86_64 #1 SMP Tue Jan 10 11:22:50 CST 2017 x86_64 x86_64 x86_64 GNU/Linux"/>
    <Info name="Dir" value="/mnt/gluster/mouginot/TRU_MOX_XS/Generate"/>
    <Info name="Training events" value="198960"/>
    <Info name="TrainingTime" value="1.49537522e+04"/>
    <Info name="AnalysisType" value="Regression"/>
  </GeneralInfo>
  <Options>
    <Option name="NCycles" modified="Yes">20000</Option>
    <Option name="HiddenLayers" modified="Yes">N,N</Option>
    <Option name="NeuronType" modified="Yes">tanh</Option>
    <Option name="RandomSeed" modified="No">1</Option>
    <Option name="EstimatorType" modified="No">MSE</Option>
    <Option name="NeuronInputType" modified="No">sum</Option>
    <Option name="V" modified="Yes">False</Option>
    <Option name="VerbosityLevel" modified="No">Default</Option>
    <Option name="VarTransform" modified="Yes">Norm</Option>
    <Option name="H" modified="Yes">False</Option>
    <Option name="CreateMVAPdfs" modified="No">False</Option>
    <Option name="IgnoreNegWeightsInTraining" modified="No">False</Option>
    <Option name="TrainingMethod" modified="Yes">BFGS</Option>
    <Option name="LearningRate" modified="No">2.000000e-02</Option>
    <Option name="DecayRate" modified="No">1.000000e-02</Option>
    <Option name="TestRate" modified="Yes">6</Option>
    <Option name="EpochMonitoring" modified="No">False</Option>
    <Option name="Sampling" modified="Yes">3.000000e-01</Option>
    <Option name="SamplingEpoch" modified="Yes">8.000000e-01</Option>
    <Option name="SamplingImportance" modified="No">1.000000e+00</Option>
    <Option name="SamplingTraining" modified="No">True</Option>
    <Option name="SamplingTesting" modified="No">False</Option>
    <Option name="ResetStep" modified="No">50</Option>
    <Option name="Tau" modified="No">3.000000e+00</Option>
    <Option name="BPMode" modified="No">sequential</Option>
    <Option name="BatchSize" modified="No">-1</Option>
    <Option name="ConvergenceImprove" modified="Yes">1.000000e-06</Option>
    <Option name="ConvergenceTests" modified="Yes">15</Option>
    <Option name="UseRegulator" modified="Yes">False</Option>
    <Option name="UpdateLimit" modified="No">10000</Option>
    <Option name="CalculateErrors" modified="No">False</Option>
    <Option name="WeightRange" modified="No">1.000000e+00</Option>
  </Options>
  <Variables NVar="17">
    <Variable VarIndex="0" Expression="235U" Label="235U" Title="235U" Unit="IsotopicFraction" Internal="235U" Type="F" Min="1.71346517e-06" Max="1.92414057e-02"/>
    <Variable VarIndex="1" Expression="238U" Label="238U" Title="238U" Unit="IsotopicFraction" Internal="238U" Type="F" Min="7.85399854e-01" Max="9.68733251e-01"/>
    <Variable VarIndex="2" Expression="237Np" Label="237Np" Title="237Np" Unit="IsotopicFraction" Internal="237Np" Type="F" Min="1.63990119e-08" Max="1.97294168e-04"/>
    <Variable VarIndex="3" Expression="238Pu" Label="238Pu" Title="238Pu" Unit="IsotopicFraction" Internal="238Pu" Type="F" Min="4.69728775e-07" Max="3.96428024e-03"/>
    <Variable VarIndex="4" Expression="239Pu" Label="239Pu" Title="239Pu" Unit="IsotopicFraction" Internal="239Pu" Type="F" Min="2.15940680e-02" Max="1.89886928e-01"/>
    <Variable VarIndex="5" Expression="240Pu" Label="240Pu" Title="240Pu" Unit="IsotopicFraction" Internal="240Pu" Type="F" Min="1.54567579e-06" Max="3.95636074e-02"/>
    <Variable VarIndex="6" Expression="241Pu" Label="241Pu" Title="241Pu" Unit="IsotopicFraction" Internal="241Pu" Type="F" Min="3.22813172e-08" Max="7.04628276e-03"/>
    <Variable VarIndex="7" Expression="242Pu" Label="242Pu" Title="242Pu" Unit="IsotopicFraction" Internal="242Pu" Type="F" Min="1.58277174e-07" Max="1.98803633e-03"/>
    <Variable VarIndex="8" Expression="241Am" Label="241Am" Title="241Am" Unit="IsotopicFraction" Internal="241Am" Type="F" Min="3.13082671e-10" Max="7.48056592e-03"/>
    <Variable VarIndex="9" Expression="242Amm" Label="242Amm" Title="242Amm" Unit="IsotopicFraction" Internal="242Amm" Type="F" Min="1.34159976e-07" Max="1.16249369e-02"/>
    <Variable VarIndex="10" Expression="243Am" Label="243Am" Title="243Am" Unit="IsotopicFraction" Internal="243Am" Type="F" Min="2.04390229e-08" Max="1.99559363e-04"/>
    <Variable VarIndex="11" Expression="242Cm" Label="242Cm" Title="242Cm" Unit="IsotopicFraction" Internal="242Cm" Type="F" Min="1.48285639e-09" Max="1.93909858e-04"/>
    <Variable VarIndex="12" Expression="243Cm" Label="243Cm" Title="243Cm" Unit="IsotopicFraction" Internal="243Cm" Type="F" Min="9.09117492e-09" Max="1.97552916e-04"/>
    <Variable VarIndex="13" Expression="244Cm" Label="244Cm" Title="244Cm" Unit="IsotopicFraction" Internal="244Cm" Type="F" Min="2.46570231e-09" Max="1.97112051e-04"/>
    <Variable VarIndex="14" Expression="245Cm" Label="245Cm" Title="245Cm" Unit="IsotopicFraction" Internal="245Cm" Type="F" Min="9.47205692e-09" Max="1.97873349e-04"/>
    <Variable VarIndex="15" Expression="246Cm" Label="246Cm" Title="246Cm" Unit="IsotopicFraction" Internal="246Cm" Type="F" Min="2.33963915e-09" Max="1.98596885e-04"/>
    <Variable VarIndex="16" Expression="Time" Label="Time" Title="Time" Unit="seconds" Internal="Time" Type="F" Min="0.00000000e+00" Max="1.89328320e+08"/>
  </Variables>
  <Spectators NSpec="0"/>
  <Classes NClass="1">
    <Class Name="Regression" Index="0"/>
  </Classes>
  <Targets NTrgt="1">
    <Target TargetIndex="0" Expression="XS_94_240_0_n2n" Label="XS_94_240_0_n2n" Title="XS_94_240_0_n2n" Unit="" Internal="XS_94_240_0_n2n" Type="F" Min="1.20392500e-03" Max="1.81368564e-03"/>
  </Targets>
  <Transformations NTransformations="1">
    <Transform Name="Normalize">
      <Selection>
        <Input NInputs="18">
          <Input Type="Variable" Label="235U" Expression="235U"/>
          <Input Type="Variable" Label="238U" Expression="238U"/>
          <Input Type="Variable" Label="237Np" Expression="237Np"/>
          <Input Type="Variable" Label="238Pu" Expression="238Pu"/>
          <Input Type="Variable" Label="239Pu" Expression="239Pu"/>
          <Input Type="Variable" Label="240Pu" Expression="240Pu"/>
          <Input Type="Variable" Label="241Pu" Expression="241Pu"/>
          <Input Type="Variable" Label="242Pu" Expression="242Pu"/>
          <Input Type="Variable" Label="241Am" Expression="241Am"/>
          <Input Type="Variable" Label="242Amm" Expression="242Amm"/>
          <Input Type="Variable" Label="243Am" Expression="243Am"/>
          <Input Type="Variable" Label="242Cm" Expression="242Cm"/>
          <Input Type="Variable" Label="243Cm" Expression="243Cm"/>
          <Input Type="Variable" Label="244Cm" Expression="244Cm"/>
          <Input Type="Variable" Label="245Cm" Expression="245Cm"/>
          <Input Type="Variable" Label="246Cm" Expression="246Cm"/>
          <Input Type="Variable" Label="Time" Expression="Time"/>
          <Input Type="Target" Label="XS_94_240_0_n2n" Expression="XS_94_240_0_n2n"/>
        </Input>
        <Output NOutputs="18">
          <Output Type="Variable" Label="235U" Expression="235U"/>
          <Output Type="Variable" Label="238U" Expression="238U"/>
          <Output Type="Variable" Label="237Np" Expression="237Np"/>
          <Output Type="Variable" Label="238Pu" Expression="238Pu"/>
          <Output Type="Variable" Label="239Pu" Expression="239Pu"/>
          <Output Type="Variable" Label="240Pu" Expression="240Pu"/>
          <Output Type="Variable" Label="241Pu" Expression="241Pu"/>
          <Output Type="Variable" Label="242Pu" Expression="242Pu"/>
          <Output Type="Variable" Label="241Am" Expression="241Am"/>
          <Output Type="Variable" Label="242Amm" Expression="242Amm"/>
          <Output Type="Variable" Label="243Am" Expression="243Am"/>
          <Output Type="Variable" Label="242Cm" Expression="242Cm"/>
          <Output Type="Variable" Label="243Cm" Expression="243Cm"/>
          <Output Type="Variable" Label="244Cm" Expression="244Cm"/>
          <Output Type="Variable" Label="245Cm" Expression="245Cm"/>
          <Output Type="Variable" Label="246Cm" Expression="246Cm"/>
          <Output Type="Variable" Label="Time" Expression="Time"/>
          <Output Type="Target" Label="XS_94_240_0_n2n" Expression="XS_94_240_0_n2n"/>
        </Output>
      </Selection>
      <Class ClassIndex="0">
        <Ranges>
          <Range Index="0" Min="1.7134651670858148e-06" Max="1.9241405650973320e-02"/>
          <Range Index="1" Min="7.8539985418319702e-01" Max="9.6873325109481812e-01"/>
          <Range Index="2" Min="1.6399011926182538e-08" Max="1.9729416817426682e-04"/>
          <Range Index="3" Min="4.6972877498774324e-07" Max="3.9642802439630032e-03"/>
          <Range Index="4" Min="2.1594068035483360e-02" Max="1.8988692760467529e-01"/>
          <Range Index="5" Min="1.5456757864740212e-06" Max="3.9563607424497604e-02"/>
          <Range Index="6" Min="3.2281317174920332e-08" Max="7.0462827570736408e-03"/>
          <Range Index="7" Min="1.5827717447791656e-07" Max="1.9880363252013922e-03"/>
          <Range Index="8" Min="3.1308267089968922e-10" Max="7.4805659241974354e-03"/>
          <Range Index="9" Min="1.3415997557331139e-07" Max="1.1624936945736408e-02"/>
          <Range Index="10" Min="2.0439022918594674e-08" Max="1.9955936295446008e-04"/>
          <Range Index="11" Min="1.4828563932312022e-09" Max="1.9390985835343599e-04"/>
          <Range Index="12" Min="9.0911749239808159e-09" Max="1.9755291577894241e-04"/>
          <Range Index="13" Min="2.4657023089957875e-09" Max="1.9711205095518380e-04"/>
          <Range Index="14" Min="9.4720569165929192e-09" Max="1.9787334895227104e-04"/>
          <Range Index="15" Min="2.3396391490848600e-09" Max="1.9859688472934067e-04"/>
          <Range Index="16" Min="0.0000000000000000e+00" Max="1.8932832000000000e+08"/>
          <Range Index="17" Min="1.2039249995723367e-03" Max="1.8136856378987432e-03"/>
        </Ranges>
      </Class>
    </Transform>
  </Transformations>
  <MVAPdfs/>
  <Weights>
    <Layout NLayers="4">
      <Layer Index="0" NNeurons="18">
        <Neuron NSynapses="17">
          -2.2640134157736921e-01 7.8164859558829147e-01 5.0624183900079736e-02 1.4113521138607967e+00 -1.7081592537886678e+00 -1.5905390928061487e+00 -7.2999371792955270e-01 2.0855073698902507e-01 -1.5614181628871242e+00 -9.3154791579672136e-01 -1.6286215479323096e+00 -4.0258908830508755e-01 -1.1376758079957725e+00 -4.1296151969951439e-01 -2.2648794706430564e-01 3.6833699457830205e-01 -3.7002399234756295e-01 
        </Neuron>
        <Neuron NSynapses="17">
          1.6109472647684735e+00 1.2409679972057532e+00 2.5541585098163893e+00 -4.9417470049979789e-01 -5.7446898140741431e-01 2.5292923883618706e-01 5.9944750859426424e-02 -1.7813194540915260e+00 -1.6025907201008069e-01 1.5696563184852110e+00 -1.8717224206727261e+00 -2.6988757168676649e+00 -3.4214898930740791e-02 4.1591067067290455e-01 1.0002569096426281e+00 1.0650902556841459e+00 3.0747996713890891e-01 
        </Neuron>
        <Neuron NSynapses="17">
          4.2138743348162894e-01 -2.5132005296823373e-01 -1.5031537279085054e+00 1.8582761938228098e+00 -1.5996189686623261e+00 8.0143966249938847e-01 1.3724518559165368e+00 7.5459021390823722e-01 1.4911253580650969e+00 1.3745084470799813e+00 -2.3537464061926511e-01 -8.4628737440560142e-01 6.4446095410150750e-01 -1.7739088933617519e-01 1.6317418869387861e+00 8.5480429041527983e-01 1.4654552913352084e+00 
        </Neuron>
        <Neuron NSynapses="17">
          1.1036350157093211e+00 -8.7369743788512522e-01 1.4703837692429109e+00 -1.5237143332163159e+00 -1.2451653776468914e+00 -1.5488204886171486e+00 -1.4628307394255291e+00 7.7611576998895915e-01 1.9088859011970402e-01 -1.3081888422138053e+00 8.4301044052386864e-01 -9.3477782953644406e-01 6.5786594781955543e-01 1.1029834399615059e+00 -1.3261696096204277e-02 -9.4559398753179938e-02 -7.0095126935520435e-01 
        </Neuron>
        <Neuron NSynapses="17">
          8.5678197795685840e-01 -1.4792018382370042e+00 -1.5562904904422497e+00 -1.2293273851322182e+00 4.2452015439645657e-01 1.4621058264816269e+00 1.4641573452112353e+00 1.8249480672626670e-01 -2.1153038137727815e+00 -1.8596791235802648e+00 1.7993545647201279e+00 1.0423523680663156e+00 2.0535260390108068e+00 6.9156457627813706e-01 1.5642654685374349e+00 -2.0275386277610852e+00 -1.2205575178778372e+00 
        </Neuron>
        <Neuron NSynapses="17">
          2.1592671179800532e-01 5.4136340376321979e-01 -1.0403097873768032e+00 -1.2782288671891984e+00 -1.9480290412375838e+00 -3.1493029474986795e-01 3.6175637228874563e-01 1.6278893039197200e+00 -1.8412157477494209e+00 -8.3955075904728027e-01 1.9782936130303408e+00 -6.0654757253528913e-01 -1.4357894575811299e+00 -1.7460207061035826e+00 3.3636438380228295e-01 -1.7352116392262102e+00 -1.1698925702209162e+00 
        </Neuron>
        <Neuron NSynapses="17">
          7.9427594268967683e-01 1.3160234260108146e+00 -7.6161645781797227e-01 1.8587403085429055e+00 -1.3909592145614971e+00 -1.1026110754838687e+00 3.0562278929386760e-01 -6.9034996458492745e-02 -2.3267233079641669e+00 4.1605433183049728e-01 6.8982924543142132e-01 3.4609783419046419e-01 -1.4522027785739997e+00 1.0552812665878868e+00 6.1654721633471488e-01 -6.8799765415887848e-01 1.3217252551715017e+00 
        </Neuron>
        <Neuron NSynapses="17">
          -9.3356621856119004e-01 -9.0858539853020581e-01 3.3268371426776056e-01 -1.4941578814688738e-01 1.2779949510427091e+00 6.1574928602973755e-01 3.4898406326591846e-01 -6.6447989583290834e-01 -1.8004723423130267e-01 -1.5652195479615763e+00 1.5492073163093878e+00 -2.8484304022474133e-01 -1.7987873717126173e+00 1.3621803244236105e-01 -9.6739849204618911e-01 -1.6739034978228634e-01 1.3154714116568420e+00 
        </Neuron>
        <Neuron NSynapses="17">
          1.7312381033745823e+00 -1.4930374173075760e+00 7.3624407807221648e-01 1.8535876252990569e+00 9.0702594276505566e-01 -2.2119086548936720e-01 -9.2280249582169716e-01 -4.7091540308878727e-01 -1.9497714169408182e+00 1.7191231639244724e+00 1.8793667710306483e+00 -1.5690598201747746e-01 -5.4470308708155912e-01 -5.4097123227598276e-01 -9.8382142006059958e-01 2.6420385499255922e-01 2.2175866498319445e+00 
        </Neuron>
        <Neuron NSynapses="17">
          -7.0371809552408793e-01 -5.5848055835056198e-01 2.7360625162993713e-01 1.3183849552672129e+00 8.3711992096290821e-02 9.5186584369755334e-01 -1.0454846804258406e+00 1.0650346929806951e+00 1.4645125765446196e-01 6.3970368364825592e-01 1.4785086166164245e+00 7.6314603875988440e-01 -6.0210484139348597e-01 -8.4435921997180552e-01 1.8151489017299309e+00 -1.3355305342011232e+00 -2.9392534275832072e-01 
        </Neuron>
        <Neuron NSynapses="17">
          1.5713593857942438e+00 9.1038919519721517e-01 -2.1017948099992675e-01 1.6321631442846201e+00 1.4222978166895190e+00 -1.7874392192400035e+00 8.8508990166828294e-01 -3.7324110714909237e-01 8.7934594579052644e-02 -1.5076440369957269e+00 -9.0373135913983382e-01 4.0163781681338434e-01 1.7429235950715756e+00 -1.8878212178932541e+00 1.0655704797431617e-01 -6.6090478550707510e-01 3.4094724220862249e-01 
        </Neuron>
        <Neuron NSynapses="17">
          1.7233467057079643e+00 1.4827658638091831e-01 -1.1676965092662238e-01 -8.8599134569252391e-01 7.2947285584578458e-01 1.3218680762006831e+00 1.2254392640277549e+00 -2.6956546647315915e-01 -1.1030110690624995e+00 -1.6422301189414794e+00 1.4498914962396641e+00 -2.0281910255884819e-01 -1.3393651345237405e+00 -1.2547186239518850e+00 5.0720332519370215e-01 9.0873634444284548e-02 -1.5096551031008951e+00 
        </Neuron>
        <Neuron NSynapses="17">
          2.0202164800942692e+00 1.1844061744386816e+00 -2.3473759928597210e-01 6.5121445657514335e-02 1.3998482824228031e+00 8.3045074860373647e-01 7.7173652087370914e-01 -4.3784040816339181e-01 -2.1224236251851845e+00 -6.7255922913648924e-01 1.9101735738861574e+00 2.3010513564696325e-01 7.8647342625458616e-01 -2.7094418009276122e-01 1.9565741016593194e+00 -9.0376165788986451e-01 -7.6476053703135360e-01 
        </Neuron>
        <Neuron NSynapses="17">
          1.1711005881122073e-01 -1.1643274447369483e+00 8.2105539272628514e-01 1.8675451737819337e+00 -1.4514175951779686e+00 6.3085096419551712e-01 -3.1033271093840260e-02 -1.6638107571027474e+00 -1.3102158362066119e+00 1.0398082370408257e+00 5.3744968981070340e-01 6.0330115803704609e-01 -1.1165747606315686e+00 1.0777137071373621e+00 -1.4092885932554535e+00 6.6931349901171366e-01 3.0401829227960092e-01 
        </Neuron>
        <Neuron NSynapses="17">
          -1.2987052370801067e+00 -1.0352340452988296e+00 -1.5876967609247021e+00 -1.4242371468837181e-01 -2.3361938149765700e+00 -1.6114099160545974e+00 -1.4679846858128840e+00 4.3443179185173021e-02 -1.3786263700238233e+00 -1.4972671491199192e+00 1.8672141518289163e+00 -6.2905978222912873e-01 1.0087036816162760e-01 -1.3535109764435396e+00 5.7751185574292296e-01 1.3118494765307946e+00 1.4585310657108970e+00 
        </Neuron>
        <Neuron NSynapses="17">
          -5.7413581201554886e-01 -8.3687470163134126e-01 -6.4214615750527315e-01 -8.7761822978154613e-01 -1.9440688513704616e+00 1.0418736106547900e-01 4.9205074619165456e-01 1.2875286382964455e+00 -5.7985687103017958e-01 4.0773985516118583e-01 -1.3098259439768355e-02 -1.6428036926022236e+00 1.3103874188388942e+00 5.8059699441449808e-01 -6.7580146466946267e-01 -9.6875912719347235e-01 1.0801712894951989e+00 
        </Neuron>
        <Neuron NSynapses="17">
          1.2306666245979763e+00 6.0961652569778590e-01 3.3629844945430643e-01 -2.8833067427476550e-01 1.2514025459129146e+00 6.9944161435245478e-01 6.1178412081280664e-01 -5.4664605315189330e-01 3.3958013594148007e-01 -2.1773073281663410e-01 -2.0064511523070498e+00 -6.9197713886028422e-01 -1.7710904787181119e+00 -1.5023983178631666e+00 -1.7042412068062121e+00 2.2331903041424108e+00 -1.3368055615337071e+00 
        </Neuron>
        <Neuron NSynapses="17">
          1.5208403896878808e+00 -2.4287273498115329e+00 -8.0440050038853378e-02 -1.4098392987111508e+00 1.2134812748419337e+00 1.6484079844820847e+00 -2.6930833676329082e+00 1.4302513112976156e+00 1.4690545176472070e+00 -2.2694093888716407e+00 -1.9206518367197565e+00 -8.2459492784531296e-01 -6.4044499067459615e-01 3.0493349058173620e+00 -7.0892716190091953e-01 -4.9600882741016888e-01 -2.0002602270305170e+00 
        </Neuron>
      </Layer>
      <Layer Index="1" NNeurons="18">
        <Neuron NSynapses="17">
          -7.1692054579903530e-01 -1.3812104436043195e+00 -9.5964479418828674e-01 -1.4887983195261827e+00 7.3743498051829237e-01 -1.9814677557562919e+00 -1.2685701218006462e+00 1.4028748667025470e+00 2.4381389537390699e-01 -5.1451329704230309e-01 2.0630153619529161e+00 -1.5103242853168015e+00 1.7256201731069674e+00 9.9083911225393639e-01 -1.1869187611220502e+00 -5.8090234646597472e-01 -1.6065097604886089e-01 
        </Neuron>
        <Neuron NSynapses="17">
          -8.4607377599876943e-01 5.8442518072311478e-01 1.6476092643495144e+00 1.4462664497357356e+00 1.8914855682387981e+00 -1.7099236555489667e+00 1.2626416182580167e+00 -2.1134725701811128e+00 4.5882431316310696e-01 -1.4900769479689393e+00 -2.0607877383540396e+00 1.7285823471625789e-01 1.0430446238793660e+00 3.4452195692290050e-01 9.8739970374178188e-01 5.0004318000499104e-01 -2.2154162020011745e-01 
        </Neuron>
        <Neuron NSynapses="17">
          -3.6874080956293026e-01 4.0596417247875237e-02 1.9983444588784749e+00 -1.3624549887878095e+00 9.1066900682463314e-01 -1.6767255412717343e+00 -1.4576745018713164e-01 1.3562812513260902e-01 -9.4236502725480259e-02 -1.3776012016832810e+00 6.5726550849369603e-01 1.6987032358110807e+00 5.7165677272800697e-01 -9.4799607513676512e-02 -6.7221985698974906e-01 -1.2132947653121096e+00 -1.5536985304555815e+00 
        </Neuron>
        <Neuron NSynapses="17">
          1.3328332762800503e+00 -4.4305753234277367e-01 -5.1102886434870198e-01 3.9327304027427556e-01 -1.7058781935761880e+00 -1.7438046260995499e+00 -1.8814608795008796e+00 6.6565955065511440e-01 -1.3469823696442074e+00 -1.6181951881110963e+00 -4.0306395792389965e-01 -8.3287091453323858e-01 -1.6879302201168311e+00 1.2583492313442768e+00 -1.5874784355424572e+00 -1.1915366103332963e+00 1.4901562034755484e+00 
        </Neuron>
        <Neuron NSynapses="17">
          3.4125617498998151e-01 3.2076020769108649e-01 -1.3187176098226258e-01 1.2542863863639417e+00 1.7162455519076332e+00 1.2483739230123305e+00 -7.1373583161022658e-01 -4.1027959435389477e-01 -1.5905303075141133e+00 8.9208948577280023e-01 7.7947954864292002e-01 -9.9866447212364259e-03 9.2927273706098290e-01 8.3156861481999544e-01 1.6008818464765224e+00 -1.2408407138307480e+00 1.6363927291653380e+00 
        </Neuron>
        <Neuron NSynapses="17">
          4.7384058066658064e-01 -1.9283104308772285e+00 -1.7463004150544625e-01 -1.0145353805683859e+00 8.8341508825953685e-01 8.4170026786640384e-01 1.1051225916991987e+00 1.6607798732843588e+00 -4.0183355095528156e-01 1.4395804426164174e+00 1.7672990724911515e+00 1.2698663998504994e-01 -6.1213778576083522e-01 1.5915182580808838e+00 -2.0663680190947553e+00 7.0721442739375795e-01 1.6820089542733914e+00 
        </Neuron>
        <Neuron NSynapses="17">
          2.7790643624937991e-02 -3.9941602085119865e-01 -4.8474126236840043e-01 -1.2239398718114087e+00 7.9251026216659648e-01 -2.5845738945569483e+00 1.3778889309094200e-01 -5.3783700076195118e-01 1.5488778440589632e+00 1.1943046325680406e+00 1.9163494912059218e+00 -1.5033198994162547e-01 8.5440383249691665e-02 3.1221140095587391e-01 1.5402205992405187e+00 -1.5531597799574044e+00 -1.4440198811347433e+00 
        </Neuron>
        <Neuron NSynapses="17">
          -6.2465797601001394e-01 -1.5737001098223224e+00 -9.2127967141127798e-01 -1.8361282385206761e+00 7.5422985362566860e-03 4.8283073686182676e-01 -2.1085452047666817e+00 -1.9514499452747993e+00 -1.3820917909806804e-01 1.8120891976250830e+00 1.8565740061308986e+00 1.2471932116029218e+00 -5.4686915347309339e-01 -1.7741743417867275e+00 4.3966888843027026e-02 -1.3029198297496789e+00 -1.4371178859117388e+00 
        </Neuron>
        <Neuron NSynapses="17">
          -1.0600768742046711e+00 -9.7475148015697635e-02 -1.9061921868401257e+00 1.4379992519210392e+00 1.2230907690241728e+00 1.1436626212112919e+00 -4.0984805330502039e-01 -4.4222199629873055e-01 1.6655663956026565e+00 -6.2258419216876637e-01 -3.4519544545266116e-02 1.4048995561893882e+00 1.6568923972479999e+00 -1.0290043164722180e+00 1.6978322998125337e+00 -1.9576456835722313e+00 1.7705121862401121e+00 
        </Neuron>
        <Neuron NSynapses="17">
          1.9713162868477754e+00 -1.6867376437193005e-01 5.4383229498882668e-01 3.7593804330981490e-01 -1.3458594847303640e-01 6.0106319211044756e-01 7.1700493584691471e-01 -9.9283755410303243e-01 -1.7237070582273200e+00 -1.9559531911326814e-02 1.5554054268187989e+00 4.6634859362640557e-01 -9.2339111605623325e-01 -1.8079540207511622e+00 1.7507680016245633e+00 3.8004506536844768e-01 -1.1989420290438459e+00 
        </Neuron>
        <Neuron NSynapses="17">
          -1.7309250658413128e-01 -1.1220403329322624e+00 1.8581786704197902e+00 1.3787020143891653e+00 -1.0589479615950674e+00 -1.5323347494494934e+00 1.2519160212279354e+00 8.8672899315557985e-01 7.4807439084467964e-01 3.1737909130453651e-01 -8.4673036093542464e-01 -1.2956075440881425e+00 4.0121741646165060e-01 3.9524824194880032e-01 1.7975679642713702e-01 -2.0895024748113435e+00 -2.0041444634358316e+00 
        </Neuron>
        <Neuron NSynapses="17">
          -1.9137705656831452e+00 -3.8257980771345812e-01 -1.6280019350137154e+00 1.2243052342456855e-01 -9.3536701855217574e-01 2.0790435611710483e+00 8.8229742419685342e-02 -1.7723611974377298e+00 1.4538989847717056e+00 2.2556291639381958e+00 1.0998952148281154e+00 -5.9980889026125028e-01 -1.1464139582900255e+00 2.1810582608449542e+00 -1.4789743016717392e+00 6.8113350841929363e-02 -1.4305331806057848e+00 
        </Neuron>
        <Neuron NSynapses="17">
          5.0583486861510885e-01 -1.2861606222272239e+00 3.4163186765217353e-02 -1.8950251638142482e-01 -2.7412742500766217e-02 5.2103107687602979e-01 -1.1805085290226609e+00 1.0921307323595315e+00 7.8100993514273120e-01 8.7802566233137658e-01 9.4380884618215133e-01 -1.8849747715925178e+00 7.4304047153822794e-01 -1.7773142996655247e+00 1.1024949966948321e+00 4.9367026886659021e-01 7.0588012805351774e-01 
        </Neuron>
        <Neuron NSynapses="17">
          1.3116739241593993e+00 1.4880749064310372e+00 -2.1237114062410587e+00 -6.9146937959774146e-01 -8.2839387357421790e-01 1.1335208531426699e+00 1.7858482441588322e-01 -1.5457782499726794e-01 -6.4993422493638708e-01 -7.3417227791428363e-01 -1.0190182659811147e+00 -4.3809602931256347e-01 -1.4950277205403606e+00 -2.9468039289335862e-01 2.9889394174727846e-01 -5.3373657913744410e-01 -1.2614281087500994e+00 
        </Neuron>
        <Neuron NSynapses="17">
          1.6908882120142943e-01 2.4726369606734971e-01 -6.1268651955295607e-02 -1.1611994642074650e+00 1.3012767877828810e+00 1.8186397865318218e-01 3.8324553267734934e-01 6.2112637747227273e-01 -7.4534009318644567e-01 -4.4458575431639191e-01 -1.2135037758913092e-03 -2.0230416943003742e+00 -1.2563740792019449e+00 -1.0563947330240033e+00 1.0511168240295741e+00 -2.2640234978463520e+00 1.2364442755092362e+00 
        </Neuron>
        <Neuron NSynapses="17">
          2.0847082149903540e+00 1.6374078598131367e+00 9.2296470160881727e-01 8.1871881918292211e-01 4.9066918290114814e-01 -1.3227876210017631e+00 -1.6496211327805681e+00 -1.2003373772845001e+00 -1.0654212655647803e+00 7.3599846611446862e-01 -1.0022236604337366e-01 1.5308141291958527e-01 1.4312667873927902e+00 1.0494831440931152e+00 -1.2284891617437854e+00 7.3464693680092974e-01 -1.5560501108790292e+00 
        </Neuron>
        <Neuron NSynapses="17">
          1.0387157415831212e+00 -1.8477532332325215e+00 7.2968602558636531e-01 -3.0878807338062686e-01 8.0959292540678696e-01 -2.2584903660330200e+00 -6.5293790797269838e-02 -1.8910664744776644e+00 3.0747944519397882e-02 1.3674442888703495e+00 -4.9706547602641232e-01 6.2592526533982162e-01 -2.1204589065270580e+00 1.1153099671004756e+00 -5.8030464283666039e-01 6.0017589830252149e-01 -1.8626584516114848e+00 
        </Neuron>
        <Neuron NSynapses="17">
          -1.4746184995774978e+00 1.8485904366926376e+00 -2.6233144014769016e+00 -1.2084091012040263e+00 -9.0214699499401696e-01 2.5309220906474890e+00 1.6550847200300449e+00 1.9840044164994806e+00 -1.7163678036597132e+00 7.3087132484710471e-01 4.2260032225763794e-01 6.4967781506317074e-02 -1.1037918036065713e+00 -1.4124558052247929e+00 3.1163229200290571e-01 -2.2251745565130321e-01 1.8850818488259222e+00 
        </Neuron>
      </Layer>
      <Layer Index="2" NNeurons="18">
        <Neuron NSynapses="1">
          -2.6128450987195250e-02 
        </Neuron>
        <Neuron NSynapses="1">
          -3.0769480365578129e-02 
        </Neuron>
        <Neuron NSynapses="1">
          -4.3220119177744593e-01 
        </Neuron>
        <Neuron NSynapses="1">
          -1.6588661710249478e-02 
        </Neuron>
        <Neuron NSynapses="1">
          -5.1791162259161388e-02 
        </Neuron>
        <Neuron NSynapses="1">
          1.4102877767663938e-01 
        </Neuron>
        <Neuron NSynapses="1">
          -2.5097690771230113e-03 
        </Neuron>
        <Neuron NSynapses="1">
          -1.6625869799667577e-03 
        </Neuron>
        <Neuron NSynapses="1">
          2.5132951242831904e-02 
        </Neuron>
        <Neuron NSynapses="1">
          5.1730637243513795e-02 
        </Neuron>
        <Neuron NSynapses="1">
          4.1062347296498861e-04 
        </Neuron>
        <Neuron NSynapses="1">
          -1.6480945228923842e-02 
        </Neuron>
        <Neuron NSynapses="1">
          -3.6215148445034664e-02 
        </Neuron>
        <Neuron NSynapses="1">
          1.3371480375947077e-02 
        </Neuron>
        <Neuron NSynapses="1">
          -6.1343385069387800e-04 
        </Neuron>
        <Neuron NSynapses="1">
          -3.7744402453490915e-02 
        </Neuron>
        <Neuron NSynapses="1">
          -5.4304256690820972e-02 
        </Neuron>
        <Neuron NSynapses="1">
          -4.1904152814537621e-01 
        </Neuron>
      </Layer>
      <Layer Index="3" NNeurons="1">
        <Neuron NSynapses="0"/>
      </Layer>
    </Layout>
  </Weights>
</MethodSetup>
