<?xml version="1.0"?>
<MethodSetup Method="MLP::XS_54_133_0_cap">
  <GeneralInfo>
    <Info name="TMVA Release" value="4.2.1 [262657]"/>
    <Info name="ROOT Release" value="6.06/02 [394754]"/>
    <Info name="Creator" value="mouginot"/>
    <Info name="Date" value="Fri Feb 24 06:37:23 2017"/>
    <Info name="Host" value="Linux e300.chtc.wisc.edu 2.6.32-642.13.1.el6.x86_64 #1 SMP Tue Jan 10 11:22:50 CST 2017 x86_64 x86_64 x86_64 GNU/Linux"/>
    <Info name="Dir" value="/mnt/gluster/mouginot/TRU_MOX_XS/Generate"/>
    <Info name="Training events" value="198960"/>
    <Info name="TrainingTime" value="1.19904495e+05"/>
    <Info name="AnalysisType" value="Regression"/>
  </GeneralInfo>
  <Options>
    <Option name="NCycles" modified="Yes">20000</Option>
    <Option name="HiddenLayers" modified="Yes">N,N</Option>
    <Option name="NeuronType" modified="Yes">tanh</Option>
    <Option name="RandomSeed" modified="No">1</Option>
    <Option name="EstimatorType" modified="No">MSE</Option>
    <Option name="NeuronInputType" modified="No">sum</Option>
    <Option name="V" modified="Yes">False</Option>
    <Option name="VerbosityLevel" modified="No">Default</Option>
    <Option name="VarTransform" modified="Yes">Norm</Option>
    <Option name="H" modified="Yes">False</Option>
    <Option name="CreateMVAPdfs" modified="No">False</Option>
    <Option name="IgnoreNegWeightsInTraining" modified="No">False</Option>
    <Option name="TrainingMethod" modified="Yes">BFGS</Option>
    <Option name="LearningRate" modified="No">2.000000e-02</Option>
    <Option name="DecayRate" modified="No">1.000000e-02</Option>
    <Option name="TestRate" modified="Yes">6</Option>
    <Option name="EpochMonitoring" modified="No">False</Option>
    <Option name="Sampling" modified="Yes">3.000000e-01</Option>
    <Option name="SamplingEpoch" modified="Yes">8.000000e-01</Option>
    <Option name="SamplingImportance" modified="No">1.000000e+00</Option>
    <Option name="SamplingTraining" modified="No">True</Option>
    <Option name="SamplingTesting" modified="No">False</Option>
    <Option name="ResetStep" modified="No">50</Option>
    <Option name="Tau" modified="No">3.000000e+00</Option>
    <Option name="BPMode" modified="No">sequential</Option>
    <Option name="BatchSize" modified="No">-1</Option>
    <Option name="ConvergenceImprove" modified="Yes">1.000000e-06</Option>
    <Option name="ConvergenceTests" modified="Yes">15</Option>
    <Option name="UseRegulator" modified="Yes">False</Option>
    <Option name="UpdateLimit" modified="No">10000</Option>
    <Option name="CalculateErrors" modified="No">False</Option>
    <Option name="WeightRange" modified="No">1.000000e+00</Option>
  </Options>
  <Variables NVar="17">
    <Variable VarIndex="0" Expression="235U" Label="235U" Title="235U" Unit="IsotopicFraction" Internal="235U" Type="F" Min="1.71346517e-06" Max="1.92414057e-02"/>
    <Variable VarIndex="1" Expression="238U" Label="238U" Title="238U" Unit="IsotopicFraction" Internal="238U" Type="F" Min="7.85399854e-01" Max="9.68733251e-01"/>
    <Variable VarIndex="2" Expression="237Np" Label="237Np" Title="237Np" Unit="IsotopicFraction" Internal="237Np" Type="F" Min="1.63990119e-08" Max="1.97294168e-04"/>
    <Variable VarIndex="3" Expression="238Pu" Label="238Pu" Title="238Pu" Unit="IsotopicFraction" Internal="238Pu" Type="F" Min="4.69728775e-07" Max="3.96428024e-03"/>
    <Variable VarIndex="4" Expression="239Pu" Label="239Pu" Title="239Pu" Unit="IsotopicFraction" Internal="239Pu" Type="F" Min="2.15940680e-02" Max="1.89886928e-01"/>
    <Variable VarIndex="5" Expression="240Pu" Label="240Pu" Title="240Pu" Unit="IsotopicFraction" Internal="240Pu" Type="F" Min="1.54567579e-06" Max="3.95636074e-02"/>
    <Variable VarIndex="6" Expression="241Pu" Label="241Pu" Title="241Pu" Unit="IsotopicFraction" Internal="241Pu" Type="F" Min="3.22813172e-08" Max="7.04628276e-03"/>
    <Variable VarIndex="7" Expression="242Pu" Label="242Pu" Title="242Pu" Unit="IsotopicFraction" Internal="242Pu" Type="F" Min="1.58277174e-07" Max="1.98803633e-03"/>
    <Variable VarIndex="8" Expression="241Am" Label="241Am" Title="241Am" Unit="IsotopicFraction" Internal="241Am" Type="F" Min="3.13082671e-10" Max="7.48056592e-03"/>
    <Variable VarIndex="9" Expression="242Amm" Label="242Amm" Title="242Amm" Unit="IsotopicFraction" Internal="242Amm" Type="F" Min="1.34159976e-07" Max="1.16249369e-02"/>
    <Variable VarIndex="10" Expression="243Am" Label="243Am" Title="243Am" Unit="IsotopicFraction" Internal="243Am" Type="F" Min="2.04390229e-08" Max="1.99559363e-04"/>
    <Variable VarIndex="11" Expression="242Cm" Label="242Cm" Title="242Cm" Unit="IsotopicFraction" Internal="242Cm" Type="F" Min="1.48285639e-09" Max="1.93909858e-04"/>
    <Variable VarIndex="12" Expression="243Cm" Label="243Cm" Title="243Cm" Unit="IsotopicFraction" Internal="243Cm" Type="F" Min="9.09117492e-09" Max="1.97552916e-04"/>
    <Variable VarIndex="13" Expression="244Cm" Label="244Cm" Title="244Cm" Unit="IsotopicFraction" Internal="244Cm" Type="F" Min="2.46570231e-09" Max="1.97112051e-04"/>
    <Variable VarIndex="14" Expression="245Cm" Label="245Cm" Title="245Cm" Unit="IsotopicFraction" Internal="245Cm" Type="F" Min="9.47205692e-09" Max="1.97873349e-04"/>
    <Variable VarIndex="15" Expression="246Cm" Label="246Cm" Title="246Cm" Unit="IsotopicFraction" Internal="246Cm" Type="F" Min="2.33963915e-09" Max="1.98596885e-04"/>
    <Variable VarIndex="16" Expression="Time" Label="Time" Title="Time" Unit="seconds" Internal="Time" Type="F" Min="0.00000000e+00" Max="1.89328320e+08"/>
  </Variables>
  <Spectators NSpec="0"/>
  <Classes NClass="1">
    <Class Name="Regression" Index="0"/>
  </Classes>
  <Targets NTrgt="1">
    <Target TargetIndex="0" Expression="XS_54_133_0_cap" Label="XS_54_133_0_cap" Title="XS_54_133_0_cap" Unit="" Internal="XS_54_133_0_cap" Type="F" Min="8.02077579e+00" Max="1.99849052e+01"/>
  </Targets>
  <Transformations NTransformations="1">
    <Transform Name="Normalize">
      <Selection>
        <Input NInputs="18">
          <Input Type="Variable" Label="235U" Expression="235U"/>
          <Input Type="Variable" Label="238U" Expression="238U"/>
          <Input Type="Variable" Label="237Np" Expression="237Np"/>
          <Input Type="Variable" Label="238Pu" Expression="238Pu"/>
          <Input Type="Variable" Label="239Pu" Expression="239Pu"/>
          <Input Type="Variable" Label="240Pu" Expression="240Pu"/>
          <Input Type="Variable" Label="241Pu" Expression="241Pu"/>
          <Input Type="Variable" Label="242Pu" Expression="242Pu"/>
          <Input Type="Variable" Label="241Am" Expression="241Am"/>
          <Input Type="Variable" Label="242Amm" Expression="242Amm"/>
          <Input Type="Variable" Label="243Am" Expression="243Am"/>
          <Input Type="Variable" Label="242Cm" Expression="242Cm"/>
          <Input Type="Variable" Label="243Cm" Expression="243Cm"/>
          <Input Type="Variable" Label="244Cm" Expression="244Cm"/>
          <Input Type="Variable" Label="245Cm" Expression="245Cm"/>
          <Input Type="Variable" Label="246Cm" Expression="246Cm"/>
          <Input Type="Variable" Label="Time" Expression="Time"/>
          <Input Type="Target" Label="XS_54_133_0_cap" Expression="XS_54_133_0_cap"/>
        </Input>
        <Output NOutputs="18">
          <Output Type="Variable" Label="235U" Expression="235U"/>
          <Output Type="Variable" Label="238U" Expression="238U"/>
          <Output Type="Variable" Label="237Np" Expression="237Np"/>
          <Output Type="Variable" Label="238Pu" Expression="238Pu"/>
          <Output Type="Variable" Label="239Pu" Expression="239Pu"/>
          <Output Type="Variable" Label="240Pu" Expression="240Pu"/>
          <Output Type="Variable" Label="241Pu" Expression="241Pu"/>
          <Output Type="Variable" Label="242Pu" Expression="242Pu"/>
          <Output Type="Variable" Label="241Am" Expression="241Am"/>
          <Output Type="Variable" Label="242Amm" Expression="242Amm"/>
          <Output Type="Variable" Label="243Am" Expression="243Am"/>
          <Output Type="Variable" Label="242Cm" Expression="242Cm"/>
          <Output Type="Variable" Label="243Cm" Expression="243Cm"/>
          <Output Type="Variable" Label="244Cm" Expression="244Cm"/>
          <Output Type="Variable" Label="245Cm" Expression="245Cm"/>
          <Output Type="Variable" Label="246Cm" Expression="246Cm"/>
          <Output Type="Variable" Label="Time" Expression="Time"/>
          <Output Type="Target" Label="XS_54_133_0_cap" Expression="XS_54_133_0_cap"/>
        </Output>
      </Selection>
      <Class ClassIndex="0">
        <Ranges>
          <Range Index="0" Min="1.7134651670858148e-06" Max="1.9241405650973320e-02"/>
          <Range Index="1" Min="7.8539985418319702e-01" Max="9.6873325109481812e-01"/>
          <Range Index="2" Min="1.6399011926182538e-08" Max="1.9729416817426682e-04"/>
          <Range Index="3" Min="4.6972877498774324e-07" Max="3.9642802439630032e-03"/>
          <Range Index="4" Min="2.1594068035483360e-02" Max="1.8988692760467529e-01"/>
          <Range Index="5" Min="1.5456757864740212e-06" Max="3.9563607424497604e-02"/>
          <Range Index="6" Min="3.2281317174920332e-08" Max="7.0462827570736408e-03"/>
          <Range Index="7" Min="1.5827717447791656e-07" Max="1.9880363252013922e-03"/>
          <Range Index="8" Min="3.1308267089968922e-10" Max="7.4805659241974354e-03"/>
          <Range Index="9" Min="1.3415997557331139e-07" Max="1.1624936945736408e-02"/>
          <Range Index="10" Min="2.0439022918594674e-08" Max="1.9955936295446008e-04"/>
          <Range Index="11" Min="1.4828563932312022e-09" Max="1.9390985835343599e-04"/>
          <Range Index="12" Min="9.0911749239808159e-09" Max="1.9755291577894241e-04"/>
          <Range Index="13" Min="2.4657023089957875e-09" Max="1.9711205095518380e-04"/>
          <Range Index="14" Min="9.4720569165929192e-09" Max="1.9787334895227104e-04"/>
          <Range Index="15" Min="2.3396391490848600e-09" Max="1.9859688472934067e-04"/>
          <Range Index="16" Min="0.0000000000000000e+00" Max="1.8932832000000000e+08"/>
          <Range Index="17" Min="8.0207757949829102e+00" Max="1.9984905242919922e+01"/>
        </Ranges>
      </Class>
    </Transform>
  </Transformations>
  <MVAPdfs/>
  <Weights>
    <Layout NLayers="4">
      <Layer Index="0" NNeurons="18">
        <Neuron NSynapses="17">
          -4.5748845845571912e-01 8.7622583238277274e-01 2.3000915981289380e-01 2.1069339811376491e+00 -1.8298977744584466e+00 -1.3225707258198546e-02 -1.0693757153504317e+00 1.5997357938350401e+00 -1.2551181732631176e+00 -1.6746165934432760e+00 -1.5868902710185095e+00 -6.1910703012340473e-01 -9.1970562448324134e-01 -6.7462609604450796e-01 1.6988879699470585e-01 -2.4132529247850576e-01 -7.2793952537706841e-01 
        </Neuron>
        <Neuron NSynapses="17">
          1.8617280687757551e+00 1.0348136071106806e+00 2.3646781261476497e+00 -1.3073248601812915e+00 -1.1237970997201450e+00 -8.9602186398864492e-01 6.9919926528265985e-01 -4.5986904493779795e-01 -4.4151962160857461e-01 1.9541747779507883e+00 -6.7603219547387483e-01 -1.1154167971925506e+00 -1.3892143646936636e-01 1.3256639865641802e+00 1.7648172845002588e-01 1.2467627827781576e+00 4.4440615913413256e-01 
        </Neuron>
        <Neuron NSynapses="17">
          2.0501319410308017e-01 -8.6692940231670387e-02 -9.8754614367372806e-01 1.4352055436894922e+00 -1.5322904644846245e+00 9.3809011330427516e-01 1.1351802762984928e+00 1.0339310061275069e+00 1.6932234153107959e+00 1.2694525569952151e+00 -6.4361154676532484e-01 -1.1437615261301026e+00 5.1830474071317123e-01 2.2194258505200173e-01 1.4710092979706426e+00 1.3595551143647031e+00 1.5401363012765328e+00 
        </Neuron>
        <Neuron NSynapses="17">
          1.4044570299742010e+00 -1.4022652222995255e+00 1.5676205692814538e+00 -2.2071162056191502e+00 -9.7969538509023890e-01 -1.2618825570729839e+00 -1.4098492852471129e+00 1.6408868604997255e+00 5.1081656349356452e-01 -1.3359918057344682e+00 4.2718903652005535e-01 -2.2915177925083430e-01 4.0793958403491742e-01 1.9007786679412064e+00 -2.4389931818560726e-01 3.2331744807626106e-01 -9.0959725877918307e-01 
        </Neuron>
        <Neuron NSynapses="17">
          6.5819527376335230e-01 -1.4275084950440620e+00 -1.4224694664649369e+00 -7.1654372292266566e-01 9.4824283882438298e-01 2.3378329920627974e+00 8.7160116340166904e-01 -7.7727841302299161e-01 -1.7640555278443530e+00 -2.1522983700275211e+00 7.0305355508785827e-01 -7.8640450934368278e-03 2.0701487065045221e+00 1.3633006113785748e-01 2.1694499315197624e+00 -2.0513080067941689e+00 -1.3120010518999226e+00 
        </Neuron>
        <Neuron NSynapses="17">
          7.9832430160283102e-02 1.1993549980996581e+00 -7.5100961864545057e-01 -1.8883526130058388e+00 -1.8546174754318221e+00 8.3614398343332549e-02 1.4768874722313860e-01 1.8838987455230309e+00 -1.6866539504982085e+00 -8.7442811920945240e-01 1.6377803969500606e+00 -5.7832242972765568e-01 -1.7129087559256235e+00 -1.2448135344422144e+00 2.6044552111130670e-01 -1.6666981511227543e+00 -1.3030128404687960e+00 
        </Neuron>
        <Neuron NSynapses="17">
          1.1238486494884743e+00 2.1469299954871457e+00 -1.1318954975414573e-01 7.3597670774928137e-01 -1.5819400055699366e+00 -1.1790416600117521e+00 5.4605908366146871e-01 1.1310784578439024e+00 -2.0612046407303337e+00 5.3965363681680867e-01 6.6956997569651200e-01 9.7387273836358246e-01 -1.8873953470037428e+00 2.3822732131390629e+00 -4.7944383096753126e-02 -2.3695799943499471e-01 1.2467627459676649e+00 
        </Neuron>
        <Neuron NSynapses="17">
          -9.6727582537828460e-01 -1.3456816423624931e+00 3.2001681001353993e-01 -4.9219297065621315e-01 1.6142386119437857e+00 8.7195215675350324e-01 1.0618785987034135e-02 -1.1100434485443790e-01 9.9752589833903102e-02 -1.5910796472496564e+00 1.0163397027236731e+00 3.0803511277830198e-01 -1.8467976672092417e+00 5.8257355224988472e-01 -1.0766937780485322e+00 1.3796364010655290e-01 1.1554049664231645e+00 
        </Neuron>
        <Neuron NSynapses="17">
          1.8834846060430632e+00 -1.5135286485697224e+00 1.0173361394334468e+00 8.1575520364954346e-01 1.0905520415591139e+00 -1.1427252399500830e-01 -9.5960862348854781e-01 5.4375029282624809e-01 -1.5163592401884411e+00 1.3967254380713976e+00 1.4664072065733673e+00 3.0073570000145500e-01 -8.3643029342272368e-01 4.8104434892673426e-01 -1.6076423336951129e+00 1.1029080203440536e+00 2.0623872167565809e+00 
        </Neuron>
        <Neuron NSynapses="17">
          -5.4439533036116095e-01 -5.2440701000983891e-01 3.8540572083617847e-01 9.9539999267477652e-01 4.3296951565415015e-01 1.1157284587102219e+00 -1.2085032075735394e+00 1.4586921338558747e+00 4.9883824496130086e-01 2.9270767803850867e-01 5.8359950397738358e-01 6.9318516873799962e-01 -7.3970287662593071e-01 -7.2861392499874589e-01 1.5004514803066116e+00 -8.8048620392388000e-01 -3.8171292040658172e-01 
        </Neuron>
        <Neuron NSynapses="17">
          1.5303834877335334e+00 8.7243772249606710e-01 -1.7499894136331431e-01 1.5201391564135074e+00 1.6973599497336793e+00 -1.4243407257253973e+00 6.1336388132170871e-01 5.1772553542263296e-02 3.7152792572989030e-01 -1.7069837563342616e+00 -1.3471432048741001e+00 9.7018594398968416e-01 1.5271397464547392e+00 -1.7415729078992599e+00 2.3004114709394136e-01 -7.5733711651690561e-01 3.3954162263260984e-01 
        </Neuron>
        <Neuron NSynapses="17">
          1.8828252959541871e+00 9.0826052662120061e-03 4.0177038504147923e-02 -1.5912660495441615e+00 7.5812871666336823e-01 1.3767711632663171e+00 1.3071722311692728e+00 7.4936451745254951e-01 -8.8863798718514386e-01 -1.5341652874021865e+00 1.1910622037216023e+00 8.8386476730172914e-01 -1.6953519351133470e+00 -3.9538941223747864e-01 1.8813015296025692e-01 5.4506111553786352e-01 -1.5517379771041331e+00 
        </Neuron>
        <Neuron NSynapses="17">
          1.7704675479536811e+00 1.2530621571407297e+00 5.0620439649055396e-02 -7.5514984069287472e-01 1.2616397510835742e+00 6.7319016273304022e-01 8.6359656443877730e-01 4.2760604632613619e-01 -1.9873475487873649e+00 -4.7266409933454823e-01 1.8238252702270394e+00 1.6705476655226512e+00 2.7942694737008528e-01 5.7959674838696140e-01 1.7045326640864125e+00 -9.7117359494233202e-01 -7.9645465474794375e-01 
        </Neuron>
        <Neuron NSynapses="17">
          -2.1588327598305829e-02 -1.2029784258000806e+00 1.1334257676998845e+00 1.4816726271208782e+00 -1.2881775225247631e+00 9.0692868001176685e-01 2.6182691383425358e-02 -1.3738929745677908e+00 -1.1726382166689819e+00 9.6428671372583497e-01 1.7246129847668568e-01 9.9564685967211919e-01 -1.2757416887590745e+00 1.6766693120844620e+00 -1.6395853375892762e+00 8.8996006395753280e-01 2.1998466780315662e-01 
        </Neuron>
        <Neuron NSynapses="17">
          -1.2877744309309314e+00 -1.3046834873970661e+00 -1.5185613447008020e+00 -5.1429486671546099e-01 -2.0087600514013344e+00 -1.1691629045273251e+00 -1.5992350285843289e+00 3.6831647820335067e-01 -1.0339176948506559e+00 -1.4527107056704107e+00 1.3551798071377590e+00 -5.6974860055993848e-01 -8.7394803948187307e-03 -9.8827490880683411e-01 4.4670476319939212e-01 1.5488087085865145e+00 1.3951814479912026e+00 
        </Neuron>
        <Neuron NSynapses="17">
          -7.1129619280655987e-01 -1.0358258810287642e+00 -6.0248176479503013e-01 -1.2365583281740271e+00 -1.8055291890415996e+00 8.9617174928506169e-02 4.4560309092934186e-01 1.9596353440138148e+00 -2.2948634436380022e-01 5.0738440586428768e-01 -4.4928389334128904e-01 -1.5443629910604777e+00 9.6658943460152513e-01 1.3024811680237536e+00 -8.0640556883489367e-01 -6.3077638231584976e-01 9.9523061355961917e-01 
        </Neuron>
        <Neuron NSynapses="17">
          1.1910925233730540e+00 4.9242663323176089e-01 -1.6987505229200964e-01 -5.6851716788730655e-01 1.1864627921006292e+00 6.6261957352166034e-01 9.0727550879300856e-01 -5.4662580937603698e-02 1.9044991623402499e-01 -6.5095918438581632e-02 -1.1970643778522545e+00 -8.2992255739721674e-02 -1.7482390588677039e+00 -1.0545328499319948e+00 -1.5921370460300641e+00 1.5094547900484785e+00 -1.4469961203076769e+00 
        </Neuron>
        <Neuron NSynapses="17">
          1.3601200175213080e+00 -2.4589506960639378e+00 -2.7986819882003416e-01 2.7484331872556816e-01 1.2987244839869521e+00 1.8618280855375438e+00 -2.7119945527064093e+00 -1.0605172033682564e+00 9.4395750175168369e-01 -2.2661269409589333e+00 -2.0106514325937894e+00 -2.9070714263555852e+00 -9.4011545975394170e-02 1.1913094031088196e+00 3.2725573388359486e-01 -1.1674668422589882e+00 -1.8965898955284743e+00 
        </Neuron>
      </Layer>
      <Layer Index="1" NNeurons="18">
        <Neuron NSynapses="17">
          -1.3303077131043877e+00 -1.7094103294284666e+00 -8.8881133031811732e-01 -1.4670356570460874e+00 9.4632622207582529e-01 -1.1237410607885088e+00 -1.0879556567708515e+00 1.4896977292050357e+00 4.8350951697670341e-01 -6.3571604505681856e-01 1.7679677191255481e+00 -1.7986196553836262e+00 1.4153786151286234e+00 9.7590257587763340e-01 -1.1357242040287268e+00 -7.7521317212550600e-01 -2.2435585447833462e+00 
        </Neuron>
        <Neuron NSynapses="17">
          -9.6055239619847099e-01 5.0142762274874519e-01 2.0265400167192431e+00 1.2956313072966223e+00 1.4735437016916431e+00 -1.2229983283802011e+00 8.2185580774086686e-01 -2.1535593150589709e+00 5.8476475658534699e-01 -1.7257048025458854e+00 -1.7461747861764976e+00 -4.6598276667439969e-03 1.3650579018523947e+00 3.6384188459531092e-01 9.7728338755093269e-01 3.3686650479965319e-01 -2.1515066088504127e+00 
        </Neuron>
        <Neuron NSynapses="17">
          -5.0477784106187540e-01 1.4592457354914329e-01 1.9325901084241930e+00 -1.3490515798452005e+00 2.5739436027844986e-01 -1.2381413150371678e+00 -7.6306704089363975e-01 -2.3591316588822586e-02 7.1531790368189685e-02 -1.1490180910272461e+00 1.0620760505936473e+00 1.6833332832953429e+00 8.4181313143338588e-01 -1.4399292658999138e-01 -7.2838836286512421e-01 -1.4789689362344358e+00 -2.2254510205667950e+00 
        </Neuron>
        <Neuron NSynapses="17">
          8.0995170637399261e-01 -5.5310812715216073e-01 -1.0686181691461036e+00 2.6596036477387563e-01 -1.8422523494572562e+00 -1.3143724606698897e+00 -1.3418835113187986e+00 3.4243540886123364e-01 -1.1784412186689759e+00 -1.6854187722400531e+00 -8.3842479230088984e-01 -9.7252022145713646e-01 -1.6607503532608896e+00 1.2850098044136822e+00 -1.6207433017937471e+00 -1.2383440208436871e+00 2.0827261618852546e+00 
        </Neuron>
        <Neuron NSynapses="17">
          6.9269752423135178e-01 3.9146455655468509e-01 2.5673729954683980e-02 1.4383050518325105e+00 1.8786628084725403e+00 7.8818799024948849e-01 -1.2236972212499364e+00 -5.6997553054491490e-01 -1.7399399118455299e+00 9.2318366819880837e-01 1.0370784328242073e+00 9.9186119069972059e-02 1.0507760725865452e+00 8.1435417783046882e-01 1.5245789197331994e+00 -1.3529571977633073e+00 3.2274018264900071e+00 
        </Neuron>
        <Neuron NSynapses="17">
          5.8989958432748890e-01 -1.9127646889898569e+00 -4.2839544256076023e-01 -7.8998556315953161e-01 1.0505836696628525e+00 8.1396455024892866e-01 9.7842737726582529e-01 1.1002647206509162e+00 -1.6692761826256469e-01 1.6514295242889456e+00 1.9295793258998679e+00 1.9198428080406249e-01 -1.2771422567183397e+00 1.5913230409172499e+00 -2.1206030183210087e+00 5.2992630751314429e-01 3.3515794714131175e+00 
        </Neuron>
        <Neuron NSynapses="17">
          -5.5618578586809031e-01 -8.3959347467246814e-01 -2.5445511630988200e-02 -1.1237683106044252e+00 4.8017860505905674e-01 -1.6123911734902752e+00 3.2373197984123425e-01 -4.7423110576050631e-01 2.0685149256181767e+00 1.0998970581840015e+00 1.6595580572190507e+00 -5.3626181705554266e-01 -4.7543845547563640e-01 2.4588378149176052e-01 1.5399559126328446e+00 -1.8739943242256365e+00 -3.5518117783584202e+00 
        </Neuron>
        <Neuron NSynapses="17">
          -7.2594067776884252e-01 -1.5291284268836212e+00 -1.5749237563280674e+00 -1.9966858430741474e+00 6.0899749531619729e-01 -3.0752695382993822e-01 -1.6255382928114441e+00 -1.7252714803320937e+00 -3.9232017259240126e-01 1.8240745240560892e+00 1.5360220785753826e+00 1.2984976399069286e+00 -5.7863853168994039e-01 -1.7496709681603047e+00 1.2056263716350696e-01 -1.2692575550836038e+00 -3.1309474836144813e+00 
        </Neuron>
        <Neuron NSynapses="17">
          -5.8837508866932497e-01 7.3085189293350353e-02 -1.5505004709385237e+00 1.4980185579935414e+00 1.2059417548621196e+00 3.1770716238892094e-01 -7.9208079961973066e-01 -5.2997751788474678e-01 1.5928186037570575e+00 -4.7806601950314137e-01 2.8936515693014131e-01 1.6079837815316043e+00 1.6140526131042745e+00 -1.0624416110518546e+00 1.6241950384172548e+00 -1.9314396168532926e+00 3.7287420900813650e+00 
        </Neuron>
        <Neuron NSynapses="17">
          2.3198710220343393e+00 -1.3128791123660549e-01 2.0804348305029483e-01 3.4469253998955196e-01 -6.6334981351274991e-01 1.1275703701442399e+00 -7.7449913633110101e-02 -1.5996193908636847e+00 -1.3465556934334357e+00 -1.2700766470576941e-01 1.8602511159470121e+00 4.3095633485238344e-01 -5.8619453816769740e-01 -1.8241752013902708e+00 1.7361521610450708e+00 3.9966606416220901e-01 -4.1138694890093062e+00 
        </Neuron>
        <Neuron NSynapses="17">
          -2.9437967822715116e-01 -1.0678555805030396e+00 1.3269060886732897e+00 1.3479370269410547e+00 -6.3063846778457255e-01 -1.2747145872885748e+00 1.7486257048667870e+00 8.9787740708061214e-01 4.4466344891813869e-01 3.1722603351066032e-02 -1.1880852923556320e+00 -1.2339866764461356e+00 1.0584162033524622e+00 4.7412188603211175e-01 2.9717187616854618e-01 -1.7634595602519123e+00 -4.0283347275612966e+00 
        </Neuron>
        <Neuron NSynapses="17">
          -2.0191770661095960e+00 -3.4062715033648550e-01 -1.5527130309907013e+00 2.1789691609765974e-01 -5.0889198580510919e-01 1.4223339516281159e+00 5.9481101497774447e-01 -1.9291117535326534e+00 1.1752381151409501e+00 1.8962636871398650e+00 8.3261491604647286e-01 -4.4556995464679827e-01 -8.5826098047139432e-01 2.2297823627422013e+00 -1.4818742485154845e+00 5.4431147267275437e-01 -3.4992186460118786e+00 
        </Neuron>
        <Neuron NSynapses="17">
          7.6172832022356474e-01 -1.1423851940068781e+00 1.4778196128490370e-01 -2.0227638088395858e-01 2.6190041090202099e-01 -5.3997670593399660e-01 -6.6344064600889374e-01 7.5430035780298677e-01 3.7651571841597503e-01 8.9171205789476393e-01 9.5149161340097788e-01 -1.7024227822004943e+00 1.3390523488052386e+00 -1.8178196944338665e+00 1.0470318264137650e+00 1.0734171363494107e+00 2.8142738402293581e+00 
        </Neuron>
        <Neuron NSynapses="17">
          1.4610439882347765e+00 1.3997554404185875e+00 -1.8103762028263146e+00 -6.2487684914497998e-01 -1.0804732842122504e+00 5.6026096539086201e-01 -2.4929551989780412e-02 -6.5235078775764704e-02 -6.0526227209693684e-01 -5.2829036133669660e-01 -9.6122993172147997e-01 -3.3188429468874947e-01 -1.7643188912046823e+00 -2.9344604107451377e-01 3.0926971807676901e-01 -7.0565590742297102e-01 -2.4361466239662599e+00 
        </Neuron>
        <Neuron NSynapses="17">
          1.0410594828471820e-01 2.2269971893032542e-01 -3.5282924665598109e-01 -1.2629724434673399e+00 1.8837932154081525e+00 -2.2852855869465680e-01 9.6096703122288474e-01 5.5985278349033019e-01 -1.0222997772484108e+00 -8.6555850891814490e-01 -3.4041044889183619e-01 -1.9361728087398289e+00 -7.0033276988382065e-01 -1.0163193047778347e+00 1.0904401662132914e+00 -1.8900776758825135e+00 1.5932083623880402e+00 
        </Neuron>
        <Neuron NSynapses="17">
          2.0423974557177216e+00 1.6382412771466157e+00 1.0694080308971072e+00 8.4378725463191129e-01 -8.0748387413117663e-03 -7.7126802384855830e-01 -2.2734904729008383e+00 -9.3914407650500520e-01 -7.5433061842796933e-01 1.4632736390152707e+00 2.8810110352650575e-01 1.0529295501222076e-01 1.5387268167615913e+00 1.0165932121014545e+00 -1.2395192339887560e+00 2.3758558542684707e-01 -3.2312811291826171e+00 
        </Neuron>
        <Neuron NSynapses="17">
          7.6449430075690805e-01 -1.8565727339791942e+00 2.1433605960248736e-01 -4.7828929259802144e-01 8.2797485184730379e-01 -2.2152466208415946e+00 5.3455162766109576e-01 -1.7329904750767720e+00 2.7517552613936170e-02 1.3311486499595917e+00 -9.1234098100338790e-01 5.4227686597492897e-01 -1.6178608938320220e+00 1.1430188187298300e+00 -5.3864485461790512e-01 8.0539898940327015e-01 -3.5649577063692468e+00 
        </Neuron>
        <Neuron NSynapses="17">
          -9.4941280068861755e-01 1.9955924648261498e+00 -2.0369864336956942e+00 -1.1506065326363872e+00 -8.6355004871693553e-01 1.4983278217530240e+00 1.3012660497318773e+00 1.9928138988858359e+00 -1.9512012599553579e+00 8.3652581518052127e-01 7.3573451776249343e-01 2.9130477500872859e-01 -1.1964437045922980e+00 -1.4162618655290800e+00 3.2461865301286430e-01 -1.3980718647738577e-01 4.0059450111832353e+00 
        </Neuron>
      </Layer>
      <Layer Index="2" NNeurons="18">
        <Neuron NSynapses="1">
          3.0277458900875579e-02 
        </Neuron>
        <Neuron NSynapses="1">
          2.7280970580175451e-02 
        </Neuron>
        <Neuron NSynapses="1">
          1.1159754952319374e-01 
        </Neuron>
        <Neuron NSynapses="1">
          2.2189174150169185e-02 
        </Neuron>
        <Neuron NSynapses="1">
          -6.9456463181726113e-03 
        </Neuron>
        <Neuron NSynapses="1">
          4.7790894686265861e-01 
        </Neuron>
        <Neuron NSynapses="1">
          -3.6766614164654182e-02 
        </Neuron>
        <Neuron NSynapses="1">
          -4.1229281601151052e-01 
        </Neuron>
        <Neuron NSynapses="1">
          -2.8299157769919913e-03 
        </Neuron>
        <Neuron NSynapses="1">
          -4.3379380383421894e-02 
        </Neuron>
        <Neuron NSynapses="1">
          1.6217759058170380e-02 
        </Neuron>
        <Neuron NSynapses="1">
          2.5323314087407813e-02 
        </Neuron>
        <Neuron NSynapses="1">
          5.0444382694091218e-02 
        </Neuron>
        <Neuron NSynapses="1">
          -5.2005749382639198e-04 
        </Neuron>
        <Neuron NSynapses="1">
          4.2086114290124536e-02 
        </Neuron>
        <Neuron NSynapses="1">
          1.4649921384062650e-02 
        </Neuron>
        <Neuron NSynapses="1">
          -1.3693602496690163e-01 
        </Neuron>
        <Neuron NSynapses="1">
          -5.5131645480183866e-01 
        </Neuron>
      </Layer>
      <Layer Index="3" NNeurons="1">
        <Neuron NSynapses="0"/>
      </Layer>
    </Layout>
  </Weights>
</MethodSetup>
