<?xml version="1.0"?>
<MethodSetup Method="MLP::XS_22_49_0_n2n">
  <GeneralInfo>
    <Info name="TMVA Release" value="4.2.1 [262657]"/>
    <Info name="ROOT Release" value="6.06/02 [394754]"/>
    <Info name="Creator" value="mouginot"/>
    <Info name="Date" value="Thu Feb 23 06:01:14 2017"/>
    <Info name="Host" value="Linux e300.chtc.wisc.edu 2.6.32-642.13.1.el6.x86_64 #1 SMP Tue Jan 10 11:22:50 CST 2017 x86_64 x86_64 x86_64 GNU/Linux"/>
    <Info name="Dir" value="/mnt/gluster/mouginot/TRU_MOX_XS/Generate"/>
    <Info name="Training events" value="198960"/>
    <Info name="TrainingTime" value="6.52565886e+03"/>
    <Info name="AnalysisType" value="Regression"/>
  </GeneralInfo>
  <Options>
    <Option name="NCycles" modified="Yes">20000</Option>
    <Option name="HiddenLayers" modified="Yes">N,N</Option>
    <Option name="NeuronType" modified="Yes">tanh</Option>
    <Option name="RandomSeed" modified="No">1</Option>
    <Option name="EstimatorType" modified="No">MSE</Option>
    <Option name="NeuronInputType" modified="No">sum</Option>
    <Option name="V" modified="Yes">False</Option>
    <Option name="VerbosityLevel" modified="No">Default</Option>
    <Option name="VarTransform" modified="Yes">Norm</Option>
    <Option name="H" modified="Yes">False</Option>
    <Option name="CreateMVAPdfs" modified="No">False</Option>
    <Option name="IgnoreNegWeightsInTraining" modified="No">False</Option>
    <Option name="TrainingMethod" modified="Yes">BFGS</Option>
    <Option name="LearningRate" modified="No">2.000000e-02</Option>
    <Option name="DecayRate" modified="No">1.000000e-02</Option>
    <Option name="TestRate" modified="Yes">6</Option>
    <Option name="EpochMonitoring" modified="No">False</Option>
    <Option name="Sampling" modified="Yes">3.000000e-01</Option>
    <Option name="SamplingEpoch" modified="Yes">8.000000e-01</Option>
    <Option name="SamplingImportance" modified="No">1.000000e+00</Option>
    <Option name="SamplingTraining" modified="No">True</Option>
    <Option name="SamplingTesting" modified="No">False</Option>
    <Option name="ResetStep" modified="No">50</Option>
    <Option name="Tau" modified="No">3.000000e+00</Option>
    <Option name="BPMode" modified="No">sequential</Option>
    <Option name="BatchSize" modified="No">-1</Option>
    <Option name="ConvergenceImprove" modified="Yes">1.000000e-06</Option>
    <Option name="ConvergenceTests" modified="Yes">15</Option>
    <Option name="UseRegulator" modified="Yes">False</Option>
    <Option name="UpdateLimit" modified="No">10000</Option>
    <Option name="CalculateErrors" modified="No">False</Option>
    <Option name="WeightRange" modified="No">1.000000e+00</Option>
  </Options>
  <Variables NVar="17">
    <Variable VarIndex="0" Expression="235U" Label="235U" Title="235U" Unit="IsotopicFraction" Internal="235U" Type="F" Min="1.71346517e-06" Max="1.92414057e-02"/>
    <Variable VarIndex="1" Expression="238U" Label="238U" Title="238U" Unit="IsotopicFraction" Internal="238U" Type="F" Min="7.85399854e-01" Max="9.68733251e-01"/>
    <Variable VarIndex="2" Expression="237Np" Label="237Np" Title="237Np" Unit="IsotopicFraction" Internal="237Np" Type="F" Min="1.63990119e-08" Max="1.97294168e-04"/>
    <Variable VarIndex="3" Expression="238Pu" Label="238Pu" Title="238Pu" Unit="IsotopicFraction" Internal="238Pu" Type="F" Min="4.69728775e-07" Max="3.96428024e-03"/>
    <Variable VarIndex="4" Expression="239Pu" Label="239Pu" Title="239Pu" Unit="IsotopicFraction" Internal="239Pu" Type="F" Min="2.15940680e-02" Max="1.89886928e-01"/>
    <Variable VarIndex="5" Expression="240Pu" Label="240Pu" Title="240Pu" Unit="IsotopicFraction" Internal="240Pu" Type="F" Min="1.54567579e-06" Max="3.95636074e-02"/>
    <Variable VarIndex="6" Expression="241Pu" Label="241Pu" Title="241Pu" Unit="IsotopicFraction" Internal="241Pu" Type="F" Min="3.22813172e-08" Max="7.04628276e-03"/>
    <Variable VarIndex="7" Expression="242Pu" Label="242Pu" Title="242Pu" Unit="IsotopicFraction" Internal="242Pu" Type="F" Min="1.58277174e-07" Max="1.98803633e-03"/>
    <Variable VarIndex="8" Expression="241Am" Label="241Am" Title="241Am" Unit="IsotopicFraction" Internal="241Am" Type="F" Min="3.13082671e-10" Max="7.48056592e-03"/>
    <Variable VarIndex="9" Expression="242Amm" Label="242Amm" Title="242Amm" Unit="IsotopicFraction" Internal="242Amm" Type="F" Min="1.34159976e-07" Max="1.16249369e-02"/>
    <Variable VarIndex="10" Expression="243Am" Label="243Am" Title="243Am" Unit="IsotopicFraction" Internal="243Am" Type="F" Min="2.04390229e-08" Max="1.99559363e-04"/>
    <Variable VarIndex="11" Expression="242Cm" Label="242Cm" Title="242Cm" Unit="IsotopicFraction" Internal="242Cm" Type="F" Min="1.48285639e-09" Max="1.93909858e-04"/>
    <Variable VarIndex="12" Expression="243Cm" Label="243Cm" Title="243Cm" Unit="IsotopicFraction" Internal="243Cm" Type="F" Min="9.09117492e-09" Max="1.97552916e-04"/>
    <Variable VarIndex="13" Expression="244Cm" Label="244Cm" Title="244Cm" Unit="IsotopicFraction" Internal="244Cm" Type="F" Min="2.46570231e-09" Max="1.97112051e-04"/>
    <Variable VarIndex="14" Expression="245Cm" Label="245Cm" Title="245Cm" Unit="IsotopicFraction" Internal="245Cm" Type="F" Min="9.47205692e-09" Max="1.97873349e-04"/>
    <Variable VarIndex="15" Expression="246Cm" Label="246Cm" Title="246Cm" Unit="IsotopicFraction" Internal="246Cm" Type="F" Min="2.33963915e-09" Max="1.98596885e-04"/>
    <Variable VarIndex="16" Expression="Time" Label="Time" Title="Time" Unit="seconds" Internal="Time" Type="F" Min="0.00000000e+00" Max="1.89328320e+08"/>
  </Variables>
  <Spectators NSpec="0"/>
  <Classes NClass="1">
    <Class Name="Regression" Index="0"/>
  </Classes>
  <Targets NTrgt="1">
    <Target TargetIndex="0" Expression="XS_22_49_0_n2n" Label="XS_22_49_0_n2n" Title="XS_22_49_0_n2n" Unit="" Internal="XS_22_49_0_n2n" Type="F" Min="2.64943665e-04" Max="5.42418624e-04"/>
  </Targets>
  <Transformations NTransformations="1">
    <Transform Name="Normalize">
      <Selection>
        <Input NInputs="18">
          <Input Type="Variable" Label="235U" Expression="235U"/>
          <Input Type="Variable" Label="238U" Expression="238U"/>
          <Input Type="Variable" Label="237Np" Expression="237Np"/>
          <Input Type="Variable" Label="238Pu" Expression="238Pu"/>
          <Input Type="Variable" Label="239Pu" Expression="239Pu"/>
          <Input Type="Variable" Label="240Pu" Expression="240Pu"/>
          <Input Type="Variable" Label="241Pu" Expression="241Pu"/>
          <Input Type="Variable" Label="242Pu" Expression="242Pu"/>
          <Input Type="Variable" Label="241Am" Expression="241Am"/>
          <Input Type="Variable" Label="242Amm" Expression="242Amm"/>
          <Input Type="Variable" Label="243Am" Expression="243Am"/>
          <Input Type="Variable" Label="242Cm" Expression="242Cm"/>
          <Input Type="Variable" Label="243Cm" Expression="243Cm"/>
          <Input Type="Variable" Label="244Cm" Expression="244Cm"/>
          <Input Type="Variable" Label="245Cm" Expression="245Cm"/>
          <Input Type="Variable" Label="246Cm" Expression="246Cm"/>
          <Input Type="Variable" Label="Time" Expression="Time"/>
          <Input Type="Target" Label="XS_22_49_0_n2n" Expression="XS_22_49_0_n2n"/>
        </Input>
        <Output NOutputs="18">
          <Output Type="Variable" Label="235U" Expression="235U"/>
          <Output Type="Variable" Label="238U" Expression="238U"/>
          <Output Type="Variable" Label="237Np" Expression="237Np"/>
          <Output Type="Variable" Label="238Pu" Expression="238Pu"/>
          <Output Type="Variable" Label="239Pu" Expression="239Pu"/>
          <Output Type="Variable" Label="240Pu" Expression="240Pu"/>
          <Output Type="Variable" Label="241Pu" Expression="241Pu"/>
          <Output Type="Variable" Label="242Pu" Expression="242Pu"/>
          <Output Type="Variable" Label="241Am" Expression="241Am"/>
          <Output Type="Variable" Label="242Amm" Expression="242Amm"/>
          <Output Type="Variable" Label="243Am" Expression="243Am"/>
          <Output Type="Variable" Label="242Cm" Expression="242Cm"/>
          <Output Type="Variable" Label="243Cm" Expression="243Cm"/>
          <Output Type="Variable" Label="244Cm" Expression="244Cm"/>
          <Output Type="Variable" Label="245Cm" Expression="245Cm"/>
          <Output Type="Variable" Label="246Cm" Expression="246Cm"/>
          <Output Type="Variable" Label="Time" Expression="Time"/>
          <Output Type="Target" Label="XS_22_49_0_n2n" Expression="XS_22_49_0_n2n"/>
        </Output>
      </Selection>
      <Class ClassIndex="0">
        <Ranges>
          <Range Index="0" Min="1.7134651670858148e-06" Max="1.9241405650973320e-02"/>
          <Range Index="1" Min="7.8539985418319702e-01" Max="9.6873325109481812e-01"/>
          <Range Index="2" Min="1.6399011926182538e-08" Max="1.9729416817426682e-04"/>
          <Range Index="3" Min="4.6972877498774324e-07" Max="3.9642802439630032e-03"/>
          <Range Index="4" Min="2.1594068035483360e-02" Max="1.8988692760467529e-01"/>
          <Range Index="5" Min="1.5456757864740212e-06" Max="3.9563607424497604e-02"/>
          <Range Index="6" Min="3.2281317174920332e-08" Max="7.0462827570736408e-03"/>
          <Range Index="7" Min="1.5827717447791656e-07" Max="1.9880363252013922e-03"/>
          <Range Index="8" Min="3.1308267089968922e-10" Max="7.4805659241974354e-03"/>
          <Range Index="9" Min="1.3415997557331139e-07" Max="1.1624936945736408e-02"/>
          <Range Index="10" Min="2.0439022918594674e-08" Max="1.9955936295446008e-04"/>
          <Range Index="11" Min="1.4828563932312022e-09" Max="1.9390985835343599e-04"/>
          <Range Index="12" Min="9.0911749239808159e-09" Max="1.9755291577894241e-04"/>
          <Range Index="13" Min="2.4657023089957875e-09" Max="1.9711205095518380e-04"/>
          <Range Index="14" Min="9.4720569165929192e-09" Max="1.9787334895227104e-04"/>
          <Range Index="15" Min="2.3396391490848600e-09" Max="1.9859688472934067e-04"/>
          <Range Index="16" Min="0.0000000000000000e+00" Max="1.8932832000000000e+08"/>
          <Range Index="17" Min="2.6494366466067731e-04" Max="5.4241862380877137e-04"/>
        </Ranges>
      </Class>
    </Transform>
  </Transformations>
  <MVAPdfs/>
  <Weights>
    <Layout NLayers="4">
      <Layer Index="0" NNeurons="18">
        <Neuron NSynapses="17">
          -3.5548790724959711e-01 1.5044573686706690e+00 9.0733507264426427e-01 1.7057013549226978e+00 -1.8705268323779647e+00 -1.3927505786053378e+00 -7.2537858119553966e-01 1.9238729833803216e+00 -1.4047059778209832e+00 -1.1743906986808010e+00 -1.5149707839718853e+00 -5.8526463008895135e-01 -1.1977362634818840e+00 -3.6370763266593303e-01 -3.2671960218104201e-01 3.0122871069214452e-01 -4.8336087815758105e-01 
        </Neuron>
        <Neuron NSynapses="17">
          1.7934162625978500e+00 8.0848277095618704e-01 1.8797768099010261e+00 -1.8685211103336866e-01 -7.9059011065684581e-01 2.3719681250193528e-01 1.9139980577866497e-01 -1.1278434518389644e+00 -4.5186725191905031e-01 1.4509999084366034e+00 -8.8914425272426667e-01 -2.0299415623561727e+00 1.2946424609690224e-01 6.2685403899688374e-01 1.1143669576497082e+00 5.2946071004596074e-01 3.1881286592058367e-01 
        </Neuron>
        <Neuron NSynapses="17">
          1.9871185800209876e-01 -2.7702801821534079e-01 -1.3387464253842687e+00 1.6105608628206440e+00 -1.4533680332377927e+00 1.0278048770833419e+00 1.3410160518823548e+00 8.3145747946264148e-01 1.7691279029199178e+00 1.2580723478188272e+00 -6.7822362794169011e-01 -1.3802521166099646e+00 6.5908103958961406e-01 -2.1095008760693887e-01 1.6811037106287623e+00 1.2197522285141567e+00 1.4588494464811641e+00 
        </Neuron>
        <Neuron NSynapses="17">
          1.3957636336871477e+00 -1.4581962324966173e+00 1.6262084396600869e+00 -1.7227706363793116e+00 -1.0920477481491562e+00 -1.4214324645576268e+00 -1.3599494196983368e+00 1.3011174893197299e+00 5.2677943851585796e-01 -1.7317177363855971e+00 4.1180885542725143e-01 -5.8549689302624774e-01 6.1733397322282468e-01 1.2648128108019623e+00 -7.0638729691172325e-02 2.0089561036592807e-01 -7.7875503870838436e-01 
        </Neuron>
        <Neuron NSynapses="17">
          7.5160895755030965e-01 -1.2905235891304991e+00 -1.0570346276414671e+00 -1.5409478952375026e+00 6.5940152121986606e-01 1.4913962031090502e+00 1.3552474594680490e+00 -4.1381846395847205e-01 -1.7982935799565334e+00 -1.8230067890403758e+00 8.6239074907008362e-01 6.3324392507262961e-01 1.9303624665752730e+00 5.5290409924909945e-01 1.4486049719340901e+00 -1.4441716588929405e+00 -1.2221905549816547e+00 
        </Neuron>
        <Neuron NSynapses="17">
          -3.6488547184850312e-02 1.0728129350220934e+00 -9.1924657821274380e-01 -1.5288345249694089e+00 -1.9321130328089688e+00 -2.3412000915899442e-01 2.9514323944811255e-01 1.5956384443222240e+00 -1.5539759956064805e+00 -9.2338161528215257e-01 1.6397248924349730e+00 -9.4935962236457305e-01 -1.6167526523923617e+00 -1.8492440147810854e+00 3.3146345136242661e-01 -1.9561794196342672e+00 -1.2691705734735146e+00 
        </Neuron>
        <Neuron NSynapses="17">
          8.1703391376295131e-01 1.8991946433402402e+00 -7.3552951442429870e-01 1.6752085433676154e+00 -1.3069838841881996e+00 -1.0303856854908811e+00 3.5279344841571769e-01 1.2320821977804849e-01 -1.9842703898687244e+00 1.7296240308870758e-01 3.9693685136655094e-01 2.7048766573715910e-01 -1.5718873344982329e+00 1.1837792437558914e+00 5.0759354442197391e-01 -6.7023080179077787e-01 1.2191226391458843e+00 
        </Neuron>
        <Neuron NSynapses="17">
          -9.4377933452523544e-01 -1.3747299254705347e+00 3.4424423406379212e-01 -3.2440200384896817e-01 1.4903830742918771e+00 7.0652175424278496e-01 3.0220145920884817e-01 -4.9503144543220534e-01 9.3471418730072489e-02 -1.8022858029905378e+00 1.0602991012701770e+00 1.5578485240546674e-02 -1.8532015393455814e+00 1.7883567589399610e-01 -1.1601045224915116e+00 9.4881794096248570e-02 1.2868533051430435e+00 
        </Neuron>
        <Neuron NSynapses="17">
          1.9480335201154348e+00 -1.6688361882946943e+00 8.0887323815721035e-01 1.6175924032554614e+00 1.1161598670012669e+00 -1.1504725583600521e-01 -8.8261928682427804e-01 -2.0080688523526902e-01 -1.5647771522416059e+00 1.4167081465965981e+00 1.3613915506700591e+00 -4.1840579511717124e-01 -6.2178215879056620e-01 -4.1701599514126686e-01 -1.1347221562558283e+00 7.9631666019926461e-01 2.1446589766968072e+00 
        </Neuron>
        <Neuron NSynapses="17">
          -4.7479670543442171e-01 -8.5942899366118941e-01 4.1626482980652629e-01 1.1324610390987959e+00 2.8409379479667835e-01 1.0397988039170651e+00 -9.7868730075401744e-01 1.4608579529192194e+00 5.2257610682532585e-01 3.3265934440545641e-01 6.3974511719240768e-01 1.1274676466262041e+00 -8.1113990009883752e-01 -8.3309953807950665e-01 1.5893540256287066e+00 -1.2573132694979143e+00 -3.6929014993176384e-01 
        </Neuron>
        <Neuron NSynapses="17">
          1.4890974535736636e+00 7.4115777120570903e-01 -3.3133779256951768e-01 1.3444733300344596e+00 1.5761719862346606e+00 -1.8170428951227309e+00 8.2640399278534482e-01 -9.6335202863502958e-02 3.8383678299433949e-01 -1.7665597125460688e+00 -1.4703710797076730e+00 1.1025117805908333e+00 1.6094657471612277e+00 -1.8947617713372615e+00 9.6917383462552964e-02 -8.4895364429918652e-01 2.2502921167480824e-01 
        </Neuron>
        <Neuron NSynapses="17">
          1.8058896401361044e+00 -1.4206646068784853e-01 -1.2292751232564779e-01 -1.0404182952593553e+00 7.5545750878726514e-01 1.5131417544462138e+00 1.3235258373036061e+00 1.7278216648962522e-01 -8.1632869699820210e-01 -2.0635739986273398e+00 1.0883450948539126e+00 3.9178778123820412e-01 -1.4074404232063560e+00 -1.2016893486988653e+00 4.2271701685089225e-01 2.9113960122351451e-01 -1.6072544814779870e+00 
        </Neuron>
        <Neuron NSynapses="17">
          1.7700778560398747e+00 1.0668491393936721e+00 -1.2656749780941090e-01 -5.6550004373208819e-02 1.3404678251901017e+00 9.2465567921051639e-01 9.0229716835230001e-01 -2.3767218568142798e-01 -1.8914042576964929e+00 -9.8739310548819614e-01 1.7743463024385409e+00 1.0555580715603319e+00 7.6476934872489399e-01 -3.0017088997830521e-01 2.0260704144058970e+00 -1.3163655421749572e+00 -8.7294619647213501e-01 
        </Neuron>
        <Neuron NSynapses="17">
          4.5503275741583032e-04 -1.3433417479380076e+00 1.1376849384120826e+00 1.7428459603746269e+00 -1.4585622742731355e+00 7.6539709189701122e-01 7.8757910265824724e-02 -2.0217639281163811e+00 -1.1448591327817499e+00 9.5106379530479801e-01 6.1607941079665544e-02 7.6773654880594355e-01 -1.2516806028830543e+00 1.1406348675318723e+00 -1.5259046158165215e+00 8.2997410563464080e-01 2.6467936055969482e-01 
        </Neuron>
        <Neuron NSynapses="17">
          -1.3715645300784429e+00 -1.4233854514277364e+00 -1.7759621300668771e+00 -3.9539622253525258e-01 -2.1517268248904662e+00 -1.5450208532349559e+00 -1.4879384036101941e+00 1.4410480678890067e-01 -1.0331070574005041e+00 -1.7068285381007631e+00 1.3877081766055905e+00 -5.5259201356538434e-01 1.4426169147046169e-02 -1.3581003729484733e+00 4.9281879016120472e-01 1.5603885907615438e+00 1.4150378357622859e+00 
        </Neuron>
        <Neuron NSynapses="17">
          -7.6889174459219001e-01 -1.1771787792367607e+00 -8.0881105093900085e-01 -9.1859821814021636e-01 -1.8816019922245202e+00 2.2113545346401858e-01 5.5564776516966707e-01 1.6996441164391334e+00 -3.1249194516586004e-01 1.6393835299241782e-01 -5.0731807728119160e-01 -2.0030574313498453e+00 1.2738370430044959e+00 6.9167629849493639e-01 -6.9511328979511033e-01 -8.9288344508393269e-01 1.0766389889763885e+00 
        </Neuron>
        <Neuron NSynapses="17">
          1.2083249423730511e+00 8.2849561810230177e-01 -1.9282772727752201e-01 -3.3581793850304703e-01 1.2731805719010212e+00 7.7608942291443217e-01 6.8185151042981562e-01 -5.3543905234059885e-01 1.9931369383825936e-01 -2.1677005100024582e-01 -1.3468625782173420e+00 -8.2986092938581302e-01 -1.5665305716854245e+00 -1.4878031809461740e+00 -1.6254195616808242e+00 2.2085980281461399e+00 -1.4048377237107028e+00 
        </Neuron>
        <Neuron NSynapses="17">
          1.3709970116603243e+00 -2.1430949263362105e+00 1.8051647185717776e-01 -1.2879223984042549e+00 1.1595217855662121e+00 1.4378254971075695e+00 -2.7773775933979015e+00 3.6482911127002199e-01 1.0149017454645120e+00 -1.6925765671801216e+00 -1.7875028473489609e+00 -1.5287827823987636e+00 -5.7795858145496304e-01 2.7905419682315813e+00 -6.0867515878012490e-01 -4.4329675983863609e-01 -1.8846187129338818e+00 
        </Neuron>
      </Layer>
      <Layer Index="1" NNeurons="18">
        <Neuron NSynapses="17">
          -1.1244274918913848e+00 -1.6894876260659097e+00 -6.0652006135145242e-01 -1.5099178256707391e+00 8.5380176639884375e-01 -1.6912277883479780e+00 -1.1520492147633974e+00 1.4533264747978296e+00 4.6642801673024264e-01 -5.8135868573709437e-01 2.0378705708010090e+00 -1.7871074027816103e+00 1.5939917965610229e+00 9.9112159666526545e-01 -1.1646730612974934e+00 -5.7796637460001055e-01 -1.7069015787513686e-01 
        </Neuron>
        <Neuron NSynapses="17">
          -1.0638806602862563e+00 4.6886969151746688e-01 1.7575103477793865e+00 1.3533262079250359e+00 1.7281106069474568e+00 -1.4546172492661689e+00 9.5452065372446715e-01 -2.0558622952804795e+00 5.8576103559757842e-01 -1.6920616031918836e+00 -2.0738670834233051e+00 -3.2965756560971969e-02 1.2444111513689970e+00 3.5413111427373140e-01 9.5804515421090641e-01 4.0808542875152254e-01 -2.2432284919015807e-01 
        </Neuron>
        <Neuron NSynapses="17">
          -6.2604540462645197e-01 1.1085111680711730e-01 1.7915504422497039e+00 -1.4369355999117694e+00 4.3655009269618422e-01 -1.4208931839843566e+00 -5.6960914025512488e-01 3.1155423166012858e-01 -4.1231991883413192e-02 -1.1463866567118224e+00 7.1163747909139519e-01 1.6832278531752838e+00 6.4127863255956097e-01 -1.0179154068968325e-01 -7.1669876666820753e-01 -1.5106675116324604e+00 -1.5797156895390563e+00 
        </Neuron>
        <Neuron NSynapses="17">
          9.4032842422688323e-01 -5.3060897315102185e-01 -7.4492424408251856e-01 3.1774303057725933e-01 -1.8771888586686718e+00 -1.4997938777052933e+00 -1.5334865284564789e+00 7.2738856421419296e-01 -1.2211356428397389e+00 -1.6830778858094202e+00 -4.7837094290697502e-01 -9.5420720021158734e-01 -1.6380329892495915e+00 1.2532905894630701e+00 -1.5560441253406245e+00 -1.2059014310596210e+00 1.5141096983893141e+00 
        </Neuron>
        <Neuron NSynapses="17">
          6.8813393317384641e-01 3.1938879500156020e-01 -3.0888380307826719e-02 1.3434555397127248e+00 1.8780710787930663e+00 9.3012820463306645e-01 -1.0402696776181513e+00 -4.1686229441728351e-01 -1.8198388129074192e+00 8.7944247653939178e-01 8.0261777217103270e-01 9.8412250122245512e-02 1.1190657899920085e+00 8.2932790727338579e-01 1.5747201147464425e+00 -1.3021776643951675e+00 1.6324257408112532e+00 
        </Neuron>
        <Neuron NSynapses="17">
          7.8133329696424692e-01 -1.9233154820216629e+00 -1.5310493668490660e-01 -9.4399660227869642e-01 9.0528496493517296e-01 5.6066267198038600e-01 1.0516075588823675e+00 1.7480300365369126e+00 -2.1587541492512374e-01 1.6094986579867749e+00 1.8376460895187852e+00 2.1262320176457311e-01 -9.7683312387003751e-01 1.6022423744516034e+00 -2.0965721220711728e+00 6.6564536658415741e-01 1.6693770795297032e+00 
        </Neuron>
        <Neuron NSynapses="17">
          -3.1460904336268530e-01 -8.0883488834792994e-01 3.2462844222206017e-01 -1.2630466621320118e+00 3.8927107322564408e-01 -2.1039023911694605e+00 2.6895609474971188e-01 -5.4916335243952197e-01 1.9601701192721057e+00 1.1301702565114615e+00 1.9094902170741419e+00 -5.1836306735036797e-01 -1.9858384695727385e-01 3.1688519897061090e-01 1.5574599225313956e+00 -1.6596904709030338e+00 -1.4262359621296137e+00 
        </Neuron>
        <Neuron NSynapses="17">
          -7.2056254717061541e-01 -1.4855079639510504e+00 -1.4940723932982019e+00 -1.8225748131870803e+00 4.9868725476557701e-01 -1.6182723761685494e-01 -1.7733366083855735e+00 -1.9905402524076068e+00 -2.8848285433945459e-01 1.8595358202886783e+00 1.8120811197655378e+00 1.2985421634416705e+00 -6.0609150211503304e-01 -1.7556921095008948e+00 8.2898789059973554e-02 -1.3377578432265920e+00 -1.4972559257564297e+00 
        </Neuron>
        <Neuron NSynapses="17">
          -6.7134329188534547e-01 1.5514067604747998e-02 -1.8564749739349353e+00 1.4837266570177221e+00 1.2774956628927492e+00 1.1016604581581431e+00 -6.7745413273518473e-01 -4.4938152208159543e-01 1.5405731644097893e+00 -5.3292004887080524e-01 1.1727353128588965e-02 1.5890366977178996e+00 1.4797736036399387e+00 -1.0318089287707526e+00 1.6722103844519689e+00 -2.0579736226648779e+00 1.7625502177983334e+00 
        </Neuron>
        <Neuron NSynapses="17">
          2.0964637486235533e+00 -1.8212281282212811e-01 -9.4209110885788150e-03 3.2331393868193414e-01 -4.2610806182807942e-01 4.2063024401660065e-01 2.0750972788595345e-01 -9.1131626700066160e-01 -1.5420297126198645e+00 -8.2262015930672144e-02 1.5081661392138532e+00 3.9156777531487957e-01 -8.2014611911811808e-01 -1.8030354536987894e+00 1.7683745420834440e+00 4.3266854530934729e-01 -1.2229420692779784e+00 
        </Neuron>
        <Neuron NSynapses="17">
          -3.7393739802254061e-01 -1.0060472660359385e+00 1.5281386770846905e+00 1.3945746524814542e+00 -8.3035082840935703e-01 -1.8309477739098468e+00 1.6546991363582118e+00 8.9709720392427084e-01 4.9996758187841955e-01 1.9762682140217974e-01 -9.4574966384900006e-01 -1.2416342913109455e+00 1.0640994523733445e+00 3.9643391365864444e-01 2.2595358219039346e-01 -1.7627832018383007e+00 -1.9625011402605765e+00 
        </Neuron>
        <Neuron NSynapses="17">
          -2.0468561708530770e+00 -3.1639934508961992e-01 -1.3972578223499852e+00 1.8804510986268896e-01 -7.2469710355716366e-01 1.4296144360334442e+00 5.4277763693704884e-01 -1.9004099230142422e+00 1.1209136240142104e+00 2.0320021595315731e+00 1.0402187757443480e+00 -4.5337977659644024e-01 -8.6289847529993613e-01 2.1956534778272796e+00 -1.4544357868075537e+00 4.6573923731634853e-01 -1.4438756119303400e+00 
        </Neuron>
        <Neuron NSynapses="17">
          8.0542649442966618e-01 -1.1585996112040908e+00 1.1751001876051226e-01 -1.4704859605628473e-01 2.7437520383959269e-01 2.3404288793961472e-01 -7.9542529595080791e-01 1.0728526304458954e+00 4.6481623677438311e-01 8.8316752889932493e-01 9.3218989601589763e-01 -1.7060005090052364e+00 1.0609126860653706e+00 -1.7891888837461911e+00 1.1236642852007681e+00 7.8380199270797701e-01 7.4162557926485906e-01 
        </Neuron>
        <Neuron NSynapses="17">
          1.5476736558823994e+00 1.4635077205746543e+00 -2.0444776856200950e+00 -6.6637565719900904e-01 -9.4862744034784641e-01 8.4550646551721464e-01 -1.4371366757552065e-01 -1.1713417092505321e-01 -5.8609942962927419e-01 -5.9857734014033159e-01 -9.6805531842552817e-01 -3.4409492364503474e-01 -1.8433693876359731e+00 -2.7304640125040330e-01 2.8528901955185154e-01 -6.8234648971256173e-01 -1.2659144770935484e+00 
        </Neuron>
        <Neuron NSynapses="17">
          1.6753142331139087e-01 2.5258224569937715e-01 -2.5557762061837230e-01 -1.1724242353008225e+00 1.7334908911447364e+00 -7.5398971347860763e-02 7.5775071368157976e-01 6.0350083088565643e-01 -9.3838495355513940e-01 -7.9972775628356374e-01 -9.2733232717933017e-02 -1.9559579958034095e+00 -9.4156061470300911e-01 -1.0517212996068277e+00 1.0790381710288686e+00 -2.1322706851133733e+00 1.2810934027411018e+00 
        </Neuron>
        <Neuron NSynapses="17">
          1.9599489670858747e+00 1.5962769405462625e+00 9.1593313974992574e-01 7.5683416908714962e-01 2.5623991485461661e-01 -9.0888375022200718e-01 -2.0749791166997804e+00 -1.0406309031898628e+00 -8.9966552933363153e-01 1.3504458735911100e+00 1.8990553173172243e-03 8.4937197634346678e-02 1.5448943636504502e+00 1.0275697329642908e+00 -1.2604849532277607e+00 4.6534322681313278e-01 -1.5968831849929632e+00 
        </Neuron>
        <Neuron NSynapses="17">
          7.6417466072559470e-01 -1.8359301262952799e+00 3.7719990176354584e-01 -3.8879750029079330e-01 8.4040826666331081e-01 -2.0886228381709215e+00 3.7273960555677443e-01 -1.8860379193827588e+00 2.3912224518635741e-02 1.3270696251723610e+00 -5.9534520835468430e-01 5.3646115076793743e-01 -1.8065878900283370e+00 1.1060194478185990e+00 -5.4444345598172095e-01 7.1768202307254858e-01 -1.7724286441478077e+00 
        </Neuron>
        <Neuron NSynapses="17">
          -1.0292951799678820e+00 1.9459697182975908e+00 -2.3741947727021793e+00 -1.1322973990785759e+00 -7.5643698871521325e-01 2.3770370451642915e+00 1.3938437107241739e+00 1.9464808281203188e+00 -1.8965901532552938e+00 7.6581125533691630e-01 4.5986586733352947e-01 2.7357010941558835e-01 -1.2636667324202253e+00 -1.4067184912120030e+00 2.9461469266540141e-01 -2.5556045206908612e-01 1.8651385123240067e+00 
        </Neuron>
      </Layer>
      <Layer Index="2" NNeurons="18">
        <Neuron NSynapses="1">
          -2.7168035120145827e-02 
        </Neuron>
        <Neuron NSynapses="1">
          -3.9701443655480980e-03 
        </Neuron>
        <Neuron NSynapses="1">
          -1.4882059768383835e-01 
        </Neuron>
        <Neuron NSynapses="1">
          1.7189665241715900e-03 
        </Neuron>
        <Neuron NSynapses="1">
          -1.6353625142138905e-02 
        </Neuron>
        <Neuron NSynapses="1">
          -9.6104920176493069e-01 
        </Neuron>
        <Neuron NSynapses="1">
          2.1730298902712383e-02 
        </Neuron>
        <Neuron NSynapses="1">
          1.1156872280930402e-02 
        </Neuron>
        <Neuron NSynapses="1">
          -1.1938561810420080e-02 
        </Neuron>
        <Neuron NSynapses="1">
          3.8750278358190574e-02 
        </Neuron>
        <Neuron NSynapses="1">
          4.0735185141100782e-03 
        </Neuron>
        <Neuron NSynapses="1">
          -6.2890629457198815e-03 
        </Neuron>
        <Neuron NSynapses="1">
          -4.9969197147534027e-02 
        </Neuron>
        <Neuron NSynapses="1">
          -8.3042036676135439e-03 
        </Neuron>
        <Neuron NSynapses="1">
          2.7922184569405392e-04 
        </Neuron>
        <Neuron NSynapses="1">
          -2.7615551941871572e-02 
        </Neuron>
        <Neuron NSynapses="1">
          7.4936053842656076e-03 
        </Neuron>
        <Neuron NSynapses="1">
          8.0161571956746602e-01 
        </Neuron>
      </Layer>
      <Layer Index="3" NNeurons="1">
        <Neuron NSynapses="0"/>
      </Layer>
    </Layout>
  </Weights>
</MethodSetup>
