<?xml version="1.0"?>
<MethodSetup Method="MLP::XS_90_232_0_cap">
  <GeneralInfo>
    <Info name="TMVA Release" value="4.2.1 [262657]"/>
    <Info name="ROOT Release" value="6.06/02 [394754]"/>
    <Info name="Creator" value="mouginot"/>
    <Info name="Date" value="Thu Feb 23 18:51:44 2017"/>
    <Info name="Host" value="Linux e300.chtc.wisc.edu 2.6.32-642.13.1.el6.x86_64 #1 SMP Tue Jan 10 11:22:50 CST 2017 x86_64 x86_64 x86_64 GNU/Linux"/>
    <Info name="Dir" value="/mnt/gluster/mouginot/TRU_MOX_XS/Generate"/>
    <Info name="Training events" value="198960"/>
    <Info name="TrainingTime" value="4.27758333e+04"/>
    <Info name="AnalysisType" value="Regression"/>
  </GeneralInfo>
  <Options>
    <Option name="NCycles" modified="Yes">20000</Option>
    <Option name="HiddenLayers" modified="Yes">N,N</Option>
    <Option name="NeuronType" modified="Yes">tanh</Option>
    <Option name="RandomSeed" modified="No">1</Option>
    <Option name="EstimatorType" modified="No">MSE</Option>
    <Option name="NeuronInputType" modified="No">sum</Option>
    <Option name="V" modified="Yes">False</Option>
    <Option name="VerbosityLevel" modified="No">Default</Option>
    <Option name="VarTransform" modified="Yes">Norm</Option>
    <Option name="H" modified="Yes">False</Option>
    <Option name="CreateMVAPdfs" modified="No">False</Option>
    <Option name="IgnoreNegWeightsInTraining" modified="No">False</Option>
    <Option name="TrainingMethod" modified="Yes">BFGS</Option>
    <Option name="LearningRate" modified="No">2.000000e-02</Option>
    <Option name="DecayRate" modified="No">1.000000e-02</Option>
    <Option name="TestRate" modified="Yes">6</Option>
    <Option name="EpochMonitoring" modified="No">False</Option>
    <Option name="Sampling" modified="Yes">3.000000e-01</Option>
    <Option name="SamplingEpoch" modified="Yes">8.000000e-01</Option>
    <Option name="SamplingImportance" modified="No">1.000000e+00</Option>
    <Option name="SamplingTraining" modified="No">True</Option>
    <Option name="SamplingTesting" modified="No">False</Option>
    <Option name="ResetStep" modified="No">50</Option>
    <Option name="Tau" modified="No">3.000000e+00</Option>
    <Option name="BPMode" modified="No">sequential</Option>
    <Option name="BatchSize" modified="No">-1</Option>
    <Option name="ConvergenceImprove" modified="Yes">1.000000e-06</Option>
    <Option name="ConvergenceTests" modified="Yes">15</Option>
    <Option name="UseRegulator" modified="Yes">False</Option>
    <Option name="UpdateLimit" modified="No">10000</Option>
    <Option name="CalculateErrors" modified="No">False</Option>
    <Option name="WeightRange" modified="No">1.000000e+00</Option>
  </Options>
  <Variables NVar="17">
    <Variable VarIndex="0" Expression="235U" Label="235U" Title="235U" Unit="IsotopicFraction" Internal="235U" Type="F" Min="1.71346517e-06" Max="1.92414057e-02"/>
    <Variable VarIndex="1" Expression="238U" Label="238U" Title="238U" Unit="IsotopicFraction" Internal="238U" Type="F" Min="7.85399854e-01" Max="9.68733251e-01"/>
    <Variable VarIndex="2" Expression="237Np" Label="237Np" Title="237Np" Unit="IsotopicFraction" Internal="237Np" Type="F" Min="1.63990119e-08" Max="1.97294168e-04"/>
    <Variable VarIndex="3" Expression="238Pu" Label="238Pu" Title="238Pu" Unit="IsotopicFraction" Internal="238Pu" Type="F" Min="4.69728775e-07" Max="3.96428024e-03"/>
    <Variable VarIndex="4" Expression="239Pu" Label="239Pu" Title="239Pu" Unit="IsotopicFraction" Internal="239Pu" Type="F" Min="2.15940680e-02" Max="1.89886928e-01"/>
    <Variable VarIndex="5" Expression="240Pu" Label="240Pu" Title="240Pu" Unit="IsotopicFraction" Internal="240Pu" Type="F" Min="1.54567579e-06" Max="3.95636074e-02"/>
    <Variable VarIndex="6" Expression="241Pu" Label="241Pu" Title="241Pu" Unit="IsotopicFraction" Internal="241Pu" Type="F" Min="3.22813172e-08" Max="7.04628276e-03"/>
    <Variable VarIndex="7" Expression="242Pu" Label="242Pu" Title="242Pu" Unit="IsotopicFraction" Internal="242Pu" Type="F" Min="1.58277174e-07" Max="1.98803633e-03"/>
    <Variable VarIndex="8" Expression="241Am" Label="241Am" Title="241Am" Unit="IsotopicFraction" Internal="241Am" Type="F" Min="3.13082671e-10" Max="7.48056592e-03"/>
    <Variable VarIndex="9" Expression="242Amm" Label="242Amm" Title="242Amm" Unit="IsotopicFraction" Internal="242Amm" Type="F" Min="1.34159976e-07" Max="1.16249369e-02"/>
    <Variable VarIndex="10" Expression="243Am" Label="243Am" Title="243Am" Unit="IsotopicFraction" Internal="243Am" Type="F" Min="2.04390229e-08" Max="1.99559363e-04"/>
    <Variable VarIndex="11" Expression="242Cm" Label="242Cm" Title="242Cm" Unit="IsotopicFraction" Internal="242Cm" Type="F" Min="1.48285639e-09" Max="1.93909858e-04"/>
    <Variable VarIndex="12" Expression="243Cm" Label="243Cm" Title="243Cm" Unit="IsotopicFraction" Internal="243Cm" Type="F" Min="9.09117492e-09" Max="1.97552916e-04"/>
    <Variable VarIndex="13" Expression="244Cm" Label="244Cm" Title="244Cm" Unit="IsotopicFraction" Internal="244Cm" Type="F" Min="2.46570231e-09" Max="1.97112051e-04"/>
    <Variable VarIndex="14" Expression="245Cm" Label="245Cm" Title="245Cm" Unit="IsotopicFraction" Internal="245Cm" Type="F" Min="9.47205692e-09" Max="1.97873349e-04"/>
    <Variable VarIndex="15" Expression="246Cm" Label="246Cm" Title="246Cm" Unit="IsotopicFraction" Internal="246Cm" Type="F" Min="2.33963915e-09" Max="1.98596885e-04"/>
    <Variable VarIndex="16" Expression="Time" Label="Time" Title="Time" Unit="seconds" Internal="Time" Type="F" Min="0.00000000e+00" Max="1.89328320e+08"/>
  </Variables>
  <Spectators NSpec="0"/>
  <Classes NClass="1">
    <Class Name="Regression" Index="0"/>
  </Classes>
  <Targets NTrgt="1">
    <Target TargetIndex="0" Expression="XS_90_232_0_cap" Label="XS_90_232_0_cap" Title="XS_90_232_0_cap" Unit="" Internal="XS_90_232_0_cap" Type="F" Min="2.34436369e+00" Max="3.13871861e+00"/>
  </Targets>
  <Transformations NTransformations="1">
    <Transform Name="Normalize">
      <Selection>
        <Input NInputs="18">
          <Input Type="Variable" Label="235U" Expression="235U"/>
          <Input Type="Variable" Label="238U" Expression="238U"/>
          <Input Type="Variable" Label="237Np" Expression="237Np"/>
          <Input Type="Variable" Label="238Pu" Expression="238Pu"/>
          <Input Type="Variable" Label="239Pu" Expression="239Pu"/>
          <Input Type="Variable" Label="240Pu" Expression="240Pu"/>
          <Input Type="Variable" Label="241Pu" Expression="241Pu"/>
          <Input Type="Variable" Label="242Pu" Expression="242Pu"/>
          <Input Type="Variable" Label="241Am" Expression="241Am"/>
          <Input Type="Variable" Label="242Amm" Expression="242Amm"/>
          <Input Type="Variable" Label="243Am" Expression="243Am"/>
          <Input Type="Variable" Label="242Cm" Expression="242Cm"/>
          <Input Type="Variable" Label="243Cm" Expression="243Cm"/>
          <Input Type="Variable" Label="244Cm" Expression="244Cm"/>
          <Input Type="Variable" Label="245Cm" Expression="245Cm"/>
          <Input Type="Variable" Label="246Cm" Expression="246Cm"/>
          <Input Type="Variable" Label="Time" Expression="Time"/>
          <Input Type="Target" Label="XS_90_232_0_cap" Expression="XS_90_232_0_cap"/>
        </Input>
        <Output NOutputs="18">
          <Output Type="Variable" Label="235U" Expression="235U"/>
          <Output Type="Variable" Label="238U" Expression="238U"/>
          <Output Type="Variable" Label="237Np" Expression="237Np"/>
          <Output Type="Variable" Label="238Pu" Expression="238Pu"/>
          <Output Type="Variable" Label="239Pu" Expression="239Pu"/>
          <Output Type="Variable" Label="240Pu" Expression="240Pu"/>
          <Output Type="Variable" Label="241Pu" Expression="241Pu"/>
          <Output Type="Variable" Label="242Pu" Expression="242Pu"/>
          <Output Type="Variable" Label="241Am" Expression="241Am"/>
          <Output Type="Variable" Label="242Amm" Expression="242Amm"/>
          <Output Type="Variable" Label="243Am" Expression="243Am"/>
          <Output Type="Variable" Label="242Cm" Expression="242Cm"/>
          <Output Type="Variable" Label="243Cm" Expression="243Cm"/>
          <Output Type="Variable" Label="244Cm" Expression="244Cm"/>
          <Output Type="Variable" Label="245Cm" Expression="245Cm"/>
          <Output Type="Variable" Label="246Cm" Expression="246Cm"/>
          <Output Type="Variable" Label="Time" Expression="Time"/>
          <Output Type="Target" Label="XS_90_232_0_cap" Expression="XS_90_232_0_cap"/>
        </Output>
      </Selection>
      <Class ClassIndex="0">
        <Ranges>
          <Range Index="0" Min="1.7134651670858148e-06" Max="1.9241405650973320e-02"/>
          <Range Index="1" Min="7.8539985418319702e-01" Max="9.6873325109481812e-01"/>
          <Range Index="2" Min="1.6399011926182538e-08" Max="1.9729416817426682e-04"/>
          <Range Index="3" Min="4.6972877498774324e-07" Max="3.9642802439630032e-03"/>
          <Range Index="4" Min="2.1594068035483360e-02" Max="1.8988692760467529e-01"/>
          <Range Index="5" Min="1.5456757864740212e-06" Max="3.9563607424497604e-02"/>
          <Range Index="6" Min="3.2281317174920332e-08" Max="7.0462827570736408e-03"/>
          <Range Index="7" Min="1.5827717447791656e-07" Max="1.9880363252013922e-03"/>
          <Range Index="8" Min="3.1308267089968922e-10" Max="7.4805659241974354e-03"/>
          <Range Index="9" Min="1.3415997557331139e-07" Max="1.1624936945736408e-02"/>
          <Range Index="10" Min="2.0439022918594674e-08" Max="1.9955936295446008e-04"/>
          <Range Index="11" Min="1.4828563932312022e-09" Max="1.9390985835343599e-04"/>
          <Range Index="12" Min="9.0911749239808159e-09" Max="1.9755291577894241e-04"/>
          <Range Index="13" Min="2.4657023089957875e-09" Max="1.9711205095518380e-04"/>
          <Range Index="14" Min="9.4720569165929192e-09" Max="1.9787334895227104e-04"/>
          <Range Index="15" Min="2.3396391490848600e-09" Max="1.9859688472934067e-04"/>
          <Range Index="16" Min="0.0000000000000000e+00" Max="1.8932832000000000e+08"/>
          <Range Index="17" Min="2.3443636894226074e+00" Max="3.1387186050415039e+00"/>
        </Ranges>
      </Class>
    </Transform>
  </Transformations>
  <MVAPdfs/>
  <Weights>
    <Layout NLayers="4">
      <Layer Index="0" NNeurons="18">
        <Neuron NSynapses="17">
          -1.8869004142734583e-01 4.5077428945266801e-01 5.6376238219875674e-01 1.7386698380794505e+00 -2.1174759347025640e+00 -9.5930567166610226e-01 -5.4112767001636863e-01 1.8518459199819437e+00 -1.4616395855117119e+00 -1.2958374632269727e+00 -1.5716671185782600e+00 -3.4688706499124289e-01 -1.1510812648929112e+00 1.5686917283112700e-01 8.2173984528876934e-02 -3.5415620065152720e-01 -7.0780285116655839e-01 
        </Neuron>
        <Neuron NSynapses="17">
          1.4566586043293399e+00 1.5630409692061509e+00 2.0940074291638680e+00 -9.3332957173169129e-01 -4.2937660613773138e-01 -2.0298465232101226e-01 1.3565230700932607e-01 -9.9507829176000540e-01 -3.5379574120482471e-01 2.0595618310095225e+00 -8.6134009743745510e-01 -1.7128051476432673e+00 1.6448244153982008e-01 1.5784487184631557e-01 5.3732363442342390e-01 1.2357191506139646e+00 2.9341751193315085e-01 
        </Neuron>
        <Neuron NSynapses="17">
          2.7393676333682543e-01 -2.9257582778762259e-01 -1.2386502295324222e+00 1.7442503436718020e+00 -1.5547182825364254e+00 9.4940730513532534e-01 1.4159912591833719e+00 1.1067932276699599e+00 1.8269153499079929e+00 1.2175385843046305e+00 -6.4339205385380893e-01 -1.1730131077027635e+00 4.0458496200593791e-01 2.4371442385145275e-01 1.7058168961826266e+00 1.2679744290377846e+00 1.5967708742883087e+00 
        </Neuron>
        <Neuron NSynapses="17">
          1.5187377459573623e+00 -1.3223263102536051e+00 1.6401463838847232e+00 -2.1086149862657027e+00 -9.7779177096114200e-01 -1.4365961687028717e+00 -1.4501599258641722e+00 1.6289784958553946e+00 6.5840908872736625e-01 -1.2085136332401116e+00 3.3678791551753423e-01 -3.8688211750919205e-01 4.1178016264656497e-01 1.7675144062096011e+00 -1.2415265876491038e-01 2.8943140418861046e-01 -8.7712008750674109e-01 
        </Neuron>
        <Neuron NSynapses="17">
          1.0256861754021049e+00 -1.9485960249040790e+00 -1.2806655708043031e+00 -8.8209402714304430e-01 3.5327228584248838e-01 1.8584732037869580e+00 1.3874489979742863e+00 -3.2581581631837464e-01 -1.8566366827805409e+00 -2.3030754555539330e+00 8.6341923566857881e-01 5.3084748116693181e-01 1.7763986819756439e+00 1.0513509874600597e+00 1.9844956300128731e+00 -2.1053834416201047e+00 -1.1928094052123974e+00 
        </Neuron>
        <Neuron NSynapses="17">
          1.2156133028768662e-02 1.2459442773169631e+00 -8.0853908799920193e-01 -1.8180329926147176e+00 -1.7763320278601376e+00 -2.3737019969084200e-01 1.4509634935185342e-01 1.5876880407544816e+00 -1.5348644430366418e+00 -6.1710943483196168e-01 1.5074343284347245e+00 -1.0907081020907412e+00 -1.6976928757339822e+00 -1.5148541666143542e+00 3.3342564333946656e-01 -1.5892279456221987e+00 -1.2758820381821605e+00 
        </Neuron>
        <Neuron NSynapses="17">
          8.9630910424366128e-01 2.0543220552849131e+00 -5.6501030413635556e-01 1.2612720441864573e+00 -1.1012771697031425e+00 -1.1017774293245994e+00 4.3106988246745642e-01 6.1540531213788296e-01 -1.8845746526668268e+00 7.0437901958876781e-01 3.5541630337846181e-01 4.5856828740883732e-01 -1.8225096004132277e+00 1.7070247606406150e+00 3.7889828450292362e-01 -3.7613765460961651e-01 1.2016777037677795e+00 
        </Neuron>
        <Neuron NSynapses="17">
          -9.3581610288617179e-01 -1.3433789397707736e+00 3.9532534206412095e-01 -4.7283791655838719e-01 1.6602519594282359e+00 7.1683396036715441e-01 2.6654140430436968e-01 -1.9961976220262179e-01 1.7712843120736124e-01 -1.3917416829897076e+00 1.0511211019614275e+00 2.1748617031363190e-01 -2.0556278611105165e+00 6.3958640449695747e-01 -1.0353657545998727e+00 1.6704407273275618e-01 1.2156519807508892e+00 
        </Neuron>
        <Neuron NSynapses="17">
          2.0024299860410131e+00 -1.5905115654198232e+00 8.1324747513078066e-01 1.3173812383491863e+00 1.2736084269112480e+00 -2.6773102192651199e-01 -9.1182994155557950e-01 2.2779192492370970e-01 -1.4909999806259815e+00 1.7602849995322403e+00 1.3320299675498137e+00 -5.4949207667703438e-03 -9.6704205377545160e-01 1.8980211808772726e-01 -1.2346493549920747e+00 1.0000713397330505e+00 2.1319452043621179e+00 
        </Neuron>
        <Neuron NSynapses="17">
          -3.1731898903929978e-01 -6.6070844258542605e-01 6.2849932634756356e-01 9.9108795233386182e-01 3.8723105846675981e-01 8.4754500348947170e-01 -9.6064965204045294e-01 1.5104159049250541e+00 5.8038310649338642e-01 5.2947475683591350e-01 6.7528270411552227e-01 8.4994780847981877e-01 -9.1460145946126770e-01 -4.8203872657980079e-01 1.4678327649396394e+00 -8.2431734996047279e-01 -2.7752291941405288e-01 
        </Neuron>
        <Neuron NSynapses="17">
          1.6876231441055984e+00 6.5000942369358994e-01 -1.7840199242500354e-01 1.4928270367780208e+00 1.5340048403975677e+00 -1.8418954280207911e+00 8.6944325411120149e-01 1.0469965361764805e-01 3.5804239434145252e-01 -1.4834237972379960e+00 -1.4648978373839228e+00 1.1404880844488479e+00 1.3669847664724222e+00 -1.4609516795785911e+00 1.6029775471197583e-01 -7.3080938534174478e-01 3.7485513313665486e-01 
        </Neuron>
        <Neuron NSynapses="17">
          1.8332113418638829e+00 -1.2151930633571834e-01 -2.5550011362797609e-01 -1.3942165349390176e+00 9.6673857208049285e-01 1.4433148467301542e+00 1.2102337717704041e+00 5.5948075620781978e-01 -7.4371809134258904e-01 -1.4928424599833598e+00 1.0021791288491504e+00 7.1476132143786919e-01 -1.6865382692308908e+00 -6.9887161069134596e-01 4.2811172589614171e-01 3.4320505503418280e-01 -1.5958181311503206e+00 
        </Neuron>
        <Neuron NSynapses="17">
          1.6716239036333220e+00 1.0935992710669549e+00 -2.0406903388114131e-01 -5.1513882127117672e-01 1.5178016122731088e+00 8.7995152833003865e-01 6.8771069014203046e-01 8.7698353623069769e-02 -1.8456902127593831e+00 -5.1505770071230983e-01 1.6894140997215672e+00 1.3405307136172091e+00 4.2786884201387893e-01 2.4081225753016502e-01 2.0008459209379454e+00 -1.2411873062170884e+00 -8.8802811039001306e-01 
        </Neuron>
        <Neuron NSynapses="17">
          1.2170438814137917e-02 -1.2134657806010460e+00 1.2209474384599845e+00 1.6993294457321171e+00 -1.3915792532896789e+00 7.1247047708778577e-01 1.8921862190587731e-02 -1.6988803337105618e+00 -1.1054060454295254e+00 1.1433900677874353e+00 7.4347765219371902e-03 1.0870769410886587e+00 -1.4100889705306130e+00 1.6692134993131924e+00 -1.6808780455844301e+00 1.0303816294948049e+00 2.7905973203766904e-01 
        </Neuron>
        <Neuron NSynapses="17">
          -1.2456734406426648e+00 -1.4866871020951784e+00 -1.7189724639465507e+00 -4.1720854275621222e-01 -2.0790913451340320e+00 -1.4370824856289039e+00 -1.4545265207805596e+00 2.6920014395578157e-01 -1.0785707280893073e+00 -1.3320068644106573e+00 1.3824697989174042e+00 -5.9123274029219719e-01 -1.0455312587755310e-01 -1.0579216449047970e+00 5.2719131310616940e-01 1.7813454286479693e+00 1.4669244230572165e+00 
        </Neuron>
        <Neuron NSynapses="17">
          -7.5260722984901229e-01 -9.9479242054693684e-01 -7.1211944671591920e-01 -1.1746752006874699e+00 -1.8024927234353854e+00 8.6535391071892856e-02 5.6517055654951431e-01 1.9914189751096907e+00 -2.9428264366172957e-01 5.6540097021060265e-01 -5.6568485838000782e-01 -1.7812238781458938e+00 9.9489394489356509e-01 1.1503059931196584e+00 -6.9552596380280096e-01 -7.3045372230115024e-01 1.0330828177584928e+00 
        </Neuron>
        <Neuron NSynapses="17">
          9.8694311767889209e-01 1.0721664914831237e+00 -2.5295759403471874e-01 -5.9792270570490924e-01 1.5536826434891611e+00 9.2502767079498072e-01 5.0741274472118103e-01 -3.9386295133594884e-01 3.1410986684201853e-01 1.5438705408344305e-01 -1.4353639380309227e+00 -4.5364573245690060e-01 -1.6033730094053626e+00 -1.4648573992609686e+00 -1.7738054083332193e+00 2.1014845422509962e+00 -1.3416383344620242e+00 
        </Neuron>
        <Neuron NSynapses="17">
          1.4929996728130923e+00 -2.4700294272864443e+00 1.8472868739467302e-01 -4.0122094000379638e-01 7.6879429382028364e-01 1.8189771004569284e+00 -2.7527282683038758e+00 -3.5161107407983544e-01 8.4175840853312101e-01 -2.5646745163801463e+00 -1.7626557789856980e+00 -2.2717046594696981e+00 -9.2138022768640082e-02 2.0455010099565238e+00 -3.6184330081125660e-01 -9.4327654817158058e-01 -1.8739525131879746e+00 
        </Neuron>
      </Layer>
      <Layer Index="1" NNeurons="18">
        <Neuron NSynapses="17">
          -1.2369559100522600e+00 -1.7465452051042318e+00 -8.7277403402546572e-01 -1.1440195964401214e+00 1.1110350311627784e+00 -9.8255302125065436e-01 -1.1118221664059333e+00 1.4718728312337688e+00 4.8648146691977878e-01 -7.9745884820527657e-01 1.7879201400864007e+00 -1.7246871162702009e+00 1.3736143161074661e+00 9.4177588221638764e-01 -1.1948122279035818e+00 -5.1429122531904470e-01 -5.9899023758808023e-01 
        </Neuron>
        <Neuron NSynapses="17">
          -7.3217277775578715e-01 4.8817158617816686e-01 1.9488072977371649e+00 1.3236200115196459e+00 1.5150909775458845e+00 -1.1416976362636313e+00 8.0586980593477942e-01 -2.4207913998383144e+00 6.0915633818699599e-01 -1.8224325448349130e+00 -1.3556550538502494e+00 2.6361814066269088e-04 1.3586228662710875e+00 3.7835774783711862e-01 9.9611534656227163e-01 3.3272409125587377e-01 -6.0402103190711154e-01 
        </Neuron>
        <Neuron NSynapses="17">
          -4.9380521253299248e-01 1.4753466442001476e-01 2.1861460692398000e+00 -1.4300497442292019e+00 2.1863881163161772e-01 -1.1889368386971564e+00 -7.5999390817431511e-01 -2.1800842661739050e-02 6.0737651630882766e-02 -1.2130761032702457e+00 1.0603279144488909e+00 1.7008655600902194e+00 8.2708759196429016e-01 -1.2353871199559514e-01 -7.0302614012499920e-01 -1.5933037660826324e+00 -1.5916934590325478e+00 
        </Neuron>
        <Neuron NSynapses="17">
          8.1316705846642179e-01 -5.6344948390610738e-01 -9.2313337058255740e-01 3.0359544356367041e-01 -1.8615989678615537e+00 -1.2073855535834828e+00 -1.3576788977333569e+00 7.1962216339880170e-01 -1.2276783787210299e+00 -1.4132798269696667e+00 -9.8262436901924122e-01 -9.8290412443012609e-01 -1.6543866035254233e+00 1.2870828182335003e+00 -1.5767967673806271e+00 -1.2150061020020446e+00 1.3751897320047446e+00 
        </Neuron>
        <Neuron NSynapses="17">
          5.9808330488577788e-01 4.2293430454001868e-01 -1.2804329035813120e-01 1.3566436813512956e+00 1.8324356061454188e+00 6.6270584436695812e-01 -1.2440638359731804e+00 -5.5074210735035034e-01 -1.7543164636013406e+00 8.3427296585653699e-01 1.0095032719875709e+00 8.1150733014415249e-02 1.0131000537889234e+00 8.1592087686420955e-01 1.5441987138052795e+00 -1.5182455942068431e+00 1.8058825527929394e+00 
        </Neuron>
        <Neuron NSynapses="17">
          5.8628333056079718e-01 -1.8993893154861039e+00 -2.9295105715716452e-03 -6.2750130174996765e-01 1.1757246333971840e+00 9.0550185406848949e-01 8.9910689317562842e-01 9.0591160901884504e-01 -1.7766409241346917e-01 1.1801906348177686e+00 2.1007221250328230e+00 2.2339594896119963e-01 -1.2078025208197014e+00 1.5768665112790250e+00 -2.1245987240829414e+00 6.0614023948385998e-01 1.8652747666121874e+00 
        </Neuron>
        <Neuron NSynapses="17">
          -5.5088739101238227e-01 -8.7396936399015834e-01 -5.9084386900155231e-02 -9.0364545134427576e-01 6.2218005313424873e-01 -1.4929515057469696e+00 3.3991380776811086e-01 -4.5102456477032221e-01 2.0279984667905064e+00 1.0218905372845362e+00 1.5761222080481780e+00 -4.8176220371238104e-01 -5.1879606984042548e-01 2.2558130203189214e-01 1.4899606692039999e+00 -1.7122851270717645e+00 -1.9293043723037819e+00 
        </Neuron>
        <Neuron NSynapses="17">
          -8.5147236208715926e-01 -1.5221227065494189e+00 -1.7794707010104520e+00 -2.0411032687715447e+00 6.4584242855340257e-01 -3.2820251057563682e-01 -1.5847518277305923e+00 -1.5494370664474180e+00 -3.7884311141098526e-01 2.0161813629559204e+00 1.4103517045158642e+00 1.3173389332849557e+00 -6.4062098258825095e-01 -1.7572722508031811e+00 7.4249648572492763e-02 -1.2326388949689457e+00 -1.7348059565514824e+00 
        </Neuron>
        <Neuron NSynapses="17">
          -5.9082432433141263e-01 9.9015459688922808e-02 -1.4778122812534729e+00 1.3939214698758526e+00 1.0979973090917667e+00 3.8979984453197603e-01 -8.1882130645915585e-01 -5.2882758110258188e-01 1.6205016879536052e+00 -5.0503603656332918e-01 2.4332082199592062e-01 1.5681921679412649e+00 1.6487268488938756e+00 -1.0452571893739291e+00 1.6709416952001355e+00 -2.1144094310744048e+00 2.0827195225248802e+00 
        </Neuron>
        <Neuron NSynapses="17">
          2.6000985992559822e+00 -1.2823550009117748e-01 6.0888471250919241e-01 6.1151474356492530e-01 -3.6529373468492066e-01 9.0402358002198768e-01 -1.0179293418277506e-01 -2.0897587043069441e+00 -1.3960281932498009e+00 -6.4320536836175146e-01 2.4300932065370042e+00 4.2642947010818483e-01 -6.0929783564005424e-01 -1.8034896492643806e+00 1.7412971520676153e+00 4.8313324294208532e-01 -1.7423090035687172e+00 
        </Neuron>
        <Neuron NSynapses="17">
          -2.7163225122829476e-01 -1.0652619336400446e+00 1.2642611955401151e+00 1.5015562910323046e+00 -5.0878331055561810e-01 -1.3500033873220325e+00 1.7716197473474573e+00 8.6440845070663797e-01 4.1100918229192512e-01 2.2274635383159542e-03 -1.1130944354949595e+00 -1.1808079601759762e+00 1.0285144678409022e+00 4.4840441061926994e-01 2.3411121092661952e-01 -1.5948451707688682e+00 -2.3184876324327210e+00 
        </Neuron>
        <Neuron NSynapses="17">
          -2.1799299734241182e+00 -3.5570817155829537e-01 -1.7579325239900110e+00 2.7558298239865142e-01 -4.9795245538453758e-01 1.3447590572526389e+00 6.5244276975178261e-01 -1.7213967658073257e+00 1.1447996776689253e+00 2.0897996592087393e+00 6.4979827517684474e-01 -4.2937839390676324e-01 -9.4308663870089970e-01 2.2069396340134055e+00 -1.5206479254545224e+00 6.1388562267449587e-01 -1.7784152721710287e+00 
        </Neuron>
        <Neuron NSynapses="17">
          3.4847569747719975e-01 -1.1226823591710315e+00 7.1891835141970659e-02 -4.4636415024136866e-01 -5.5098984171854298e-02 -5.0279754120720566e-01 -5.7938037093623496e-01 8.5700036498025034e-01 3.8796659960520563e-01 1.1406032853802610e+00 5.7143042678581479e-01 -1.7691927996273857e+00 1.3280747078116657e+00 -1.8151219406216321e+00 1.1026039027156223e+00 8.4594647053506900e-01 1.2036133530432445e+00 
        </Neuron>
        <Neuron NSynapses="17">
          1.2151274739315185e+00 1.4207109993259013e+00 -1.5047358061405403e+00 -6.4223462126532094e-01 -1.0960255235695959e+00 5.5283862928290151e-01 -1.4780647031777212e-02 -5.3144544229106937e-02 -6.2574713772444512e-01 -5.4719936135533365e-01 -8.1666740798662840e-01 -3.3711521747926287e-01 -1.7936022508268956e+00 -3.0992762347953356e-01 2.7154323939963737e-01 -6.9888172841909613e-01 -9.7091902120184270e-01 
        </Neuron>
        <Neuron NSynapses="17">
          1.3916536572248118e-03 2.3561773246988924e-01 -5.3569192030206270e-01 -1.2996407107638737e+00 1.8902592846288861e+00 -2.9593019958420147e-01 1.0208384945347317e+00 8.6247744801279591e-01 -1.0255502214613046e+00 -6.4020248870861751e-01 -5.0766777640826499e-01 -1.9530236464014896e+00 -7.3725750671431300e-01 -1.0327653378721460e+00 1.0739089288088346e+00 -1.9391220286974418e+00 1.1640198973211722e+00 
        </Neuron>
        <Neuron NSynapses="17">
          2.1551446869877999e+00 1.6273913168749319e+00 1.0097049507778764e+00 8.7462988663311092e-01 4.8213278585758197e-02 -8.0909185180725374e-01 -2.2904825937837789e+00 -1.4088563385204036e+00 -7.6758977400769035e-01 1.2501252695318330e+00 4.6214839579200423e-01 6.8887697820014027e-02 1.4726466225463009e+00 1.0403324532173635e+00 -1.1985648890847433e+00 2.1660953023570120e-01 -1.9426385896405653e+00 
        </Neuron>
        <Neuron NSynapses="17">
          6.6213556621202285e-01 -1.8592156462321545e+00 1.0204479016900876e-01 -4.5304605319294883e-01 7.7863142207463032e-01 -2.3527199795918463e+00 5.9500457001991658e-01 -1.6251341945716447e+00 -2.1744785479680541e-02 1.5186178160581700e+00 -1.0506029373778878e+00 5.4576798251721459e-01 -1.6765941044205024e+00 1.1425997831989536e+00 -5.3721312829878343e-01 8.5470691890203232e-01 -2.0921010629353991e+00 
        </Neuron>
        <Neuron NSynapses="17">
          -9.7327773119305072e-01 2.0295067852602946e+00 -2.0541935163362384e+00 -1.3016756223868600e+00 -9.7207129062042363e-01 1.6030110253651704e+00 1.2835679338788559e+00 2.0397258112425329e+00 -1.8864509634549005e+00 8.3166445993862070e-01 7.1081487713156710e-01 2.4455428413351518e-01 -1.1648359256936518e+00 -1.4217922169878270e+00 3.2890366223883050e-01 -2.8230965486715481e-01 2.4761862208355954e+00 
        </Neuron>
      </Layer>
      <Layer Index="2" NNeurons="18">
        <Neuron NSynapses="1">
          5.2603985708975724e-02 
        </Neuron>
        <Neuron NSynapses="1">
          1.7232330368520159e-02 
        </Neuron>
        <Neuron NSynapses="1">
          1.2300405845921850e-01 
        </Neuron>
        <Neuron NSynapses="1">
          5.2497310644686948e-03 
        </Neuron>
        <Neuron NSynapses="1">
          1.2061206233907586e-02 
        </Neuron>
        <Neuron NSynapses="1">
          -8.0436632517184359e-01 
        </Neuron>
        <Neuron NSynapses="1">
          -2.2059568628443164e-02 
        </Neuron>
        <Neuron NSynapses="1">
          -1.8013697671703019e-01 
        </Neuron>
        <Neuron NSynapses="1">
          1.5405046107378587e-02 
        </Neuron>
        <Neuron NSynapses="1">
          -4.9108420131891262e-02 
        </Neuron>
        <Neuron NSynapses="1">
          2.0501012206148982e-02 
        </Neuron>
        <Neuron NSynapses="1">
          4.4433298675296939e-02 
        </Neuron>
        <Neuron NSynapses="1">
          6.3448762727099067e-02 
        </Neuron>
        <Neuron NSynapses="1">
          1.7851010038329233e-02 
        </Neuron>
        <Neuron NSynapses="1">
          1.9108111865258518e-02 
        </Neuron>
        <Neuron NSynapses="1">
          3.4758606355473905e-02 
        </Neuron>
        <Neuron NSynapses="1">
          7.3589295248065734e-01 
        </Neuron>
        <Neuron NSynapses="1">
          -2.1433334396750832e-02 
        </Neuron>
      </Layer>
      <Layer Index="3" NNeurons="1">
        <Neuron NSynapses="0"/>
      </Layer>
    </Layout>
  </Weights>
</MethodSetup>
