<?xml version="1.0"?>
<MethodSetup Method="MLP::XS_22_50_0_n2n">
  <GeneralInfo>
    <Info name="TMVA Release" value="4.2.1 [262657]"/>
    <Info name="ROOT Release" value="6.06/02 [394754]"/>
    <Info name="Creator" value="mouginot"/>
    <Info name="Date" value="Thu Feb 23 09:03:42 2017"/>
    <Info name="Host" value="Linux e300.chtc.wisc.edu 2.6.32-642.13.1.el6.x86_64 #1 SMP Tue Jan 10 11:22:50 CST 2017 x86_64 x86_64 x86_64 GNU/Linux"/>
    <Info name="Dir" value="/mnt/gluster/mouginot/TRU_MOX_XS/Generate"/>
    <Info name="Training events" value="198960"/>
    <Info name="TrainingTime" value="1.74501666e+04"/>
    <Info name="AnalysisType" value="Regression"/>
  </GeneralInfo>
  <Options>
    <Option name="NCycles" modified="Yes">20000</Option>
    <Option name="HiddenLayers" modified="Yes">N,N</Option>
    <Option name="NeuronType" modified="Yes">tanh</Option>
    <Option name="RandomSeed" modified="No">1</Option>
    <Option name="EstimatorType" modified="No">MSE</Option>
    <Option name="NeuronInputType" modified="No">sum</Option>
    <Option name="V" modified="Yes">False</Option>
    <Option name="VerbosityLevel" modified="No">Default</Option>
    <Option name="VarTransform" modified="Yes">Norm</Option>
    <Option name="H" modified="Yes">False</Option>
    <Option name="CreateMVAPdfs" modified="No">False</Option>
    <Option name="IgnoreNegWeightsInTraining" modified="No">False</Option>
    <Option name="TrainingMethod" modified="Yes">BFGS</Option>
    <Option name="LearningRate" modified="No">2.000000e-02</Option>
    <Option name="DecayRate" modified="No">1.000000e-02</Option>
    <Option name="TestRate" modified="Yes">6</Option>
    <Option name="EpochMonitoring" modified="No">False</Option>
    <Option name="Sampling" modified="Yes">3.000000e-01</Option>
    <Option name="SamplingEpoch" modified="Yes">8.000000e-01</Option>
    <Option name="SamplingImportance" modified="No">1.000000e+00</Option>
    <Option name="SamplingTraining" modified="No">True</Option>
    <Option name="SamplingTesting" modified="No">False</Option>
    <Option name="ResetStep" modified="No">50</Option>
    <Option name="Tau" modified="No">3.000000e+00</Option>
    <Option name="BPMode" modified="No">sequential</Option>
    <Option name="BatchSize" modified="No">-1</Option>
    <Option name="ConvergenceImprove" modified="Yes">1.000000e-06</Option>
    <Option name="ConvergenceTests" modified="Yes">15</Option>
    <Option name="UseRegulator" modified="Yes">False</Option>
    <Option name="UpdateLimit" modified="No">10000</Option>
    <Option name="CalculateErrors" modified="No">False</Option>
    <Option name="WeightRange" modified="No">1.000000e+00</Option>
  </Options>
  <Variables NVar="17">
    <Variable VarIndex="0" Expression="235U" Label="235U" Title="235U" Unit="IsotopicFraction" Internal="235U" Type="F" Min="1.71346517e-06" Max="1.92414057e-02"/>
    <Variable VarIndex="1" Expression="238U" Label="238U" Title="238U" Unit="IsotopicFraction" Internal="238U" Type="F" Min="7.85399854e-01" Max="9.68733251e-01"/>
    <Variable VarIndex="2" Expression="237Np" Label="237Np" Title="237Np" Unit="IsotopicFraction" Internal="237Np" Type="F" Min="1.63990119e-08" Max="1.97294168e-04"/>
    <Variable VarIndex="3" Expression="238Pu" Label="238Pu" Title="238Pu" Unit="IsotopicFraction" Internal="238Pu" Type="F" Min="4.69728775e-07" Max="3.96428024e-03"/>
    <Variable VarIndex="4" Expression="239Pu" Label="239Pu" Title="239Pu" Unit="IsotopicFraction" Internal="239Pu" Type="F" Min="2.15940680e-02" Max="1.89886928e-01"/>
    <Variable VarIndex="5" Expression="240Pu" Label="240Pu" Title="240Pu" Unit="IsotopicFraction" Internal="240Pu" Type="F" Min="1.54567579e-06" Max="3.95636074e-02"/>
    <Variable VarIndex="6" Expression="241Pu" Label="241Pu" Title="241Pu" Unit="IsotopicFraction" Internal="241Pu" Type="F" Min="3.22813172e-08" Max="7.04628276e-03"/>
    <Variable VarIndex="7" Expression="242Pu" Label="242Pu" Title="242Pu" Unit="IsotopicFraction" Internal="242Pu" Type="F" Min="1.58277174e-07" Max="1.98803633e-03"/>
    <Variable VarIndex="8" Expression="241Am" Label="241Am" Title="241Am" Unit="IsotopicFraction" Internal="241Am" Type="F" Min="3.13082671e-10" Max="7.48056592e-03"/>
    <Variable VarIndex="9" Expression="242Amm" Label="242Amm" Title="242Amm" Unit="IsotopicFraction" Internal="242Amm" Type="F" Min="1.34159976e-07" Max="1.16249369e-02"/>
    <Variable VarIndex="10" Expression="243Am" Label="243Am" Title="243Am" Unit="IsotopicFraction" Internal="243Am" Type="F" Min="2.04390229e-08" Max="1.99559363e-04"/>
    <Variable VarIndex="11" Expression="242Cm" Label="242Cm" Title="242Cm" Unit="IsotopicFraction" Internal="242Cm" Type="F" Min="1.48285639e-09" Max="1.93909858e-04"/>
    <Variable VarIndex="12" Expression="243Cm" Label="243Cm" Title="243Cm" Unit="IsotopicFraction" Internal="243Cm" Type="F" Min="9.09117492e-09" Max="1.97552916e-04"/>
    <Variable VarIndex="13" Expression="244Cm" Label="244Cm" Title="244Cm" Unit="IsotopicFraction" Internal="244Cm" Type="F" Min="2.46570231e-09" Max="1.97112051e-04"/>
    <Variable VarIndex="14" Expression="245Cm" Label="245Cm" Title="245Cm" Unit="IsotopicFraction" Internal="245Cm" Type="F" Min="9.47205692e-09" Max="1.97873349e-04"/>
    <Variable VarIndex="15" Expression="246Cm" Label="246Cm" Title="246Cm" Unit="IsotopicFraction" Internal="246Cm" Type="F" Min="2.33963915e-09" Max="1.98596885e-04"/>
    <Variable VarIndex="16" Expression="Time" Label="Time" Title="Time" Unit="seconds" Internal="Time" Type="F" Min="0.00000000e+00" Max="1.89328320e+08"/>
  </Variables>
  <Spectators NSpec="0"/>
  <Classes NClass="1">
    <Class Name="Regression" Index="0"/>
  </Classes>
  <Targets NTrgt="1">
    <Target TargetIndex="0" Expression="XS_22_50_0_n2n" Label="XS_22_50_0_n2n" Title="XS_22_50_0_n2n" Unit="" Internal="XS_22_50_0_n2n" Type="F" Min="3.95097522e-05" Max="1.98123060e-04"/>
  </Targets>
  <Transformations NTransformations="1">
    <Transform Name="Normalize">
      <Selection>
        <Input NInputs="18">
          <Input Type="Variable" Label="235U" Expression="235U"/>
          <Input Type="Variable" Label="238U" Expression="238U"/>
          <Input Type="Variable" Label="237Np" Expression="237Np"/>
          <Input Type="Variable" Label="238Pu" Expression="238Pu"/>
          <Input Type="Variable" Label="239Pu" Expression="239Pu"/>
          <Input Type="Variable" Label="240Pu" Expression="240Pu"/>
          <Input Type="Variable" Label="241Pu" Expression="241Pu"/>
          <Input Type="Variable" Label="242Pu" Expression="242Pu"/>
          <Input Type="Variable" Label="241Am" Expression="241Am"/>
          <Input Type="Variable" Label="242Amm" Expression="242Amm"/>
          <Input Type="Variable" Label="243Am" Expression="243Am"/>
          <Input Type="Variable" Label="242Cm" Expression="242Cm"/>
          <Input Type="Variable" Label="243Cm" Expression="243Cm"/>
          <Input Type="Variable" Label="244Cm" Expression="244Cm"/>
          <Input Type="Variable" Label="245Cm" Expression="245Cm"/>
          <Input Type="Variable" Label="246Cm" Expression="246Cm"/>
          <Input Type="Variable" Label="Time" Expression="Time"/>
          <Input Type="Target" Label="XS_22_50_0_n2n" Expression="XS_22_50_0_n2n"/>
        </Input>
        <Output NOutputs="18">
          <Output Type="Variable" Label="235U" Expression="235U"/>
          <Output Type="Variable" Label="238U" Expression="238U"/>
          <Output Type="Variable" Label="237Np" Expression="237Np"/>
          <Output Type="Variable" Label="238Pu" Expression="238Pu"/>
          <Output Type="Variable" Label="239Pu" Expression="239Pu"/>
          <Output Type="Variable" Label="240Pu" Expression="240Pu"/>
          <Output Type="Variable" Label="241Pu" Expression="241Pu"/>
          <Output Type="Variable" Label="242Pu" Expression="242Pu"/>
          <Output Type="Variable" Label="241Am" Expression="241Am"/>
          <Output Type="Variable" Label="242Amm" Expression="242Amm"/>
          <Output Type="Variable" Label="243Am" Expression="243Am"/>
          <Output Type="Variable" Label="242Cm" Expression="242Cm"/>
          <Output Type="Variable" Label="243Cm" Expression="243Cm"/>
          <Output Type="Variable" Label="244Cm" Expression="244Cm"/>
          <Output Type="Variable" Label="245Cm" Expression="245Cm"/>
          <Output Type="Variable" Label="246Cm" Expression="246Cm"/>
          <Output Type="Variable" Label="Time" Expression="Time"/>
          <Output Type="Target" Label="XS_22_50_0_n2n" Expression="XS_22_50_0_n2n"/>
        </Output>
      </Selection>
      <Class ClassIndex="0">
        <Ranges>
          <Range Index="0" Min="1.7134651670858148e-06" Max="1.9241405650973320e-02"/>
          <Range Index="1" Min="7.8539985418319702e-01" Max="9.6873325109481812e-01"/>
          <Range Index="2" Min="1.6399011926182538e-08" Max="1.9729416817426682e-04"/>
          <Range Index="3" Min="4.6972877498774324e-07" Max="3.9642802439630032e-03"/>
          <Range Index="4" Min="2.1594068035483360e-02" Max="1.8988692760467529e-01"/>
          <Range Index="5" Min="1.5456757864740212e-06" Max="3.9563607424497604e-02"/>
          <Range Index="6" Min="3.2281317174920332e-08" Max="7.0462827570736408e-03"/>
          <Range Index="7" Min="1.5827717447791656e-07" Max="1.9880363252013922e-03"/>
          <Range Index="8" Min="3.1308267089968922e-10" Max="7.4805659241974354e-03"/>
          <Range Index="9" Min="1.3415997557331139e-07" Max="1.1624936945736408e-02"/>
          <Range Index="10" Min="2.0439022918594674e-08" Max="1.9955936295446008e-04"/>
          <Range Index="11" Min="1.4828563932312022e-09" Max="1.9390985835343599e-04"/>
          <Range Index="12" Min="9.0911749239808159e-09" Max="1.9755291577894241e-04"/>
          <Range Index="13" Min="2.4657023089957875e-09" Max="1.9711205095518380e-04"/>
          <Range Index="14" Min="9.4720569165929192e-09" Max="1.9787334895227104e-04"/>
          <Range Index="15" Min="2.3396391490848600e-09" Max="1.9859688472934067e-04"/>
          <Range Index="16" Min="0.0000000000000000e+00" Max="1.8932832000000000e+08"/>
          <Range Index="17" Min="3.9509752241428941e-05" Max="1.9812305981758982e-04"/>
        </Ranges>
      </Class>
    </Transform>
  </Transformations>
  <MVAPdfs/>
  <Weights>
    <Layout NLayers="4">
      <Layer Index="0" NNeurons="18">
        <Neuron NSynapses="17">
          -4.0345573967467385e-01 1.8638724162526912e+00 8.6975775452048376e-01 1.7082491241881856e+00 -1.8992167979822423e+00 -1.4200704714876258e+00 -7.7960263286727660e-01 1.8827156564534626e+00 -1.3959565404409886e+00 -1.1335250500373379e+00 -1.5603262825276643e+00 -5.7605593780786224e-01 -1.2244843876090545e+00 -4.2123335369400589e-01 -4.3210438037937632e-01 4.5658829027015219e-01 -4.8778641476590284e-01 
        </Neuron>
        <Neuron NSynapses="17">
          1.7496105131588449e+00 4.1482529042454752e-01 1.6650426016165061e+00 -2.1310660850506238e-01 -7.9194666949718939e-01 4.1806508458731173e-01 1.2643196916500621e-01 -1.0702223471029417e+00 -3.6824200850812300e-01 1.4460743078815061e+00 -9.5329079897916580e-01 -1.8278528555497968e+00 1.3693414284597166e-01 6.2784915245650030e-01 1.2795885848718429e+00 1.0323066991245501e-01 1.4961084822241666e-01 
        </Neuron>
        <Neuron NSynapses="17">
          2.9134456829983957e-01 -2.5938039999460633e-01 -1.4543449002974369e+00 1.6571901467850383e+00 -1.4729052168279595e+00 1.1242428020369681e+00 1.3540076218615840e+00 9.0902510087201116e-01 1.8272794855686154e+00 1.1697745747811703e+00 -7.2323517490713962e-01 -1.4089101760063434e+00 6.7959251291677125e-01 -8.1350756618049538e-02 1.5971533199520029e+00 1.3471452145551317e+00 1.5047651988124209e+00 
        </Neuron>
        <Neuron NSynapses="17">
          1.4737240455439686e+00 -1.4978431720343424e+00 1.4599758544211849e+00 -1.7152712393099858e+00 -1.0990666076932667e+00 -1.2745194574738463e+00 -1.4047832751567233e+00 1.4116852762777967e+00 5.4917570687140593e-01 -1.7738714760079937e+00 4.1426691926418208e-01 -5.5617590707081710e-01 6.0396277297176060e-01 1.5067745682702609e+00 -1.4732751949253423e-01 2.4973541146238420e-01 -8.8297716175311991e-01 
        </Neuron>
        <Neuron NSynapses="17">
          8.1176638132406020e-01 -1.0177409111937197e+00 -9.2601551034765273e-01 -1.5133540352979242e+00 6.6224028817287461e-01 1.3799300624102255e+00 1.4054041502370083e+00 -4.2622794326253921e-01 -1.8465325867364599e+00 -1.8413184432727903e+00 9.1151897861910558e-01 4.8574582528924043e-01 1.9305937357992906e+00 6.1165702484979878e-01 1.2991004739016232e+00 -1.1050525889502512e+00 -1.0903346056474272e+00 
        </Neuron>
        <Neuron NSynapses="17">
          -4.0048983704467363e-02 1.2322190605460779e+00 -1.0159745194510847e+00 -1.5268736174931006e+00 -1.9451991088521194e+00 -1.6000442398289916e-01 2.2571563859170971e-01 1.6689868907510046e+00 -1.5731885434315751e+00 -9.4380300519312288e-01 1.6178750706498832e+00 -9.0497520161170475e-01 -1.6359241645537517e+00 -1.7231710721304692e+00 2.4066243956713573e-01 -1.8648870872262908e+00 -1.3520414427346035e+00 
        </Neuron>
        <Neuron NSynapses="17">
          8.9007950520241352e-01 1.8836042029893831e+00 -9.7582036488430912e-01 1.6930656805711373e+00 -1.3402782033459173e+00 -8.4725857357290812e-01 3.1238473129905781e-01 3.1124942396521815e-01 -1.9224308051117227e+00 6.2127027113029740e-02 3.7389972131334009e-01 3.8322740598375271e-01 -1.5757877851534368e+00 1.4624700195004969e+00 4.3743674570905511e-01 -7.2884172705283912e-01 1.1096060063441817e+00 
        </Neuron>
        <Neuron NSynapses="17">
          -8.7995433891390529e-01 -1.4503590566154887e+00 2.3415468585834320e-01 -2.9985085593948979e-01 1.4834257397369570e+00 8.0672022735895388e-01 3.0105853739146482e-01 -3.7839836937543248e-01 1.0779159440582527e-01 -1.8874802995066293e+00 1.0654285299404811e+00 8.8268450475306362e-02 -1.8704514702940847e+00 3.7961312550955573e-01 -1.2331307666231415e+00 1.2936428377299178e-01 1.2848102444186520e+00 
        </Neuron>
        <Neuron NSynapses="17">
          2.0212501971623733e+00 -1.7247115774110675e+00 5.7483959480144753e-01 1.6256175694150519e+00 1.0931384977629670e+00 9.8710180618030469e-02 -9.6518332880831370e-01 -7.3873076031867366e-02 -1.5112263383030795e+00 1.3310764199687417e+00 1.3172854474508306e+00 -3.6309794969071635e-01 -6.1106769010242545e-01 -1.8899679122439028e-01 -1.2338943678030698e+00 7.8689308993304818e-01 2.0409061591498809e+00 
        </Neuron>
        <Neuron NSynapses="17">
          -4.1079545666443257e-01 -7.4814913271036176e-01 3.5122138139204867e-01 1.0985036098879868e+00 3.0748799313758374e-01 1.0826102064597642e+00 -1.0679343896779039e+00 1.4989942027154457e+00 5.8739429544257726e-01 3.5015133647860069e-01 6.4135265036539790e-01 1.0024696990739930e+00 -8.1489359398145556e-01 -6.7015384943290235e-01 1.4901744670689376e+00 -1.1632553242272872e+00 -4.3022516066712396e-01 
        </Neuron>
        <Neuron NSynapses="17">
          1.5602364668635782e+00 8.7924066035983361e-01 -3.3762589284955641e-01 1.4128743449463985e+00 1.5596875933986396e+00 -1.8082921894485522e+00 8.2234684254927648e-01 -2.6803866689311645e-02 4.0502025986814427e-01 -1.8135515473487063e+00 -1.4824075785862332e+00 1.0767453404579566e+00 1.6096328789081633e+00 -1.7859381373796657e+00 3.0420502093839254e-02 -7.1622595705785996e-01 2.9357787635131205e-01 
        </Neuron>
        <Neuron NSynapses="17">
          1.8591656297579680e+00 -3.0981623336315650e-01 -3.4863436057393160e-01 -1.0085028892875223e+00 7.3787178189671787e-01 1.6783153022393411e+00 1.3249524562837378e+00 3.4508286979085567e-01 -8.0194226808469349e-01 -2.1161312276229385e+00 1.0819736682529624e+00 5.5402405075181727e-01 -1.4486362074785051e+00 -9.6452754656758644e-01 3.7104290502954068e-01 2.2897171136404199e-01 -1.7027074373017117e+00 
        </Neuron>
        <Neuron NSynapses="17">
          1.7401819086450501e+00 9.3282901908999449e-01 -3.8991794286309550e-01 -5.5759067227717340e-02 1.3123960506533296e+00 1.0738066882290878e+00 8.5282304272918918e-01 -5.8093935940374500e-02 -1.8985520942652474e+00 -1.0543857178802809e+00 1.7249341680965999e+00 1.3657816303974206e+00 7.0127780801786421e-01 -8.1007992518768931e-02 1.9712781888130833e+00 -1.4357788937091855e+00 -9.5050282795098295e-01 
        </Neuron>
        <Neuron NSynapses="17">
          2.9835321732598070e-02 -1.3830520373651700e+00 1.0201395735220045e+00 1.7544227644368251e+00 -1.4587675505583952e+00 8.8637881699064336e-01 9.1683309401028479e-02 -1.8705322194927432e+00 -1.1379316077701707e+00 8.7183956476344238e-01 8.0235414666962421e-02 8.9500516200878155e-01 -1.2736975767754251e+00 1.3848586365798257e+00 -1.5893573797703922e+00 8.3343110172162171e-01 2.1700863459799211e-01 
        </Neuron>
        <Neuron NSynapses="17">
          -1.3319875390326577e+00 -1.2968670455921643e+00 -1.8629412893580937e+00 -3.9779588663361165e-01 -2.1378740074561895e+00 -1.5067930977435131e+00 -1.5390029728612442e+00 1.7589000977082278e-01 -1.0382744749107213e+00 -1.7148963714175336e+00 1.3986830113254058e+00 -6.7089678734255775e-01 2.4354305636652453e-02 -1.2404073476676933e+00 3.8870144123813438e-01 1.7714113352819219e+00 1.4278867604689012e+00 
        </Neuron>
        <Neuron NSynapses="17">
          -6.8792781743027775e-01 -1.3225862280125558e+00 -9.7356391155384503e-01 -8.6542054567834181e-01 -1.9015987289722185e+00 3.4492531866439974e-01 5.7245433636586307e-01 1.8706836884295641e+00 -2.9353449805382875e-01 9.0396735800839956e-02 -5.0156326498156090e-01 -1.9324172016775700e+00 1.2231480171845059e+00 9.1309551740362438e-01 -7.2978793001571363e-01 -9.4661370431471059e-01 1.0567713087524198e+00 
        </Neuron>
        <Neuron NSynapses="17">
          1.1485208072999142e+00 7.1838767749183852e-01 -3.1046186683460303e-01 -3.2955005910852031e-01 1.2322029223691915e+00 8.6561810172810383e-01 7.2949681131347954e-01 -4.0702699309219281e-01 2.1132979797374271e-01 -2.4875257265439507e-01 -1.4041679535439258e+00 -6.1543570998187225e-01 -1.5868924708607155e+00 -1.5178662102551739e+00 -1.7034660566700264e+00 2.1821752049176144e+00 -1.5119604541322540e+00 
        </Neuron>
        <Neuron NSynapses="17">
          1.3163416202583600e+00 -1.9233641165357196e+00 6.4582340899872637e-01 -1.2905744300830904e+00 1.1776678064642425e+00 1.0687782774797630e+00 -2.6166829930721991e+00 1.2102893084744136e-01 8.7099638161419035e-01 -1.5901715741204150e+00 -1.6871466183467121e+00 -1.7762334530670310e+00 -5.7846492628599933e-01 2.4256134292414715e+00 -5.5197130272683981e-01 -2.1192100801517960e-01 -1.6240539749540566e+00 
        </Neuron>
      </Layer>
      <Layer Index="1" NNeurons="18">
        <Neuron NSynapses="17">
          -1.2449225715928267e+00 -1.6992986737031386e+00 -8.3276414405015053e-01 -1.5114938222141912e+00 8.4655452317071056e-01 -1.5912621180072821e+00 -1.1063670985770857e+00 1.6440583138754454e+00 4.8501184227249272e-01 -5.4620045001565076e-01 2.0312499874167291e+00 -1.8120201739173027e+00 1.4793506154966534e+00 9.7028027437042230e-01 -1.1568393732150501e+00 -6.1821422833053330e-01 -1.5803156685060565e-01 
        </Neuron>
        <Neuron NSynapses="17">
          -1.0856777071146289e+00 4.7583191574000583e-01 1.9935720414823990e+00 1.3347362568412913e+00 1.6812219483368145e+00 -1.3274247568600646e+00 8.8181927315930020e-01 -2.1024777844335438e+00 5.7438316219216390e-01 -1.7138643028079446e+00 -2.0683602127786997e+00 -4.4341874960790326e-02 1.2583749203479195e+00 3.7129549811407381e-01 9.5050560948464258e-01 3.3247759666591975e-01 -2.0701752534565396e-01 
        </Neuron>
        <Neuron NSynapses="17">
          -6.2652409371644235e-01 1.2262216684584046e-01 1.8978908496334266e+00 -1.4224072318597072e+00 3.7620265418200161e-01 -1.1798571141278167e+00 -6.2398739808023385e-01 1.9027243797908294e-01 -4.3370011702649827e-02 -1.1136488501481103e+00 7.0932830347806330e-01 1.6730631422163531e+00 6.8864983751317832e-01 -9.9091312893053854e-02 -7.2511849332705502e-01 -1.5505176457278866e+00 -1.5885344786074997e+00 
        </Neuron>
        <Neuron NSynapses="17">
          9.1176371107542786e-01 -5.2354909997988297e-01 -1.0075514321125092e+00 3.0531879888423047e-01 -1.8511493752437536e+00 -1.4430171615410250e+00 -1.4515778902916494e+00 8.9058803915420326e-01 -1.2156680439520766e+00 -1.7096504540944226e+00 -4.8489337467243315e-01 -9.5230231894319428e-01 -1.6297064432666317e+00 1.2406885964379628e+00 -1.5596780502680647e+00 -1.2063224951076690e+00 1.5436474833959728e+00 
        </Neuron>
        <Neuron NSynapses="17">
          6.9135883114639363e-01 3.1036796741739836e-01 5.3306284737024152e-02 1.3710501152785224e+00 1.8168306507901146e+00 8.2516766353494142e-01 -1.1374478067699931e+00 -5.0340301585640945e-01 -1.8019615464623144e+00 9.0204946992179436e-01 8.0751310452384450e-01 9.8744216946356780e-02 1.0918517600163713e+00 8.5429784036783962e-01 1.5817070741668005e+00 -1.3077975515406597e+00 1.6406361858889000e+00 
        </Neuron>
        <Neuron NSynapses="17">
          7.5965203184138896e-01 -1.9356089541214190e+00 -2.2756043231588538e-01 -9.2523846993733838e-01 8.6887303595897492e-01 5.8495891701924707e-01 1.0725796721512650e+00 1.8339340671488356e+00 -1.8161723692550352e-01 1.7401895352846293e+00 1.8391999859782697e+00 2.0426936694941422e-01 -1.1189916423987261e+00 1.6144857233123999e+00 -2.0893492845452011e+00 6.6804157511566786e-01 1.6630436223708878e+00 
        </Neuron>
        <Neuron NSynapses="17">
          -4.3639970045677290e-01 -8.1563667455813038e-01 5.6217069591892245e-02 -1.2650468625237810e+00 3.6087122534903426e-01 -2.0423528096311614e+00 3.1643930679050836e-01 -3.7490723656360181e-01 1.9947068277509961e+00 1.1549659432321757e+00 1.9080351147694035e+00 -5.5109314685154076e-01 -3.3550644039762001e-01 3.0797532515836351e-01 1.5735970037840605e+00 -1.6906320932716874e+00 -1.4033290183408553e+00 
        </Neuron>
        <Neuron NSynapses="17">
          -7.0810839325314989e-01 -1.4912405767381609e+00 -1.5707834324029095e+00 -1.8460843393654029e+00 5.6682391993392789e-01 -2.8078754375588322e-01 -1.6910806872767761e+00 -1.8936960882807083e+00 -3.0780525214896848e-01 1.8216096112711915e+00 1.8299277716929039e+00 1.3061730970351351e+00 -5.9583672479313532e-01 -1.7826751921069433e+00 7.1486459103564826e-02 -1.2919018491169123e+00 -1.5245338126740369e+00 
        </Neuron>
        <Neuron NSynapses="17">
          -5.7863454033858508e-01 1.5254597860358869e-02 -1.5873670649716296e+00 1.4976802756582481e+00 1.2876802757214429e+00 8.4878906679452071e-01 -7.4532582438759132e-01 -6.4705217208016208e-01 1.5437628404036303e+00 -5.4770078701269986e-01 3.2018765889335589e-02 1.6065495282450877e+00 1.5412832856756948e+00 -1.0117139081436344e+00 1.6702533587612562e+00 -2.0155634992033864e+00 1.7727916037255715e+00 
        </Neuron>
        <Neuron NSynapses="17">
          1.9826249936697571e+00 -1.6794499195672372e-01 -1.6421891657811372e-01 3.1629624105420479e-01 -5.4660709879310609e-01 7.9614779158091020e-01 1.3481703395099370e-01 -8.7314649844551406e-01 -1.5109067429195484e+00 3.6385118982364337e-03 1.4961822170345953e+00 3.8551291364067403e-01 -7.8638193429532222e-01 -1.8007236505099622e+00 1.7608606686773440e+00 3.4528219448445341e-01 -1.2161483630325209e+00 
        </Neuron>
        <Neuron NSynapses="17">
          -3.9840469167035863e-01 -1.0051102001126222e+00 1.2776022434447776e+00 1.3909872396101439e+00 -7.9962370015606465e-01 -1.6854352904143719e+00 1.7176887709141675e+00 1.0821681516418928e+00 4.9379346249200956e-01 1.6764619921652257e-01 -9.5547719744739656e-01 -1.2377090272820575e+00 1.0704260062784634e+00 3.8628080390872188e-01 2.3118386333994190e-01 -1.7612359928162566e+00 -1.9584553350506457e+00 
        </Neuron>
        <Neuron NSynapses="17">
          -2.0556610612829807e+00 -3.1615731451881768e-01 -1.5830833208821831e+00 2.1000775667161992e-01 -6.5971540359872760e-01 1.2480734969054463e+00 6.1276877211799341e-01 -1.7988235891922930e+00 1.1237757064907252e+00 1.9741326108040274e+00 1.0471688474147514e+00 -4.4494901012687732e-01 -8.6929666923480120e-01 2.1713693030385715e+00 -1.4630603049046194e+00 5.2391407169392001e-01 -1.4528763445230912e+00 
        </Neuron>
        <Neuron NSynapses="17">
          1.0879305120485079e+00 -1.1621868469407548e+00 7.6411510939074972e-02 -1.5081978605579258e-01 3.8095269756930189e-01 -5.3267727955036599e-02 -7.0076161561645522e-01 9.6198003236432705e-01 4.5287444193227466e-01 8.2362004707450642e-01 9.6000454968497495e-01 -1.6877978005987293e+00 1.2360686953812110e+00 -1.8073449998465503e+00 1.1226581491025225e+00 8.7499894543134538e-01 7.6245491823722333e-01 
        </Neuron>
        <Neuron NSynapses="17">
          1.5699941705180813e+00 1.4608342585141338e+00 -2.0120579950959341e+00 -6.5974932535387620e-01 -9.6710266456008021e-01 7.2536746964044374e-01 -1.5861055585636646e-01 -1.0430577860090960e-01 -5.6251916814568703e-01 -4.8680327829626729e-01 -9.8243728786292039e-01 -3.5371446035528903e-01 -1.8499696062112945e+00 -2.9046271114236444e-01 2.9153339006687556e-01 -7.3599146877379285e-01 -1.2967958886430728e+00 
        </Neuron>
        <Neuron NSynapses="17">
          2.6837165007117331e-01 2.4914877215036793e-01 -4.4173302808395565e-01 -1.1709859670074507e+00 1.8206727587799429e+00 -1.5650486604672736e-01 8.2211154839197442e-01 5.8645836957567865e-01 -9.5691807169135401e-01 -8.9169971742150911e-01 -7.4168860684452761e-02 -1.9422977147485117e+00 -8.5153454589690980e-01 -1.0720965633865143e+00 1.0731481116288077e+00 -2.1010919539714408e+00 1.3088305652015821e+00 
        </Neuron>
        <Neuron NSynapses="17">
          1.9007908609390094e+00 1.6050869598057902e+00 1.1615676756461981e+00 7.5503103597266108e-01 1.6779431788600202e-01 -7.8491673821286601e-01 -2.1763018934414009e+00 -1.0093813792826543e+00 -8.8581826047316703e-01 1.4179661396594416e+00 -2.8537333241297970e-03 8.8140592539127094e-02 1.5370581946483679e+00 1.0589207881883498e+00 -1.2650499527409400e+00 4.2861210416645346e-01 -1.5780909047621996e+00 
        </Neuron>
        <Neuron NSynapses="17">
          7.7945855531315422e-01 -1.8285607112622762e+00 1.7956113067911889e-01 -4.1222163582141297e-01 8.8299065653471975e-01 -2.0850690069898126e+00 4.8311623404857668e-01 -1.7846076078154980e+00 1.8657600379141045e-02 1.2829013852595086e+00 -6.0629154129866047e-01 5.3902836139727839e-01 -1.7192921383327313e+00 1.0996771382494124e+00 -5.5285552229145674e-01 7.3973608039820027e-01 -1.7160307171719336e+00 
        </Neuron>
        <Neuron NSynapses="17">
          -9.4492868613576908e-01 1.9360849979550623e+00 -2.0406276392097955e+00 -1.1307100250599056e+00 -7.5988902618473364e-01 2.1214286085106870e+00 1.3295001132306847e+00 1.7358211849027940e+00 -1.9154954728330076e+00 7.6413018437691038e-01 4.6758684900835135e-01 2.8712438299666010e-01 -1.2507562780831103e+00 -1.3863141820514060e+00 3.0536295080969023e-01 -2.2488003995218861e-01 1.8390943553283650e+00 
        </Neuron>
      </Layer>
      <Layer Index="2" NNeurons="18">
        <Neuron NSynapses="1">
          -1.9264094785695341e-02 
        </Neuron>
        <Neuron NSynapses="1">
          -7.6193980725202913e-03 
        </Neuron>
        <Neuron NSynapses="1">
          -3.8139308663086867e-02 
        </Neuron>
        <Neuron NSynapses="1">
          7.0839427856552832e-03 
        </Neuron>
        <Neuron NSynapses="1">
          -9.4615834496721424e-03 
        </Neuron>
        <Neuron NSynapses="1">
          -1.1806651894960549e+00 
        </Neuron>
        <Neuron NSynapses="1">
          1.9725147887935470e-02 
        </Neuron>
        <Neuron NSynapses="1">
          1.3444992062895388e-02 
        </Neuron>
        <Neuron NSynapses="1">
          -2.3699652023639592e-02 
        </Neuron>
        <Neuron NSynapses="1">
          1.1250549638094264e-02 
        </Neuron>
        <Neuron NSynapses="1">
          5.3954230080210778e-04 
        </Neuron>
        <Neuron NSynapses="1">
          8.1072525108745047e-03 
        </Neuron>
        <Neuron NSynapses="1">
          -2.9170761070713369e-02 
        </Neuron>
        <Neuron NSynapses="1">
          -8.0349810617445141e-03 
        </Neuron>
        <Neuron NSynapses="1">
          5.1157639187250463e-03 
        </Neuron>
        <Neuron NSynapses="1">
          -2.5857715660301830e-02 
        </Neuron>
        <Neuron NSynapses="1">
          -1.7054652769917862e-02 
        </Neuron>
        <Neuron NSynapses="1">
          9.5276496699852342e-01 
        </Neuron>
      </Layer>
      <Layer Index="3" NNeurons="1">
        <Neuron NSynapses="0"/>
      </Layer>
    </Layout>
  </Weights>
</MethodSetup>
