<?xml version="1.0"?>
<MethodSetup Method="MLP::XS_38_87_0_cap">
  <GeneralInfo>
    <Info name="TMVA Release" value="4.2.1 [262657]"/>
    <Info name="ROOT Release" value="6.06/02 [394754]"/>
    <Info name="Creator" value="mouginot"/>
    <Info name="Date" value="Wed Feb 22 23:22:03 2017"/>
    <Info name="Host" value="Linux e300.chtc.wisc.edu 2.6.32-642.13.1.el6.x86_64 #1 SMP Tue Jan 10 11:22:50 CST 2017 x86_64 x86_64 x86_64 GNU/Linux"/>
    <Info name="Dir" value="/mnt/gluster/mouginot/TRU_MOX_XS/Generate"/>
    <Info name="Training events" value="198960"/>
    <Info name="TrainingTime" value="1.70371334e+04"/>
    <Info name="AnalysisType" value="Regression"/>
  </GeneralInfo>
  <Options>
    <Option name="NCycles" modified="Yes">20000</Option>
    <Option name="HiddenLayers" modified="Yes">N,N</Option>
    <Option name="NeuronType" modified="Yes">tanh</Option>
    <Option name="RandomSeed" modified="No">1</Option>
    <Option name="EstimatorType" modified="No">MSE</Option>
    <Option name="NeuronInputType" modified="No">sum</Option>
    <Option name="V" modified="Yes">False</Option>
    <Option name="VerbosityLevel" modified="No">Default</Option>
    <Option name="VarTransform" modified="Yes">Norm</Option>
    <Option name="H" modified="Yes">False</Option>
    <Option name="CreateMVAPdfs" modified="No">False</Option>
    <Option name="IgnoreNegWeightsInTraining" modified="No">False</Option>
    <Option name="TrainingMethod" modified="Yes">BFGS</Option>
    <Option name="LearningRate" modified="No">2.000000e-02</Option>
    <Option name="DecayRate" modified="No">1.000000e-02</Option>
    <Option name="TestRate" modified="Yes">6</Option>
    <Option name="EpochMonitoring" modified="No">False</Option>
    <Option name="Sampling" modified="Yes">3.000000e-01</Option>
    <Option name="SamplingEpoch" modified="Yes">8.000000e-01</Option>
    <Option name="SamplingImportance" modified="No">1.000000e+00</Option>
    <Option name="SamplingTraining" modified="No">True</Option>
    <Option name="SamplingTesting" modified="No">False</Option>
    <Option name="ResetStep" modified="No">50</Option>
    <Option name="Tau" modified="No">3.000000e+00</Option>
    <Option name="BPMode" modified="No">sequential</Option>
    <Option name="BatchSize" modified="No">-1</Option>
    <Option name="ConvergenceImprove" modified="Yes">1.000000e-06</Option>
    <Option name="ConvergenceTests" modified="Yes">15</Option>
    <Option name="UseRegulator" modified="Yes">False</Option>
    <Option name="UpdateLimit" modified="No">10000</Option>
    <Option name="CalculateErrors" modified="No">False</Option>
    <Option name="WeightRange" modified="No">1.000000e+00</Option>
  </Options>
  <Variables NVar="17">
    <Variable VarIndex="0" Expression="235U" Label="235U" Title="235U" Unit="IsotopicFraction" Internal="235U" Type="F" Min="1.71346517e-06" Max="1.92414057e-02"/>
    <Variable VarIndex="1" Expression="238U" Label="238U" Title="238U" Unit="IsotopicFraction" Internal="238U" Type="F" Min="7.85399854e-01" Max="9.68733251e-01"/>
    <Variable VarIndex="2" Expression="237Np" Label="237Np" Title="237Np" Unit="IsotopicFraction" Internal="237Np" Type="F" Min="1.63990119e-08" Max="1.97294168e-04"/>
    <Variable VarIndex="3" Expression="238Pu" Label="238Pu" Title="238Pu" Unit="IsotopicFraction" Internal="238Pu" Type="F" Min="4.69728775e-07" Max="3.96428024e-03"/>
    <Variable VarIndex="4" Expression="239Pu" Label="239Pu" Title="239Pu" Unit="IsotopicFraction" Internal="239Pu" Type="F" Min="2.15940680e-02" Max="1.89886928e-01"/>
    <Variable VarIndex="5" Expression="240Pu" Label="240Pu" Title="240Pu" Unit="IsotopicFraction" Internal="240Pu" Type="F" Min="1.54567579e-06" Max="3.95636074e-02"/>
    <Variable VarIndex="6" Expression="241Pu" Label="241Pu" Title="241Pu" Unit="IsotopicFraction" Internal="241Pu" Type="F" Min="3.22813172e-08" Max="7.04628276e-03"/>
    <Variable VarIndex="7" Expression="242Pu" Label="242Pu" Title="242Pu" Unit="IsotopicFraction" Internal="242Pu" Type="F" Min="1.58277174e-07" Max="1.98803633e-03"/>
    <Variable VarIndex="8" Expression="241Am" Label="241Am" Title="241Am" Unit="IsotopicFraction" Internal="241Am" Type="F" Min="3.13082671e-10" Max="7.48056592e-03"/>
    <Variable VarIndex="9" Expression="242Amm" Label="242Amm" Title="242Amm" Unit="IsotopicFraction" Internal="242Amm" Type="F" Min="1.34159976e-07" Max="1.16249369e-02"/>
    <Variable VarIndex="10" Expression="243Am" Label="243Am" Title="243Am" Unit="IsotopicFraction" Internal="243Am" Type="F" Min="2.04390229e-08" Max="1.99559363e-04"/>
    <Variable VarIndex="11" Expression="242Cm" Label="242Cm" Title="242Cm" Unit="IsotopicFraction" Internal="242Cm" Type="F" Min="1.48285639e-09" Max="1.93909858e-04"/>
    <Variable VarIndex="12" Expression="243Cm" Label="243Cm" Title="243Cm" Unit="IsotopicFraction" Internal="243Cm" Type="F" Min="9.09117492e-09" Max="1.97552916e-04"/>
    <Variable VarIndex="13" Expression="244Cm" Label="244Cm" Title="244Cm" Unit="IsotopicFraction" Internal="244Cm" Type="F" Min="2.46570231e-09" Max="1.97112051e-04"/>
    <Variable VarIndex="14" Expression="245Cm" Label="245Cm" Title="245Cm" Unit="IsotopicFraction" Internal="245Cm" Type="F" Min="9.47205692e-09" Max="1.97873349e-04"/>
    <Variable VarIndex="15" Expression="246Cm" Label="246Cm" Title="246Cm" Unit="IsotopicFraction" Internal="246Cm" Type="F" Min="2.33963915e-09" Max="1.98596885e-04"/>
    <Variable VarIndex="16" Expression="Time" Label="Time" Title="Time" Unit="seconds" Internal="Time" Type="F" Min="0.00000000e+00" Max="1.89328320e+08"/>
  </Variables>
  <Spectators NSpec="0"/>
  <Classes NClass="1">
    <Class Name="Regression" Index="0"/>
  </Classes>
  <Targets NTrgt="1">
    <Target TargetIndex="0" Expression="XS_38_87_0_cap" Label="XS_38_87_0_cap" Title="XS_38_87_0_cap" Unit="" Internal="XS_38_87_0_cap" Type="F" Min="2.29478049e+00" Max="3.92006087e+00"/>
  </Targets>
  <Transformations NTransformations="1">
    <Transform Name="Normalize">
      <Selection>
        <Input NInputs="18">
          <Input Type="Variable" Label="235U" Expression="235U"/>
          <Input Type="Variable" Label="238U" Expression="238U"/>
          <Input Type="Variable" Label="237Np" Expression="237Np"/>
          <Input Type="Variable" Label="238Pu" Expression="238Pu"/>
          <Input Type="Variable" Label="239Pu" Expression="239Pu"/>
          <Input Type="Variable" Label="240Pu" Expression="240Pu"/>
          <Input Type="Variable" Label="241Pu" Expression="241Pu"/>
          <Input Type="Variable" Label="242Pu" Expression="242Pu"/>
          <Input Type="Variable" Label="241Am" Expression="241Am"/>
          <Input Type="Variable" Label="242Amm" Expression="242Amm"/>
          <Input Type="Variable" Label="243Am" Expression="243Am"/>
          <Input Type="Variable" Label="242Cm" Expression="242Cm"/>
          <Input Type="Variable" Label="243Cm" Expression="243Cm"/>
          <Input Type="Variable" Label="244Cm" Expression="244Cm"/>
          <Input Type="Variable" Label="245Cm" Expression="245Cm"/>
          <Input Type="Variable" Label="246Cm" Expression="246Cm"/>
          <Input Type="Variable" Label="Time" Expression="Time"/>
          <Input Type="Target" Label="XS_38_87_0_cap" Expression="XS_38_87_0_cap"/>
        </Input>
        <Output NOutputs="18">
          <Output Type="Variable" Label="235U" Expression="235U"/>
          <Output Type="Variable" Label="238U" Expression="238U"/>
          <Output Type="Variable" Label="237Np" Expression="237Np"/>
          <Output Type="Variable" Label="238Pu" Expression="238Pu"/>
          <Output Type="Variable" Label="239Pu" Expression="239Pu"/>
          <Output Type="Variable" Label="240Pu" Expression="240Pu"/>
          <Output Type="Variable" Label="241Pu" Expression="241Pu"/>
          <Output Type="Variable" Label="242Pu" Expression="242Pu"/>
          <Output Type="Variable" Label="241Am" Expression="241Am"/>
          <Output Type="Variable" Label="242Amm" Expression="242Amm"/>
          <Output Type="Variable" Label="243Am" Expression="243Am"/>
          <Output Type="Variable" Label="242Cm" Expression="242Cm"/>
          <Output Type="Variable" Label="243Cm" Expression="243Cm"/>
          <Output Type="Variable" Label="244Cm" Expression="244Cm"/>
          <Output Type="Variable" Label="245Cm" Expression="245Cm"/>
          <Output Type="Variable" Label="246Cm" Expression="246Cm"/>
          <Output Type="Variable" Label="Time" Expression="Time"/>
          <Output Type="Target" Label="XS_38_87_0_cap" Expression="XS_38_87_0_cap"/>
        </Output>
      </Selection>
      <Class ClassIndex="0">
        <Ranges>
          <Range Index="0" Min="1.7134651670858148e-06" Max="1.9241405650973320e-02"/>
          <Range Index="1" Min="7.8539985418319702e-01" Max="9.6873325109481812e-01"/>
          <Range Index="2" Min="1.6399011926182538e-08" Max="1.9729416817426682e-04"/>
          <Range Index="3" Min="4.6972877498774324e-07" Max="3.9642802439630032e-03"/>
          <Range Index="4" Min="2.1594068035483360e-02" Max="1.8988692760467529e-01"/>
          <Range Index="5" Min="1.5456757864740212e-06" Max="3.9563607424497604e-02"/>
          <Range Index="6" Min="3.2281317174920332e-08" Max="7.0462827570736408e-03"/>
          <Range Index="7" Min="1.5827717447791656e-07" Max="1.9880363252013922e-03"/>
          <Range Index="8" Min="3.1308267089968922e-10" Max="7.4805659241974354e-03"/>
          <Range Index="9" Min="1.3415997557331139e-07" Max="1.1624936945736408e-02"/>
          <Range Index="10" Min="2.0439022918594674e-08" Max="1.9955936295446008e-04"/>
          <Range Index="11" Min="1.4828563932312022e-09" Max="1.9390985835343599e-04"/>
          <Range Index="12" Min="9.0911749239808159e-09" Max="1.9755291577894241e-04"/>
          <Range Index="13" Min="2.4657023089957875e-09" Max="1.9711205095518380e-04"/>
          <Range Index="14" Min="9.4720569165929192e-09" Max="1.9787334895227104e-04"/>
          <Range Index="15" Min="2.3396391490848600e-09" Max="1.9859688472934067e-04"/>
          <Range Index="16" Min="0.0000000000000000e+00" Max="1.8932832000000000e+08"/>
          <Range Index="17" Min="2.2947804927825928e+00" Max="3.9200608730316162e+00"/>
        </Ranges>
      </Class>
    </Transform>
  </Transformations>
  <MVAPdfs/>
  <Weights>
    <Layout NLayers="4">
      <Layer Index="0" NNeurons="18">
        <Neuron NSynapses="17">
          6.1199422196829951e-02 -4.4374984784366904e-02 6.0022487637012112e-01 1.3353935286071659e+00 -1.8075994567948621e+00 5.3662390008540797e-02 -2.5991265037857825e-01 1.3435288295270995e+00 -1.4987595213446026e+00 -6.1624897648007648e-01 -1.5155005621181892e+00 4.0744370882234926e-01 -5.4547877410920087e-01 -1.2443524612351192e-01 -2.0276654072223960e-01 -5.9388030209668409e-02 -7.2993703860663250e-01 
        </Neuron>
        <Neuron NSynapses="17">
          6.6995967277930579e-01 2.3739571815260860e+00 2.5248596058510748e+00 -1.3609759251497529e+00 -1.7294816122399362e-01 -1.4053189803069086e+00 4.1856232219945583e-02 -2.2812661740684934e+00 -5.6857150318799836e-02 2.3630291354702249e+00 -1.1360803081722015e+00 -3.0929647989604638e+00 -9.9905954262194147e-02 1.4156276326554387e+00 5.2222395927149357e-01 1.9072530098640896e+00 6.5579513645656229e-01 
        </Neuron>
        <Neuron NSynapses="17">
          1.3660933704492298e-01 -2.7621624638394632e-01 -1.2290561311815917e+00 1.9199522120672847e+00 -1.6471396542407135e+00 1.2194783038975374e+00 1.3696628265747932e+00 6.4394380719090794e-01 1.8950971501043472e+00 1.0932585594560900e+00 -5.2750184577860937e-01 -6.0365911873071076e-01 4.6595213148503301e-01 -7.1417252215575799e-01 1.6074832959283032e+00 1.0399796281970040e+00 1.4125535987118678e+00 
        </Neuron>
        <Neuron NSynapses="17">
          1.6492374596833452e+00 -9.7954477994268918e-01 1.6407713236669716e+00 -2.4788683141795356e+00 -1.4117038207712393e+00 -1.1905526303299554e+00 -1.0825877730799520e+00 1.6223963628873570e+00 6.7315118264538254e-01 -1.1624821632828501e+00 4.3904950508172164e-01 -5.4535032591720461e-02 2.3863753069827240e-01 1.6621832919865498e+00 -4.0688605750691176e-01 3.8688649720115648e-01 -7.4940104975095856e-01 
        </Neuron>
        <Neuron NSynapses="17">
          1.5797155271719270e+00 -2.2403611848121159e+00 -1.5648308330028156e+00 -6.4393443073310808e-01 6.9565573599994776e-03 2.6451211324693551e+00 1.4543880746958127e+00 1.0382119578934914e+00 -2.1767178534150973e+00 -2.4829800632096344e+00 1.1185965986706459e+00 1.4801802064032286e+00 1.8820043916655482e+00 -1.6615517063704774e-01 1.7924857349289884e+00 -2.5482319372193256e+00 -1.4209842565031625e+00 
        </Neuron>
        <Neuron NSynapses="17">
          1.9858540952129472e-01 3.9855900418269885e-01 -1.1333726093162662e+00 -1.6894291882039045e+00 -1.7086024432558176e+00 4.8932164577355119e-01 4.2117443770397806e-01 9.2505922538453655e-01 -1.4615215502785970e+00 -9.8767452965436697e-01 1.3696176904051636e+00 -4.7961444755836158e-01 -1.6993199234052545e+00 -1.8587212876128911e+00 3.6882451355973811e-01 -1.7299427502156828e+00 -1.4421322035404114e+00 
        </Neuron>
        <Neuron NSynapses="17">
          1.0661818795006199e+00 1.2159867458456564e+00 -6.2673742299977719e-01 1.0113105187838218e+00 -1.5459950899714572e+00 -7.2588361591879036e-01 6.6671146135966819e-01 5.6944057956968552e-01 -1.8062045576525509e+00 2.8468836348883858e-01 3.0475715668323422e-01 2.2424726480705703e-01 -1.8121952984694476e+00 1.4883744650946116e+00 8.4886135432253276e-02 -8.8402127438612466e-01 1.2231405252598375e+00 
        </Neuron>
        <Neuron NSynapses="17">
          -1.0936805818754174e+00 -5.5520325223526679e-01 3.2355684695965442e-01 -6.1300052004929417e-01 1.3092712701120786e+00 7.2478679268510182e-01 3.8336418217849416e-01 4.2663072462928670e-01 6.1099281280548659e-02 -1.1552896051390120e+00 1.1612822886252372e+00 1.0484029010622636e-01 -1.8101770625212761e+00 -7.0346191323066645e-02 -1.1140662655717735e+00 4.3688886690588191e-01 1.2034297009821850e+00 
        </Neuron>
        <Neuron NSynapses="17">
          1.7831755490831338e+00 -1.0697424631383134e+00 7.8656045068376901e-01 8.1490823246420929e-01 9.9304757724833381e-01 -4.0904709903446318e-01 -6.5633005145235357e-01 3.7196961225491526e-01 -1.4715356994234454e+00 1.8466719947500307e+00 1.3361508974257539e+00 2.6082380224483415e-01 -1.1566112601882517e+00 -3.2830724144229689e-02 -1.8641389145062666e+00 1.1334954063528511e+00 2.1961319147488321e+00 
        </Neuron>
        <Neuron NSynapses="17">
          -3.2082928155122764e-01 -1.4067436468097105e-01 2.9623727354148444e-01 9.8413428400104597e-01 4.1085128569607117e-02 7.7972859459400645e-01 -9.0705414064099599e-01 2.0668364820918219e+00 3.1829321885483697e-01 4.1441674197179279e-01 1.1417826111806832e+00 8.8303395554212261e-01 -6.2225146794037511e-01 -1.2217435301194663e+00 1.4167381270729407e+00 -5.8673825657105128e-01 -2.1108861380057886e-01 
        </Neuron>
        <Neuron NSynapses="17">
          1.4017547437369291e+00 7.8699652387001662e-01 -4.0312813443912410e-01 1.5984059197482179e+00 1.3968044687672057e+00 -1.5154156403000261e+00 3.5900257512926115e-01 5.9617116189200202e-02 4.4751590927454510e-01 -1.4213358986828171e+00 -1.6193097629048370e+00 -2.2119166277495333e-01 1.5696741467560762e+00 -2.2132413028496662e+00 2.3782657542426824e-01 -3.5407886339001338e-01 2.3906738490142820e-01 
        </Neuron>
        <Neuron NSynapses="17">
          1.5115720708817086e+00 1.4658082022605678e-01 -2.6906403191515782e-01 -1.3129395065552538e+00 1.0250900654221435e+00 1.3121006430557891e+00 1.1479760521834219e+00 2.5996429246328372e-02 -4.6643495112816097e-01 -1.2167650823307041e+00 7.6337960335392496e-01 -5.2310914214862947e-01 -1.4894901530672719e+00 -1.3586878291218074e+00 6.2330139678276020e-01 3.8663608968454510e-01 -1.4315834678774151e+00 
        </Neuron>
        <Neuron NSynapses="17">
          1.1406472330560165e+00 1.2209156758084800e+00 -4.9633809454800393e-01 -4.6816360968533866e-01 1.5303727439226484e+00 8.0404682129677885e-01 5.3568050878329532e-01 -4.7384579988156733e-01 -1.7070839857331856e+00 -4.1174761761941364e-01 1.6528892081942590e+00 -2.4882132918854077e-01 6.3185428802187016e-01 -3.8779722481028389e-01 2.2878604170893526e+00 -8.2164004356602638e-01 -7.0033312465152964e-01 
        </Neuron>
        <Neuron NSynapses="17">
          -1.8566299454592819e-01 -7.3366529358609445e-01 9.6192213570580820e-01 1.6495469210772191e+00 -1.5520141400206426e+00 8.5998441815852933e-01 -4.0542488523863315e-02 -1.1225840316960192e+00 -9.2939114617372709e-01 1.0819640637857229e+00 1.8901540445172185e-02 3.3343072030491699e-01 -1.1314599157561582e+00 9.7141095089030705e-01 -1.5235741300795884e+00 1.1162022811279435e+00 3.7564211936452918e-01 
        </Neuron>
        <Neuron NSynapses="17">
          -1.4432792317308301e+00 -1.2537926101977299e+00 -2.0825480347161882e+00 -1.4310788184447440e-01 -2.2472678391004930e+00 -1.0181906576047062e+00 -1.3480670877644285e+00 1.3168020230523103e-01 -1.0408963514951188e+00 -1.3773311986320913e+00 1.4482358006306311e+00 -5.9892704070984149e-01 2.6841230266771543e-01 -1.9847065512965456e+00 6.7389904266193035e-01 1.1886789336000521e+00 1.3481215781728080e+00 
        </Neuron>
        <Neuron NSynapses="17">
          -8.7659061275229255e-01 -2.2360985155628874e-01 -7.5479011977045163e-01 -1.3889503120962592e+00 -2.0418959323513155e+00 1.0853735664506229e-03 7.2187535463525543e-01 1.4056916323411406e+00 -4.5431192504179801e-01 5.3370722041962015e-01 -3.6287108389067474e-01 -7.0759201015425877e-01 9.9971649348737501e-01 6.6161192275436487e-01 -5.6558765144093348e-01 -4.3320599341682398e-01 1.1913438686252253e+00 
        </Neuron>
        <Neuron NSynapses="17">
          9.3942452479192584e-01 1.8337403605213606e-01 -4.0939333979408388e-01 -6.6108842129097800e-01 6.0127242165136385e-01 1.0193953720460457e-02 1.2038995601000029e+00 2.8399239927113903e-02 -7.1934954662876666e-02 1.0777149188319871e-01 -1.2880813691236632e+00 1.0083794525920113e-02 -1.9394948973374864e+00 -3.3693078167635426e-01 -1.1537679953675892e+00 1.2764348429211314e-01 -1.2553454373149595e+00 
        </Neuron>
        <Neuron NSynapses="17">
          2.1604901325758967e+00 -3.5672989638653694e+00 -1.0258668025346872e-01 2.9614334335551851e-01 1.0428213315115451e+00 2.3527344679901940e+00 -2.9603098055564385e+00 -1.3283726992190573e-01 6.8507025282445555e-01 -2.9576686896417042e+00 -1.6594932366970447e+00 -1.6169401969936283e+00 6.9463990749820195e-02 2.1674528538428688e+00 3.9430833383570141e-01 -1.8206612083832583e+00 -2.2169138073877703e+00 
        </Neuron>
      </Layer>
      <Layer Index="1" NNeurons="18">
        <Neuron NSynapses="17">
          -7.1683578172764584e-01 -1.0801088515267057e+00 -8.4813690953618692e-01 -1.2886112124292830e+00 1.0167031117633760e+00 -1.0273822937198269e+00 -1.1356945907367728e+00 1.6651659026180317e+00 4.8267626609933029e-01 -7.5974672578158997e-01 1.9108307471156518e+00 -1.7161885878726681e+00 1.2926019752732516e+00 9.7881195221842898e-01 -1.0318272695103707e+00 -7.5488517872228611e-01 -1.4315139080556085e+00 
        </Neuron>
        <Neuron NSynapses="17">
          -8.1134027337684844e-01 4.6338933914638536e-01 1.0023882079748410e+00 1.3402400146724838e+00 1.6034598983637021e+00 -1.1240194479103287e+00 9.1965962805547663e-01 -2.4414365016567450e+00 4.6798853451308986e-01 -1.6357744478482654e+00 -1.7698317160851720e+00 1.6185018102597626e-01 1.2624762576241750e+00 3.7815444728412706e-01 1.1200910079166133e+00 4.0513588794539124e-01 -1.9614882255434325e+00 
        </Neuron>
        <Neuron NSynapses="17">
          1.2665319457050394e-02 -2.3915376701762418e-02 2.1185354423672051e+00 -1.0891872301480170e+00 5.1766047081515332e-01 -1.0639883874347040e+00 -8.1047505678192544e-01 -1.1262794899818218e-02 7.3781020049763807e-02 -1.1761328069311701e+00 8.4314131693032468e-01 1.8578923973000270e+00 1.0575269698425673e+00 -2.3785946289510970e-01 -6.0517427797583456e-01 -1.3685937793001086e+00 -1.5252899700770739e+00 
        </Neuron>
        <Neuron NSynapses="17">
          1.9872841930226240e-01 -5.7898660888536868e-01 -4.3464327267053166e-01 1.2584254222094368e-01 -1.9328568126460597e+00 -1.2675425985810695e+00 -1.3680655986076493e+00 1.1367757512097061e-01 -1.3003068927719414e+00 -1.0898676410451231e+00 -7.5242222675718051e-01 -1.0828344845687163e+00 -1.5051304450689102e+00 1.3144994238741798e+00 -1.6351098736527707e+00 -1.2468077371568971e+00 1.5351618237862916e+00 
        </Neuron>
        <Neuron NSynapses="17">
          6.0832959982371337e-01 1.8107441234415597e-01 4.3967815743416155e-02 1.4670734405543506e+00 1.9754851350507694e+00 6.4404646015310196e-01 -1.0084242165459634e+00 -5.7486757665241750e-01 -1.5162920313354613e+00 1.1237758200078511e+00 9.0165776232445116e-01 -3.6598144239692827e-02 8.7881798953051182e-01 7.0995321366724862e-01 1.2298354574319406e+00 -1.4055395524949328e+00 2.2949949347855920e+00 
        </Neuron>
        <Neuron NSynapses="17">
          2.8416958447130580e-01 -1.8613177807270145e+00 7.7224845545637033e-04 -7.4849685675624456e-01 1.0003937306615147e+00 7.4985870429362877e-01 9.6711745950266681e-01 1.7893709634421560e+00 -1.2886972943647312e-01 1.0838686868727849e+00 1.8086353172097385e+00 1.2091206532398266e-01 -1.1223424355410019e+00 1.5249116905191242e+00 -2.1026953933453658e+00 3.8342131894182940e-01 2.8830768803167639e+00 
        </Neuron>
        <Neuron NSynapses="17">
          -3.2199576643881855e-01 -6.2932408764194714e-01 -1.0740867492517238e-01 -1.0282297988400284e+00 5.1723545182568875e-01 -1.4671814242115027e+00 2.1217890928114858e-01 -1.1697868751038345e+00 1.9360439281034669e+00 7.5995375823069267e-01 1.7800097634112435e+00 -4.1701225240977813e-01 -5.1981754529339064e-01 2.3636210187421186e-01 1.6549835345689665e+00 -1.8379038212576706e+00 -2.8487391885014164e+00 
        </Neuron>
        <Neuron NSynapses="17">
          -9.2570177482874916e-01 -1.8139537892061142e+00 -1.6059486531239155e+00 -2.2788144567407564e+00 3.4686157478950208e-01 -4.1170847232743224e-01 -1.4884564685002457e+00 -1.6917056264502826e+00 -3.3893746286285908e-01 1.7058884165402228e+00 1.6971630920825036e+00 1.1643338335619609e+00 -1.0122372353411790e+00 -1.5523905125976942e+00 8.4006267586477043e-02 -1.3982565287376487e+00 -2.8077421775661104e+00 
        </Neuron>
        <Neuron NSynapses="17">
          -8.2323402678106872e-01 -1.3460253642759229e-01 -1.4475626583117545e+00 1.4529442896764426e+00 1.1760697124404942e+00 2.9092090360121986e-01 -7.4483271844267696e-01 -1.0611218449265040e-01 1.7049647001020296e+00 -3.4360145711630707e-01 9.3499693213124888e-02 1.5368672085812403e+00 1.5713294474458686e+00 -1.1313504847815321e+00 1.5148367272626762e+00 -2.0108976890591497e+00 2.8849265802780422e+00 
        </Neuron>
        <Neuron NSynapses="17">
          2.3688917549715485e+00 -1.8421432975366112e-01 1.1307901613298287e-01 4.9109338089927690e-01 -2.1946027417194780e-01 1.0615785054670284e+00 3.9604373287800143e-01 -2.8934051801901095e+00 -1.4562812317745297e+00 -5.5994407180160233e-01 1.9058190419572143e+00 5.3361350236142246e-01 -6.2485882761330358e-01 -1.7750938718880314e+00 1.8297217726334725e+00 5.7801608772770774e-01 -3.0991761989683613e+00 
        </Neuron>
        <Neuron NSynapses="17">
          -8.0188402854493523e-02 -9.8983855037111323e-01 1.2268482809895755e+00 1.3095052257385440e+00 -6.4163433539654224e-01 -1.2743082756495441e+00 1.7567418663385186e+00 1.7351017130467689e-01 4.4726441527250477e-01 -3.6306139005485315e-02 -8.7366548091938656e-01 -1.2285267880550925e+00 9.1404313875009635e-01 5.7172727241960752e-01 3.1228741917700165e-01 -1.7032898442637294e+00 -3.2850605477349308e+00 
        </Neuron>
        <Neuron NSynapses="17">
          -2.0197503180613507e+00 -6.9850216943120458e-01 -1.4852528498599560e+00 1.4825339751017175e-01 -5.2682674843110888e-01 1.2925436528996352e+00 7.1196026061012807e-01 -2.5164788489609298e+00 1.3095183613499248e+00 1.8236244868111835e+00 1.1911650315376356e+00 -6.5848735848127049e-01 -1.2264480423645421e+00 2.3333631532825256e+00 -1.5791880604364941e+00 5.2545268079084961e-01 -2.6677039560170170e+00 
        </Neuron>
        <Neuron NSynapses="17">
          2.5250266706470859e-01 -9.5351575014324719e-01 1.7883252279341053e-01 -1.7019185123242830e-01 2.3211399071253086e-01 -5.7702699617295172e-01 -6.7494990654196074e-01 9.1135664967859770e-02 3.4289745704953262e-01 7.7330207141867235e-01 8.2755776958977612e-01 -1.6636211678910964e+00 1.1611837187604541e+00 -1.7875083458909642e+00 9.4086836463675561e-01 1.0428168675786558e+00 2.2711209215832691e+00 
        </Neuron>
        <Neuron NSynapses="17">
          1.5645706097339802e+00 1.3035545961602442e+00 -1.1702174590402070e+00 -5.4526696841183209e-01 -9.7825220000418789e-01 6.5793380617267794e-01 3.1578226000791382e-02 6.1180077493413432e-01 -6.6877009191821135e-01 -5.3148255904419583e-01 -7.9096119239043972e-01 -3.4134154479135420e-01 -1.5237882128818254e+00 -3.7460349261289627e-01 3.4979762485262539e-01 -6.5296223376693996e-01 -1.8399166876988049e+00 
        </Neuron>
        <Neuron NSynapses="17">
          3.5374937842941051e-01 4.3724854053788254e-01 1.4656384825707308e-02 -1.2373025300643734e+00 1.8965286479324803e+00 -2.4202948611596747e-01 6.1248326979542855e-01 5.5276592975648342e-01 -1.0563461978545021e+00 -1.1676945063582684e+00 -3.2523583460998035e-01 -1.7739642094921662e+00 -5.0994005904390360e-01 -9.1872404883495362e-01 1.1458687170125397e+00 -1.8225247319812152e+00 1.8409472671384259e+00 
        </Neuron>
        <Neuron NSynapses="17">
          1.6984084101926671e+00 1.5666422701648461e+00 1.0644653486268532e+00 9.2074079729699798e-01 7.3091060956326614e-02 -6.7721399936006410e-01 -2.2884833663587698e+00 -1.1708442454993591e+00 -8.6166107845739770e-01 1.4504590807075965e+00 1.1190018723524157e-01 1.9887518047866984e-01 1.5385456077801831e+00 1.0253312882585979e+00 -1.1125963569777078e+00 3.4219234420770411e-01 -2.5981822486830759e+00 
        </Neuron>
        <Neuron NSynapses="17">
          8.5636188494143706e-01 -1.7670158737749022e+00 3.7611796949547316e-01 -4.0174874185761894e-01 7.0255027988867691e-01 -2.1649213882723810e+00 3.7587343051593219e-01 -2.3272097893644252e+00 -1.0274769336742844e-01 1.2113540420471636e+00 -6.8041534161070849e-01 6.6180154030910154e-01 -1.6747429788521886e+00 1.2213325109521005e+00 -4.4529617742975180e-01 8.2505421190059780e-01 -3.0341944967553283e+00 
        </Neuron>
        <Neuron NSynapses="17">
          -1.2374033232303263e+00 1.9726368937904029e+00 -2.0383425153352008e+00 -1.2020380539113147e+00 -8.4193089791780318e-01 1.4549410734164590e+00 1.3540631670051737e+00 2.9322863561150720e+00 -1.8274506594096820e+00 1.0700881612803246e+00 6.1966626507717892e-01 1.5684678888873566e-01 -1.1385154766090835e+00 -1.5048656178838180e+00 2.1071413639802833e-01 -2.0533091368571357e-01 3.4801826813805694e+00 
        </Neuron>
      </Layer>
      <Layer Index="2" NNeurons="18">
        <Neuron NSynapses="1">
          6.3383314168146146e-02 
        </Neuron>
        <Neuron NSynapses="1">
          5.7908559793752812e-02 
        </Neuron>
        <Neuron NSynapses="1">
          1.7730231273135247e-01 
        </Neuron>
        <Neuron NSynapses="1">
          2.0286506580680690e-02 
        </Neuron>
        <Neuron NSynapses="1">
          9.0051098762465639e-03 
        </Neuron>
        <Neuron NSynapses="1">
          -1.8328460239548069e-01 
        </Neuron>
        <Neuron NSynapses="1">
          -2.3634717593397254e-02 
        </Neuron>
        <Neuron NSynapses="1">
          -5.0510915065869122e-01 
        </Neuron>
        <Neuron NSynapses="1">
          -1.7915600931935758e-02 
        </Neuron>
        <Neuron NSynapses="1">
          -7.4067314499161374e-02 
        </Neuron>
        <Neuron NSynapses="1">
          -1.3176796998571992e-02 
        </Neuron>
        <Neuron NSynapses="1">
          2.1996448261071271e-02 
        </Neuron>
        <Neuron NSynapses="1">
          4.2166308550934048e-02 
        </Neuron>
        <Neuron NSynapses="1">
          -1.3758291163200580e-02 
        </Neuron>
        <Neuron NSynapses="1">
          2.2606116595648634e-02 
        </Neuron>
        <Neuron NSynapses="1">
          1.3832442655855441e-02 
        </Neuron>
        <Neuron NSynapses="1">
          -7.9590652815773565e-03 
        </Neuron>
        <Neuron NSynapses="1">
          4.7666886444778789e-01 
        </Neuron>
      </Layer>
      <Layer Index="3" NNeurons="1">
        <Neuron NSynapses="0"/>
      </Layer>
    </Layout>
  </Weights>
</MethodSetup>
