<?xml version="1.0"?>
<MethodSetup Method="MLP::XS_32_74_0_cap">
  <GeneralInfo>
    <Info name="TMVA Release" value="4.2.1 [262657]"/>
    <Info name="ROOT Release" value="6.06/02 [394754]"/>
    <Info name="Creator" value="mouginot"/>
    <Info name="Date" value="Thu Feb 23 02:00:43 2017"/>
    <Info name="Host" value="Linux e300.chtc.wisc.edu 2.6.32-642.13.1.el6.x86_64 #1 SMP Tue Jan 10 11:22:50 CST 2017 x86_64 x86_64 x86_64 GNU/Linux"/>
    <Info name="Dir" value="/mnt/gluster/mouginot/TRU_MOX_XS/Generate"/>
    <Info name="Training events" value="198960"/>
    <Info name="TrainingTime" value="2.73247491e+04"/>
    <Info name="AnalysisType" value="Regression"/>
  </GeneralInfo>
  <Options>
    <Option name="NCycles" modified="Yes">20000</Option>
    <Option name="HiddenLayers" modified="Yes">N,N</Option>
    <Option name="NeuronType" modified="Yes">tanh</Option>
    <Option name="RandomSeed" modified="No">1</Option>
    <Option name="EstimatorType" modified="No">MSE</Option>
    <Option name="NeuronInputType" modified="No">sum</Option>
    <Option name="V" modified="Yes">False</Option>
    <Option name="VerbosityLevel" modified="No">Default</Option>
    <Option name="VarTransform" modified="Yes">Norm</Option>
    <Option name="H" modified="Yes">False</Option>
    <Option name="CreateMVAPdfs" modified="No">False</Option>
    <Option name="IgnoreNegWeightsInTraining" modified="No">False</Option>
    <Option name="TrainingMethod" modified="Yes">BFGS</Option>
    <Option name="LearningRate" modified="No">2.000000e-02</Option>
    <Option name="DecayRate" modified="No">1.000000e-02</Option>
    <Option name="TestRate" modified="Yes">6</Option>
    <Option name="EpochMonitoring" modified="No">False</Option>
    <Option name="Sampling" modified="Yes">3.000000e-01</Option>
    <Option name="SamplingEpoch" modified="Yes">8.000000e-01</Option>
    <Option name="SamplingImportance" modified="No">1.000000e+00</Option>
    <Option name="SamplingTraining" modified="No">True</Option>
    <Option name="SamplingTesting" modified="No">False</Option>
    <Option name="ResetStep" modified="No">50</Option>
    <Option name="Tau" modified="No">3.000000e+00</Option>
    <Option name="BPMode" modified="No">sequential</Option>
    <Option name="BatchSize" modified="No">-1</Option>
    <Option name="ConvergenceImprove" modified="Yes">1.000000e-06</Option>
    <Option name="ConvergenceTests" modified="Yes">15</Option>
    <Option name="UseRegulator" modified="Yes">False</Option>
    <Option name="UpdateLimit" modified="No">10000</Option>
    <Option name="CalculateErrors" modified="No">False</Option>
    <Option name="WeightRange" modified="No">1.000000e+00</Option>
  </Options>
  <Variables NVar="17">
    <Variable VarIndex="0" Expression="235U" Label="235U" Title="235U" Unit="IsotopicFraction" Internal="235U" Type="F" Min="1.71346517e-06" Max="1.92414057e-02"/>
    <Variable VarIndex="1" Expression="238U" Label="238U" Title="238U" Unit="IsotopicFraction" Internal="238U" Type="F" Min="7.85399854e-01" Max="9.68733251e-01"/>
    <Variable VarIndex="2" Expression="237Np" Label="237Np" Title="237Np" Unit="IsotopicFraction" Internal="237Np" Type="F" Min="1.63990119e-08" Max="1.97294168e-04"/>
    <Variable VarIndex="3" Expression="238Pu" Label="238Pu" Title="238Pu" Unit="IsotopicFraction" Internal="238Pu" Type="F" Min="4.69728775e-07" Max="3.96428024e-03"/>
    <Variable VarIndex="4" Expression="239Pu" Label="239Pu" Title="239Pu" Unit="IsotopicFraction" Internal="239Pu" Type="F" Min="2.15940680e-02" Max="1.89886928e-01"/>
    <Variable VarIndex="5" Expression="240Pu" Label="240Pu" Title="240Pu" Unit="IsotopicFraction" Internal="240Pu" Type="F" Min="1.54567579e-06" Max="3.95636074e-02"/>
    <Variable VarIndex="6" Expression="241Pu" Label="241Pu" Title="241Pu" Unit="IsotopicFraction" Internal="241Pu" Type="F" Min="3.22813172e-08" Max="7.04628276e-03"/>
    <Variable VarIndex="7" Expression="242Pu" Label="242Pu" Title="242Pu" Unit="IsotopicFraction" Internal="242Pu" Type="F" Min="1.58277174e-07" Max="1.98803633e-03"/>
    <Variable VarIndex="8" Expression="241Am" Label="241Am" Title="241Am" Unit="IsotopicFraction" Internal="241Am" Type="F" Min="3.13082671e-10" Max="7.48056592e-03"/>
    <Variable VarIndex="9" Expression="242Amm" Label="242Amm" Title="242Amm" Unit="IsotopicFraction" Internal="242Amm" Type="F" Min="1.34159976e-07" Max="1.16249369e-02"/>
    <Variable VarIndex="10" Expression="243Am" Label="243Am" Title="243Am" Unit="IsotopicFraction" Internal="243Am" Type="F" Min="2.04390229e-08" Max="1.99559363e-04"/>
    <Variable VarIndex="11" Expression="242Cm" Label="242Cm" Title="242Cm" Unit="IsotopicFraction" Internal="242Cm" Type="F" Min="1.48285639e-09" Max="1.93909858e-04"/>
    <Variable VarIndex="12" Expression="243Cm" Label="243Cm" Title="243Cm" Unit="IsotopicFraction" Internal="243Cm" Type="F" Min="9.09117492e-09" Max="1.97552916e-04"/>
    <Variable VarIndex="13" Expression="244Cm" Label="244Cm" Title="244Cm" Unit="IsotopicFraction" Internal="244Cm" Type="F" Min="2.46570231e-09" Max="1.97112051e-04"/>
    <Variable VarIndex="14" Expression="245Cm" Label="245Cm" Title="245Cm" Unit="IsotopicFraction" Internal="245Cm" Type="F" Min="9.47205692e-09" Max="1.97873349e-04"/>
    <Variable VarIndex="15" Expression="246Cm" Label="246Cm" Title="246Cm" Unit="IsotopicFraction" Internal="246Cm" Type="F" Min="2.33963915e-09" Max="1.98596885e-04"/>
    <Variable VarIndex="16" Expression="Time" Label="Time" Title="Time" Unit="seconds" Internal="Time" Type="F" Min="0.00000000e+00" Max="1.89328320e+08"/>
  </Variables>
  <Spectators NSpec="0"/>
  <Classes NClass="1">
    <Class Name="Regression" Index="0"/>
  </Classes>
  <Targets NTrgt="1">
    <Target TargetIndex="0" Expression="XS_32_74_0_cap" Label="XS_32_74_0_cap" Title="XS_32_74_0_cap" Unit="" Internal="XS_32_74_0_cap" Type="F" Min="1.86512079e-02" Max="4.10731435e-02"/>
  </Targets>
  <Transformations NTransformations="1">
    <Transform Name="Normalize">
      <Selection>
        <Input NInputs="18">
          <Input Type="Variable" Label="235U" Expression="235U"/>
          <Input Type="Variable" Label="238U" Expression="238U"/>
          <Input Type="Variable" Label="237Np" Expression="237Np"/>
          <Input Type="Variable" Label="238Pu" Expression="238Pu"/>
          <Input Type="Variable" Label="239Pu" Expression="239Pu"/>
          <Input Type="Variable" Label="240Pu" Expression="240Pu"/>
          <Input Type="Variable" Label="241Pu" Expression="241Pu"/>
          <Input Type="Variable" Label="242Pu" Expression="242Pu"/>
          <Input Type="Variable" Label="241Am" Expression="241Am"/>
          <Input Type="Variable" Label="242Amm" Expression="242Amm"/>
          <Input Type="Variable" Label="243Am" Expression="243Am"/>
          <Input Type="Variable" Label="242Cm" Expression="242Cm"/>
          <Input Type="Variable" Label="243Cm" Expression="243Cm"/>
          <Input Type="Variable" Label="244Cm" Expression="244Cm"/>
          <Input Type="Variable" Label="245Cm" Expression="245Cm"/>
          <Input Type="Variable" Label="246Cm" Expression="246Cm"/>
          <Input Type="Variable" Label="Time" Expression="Time"/>
          <Input Type="Target" Label="XS_32_74_0_cap" Expression="XS_32_74_0_cap"/>
        </Input>
        <Output NOutputs="18">
          <Output Type="Variable" Label="235U" Expression="235U"/>
          <Output Type="Variable" Label="238U" Expression="238U"/>
          <Output Type="Variable" Label="237Np" Expression="237Np"/>
          <Output Type="Variable" Label="238Pu" Expression="238Pu"/>
          <Output Type="Variable" Label="239Pu" Expression="239Pu"/>
          <Output Type="Variable" Label="240Pu" Expression="240Pu"/>
          <Output Type="Variable" Label="241Pu" Expression="241Pu"/>
          <Output Type="Variable" Label="242Pu" Expression="242Pu"/>
          <Output Type="Variable" Label="241Am" Expression="241Am"/>
          <Output Type="Variable" Label="242Amm" Expression="242Amm"/>
          <Output Type="Variable" Label="243Am" Expression="243Am"/>
          <Output Type="Variable" Label="242Cm" Expression="242Cm"/>
          <Output Type="Variable" Label="243Cm" Expression="243Cm"/>
          <Output Type="Variable" Label="244Cm" Expression="244Cm"/>
          <Output Type="Variable" Label="245Cm" Expression="245Cm"/>
          <Output Type="Variable" Label="246Cm" Expression="246Cm"/>
          <Output Type="Variable" Label="Time" Expression="Time"/>
          <Output Type="Target" Label="XS_32_74_0_cap" Expression="XS_32_74_0_cap"/>
        </Output>
      </Selection>
      <Class ClassIndex="0">
        <Ranges>
          <Range Index="0" Min="1.7134651670858148e-06" Max="1.9241405650973320e-02"/>
          <Range Index="1" Min="7.8539985418319702e-01" Max="9.6873325109481812e-01"/>
          <Range Index="2" Min="1.6399011926182538e-08" Max="1.9729416817426682e-04"/>
          <Range Index="3" Min="4.6972877498774324e-07" Max="3.9642802439630032e-03"/>
          <Range Index="4" Min="2.1594068035483360e-02" Max="1.8988692760467529e-01"/>
          <Range Index="5" Min="1.5456757864740212e-06" Max="3.9563607424497604e-02"/>
          <Range Index="6" Min="3.2281317174920332e-08" Max="7.0462827570736408e-03"/>
          <Range Index="7" Min="1.5827717447791656e-07" Max="1.9880363252013922e-03"/>
          <Range Index="8" Min="3.1308267089968922e-10" Max="7.4805659241974354e-03"/>
          <Range Index="9" Min="1.3415997557331139e-07" Max="1.1624936945736408e-02"/>
          <Range Index="10" Min="2.0439022918594674e-08" Max="1.9955936295446008e-04"/>
          <Range Index="11" Min="1.4828563932312022e-09" Max="1.9390985835343599e-04"/>
          <Range Index="12" Min="9.0911749239808159e-09" Max="1.9755291577894241e-04"/>
          <Range Index="13" Min="2.4657023089957875e-09" Max="1.9711205095518380e-04"/>
          <Range Index="14" Min="9.4720569165929192e-09" Max="1.9787334895227104e-04"/>
          <Range Index="15" Min="2.3396391490848600e-09" Max="1.9859688472934067e-04"/>
          <Range Index="16" Min="0.0000000000000000e+00" Max="1.8932832000000000e+08"/>
          <Range Index="17" Min="1.8651207908987999e-02" Max="4.1073143482208252e-02"/>
        </Ranges>
      </Class>
    </Transform>
  </Transformations>
  <MVAPdfs/>
  <Weights>
    <Layout NLayers="4">
      <Layer Index="0" NNeurons="18">
        <Neuron NSynapses="17">
          -2.7317874537705733e-01 1.3832528233316892e+00 8.2860596855219149e-01 1.8565146483940671e+00 -2.0130508902749500e+00 -6.0455528564609406e-01 -8.1621320316791435e-01 1.6755551581816865e+00 -1.3630957493925002e+00 -1.2950668401720842e+00 -1.5923031576834257e+00 -5.6678954008074378e-01 -1.0119836913296703e+00 -4.1589267051154860e-01 -1.2858718129340180e-01 -8.0280069545586891e-02 -6.2493438107611898e-01 
        </Neuron>
        <Neuron NSynapses="17">
          1.5757224513271433e+00 8.4613494956301860e-01 1.7256998343349061e+00 -5.3914668258845710e-01 -8.2923949344796233e-01 -4.2506796565661797e-01 2.7445138069024966e-01 -8.1738239965889803e-01 -3.6511955504932486e-01 1.6643674665867834e+00 -8.5104198356226490e-01 -1.3623900965945603e+00 7.5601568816831541e-02 7.0745419489370687e-01 8.4339915220590167e-01 5.7393465854370807e-01 2.0337521899954639e-01 
        </Neuron>
        <Neuron NSynapses="17">
          2.5637601279118161e-01 -2.4119648477514558e-01 -1.3593653771861705e+00 1.6792031933533826e+00 -1.5059295862905282e+00 1.2875828358262218e+00 1.3326573004480111e+00 1.0884891865931126e+00 1.7842262866814431e+00 1.3620735948665916e+00 -6.5694874725816499e-01 -1.2096291797893974e+00 4.9519602686210945e-01 1.5019987825974171e-01 1.6567934565751643e+00 1.4602398901497664e+00 1.6329699257135255e+00 
        </Neuron>
        <Neuron NSynapses="17">
          1.4789630014765527e+00 -1.4720421991206774e+00 1.4845490019977736e+00 -2.0365057646383877e+00 -9.5813418180921972e-01 -1.2271227700615912e+00 -1.4325798668717444e+00 1.6402041654538109e+00 6.1237764854582388e-01 -1.3236708873368703e+00 3.7111272474768664e-01 -3.5624230626477682e-01 4.2092816142356615e-01 1.9024402350935607e+00 -1.4458819673297138e-01 3.7452658930053179e-01 -8.9474750866735320e-01 
        </Neuron>
        <Neuron NSynapses="17">
          9.1114803144479906e-01 -1.3111932344406061e+00 -9.6185566378055920e-01 -1.3139519053578761e+00 7.2625620237116562e-01 2.0126203806150960e+00 1.2733976978377362e+00 -4.9659943288345781e-01 -1.8470021761509823e+00 -1.9031181885571120e+00 8.4993319955766633e-01 1.9583894066515700e-01 1.8772664892922519e+00 6.4345891026540902e-01 1.6209002036209903e+00 -1.4004121844123827e+00 -1.0892078114837587e+00 
        </Neuron>
        <Neuron NSynapses="17">
          -7.5054817488789324e-02 1.2653818789803712e+00 -9.6731029116738876e-01 -1.7221574998339382e+00 -1.8314885780034833e+00 8.0868839062739006e-02 1.0478654669485551e-01 1.7816554894401138e+00 -1.5972673377025139e+00 -6.4797508579792074e-01 1.5548951163140119e+00 -7.6632078827982741e-01 -1.7499105827339239e+00 -1.4864666727868008e+00 3.7932470109660893e-01 -1.7794171938338552e+00 -1.3001528101643220e+00 
        </Neuron>
        <Neuron NSynapses="17">
          8.4339837636599790e-01 2.0246671221670476e+00 -8.1759732908666582e-01 1.4548270525131424e+00 -1.2420730929180797e+00 -8.3358236402980068e-01 3.2496196037463898e-01 7.5947098720211770e-01 -1.9070283122452656e+00 5.8104236906550422e-01 4.2909978375298080e-01 6.9289498264001903e-01 -1.8059658124447810e+00 1.8941009824328074e+00 4.3923936947544906e-01 -4.6505099098434155e-01 1.2191976931884032e+00 
        </Neuron>
        <Neuron NSynapses="17">
          -9.8530603243552806e-01 -1.4269120683680527e+00 2.8485396205868074e-01 -4.7075167579016980e-01 1.6511894823934758e+00 9.8221306489244053e-01 2.1560029129626290e-01 -1.3362477595433611e-01 1.4034486845238853e-01 -1.4870225555007397e+00 1.0407206955708437e+00 2.8432416685993989e-01 -1.9834569343108395e+00 6.9186350772047511e-01 -1.1781068223153781e+00 2.8800494823879319e-01 1.2554671625829092e+00 
        </Neuron>
        <Neuron NSynapses="17">
          1.8518158611147792e+00 -1.4997666359133572e+00 7.0813985637293886e-01 1.2838536356199965e+00 1.2371674609601704e+00 -2.3368190751987428e-02 -1.0085842269554519e+00 3.0711248441800776e-01 -1.4880470693034231e+00 1.8412144902284209e+00 1.3796254531850110e+00 1.1749252875805509e-01 -8.8604762933651027e-01 2.6018969896812355e-01 -1.4143605313250609e+00 1.2166751785456902e+00 2.1379171753793385e+00 
        </Neuron>
        <Neuron NSynapses="17">
          -4.3907427893454182e-01 -4.9988994377227164e-01 5.2216759310997107e-01 9.3994536147069008e-01 3.6828333974236749e-01 1.1428099161366874e+00 -1.1164004962420280e+00 1.6167596229416243e+00 5.3834371422430938e-01 6.2567523151585802e-01 6.7577555644255782e-01 8.3096657884674263e-01 -8.6861589784673676e-01 -5.6657482648673041e-01 1.3802661654004158e+00 -7.6803244139277083e-01 -2.5265861807760104e-01 
        </Neuron>
        <Neuron NSynapses="17">
          1.6405792155536905e+00 9.9130878152129087e-01 -1.3993874520497940e-01 1.4393524907882127e+00 1.6083809084054410e+00 -1.6995595929535205e+00 8.3663299918746836e-01 1.4350057998490690e-01 3.3637086447448467e-01 -1.5383474329359945e+00 -1.4221166938122212e+00 1.0681543229212342e+00 1.4417584743944762e+00 -1.6288218506770806e+00 6.0089279506563641e-02 -4.8434381295969220e-01 5.0339442032259440e-01 
        </Neuron>
        <Neuron NSynapses="17">
          1.8209735056135159e+00 -1.2722925153269521e-01 -3.3328831609110032e-01 -1.3109270573003118e+00 8.8770745752120062e-01 1.6868835511285942e+00 1.2533749515947743e+00 6.6313719863226150e-01 -8.0496552133475630e-01 -1.6169528468074312e+00 1.0680928455195078e+00 7.5200684216530367e-01 -1.6663894855855625e+00 -5.8009751930535636e-01 3.9498595366473971e-01 4.5080415890065639e-01 -1.5260930307099163e+00 
        </Neuron>
        <Neuron NSynapses="17">
          1.6457129926902714e+00 1.0914396738347349e+00 -3.9674979000726124e-01 -3.7540089972489160e-01 1.4672599589042759e+00 1.1363931189441596e+00 7.1088390873486640e-01 2.8595780870584525e-01 -1.9233979860226766e+00 -5.7128482671484637e-01 1.7162866611930483e+00 1.5333063069597592e+00 4.0346590543000971e-01 3.1289910820300204e-01 2.0984769476177711e+00 -1.2933893138596702e+00 -8.0456824123678761e-01 
        </Neuron>
        <Neuron NSynapses="17">
          -3.5149644588628383e-02 -1.2798949842182912e+00 1.0655208089283745e+00 1.7174576133337554e+00 -1.3122928730986401e+00 1.0389342469954892e+00 4.5762896851869947e-02 -1.5791230367938593e+00 -1.1342570803282708e+00 1.2017769591053529e+00 5.1346589969765453e-02 1.0073966943450896e+00 -1.3594888056694825e+00 1.7047058628662528e+00 -1.6453684831108952e+00 1.0470547102263985e+00 2.8501954605264673e-01 
        </Neuron>
        <Neuron NSynapses="17">
          -1.3864602718127630e+00 -1.3291640630821502e+00 -1.8438868104634984e+00 -4.5954670970785444e-01 -2.0406425810618609e+00 -1.2251035982982621e+00 -1.5604807803263514e+00 2.7820085532087657e-01 -1.0484307567160638e+00 -1.4415850615859140e+00 1.3939641053480023e+00 -6.3108383917600042e-01 -5.1870301331087415e-02 -1.1005604982384025e+00 4.8352580940771578e-01 1.9418867281375396e+00 1.4783018362395854e+00 
        </Neuron>
        <Neuron NSynapses="17">
          -7.7173024275384139e-01 -1.2533563866814421e+00 -9.7412649279682362e-01 -1.0351439098103337e+00 -1.8044902095926847e+00 4.1194502876954497e-01 5.4334135981806231e-01 2.0269514697320612e+00 -2.6526107106003821e-01 4.4802298345636177e-01 -4.9775254941804958e-01 -1.6691100533245598e+00 9.8699591583065116e-01 1.2714498889243391e+00 -6.8419560478935015e-01 -7.7983637850788523e-01 1.0843564206637748e+00 
        </Neuron>
        <Neuron NSynapses="17">
          1.1329941949646594e+00 4.5170367342617307e-01 -4.0373722465388229e-01 -4.3595919256617538e-01 1.2534570749747771e+00 6.4925718343383332e-01 7.9398923743530880e-01 -1.7330243334486661e-01 2.2128416167685822e-01 -1.5538981323977991e-01 -1.3499151459960856e+00 -1.9118863206538994e-01 -1.6980259843458791e+00 -1.2417631655205918e+00 -1.6930899069473080e+00 1.9904413700712422e+00 -1.3957637849857247e+00 
        </Neuron>
        <Neuron NSynapses="17">
          1.5952308355695983e+00 -2.4005045064909813e+00 4.4773406716636527e-01 -6.1423564402686792e-01 1.0309395357615923e+00 1.4744797681049324e+00 -2.5772159685886318e+00 -6.2094994062356079e-01 8.5661046546284780e-01 -2.4912025208119020e+00 -1.8084147889502575e+00 -2.6001826053065735e+00 -1.3898482359284506e-01 1.7340757537918494e+00 -2.3812331115591645e-01 -9.2086604056072541e-01 -1.8510049015922090e+00 
        </Neuron>
      </Layer>
      <Layer Index="1" NNeurons="18">
        <Neuron NSynapses="17">
          -1.4336065583469617e+00 -1.7033603248953668e+00 -8.9181239371281851e-01 -1.4818532153464192e+00 9.5341746581820885e-01 -1.1365312291800402e+00 -1.0370929017998469e+00 1.5099323341211492e+00 4.7456112702563530e-01 -5.9090986141725166e-01 1.7455205994136376e+00 -1.8293465558328990e+00 1.3596043644744618e+00 9.7077351232107756e-01 -1.1821193533989895e+00 -7.8607030056412130e-01 -7.4104513214708756e-01 
        </Neuron>
        <Neuron NSynapses="17">
          -1.0221243146749586e+00 4.9641295371335309e-01 2.0591286772429398e+00 1.3036655857490729e+00 1.4945471695287409e+00 -1.2270945370419803e+00 8.1824400820002008e-01 -2.2179852964874129e+00 5.8196261920722447e-01 -1.7117430733550223e+00 -1.7897175539489039e+00 -3.4560102012442889e-02 1.2934851108174186e+00 3.5134037671801593e-01 9.3552768089162486e-01 3.3311663217195436e-01 -5.0913142335684403e-01 
        </Neuron>
        <Neuron NSynapses="17">
          -5.1683499033578850e-01 1.4618137340337206e-01 1.9030054638330081e+00 -1.3442688833169485e+00 2.7444602561241965e-01 -1.2295101937083484e+00 -7.6518835504941884e-01 1.0588324601836643e-01 6.6663150551133796e-02 -1.1083591034504248e+00 1.0297177240341784e+00 1.6756258038133838e+00 8.0935277173289999e-01 -1.4048748184714416e-01 -7.2356313979331521e-01 -1.4833367840053058e+00 -1.2950221046153121e+00 
        </Neuron>
        <Neuron NSynapses="17">
          8.0599519216304527e-01 -5.5731349874423286e-01 -9.6510300029414808e-01 2.4267219770447468e-01 -1.8438396978218343e+00 -1.3270517810892357e+00 -1.3470752808542343e+00 8.3840447528173523e-01 -1.1663595940366849e+00 -1.7129829408892583e+00 -8.1748386381768556e-01 -9.6174568955538198e-01 -1.6458195456090976e+00 1.3044415382119323e+00 -1.5753142361405965e+00 -1.2238743666975460e+00 1.2294349537632348e+00 
        </Neuron>
        <Neuron NSynapses="17">
          7.9784608809554991e-01 3.9837351451790237e-01 4.4119247242930320e-03 1.4285543644538752e+00 1.8655737203341283e+00 7.8985390618545470e-01 -1.2952204472513607e+00 -6.8936862473558824e-01 -1.7259912913812714e+00 9.1777371149112441e-01 1.0558574982243847e+00 1.2565778403010425e-01 1.1122970664043861e+00 8.0777090942378904e-01 1.5528381616983875e+00 -1.3354613371276756e+00 1.6927968168948446e+00 
        </Neuron>
        <Neuron NSynapses="17">
          6.5509384334544440e-01 -1.9046959071157223e+00 -4.1680055525376603e-01 -8.0284409740094886e-01 1.0313497190870293e+00 7.9551283185448884e-01 8.9895316513034929e-01 1.1389053464463503e+00 -1.6155874595972713e-01 1.6716275910120377e+00 1.9675617523019118e+00 2.0500220847055733e-01 -1.2221090478717511e+00 1.5988359439291928e+00 -2.1025517250823857e+00 5.4253032205407870e-01 1.6783575812067606e+00 
        </Neuron>
        <Neuron NSynapses="17">
          -6.4401859502716130e-01 -8.4025518737878468e-01 -2.1366789215143817e-02 -1.1350340781527146e+00 4.8769767959763349e-01 -1.6088726659610104e+00 3.7043495376514851e-01 -5.0738542343718507e-01 2.0826931455785038e+00 1.1298885791054620e+00 1.6562723087853926e+00 -5.6091275760187154e-01 -5.3194795556688690e-01 2.4182317080881907e-01 1.4926727234514283e+00 -1.8812232282293144e+00 -2.0690056742085248e+00 
        </Neuron>
        <Neuron NSynapses="17">
          -7.9059070131474041e-01 -1.5335331784520718e+00 -1.5313532461274115e+00 -1.9908799913150443e+00 6.2013312509124652e-01 -3.0611993081695732e-01 -1.5802807586766023e+00 -1.7233932902276072e+00 -3.9834087278313324e-01 1.8192710942189356e+00 1.5239730784253620e+00 1.2847470763329092e+00 -6.1961741871951115e-01 -1.7389909637010830e+00 8.6479228787260581e-02 -1.2720389352262442e+00 -1.8885090010938119e+00 
        </Neuron>
        <Neuron NSynapses="17">
          -4.9354959595472375e-01 7.3832308170371855e-02 -1.5911437974207625e+00 1.5044385133967053e+00 1.1902432103231009e+00 3.2675139016122490e-01 -8.3393678579919417e-01 -5.1594460394907216e-01 1.5949130779500971e+00 -4.9197077776341752e-01 3.1151547950669284e-01 1.6302007566330783e+00 1.6816273414958689e+00 -1.0518100040353231e+00 1.6778584735287703e+00 -1.9239513553539531e+00 2.2025136046194338e+00 
        </Neuron>
        <Neuron NSynapses="17">
          2.2527178918693802e+00 -1.3898319987496255e-01 8.4793471101802867e-03 3.2496759577153139e-01 -6.3636326491355322e-01 1.1108273334208238e+00 -5.9531972446452738e-02 -1.6838899496775017e+00 -1.3469955334642023e+00 -2.6903048322657889e-02 1.7623626361978955e+00 3.9026169880796030e-01 -6.6634913187813649e-01 -1.8254828115191817e+00 1.7026983946825300e+00 3.7653075891023086e-01 -1.7950798050847809e+00 
        </Neuron>
        <Neuron NSynapses="17">
          -3.8821351401603726e-01 -1.0700919622201488e+00 1.3683176507803467e+00 1.3422849143385067e+00 -6.1483099228782445e-01 -1.2905222108436252e+00 1.7758752757691423e+00 8.8365537460522636e-01 4.4280597410654804e-01 5.3384034923158553e-02 -1.2050422195238850e+00 -1.2555591525411027e+00 1.0003789118488808e+00 4.7555051529696168e-01 2.4845551318745301e-01 -1.7771159037817055e+00 -2.4583966629890015e+00 
        </Neuron>
        <Neuron NSynapses="17">
          -2.1020951632812483e+00 -3.3597769563335755e-01 -1.5200083734651737e+00 1.9610459202453770e-01 -4.9827751630922518e-01 1.4189006470661962e+00 6.3626068832430815e-01 -1.9365257636692392e+00 1.1631948594132715e+00 1.9138348688282025e+00 8.1717811796132667e-01 -4.5817634900907833e-01 -9.0725410097449166e-01 2.2343268713125064e+00 -1.5127278335277514e+00 5.4129718219031620e-01 -2.0724129726283160e+00 
        </Neuron>
        <Neuron NSynapses="17">
          8.3147813164296680e-01 -1.1402090335005395e+00 1.0884769722587975e-01 -1.9022908794289686e-01 2.5536478324340034e-01 -5.3696002343726934e-01 -6.4229643053317520e-01 7.8612916492489426e-01 3.8171784535482423e-01 8.6126333710480540e-01 9.8184144335001222e-01 -1.6711518226389410e+00 1.3981069820124845e+00 -1.8010384893594464e+00 1.0932236436380893e+00 1.0769984987870065e+00 1.2167948261227179e+00 
        </Neuron>
        <Neuron NSynapses="17">
          1.3871290187411320e+00 1.3914552065432066e+00 -1.9895303955951726e+00 -6.1600385059080232e-01 -1.0771291385973170e+00 5.7960323175189399e-01 7.7973751650999942e-02 -1.4163083754268460e-01 -6.1319003246585946e-01 -5.0255321705113765e-01 -1.0117249593817754e+00 -3.5298335253339613e-01 -1.7986529057391640e+00 -2.8696488506560192e-01 2.9641564022912892e-01 -7.2098226079182004e-01 -1.1626710169213981e+00 
        </Neuron>
        <Neuron NSynapses="17">
          9.2546886335139175e-02 2.1785787026023812e-01 -3.5283575640004899e-01 -1.2676440460302751e+00 1.9028083572452581e+00 -2.2815760391143003e-01 1.0312791542949520e+00 6.9642191650298468e-01 -1.0214124229589623e+00 -8.8914826395464486e-01 -3.3349167850717082e-01 -1.9292859945568333e+00 -7.1535330719155865e-01 -1.0245765993834142e+00 1.0668033098559497e+00 -1.8882879251793707e+00 1.1544967350926012e+00 
        </Neuron>
        <Neuron NSynapses="17">
          2.0339330869563055e+00 1.6302703693786600e+00 1.0598249125442551e+00 8.4728175301941699e-01 1.6993547462681353e-02 -7.6003078343427055e-01 -2.3063174950931717e+00 -1.0329155137073149e+00 -7.4604405405173047e-01 1.5016996834098513e+00 2.5766164916177481e-01 9.4846079240101647e-02 1.5116313259435834e+00 1.0143742899031090e+00 -1.2568909569094937e+00 2.3893826290826228e-01 -1.7276649280351679e+00 
        </Neuron>
        <Neuron NSynapses="17">
          6.8456075649936532e-01 -1.8711002016148690e+00 2.4040402665870994e-01 -4.8848513604950639e-01 8.3511219699863948e-01 -2.2069297263375511e+00 6.0464623976001763e-01 -1.6940152597914160e+00 3.9853400590890285e-02 1.3261386049209947e+00 -9.3794158727449806e-01 5.2600117658085788e-01 -1.6441183998594937e+00 1.1449294121292881e+00 -5.7092775872084522e-01 7.9961175536089613e-01 -2.1122936953952349e+00 
        </Neuron>
        <Neuron NSynapses="17">
          -8.5619303011914938e-01 2.0010549010945544e+00 -2.0593103920447451e+00 -1.1393935517009512e+00 -8.6170573264949246e-01 1.5092365507672520e+00 1.2644579308057731e+00 1.9796765574220454e+00 -1.9644314292489273e+00 8.2330071562177087e-01 7.6185102260436954e-01 3.0879092779202677e-01 -1.1540556939622089e+00 -1.4128637634255565e+00 3.6484722849071449e-01 -1.2880785599385483e-01 2.5441072591627703e+00 
        </Neuron>
      </Layer>
      <Layer Index="2" NNeurons="18">
        <Neuron NSynapses="1">
          4.9400004582571426e-02 
        </Neuron>
        <Neuron NSynapses="1">
          -3.8616202832943786e-02 
        </Neuron>
        <Neuron NSynapses="1">
          1.4823216014453852e-01 
        </Neuron>
        <Neuron NSynapses="1">
          -3.5140399729731590e-02 
        </Neuron>
        <Neuron NSynapses="1">
          -5.6591303280227094e-02 
        </Neuron>
        <Neuron NSynapses="1">
          -2.9490958807316697e-01 
        </Neuron>
        <Neuron NSynapses="1">
          -4.2555694874538037e-02 
        </Neuron>
        <Neuron NSynapses="1">
          -4.3740621494783188e-01 
        </Neuron>
        <Neuron NSynapses="1">
          9.7409211370487348e-03 
        </Neuron>
        <Neuron NSynapses="1">
          -5.3767182963019768e-03 
        </Neuron>
        <Neuron NSynapses="1">
          -1.1441320805547928e-03 
        </Neuron>
        <Neuron NSynapses="1">
          9.8636303022695618e-03 
        </Neuron>
        <Neuron NSynapses="1">
          4.0890899280425393e-02 
        </Neuron>
        <Neuron NSynapses="1">
          4.8136621346539642e-02 
        </Neuron>
        <Neuron NSynapses="1">
          4.1538754376941982e-02 
        </Neuron>
        <Neuron NSynapses="1">
          1.5859991608800035e-02 
        </Neuron>
        <Neuron NSynapses="1">
          1.2270485329815488e+00 
        </Neuron>
        <Neuron NSynapses="1">
          -1.2470480713923959e+00 
        </Neuron>
      </Layer>
      <Layer Index="3" NNeurons="1">
        <Neuron NSynapses="0"/>
      </Layer>
    </Layout>
  </Weights>
</MethodSetup>
